{"learner":{"attributes":{},"feature_names":["Pclass","Unnamed: 2","Age","SibSp","Parch","Fare","Sex_male","Cabin_A19","Cabin_A31","Cabin_A32","Cabin_A34","Cabin_A5","Cabin_A6","Cabin_A7","Cabin_B18","Cabin_B19","Cabin_B28","Cabin_B30","Cabin_B35","Cabin_B37","Cabin_B4","Cabin_B49","Cabin_B57 B59 B63 B66","Cabin_B58 B60","Cabin_B77","Cabin_B78","Cabin_B79","Cabin_B80","Cabin_B86","Cabin_B94","Cabin_B96 B98","Cabin_C103","Cabin_C104","Cabin_C106","Cabin_C110","Cabin_C111","Cabin_C118","Cabin_C123","Cabin_C124","Cabin_C125","Cabin_C128","Cabin_C2","Cabin_C22 C26","Cabin_C23 C25 C27","Cabin_C30","Cabin_C32","Cabin_C49","Cabin_C52","Cabin_C54","Cabin_C65","Cabin_C7","Cabin_C78","Cabin_C82","Cabin_C83","Cabin_C85","Cabin_C87","Cabin_C91","Cabin_C92","Cabin_C93","Cabin_C99","Cabin_D","Cabin_D10 D12","Cabin_D15","Cabin_D20","Cabin_D21","Cabin_D26","Cabin_D33","Cabin_D35","Cabin_D36","Cabin_D37","Cabin_D47","Cabin_D56","Cabin_D7","Cabin_E10","Cabin_E101","Cabin_E12","Cabin_E31","Cabin_E33","Cabin_E34","Cabin_E36","Cabin_E38","Cabin_E40","Cabin_E44","Cabin_E46","Cabin_E50","Cabin_E63","Cabin_E67","Cabin_F E69","Cabin_F G73","Cabin_F2","Cabin_F33","Cabin_F4","Cabin_G6","Cabin_T","Cabin_nan","Embarked_Q","Embarked_S","Embarked_nan"],"feature_types":["int","float","float","int","int","float","int","int","int","int","int","int","int","int","int","int","int","int","int","int","int","int","int","int","int","int","int","int","int","int","int","int","int","int","int","int","int","int","int","int","int","int","int","int","int","int","int","int","int","int","int","int","int","int","int","int","int","int","int","int","int","int","int","int","int","int","int","int","int","int","int","int","int","int","int","int","int","int","int","int","int","int","int","int","int","int","int","int","int","int","int","int","int","int","int","int","int","int"],"gradient_booster":{"model":{"gbtree_model_param":{"num_parallel_tree":"1","num_trees":"28"},"iteration_indptr":[0,2,4,6,8,10,12,14,16,18,20,22,24,26,28],"tree_info":[0,1,0,1,0,1,0,1,0,1,0,1,0,1,0,1,0,1,0,1,0,1,0,1,0,1,0,1],"trees":[{"base_weights":[2.3888889E-1,-4.6564886E-1,6.363636E-1,-8.309859E-1,-3.2258064E-2,8.535738E-2,6.9953054E-1,-2.6521742E-1,-1.2948659E-1,-4.3162197E-1,8.535738E-2,2.5607215E-2,1.1773319E-1,4.7619048E-1,2.2369942E-1,-1.2948659E-1,-1.731323E-1,-0E0,2.5607215E-2,1.1773319E-1,1.8327828E-1,-9.071314E-2,-5.1939692E-2,-5.1939692E-2,1.2803608E-2],"categories":[],"categories_nodes":[],"categories_segments":[],"categories_sizes":[],"default_left":[0,0,0,0,0,0,0,0,0,1,0,0,0,0,0,0,0,0,0,0,0,0,0,0,0],"id":0,"left_children":[1,3,5,7,9,11,13,-1,-1,15,17,-1,-1,19,-1,-1,21,23,-1,-1,-1,-1,-1,-1,-1],"loss_changes":[5.0702797E1,1.0344052E1,5.0987167E0,1.2138424E0,4.4744387E0,1.335325E0,7.422638E-1,0E0,0E0,6.193218E-1,1.4571786E-2,0E0,0E0,1.3288608E0,0E0,0E0,1.05600595E-1,3.6802948E-1,0E0,0E0,0E0,0E0,0E0,0E0,0E0],"parents":[2147483647,0,0,1,1,2,2,3,3,4,4,5,5,6,6,9,9,10,10,13,13,16,16,17,17],"right_children":[2,4,6,8,10,12,14,-1,-1,16,18,-1,-1,20,-1,-1,22,24,-1,-1,-1,-1,-1,-1,-1],"split_conditions":[1E0,3E0,1.3E1,1E0,1E0,3E0,1E0,-2.6521742E-1,-1.2948659E-1,1.45E1,7.775E0,2.5607215E-2,1.1773319E-1,3.9E1,2.2369942E-1,-1.2948659E-1,7.8958E0,2.3E1,2.5607215E-2,1.1773319E-1,1.8327828E-1,-9.071314E-2,-5.1939692E-2,-5.1939692E-2,1.2803608E-2],"split_indices":[6,0,2,42,96,3,94,0,0,2,5,0,0,2,0,0,5,2,0,0,0,0,0,0,0],"split_type":[0,0,0,0,0,0,0,0,0,0,0,0,0,0,0,0,0,0,0,0,0,0,0,0,0],"sum_hessian":[1.79E2,6.45E1,1.145E2,3.45E1,3E1,9E0,1.055E2,3.35E1,1E0,1.2E1,1.8E1,4.5E0,4.5E0,2E1,8.55E1,9.5E0,2.5E0,2E0,1.6E1,9.5E0,1.05E1,1E0,1.5E0,1E0,1E0],"tree_param":{"num_deleted":"0","num_feature":"98","num_nodes":"25","size_leaf_vector":"1"}},{"base_weights":[-2.3888889E-1,-5.652174E-1,-3.5714287E-2,-2.0357142E-1,-3.0046582E-1,-1.625E-1,2.7272728E-1,-1.468556E-1,-9.013975E-2,-3.0046582E-1,-9.2307694E-2,6.25E-2,4.4444445E-1,-9.013975E-2,-5.891603E-2,-1.2605043E-1,5.5113643E-2,1.6534094E-2,6.0000002E-2,7.604167E-2,1.846154E-1,-1.9638675E-1,-3.5468392E-2,-3.5468392E-2,1.6534094E-2,-5.891603E-2,-3.4778275E-2,-3.4778275E-2,-1.0640518E-2,-1.0640518E-2,-0E0],"categories":[],"categories_nodes":[],"categories_segments":[],"categories_sizes":[],"default_left":[0,0,0,0,0,0,0,0,0,0,0,0,0,0,0,0,0,0,0,0,0,0,1,0,0,0,0,0,0,0,0],"id":1,"left_children":[1,3,5,-1,7,9,11,-1,-1,13,15,17,19,-1,-1,21,23,-1,-1,-1,-1,25,27,29,-1,-1,-1,-1,-1,-1,-1],"loss_changes":[1.1914114E1,3.0792503E0,4.4241886E0,0E0,2.1788514E-1,1.203392E0,1.1635101E0,0E0,0E0,1.4307952E-1,5.37129E-1,4.8569694E-2,9.8203206E-1,0E0,0E0,1.0639181E0,1.8346508E-1,0E0,0E0,0E0,0E0,1.3733196E-1,3.6566988E-2,1.2580007E-3,0E0,0E0,0E0,0E0,0E0,0E0,0E0],"parents":[2147483647,0,0,1,1,2,2,4,4,5,5,6,6,9,9,10,10,11,11,12,12,15,15,16,16,21,21,22,22,23,23],"right_children":[2,4,6,-1,8,10,12,-1,-1,14,16,18,20,-1,-1,22,24,-1,-1,-1,-1,26,28,30,-1,-1,-1,-1,-1,-1,-1],"split_conditions":[1.05E1,1E0,5.25542E1,-2.0357142E-1,7.7333E0,2E0,3E1,-1.468556E-1,-9.013975E-2,1E0,1E0,2.62375E2,7.12833E1,-9.013975E-2,-5.891603E-2,1E0,4.1E1,1.6534094E-2,6.0000002E-2,7.604167E-2,1.846154E-1,2.415E1,-1E-5,5E0,1.6534094E-2,-5.891603E-2,-3.4778275E-2,-3.4778275E-2,-1.0640518E-2,-1.0640518E-2,-0E0],"split_indices":[5,95,5,0,5,0,2,0,0,3,95,5,5,0,0,4,2,0,0,0,0,5,2,2,0,0,0,0,0,0,0],"split_type":[0,0,0,0,0,0,0,0,0,0,0,0,0,0,0,0,0,0,0,0,0,0,0,0,0,0,0,0,0,0,0],"sum_hessian":[1.79E2,6.8E1,1.11E2,5.5E1,1.3E1,7.9E1,3.2E1,2E0,1.1E1,1.5E1,6.4E1,1.5E1,1.7E1,1.35E1,1.5E0,5.85E1,5.5E0,1.35E1,1.5E0,5E0,1.2E1,3.5E1,2.35E1,2E0,3.5E0,2.9E1,6E0,2.5E0,2.1E1,1E0,1E0],"tree_param":{"num_deleted":"0","num_feature":"98","num_nodes":"31","size_leaf_vector":"1"}},{"base_weights":[1.7169622E-1,-4.0695354E-1,5.021263E-1,-7.044185E-1,-5.9672467E-2,4.7586367E-2,5.5889446E-1,-2.2561057E-1,-1.14613645E-1,-3.8204548E-1,4.7586367E-2,1.427591E-2,9.0972126E-2,4.899951E-1,2.0642802E-1,-1.14613645E-1,-5.0168872E-2,-1.8450486E-2,1.427591E-2,3.0324042E-1,5.6253195E-1,9.0972126E-2,1.2986585E-1,1.2986585E-1,1.7671327E-1],"categories":[],"categories_nodes":[],"categories_segments":[],"categories_sizes":[],"default_left":[0,0,0,0,0,0,0,0,0,1,0,0,0,0,0,0,0,0,0,0,0,0,0,0,0],"id":2,"left_children":[1,3,5,7,9,11,13,-1,-1,15,17,-1,-1,19,-1,-1,-1,-1,-1,21,23,-1,-1,-1,-1],"loss_changes":[3.3867146E1,6.6257553E0,3.8191357E0,5.9746933E-1,3.50563E0,1.1481916E0,5.8444977E-1,0E0,0E0,4.8486567E-1,3.322974E-2,0E0,0E0,1.3379307E0,0E0,0E0,0E0,0E0,0E0,1.6188478E-1,1.8713379E-1,0E0,0E0,0E0,0E0],"parents":[2147483647,0,0,1,1,2,2,3,3,4,4,5,5,6,6,9,9,10,10,13,13,19,19,20,20],"right_children":[2,4,6,8,10,12,14,-1,-1,16,18,-1,-1,20,-1,-1,-1,-1,-1,22,24,-1,-1,-1,-1],"split_conditions":[1E0,3E0,1.3E1,1.5155E2,1E0,3E0,4.9E1,-2.2561057E-1,-1.14613645E-1,1.45E1,7.775E0,1.427591E-2,9.0972126E-2,1E0,2.0642802E-1,-1.14613645E-1,-5.0168872E-2,-1.8450486E-2,1.427591E-2,6.66E1,7.8E0,9.0972126E-2,1.2986585E-1,1.2986585E-1,1.7671327E-1],"split_indices":[6,0,2,5,96,3,2,0,0,2,5,0,0,94,0,0,0,0,0,5,5,0,0,0,0],"split_type":[0,0,0,0,0,0,0,0,0,0,0,0,0,0,0,0,0,0,0,0,0,0,0,0,0],"sum_hessian":[1.750577E2,6.3545353E1,1.1151234E2,3.3673664E1,2.9871687E1,8.979613E0,1.0253272E2,3.0753887E1,2.9197772E0,1.1981267E1,1.7890419E1,4.498102E0,4.481511E0,6.999713E1,3.2535595E1,9.481492E0,2.4997747E0,1.98266E0,1.590776E1,1.2898754E1,5.7098373E1,7.4079566E0,5.490798E0,1.1493988E1,4.5604385E1],"tree_param":{"num_deleted":"0","num_feature":"98","num_nodes":"25","size_leaf_vector":"1"}},{"base_weights":[-1.7169623E-1,-4.1037798E-1,-2.5939515E-2,-5.088089E-1,-2.1815875E-1,-1.19598955E-1,2.0374317E-1,-1.8656185E-1,-1.328715E-1,-1.09045155E-1,-6.544763E-2,-2.1815875E-1,-6.479268E-2,4.2112842E-2,3.383571E-1,-6.544763E-2,-4.2442713E-2,-9.528067E-2,4.207211E-2,1.2621634E-2,4.2841036E-2,5.707049E-2,1.427185E-1,-1.414757E-1,-2.660428E-2,-7.9812845E-3,1.2621634E-2,-4.2442713E-2,-2.5212E-2,-2.5212E-2,-7.9812845E-3],"categories":[],"categories_nodes":[],"categories_segments":[],"categories_sizes":[],"default_left":[0,0,0,0,0,0,0,0,0,0,0,0,0,0,0,0,0,0,0,0,0,0,0,0,1,0,0,0,0,0,0],"id":3,"left_children":[1,3,5,7,9,11,13,-1,-1,-1,-1,15,17,19,21,-1,-1,23,25,-1,-1,-1,-1,27,29,-1,-1,-1,-1,-1,-1],"loss_changes":[6.1143064E0,2.0396767E0,2.3987346E0,1.2600231E-1,1.7931229E-1,6.9727314E-1,6.894157E-1,0E0,0E0,0E0,0E0,9.247172E-2,3.7423128E-1,2.332905E-2,6.0339165E-1,0E0,0E0,7.093931E-1,1.3134971E-1,0E0,0E0,0E0,0E0,7.425964E-2,2.4689019E-2,0E0,0E0,0E0,0E0,0E0,0E0],"parents":[2147483647,0,0,1,1,2,2,3,3,4,4,5,5,6,6,11,11,12,12,13,13,14,14,17,17,18,18,23,23,24,24],"right_children":[2,4,6,8,10,12,14,-1,-1,-1,-1,16,18,20,22,-1,-1,24,26,-1,-1,-1,-1,28,30,-1,-1,-1,-1,-1,-1],"split_conditions":[1.05E1,1E0,5.25542E1,2.4E1,7.7333E0,2E0,3E1,-1.8656185E-1,-1.328715E-1,-1.09045155E-1,-6.544763E-2,1E0,1E0,2.62375E2,7.12833E1,-6.544763E-2,-4.2442713E-2,1E0,4.1E1,1.2621634E-2,4.2841036E-2,5.707049E-2,1.427185E-1,2.415E1,-1E-5,-7.9812845E-3,1.2621634E-2,-4.2442713E-2,-2.5212E-2,-2.5212E-2,-7.9812845E-3],"split_indices":[5,95,5,2,5,0,2,0,0,0,0,3,95,5,5,0,0,4,2,0,0,0,0,5,2,0,0,0,0,0,0],"split_type":[0,0,0,0,0,0,0,0,0,0,0,0,0,0,0,0,0,0,0,0,0,0,0,0,0,0,0,0,0,0,0],"sum_hessian":[1.7505768E2,6.5683365E1,1.0937432E2,5.2873535E1,1.2809825E1,7.8033356E1,3.1340963E1,1.6363863E1,3.6509674E1,1.9328856E0,1.087694E1,1.4725324E1,6.3308033E1,1.4837948E1,1.6503016E1,1.3245741E1,1.4795824E0,5.785811E1,5.449928E0,1.33643465E1,1.4736012E0,4.9444942E0,1.1558521E1,3.45027E1,2.3355404E1,1.9809974E0,3.4689305E0,2.8591734E1,5.910968E0,2.4892547E0,2.086615E1],"tree_param":{"num_deleted":"0","num_feature":"98","num_nodes":"31","size_leaf_vector":"1"}},{"base_weights":[1.2512511E-1,-3.6428538E-1,4.1120428E-1,-6.211839E-1,-7.6133594E-2,2.345945E-2,4.656449E-1,-2.0088221E-1,-1.0459763E-1,-3.4865874E-1,2.345945E-2,7.037835E-3,7.336565E-2,4.2598373E-1,2.2003454E-1,-1.0459763E-1,-4.8779897E-2,-3.281162E-2,2.345945E-2,2.4455217E-1,4.7547862E-1,1.951845E-3,7.037835E-3,2.4455217E-1,1.0800462E-1,3.600154E-1,1.5340838E-1,7.336565E-2,9.068513E-2,1.0800462E-1,1.307065E-1],"categories":[],"categories_nodes":[],"categories_segments":[],"categories_sizes":[],"default_left":[0,0,0,0,0,0,1,0,0,1,0,0,0,0,0,0,0,0,0,0,0,0,0,0,0,0,0,0,0,0,0],"id":4,"left_children":[1,3,5,7,9,11,13,-1,-1,15,17,-1,-1,19,-1,-1,-1,-1,21,23,25,-1,-1,27,-1,29,-1,-1,-1,-1,-1],"loss_changes":[2.3678125E1,4.581028E0,3.0649242E0,5.348568E-1,2.8364928E0,9.994067E-1,7.240715E-1,0E0,0E0,4.025092E-1,5.146487E-2,0E0,0E0,9.961195E-1,0E0,0E0,0E0,0E0,4.2928755E-4,2.2460777E-1,1.595707E-1,0E0,0E0,4.0580034E-3,0E0,5.129862E-2,0E0,0E0,0E0,0E0,0E0],"parents":[2147483647,0,0,1,1,2,2,3,3,4,4,5,5,6,6,9,9,10,10,13,13,18,18,19,19,20,20,23,23,25,25],"right_children":[2,4,6,8,10,12,14,-1,-1,16,18,-1,-1,20,-1,-1,-1,-1,22,24,26,-1,-1,28,-1,30,-1,-1,-1,-1,-1],"split_conditions":[1E0,3E0,1.3E1,1.5155E2,1E0,3E0,5E1,-2.0088221E-1,-1.0459763E-1,1.45E1,7.775E0,7.037835E-3,7.336565E-2,1E0,2.2003454E-1,-1.0459763E-1,-4.8779897E-2,-3.281162E-2,8.05E0,6.66E1,7.8E0,1.951845E-3,7.037835E-3,3.8E1,1.0800462E-1,3E1,1.5340838E-1,7.336565E-2,9.068513E-2,1.0800462E-1,1.307065E-1],"split_indices":[6,0,2,5,96,3,2,0,0,2,5,0,0,94,0,0,0,0,5,5,5,0,0,2,0,2,0,0,0,0,0],"split_type":[0,0,0,0,0,0,0,0,0,0,0,0,0,0,0,0,0,0,0,0,0,0,0,0,0,0,0,0,0,0,0],"sum_hessian":[1.6704729E2,6.152312E1,1.0552417E2,3.1914423E1,2.9608696E1,8.93728E0,9.658689E1,2.9104208E1,2.8102152E0,1.1932001E1,1.7676695E1,4.4949203E0,4.44236E0,8.638422E1,1.0202674E1,9.432925E0,2.4990754E0,1.9480052E0,1.572869E1,1.36432085E1,7.274101E1,2.4084077E0,1.3320282E1,8.182961E0,5.4602466E0,1.8196455E1,5.4544556E1,4.867318E0,3.3156438E0,7.9945855E0,1.020187E1],"tree_param":{"num_deleted":"0","num_feature":"98","num_nodes":"31","size_leaf_vector":"1"}},{"base_weights":[-1.251251E-1,-3.0773947E-1,-1.7591525E-2,-4.007155E-1,-1.626655E-1,-8.9213155E-2,1.6063654E-1,-1.5594992E-1,-3.3436233E-1,-8.450715E-2,-4.8799653E-2,-1.4233911E-1,1.7303571E-2,4.979016E-2,2.9528219E-1,-1.281293E-1,-8.824914E-2,-1.626655E-1,-1.8755332E-2,-1.8755332E-2,3.5711695E-2,3.5711695E-2,9.220505E-2,5.1760852E-2,1.214486E-1,-4.8799653E-2,-1.3336638E-1,-4.0209116E-3,1.0713508E-2,1.0713508E-2,1.9187512E-2,6.395837E-2,5.1760852E-2,-4.4404786E-2,-3.3777494E-2,1.9187512E-2,3.547418E-2],"categories":[],"categories_nodes":[],"categories_segments":[],"categories_sizes":[],"default_left":[0,0,0,0,0,0,1,0,0,0,0,0,1,0,0,0,0,0,0,0,0,1,0,0,0,0,1,0,0,0,0,0,0,0,0,0,0],"id":5,"left_children":[1,3,5,7,9,11,13,-1,15,-1,-1,17,19,21,23,-1,-1,25,-1,-1,27,29,31,-1,-1,-1,33,-1,-1,-1,-1,35,-1,-1,-1,-1,-1],"loss_changes":[3.2945611E0,1.487432E0,1.3779738E0,2.1998978E-1,1.4884877E-1,4.3732458E-1,4.476726E-1,0E0,3.9580345E-2,0E0,0E0,5.989268E-1,1.0503184E-1,3.3141177E-2,1.3250875E-1,0E0,0E0,6.574273E-3,0E0,0E0,1.389617E-1,7.524517E-2,1.2744701E-1,0E0,0E0,0E0,1.3845283E-1,0E0,0E0,0E0,0E0,4.1310027E-2,0E0,0E0,0E0,0E0,0E0],"parents":[2147483647,0,0,1,1,2,2,3,3,4,4,5,5,6,6,8,8,11,11,12,12,13,13,14,14,17,17,20,20,21,21,22,22,26,26,31,31],"right_children":[2,4,6,8,10,12,14,-1,16,-1,-1,18,20,22,24,-1,-1,26,-1,-1,28,30,32,-1,-1,-1,34,-1,-1,-1,-1,36,-1,-1,-1,-1,-1],"split_conditions":[1.05E1,1E0,5.25542E1,2.4E1,7.7333E0,1E0,3E1,-1.5594992E-1,7.125E0,-8.450715E-2,-4.8799653E-2,1E0,3E0,7.82667E1,8.65E1,-1.281293E-1,-8.824914E-2,1E0,-1.8755332E-2,-1.8755332E-2,1E0,2.2E1,2.9E1,5.1760852E-2,1.214486E-1,-4.8799653E-2,2.8E1,-4.0209116E-3,1.0713508E-2,1.0713508E-2,1.9187512E-2,1E0,5.1760852E-2,-4.4404786E-2,-3.3777494E-2,1.9187512E-2,3.547418E-2],"split_indices":[5,95,5,2,5,4,2,0,5,0,0,95,2,5,5,0,0,96,0,0,96,2,2,0,0,0,2,0,0,0,0,96,0,0,0,0,0],"split_type":[0,0,0,0,0,0,0,0,0,0,0,0,0,0,0,0,0,0,0,0,0,0,0,0,0,0,0,0,0,0,0,0,0,0,0,0,0],"sum_hessian":[1.6704729E2,6.1220448E1,1.0582684E2,4.8823967E1,1.2396482E1,7.584692E1,2.9979929E1,1.5022024E1,3.380194E1,1.7927852E0,1.0603698E1,5.0382156E1,2.5464758E1,1.719446E1,1.2785469E1,5.303231E0,2.849871E1,4.651855E1,3.863606E0,6.923684E0,1.8541073E1,6.280718E0,1.0913742E1,6.9289293E0,5.8565397E0,9.03699E0,3.748156E1,2.4293463E0,1.6111727E1,2.8929956E0,3.387722E0,9.639199E0,1.2745423E0,1.1883514E1,2.5598045E1,5.2852964E0,4.3539033E0],"tree_param":{"num_deleted":"0","num_feature":"98","num_nodes":"37","size_leaf_vector":"1"}},{"base_weights":[9.048432E-2,-3.2890958E-1,3.4219015E-1,-5.5884767E-1,-8.4185794E-2,6.6402853E-3,3.954872E-1,-1.8293378E-1,-9.645502E-2,-3.2151672E-1,6.6402853E-3,1.9920857E-3,6.0319122E-2,3.5533828E-1,2.016834E-1,-9.645502E-2,-4.723147E-2,-4.203941E-2,6.6402853E-3,2.0106374E-1,4.0203342E-1,-9.045431E-3,1.9920857E-3,2.0106374E-1,9.046458E-2,3.0154857E-1,4.411393E-1,6.0319122E-2,7.5391844E-2,9.046458E-2,1.1140319E-1,1.16234705E-1,1.5414244E-1],"categories":[],"categories_nodes":[],"categories_segments":[],"categories_sizes":[],"default_left":[0,0,0,0,0,0,1,0,0,1,0,0,0,0,0,0,0,0,0,0,0,0,0,0,0,0,0,0,0,0,0,0,0],"id":6,"left_children":[1,3,5,7,9,11,13,-1,-1,15,17,-1,-1,19,-1,-1,-1,-1,21,23,25,-1,-1,27,-1,29,31,-1,-1,-1,-1,-1,-1],"loss_changes":[1.6909199E1,3.339799E0,2.513836E0,4.998665E-1,2.3626838E0,8.7843853E-1,7.7278805E-1,0E0,0E0,3.438022E-1,6.277509E-2,0E0,0E0,7.7231693E-1,0E0,0E0,0E0,0E0,4.496224E-3,2.440983E-1,2.2458267E-1,0E0,0E0,1.7389774E-2,0E0,5.889094E-2,8.565521E-2,0E0,0E0,0E0,0E0,0E0,0E0],"parents":[2147483647,0,0,1,1,2,2,3,3,4,4,5,5,6,6,9,9,10,10,13,13,18,18,19,19,20,20,23,23,25,25,26,26],"right_children":[2,4,6,8,10,12,14,-1,-1,16,18,-1,-1,20,-1,-1,-1,-1,22,24,26,-1,-1,28,-1,30,32,-1,-1,-1,-1,-1,-1],"split_conditions":[1E0,3E0,1.3E1,1.5155E2,1E0,3E0,5E1,-1.8293378E-1,-9.645502E-2,1.45E1,7.775E0,1.9920857E-3,6.0319122E-2,1E0,2.016834E-1,-9.645502E-2,-4.723147E-2,-4.203941E-2,8.05E0,6.66E1,7.8E0,-9.045431E-3,1.9920857E-3,3.8E1,9.046458E-2,3E1,1E0,6.0319122E-2,7.5391844E-2,9.046458E-2,1.1140319E-1,1.16234705E-1,1.5414244E-1],"split_indices":[6,0,2,5,96,3,2,0,0,2,5,0,0,94,0,0,0,0,5,5,5,0,0,2,0,2,3,0,0,0,0,0,0],"split_type":[0,0,0,0,0,0,0,0,0,0,0,0,0,0,0,0,0,0,0,0,0,0,0,0,0,0,0,0,0,0,0,0,0],"sum_hessian":[1.5811359E2,5.918779E1,9.8925804E1,2.9853958E1,2.9333832E1,8.889274E0,9.003653E1,2.7173903E1,2.6800559E0,1.18703785E1,1.7463453E1,4.4923325E0,4.396941E0,8.062547E1,9.411061E0,9.372483E0,2.4978955E0,1.9161375E0,1.5547315E1,1.3401618E1,6.7223854E1,2.3541718E0,1.3193143E1,7.9803033E0,5.4213142E0,1.6678905E1,5.0544945E1,4.7782817E0,3.2020216E0,7.3171773E0,9.361729E0,3.7946903E1,1.25980425E1],"tree_param":{"num_deleted":"0","num_feature":"98","num_nodes":"33","size_leaf_vector":"1"}},{"base_weights":[-9.0484336E-2,-2.3157701E-1,-1.0415272E-2,-3.2075915E-1,-1.2099614E-1,-6.63718E-2,1.307312E-1,-1.3360707E-1,-2.5436413E-1,-6.6263296E-2,-3.6298845E-2,-9.1498755E-2,3.21797E-2,3.21797E-2,2.5583535E-1,-1.04958154E-1,-6.6263296E-2,-1.2099614E-1,-2.9659528E-2,-8.897859E-3,9.65391E-3,3.21797E-2,3.1945746E-2,4.3202262E-2,1.05739616E-1,-3.6298845E-2,-9.491913E-2,-2.2598352E-2,-8.897859E-3,9.65391E-3,6.9332756E-2,-3.238729E-2,-2.2598352E-2,1.5226869E-2,2.0799827E-2],"categories":[],"categories_nodes":[],"categories_segments":[],"categories_sizes":[],"default_left":[0,0,0,0,0,0,1,0,0,0,0,0,0,0,0,0,0,1,1,0,0,0,0,0,0,0,0,0,0,0,0,0,0,0,0],"id":7,"left_children":[1,3,5,7,9,11,13,-1,15,-1,-1,17,19,21,23,-1,-1,25,27,-1,-1,29,-1,-1,-1,-1,31,-1,-1,-1,33,-1,-1,-1,-1],"loss_changes":[1.7951195E0,1.1009381E0,8.186664E-1,2.6389408E-1,1.2945324E-1,3.3338758E-1,3.5887164E-1,0E0,8.411384E-2,0E0,0E0,5.5539596E-1,1.0674171E-1,1.224532E-2,9.4781995E-2,0E0,0E0,9.634733E-3,1.1260502E-2,0E0,0E0,6.852841E-3,0E0,0E0,0E0,0E0,1.0004476E-1,0E0,0E0,0E0,1.8367521E-2,0E0,0E0,0E0,0E0],"parents":[2147483647,0,0,1,1,2,2,3,3,4,4,5,5,6,6,8,8,11,11,12,12,13,13,14,14,17,17,18,18,21,21,26,26,30,30],"right_children":[2,4,6,8,10,12,14,-1,16,-1,-1,18,20,22,24,-1,-1,26,28,-1,-1,30,-1,-1,-1,-1,32,-1,-1,-1,34,-1,-1,-1,-1],"split_conditions":[1.05E1,1E0,5.25542E1,2.4E1,7.7333E0,1E0,3E1,-1.3360707E-1,7.125E0,-6.6263296E-2,-3.6298845E-2,1E0,4.1E1,2.62375E2,8.65E1,-1.04958154E-1,-6.6263296E-2,1.9E1,-1E-5,-8.897859E-3,9.65391E-3,3E1,3.1945746E-2,4.3202262E-2,1.05739616E-1,-3.6298845E-2,1E0,-2.2598352E-2,-8.897859E-3,9.65391E-3,7.12833E1,-3.238729E-2,-2.2598352E-2,1.5226869E-2,2.0799827E-2],"split_indices":[5,95,5,2,5,95,2,0,5,0,0,4,2,5,5,0,0,2,2,0,0,2,0,0,0,0,96,0,0,0,5,0,0,0,0],"split_type":[0,0,0,0,0,0,0,0,0,0,0,0,0,0,0,0,0,0,0,0,0,0,0,0,0,0,0,0,0,0,0,0,0,0,0],"sum_hessian":[1.581136E2,5.6558155E1,1.0155544E2,4.4593143E1,1.1965011E1,7.3103745E1,2.8451698E1,1.3517796E1,3.1075348E1,1.6598532E0,1.0305157E1,6.791496E1,5.1887803E0,1.6538265E1,1.1913432E1,4.785677E0,2.628967E1,4.4363224E1,2.3551737E1,1.8866105E0,3.3021698E0,1.5132924E1,1.4053417E0,6.538775E0,5.3746576E0,9.66527E0,3.4697956E1,2.434039E0,2.1117697E1,1.2617191E1,2.5157328E0,4.421607E0,3.0276348E1,1.375148E0,1.1405847E0],"tree_param":{"num_deleted":"0","num_feature":"98","num_nodes":"35","size_leaf_vector":"1"}},{"base_weights":[6.432042E-2,-2.9767787E-1,2.8659052E-1,-5.07965E-1,-8.688028E-2,-5.543679E-3,3.3974957E-1,-1.6862588E-1,-8.92268E-2,-2.9742265E-1,-5.543679E-3,-1.6631038E-3,5.0130885E-2,2.9913464E-1,1.8838097E-1,-8.92268E-2,-4.544495E-2,-1.3707429E-1,-1.6631038E-3,1.6710295E-1,3.439101E-1,-4.544495E-2,-2.1392696E-2,1.6710295E-1,7.665196E-2,2.5550652E-1,3.8674256E-1,5.0130885E-2,6.339142E-2,7.665196E-2,9.633737E-2,9.930788E-2,1.3906069E-1],"categories":[],"categories_nodes":[],"categories_segments":[],"categories_sizes":[],"default_left":[0,0,0,0,0,0,1,0,0,1,1,0,0,0,0,0,0,0,0,0,0,0,0,0,0,0,0,0,0,0,0,0,0],"id":8,"left_children":[1,3,5,7,9,11,13,-1,-1,15,17,-1,-1,19,-1,-1,-1,21,-1,23,25,-1,-1,27,-1,29,31,-1,-1,-1,-1,-1,-1],"loss_changes":[1.2197779E1,2.5161977E0,2.1242661E0,4.7157907E-1,2.0695167E0,7.722201E-1,8.064003E-1,0E0,0E0,1.1135316E-1,1.2598974E-1,0E0,0E0,6.164932E-1,0E0,0E0,0E0,2.4253163E-1,0E0,2.461184E-1,2.6611376E-1,0E0,0E0,2.425164E-2,0E0,6.203723E-2,1.3585281E-1,0E0,0E0,0E0,0E0,0E0,0E0],"parents":[2147483647,0,0,1,1,2,2,3,3,4,4,5,5,6,6,9,9,10,10,13,13,17,17,19,19,20,20,23,23,25,25,26,26],"right_children":[2,4,6,8,10,12,14,-1,-1,16,18,-1,-1,20,-1,-1,-1,22,-1,24,26,-1,-1,28,-1,30,32,-1,-1,-1,-1,-1,-1],"split_conditions":[1E0,3E0,1.3E1,1.5155E2,8.05E0,3E0,5E1,-1.6862588E-1,-8.92268E-2,2.7E1,2E0,-1.6631038E-3,5.0130885E-2,1E0,1.8838097E-1,-8.92268E-2,-4.544495E-2,3E0,-1.6631038E-3,6.66E1,7.8E0,-4.544495E-2,-2.1392696E-2,3.8E1,7.665196E-2,3E1,1E0,5.0130885E-2,6.339142E-2,7.665196E-2,9.633737E-2,9.930788E-2,1.3906069E-1],"split_indices":[6,0,2,5,5,3,2,0,0,2,2,0,0,94,0,0,0,3,0,5,5,0,0,2,0,2,3,0,0,0,0,0,0],"split_type":[0,0,0,0,0,0,0,0,0,0,0,0,0,0,0,0,0,0,0,0,0,0,0,0,0,0,0,0,0,0,0,0,0],"sum_hessian":[1.495376E2,5.6758728E1,9.277887E1,2.7708042E1,2.9050684E1,8.835254E0,8.394362E1,2.5162682E1,2.5453608E0,1.0649166E1,1.8401518E1,4.4891496E0,4.346104E0,7.536081E1,8.5828085E0,9.235208E0,1.4139585E0,6.2842937E0,1.2117225E1,1.3164464E1,6.2196346E1,4.7927284E0,1.4915653E0,7.7889776E0,5.3754864E0,1.5278234E1,4.6918114E1,4.693817E0,3.0951602E0,6.688877E0,8.589356E0,3.5067463E1,1.1850651E1],"tree_param":{"num_deleted":"0","num_feature":"98","num_nodes":"33","size_leaf_vector":"1"}},{"base_weights":[-6.432042E-2,-1.5192401E-1,1.9223131E-2,-2.1870114E-1,-6.6350445E-2,-2.9893428E-2,1.0833691E-1,-2.8465635E-1,-1.452494E-1,-4.275774E-2,-1.9905135E-2,-6.6350445E-2,1.3215918E-2,3.922174E-2,2.2548443E-1,-3.1083798E-1,-6.448586E-2,-6.448586E-2,-1.4252579E-1,-1.9905135E-2,-2.6567264E-2,-2.6567264E-2,3.922174E-2,1.1766523E-2,2.7054176E-2,3.9705925E-2,9.333739E-2,-1.3734432E-1,-8.420828E-2,-5.3621802E-2,-4.275774E-2,-1.3937657E-2,-7.970179E-3,-2.6567264E-2,-7.5905076E-3,6.327239E-3,1.1766523E-2,-7.970179E-3,-5.123666E-3,-5.123666E-3,1.8981717E-3,1.8981717E-3,6.8323473E-3],"categories":[],"categories_nodes":[],"categories_segments":[],"categories_sizes":[],"default_left":[0,0,0,1,0,0,1,0,0,0,0,0,0,0,0,0,0,0,0,0,1,0,0,0,0,0,0,0,0,0,0,0,0,0,0,0,0,0,0,0,0,0,0],"id":9,"left_children":[1,3,5,7,9,11,13,15,17,-1,-1,19,21,23,25,27,-1,-1,29,-1,31,33,35,-1,-1,-1,-1,-1,-1,-1,-1,-1,-1,37,39,41,-1,-1,-1,-1,-1,-1,-1],"loss_changes":[1.1046621E0,8.776187E-1,3.4438792E-1,2.5523353E-1,1.134173E-1,1.7155431E-1,2.8312713E-1,7.37102E-2,1.4966607E-1,0E0,0E0,5.6738853E-2,1.8163033E-1,4.6014376E-3,6.677717E-2,2.359867E-3,0E0,0E0,4.907903E-2,0E0,2.8723728E-2,5.49173E-3,5.3647757E-3,0E0,0E0,0E0,0E0,0E0,0E0,0E0,0E0,0E0,0E0,3.5101697E-3,2.2038471E-2,3.137596E-3,0E0,0E0,0E0,0E0,0E0,0E0,0E0],"parents":[2147483647,0,0,1,1,2,2,3,3,4,4,5,5,6,6,7,7,8,8,11,11,12,12,13,13,14,14,15,15,18,18,20,20,21,21,22,22,33,33,34,34,35,35],"right_children":[2,4,6,8,10,12,14,16,18,-1,-1,20,22,24,26,28,-1,-1,30,-1,32,34,36,-1,-1,-1,-1,-1,-1,-1,-1,-1,-1,38,40,42,-1,-1,-1,-1,-1,-1,-1],"split_conditions":[1.52458E1,1E0,5.25542E1,2.5E1,7.7333E0,2E0,3E1,1E0,7.775E0,-4.275774E-2,-1.9905135E-2,1E0,4.7E1,2.62375E2,8.65E1,7.1417E0,-6.448586E-2,-6.448586E-2,1E0,-1.9905135E-2,1.9E1,1.9E1,1E0,1.1766523E-2,2.7054176E-2,3.9705925E-2,9.333739E-2,-1.3734432E-1,-8.420828E-2,-5.3621802E-2,-4.275774E-2,-1.3937657E-2,-7.970179E-3,1E0,3E0,1E0,1.1766523E-2,-7.970179E-3,-5.123666E-3,-5.123666E-3,1.8981717E-3,1.8981717E-3,6.8323473E-3],"split_indices":[5,95,5,2,5,0,2,4,5,0,0,96,2,5,5,5,0,0,96,0,2,2,95,0,0,0,0,0,0,0,0,0,0,4,0,6,0,0,0,0,0,0,0],"split_type":[0,0,0,0,0,0,0,0,0,0,0,0,0,0,0,0,0,0,0,0,0,0,0,0,0,0,0,0,0,0,0,0,0,0,0,0,0,0,0,0,0,0,0],"sum_hessian":[1.495376E2,7.259556E1,7.694204E1,6.0219486E1,1.2376074E1,5.00311E1,2.6910936E1,3.021386E1,3.0005627E1,1.5367198E0,1.0839354E1,1.25237055E1,3.7507397E1,1.5862861E1,1.1048077E1,2.8537928E1,1.6759317E0,4.7716603E0,2.5233967E1,3.266905E0,9.256801E0,3.0605846E1,6.9015503E0,1.44985E1,1.3643608E0,6.1407795E0,4.9072967E0,2.4422338E0,2.6095694E1,1.6900617E0,2.3543903E1,2.1121104E0,7.1446905E0,1.4396046E1,1.62098E1,4.1244235E0,2.7771268E0,1.3995056E0,1.299654E1,1.0724121E1,5.485679E0,2.8886895E0,1.235734E0],"tree_param":{"num_deleted":"0","num_feature":"98","num_nodes":"43","size_leaf_vector":"1"}},{"base_weights":[4.3665167E-2,-2.676167E-1,2.391353E-1,-5.1362556E-1,-1.1423277E-1,-1.4240697E-2,2.9226956E-1,-1.9648106E-1,-3.8466263E-1,-3.1392917E-1,-1.4240697E-2,-4.2722095E-3,4.1704327E-2,2.5124946E-1,1.7810604E-1,-1.5593992E-1,-9.417876E-2,-9.417876E-2,-4.9225483E-2,-4.82008E-2,-1.4240697E-2,2.0815551E-1,1.2674044E-1,-1.43419625E-2,-4.2722095E-3,1.3901442E-1,2.7291834E-1,4.1704327E-2,6.178992E-2,6.178992E-2,9.457355E-2],"categories":[],"categories_nodes":[],"categories_segments":[],"categories_sizes":[],"default_left":[0,0,0,0,0,0,1,0,0,0,0,0,0,0,0,0,0,0,0,0,0,0,0,0,0,0,0,0,0,0,0],"id":10,"left_children":[1,3,5,7,9,11,13,-1,15,17,19,-1,-1,21,-1,-1,-1,-1,-1,-1,23,25,-1,-1,-1,27,29,-1,-1,-1,-1],"loss_changes":[8.751637E0,2.0373135E0,1.7996306E0,1.3161612E-1,2.045376E0,6.7974627E-1,8.331895E-1,0E0,3.063457E-1,3.692093E-1,6.1777882E-2,0E0,0E0,6.464591E-1,0E0,0E0,0E0,0E0,0E0,0E0,3.5405904E-3,6.816292E-1,0E0,0E0,0E0,5.5979192E-2,2.0817375E-1,0E0,0E0,0E0,0E0],"parents":[2147483647,0,0,1,1,2,2,3,3,4,4,5,5,6,6,8,8,9,9,10,10,13,13,20,20,21,21,25,25,26,26],"right_children":[2,4,6,8,10,12,14,-1,16,18,20,-1,-1,22,-1,-1,-1,-1,-1,-1,24,26,-1,-1,-1,28,30,-1,-1,-1,-1],"split_conditions":[1E0,1E0,1.3E1,1.2525E1,3E0,3E0,5E1,-1.9648106E-1,3E0,1.5155E2,7.775E0,-4.2722095E-3,4.1704327E-2,6.66E1,1.7810604E-1,-1.5593992E-1,-9.417876E-2,-9.417876E-2,-4.9225483E-2,-4.82008E-2,8.05E0,1E0,1.2674044E-1,-1.43419625E-2,-4.2722095E-3,3.8E1,7.8E0,4.1704327E-2,6.178992E-2,6.178992E-2,9.457355E-2],"split_indices":[6,96,2,5,0,3,2,0,0,5,5,0,0,5,0,0,0,0,0,0,5,94,0,0,0,2,5,0,0,0,0],"split_type":[0,0,0,0,0,0,0,0,0,0,0,0,0,0,0,0,0,0,0,0,0,0,0,0,0,0,0,0,0,0,0],"sum_hessian":[1.4178009E2,5.4546658E1,8.723344E1,2.0046278E1,3.450038E1,8.781792E0,7.8451645E1,7.6191225E0,1.24271555E1,1.7289995E1,1.7210384E1,4.4829965E0,4.298795E0,7.066795E1,7.7836943E0,7.1318946E0,5.2952604E0,1.59637785E1,1.3262167E0,1.8907087E0,1.5319676E1,6.270457E1,7.963382E0,2.322537E0,1.2997139E1,7.6265597E0,5.507801E1,4.6137304E0,3.0128293E0,1.4043523E1,4.103449E1],"tree_param":{"num_deleted":"0","num_feature":"98","num_nodes":"31","size_leaf_vector":"1"}},{"base_weights":[-4.3665163E-2,-1.1791817E-1,-2.5858201E-2,-5.598082E-2,1.8913536E-1,-1.512516E-1,1.5977217E-2,1.9973181E-2,2.8581738E-1,-2.0910987E-1,-8.626235E-2,-6.763719E-2,5.364232E-2,5.28592E-2,1.6069672E-1,-6.283782E-2,-4.4305835E-2,-4.4305835E-2,-6.763719E-2,-2.0291157E-2,-2.0992304E-3,9.061584E-3,6.657727E-2,-3.2298498E-2,-2.0291157E-2,-2.0992304E-3,1.1345828E-2,1.1345828E-2,1.9973181E-2],"categories":[],"categories_nodes":[],"categories_segments":[],"categories_sizes":[],"default_left":[0,0,0,0,0,1,1,0,0,0,0,0,0,0,0,0,0,0,0,0,0,0,0,0,0,0,0,0,0],"id":11,"left_children":[1,-1,3,5,7,9,11,-1,13,15,17,19,21,-1,-1,-1,-1,-1,23,-1,-1,25,27,-1,-1,-1,-1,-1,-1],"loss_changes":[8.781668E-1,0E0,8.973477E-1,8.3104837E-1,3.1759763E-1,1.7788911E-1,3.4387523E-1,0E0,5.9321386E-1,5.501318E-2,1.4930591E-1,5.7885528E-2,1.0281144E-1,0E0,0E0,0E0,0E0,0E0,5.5103265E-2,0E0,0E0,9.342911E-2,2.8582245E-2,0E0,0E0,0E0,0E0,0E0,0E0],"parents":[2147483647,0,0,2,2,3,3,4,4,5,5,6,6,8,8,9,9,10,10,11,11,12,12,18,18,21,21,22,22],"right_children":[2,-1,4,6,8,10,12,-1,14,16,18,20,22,-1,-1,-1,-1,-1,24,-1,-1,26,28,-1,-1,-1,-1,-1,-1],"split_conditions":[7.1417E0,-1.1791817E-1,1E0,1.52458E1,7.1E1,2.5E1,3E0,1.9973181E-2,7.775E0,1E0,1E0,7.12833E1,5.25542E1,5.28592E-2,1.6069672E-1,-6.283782E-2,-4.4305835E-2,-4.4305835E-2,7.775E0,-2.0291157E-2,-2.0992304E-3,1E0,3E1,-3.2298498E-2,-2.0291157E-2,-2.0992304E-3,1.1345828E-2,1.1345828E-2,1.9973181E-2],"split_indices":[5,0,95,5,2,2,2,0,5,4,96,5,5,0,0,0,0,0,5,0,0,4,2,0,0,0,0,0,0],"split_type":[0,0,0,0,0,0,0,0,0,0,0,0,0,0,0,0,0,0,0,0,0,0,0,0,0,0,0,0,0],"sum_hessian":[1.417801E2,5.8535013E0,1.359266E2,1.1987114E2,1.6055458E1,5.1106018E1,6.876512E1,5.0259867E0,1.1029471E1,2.5863125E1,2.5242893E1,1.2914234E1,5.5850887E1,6.0793858E0,4.9500856E0,2.4255783E1,1.607343E0,1.6198645E0,2.3623028E1,1.1039029E1,1.8752058E0,3.429442E1,2.1556469E1,1.3849951E0,2.2238033E1,1.9381779E1,1.4912641E1,1.2077994E1,9.478474E0],"tree_param":{"num_deleted":"0","num_feature":"98","num_nodes":"29","size_leaf_vector":"1"}},{"base_weights":[3.0853987E-2,-2.3184718E-1,1.9852708E-1,-4.3617198E-1,-4.9223784E-2,-1.666005E-2,2.51065E-1,-1.4935519E-1,-7.280937E-2,-2.4269788E-1,-1.666005E-2,-4.9980152E-3,3.5160743E-2,2.101788E-1,1.6934547E-1,-7.280937E-2,-3.890369E-2,-3.890369E-2,-4.9980152E-3,1.659285E-1,1.1619956E-1,1.1720247E-1,2.3251179E-1,3.5160743E-2,5.245714E-2,5.245714E-2,8.298905E-2],"categories":[],"categories_nodes":[],"categories_segments":[],"categories_sizes":[],"default_left":[0,0,0,0,0,0,1,0,0,1,0,0,0,0,0,0,0,0,0,0,0,0,0,0,0,0,0],"id":12,"left_children":[1,3,5,7,9,11,13,-1,-1,15,17,-1,-1,19,-1,-1,-1,-1,-1,21,-1,23,25,-1,-1,-1,-1],"loss_changes":[6.0417075E0,1.9745684E0,1.4949195E0,4.8711538E-1,1.3984042E0,5.8901876E-1,8.409705E-1,0E0,0E0,7.4398994E-2,6.261617E-2,0E0,0E0,6.665008E-1,0E0,0E0,0E0,0E0,0E0,5.432074E-1,0E0,5.147034E-2,2.0825863E-1,0E0,0E0,0E0,0E0],"parents":[2147483647,0,0,1,1,2,2,3,3,4,4,5,5,6,6,9,9,10,10,13,13,19,19,21,21,22,22],"right_children":[2,4,6,8,10,12,14,-1,-1,16,18,-1,-1,20,-1,-1,-1,-1,-1,22,-1,24,26,-1,-1,-1,-1],"split_conditions":[1E0,3E0,1.3E1,1.5155E2,8.05E0,3E0,5E1,-1.4935519E-1,-7.280937E-2,2.7E1,3E0,-4.9980152E-3,3.5160743E-2,6.66E1,1.6934547E-1,-7.280937E-2,-3.890369E-2,-3.890369E-2,-4.9980152E-3,1E0,1.1619956E-1,3.8E1,7.8E0,3.5160743E-2,5.245714E-2,5.245714E-2,8.298905E-2],"split_indices":[6,0,2,5,5,3,2,0,0,2,2,0,0,5,0,0,0,0,0,94,0,2,5,0,0,0,0],"split_type":[0,0,0,0,0,0,0,0,0,0,0,0,0,0,0,0,0,0,0,0,0,0,0,0,0,0,0],"sum_hessian":[1.351172E2,5.2492325E1,8.2624886E1,2.4118935E1,2.8373392E1,8.740164E0,7.388472E1,2.1829638E1,2.2892976E0,1.0310069E1,1.8063322E1,4.478681E0,4.2614827E0,6.6836395E1,7.0483246E0,8.897199E0,1.4128704E0,2.353105E0,1.5710217E1,5.908738E1,7.7490153E0,7.4706116E0,5.1616768E1,4.553483E0,2.9171283E0,1.3120599E1,3.849617E1],"tree_param":{"num_deleted":"0","num_feature":"98","num_nodes":"27","size_leaf_vector":"1"}},{"base_weights":[-3.085398E-2,-3.5073116E-1,-1.5412024E-2,-1.3097864E-1,-5.492148E-2,-3.6360018E-2,1.3297693E-1,-1.1835492E-1,2.4410471E-2,1.4492538E-2,2.1132143E-1,-1.7459689E-1,-5.6848835E-2,-4.6972223E-2,4.830846E-2,3.8944483E-2,1.3779761E-1,-5.492148E-2,-3.471686E-2,-3.471686E-2,-4.6972223E-2,-4.6972223E-2,2.0043534E-4,2.5030838E-2,1.4492538E-2,-2.4404263E-2,-1.4091668E-2,-1.4091668E-2,-6.945616E-3,2.0043534E-4,1.1000895E-2],"categories":[],"categories_nodes":[],"categories_segments":[],"categories_sizes":[],"default_left":[0,1,0,0,0,0,0,1,1,0,0,0,0,0,0,0,0,0,0,0,0,0,0,0,0,0,0,0,0,0,0],"id":13,"left_children":[1,3,5,-1,-1,7,9,11,13,-1,15,17,19,21,23,-1,-1,-1,-1,-1,25,27,-1,29,-1,-1,-1,-1,-1,-1,-1],"loss_changes":[6.669494E-1,2.1025896E-2,4.1171503E-1,0E0,0E0,5.783488E-1,1.873323E-1,1.6071856E-1,3.0098397E-1,0E0,5.208864E-1,6.504601E-2,1.3850293E-1,9.831189E-2,1.0228127E-2,0E0,0E0,0E0,0E0,0E0,4.86993E-2,1.2241602E-2,0E0,8.7835014E-2,0E0,0E0,0E0,0E0,0E0,0E0,0E0],"parents":[2147483647,0,0,1,1,2,2,5,5,6,6,7,7,8,8,10,10,11,11,12,12,13,13,14,14,20,20,21,21,23,23],"right_children":[2,4,6,-1,-1,8,10,12,14,-1,16,18,20,22,24,-1,-1,-1,-1,-1,26,28,-1,30,-1,-1,-1,-1,-1,-1,-1],"split_conditions":[7.1417E0,2.5E1,1E0,-1.3097864E-1,-5.492148E-2,1.52458E1,7.1E1,2.5E1,2.3E1,1.4492538E-2,7.775E0,1E0,1E0,7.82667E1,5.25542E1,3.8944483E-2,1.3779761E-1,-5.492148E-2,-3.471686E-2,-3.471686E-2,7.775E0,1E0,2.0043534E-4,1E0,1.4492538E-2,-2.4404263E-2,-1.4091668E-2,-1.4091668E-2,-6.945616E-3,2.0043534E-4,1.1000895E-2],"split_indices":[5,2,95,0,0,5,2,2,2,0,5,4,96,5,5,0,0,0,0,0,5,4,0,96,0,0,0,0,0,0,0],"split_type":[0,0,0,0,0,0,0,0,0,0,0,0,0,0,0,0,0,0,0,0,0,0,0,0,0,0,0,0,0,0,0],"sum_hessian":[1.351172E2,5.222441E0,1.2989476E2,2.5698903E0,2.652551E0,1.1448758E2,1.5407186E1,4.8330215E1,6.6157364E1,4.8434763E0,1.0563708E1,2.4284998E1,2.4045218E1,2.8747164E1,3.7410202E1,5.903587E0,4.660122E0,2.2720348E1,1.5646493E0,1.5523783E0,2.2492838E1,2.3333443E1,5.413722E0,2.2183306E1,1.5226896E1,1.2926171E0,2.1200222E1,6.8105283E0,1.6522915E1,3.264304E0,1.8919003E1],"tree_param":{"num_deleted":"0","num_feature":"98","num_nodes":"31","size_leaf_vector":"1"}},{"base_weights":[2.0630723E-2,-1.9997892E-1,1.6255438E-1,-3.9918876E-1,-3.3455625E-2,5.792017E-2,3.3296403E-1,-1.3941808E-1,-6.489666E-2,-2.1632218E-1,-1.8712267E-2,-1.8712267E-2,1.7740744E-1,1.954421E-1,1.8923704E-1,-6.489666E-2,-3.5255168E-2,-3.5255168E-2,-5.6136805E-3,-5.6136805E-3,2.3804277E-2,7.934759E-2,1.954421E-1,1.954421E-1,1.19828485E-1,2.3804277E-2,4.1218456E-2,1.3739485E-1,5.863263E-2,5.863263E-2,8.923056E-2,4.1218456E-2,4.992554E-2],"categories":[],"categories_nodes":[],"categories_segments":[],"categories_sizes":[],"default_left":[0,0,0,0,0,0,0,0,0,1,0,0,0,0,0,0,0,0,0,0,0,0,0,1,0,0,0,0,0,0,0,0,0],"id":14,"left_children":[1,3,5,7,9,11,13,-1,-1,15,17,19,21,23,-1,-1,-1,-1,-1,-1,-1,25,27,29,-1,-1,-1,31,-1,-1,-1,-1,-1],"loss_changes":[4.1014156E0,1.6892042E0,1.4006286E0,4.7518134E-1,1.1383802E0,1.2376657E0,1.3362119E0,0E0,0E0,6.3776255E-2,5.316279E-2,1.898354E-1,3.9005768E-1,2.1675897E-1,0E0,0E0,0E0,0E0,0E0,0E0,0E0,6.301682E-2,1.4238346E-1,6.6667646E-2,0E0,0E0,0E0,7.358989E-2,0E0,0E0,0E0,0E0,0E0],"parents":[2147483647,0,0,1,1,2,2,3,3,4,4,5,5,6,6,9,9,10,10,11,11,12,12,13,13,21,21,22,22,23,23,27,27],"right_children":[2,4,6,8,10,12,14,-1,-1,16,18,20,22,24,-1,-1,-1,-1,-1,-1,-1,26,28,30,-1,-1,-1,32,-1,-1,-1,-1,-1],"split_conditions":[1E0,3E0,4E1,1.5155E2,8.05E0,1E0,2.7E1,-1.3941808E-1,-6.489666E-2,2.7E1,3E0,2.115E2,7.8E0,1E0,1.8923704E-1,-6.489666E-2,-3.5255168E-2,-3.5255168E-2,-5.6136805E-3,-5.6136805E-3,2.3804277E-2,3E1,1.3E1,5.1E1,1.19828485E-1,2.3804277E-2,4.1218456E-2,2E0,5.863263E-2,5.863263E-2,8.923056E-2,4.1218456E-2,4.992554E-2],"split_indices":[6,0,2,5,5,94,5,0,0,2,2,5,5,95,0,0,0,0,0,0,0,2,2,2,0,0,0,3,0,0,0,0,0],"split_type":[0,0,0,0,0,0,0,0,0,0,0,0,0,0,0,0,0,0,0,0,0,0,0,0,0,0,0,0,0,0,0,0,0],"sum_hessian":[1.2895668E2,5.0323513E1,7.863317E1,2.2276821E1,2.8046692E1,4.9549118E1,2.9084051E1,2.0073818E1,2.2030027E0,1.0125931E1,1.7920761E1,1.0644031E1,3.890509E1,1.9830318E1,9.253734E0,8.705815E0,1.4201156E0,2.3470793E0,1.5573683E1,9.285215E0,1.3588147E0,6.763601E0,3.2141487E1,1.4703081E1,5.127238E0,5.3413696E0,1.4222313E0,6.6999397E0,2.5441547E1,1.2480437E1,2.2226431E0,2.476404E0,4.223536E0],"tree_param":{"num_deleted":"0","num_feature":"98","num_nodes":"33","size_leaf_vector":"1"}},{"base_weights":[-2.0630728E-2,-3.163907E-1,-6.9408133E-3,-1.22617744E-1,-4.849973E-2,-2.9954053E-2,9.1729954E-2,-5.8084026E-2,3.088795E-2,3.088795E-2,2.0943849E-1,-1.6166575E-1,-3.6582477E-2,-4.0794117E-3,3.088795E-2,9.266386E-3,2.0583997E-2,3.6048967E-2,8.5131094E-2,-4.849973E-2,-9.912412E-2,-9.912412E-2,-1.3598038E-2,2.593487E-3,9.266386E-3,-3.9118484E-2,-2.9737236E-2,-2.9737236E-2,-1.6908325E-2,-1.6908325E-2,-4.0794117E-3],"categories":[],"categories_nodes":[],"categories_segments":[],"categories_sizes":[],"default_left":[0,1,0,0,0,0,1,1,0,0,0,0,0,0,0,0,0,0,0,0,0,0,0,0,0,0,0,0,0,0,0],"id":15,"left_children":[1,3,5,-1,-1,7,9,11,13,15,17,19,21,-1,23,-1,-1,-1,-1,-1,25,27,29,-1,-1,-1,-1,-1,-1,-1,-1],"loss_changes":[5.239894E-1,3.6392927E-2,2.8711146E-1,0E0,0E0,3.1773522E-1,2.3127912E-1,1.9645596E-1,3.2613263E-2,2.2195987E-3,3.853327E-2,3.4098923E-2,1.8071777E-1,0E0,3.30863E-2,0E0,0E0,0E0,0E0,0E0,3.0771852E-2,8.202961E-2,8.002076E-2,0E0,0E0,0E0,0E0,0E0,0E0,0E0,0E0],"parents":[2147483647,0,0,1,1,2,2,5,5,6,6,7,7,8,8,9,9,10,10,11,11,12,12,14,14,20,20,21,21,22,22],"right_children":[2,4,6,-1,-1,8,10,12,14,16,18,20,22,-1,24,-1,-1,-1,-1,-1,26,28,30,-1,-1,-1,-1,-1,-1,-1,-1],"split_conditions":[7.1417E0,2.5E1,5.25542E1,-1.22617744E-1,-4.849973E-2,1E0,3E1,-1E-5,1.7E1,2.62375E2,8.65E1,3E0,1.05E1,-4.0794117E-3,7.75E0,9.266386E-3,2.0583997E-2,3.6048967E-2,8.5131094E-2,-4.849973E-2,1E0,2.4E1,1E0,2.593487E-3,9.266386E-3,-3.9118484E-2,-2.9737236E-2,-2.9737236E-2,-1.6908325E-2,-1.6908325E-2,-4.0794117E-3],"split_indices":[5,2,5,0,0,95,2,2,2,5,5,0,5,0,5,0,0,0,0,0,6,2,96,0,0,0,0,0,0,0,0],"split_type":[0,0,0,0,0,0,0,0,0,0,0,0,0,0,0,0,0,0,0,0,0,0,0,0,0,0,0,0,0,0,0],"sum_hessian":[1.2895668E2,4.7267923E0,1.2422989E2,2.2705014E0,2.4562907E0,1.0129988E2,2.2930012E1,8.70971E1,1.4202781E1,1.3866862E1,9.063149E0,1.3457327E1,7.363977E1,1.4280976E0,1.2774683E1,1.2636917E1,1.2299451E0,5.0878034E0,3.9753458E0,2.8590257E0,1.0598301E1,2.2366388E1,5.1273384E1,1.0948977E0,1.1679785E1,4.3799505E0,6.218351E0,8.682179E0,1.3684209E1,7.4703646E0,4.380302E1],"tree_param":{"num_deleted":"0","num_feature":"98","num_nodes":"31","size_leaf_vector":"1"}},{"base_weights":[1.1874044E-2,-1.726969E-1,1.3119794E-1,-4.060467E-1,-3.8544267E-2,4.9630526E-2,3.277936E-1,-1.3246231E-1,-6.668865E-2,-2.2229548E-1,-2.074948E-2,-1.4306678E-2,1.8871206E-1,1.9711158E-1,1.6829076E-1,-6.668865E-2,-3.6456745E-2,-3.6456745E-2,-2.074948E-2,-6.224844E-3,7.9563305E-2,2.6160808E-2,5.661362E-2,1.8871206E-1,1.1371211E-1,-3.4944598E-2,-6.224844E-3,2.9406913E-2,8.720269E-2,5.661362E-2,8.516286E-2,-2.1340795E-2,-8.354112E-3,8.822074E-3,1.7491441E-2,1.7491441E-2,2.6160808E-2],"categories":[],"categories_nodes":[],"categories_segments":[],"categories_sizes":[],"default_left":[0,0,0,1,0,0,0,0,0,0,0,0,0,1,0,0,0,0,0,0,0,0,0,0,0,1,0,0,0,0,0,0,0,0,0,0,0],"id":16,"left_children":[1,3,5,7,9,11,13,-1,-1,15,17,19,21,23,-1,-1,-1,-1,25,-1,27,-1,-1,29,-1,31,-1,33,35,-1,-1,-1,-1,-1,-1,-1,-1],"loss_changes":[2.767034E0,1.5295285E0,1.2064664E0,1.4077759E-1,9.0916634E-1,8.8143855E-1,5.6532025E-1,0E0,0E0,2.5779808E-1,4.4102445E-2,4.4163215E-1,1.6224742E-2,1.484204E-1,0E0,0E0,0E0,0E0,1.4338642E-3,0E0,2.4625638E-1,0E0,0E0,4.784727E-2,0E0,4.1592132E-2,0E0,6.767046E-2,7.784319E-2,0E0,0E0,0E0,0E0,0E0,0E0,0E0,0E0],"parents":[2147483647,0,0,1,1,2,2,3,3,4,4,5,5,6,6,9,9,10,10,11,11,12,12,13,13,18,18,20,20,23,23,25,25,27,27,28,28],"right_children":[2,4,6,8,10,12,14,-1,-1,16,18,20,22,24,-1,-1,-1,-1,26,-1,28,-1,-1,30,-1,32,-1,34,36,-1,-1,-1,-1,-1,-1,-1,-1],"split_conditions":[1E0,1E0,4.6E1,4.5E1,3E0,2E0,2.7E1,-1.3246231E-1,-6.668865E-2,1.5155E2,7.775E0,1.3E1,4E0,5.1E1,1.6829076E-1,-6.668865E-2,-3.6456745E-2,-3.6456745E-2,1.78E1,-6.224844E-3,1E0,2.6160808E-2,5.661362E-2,1E0,1.1371211E-1,2.8E1,-6.224844E-3,6.66E1,7.8E0,5.661362E-2,8.516286E-2,-2.1340795E-2,-8.354112E-3,8.822074E-3,1.7491441E-2,1.7491441E-2,2.6160808E-2],"split_indices":[6,96,2,2,0,3,5,0,0,5,5,2,2,2,0,0,0,0,5,0,94,0,0,95,0,2,0,5,5,0,0,0,0,0,0,0,0],"split_type":[0,0,0,0,0,0,0,0,0,0,0,0,0,0,0,0,0,0,0,0,0,0,0,0,0,0,0,0,0,0,0,0,0,0,0,0,0],"sum_hessian":[1.2361001E2,4.8359673E1,7.5250336E1,1.6913313E1,3.1446358E1,5.4069416E1,2.118092E1,1.5539434E1,1.3738791E0,1.4315681E1,1.7130676E1,4.709458E1,6.974835E0,1.4756213E1,6.4247065E0,1.3094866E1,1.2208161E0,1.9070737E0,1.5223603E1,3.9651697E0,4.3129414E1,2.8005915E0,4.1742435E0,1.21746435E1,2.581569E0,8.252526E0,6.971077E0,9.340122E0,3.378929E1,8.240845E0,3.9337993E0,6.3744097E0,1.8781166E0,5.183877E0,4.156245E0,6.7043767E0,2.7084915E1],"tree_param":{"num_deleted":"0","num_feature":"98","num_nodes":"37","size_leaf_vector":"1"}},{"base_weights":[-1.187406E-2,-2.8601736E-1,3.3794346E-4,-1.1519889E-1,-4.285191E-2,-1.6209934E-2,1.1417813E-1,-8.180876E-2,3.2073043E-2,1.4695229E-2,1.8085533E-1,-1.3042037E-1,-2.9724507E-2,-2.4867859E-2,1.4695229E-2,3.4475915E-2,1.2756726E-1,-1.428397E-1,-2.4021734E-2,-2.4021734E-2,-2.4867859E-2,-2.4867859E-2,3.6174357E-3,-4.285191E-2,-3.343682E-2,-1.5741045E-2,-7.460358E-3,-7.460358E-3,-1.9794533E-3],"categories":[],"categories_nodes":[],"categories_segments":[],"categories_sizes":[],"default_left":[0,1,0,0,0,0,0,1,1,0,0,0,0,0,0,0,0,0,0,0,0,0,0,0,0,0,0,0,0],"id":17,"left_children":[1,3,5,-1,-1,7,9,11,13,-1,15,17,19,21,-1,-1,-1,23,-1,-1,25,27,-1,-1,-1,-1,-1,-1,-1],"loss_changes":[4.1727093E-1,4.5714825E-2,2.2846356E-1,0E0,0E0,3.3805257E-1,1.2121995E-1,1.1051965E-1,2.5268373E-1,0E0,4.5081875E-1,5.220893E-2,1.13164455E-1,4.7871422E-2,0E0,0E0,0E0,2.6997507E-2,0E0,0E0,3.940191E-2,5.038634E-3,0E0,0E0,0E0,0E0,0E0,0E0,0E0],"parents":[2147483647,0,0,1,1,2,2,5,5,6,6,7,7,8,8,10,10,11,11,12,12,13,13,17,17,20,20,21,21],"right_children":[2,4,6,-1,-1,8,10,12,14,-1,16,18,20,22,-1,-1,-1,24,-1,-1,26,28,-1,-1,-1,-1,-1,-1,-1],"split_conditions":[7.1417E0,2.5E1,1E0,-1.1519889E-1,-4.285191E-2,1.52458E1,7.1E1,2.5E1,2.3E1,1.4695229E-2,7.775E0,1E0,1E0,7.82667E1,1.4695229E-2,3.4475915E-2,1.2756726E-1,1E0,-2.4021734E-2,-2.4021734E-2,7.775E0,1E0,3.6174357E-3,-4.285191E-2,-3.343682E-2,-1.5741045E-2,-7.460358E-3,-7.460358E-3,-1.9794533E-3],"split_indices":[5,2,95,0,0,5,2,2,2,0,5,4,96,5,0,0,0,6,0,0,5,4,0,0,0,0,0,0,0],"split_type":[0,0,0,0,0,0,0,0,0,0,0,0,0,0,0,0,0,0,0,0,0,0,0,0,0,0,0,0,0],"sum_hessian":[1.23610016E2,4.3153405E0,1.1929467E2,2.0105274E0,2.3048131E0,1.0490345E2,1.439122E1,4.4181995E1,6.0721455E1,4.5208397E0,9.87038E0,2.2074888E1,2.2107107E1,2.7016598E1,3.3704857E1,5.56048E0,4.3099003E0,2.0589636E1,1.4852529E0,1.4686418E0,2.0638464E1,2.2098019E1,4.918579E0,7.0845084E0,1.3505128E1,1.1720254E0,1.946644E1,6.1496506E0,1.5948368E1],"tree_param":{"num_deleted":"0","num_feature":"98","num_nodes":"29","size_leaf_vector":"1"}},{"base_weights":[1.1607632E-2,-3.0222654E-2,4.3317765E-1,-4.7008464E-1,1.1360417E-2,6.0443252E-2,4.6822986E-1,-2.132279E-1,-6.880864E-2,-2.1839124E-1,1.5191685E-1,1.0045611E-1,1.7829531E-1,-2.2936212E-1,-3.3237197E-2,7.6031245E-2,2.014775E-1,-6.880864E-2,-3.93899E-2,-3.93899E-2,-9.9711595E-3,-3.3237197E-2,1.3875437E-1,1.3875437E-1,6.0443252E-2,-9.9711595E-3,1.5827576E-2,1.5827576E-2,4.162631E-2,4.162631E-2,5.1034782E-2],"categories":[],"categories_nodes":[],"categories_segments":[],"categories_sizes":[],"default_left":[0,0,0,0,0,0,0,0,0,1,0,0,0,0,0,0,0,0,0,0,0,0,0,0,0,0,0,0,0,0,0],"id":18,"left_children":[1,3,5,7,9,-1,11,-1,-1,13,15,-1,-1,17,19,21,23,-1,-1,-1,-1,25,27,29,-1,-1,-1,-1,-1,-1,-1],"loss_changes":[2.1397636E0,2.0291562E0,4.757309E-2,6.9722414E-1,3.3292115E0,0E0,1.3677287E-1,0E0,0E0,5.50277E-1,4.1388392E-1,0E0,0E0,7.658434E-2,1.412411E-1,8.3842844E-1,1.082145E-1,0E0,0E0,0E0,0E0,1.6651411E-1,3.140021E-1,5.526641E-2,0E0,0E0,0E0,0E0,0E0,0E0,0E0],"parents":[2147483647,0,0,1,1,2,2,3,3,4,4,6,6,9,9,10,10,13,13,14,14,15,15,16,16,21,21,22,22,23,23],"right_children":[2,4,6,8,10,-1,12,-1,-1,14,16,-1,-1,18,20,22,24,-1,-1,-1,-1,26,28,30,-1,-1,-1,-1,-1,-1,-1],"split_conditions":[3E0,1.4E1,2.16792E1,2E0,1E0,6.0443252E-2,7E0,-2.132279E-1,-6.880864E-2,3.8E1,4E1,1.0045611E-1,1.7829531E-1,1.345E2,3E0,1E0,2.7E1,-6.880864E-2,-3.93899E-2,-3.93899E-2,-9.9711595E-3,6.66E1,7.8E0,1E0,6.0443252E-2,-9.9711595E-3,1.5827576E-2,1.5827576E-2,4.162631E-2,4.162631E-2,5.1034782E-2],"split_indices":[3,2,5,4,6,0,2,0,0,2,2,0,0,5,0,94,5,0,0,0,0,5,5,95,0,0,0,0,0,0,0],"split_type":[0,0,0,0,0,0,0,0,0,0,0,0,0,0,0,0,0,0,0,0,0,0,0,0,0,0,0,0,0,0,0],"sum_hessian":[1.1959796E2,1.0964658E2,9.951374E0,8.580294E0,1.0106629E2,1.4499624E0,8.501411E0,4.6311517E0,3.9491422E0,3.8151157E1,6.2915134E1,3.2935636E0,5.2078476E0,3.2735554E1,5.4156027E0,3.7856083E1,2.5059048E1,3.1590311E1,1.1452436E0,3.4795556E0,1.936047E0,8.174584E0,2.96815E1,1.7872444E1,7.186604E0,4.496244E0,3.6783407E0,6.196106E0,2.3485394E1,1.3170258E1,4.7021875E0],"tree_param":{"num_deleted":"0","num_feature":"98","num_nodes":"31","size_leaf_vector":"1"}},{"base_weights":[-1.1607624E-2,-2.6077697E-1,-8.443369E-4,-1.0868317E-1,-3.9243195E-2,-6.271842E-2,2.4658276E-2,-1.3081065E-1,-1.9030072E-2,-1.9030072E-2,7.615764E-2,-3.9243195E-2,-2.2476107E-2,-2.2476107E-2,-5.709022E-3,-1.9030072E-2,2.8563783E-2,2.8563783E-2,2.0804343E-1,-1.9030072E-2,4.7668554E-3,1.4300566E-3,8.569135E-3,2.8563783E-2,1.00284815E-1,1.18303604E-1,2.744199E-1,-5.709022E-3,-2.1394826E-3,-2.1394826E-3,1.4300566E-3,8.569135E-3,1.932729E-2,1.932729E-2,3.5491083E-2,3.5491083E-2,5.8908526E-2,5.8908526E-2,1.4445785E-1],"categories":[],"categories_nodes":[],"categories_segments":[],"categories_sizes":[],"default_left":[0,1,0,0,0,0,0,0,0,0,0,0,0,0,0,1,0,0,1,0,0,0,0,0,0,0,0,0,0,0,0,0,0,0,0,0,0,0,0],"id":19,"left_children":[1,3,5,-1,-1,7,9,11,13,15,17,-1,-1,-1,-1,19,21,23,25,27,29,-1,-1,31,33,35,37,-1,-1,-1,-1,-1,-1,-1,-1,-1,-1,-1,-1],"loss_changes":[3.2320923E-1,4.8127353E-2,1.8554741E-1,0E0,0E0,1.8719958E-1,2.3910007E-1,9.112471E-2,4.090792E-2,6.003651E-2,3.3939448E-1,0E0,0E0,0E0,0E0,1.44841E-2,6.332878E-3,7.30779E-2,5.3979993E-2,6.495297E-3,2.0267978E-2,0E0,0E0,1.8718109E-2,7.1516484E-2,1.0920868E-1,1.0109228E-1,0E0,0E0,0E0,0E0,0E0,0E0,0E0,0E0,0E0,0E0,0E0,0E0],"parents":[2147483647,0,0,1,1,2,2,5,5,6,6,7,7,8,8,9,9,10,10,15,15,16,16,17,17,18,18,19,19,20,20,23,23,24,24,25,25,26,26],"right_children":[2,4,6,-1,-1,8,10,12,14,16,18,-1,-1,-1,-1,20,22,24,26,28,30,-1,-1,32,34,36,38,-1,-1,-1,-1,-1,-1,-1,-1,-1,-1,-1,-1],"split_conditions":[7.1417E0,2.5E1,2.3E1,-1.0868317E-1,-3.9243195E-2,1E0,1.52458E1,1.9E1,3E0,1E0,3E0,-3.9243195E-2,-2.2476107E-2,-2.2476107E-2,-5.709022E-3,3.9E1,7.775E0,5.25542E1,2.4E1,3E0,1E0,1.4300566E-3,8.569135E-3,1E0,3E1,1E0,3.13875E1,-5.709022E-3,-2.1394826E-3,-2.1394826E-3,1.4300566E-3,8.569135E-3,1.932729E-2,1.932729E-2,3.5491083E-2,3.5491083E-2,5.8908526E-2,5.8908526E-2,1.4445785E-1],"split_indices":[5,2,2,0,0,4,5,2,2,95,0,0,0,0,0,2,5,5,2,0,6,0,0,96,2,95,5,0,0,0,0,0,0,0,0,0,0,0,0],"split_type":[0,0,0,0,0,0,0,0,0,0,0,0,0,0,0,0,0,0,0,0,0,0,0,0,0,0,0,0,0,0,0,0,0,0,0,0,0,0,0],"sum_hessian":[1.1959796E2,3.9904704E0,1.1560749E2,1.7910237E0,2.1994467E0,3.3316402E1,8.2291084E1,1.5963754E1,1.7352648E1,3.9316833E1,4.2974255E1,6.872291E0,9.091463E0,5.548561E0,1.1804087E1,3.1202305E1,8.114527E0,3.0320744E1,1.2653512E1,2.5950468E1,5.251837E0,6.1786265E0,1.9359009E0,1.6955439E1,1.3365305E1,6.3529816E0,6.3005304E0,8.353329E0,1.759714E1,2.1298199E0,3.122017E0,2.952984E0,1.4002454E1,4.9556465E0,8.409658E0,4.06782E0,2.2851615E0,5.036194E0,1.2643365E0],"tree_param":{"num_deleted":"0","num_feature":"98","num_nodes":"39","size_leaf_vector":"1"}},{"base_weights":[1.3760743E-2,-2.2886345E-2,3.849E-1,-4.4711888E-1,1.2086251E-2,2.3337117E-1,1.4648952E-1,-1.7853698E-1,-6.52549E-2,-1.7747504E-1,1.290957E-1,5.430205E-2,1.0825044E-1,-2.1751632E-1,-2.4618646E-2,1.1330919E-2,1.8100683E-1,-6.52549E-2,-3.6320247E-2,-1.2106748E-1,-2.4189666E-2,-2.4189666E-2,2.8850663E-2,1.04880646E-1,1.8100683E-1,-3.6320247E-2,-2.1788573E-2,-2.1788573E-2,-7.2569E-3,-7.2569E-3,-3.9048456E-3,2.8850663E-2,4.2883124E-2,4.2883124E-2,5.430205E-2],"categories":[],"categories_nodes":[],"categories_segments":[],"categories_sizes":[],"default_left":[0,0,0,0,0,0,0,0,0,0,0,0,0,0,0,0,0,0,0,1,1,0,0,0,0,0,0,0,0,0,0,0,0,0,0],"id":20,"left_children":[1,3,5,7,9,11,-1,-1,-1,13,15,-1,-1,17,19,21,23,-1,-1,25,27,29,-1,31,33,-1,-1,-1,-1,-1,-1,-1,-1,-1,-1],"loss_changes":[1.6118772E0,1.6109263E0,5.288005E-2,3.1363308E-1,2.2619503E0,1.648427E-1,0E0,0E0,0E0,7.0282733E-1,5.0377035E-1,0E0,0E0,7.377243E-2,4.6178424E-1,6.4366037E-1,5.4371238E-2,0E0,0E0,2.8692305E-2,5.6651175E-2,1.7246976E-3,0E0,1.911646E-1,6.639159E-2,0E0,0E0,0E0,0E0,0E0,0E0,0E0,0E0,0E0,0E0],"parents":[2147483647,0,0,1,1,2,2,3,3,4,4,5,5,9,9,10,10,13,13,14,14,15,15,16,16,19,19,20,20,21,21,23,23,24,24],"right_children":[2,4,6,8,10,12,-1,-1,-1,14,16,-1,-1,18,20,22,24,-1,-1,26,28,30,-1,32,34,-1,-1,-1,-1,-1,-1,-1,-1,-1,-1],"split_conditions":[3E0,1E1,3.25E1,2.9125E1,1E0,3.4E1,1.4648952E-1,-1.7853698E-1,-6.52549E-2,3E0,3E1,5.430205E-2,1.0825044E-1,1.5155E2,8.05E0,6.66E1,4E1,-6.52549E-2,-3.6320247E-2,2.7E1,1E1,1E0,2.8850663E-2,1E0,2.7E1,-3.6320247E-2,-2.1788573E-2,-2.1788573E-2,-7.2569E-3,-7.2569E-3,-3.9048456E-3,2.8850663E-2,4.2883124E-2,4.2883124E-2,5.430205E-2],"split_indices":[3,2,5,5,6,2,0,0,0,0,2,0,0,5,5,5,2,0,0,2,2,94,0,94,5,0,0,0,0,0,0,0,0,0,0],"split_type":[0,0,0,0,0,0,0,0,0,0,0,0,0,0,0,0,0,0,0,0,0,0,0,0,0,0,0,0,0,0,0,0,0,0,0],"sum_hessian":[1.16862495E2,1.07214264E2,9.6482315E0,7.2678084E0,9.994646E1,5.2343607E0,4.413871E0,4.5881915E0,2.679617E0,3.7949524E1,6.199693E1,3.771421E0,1.4629397E0,1.7111334E1,2.0838192E1,2.353275E1,3.846418E1,1.5935907E1,1.1754262E0,9.560742E0,1.127745E1,1.937858E1,4.1541677E0,1.40357E1,2.442848E1,8.116776E0,1.4439657E0,3.2097611E0,8.067689E0,1.8774147E0,1.7501165E1,3.6411576E0,1.0394543E1,1.7395409E1,7.033072E0],"tree_param":{"num_deleted":"0","num_feature":"98","num_nodes":"35","size_leaf_vector":"1"}},{"base_weights":[-1.376075E-2,-2.3728023E-1,-4.4141077E-3,-1.0295474E-1,-3.6254153E-2,-6.419058E-2,2.0267082E-2,-1.2084717E-1,-2.1961749E-2,-2.1961749E-2,6.978989E-2,-3.6254153E-2,-2.1421338E-2,-2.1421338E-2,-6.5885247E-3,-2.1961749E-2,2.3914069E-2,2.3914069E-2,1.961233E-1,-6.5885247E-3,9.7616017E-4,2.9284807E-4,7.174221E-3,7.174221E-3,5.9350863E-2,1.18633926E-1,2.448374E-1,-3.1478384E-3,2.9284807E-4,1.2489741E-2,3.3005606E-2,3.3005606E-2,5.45207E-2,5.45207E-2,1.328027E-1],"categories":[],"categories_nodes":[],"categories_segments":[],"categories_sizes":[],"default_left":[0,1,0,0,0,0,0,0,0,0,0,0,0,0,0,1,0,1,1,0,0,0,0,0,0,0,0,0,0,0,0,0,0,0,0],"id":21,"left_children":[1,3,5,-1,-1,7,9,11,13,15,17,-1,-1,-1,-1,19,21,23,25,-1,27,-1,-1,-1,29,31,33,-1,-1,-1,-1,-1,-1,-1,-1],"loss_changes":[2.451858E-1,5.0490677E-2,1.6971375E-1,0E0,0E0,1.6490474E-1,2.017616E-1,7.983136E-2,4.4255227E-2,1.1181037E-1,3.1385607E-1,0E0,0E0,0E0,0E0,2.6461914E-2,1.8030122E-2,1.9082915E-2,2.2040129E-2,0E0,3.9014284E-2,0E0,0E0,0E0,1.6436277E-1,9.4849706E-2,9.514168E-2,0E0,0E0,0E0,0E0,0E0,0E0,0E0,0E0],"parents":[2147483647,0,0,1,1,2,2,5,5,6,6,7,7,8,8,9,9,10,10,15,15,16,16,17,17,18,18,20,20,24,24,25,25,26,26],"right_children":[2,4,6,-1,-1,8,10,12,14,16,18,-1,-1,-1,-1,20,22,24,26,-1,28,-1,-1,-1,30,32,34,-1,-1,-1,-1,-1,-1,-1,-1],"split_conditions":[7.1417E0,2.5E1,2.3E1,-1.0295474E-1,-3.6254153E-2,1E0,3E0,1.9E1,3E0,5.25542E1,1.44583E1,-3.6254153E-2,-2.1421338E-2,-2.1421338E-2,-6.5885247E-3,2.8E1,3E1,2.4E1,2.4E1,-6.5885247E-3,1E0,2.9284807E-4,7.174221E-3,7.174221E-3,1E0,1E0,3.13875E1,-3.1478384E-3,2.9284807E-4,1.2489741E-2,3.3005606E-2,3.3005606E-2,5.45207E-2,5.45207E-2,1.328027E-1],"split_indices":[5,2,2,0,0,4,0,2,2,5,5,0,0,0,0,2,2,2,2,0,96,0,0,0,6,95,5,0,0,0,0,0,0,0,0],"split_type":[0,0,0,0,0,0,0,0,0,0,0,0,0,0,0,0,0,0,0,0,0,0,0,0,0,0,0,0,0,0,0,0,0,0,0],"sum_hessian":[1.16862495E2,3.7117393E0,1.1315076E2,1.6089895E0,2.1027498E0,3.2598415E1,8.055234E1,1.5638511E1,1.6959902E1,4.0252846E1,4.0299496E1,6.756215E0,8.882296E0,5.4682946E0,1.1491608E1,2.7232555E1,1.3020291E1,2.7766108E1,1.2533386E1,5.697869E0,2.1534685E1,4.9151397E0,8.105152E0,1.3114475E1,1.4651632E1,6.163861E0,6.3695254E0,3.062351E0,1.8472336E1,4.782623E0,9.86901E0,3.9742384E0,2.1896224E0,5.0561976E0,1.313328E0],"tree_param":{"num_deleted":"0","num_feature":"98","num_nodes":"35","size_leaf_vector":"1"}},{"base_weights":[1.4677315E-2,-1.7984552E-2,3.4860292E-1,-6.969933E-2,1.6530919E-1,2.468342E-1,1.545605E-1,-2.807131E-1,-9.420437E-3,6.532397E-2,1.6530919E-1,4.959276E-2,1.1430539E-1,-4.04712E-1,-4.3520033E-2,-1.4506677E-1,4.780493E-2,1.4341479E-2,3.4594975E-2,1.15316585E-1,4.959276E-2,-4.6360946E-1,-2.7488938E-1,-4.3520033E-2,-5.3864807E-2,-1.4589276E-2,4.780493E-2,1.15316585E-1,4.2093866E-2,-2.0380889E-1,-1.1077482E-1,-1.1077482E-1,-8.246682E-2,-2.9839737E-2,-1.4589276E-2,-1.238985E-4,1.4341479E-2,3.4594975E-2,3.8344424E-2],"categories":[],"categories_nodes":[],"categories_segments":[],"categories_sizes":[],"default_left":[0,1,0,0,0,0,0,0,0,0,0,0,0,0,0,1,0,0,0,0,0,0,0,0,0,0,0,0,0,0,0,0,0,0,0,0,0,0,0],"id":22,"left_children":[1,3,5,7,9,11,-1,13,15,17,19,-1,-1,21,-1,23,25,-1,-1,27,-1,29,31,-1,33,-1,35,37,-1,-1,-1,-1,-1,-1,-1,-1,-1,-1,-1],"loss_changes":[1.2685832E0,1.3336741E0,4.8496604E-2,1.1339049E0,2.739501E-2,2.255947E-1,0E0,7.818451E-1,9.7566533E-1,2.143889E-1,5.3164065E-2,0E0,0E0,2.0571947E-2,0E0,1.3637477E-1,4.4994444E-1,0E0,0E0,3.0031212E-2,0E0,2.477696E-1,1.2107074E-2,0E0,1.4925909E-1,0E0,1.09096825E-1,2.3006499E-3,0E0,0E0,0E0,0E0,0E0,0E0,0E0,0E0,0E0,0E0,0E0],"parents":[2147483647,0,0,1,1,2,2,3,3,4,4,5,5,7,7,8,8,9,9,10,10,13,13,15,15,16,16,19,19,21,21,22,22,24,24,26,26,27,27],"right_children":[2,4,6,8,10,12,-1,14,16,18,20,-1,-1,22,-1,24,26,-1,-1,28,-1,30,32,-1,34,-1,36,38,-1,-1,-1,-1,-1,-1,-1,-1,-1,-1,-1],"split_conditions":[3E0,4E1,3.4E1,1E0,1E0,3.25E1,1.545605E-1,1.5155E2,1E0,3E0,2.7E1,4.959276E-2,1.1430539E-1,6.66E1,-4.3520033E-2,9E0,1.3E1,1.4341479E-2,3.4594975E-2,4.9E1,4.959276E-2,2.9E1,1E0,-4.3520033E-2,8.05E0,-1.4589276E-2,7.8E0,1E0,4.2093866E-2,-2.0380889E-1,-1.1077482E-1,-1.1077482E-1,-8.246682E-2,-2.9839737E-2,-1.4589276E-2,-1.238985E-4,1.4341479E-2,3.4594975E-2,3.8344424E-2],"split_indices":[3,2,2,94,6,5,0,5,6,0,5,0,0,5,0,2,2,0,0,2,0,2,6,0,5,0,5,4,0,0,0,0,0,0,0,0,0,0,0],"split_type":[0,0,0,0,0,0,0,0,0,0,0,0,0,0,0,0,0,0,0,0,0,0,0,0,0,0,0,0,0,0,0,0,0,0,0,0,0,0,0],"sum_hessian":[1.14738174E2,1.0537719E2,9.3609915E0,8.835364E1,1.702355E1,7.35172E0,2.0092714E0,1.8818884E1,6.953475E1,4.4738336E0,1.2549717E1,3.7210288E0,3.630691E0,1.631876E1,2.5001225E0,2.773188E1,4.180287E1,2.5337558E0,1.9400779E0,7.0462437E0,5.503473E0,9.894899E0,6.423861E0,9.806306E0,1.7925575E1,2.4512537E0,3.935162E1,4.7928157E0,2.253428E0,4.002797E0,5.8921027E0,3.1760385E0,3.2478223E0,4.255619E0,1.3669955E1,1.0155094E1,2.9196524E1,3.3956027E0,1.3972131E0],"tree_param":{"num_deleted":"0","num_feature":"98","num_nodes":"39","size_leaf_vector":"1"}},{"base_weights":[-1.4677332E-2,-5.716054E-2,2.381762E-2,-8.559609E-2,-1.667146E-2,-1.667146E-2,6.684645E-2,-2.2623429E-1,-5.827683E-2,-1.5340133E-2,-5.0014383E-3,-5.0014383E-3,2.5087496E-2,2.5087496E-2,1.840693E-1,-1.1774029E-1,-4.267667E-2,-1.4225556E-1,-5.1133774E-2,1.2624054E-3,7.526249E-3,2.5087496E-2,8.8255405E-2,1.4301723E-1,2.6017666E-1,-4.267667E-2,-2.90084E-2,-2.90084E-2,-1.5340133E-2,7.526249E-3,5.667145E-2,1.7001437E-2,3.137352E-2,3.137352E-2,6.0479086E-2,6.0479086E-2,1.5672809E-1,1.2263843E-2,1.7001437E-2],"categories":[],"categories_nodes":[],"categories_segments":[],"categories_sizes":[],"default_left":[0,0,0,0,0,0,0,0,1,0,0,0,0,0,0,0,0,0,0,0,0,0,0,1,0,0,0,0,0,0,0,0,0,0,0,0,0,0,0],"id":23,"left_children":[1,3,5,7,9,11,13,15,17,-1,-1,-1,19,21,23,-1,-1,25,27,-1,-1,29,31,33,35,-1,-1,-1,-1,-1,37,-1,-1,-1,-1,-1,-1,-1,-1],"loss_changes":[1.9063838E-1,1.2722157E-1,1.9376385E-1,1.6327074E-1,2.6720349E-2,1.0718614E-2,2.6672775E-1,1.6794866E-1,1.9848958E-1,0E0,0E0,0E0,5.5234865E-3,5.410424E-2,4.9477816E-3,0E0,0E0,4.5885146E-2,5.358387E-3,0E0,0E0,2.1142773E-2,6.0767785E-2,1.2501782E-1,1.6011804E-1,0E0,0E0,0E0,0E0,0E0,3.309302E-2,0E0,0E0,0E0,0E0,0E0,0E0,0E0,0E0],"parents":[2147483647,0,0,1,1,2,2,3,3,4,4,5,5,6,6,7,7,8,8,12,12,13,13,14,14,17,17,18,18,21,21,22,22,23,23,24,24,30,30],"right_children":[2,4,6,8,10,12,14,16,18,-1,-1,-1,20,22,24,-1,-1,26,28,-1,-1,30,32,34,36,-1,-1,-1,-1,-1,38,-1,-1,-1,-1,-1,-1,-1,-1],"split_conditions":[1.52458E1,1E0,2.3E1,1E0,7.75E0,7.82667E1,3E0,1E0,1.9E1,-1.5340133E-2,-5.0014383E-3,-5.0014383E-3,1E0,5.25542E1,1E0,-1.1774029E-1,-4.267667E-2,1.2E1,7.1417E0,1.2624054E-3,7.526249E-3,1E0,3E1,2.4E1,1.57417E1,-4.267667E-2,-2.90084E-2,-2.90084E-2,-1.5340133E-2,7.526249E-3,2.62833E1,1.7001437E-2,3.137352E-2,3.137352E-2,6.0479086E-2,6.0479086E-2,1.5672809E-1,1.2263843E-2,1.7001437E-2],"split_indices":[5,95,2,96,5,5,0,6,2,0,0,0,4,5,95,0,0,5,5,0,0,96,2,2,5,0,0,0,0,0,5,0,0,0,0,0,0,0,0],"split_type":[0,0,0,0,0,0,0,0,0,0,0,0,0,0,0,0,0,0,0,0,0,0,0,0,0,0,0,0,0,0,0,0,0,0,0,0,0,0,0],"sum_hessian":[1.1473818E2,5.43131E1,6.042508E1,4.492633E1,9.386769E0,1.9169926E1,4.1255154E1,6.1232133E0,3.8803116E1,1.8206403E0,7.5661287E0,1.52368965E1,3.9330282E0,2.876201E1,1.2493145E1,2.8082736E0,3.3149397E0,8.190068E0,3.0613049E1,1.5576335E0,2.3753948E0,1.6044943E1,1.2717068E1,9.985922E0,2.5072231E0,7.0960975E0,1.0939711E0,2.3292544E0,2.8283794E1,2.8095138E0,1.3235429E1,4.8681087E0,7.848959E0,3.8997984E0,6.086123E0,1.4398884E0,1.0673349E0,5.8875594E0,7.347869E0],"tree_param":{"num_deleted":"0","num_feature":"98","num_nodes":"39","size_leaf_vector":"1"}},{"base_weights":[1.8749053E-2,-3.2996528E-3,1.2620859E-1,-3.560352E-2,6.2609345E-2,-3.5152644E-1,-3.1500633E-3,-1.6905355E-1,-5.3201478E-2,-1.564483E-1,8.6547144E-2,-1.7733826E-1,-3.495058E-2,-3.495058E-2,8.6547144E-2,-5.3201478E-2,-3.1843327E-2,-3.1843327E-2,-1.0485174E-2,-1.0485174E-2,7.739485E-3,7.739485E-3,2.5964145E-2],"categories":[],"categories_nodes":[],"categories_segments":[],"categories_sizes":[],"default_left":[1,0,0,0,0,0,0,0,0,1,0,0,0,0,0,0,0,0,0,0,0,0,0],"id":24,"left_children":[1,3,-1,5,-1,7,9,-1,-1,11,13,15,17,19,21,-1,-1,-1,-1,-1,-1,-1,-1],"loss_changes":[1.0120423E0,1.0223155E0,0E0,1.0243177E0,0E0,5.093081E-1,1.3930542E0,0E0,0E0,4.4638532E-1,2.443738E-1,6.0957074E-2,5.706264E-2,1.823146E-1,1.4923441E-1,0E0,0E0,0E0,0E0,0E0,0E0,0E0,0E0],"parents":[2147483647,0,0,1,1,3,3,5,5,6,6,9,9,10,10,11,11,12,12,13,13,14,14],"right_children":[2,4,-1,6,-1,8,10,-1,-1,12,14,16,18,20,22,-1,-1,-1,-1,-1,-1,-1,-1],"split_conditions":[5.1E1,3E0,1.2620859E-1,1.4E1,6.2609345E-2,2E0,1E0,-1.6905355E-1,-5.3201478E-2,3.8E1,7.8E0,1.345E2,3E0,3E1,1E0,-5.3201478E-2,-3.1843327E-2,-3.1843327E-2,-1.0485174E-2,-1.0485174E-2,7.739485E-3,7.739485E-3,2.5964145E-2],"split_indices":[2,3,0,2,0,4,6,0,0,2,5,5,0,2,94,0,0,0,0,0,0,0,0],"split_type":[0,0,0,0,0,0,0,0,0,0,0,0,0,0,0,0,0,0,0,0,0,0,0],"sum_hessian":[1.1303848E2,1.0810044E2,4.938044E0,9.901423E1,9.086211E0,8.307913E0,9.0706314E1,4.519835E0,3.7880783E0,3.5214943E1,5.549137E1,3.0471436E1,4.7435055E0,1.0448358E1,4.5043015E1,2.9439243E1,1.0321934E0,2.810739E0,1.9327663E0,4.595525E0,5.8528333E0,1.1776286E1,3.3266727E1],"tree_param":{"num_deleted":"0","num_feature":"98","num_nodes":"23","size_leaf_vector":"1"}},{"base_weights":[-1.8749034E-2,-2.051328E-1,-1.12263495E-2,-9.6735865E-2,-3.2453876E-2,-6.36686E-2,1.0371566E-2,-1.0817958E-1,-2.6648518E-2,-2.6648518E-2,6.462845E-2,-3.2453876E-2,-2.0224214E-2,-2.0224214E-2,-7.994556E-3,-2.6648518E-2,1.8989967E-2,1.8989967E-2,5.0849278E-2,-2.6648518E-2,-1.1487827E-3,-3.8292753E-3,1.8989967E-2,5.6969905E-3,6.1655905E-2,-7.994556E-3,-4.571669E-3,-1.1487827E-3,2.274104E-3,2.274104E-3,5.6969905E-3,1.2096882E-2,2.8273134E-2],"categories":[],"categories_nodes":[],"categories_segments":[],"categories_sizes":[],"default_left":[0,1,0,0,0,0,0,0,0,0,0,0,0,0,0,1,0,1,0,0,0,0,1,0,0,0,0,0,0,0,0,0,0],"id":25,"left_children":[1,3,5,-1,-1,7,9,11,13,15,17,-1,-1,-1,-1,19,21,23,-1,25,-1,27,29,-1,31,-1,-1,-1,-1,-1,-1,-1,-1],"loss_changes":[1.5759113E-1,5.8524042E-2,1.2601247E-1,0E0,0E0,1.2185985E-1,2.2853264E-1,6.2903374E-2,4.4469826E-2,7.586165E-2,2.1801731E-1,0E0,0E0,0E0,0E0,2.3509353E-2,3.996913E-2,2.7958613E-2,0E0,6.1538666E-3,0E0,1.8417908E-2,1.545091E-2,0E0,1.453886E-1,0E0,0E0,0E0,0E0,0E0,0E0,0E0,0E0],"parents":[2147483647,0,0,1,1,2,2,5,5,6,6,7,7,8,8,9,9,10,10,15,15,16,16,17,17,19,19,21,21,22,22,24,24],"right_children":[2,4,6,-1,-1,8,10,12,14,16,18,-1,-1,-1,-1,20,22,24,-1,26,-1,28,30,-1,32,-1,-1,-1,-1,-1,-1,-1,-1],"split_conditions":[7.1417E0,2.5E1,2.3E1,-9.6735865E-2,-3.2453876E-2,1E0,3E0,1.9E1,3E0,2.62833E1,1.44583E1,-3.2453876E-2,-2.0224214E-2,-2.0224214E-2,-7.994556E-3,4E1,1E0,2.4E1,5.0849278E-2,2.6E1,-1.1487827E-3,5E1,2.6E1,5.6969905E-3,1E0,-7.994556E-3,-4.571669E-3,-1.1487827E-3,2.274104E-3,2.274104E-3,5.6969905E-3,1.2096882E-2,2.8273134E-2],"split_indices":[5,2,2,0,0,4,0,2,2,5,5,0,0,0,0,2,96,2,0,5,0,5,2,0,6,0,0,0,0,0,0,0,0],"split_type":[0,0,0,0,0,0,0,0,0,0,0,0,0,0,0,0,0,0,0,0,0,0,0,0,0,0,0,0,0,0,0,0,0],"sum_hessian":[1.1303848E2,3.3662758E0,1.096722E2,1.4234841E0,1.9427916E0,3.142376E1,7.824844E1,1.5238355E1,1.6185404E1,3.869725E1,3.9551193E1,6.597948E0,8.640407E0,5.252306E0,1.0933098E1,1.6410988E1,2.2286264E1,2.7182238E1,1.23689575E1,1.2464503E1,3.9464839E0,9.021231E0,1.3265034E1,1.2625488E1,1.4556748E1,1.0625435E1,1.8390685E0,2.492463E0,6.5287676E0,2.2184434E0,1.104659E1,4.81386E0,9.742888E0],"tree_param":{"num_deleted":"0","num_feature":"98","num_nodes":"33","size_leaf_vector":"1"}},{"base_weights":[2.2526871E-2,2.9148045E-3,1.1880937E-1,-2.6644435E-2,5.984191E-2,-3.3731884E-1,4.918924E-4,-1.433219E-1,-5.0524045E-2,-1.20994434E-1,7.8665756E-2,-1.6841348E-1,-2.1164339E-2,-2.1164339E-2,8.641429E-2,-5.0524045E-2,-2.8436674E-2,-2.8436674E-2,-6.349302E-3,-6.349302E-3,9.787492E-3,9.787492E-3,2.592429E-2],"categories":[],"categories_nodes":[],"categories_segments":[],"categories_sizes":[],"default_left":[1,0,0,0,0,0,0,0,0,0,0,0,0,0,0,0,0,0,0,0,0,0,0],"id":26,"left_children":[1,3,-1,5,-1,7,9,-1,-1,11,13,15,17,19,21,-1,-1,-1,-1,-1,-1,-1,-1],"loss_changes":[8.2085E-1,8.4916335E-1,0E0,8.3236516E-1,0E0,2.5653493E-1,8.81169E-1,0E0,0E0,6.378429E-1,2.4352112E-1,6.0099125E-2,3.0626917E-1,1.4852217E-1,1.3942802E-1,0E0,0E0,0E0,0E0,0E0,0E0,0E0,0E0],"parents":[2147483647,0,0,1,1,3,3,5,5,6,6,9,9,10,10,11,11,12,12,13,13,14,14],"right_children":[2,4,-1,6,-1,8,10,-1,-1,12,14,16,18,20,22,-1,-1,-1,-1,-1,-1,-1,-1],"split_conditions":[5.1E1,3E0,1.1880937E-1,1E1,5.984191E-2,2.9125E1,1E0,-1.433219E-1,-5.0524045E-2,3E0,7.8E0,1.5155E2,8.05E0,3E1,1E0,-5.0524045E-2,-2.8436674E-2,-2.8436674E-2,-6.349302E-3,-6.349302E-3,9.787492E-3,9.787492E-3,2.592429E-2],"split_indices":[2,3,0,2,0,5,6,0,0,0,5,5,5,2,94,0,0,0,0,0,0,0,0],"split_type":[0,0,0,0,0,0,0,0,0,0,0,0,0,0,0,0,0,0,0,0,0,0,0],"sum_hessian":[1.11216064E2,1.0662517E2,4.590899E0,9.771218E1,8.912986E0,6.931003E0,9.078118E1,4.3422594E0,2.588744E0,3.5329502E1,5.545168E1,1.5002414E1,2.0327087E1,1.0320009E1,4.5131668E1,1.3906257E1,1.0961568E0,9.336463E0,1.0990624E1,4.5562944E0,5.763715E0,1.1756467E1,3.3375202E1],"tree_param":{"num_deleted":"0","num_feature":"98","num_nodes":"23","size_leaf_vector":"1"}},{"base_weights":[-2.252687E-2,-6.1958343E-2,1.4065612E-2,-1.06147364E-1,-4.5314144E-2,-2.3946365E-2,8.814075E-2,-1.5002291E-1,-3.0781988E-2,-2.3946365E-2,3.209719E-2,3.7065763E-2,2.73422E-1,-5.703746E-2,-2.7120735E-2,-6.1994646E-2,-2.3946365E-2,-2.3946365E-2,1.2226239E-3,4.0754126E-3,3.209719E-2,9.629157E-3,7.375227E-2,4.657317E-2,1.1207964E-1,-9.040245E-2,-4.2970505E-2,-1.2891152E-2,-7.18391E-3,-7.18391E-3,-2.980643E-3,1.2226239E-3,1.8086301E-2,5.4258904E-3,9.629157E-3,5.292473E-2,4.657317E-2,-2.7120735E-2,-2.0005943E-2,-2.0005943E-2,-1.2891152E-2,3.3242574E-3,5.4258904E-3,1.587742E-2,3.1225296E-2],"categories":[],"categories_nodes":[],"categories_segments":[],"categories_sizes":[],"default_left":[1,0,0,0,0,0,0,0,0,0,0,0,0,0,0,0,0,0,0,0,0,0,0,0,0,0,0,0,0,0,0,0,0,0,0,0,0,0,0,0,0,0,0,0,0],"id":27,"left_children":[1,3,5,-1,7,9,11,13,15,17,19,21,23,-1,-1,25,27,29,-1,31,33,-1,35,-1,-1,37,39,-1,-1,-1,-1,-1,41,-1,-1,43,-1,-1,-1,-1,-1,-1,-1,-1,-1],"loss_changes":[1.6278756E-1,2.4725306E-1,2.1518801E-1,0E0,7.5147614E-2,1.18868925E-1,2.1661635E-1,5.845979E-3,5.1114272E-2,2.1776259E-2,4.9412876E-2,2.928881E-2,1.9908339E-2,0E0,0E0,1.3321449E-1,1.2643419E-2,7.0435703E-3,0E0,1.3320604E-2,8.252665E-3,0E0,9.093259E-2,0E0,0E0,2.897036E-2,2.1314442E-2,0E0,0E0,0E0,0E0,0E0,5.5548176E-4,0E0,0E0,3.5371363E-2,0E0,0E0,0E0,0E0,0E0,0E0,0E0,0E0,0E0],"parents":[2147483647,0,0,1,1,2,2,4,4,5,5,6,6,7,7,8,8,9,9,10,10,11,11,12,12,15,15,16,16,17,17,19,19,20,20,22,22,25,25,26,26,32,32,35,35],"right_children":[2,4,6,-1,8,10,12,14,16,18,20,22,24,-1,-1,26,28,30,-1,32,34,-1,36,-1,-1,38,40,-1,-1,-1,-1,-1,42,-1,-1,44,-1,-1,-1,-1,-1,-1,-1,-1,-1],"split_conditions":[2.3E1,7.2292E0,3E0,-1.06147364E-1,3E0,2.62833E1,1.8E1,1E0,1E0,3.9E1,1E0,1E0,3.13875E1,-5.703746E-2,-2.7120735E-2,1E0,7.775E0,2.415E1,1.2226239E-3,5E1,2.7E1,9.629157E-3,9.5E0,4.657317E-2,1.1207964E-1,1.9E1,1E0,-1.2891152E-2,-7.18391E-3,-7.18391E-3,-2.980643E-3,1.2226239E-3,1E0,5.4258904E-3,9.629157E-3,1E0,4.657317E-2,-2.7120735E-2,-2.0005943E-2,-2.0005943E-2,-1.2891152E-2,3.3242574E-3,5.4258904E-3,1.587742E-2,3.1225296E-2],"split_indices":[2,5,0,0,2,5,5,6,95,2,96,96,5,0,0,4,5,5,0,5,2,0,5,0,0,2,6,0,0,0,0,0,3,0,0,6,0,0,0,0,0,0,0,0,0],"split_type":[0,0,0,0,0,0,0,0,0,0,0,0,0,0,0,0,0,0,0,0,0,0,0,0,0,0,0,0,0,0,0,0,0,0,0,0,0,0,0,0,0,0,0,0,0],"sum_hessian":[1.11216064E2,5.3197784E1,5.801828E1,1.7771016E0,5.1420685E1,3.505704E1,2.296124E1,5.130475E0,4.6290207E1,1.5565292E1,1.9491749E1,1.8940199E1,4.0210404E0,2.6009595E0,2.5295157E0,3.623039E1,1.005982E1,1.1483667E1,4.0816255E0,7.884435E0,1.1607313E1,2.183017E0,1.6757183E1,2.6272495E0,1.393791E0,2.3121159E1,1.3109229E1,5.7420034E0,4.3178163E0,9.692495E0,1.7911717E0,1.9259968E0,5.9584384E0,1.05377E0,1.0553544E1,1.3101818E1,3.6553648E0,6.0655456E0,1.7055613E1,6.2625403E0,6.8466887E0,3.3786342E0,2.5798042E0,3.368098E0,9.73372E0],"tree_param":{"num_deleted":"0","num_feature":"98","num_nodes":"45","size_leaf_vector":"1"}}]},"name":"gbtree"},"learner_model_param":{"base_score":"5E-1","boost_from_average":"1","num_class":"2","num_feature":"98","num_target":"1"},"objective":{"name":"multi:softmax","softmax_multiclass_param":{"num_class":"2"}}},"version":[3,0,0]}