{"learner":{"attributes":{},"feature_names":["vhigh","vhigh.1","2","2.1","small","low"],"feature_types":["float","float","float","float","float","float"],"gradient_booster":{"model":{"gbtree_model_param":{"num_parallel_tree":"1","num_trees":"600"},"iteration_indptr":[0,3,6,9,12,15,18,21,24,27,30,33,36,39,42,45,48,51,54,57,60,63,66,69,72,75,78,81,84,87,90,93,96,99,102,105,108,111,114,117,120,123,126,129,132,135,138,141,144,147,150,153,156,159,162,165,168,171,174,177,180,183,186,189,192,195,198,201,204,207,210,213,216,219,222,225,228,231,234,237,240,243,246,249,252,255,258,261,264,267,270,273,276,279,282,285,288,291,294,297,300,303,306,309,312,315,318,321,324,327,330,333,336,339,342,345,348,351,354,357,360,363,366,369,372,375,378,381,384,387,390,393,396,399,402,405,408,411,414,417,420,423,426,429,432,435,438,441,444,447,450,453,456,459,462,465,468,471,474,477,480,483,486,489,492,495,498,501,504,507,510,513,516,519,522,525,528,531,534,537,540,543,546,549,552,555,558,561,564,567,570,573,576,579,582,585,588,591,594,597,600],"tree_info":[0,1,2,0,1,2,0,1,2,0,1,2,0,1,2,0,1,2,0,1,2,0,1,2,0,1,2,0,1,2,0,1,2,0,1,2,0,1,2,0,1,2,0,1,2,0,1,2,0,1,2,0,1,2,0,1,2,0,1,2,0,1,2,0,1,2,0,1,2,0,1,2,0,1,2,0,1,2,0,1,2,0,1,2,0,1,2,0,1,2,0,1,2,0,1,2,0,1,2,0,1,2,0,1,2,0,1,2,0,1,2,0,1,2,0,1,2,0,1,2,0,1,2,0,1,2,0,1,2,0,1,2,0,1,2,0,1,2,0,1,2,0,1,2,0,1,2,0,1,2,0,1,2,0,1,2,0,1,2,0,1,2,0,1,2,0,1,2,0,1,2,0,1,2,0,1,2,0,1,2,0,1,2,0,1,2,0,1,2,0,1,2,0,1,2,0,1,2,0,1,2,0,1,2,0,1,2,0,1,2,0,1,2,0,1,2,0,1,2,0,1,2,0,1,2,0,1,2,0,1,2,0,1,2,0,1,2,0,1,2,0,1,2,0,1,2,0,1,2,0,1,2,0,1,2,0,1,2,0,1,2,0,1,2,0,1,2,0,1,2,0,1,2,0,1,2,0,1,2,0,1,2,0,1,2,0,1,2,0,1,2,0,1,2,0,1,2,0,1,2,0,1,2,0,1,2,0,1,2,0,1,2,0,1,2,0,1,2,0,1,2,0,1,2,0,1,2,0,1,2,0,1,2,0,1,2,0,1,2,0,1,2,0,1,2,0,1,2,0,1,2,0,1,2,0,1,2,0,1,2,0,1,2,0,1,2,0,1,2,0,1,2,0,1,2,0,1,2,0,1,2,0,1,2,0,1,2,0,1,2,0,1,2,0,1,2,0,1,2,0,1,2,0,1,2,0,1,2,0,1,2,0,1,2,0,1,2,0,1,2,0,1,2,0,1,2,0,1,2,0,1,2,0,1,2,0,1,2,0,1,2,0,1,2,0,1,2,0,1,2,0,1,2,0,1,2,0,1,2,0,1,2,0,1,2,0,1,2,0,1,2,0,1,2,0,1,2,0,1,2,0,1,2,0,1,2,0,1,2,0,1,2,0,1,2,0,1,2,0,1,2,0,1,2,0,1,2,0,1,2,0,1,2,0,1,2,0,1,2,0,1,2,0,1,2,0,1,2,0,1,2,0,1,2,0,1,2,0,1,2,0,1,2,0,1,2,0,1,2,0,1,2,0,1,2,0,1,2,0,1,2,0,1,2,0,1,2,0,1,2,0,1,2,0,1,2,0,1,2,0,1,2,0,1,2,0,1,2,0,1,2,0,1,2,0,1,2,0,1,2],"trees":[{"base_weights":[-2.311026E-1,-7.396632E-2,2.0934658E-3,1.9749212E-1,-3.835052E-1,3.544093E-2,-6.575347E-3,-2.0577623E-2,-5.944701E-2],"categories":[],"categories_nodes":[],"categories_segments":[],"categories_sizes":[],"default_left":[0,0,0,0,0,0,0,0,0],"id":0,"left_children":[1,-1,3,5,7,-1,-1,-1,-1],"loss_changes":[2.7370483E1,0E0,1.2072411E1,4.4156947E0,1.898212E0,0E0,0E0,0E0,0E0],"parents":[2147483647,0,0,2,2,3,3,4,4],"right_children":[2,-1,4,6,8,-1,-1,-1,-1],"split_conditions":[1E0,-7.396632E-2,2E0,2E0,2E0,3.544093E-2,-6.575347E-3,-2.0577623E-2,-5.944701E-2],"split_indices":[3,0,4,0,0,0,0,0,0],"split_type":[0,0,0,0,0,0,0,0,0],"sum_hessian":[2.2977777E2,7.155555E1,1.5822221E2,1.0533333E2,5.2888885E1,6.577777E1,3.9555553E1,2.9777777E1,2.311111E1],"tree_param":{"num_deleted":"0","num_feature":"6","num_nodes":"9","size_leaf_vector":"1"}},{"base_weights":[9.5549375E-1,1.4799406E-1,7.1332884E-1,5.612722E-1,1.073903E0,7.796258E-2,3.768844E-2,8.434164E-2,1.416149E-1],"categories":[],"categories_nodes":[],"categories_segments":[],"categories_sizes":[],"default_left":[0,0,0,0,0,0,0,0,0],"id":1,"left_children":[1,-1,3,5,7,-1,-1,-1,-1],"loss_changes":[2.9382599E1,0E0,8.492554E0,4.488369E0,2.60075E0,0E0,0E0,0E0,0E0],"parents":[2147483647,0,0,2,2,3,3,4,4],"right_children":[2,-1,4,6,8,-1,-1,-1,-1],"split_conditions":[1E0,1.4799406E-1,3E0,1E0,2E0,7.796258E-2,3.768844E-2,8.434164E-2,1.416149E-1],"split_indices":[3,0,1,1,0,0,0,0,0],"split_type":[0,0,0,0,0,0,0,0,0],"sum_hessian":[2.3866666E2,7.377777E1,1.6488889E2,1.1777777E2,4.7111107E1,5.2444443E1,6.533333E1,3.0222221E1,1.6888887E1],"tree_param":{"num_deleted":"0","num_feature":"6","num_nodes":"9","size_leaf_vector":"1"}},{"base_weights":[-7.4688804E-1],"categories":[],"categories_nodes":[],"categories_segments":[],"categories_sizes":[],"default_left":[0],"id":2,"left_children":[-1],"loss_changes":[0E0],"parents":[2147483647],"right_children":[-1],"split_conditions":[-7.468881E-2],"split_indices":[0],"split_type":[0],"sum_hessian":[2.3999998E2],"tree_param":{"num_deleted":"0","num_feature":"6","num_nodes":"1","size_leaf_vector":"1"}},{"base_weights":[-1.8374531E-1,3.133933E-1,-4.305824E-1,-6.952515E-2,7.890441E-1,-7.335852E-2,-1.1022597E-1,1.1436274E-1,2.187346E-2,2.1711096E-2,-6.764804E-2],"categories":[],"categories_nodes":[],"categories_segments":[],"categories_sizes":[],"default_left":[0,0,0,0,0,0,0,0,0,0,0],"id":3,"left_children":[1,3,5,-1,7,-1,9,-1,-1,-1,-1],"loss_changes":[2.9975552E1,3.9534E1,1.5733183E1,0E0,1.1011211E1,0E0,1.5043368E1,0E0,0E0,0E0,0E0],"parents":[2147483647,0,0,1,1,2,2,4,4,6,6],"right_children":[2,4,6,-1,8,-1,10,-1,-1,-1,-1],"split_conditions":[1E0,1E0,2E0,-6.952515E-2,2E0,-7.335852E-2,2E0,1.1436274E-1,2.187346E-2,2.1711096E-2,-6.764804E-2],"split_indices":[5,3,5,0,0,0,4,0,0,0,0],"split_type":[0,0,0,0,0,0,0,0,0,0,0],"sum_hessian":[2.4217546E2,8.025979E1,1.6191566E2,2.5571747E1,5.468804E1,8.2548706E1,7.936697E1,3.310199E1,2.158605E1,5.068428E1,2.8682682E1],"tree_param":{"num_deleted":"0","num_feature":"6","num_nodes":"11","size_leaf_vector":"1"}},{"base_weights":[8.636027E-1,7.3666203E-1,1.1151536E-1,6.016251E-1,9.574704E-1,4.7044273E-2,8.766353E-2,1.2965748E-1,7.724176E-2],"categories":[],"categories_nodes":[],"categories_segments":[],"categories_sizes":[],"default_left":[0,0,0,0,0,0,0,0,0],"id":4,"left_children":[1,3,-1,5,7,-1,-1,-1,-1],"loss_changes":[7.132675E0,4.4481583E0,0E0,3.4567146E0,2.9049492E0,0E0,0E0,0E0,0E0],"parents":[2147483647,0,0,1,1,3,3,4,4],"right_children":[2,4,-1,6,8,-1,-1,-1,-1],"split_conditions":[2E0,2E0,1.1151536E-1,3E0,1E0,4.7044273E-2,8.766353E-2,1.2965748E-1,7.724176E-2],"split_indices":[4,0,0,1,1,0,0,0,0],"split_type":[0,0,0,0,0,0,0,0,0],"sum_hessian":[2.4809683E2,1.6749962E2,8.059723E1,1.0624772E2,6.1251892E1,7.37696E1,3.2478123E1,1.9504292E1,4.17476E1],"tree_param":{"num_deleted":"0","num_feature":"6","num_nodes":"9","size_leaf_vector":"1"}},{"base_weights":[-7.1621096E-1],"categories":[],"categories_nodes":[],"categories_segments":[],"categories_sizes":[],"default_left":[0],"id":5,"left_children":[-1],"loss_changes":[0E0],"parents":[2147483647],"right_children":[-1],"split_conditions":[-7.16211E-2],"split_indices":[0],"split_type":[0],"sum_hessian":[2.3269731E2],"tree_param":{"num_deleted":"0","num_feature":"6","num_nodes":"1","size_leaf_vector":"1"}},{"base_weights":[-1.7619947E-1,3.1236267E-1,-4.317073E-1,5.1937354E-1,-2.5019744E-1,-7.127906E-2,-1.3002072E-1,6.7118675E-2,2.1607975E-2,5.306255E-3,-6.486685E-2,1.3781051E-2,-6.4633206E-2],"categories":[],"categories_nodes":[],"categories_segments":[],"categories_sizes":[],"default_left":[0,0,0,0,0,0,0,0,0,0,0,0,0],"id":6,"left_children":[1,3,5,7,9,-1,11,-1,-1,-1,-1,-1,-1],"loss_changes":[2.8594563E1,9.314661E0,1.2637064E1,2.5245266E0,2.6796315E0,0E0,1.02706375E1,0E0,0E0,0E0,0E0,0E0,0E0],"parents":[2147483647,0,0,1,1,2,2,3,3,4,4,6,6],"right_children":[2,4,6,8,10,-1,12,-1,-1,-1,-1,-1,-1],"split_conditions":[1E0,3E0,2E0,2E0,2E0,-7.127906E-2,2E0,6.7118675E-2,2.1607975E-2,5.306255E-3,-6.486685E-2,1.3781051E-2,-6.4633206E-2],"split_indices":[5,1,5,0,0,0,4,0,0,0,0,0,0],"split_type":[0,0,0,0,0,0,0,0,0,0,0,0,0],"sum_hessian":[2.2698512E2,7.7868515E1,1.4911661E2,5.697838E1,2.0890135E1,7.648882E1,7.2627785E1,3.7163338E1,1.9815039E1,1.2354481E1,8.535654E0,4.830378E1,2.4324007E1],"tree_param":{"num_deleted":"0","num_feature":"6","num_nodes":"13","size_leaf_vector":"1"}},{"base_weights":[7.499776E-1,1.1794066E-1,5.35088E-1,3.6328986E-1,9.5066345E-1,1.6715778E-2,7.59524E-2,1.0093957E-1,6.9775015E-2],"categories":[],"categories_nodes":[],"categories_segments":[],"categories_sizes":[],"default_left":[0,0,0,0,0,0,0,0,0],"id":7,"left_children":[1,-1,3,5,7,-1,-1,-1,-1],"loss_changes":[2.38497E1,0E0,1.2408764E1,9.821241E0,6.263733E-2,0E0,0E0,0E0,0E0],"parents":[2147483647,0,0,2,2,3,3,4,4],"right_children":[2,-1,4,6,8,-1,-1,-1,-1],"split_conditions":[1E0,1.1794066E-1,3E0,2E0,3E0,1.6715778E-2,7.59524E-2,1.0093957E-1,6.9775015E-2],"split_indices":[3,0,1,4,2,0,0,0,0],"split_type":[0,0,0,0,0,0,0,0,0],"sum_hessian":[2.6428876E2,8.664719E1,1.7764156E2,1.2701002E2,5.063154E1,8.590817E1,4.1101845E1,3.8662212E1,1.1969328E1],"tree_param":{"num_deleted":"0","num_feature":"6","num_nodes":"9","size_leaf_vector":"1"}},{"base_weights":[-6.9262147E-1],"categories":[],"categories_nodes":[],"categories_segments":[],"categories_sizes":[],"default_left":[0],"id":8,"left_children":[-1],"loss_changes":[0E0],"parents":[2147483647],"right_children":[-1],"split_conditions":[-6.926215E-2],"split_indices":[0],"split_type":[0],"sum_hessian":[2.1961674E2],"tree_param":{"num_deleted":"0","num_feature":"6","num_nodes":"1","size_leaf_vector":"1"}},{"base_weights":[-1.7686522E-1,-6.8659514E-2,4.056092E-2,1.7200783E-1,-3.0769506E-1,3.3604544E-2,-1.9159487E-2,-4.010487E-2,-1.5986675E-2],"categories":[],"categories_nodes":[],"categories_segments":[],"categories_sizes":[],"default_left":[0,0,0,0,0,0,0,0,0],"id":9,"left_children":[1,-1,3,5,7,-1,-1,-1,-1],"loss_changes":[2.5378878E1,0E0,7.436304E0,7.0866213E0,5.5075455E-1,0E0,0E0,0E0,0E0],"parents":[2147483647,0,0,2,2,3,3,4,4],"right_children":[2,-1,4,6,8,-1,-1,-1,-1],"split_conditions":[1E0,-6.8659514E-2,3E0,2E0,2E0,3.3604544E-2,-1.9159487E-2,-4.010487E-2,-1.5986675E-2],"split_indices":[3,0,1,4,2,0,0,0,0],"split_type":[0,0,0,0,0,0,0,0,0],"sum_hessian":[2.2774086E2,6.745134E1,1.6028952E2,1.16734825E2,4.3554695E1,8.0495476E1,3.6239353E1,2.5646187E1,1.7908508E1],"tree_param":{"num_deleted":"0","num_feature":"6","num_nodes":"9","size_leaf_vector":"1"}},{"base_weights":[6.6499794E-1,1.7182061E-1,8.964743E-1,-1.4876856E-2,4.8138174E-1,1.1336104E-1,6.505948E-1,-1.4158892E-2,3.1589244E-2,1.0590821E-1,1.9471478E-2,4.2649563E-2,1.07195355E-1],"categories":[],"categories_nodes":[],"categories_segments":[],"categories_sizes":[],"default_left":[0,0,0,0,0,0,0,0,0,0,0,0,0],"id":10,"left_children":[1,3,5,7,9,-1,11,-1,-1,-1,-1,-1,-1],"loss_changes":[2.9443092E1,4.864968E0,9.536667E0,2.2829235E0,5.035545E0,0E0,7.9332085E0,0E0,0E0,0E0,0E0,0E0,0E0],"parents":[2147483647,0,0,1,1,2,2,3,3,4,4,6,6],"right_children":[2,4,6,8,10,-1,12,-1,-1,-1,-1,-1,-1],"split_conditions":[1E0,2E0,2E0,3E0,1E0,1.1336104E-1,2E0,-1.4158892E-2,3.1589244E-2,1.0590821E-1,1.9471478E-2,4.2649563E-2,1.07195355E-1],"split_indices":[5,0,5,1,1,0,4,0,0,0,0,0,0],"split_type":[0,0,0,0,0,0,0,0,0,0,0,0,0],"sum_hessian":[2.5826248E2,8.305341E1,1.7520906E2,5.24017E1,3.0651716E1,8.735244E1,8.785663E1,3.830113E1,1.410057E1,9.272008E0,2.137971E1,5.8666897E1,2.9189728E1],"tree_param":{"num_deleted":"0","num_feature":"6","num_nodes":"13","size_leaf_vector":"1"}},{"base_weights":[-6.726435E-1],"categories":[],"categories_nodes":[],"categories_segments":[],"categories_sizes":[],"default_left":[0],"id":11,"left_children":[-1],"loss_changes":[0E0],"parents":[2147483647],"right_children":[-1],"split_conditions":[-6.726435E-2],"split_indices":[0],"split_type":[0],"sum_hessian":[2.1362895E2],"tree_param":{"num_deleted":"0","num_feature":"6","num_nodes":"1","size_leaf_vector":"1"}},{"base_weights":[-1.4760761E-1,2.6691124E-1,-3.9977565E-1,4.0636015E-1,-1.4314254E-1,-6.8308935E-2,-1.265261E-1,1.4557287E-2,5.8202654E-2,3.1921354E-3,-2.1148685E-2,1.0537965E-2,-6.1208762E-2],"categories":[],"categories_nodes":[],"categories_segments":[],"categories_sizes":[],"default_left":[0,0,0,0,0,0,0,0,0,0,0,0,0],"id":12,"left_children":[1,3,5,7,9,-1,11,-1,-1,-1,-1,-1,-1],"loss_changes":[2.4696867E1,5.1805043E0,1.1267954E1,2.989581E0,2.8759095E-1,0E0,8.609788E0,0E0,0E0,0E0,0E0,0E0,0E0],"parents":[2147483647,0,0,1,1,2,2,3,3,4,4,6,6],"right_children":[2,4,6,8,10,-1,12,-1,-1,-1,-1,-1,-1],"split_conditions":[1E0,3E0,2E0,1E0,1E0,-6.8308935E-2,2E0,1.4557287E-2,5.8202654E-2,3.1921354E-3,-2.1148685E-2,1.0537965E-2,-6.1208762E-2],"split_indices":[5,1,5,1,4,0,4,0,0,0,0,0,0],"split_type":[0,0,0,0,0,0,0,0,0,0,0,0,0],"sum_hessian":[2.3424863E2,8.858022E1,1.4566841E2,6.610768E1,2.247254E1,7.07808E1,7.48876E1,2.7343424E1,3.8764256E1,6.4594913E0,1.601305E1,5.1211704E1,2.3675903E1],"tree_param":{"num_deleted":"0","num_feature":"6","num_nodes":"13","size_leaf_vector":"1"}},{"base_weights":[6.238819E-1,2.568624E-1,7.93384E-1,5.2491218E-2,5.4630476E-1,1.0449662E-1,5.4881376E-1,-1.0579574E-2,4.4497084E-2,1.0016606E-1,2.9860387E-2,3.3760518E-2,9.528123E-2],"categories":[],"categories_nodes":[],"categories_segments":[],"categories_sizes":[],"default_left":[0,0,0,0,0,0,0,0,0,0,0,0,0],"id":13,"left_children":[1,3,5,7,9,-1,11,-1,-1,-1,-1,-1,-1],"loss_changes":[1.6172806E1,4.9783897E0,1.0477173E1,3.198019E0,3.6401806E0,0E0,7.6287613E0,0E0,0E0,0E0,0E0,0E0,0E0],"parents":[2147483647,0,0,1,1,2,2,3,3,4,4,6,6],"right_children":[2,4,6,8,10,-1,12,-1,-1,-1,-1,-1,-1],"split_conditions":[1E0,2E0,2E0,3E0,1E0,1.0449662E-1,2E0,-1.0579574E-2,4.4497084E-2,1.0016606E-1,2.9860387E-2,3.3760518E-2,9.528123E-2],"split_indices":[5,0,5,1,1,0,4,0,0,0,0,0,0],"split_type":[0,0,0,0,0,0,0,0,0,0,0,0,0],"sum_hessian":[2.6224457E2,8.364505E1,1.7859952E2,4.971989E1,3.392516E1,8.642449E1,9.2175026E1,3.5951214E1,1.3768677E1,1.0880108E1,2.3045052E1,6.1735596E1,3.0439432E1],"tree_param":{"num_deleted":"0","num_feature":"6","num_nodes":"13","size_leaf_vector":"1"}},{"base_weights":[-6.595989E-1],"categories":[],"categories_nodes":[],"categories_segments":[],"categories_sizes":[],"default_left":[0],"id":14,"left_children":[-1],"loss_changes":[0E0],"parents":[2147483647],"right_children":[-1],"split_conditions":[-6.595989E-2],"split_indices":[0],"split_type":[0],"sum_hessian":[2.0332692E2],"tree_param":{"num_deleted":"0","num_feature":"6","num_nodes":"1","size_leaf_vector":"1"}},{"base_weights":[-1.3884592E-1,2.8796485E-1,-3.7523305E-1,4.239933E-1,-1.9347125E-1,-6.6273436E-2,-1.3491395E-1,7.270739E-2,1.9499356E-2,2.827133E-3,-5.9282362E-2,6.7592533E-3,-6.325911E-2],"categories":[],"categories_nodes":[],"categories_segments":[],"categories_sizes":[],"default_left":[0,0,0,0,0,0,0,0,0,0,0,0,0],"id":15,"left_children":[1,3,5,7,9,-1,11,-1,-1,-1,-1,-1,-1],"loss_changes":[2.2847185E1,5.3800297E0,9.962143E0,4.257846E0,1.655783E0,0E0,8.155598E0,0E0,0E0,0E0,0E0,0E0,0E0],"parents":[2147483647,0,0,1,1,2,2,3,3,4,4,6,6],"right_children":[2,4,6,8,10,-1,12,-1,-1,-1,-1,-1,-1],"split_conditions":[1E0,3E0,2E0,1E0,2E0,-6.6273436E-2,2E0,7.270739E-2,1.9499356E-2,2.827133E-3,-5.9282362E-2,6.7592533E-3,-6.325911E-2],"split_indices":[5,1,5,0,0,0,4,0,0,0,0,0,0],"split_type":[0,0,0,0,0,0,0,0,0,0,0,0,0],"sum_hessian":[2.2437965E2,7.9899055E1,1.444806E2,6.239019E1,1.7508862E1,6.498239E1,7.949821E1,2.5915752E1,3.6474438E1,1.1855331E1,5.6535306E0,5.7120052E1,2.2378157E1],"tree_param":{"num_deleted":"0","num_feature":"6","num_nodes":"13","size_leaf_vector":"1"}},{"base_weights":[6.0036236E-1,2.0794259E-1,7.736957E-1,1.0063924E-1,-1.7391467E-1,9.622236E-2,5.80421E-1,-4.22209E-2,2.4307873E-2,9.523739E-2,4.081778E-2],"categories":[],"categories_nodes":[],"categories_segments":[],"categories_sizes":[],"default_left":[0,0,0,0,0,0,0,0,0,0,0],"id":16,"left_children":[1,3,5,-1,7,-1,9,-1,-1,-1,-1],"loss_changes":[1.8568657E1,2.6313572E1,6.387459E0,0E0,6.1954746E0,0E0,5.80315E0,0E0,0E0,0E0,0E0],"parents":[2147483647,0,0,1,1,2,2,4,4,6,6],"right_children":[2,4,6,-1,8,-1,10,-1,-1,-1,-1],"split_conditions":[1E0,1E0,2E0,1.0063924E-1,2E0,9.622236E-2,1E0,-4.22209E-2,2.4307873E-2,9.523739E-2,4.081778E-2],"split_indices":[5,3,5,0,0,0,3,0,0,0,0],"split_type":[0,0,0,0,0,0,0,0,0,0,0],"sum_hessian":[2.7435565E2,8.4729996E1,1.8962566E2,2.688303E1,5.7846966E1,9.3977615E1,9.564804E1,3.624986E1,2.1597107E1,2.8839954E1,6.680809E1],"tree_param":{"num_deleted":"0","num_feature":"6","num_nodes":"11","size_leaf_vector":"1"}},{"base_weights":[-6.389431E-1],"categories":[],"categories_nodes":[],"categories_segments":[],"categories_sizes":[],"default_left":[0],"id":17,"left_children":[-1],"loss_changes":[0E0],"parents":[2147483647],"right_children":[-1],"split_conditions":[-6.389431E-2],"split_indices":[0],"split_type":[0],"sum_hessian":[1.932707E2],"tree_param":{"num_deleted":"0","num_feature":"6","num_nodes":"1","size_leaf_vector":"1"}},{"base_weights":[-8.526209E-2,-6.584777E-2,1.2847732E-1,2.8035066E-1,-2.7693266E-1,1.8748848E-3,4.7222935E-2,-3.6999088E-2,-1.6473416E-2],"categories":[],"categories_nodes":[],"categories_segments":[],"categories_sizes":[],"default_left":[0,0,0,0,0,0,0,0,0],"id":18,"left_children":[1,-1,3,5,7,-1,-1,-1,-1],"loss_changes":[2.6692244E1,0E0,9.868909E0,5.8230515E0,3.967936E-1,0E0,0E0,0E0,0E0],"parents":[2147483647,0,0,2,2,3,3,4,4],"right_children":[2,-1,4,6,8,-1,-1,-1,-1],"split_conditions":[1E0,-6.584777E-2,3E0,1E0,2E0,1.8748848E-3,4.7222935E-2,-3.6999088E-2,-1.6473416E-2],"split_indices":[3,0,1,1,2,0,0,0,0],"split_type":[0,0,0,0,0,0,0,0,0],"sum_hessian":[2.1617198E2,5.8147842E1,1.5802414E2,1.15183105E2,4.2841034E1,4.9201256E1,6.598185E1,2.2162045E1,2.0678991E1],"tree_param":{"num_deleted":"0","num_feature":"6","num_nodes":"9","size_leaf_vector":"1"}},{"base_weights":[4.9993408E-1,9.019209E-2,3.3481398E-1,-1.5283687E-1,5.686117E-1,-4.0099934E-2,4.7113813E-2,9.07199E-2,2.2677926E-2],"categories":[],"categories_nodes":[],"categories_segments":[],"categories_sizes":[],"default_left":[0,0,0,0,0,0,0,0,0],"id":19,"left_children":[1,-1,3,5,7,-1,-1,-1,-1],"loss_changes":[1.6951065E1,0E0,2.1274548E1,9.636457E0,1.4357334E1,0E0,0E0,0E0,0E0],"parents":[2147483647,0,0,2,2,3,3,4,4],"right_children":[2,-1,4,6,8,-1,-1,-1,-1],"split_conditions":[1E0,9.019209E-2,1E0,3E0,2E0,-4.0099934E-2,4.7113813E-2,9.07199E-2,2.2677926E-2],"split_indices":[3,0,5,1,5,0,0,0,0],"split_type":[0,0,0,0,0,0,0,0,0],"sum_hessian":[2.589285E2,7.409097E1,1.8483754E2,6.001197E1,1.2482556E2,4.3191525E1,1.6820448E1,6.1879536E1,6.294603E1],"tree_param":{"num_deleted":"0","num_feature":"6","num_nodes":"9","size_leaf_vector":"1"}},{"base_weights":[-6.243433E-1],"categories":[],"categories_nodes":[],"categories_segments":[],"categories_sizes":[],"default_left":[0],"id":20,"left_children":[-1],"loss_changes":[0E0],"parents":[2147483647],"right_children":[-1],"split_conditions":[-6.2434327E-2],"split_indices":[0],"split_type":[0],"sum_hessian":[1.7805975E2],"tree_param":{"num_deleted":"0","num_feature":"6","num_nodes":"1","size_leaf_vector":"1"}},{"base_weights":[-1.1899023E-1,-6.37049E-2,8.899929E-2,6.384973E-1,-2.3091345E-1,8.336795E-2,2.934038E-2,-6.413212E-2,1.2946898E-2],"categories":[],"categories_nodes":[],"categories_segments":[],"categories_sizes":[],"default_left":[0,0,0,0,0,0,0,0,0],"id":21,"left_children":[1,-1,3,5,7,-1,-1,-1,-1],"loss_changes":[2.222387E1,0E0,2.610651E1,3.4332352E0,1.399587E1,0E0,0E0,0E0,0E0],"parents":[2147483647,0,0,2,2,3,3,4,4],"right_children":[2,-1,4,6,8,-1,-1,-1,-1],"split_conditions":[1E0,-6.37049E-2,1E0,2E0,2E0,8.336795E-2,2.934038E-2,-6.413212E-2,1.2946898E-2],"split_indices":[3,0,5,0,5,0,0,0,0],"split_type":[0,0,0,0,0,0,0,0,0],"sum_hessian":[2.0472632E2,5.8056564E1,1.4666975E2,5.3602898E1,9.306685E1,3.3333767E1,2.0269129E1,4.3148865E1,4.9917988E1],"tree_param":{"num_deleted":"0","num_feature":"6","num_nodes":"9","size_leaf_vector":"1"}},{"base_weights":[4.7989264E-1,4.059633E-1,6.351841E-1,3.2795963E-1,6.0602003E-1,5.5015948E-2,7.420926E-2,4.6488553E-2,2.0578386E-2,8.840718E-2,4.5271315E-2],"categories":[],"categories_nodes":[],"categories_segments":[],"categories_sizes":[],"default_left":[0,0,0,0,0,0,0,0,0,0,0],"id":22,"left_children":[1,3,5,7,9,-1,-1,-1,-1,-1,-1],"loss_changes":[2.6849327E0,2.5544128E0,3.2710648E-1,2.0642757E0,1.6592216E0,0E0,0E0,0E0,0E0,0E0,0E0],"parents":[2147483647,0,0,1,1,2,2,3,3,4,4],"right_children":[2,4,6,8,10,-1,-1,-1,-1,-1,-1],"split_conditions":[2E0,3E0,2E0,1E0,1E0,5.5015948E-2,7.420926E-2,4.6488553E-2,2.0578386E-2,8.840718E-2,4.5271315E-2],"split_indices":[4,1,0,1,0,0,0,0,0,0,0],"split_type":[0,0,0,0,0,0,0,0,0,0,0],"sum_hessian":[2.5532715E2,1.754264E2,7.990073E1,1.2811336E2,4.731306E1,4.792884E1,3.197189E1,5.9087368E1,6.9025986E1,1.5121187E1,3.219187E1],"tree_param":{"num_deleted":"0","num_feature":"6","num_nodes":"11","size_leaf_vector":"1"}},{"base_weights":[-6.1217356E-1],"categories":[],"categories_nodes":[],"categories_segments":[],"categories_sizes":[],"default_left":[0],"id":23,"left_children":[-1],"loss_changes":[0E0],"parents":[2147483647],"right_children":[-1],"split_conditions":[-6.1217356E-2],"split_indices":[0],"split_type":[0],"sum_hessian":[1.7301367E2],"tree_param":{"num_deleted":"0","num_feature":"6","num_nodes":"1","size_leaf_vector":"1"}},{"base_weights":[-8.92578E-2,-6.291173E-2,1.0419865E-1,2.3988366E-1,-1.1647876E-1,4.610942E-2,1.2592189E-2,1.5419278E-3,-3.902931E-2],"categories":[],"categories_nodes":[],"categories_segments":[],"categories_sizes":[],"default_left":[0,0,0,0,0,0,0,0,0],"id":24,"left_children":[1,-1,3,5,7,-1,-1,-1,-1],"loss_changes":[2.277301E1,0E0,4.84637E0,2.4623346E0,2.2431703E0,0E0,0E0,0E0,0E0],"parents":[2147483647,0,0,2,2,3,3,4,4],"right_children":[2,-1,4,6,8,-1,-1,-1,-1],"split_conditions":[1E0,-6.291173E-2,2E0,1E0,2E0,4.610942E-2,1.2592189E-2,1.5419278E-3,-3.902931E-2],"split_indices":[3,0,0,4,4,0,0,0,0],"split_type":[0,0,0,0,0,0,0,0,0],"sum_hessian":[2.1642255E2,5.6500446E1,1.5992209E2,9.897785E1,6.0944244E1,3.2617725E1,6.636012E1,4.176802E1,1.9176222E1],"tree_param":{"num_deleted":"0","num_feature":"6","num_nodes":"9","size_leaf_vector":"1"}},{"base_weights":[4.6295285E-1,8.0849275E-2,2.9610643E-1,-2.5217304E-1,5.456891E-1,-4.147502E-2,-1.47739975E-2,8.277237E-2,2.4928607E-2],"categories":[],"categories_nodes":[],"categories_segments":[],"categories_sizes":[],"default_left":[0,0,0,0,0,0,0,0,0],"id":25,"left_children":[1,-1,3,5,7,-1,-1,-1,-1],"loss_changes":[1.5063919E1,0E0,2.4849102E1,9.094434E-1,1.0193966E1,0E0,0E0,0E0,0E0],"parents":[2147483647,0,0,2,2,3,3,4,4],"right_children":[2,-1,4,6,8,-1,-1,-1,-1],"split_conditions":[1E0,8.0849275E-2,1E0,1E0,2E0,-4.147502E-2,-1.47739975E-2,8.277237E-2,2.4928607E-2],"split_indices":[3,0,5,4,5,0,0,0,0],"split_type":[0,0,0,0,0,0,0,0,0],"sum_hessian":[2.644425E2,8.4857155E1,1.7958536E2,5.617362E1,1.23411736E2,2.0808437E1,3.536518E1,6.232011E1,6.1091625E1],"tree_param":{"num_deleted":"0","num_feature":"6","num_nodes":"9","size_leaf_vector":"1"}},{"base_weights":[-6.0136807E-1],"categories":[],"categories_nodes":[],"categories_segments":[],"categories_sizes":[],"default_left":[0],"id":26,"left_children":[-1],"loss_changes":[0E0],"parents":[2147483647],"right_children":[-1],"split_conditions":[-6.0136806E-2],"split_indices":[0],"split_type":[0],"sum_hessian":[1.665267E2],"tree_param":{"num_deleted":"0","num_feature":"6","num_nodes":"1","size_leaf_vector":"1"}},{"base_weights":[-9.7730465E-2,-6.1095513E-2,6.710555E-2,2.3044461E-1,-1.7174304E-1,4.753214E-2,6.424849E-3,-9.045648E-3,-3.4236487E-2],"categories":[],"categories_nodes":[],"categories_segments":[],"categories_sizes":[],"default_left":[0,0,0,0,0,0,0,0,0],"id":27,"left_children":[1,-1,3,5,7,-1,-1,-1,-1],"loss_changes":[1.7685102E1,0E0,6.233467E0,3.824029E0,8.7124074E-1,0E0,0E0,0E0,0E0],"parents":[2147483647,0,0,2,2,3,3,4,4],"right_children":[2,-1,4,6,8,-1,-1,-1,-1],"split_conditions":[1E0,-6.1095513E-2,2E0,1E0,2E0,4.753214E-2,6.424849E-3,-9.045648E-3,-3.4236487E-2],"split_indices":[3,0,0,4,4,0,0,0,0],"split_type":[0,0,0,0,0,0,0,0,0],"sum_hessian":[2.0756432E2,4.980079E1,1.5776353E2,9.371248E1,6.4051056E1,3.7135807E1,5.657667E1,4.4419266E1,1.9631788E1],"tree_param":{"num_deleted":"0","num_feature":"6","num_nodes":"9","size_leaf_vector":"1"}},{"base_weights":[4.1616622E-1,6.640939E-2,5.8847016E-1,-5.139768E-2,4.3641588E-1,7.742693E-2,3.982181E-1,1.558051E-2,-2.0699117E-2,8.369347E-2,2.3248946E-2,1.8713811E-2,7.898147E-2],"categories":[],"categories_nodes":[],"categories_segments":[],"categories_sizes":[],"default_left":[0,0,0,0,0,0,0,0,0,0,0,0,0],"id":28,"left_children":[1,3,5,7,9,-1,11,-1,-1,-1,-1,-1,-1],"loss_changes":[1.5809658E1,3.8550153E0,5.9152107E0,2.2111676E0,1.5483298E0,0E0,7.2126894E0,0E0,0E0,0E0,0E0,0E0,0E0],"parents":[2147483647,0,0,1,1,2,2,3,3,4,4,6,6],"right_children":[2,4,6,8,10,-1,12,-1,-1,-1,-1,-1,-1],"split_conditions":[1E0,3E0,2E0,1E0,1E0,7.742693E-2,2E0,1.558051E-2,-2.0699117E-2,8.369347E-2,2.3248946E-2,1.8713811E-2,7.898147E-2],"split_indices":[5,1,5,1,0,0,4,0,0,0,0,0,0],"split_type":[0,0,0,0,0,0,0,0,0,0,0,0,0],"sum_hessian":[2.6198636E2,8.6924736E1,1.7506163E2,6.658553E1,2.0339205E1,8.701426E1,8.804737E1,2.8556147E1,3.8029385E1,5.8147416E0,1.4524463E1,5.8170143E1,2.987723E1],"tree_param":{"num_deleted":"0","num_feature":"6","num_nodes":"13","size_leaf_vector":"1"}},{"base_weights":[-5.9073555E-1],"categories":[],"categories_nodes":[],"categories_segments":[],"categories_sizes":[],"default_left":[0],"id":29,"left_children":[-1],"loss_changes":[0E0],"parents":[2147483647],"right_children":[-1],"split_conditions":[-5.9073556E-2],"split_indices":[0],"split_type":[0],"sum_hessian":[1.5239915E2],"tree_param":{"num_deleted":"0","num_feature":"6","num_nodes":"1","size_leaf_vector":"1"}},{"base_weights":[-7.279302E-2,2.040802E-2,-2.9582757E-1,1.1827441E-1,-2.8734258E-1,-4.3612698E-1,-2.1965106E-1,-4.798892E-3,2.4102291E-2,-6.242081E-2,-1.069069E-2,-3.175832E-2,-5.6414384E-2,-2.7116364E-2,-4.372477E-3],"categories":[],"categories_nodes":[],"categories_segments":[],"categories_sizes":[],"default_left":[0,0,0,0,0,0,0,0,0,0,0,0,0,0,0],"id":30,"left_children":[1,3,5,7,9,11,13,-1,-1,-1,-1,-1,-1,-1,-1],"loss_changes":[4.161145E0,4.3081927E0,5.345111E-1,2.2234714E0,2.032219E0,1.2038207E-1,3.527912E-1,0E0,0E0,0E0,0E0,0E0,0E0,0E0,0E0],"parents":[2147483647,0,0,1,1,2,2,3,3,4,4,5,5,6,6],"right_children":[2,4,6,8,10,12,14,-1,-1,-1,-1,-1,-1,-1,-1],"split_conditions":[2E0,3E0,1E0,1E0,1E0,2E0,3E0,-4.798892E-3,2.4102291E-2,-6.242081E-2,-1.069069E-2,-3.175832E-2,-5.6414384E-2,-2.7116364E-2,-4.372477E-3],"split_indices":[4,1,1,1,0,0,2,0,0,0,0,0,0,0,0],"split_type":[0,0,0,0,0,0,0,0,0,0,0,0,0,0,0],"sum_hessian":[1.9888925E2,1.409133E2,5.797595E1,1.0738117E2,3.3532127E1,1.8738598E1,3.923735E1,4.586538E1,6.1515797E1,1.0838211E1,2.2693914E1,1.1536541E1,7.2020574E0,2.9931751E1,9.305599E0],"tree_param":{"num_deleted":"0","num_feature":"6","num_nodes":"15","size_leaf_vector":"1"}},{"base_weights":[3.9813867E-1,7.439358E-2,2.5845763E-1,1.6684607E-1,5.0164515E-1,3.5796154E-2,7.2130415E-4,6.068954E-2,3.723642E-2],"categories":[],"categories_nodes":[],"categories_segments":[],"categories_sizes":[],"default_left":[0,0,0,0,0,0,0,0,0],"id":31,"left_children":[1,-1,3,5,7,-1,-1,-1,-1],"loss_changes":[1.2024845E1,0E0,3.964222E0,4.069519E0,4.4372654E-1,0E0,0E0,0E0,0E0],"parents":[2147483647,0,0,2,2,3,3,4,4],"right_children":[2,-1,4,6,8,-1,-1,-1,-1],"split_conditions":[1E0,7.439358E-2,3E0,1E0,2E0,3.5796154E-2,7.2130415E-4,6.068954E-2,3.723642E-2],"split_indices":[3,0,1,1,2,0,0,0,0],"split_type":[0,0,0,0,0,0,0,0,0],"sum_hessian":[2.519357E2,7.12419E1,1.806938E2,1.32475E2,4.8218792E1,5.9726723E1,7.274828E1,2.454325E1,2.3675543E1],"tree_param":{"num_deleted":"0","num_feature":"6","num_nodes":"9","size_leaf_vector":"1"}},{"base_weights":[-5.823626E-1],"categories":[],"categories_nodes":[],"categories_segments":[],"categories_sizes":[],"default_left":[0],"id":32,"left_children":[-1],"loss_changes":[0E0],"parents":[2147483647],"right_children":[-1],"split_conditions":[-5.823626E-2],"split_indices":[0],"split_type":[0],"sum_hessian":[1.5016948E2],"tree_param":{"num_deleted":"0","num_feature":"6","num_nodes":"1","size_leaf_vector":"1"}},{"base_weights":[-7.1019925E-2,2.549321E-1,-2.9025728E-1,3.5777405E-1,-8.450097E-2,-6.081588E-2,-3.1921607E-2,1.1670568E-2,5.0973356E-2,-2.2017378E-2,5.7180985E-3,2.045487E-2,-5.9626956E-2],"categories":[],"categories_nodes":[],"categories_segments":[],"categories_sizes":[],"default_left":[0,0,0,0,0,0,0,0,0,0,0,0,0],"id":33,"left_children":[1,3,5,7,9,-1,11,-1,-1,-1,-1,-1,-1],"loss_changes":[1.3576486E1,2.7012057E0,9.296444E0,2.0986805E0,3.7014288E-1,0E0,8.614238E0,0E0,0E0,0E0,0E0,0E0,0E0],"parents":[2147483647,0,0,1,1,2,2,3,3,4,4,6,6],"right_children":[2,4,6,8,10,-1,12,-1,-1,-1,-1,-1,-1],"split_conditions":[1E0,3E0,2E0,1E0,2E0,-6.081588E-2,2E0,1.1670568E-2,5.0973356E-2,-2.2017378E-2,5.7180985E-3,2.045487E-2,-5.9626956E-2],"split_indices":[5,1,5,1,2,0,4,0,0,0,0,0,0],"split_type":[0,0,0,0,0,0,0,0,0,0,0,0,0],"sum_hessian":[1.8794943E2,7.551475E1,1.1243468E2,5.791388E1,1.760087E1,4.9799053E1,6.2635624E1,2.3075285E1,3.4838596E1,8.708103E0,8.892767E0,4.45895E1,1.8046124E1],"tree_param":{"num_deleted":"0","num_feature":"6","num_nodes":"13","size_leaf_vector":"1"}},{"base_weights":[3.8312322E-1,7.4376985E-2,5.4872066E-1,7.381707E-2,-2.335955E-1,7.326262E-2,3.6877245E-1,-4.536626E-2,3.262492E-2,7.108E-2,2.2045502E-2],"categories":[],"categories_nodes":[],"categories_segments":[],"categories_sizes":[],"default_left":[0,0,0,0,0,0,0,0,0,0,0],"id":34,"left_children":[1,3,5,-1,7,-1,9,-1,-1,-1,-1],"loss_changes":[1.23618965E1,1.7721697E1,4.9499474E0,0E0,7.466096E0,0E0,3.989894E0,0E0,0E0,0E0,0E0],"parents":[2147483647,0,0,1,1,2,2,4,4,6,6],"right_children":[2,4,6,-1,8,-1,10,-1,-1,-1,-1],"split_conditions":[1E0,1E0,2E0,7.381707E-2,3E0,7.326262E-2,1E0,-4.536626E-2,3.262492E-2,7.108E-2,2.2045502E-2],"split_indices":[5,3,5,0,1,0,3,0,0,0,0],"split_type":[0,0,0,0,0,0,0,0,0,0,0],"sum_hessian":[2.415835E2,8.484477E1,1.5673872E2,2.6446337E1,5.839843E1,7.599806E1,8.074066E1,4.205634E1,1.6342094E1,2.327497E1,5.746569E1],"tree_param":{"num_deleted":"0","num_feature":"6","num_nodes":"11","size_leaf_vector":"1"}},{"base_weights":[-5.7349026E-1],"categories":[],"categories_nodes":[],"categories_segments":[],"categories_sizes":[],"default_left":[0],"id":35,"left_children":[-1],"loss_changes":[0E0],"parents":[2147483647],"right_children":[-1],"split_conditions":[-5.7349026E-2],"split_indices":[0],"split_type":[0],"sum_hessian":[1.2929228E2],"tree_param":{"num_deleted":"0","num_feature":"6","num_nodes":"1","size_leaf_vector":"1"}},{"base_weights":[-4.6099782E-2,-5.956414E-2,1.2717095E-1,5.512177E-1,-1.2970579E-1,7.043119E-2,2.8480564E-3,-6.0348343E-2,1.9983849E-2],"categories":[],"categories_nodes":[],"categories_segments":[],"categories_sizes":[],"default_left":[0,0,0,0,0,0,0,0,0],"id":36,"left_children":[1,-1,3,5,7,-1,-1,-1,-1],"loss_changes":[1.8761425E1,0E0,1.6412876E1,4.524357E0,1.4833587E1,0E0,0E0,0E0,0E0],"parents":[2147483647,0,0,2,2,3,3,4,4],"right_children":[2,-1,4,6,8,-1,-1,-1,-1],"split_conditions":[1E0,-5.956414E-2,1E0,3E0,2E0,7.043119E-2,2.8480564E-3,-6.0348343E-2,1.9983849E-2],"split_indices":[3,0,5,1,5,0,0,0,0],"split_type":[0,0,0,0,0,0,0,0,0],"sum_hessian":[1.9523798E2,4.621761E1,1.4902037E2,5.5785313E1,9.3235054E1,4.287975E1,1.2905562E1,3.790652E1,5.5328537E1],"tree_param":{"num_deleted":"0","num_feature":"6","num_nodes":"9","size_leaf_vector":"1"}},{"base_weights":[3.6132485E-1,2.9017285E-1,5.389612E-1,4.4179758E-1,1.68293E-1,7.460743E-2,4.3019715E-1,2.4355765E-2,8.0060236E-2,8.501503E-3,3.8466197E-2,1.1944462E-2,7.350729E-2],"categories":[],"categories_nodes":[],"categories_segments":[],"categories_sizes":[],"default_left":[0,0,0,0,0,0,0,0,0,0,0,0,0],"id":37,"left_children":[1,3,5,7,9,-1,11,-1,-1,-1,-1,-1,-1],"loss_changes":[2.9003124E0,3.156764E0,1.2108288E0,5.3032503E0,1.742955E0,0E0,4.360051E0,0E0,0E0,0E0,0E0,0E0,0E0],"parents":[2147483647,0,0,1,1,2,2,3,3,4,4,6,6],"right_children":[2,4,6,8,10,-1,12,-1,-1,-1,-1,-1,-1],"split_conditions":[3E0,1E0,1E0,2E0,2E0,7.460743E-2,2E0,2.4355765E-2,8.0060236E-2,8.501503E-3,3.8466197E-2,1.1944462E-2,7.350729E-2],"split_indices":[1,1,0,0,4,0,0,0,0,0,0,0,0],"split_type":[0,0,0,0,0,0,0,0,0,0,0,0,0],"sum_hessian":[2.4084346E2,1.7384398E2,6.699947E1,7.629912E1,9.754486E1,2.105193E1,4.5947544E1,5.02273E1,2.607182E1,7.1440956E1,2.6103905E1,2.344371E1,2.2503834E1],"tree_param":{"num_deleted":"0","num_feature":"6","num_nodes":"13","size_leaf_vector":"1"}},{"base_weights":[-5.6570804E-1],"categories":[],"categories_nodes":[],"categories_segments":[],"categories_sizes":[],"default_left":[0],"id":38,"left_children":[-1],"loss_changes":[0E0],"parents":[2147483647],"right_children":[-1],"split_conditions":[-5.6570806E-2],"split_indices":[0],"split_type":[0],"sum_hessian":[1.2246968E2],"tree_param":{"num_deleted":"0","num_feature":"6","num_nodes":"1","size_leaf_vector":"1"}},{"base_weights":[-4.5078535E-2,3.2190976E-1,-2.9054213E-1,-5.8622237E-2,6.0844845E-1,-5.8823347E-2,-7.274437E-2,7.379132E-2,1.603279E-2,3.5035897E-2,-3.373527E-2],"categories":[],"categories_nodes":[],"categories_segments":[],"categories_sizes":[],"default_left":[0,0,0,0,0,0,0,0,0,0,0],"id":39,"left_children":[1,3,5,-1,7,-1,9,-1,-1,-1,-1],"loss_changes":[1.685644E1,1.9887094E1,7.2208176E0,0E0,3.2201443E0,0E0,7.4891324E0,0E0,0E0,0E0,0E0],"parents":[2147483647,0,0,1,1,2,2,4,4,6,6],"right_children":[2,4,6,-1,8,-1,10,-1,-1,-1,-1],"split_conditions":[1E0,1E0,2E0,-5.8622237E-2,3E0,-5.8823347E-2,1E0,7.379132E-2,1.603279E-2,3.5035897E-2,-3.373527E-2],"split_indices":[5,3,5,0,1,0,4,0,0,0,0],"split_type":[0,0,0,0,0,0,0,0,0,0,0],"sum_hessian":[1.8508449E2,7.4054886E1,1.11029594E2,1.7511023E1,5.654387E1,4.6192173E1,6.4837425E1,4.3367928E1,1.31759405E1,2.482257E1,4.0014854E1],"tree_param":{"num_deleted":"0","num_feature":"6","num_nodes":"11","size_leaf_vector":"1"}},{"base_weights":[3.359155E-1,3.228368E-2,5.039005E-1,6.984684E-2,-2.5753692E-1,6.879958E-2,3.3840963E-1,-4.7227573E-2,7.905613E-3,6.756546E-2,1.941388E-2],"categories":[],"categories_nodes":[],"categories_segments":[],"categories_sizes":[],"default_left":[0,0,0,0,0,0,0,0,0,0,0],"id":40,"left_children":[1,3,5,-1,7,-1,9,-1,-1,-1,-1],"loss_changes":[1.1906015E1,1.646101E1,4.349842E0,0E0,4.3374224E0,0E0,3.8186073E0,0E0,0E0,0E0,0E0],"parents":[2147483647,0,0,1,1,2,2,4,4,6,6],"right_children":[2,4,6,-1,8,-1,10,-1,-1,-1,-1],"split_conditions":[1E0,1E0,2E0,6.984684E-2,2E0,6.879958E-2,1E0,-4.7227573E-2,7.905613E-3,6.756546E-2,1.941388E-2],"split_indices":[5,3,5,0,0,0,3,0,0,0,0],"split_type":[0,0,0,0,0,0,0,0,0,0,0],"sum_hessian":[2.3274458E2,8.332583E1,1.4941875E2,2.4833433E1,5.8492397E1,6.923882E1,8.017993E1,3.5464035E1,2.3028362E1,2.2919798E1,5.726013E1],"tree_param":{"num_deleted":"0","num_feature":"6","num_nodes":"11","size_leaf_vector":"1"}},{"base_weights":[-5.584505E-1],"categories":[],"categories_nodes":[],"categories_segments":[],"categories_sizes":[],"default_left":[0],"id":41,"left_children":[-1],"loss_changes":[0E0],"parents":[2147483647],"right_children":[-1],"split_conditions":[-5.5845052E-2],"split_indices":[0],"split_type":[0],"sum_hessian":[1.1529895E2],"tree_param":{"num_deleted":"0","num_feature":"6","num_nodes":"1","size_leaf_vector":"1"}},{"base_weights":[-8.1824414E-2,2.0499277E-1,-2.7486342E-1,3.050901E-1,-1.3988377E-1,-5.73695E-2,-6.618339E-2,1.0500579E-2,4.3517075E-2,-6.1413646E-2,1.1849703E-2,1.0667783E-2,-5.2155323E-2],"categories":[],"categories_nodes":[],"categories_segments":[],"categories_sizes":[],"default_left":[0,0,0,0,0,0,0,0,0,0,0,0,0],"id":42,"left_children":[1,3,5,7,9,-1,11,-1,-1,-1,-1,-1,-1],"loss_changes":[9.927649E0,2.538416E0,6.63414E0,1.4208555E0,2.1496227E0,0E0,5.103665E0,0E0,0E0,0E0,0E0,0E0,0E0],"parents":[2147483647,0,0,1,1,2,2,3,3,4,4,6,6],"right_children":[2,4,6,8,10,-1,12,-1,-1,-1,-1,-1,-1],"split_conditions":[1E0,3E0,2E0,1E0,1E0,-5.73695E-2,2E0,1.0500579E-2,4.3517075E-2,-6.1413646E-2,1.1849703E-2,1.0667783E-2,-5.2155323E-2],"split_indices":[5,1,5,1,0,0,4,0,0,0,0,0,0],"split_type":[0,0,0,0,0,0,0,0,0,0,0,0,0],"sum_hessian":[1.7728888E2,7.129577E1,1.0599311E2,5.5347122E1,1.5948645E1,4.286332E1,6.312979E1,2.2518063E1,3.2829063E1,5.139088E0,1.0809557E1,4.631432E1,1.6815472E1],"tree_param":{"num_deleted":"0","num_feature":"6","num_nodes":"13","size_leaf_vector":"1"}},{"base_weights":[2.9389176E-1,6.627925E-2,1.5166096E-1,-2.8007817E-1,3.553592E-1,-1.9265065E-2,-5.2345194E-2,6.765039E-2,6.010868E-3],"categories":[],"categories_nodes":[],"categories_segments":[],"categories_sizes":[],"default_left":[0,0,0,0,0,0,0,0,0],"id":43,"left_children":[1,-1,3,5,7,-1,-1,-1,-1],"loss_changes":[1.1434093E1,0E0,1.4167139E1,1.0021143E0,1.0306219E1,0E0,0E0,0E0,0E0],"parents":[2147483647,0,0,2,2,3,3,4,4],"right_children":[2,-1,4,6,8,-1,-1,-1,-1],"split_conditions":[1E0,6.627925E-2,1E0,3E0,2E0,-1.9265065E-2,-5.2345194E-2,6.765039E-2,6.010868E-3],"split_indices":[3,0,5,2,5,0,0,0,0],"split_type":[0,0,0,0,0,0,0,0,0],"sum_hessian":[2.1883655E2,5.987644E1,1.589601E2,5.083666E1,1.0812344E2,3.8719116E1,1.2117543E1,5.117212E1,5.6951324E1],"tree_param":{"num_deleted":"0","num_feature":"6","num_nodes":"9","size_leaf_vector":"1"}},{"base_weights":[-5.517295E-1],"categories":[],"categories_nodes":[],"categories_segments":[],"categories_sizes":[],"default_left":[0],"id":44,"left_children":[-1],"loss_changes":[0E0],"parents":[2147483647],"right_children":[-1],"split_conditions":[-5.517295E-2],"split_indices":[0],"split_type":[0],"sum_hessian":[1.0782916E2],"tree_param":{"num_deleted":"0","num_feature":"6","num_nodes":"1","size_leaf_vector":"1"}},{"base_weights":[-2.5686825E-2,-5.7307847E-2,1.2304438E-1,2.61305E-1,-8.843799E-2,1.3175462E-2,4.890096E-2,5.991565E-3,-2.0165421E-2],"categories":[],"categories_nodes":[],"categories_segments":[],"categories_sizes":[],"default_left":[0,0,0,0,0,0,0,0,0],"id":45,"left_children":[1,-1,3,5,7,-1,-1,-1,-1],"loss_changes":[1.4473074E1,0E0,4.1146517E0,2.4390616E0,9.537488E-1,0E0,0E0,0E0,0E0],"parents":[2147483647,0,0,2,2,3,3,4,4],"right_children":[2,-1,4,6,8,-1,-1,-1,-1],"split_conditions":[1E0,-5.7307847E-2,2E0,1E0,1E0,1.3175462E-2,4.890096E-2,5.991565E-3,-2.0165421E-2],"split_indices":[3,0,0,0,4,0,0,0,0],"split_type":[0,0,0,0,0,0,0,0,0],"sum_hessian":[1.7590475E2,3.6973618E1,1.3893114E2,8.386633E1,5.5064804E1,5.4460285E1,2.9406048E1,2.4037668E1,3.1027134E1],"tree_param":{"num_deleted":"0","num_feature":"6","num_nodes":"9","size_leaf_vector":"1"}},{"base_weights":[2.8826421E-1,6.49489E-2,1.6148351E-1,-2.1209137E-1,3.560893E-1,-3.4212705E-2,1.6242689E-2,6.5341346E-2,1.2637451E-2],"categories":[],"categories_nodes":[],"categories_segments":[],"categories_sizes":[],"default_left":[0,0,0,0,0,0,0,0,0],"id":46,"left_children":[1,-1,3,5,7,-1,-1,-1,-1],"loss_changes":[1.0197445E1,0E0,1.2278013E1,2.8858447E0,7.480385E0,0E0,0E0,0E0,0E0],"parents":[2147483647,0,0,2,2,3,3,4,4],"right_children":[2,-1,4,6,8,-1,-1,-1,-1],"split_conditions":[1E0,6.49489E-2,1E0,3E0,2E0,-3.4212705E-2,1.6242689E-2,6.5341346E-2,1.2637451E-2],"split_indices":[3,0,5,1,5,0,0,0,0],"split_type":[0,0,0,0,0,0,0,0,0],"sum_hessian":[2.2395973E2,5.7112194E1,1.6684753E2,5.7115654E1,1.0973188E2,4.2459778E1,1.4655875E1,4.702373E1,6.2708153E1],"tree_param":{"num_deleted":"0","num_feature":"6","num_nodes":"9","size_leaf_vector":"1"}},{"base_weights":[-5.4681265E-1],"categories":[],"categories_nodes":[],"categories_segments":[],"categories_sizes":[],"default_left":[0],"id":47,"left_children":[-1],"loss_changes":[0E0],"parents":[2147483647],"right_children":[-1],"split_conditions":[-5.4681268E-2],"split_indices":[0],"split_type":[0],"sum_hessian":[1.0665926E2],"tree_param":{"num_deleted":"0","num_feature":"6","num_nodes":"1","size_leaf_vector":"1"}},{"base_weights":[-3.9250404E-2,2.2711405E-1,-2.3023382E-1,3.2845956E-1,-9.580418E-2,-5.6280877E-2,-2.3210896E-2,1.5785426E-2,4.3564953E-2,1.904478E-2,-5.644374E-2,1.6379382E-2,-5.1938176E-2],"categories":[],"categories_nodes":[],"categories_segments":[],"categories_sizes":[],"default_left":[0,0,0,0,0,0,0,0,0,0,0,0,0],"id":48,"left_children":[1,3,5,7,9,-1,11,-1,-1,-1,-1,-1,-1],"loss_changes":[9.157033E0,2.4938602E0,7.19797E0,9.826422E-1,2.6224241E0,0E0,6.171377E0,0E0,0E0,0E0,0E0,0E0,0E0],"parents":[2147483647,0,0,1,1,2,2,3,3,4,4,6,6],"right_children":[2,4,6,8,10,-1,12,-1,-1,-1,-1,-1,-1],"split_conditions":[1E0,3E0,2E0,1E0,2E0,-5.6280877E-2,2E0,1.5785426E-2,4.3564953E-2,1.904478E-2,-5.644374E-2,1.6379382E-2,-5.1938176E-2],"split_indices":[5,1,5,1,0,0,4,0,0,0,0,0,0],"split_type":[0,0,0,0,0,0,0,0,0,0,0,0,0],"sum_hessian":[1.7797641E2,7.424198E1,1.0373443E2,5.6494453E1,1.774753E1,3.913955E1,6.459488E1,2.2753021E1,3.374143E1,1.1386192E1,6.3613386E0,4.739993E1,1.719495E1],"tree_param":{"num_deleted":"0","num_feature":"6","num_nodes":"13","size_leaf_vector":"1"}},{"base_weights":[3.1368843E-1,6.317567E-2,4.3227056E-1,-1.0552942E-1,3.2402775E-1,6.32358E-2,2.6426947E-1,2.8286506E-3,-3.108654E-2,8.386084E-2,8.135125E-3,1.5627319E-2,5.3490754E-2],"categories":[],"categories_nodes":[],"categories_segments":[],"categories_sizes":[],"default_left":[0,0,0,0,0,0,0,0,0,0,0,0,0],"id":49,"left_children":[1,3,5,7,9,-1,11,-1,-1,-1,-1,-1,-1],"loss_changes":[6.420429E0,3.1544876E0,4.779152E0,1.2126138E0,3.43991E0,0E0,2.3044376E0,0E0,0E0,0E0,0E0,0E0,0E0],"parents":[2147483647,0,0,1,1,2,2,3,3,4,4,6,6],"right_children":[2,4,6,8,10,-1,12,-1,-1,-1,-1,-1,-1],"split_conditions":[1E0,2E0,2E0,1E0,1E0,6.32358E-2,3E0,2.8286506E-3,-3.108654E-2,8.386084E-2,8.135125E-3,1.5627319E-2,5.3490754E-2],"split_indices":[5,0,5,0,1,0,1,0,0,0,0,0,0],"split_type":[0,0,0,0,0,0,0,0,0,0,0,0,0],"sum_hessian":[2.160493E2,6.990436E1,1.4614494E2,4.2811577E1,2.7092781E1,6.54412E1,8.070374E1,2.6441858E1,1.6369719E1,7.8954024E0,1.9197378E1,5.8812454E1,2.1891285E1],"tree_param":{"num_deleted":"0","num_feature":"6","num_nodes":"13","size_leaf_vector":"1"}},{"base_weights":[-5.5105156E-1],"categories":[],"categories_nodes":[],"categories_segments":[],"categories_sizes":[],"default_left":[0],"id":50,"left_children":[-1],"loss_changes":[0E0],"parents":[2147483647],"right_children":[-1],"split_conditions":[-5.5105157E-2],"split_indices":[0],"split_type":[0],"sum_hessian":[9.64104E1],"tree_param":{"num_deleted":"0","num_feature":"6","num_nodes":"1","size_leaf_vector":"1"}},{"base_weights":[2.5373053E-2,-5.6576367E-2,1.8443616E-1,4.6782023E-1,-4.604383E-2,6.1326813E-2,1.9502906E-2,-5.567774E-2,2.6866412E-2],"categories":[],"categories_nodes":[],"categories_segments":[],"categories_sizes":[],"default_left":[0,0,0,0,0,0,0,0,0],"id":51,"left_children":[1,-1,3,5,7,-1,-1,-1,-1],"loss_changes":[1.6670197E1,0E0,9.138055E0,2.3679008E0,1.266819E1,0E0,0E0,0E0,0E0],"parents":[2147483647,0,0,2,2,3,3,4,4],"right_children":[2,-1,4,6,8,-1,-1,-1,-1],"split_conditions":[1E0,-5.6576367E-2,1E0,2E0,2E0,6.1326813E-2,1.9502906E-2,-5.567774E-2,2.6866412E-2],"split_indices":[3,0,5,0,5,0,0,0,0],"split_type":[0,0,0,0,0,0,0,0,0],"sum_hessian":[1.7517989E2,3.6600857E1,1.3857904E2,6.169405E1,7.688499E1,3.9425095E1,2.2268955E1,2.901992E1,4.7865067E1],"tree_param":{"num_deleted":"0","num_feature":"6","num_nodes":"9","size_leaf_vector":"1"}},{"base_weights":[2.4511278E-1,6.2850915E-2,1.1546377E-1,-1.6652725E-3,4.241636E-2,-1.3816203E-2,2.9626865E-2],"categories":[],"categories_nodes":[],"categories_segments":[],"categories_sizes":[],"default_left":[0,0,0,0,0,0,0],"id":52,"left_children":[1,-1,3,5,-1,-1,-1],"loss_changes":[1.0328797E1,0E0,5.6991396E0,4.7276435E0,0E0,0E0,0E0],"parents":[2147483647,0,0,2,2,3,3],"right_children":[2,-1,4,6,-1,-1,-1],"split_conditions":[1E0,6.2850915E-2,3E0,2E0,4.241636E-2,-1.3816203E-2,2.9626865E-2],"split_indices":[3,0,1,4,0,0,0],"split_type":[0,0,0,0,0,0,0],"sum_hessian":[2.0825378E2,5.165438E1,1.565994E2,1.14245995E2,4.235341E1,7.871803E1,3.552796E1],"tree_param":{"num_deleted":"0","num_feature":"6","num_nodes":"7","size_leaf_vector":"1"}},{"base_weights":[-5.362513E-1],"categories":[],"categories_nodes":[],"categories_segments":[],"categories_sizes":[],"default_left":[0],"id":53,"left_children":[-1],"loss_changes":[0E0],"parents":[2147483647],"right_children":[-1],"split_conditions":[-5.3625133E-2],"split_indices":[0],"split_type":[0],"sum_hessian":[9.285208E1],"tree_param":{"num_deleted":"0","num_feature":"6","num_nodes":"1","size_leaf_vector":"1"}},{"base_weights":[-5.864846E-2,-5.528285E-2,5.7905525E-2,3.3634427E-1,-1.3549073E-1,5.5405475E-2,-7.221039E-4,-5.54258E-2,1.3269859E-2],"categories":[],"categories_nodes":[],"categories_segments":[],"categories_sizes":[],"default_left":[0,0,0,0,0,0,0,0,0],"id":54,"left_children":[1,-1,3,5,7,-1,-1,-1,-1],"loss_changes":[9.497842E0,0E0,7.255043E0,4.1300926E0,9.026791E0,0E0,0E0,0E0,0E0],"parents":[2147483647,0,0,2,2,3,3,4,4],"right_children":[2,-1,4,6,8,-1,-1,-1,-1],"split_conditions":[1E0,-5.528285E-2,1E0,2E0,2E0,5.5405475E-2,-7.221039E-4,-5.54258E-2,1.3269859E-2],"split_indices":[3,0,5,0,5,0,0,0,0],"split_type":[0,0,0,0,0,0,0,0,0],"sum_hessian":[1.6334117E2,3.0458086E1,1.3288309E2,5.4163303E1,7.871979E1,3.2779152E1,2.1384151E1,3.0315945E1,4.840384E1],"tree_param":{"num_deleted":"0","num_feature":"6","num_nodes":"9","size_leaf_vector":"1"}},{"base_weights":[2.369913E-1,6.1226916E-2,1.2455142E-1,-2.0571634E-1,3.216838E-1,-4.3338314E-2,1.4091591E-2,6.1609417E-2,1.1192242E-2],"categories":[],"categories_nodes":[],"categories_segments":[],"categories_sizes":[],"default_left":[0,0,0,0,0,0,0,0,0],"id":55,"left_children":[1,-1,3,5,7,-1,-1,-1,-1],"loss_changes":[8.373369E0,0E0,1.0179567E1,4.691248E0,5.962407E0,0E0,0E0,0E0,0E0],"parents":[2147483647,0,0,2,2,3,3,4,4],"right_children":[2,-1,4,6,8,-1,-1,-1,-1],"split_conditions":[1E0,6.1226916E-2,1E0,2E0,2E0,-4.3338314E-2,1.4091591E-2,6.1609417E-2,1.1192242E-2],"split_indices":[3,0,5,0,5,0,0,0,0],"split_type":[0,0,0,0,0,0,0,0,0],"sum_hessian":[1.992462E2,4.490997E1,1.5433623E2,5.7671738E1,9.66645E1,3.4658134E1,2.3013603E1,3.941146E1,5.7253033E1],"tree_param":{"num_deleted":"0","num_feature":"6","num_nodes":"9","size_leaf_vector":"1"}},{"base_weights":[-5.301864E-1],"categories":[],"categories_nodes":[],"categories_segments":[],"categories_sizes":[],"default_left":[0],"id":56,"left_children":[-1],"loss_changes":[0E0],"parents":[2147483647],"right_children":[-1],"split_conditions":[-5.301864E-2],"split_indices":[0],"split_type":[0],"sum_hessian":[8.41021E1],"tree_param":{"num_deleted":"0","num_feature":"6","num_nodes":"1","size_leaf_vector":"1"}},{"base_weights":[-5.6409717E-2,-5.465755E-2,5.78902E-2,3.6669233E-1,-1.5527718E-1,4.0453397E-2,2.7978225E-2,-5.4415386E-2,4.891621E-3],"categories":[],"categories_nodes":[],"categories_segments":[],"categories_sizes":[],"default_left":[0,0,0,0,0,0,0,0,0],"id":57,"left_children":[1,-1,3,5,7,-1,-1,-1,-1],"loss_changes":[8.8093E0,0E0,8.479463E0,5.9649944E-2,6.09317E0,0E0,0E0,0E0,0E0],"parents":[2147483647,0,0,2,2,3,3,4,4],"right_children":[2,-1,4,6,8,-1,-1,-1,-1],"split_conditions":[1E0,-5.465755E-2,1E0,2E0,2E0,4.0453397E-2,2.7978225E-2,-5.4415386E-2,4.891621E-3],"split_indices":[3,0,5,4,5,0,0,0,0],"split_type":[0,0,0,0,0,0,0,0,0],"sum_hessian":[1.5567142E2,2.872116E1,1.2695026E2,5.155115E1,7.539911E1,3.3367817E1,1.8183334E1,2.538661E1,5.0012497E1],"tree_param":{"num_deleted":"0","num_feature":"6","num_nodes":"9","size_leaf_vector":"1"}},{"base_weights":[2.0940177E-1,5.980302E-2,8.611206E-2,-1.4084397E-1,2.1286835E-1,-3.3607326E-2,1.9529916E-2,3.8996186E-2,1.3551771E-2],"categories":[],"categories_nodes":[],"categories_segments":[],"categories_sizes":[],"default_left":[0,0,0,0,0,0,0,0,0],"id":58,"left_children":[1,-1,3,5,7,-1,-1,-1,-1],"loss_changes":[9.218484E0,0E0,4.2889395E0,3.5867424E0,1.2538266E0,0E0,0E0,0E0,0E0],"parents":[2147483647,0,0,2,2,3,3,4,4],"right_children":[2,-1,4,6,8,-1,-1,-1,-1],"split_conditions":[1E0,5.980302E-2,1E0,2E0,1E0,-3.3607326E-2,1.9529916E-2,3.8996186E-2,1.3551771E-2],"split_indices":[3,0,4,0,2,0,0,0,0],"split_type":[0,0,0,0,0,0,0,0,0],"sum_hessian":[1.9247171E2,4.542726E1,1.4704445E2,5.265499E1,9.438945E1,3.330938E1,1.9345615E1,2.7465645E1,6.6923805E1],"tree_param":{"num_deleted":"0","num_feature":"6","num_nodes":"9","size_leaf_vector":"1"}},{"base_weights":[-5.262098E-1],"categories":[],"categories_nodes":[],"categories_segments":[],"categories_sizes":[],"default_left":[0],"id":59,"left_children":[-1],"loss_changes":[0E0],"parents":[2147483647],"right_children":[-1],"split_conditions":[-5.2620977E-2],"split_indices":[0],"split_type":[0],"sum_hessian":[8.2132996E1],"tree_param":{"num_deleted":"0","num_feature":"6","num_nodes":"1","size_leaf_vector":"1"}},{"base_weights":[-1.0189342E-2,2.0107512E-1,-1.6799173E-1,3.7531906E-1,-1.0197699E-1,-5.3944774E-2,2.6328085E-2,2.5293434E-2,5.685982E-2,-6.806173E-2,1.7036008E-2,-1.3801596E-2,2.1432636E-2],"categories":[],"categories_nodes":[],"categories_segments":[],"categories_sizes":[],"default_left":[0,0,0,0,0,0,0,0,0,0,0,0,0],"id":60,"left_children":[1,3,5,7,9,-1,11,-1,-1,-1,-1,-1,-1],"loss_changes":[5.2427807E0,3.5900614E0,6.5094814E0,8.714504E-1,4.109387E0,0E0,1.8843806E0,0E0,0E0,0E0,0E0,0E0,0E0],"parents":[2147483647,0,0,1,1,2,2,3,3,4,4,6,6],"right_children":[2,4,6,8,10,-1,12,-1,-1,-1,-1,-1,-1],"split_conditions":[1E0,2E0,2E0,1E0,1E0,-5.3944774E-2,2E0,2.5293434E-2,5.685982E-2,-6.806173E-2,1.7036008E-2,-1.3801596E-2,2.1432636E-2],"split_indices":[5,0,5,0,1,0,2,0,0,0,0,0,0],"split_type":[0,0,0,0,0,0,0,0,0,0,0,0,0],"sum_hessian":[1.55248E2,6.626234E1,8.8985664E1,4.1920887E1,2.4341448E1,2.9952766E1,5.9032898E1,2.7081488E1,1.48394E1,7.3101816E0,1.7031267E1,3.163987E1,2.7393028E1],"tree_param":{"num_deleted":"0","num_feature":"6","num_nodes":"13","size_leaf_vector":"1"}},{"base_weights":[2.0671709E-1,5.8518738E-2,9.368297E-2,-2.3125508E-1,2.8398106E-1,-4.1311022E-2,1.7760588E-2,5.9432067E-2,6.6513303E-3],"categories":[],"categories_nodes":[],"categories_segments":[],"categories_sizes":[],"default_left":[0,0,0,0,0,0,0,0,0],"id":61,"left_children":[1,-1,3,5,7,-1,-1,-1,-1],"loss_changes":[8.186879E0,0E0,9.312368E0,4.2209373E0,6.3554606E0,0E0,0E0,0E0,0E0],"parents":[2147483647,0,0,2,2,3,3,4,4],"right_children":[2,-1,4,6,8,-1,-1,-1,-1],"split_conditions":[1E0,5.8518738E-2,1E0,3E0,2E0,-4.1311022E-2,1.7760588E-2,5.9432067E-2,6.6513303E-3],"split_indices":[3,0,5,1,5,0,0,0,0],"split_type":[0,0,0,0,0,0,0,0,0],"sum_hessian":[1.916529E2,4.3114895E1,1.48538E2,5.4781757E1,9.375624E1,3.7909706E1,1.6872051E1,3.791555E1,5.5840687E1],"tree_param":{"num_deleted":"0","num_feature":"6","num_nodes":"9","size_leaf_vector":"1"}},{"base_weights":[-5.3482825E-1],"categories":[],"categories_nodes":[],"categories_segments":[],"categories_sizes":[],"default_left":[0],"id":62,"left_children":[-1],"loss_changes":[0E0],"parents":[2147483647],"right_children":[-1],"split_conditions":[-5.3482827E-2],"split_indices":[0],"split_type":[0],"sum_hessian":[7.36607E1],"tree_param":{"num_deleted":"0","num_feature":"6","num_nodes":"1","size_leaf_vector":"1"}},{"base_weights":[-7.866688E-2,-5.355906E-2,1.8130997E-2,1.2838227E-1,-2.529347E-1,-5.382653E-3,2.6209548E-2,-1.3753272E-2,-3.0911831E-2],"categories":[],"categories_nodes":[],"categories_segments":[],"categories_sizes":[],"default_left":[0,0,0,0,0,0,0,0,0],"id":63,"left_children":[1,-1,3,5,7,-1,-1,-1,-1],"loss_changes":[6.68351E0,0E0,3.782502E0,2.2035134E0,1.9490147E-1,0E0,0E0,0E0,0E0],"parents":[2147483647,0,0,2,2,3,3,4,4],"right_children":[2,-1,4,6,8,-1,-1,-1,-1],"split_conditions":[1E0,-5.355906E-2,3E0,1E0,1E0,-5.382653E-3,2.6209548E-2,-1.3753272E-2,-3.0911831E-2],"split_indices":[3,0,1,1,4,0,0,0,0],"split_type":[0,0,0,0,0,0,0,0,0],"sum_hessian":[1.498911E2,2.5410507E1,1.2448058E2,8.886334E1,3.5617245E1,3.786406E1,5.099928E1,1.2791413E1,2.2825832E1],"tree_param":{"num_deleted":"0","num_feature":"6","num_nodes":"9","size_leaf_vector":"1"}},{"base_weights":[1.937859E-1,9.3680665E-2,4.4986117E-1,-1.2948354E-1,2.2553056E-1,5.5003923E-1,3.2741737E-1,1.6395267E-2,-3.6119327E-2,5.7894107E-2,-7.896479E-4,3.9130677E-2,6.2215317E-2,1.934476E-2,3.8883094E-2],"categories":[],"categories_nodes":[],"categories_segments":[],"categories_sizes":[],"default_left":[0,0,0,0,0,0,0,0,0,0,0,0,0,0,0],"id":64,"left_children":[1,3,5,7,9,11,13,-1,-1,-1,-1,-1,-1,-1,-1],"loss_changes":[4.452893E0,3.775825E0,4.2119312E-1,3.3177576E0,6.6377177E0,4.8333645E-2,1.265974E-1,0E0,0E0,0E0,0E0,0E0,0E0,0E0,0E0],"parents":[2147483647,0,0,1,1,2,2,3,3,4,4,5,5,6,6],"right_children":[2,4,6,8,10,12,14,-1,-1,-1,-1,-1,-1,-1,-1],"split_conditions":[3E0,1E0,2E0,1E0,2E0,1E0,1E0,1.6395267E-2,-3.6119327E-2,5.7894107E-2,-7.896479E-4,3.9130677E-2,6.2215317E-2,1.934476E-2,3.8883094E-2],"split_indices":[1,5,2,1,5,5,5,0,0,0,0,0,0,0,0],"split_type":[0,0,0,0,0,0,0,0,0,0,0,0,0,0,0],"sum_hessian":[1.743512E2,1.26331406E2,4.801979E1,4.692532E1,7.940609E1,2.4490543E1,2.3529247E1,2.0833847E1,2.6091473E1,3.099668E1,4.840941E1,9.658062E0,1.483248E1,8.700211E0,1.4829038E1],"tree_param":{"num_deleted":"0","num_feature":"6","num_nodes":"15","size_leaf_vector":"1"}},{"base_weights":[-5.1631117E-1],"categories":[],"categories_nodes":[],"categories_segments":[],"categories_sizes":[],"default_left":[0],"id":65,"left_children":[-1],"loss_changes":[0E0],"parents":[2147483647],"right_children":[-1],"split_conditions":[-5.163112E-2],"split_indices":[0],"split_type":[0],"sum_hessian":[6.785004E1],"tree_param":{"num_deleted":"0","num_feature":"6","num_nodes":"1","size_leaf_vector":"1"}},{"base_weights":[-4.836591E-3,-5.3456377E-2,1.00966044E-1,3.2599342E-1,-7.085341E-2,5.631581E-2,-8.395174E-3,-5.306473E-2,1.3327076E-2],"categories":[],"categories_nodes":[],"categories_segments":[],"categories_sizes":[],"default_left":[0,0,0,0,0,0,0,0,0],"id":66,"left_children":[1,-1,3,5,7,-1,-1,-1,-1],"loss_changes":[8.571967E0,0E0,4.9535494E0,5.432534E0,6.934368E0,0E0,0E0,0E0,0E0],"parents":[2147483647,0,0,2,2,3,3,4,4],"right_children":[2,-1,4,6,8,-1,-1,-1,-1],"split_conditions":[1E0,-5.3456377E-2,1E0,2E0,2E0,5.631581E-2,-8.395174E-3,-5.306473E-2,1.3327076E-2],"split_indices":[3,0,5,0,5,0,0,0,0],"split_type":[0,0,0,0,0,0,0,0,0],"sum_hessian":[1.5098074E2,2.4460535E1,1.2652022E2,5.4389904E1,7.213031E1,3.421933E1,2.0170576E1,2.168493E1,5.044538E1],"tree_param":{"num_deleted":"0","num_feature":"6","num_nodes":"9","size_leaf_vector":"1"}},{"base_weights":[2.0124245E-1,5.7439048E-2,9.124054E-2,-1.8916622E-1,2.5249934E-1,-3.325072E-2,2.037649E-2,5.7557095E-2,5.2551255E-3],"categories":[],"categories_nodes":[],"categories_segments":[],"categories_sizes":[],"default_left":[0,0,0,0,0,0,0,0,0],"id":67,"left_children":[1,-1,3,5,7,-1,-1,-1,-1],"loss_changes":[7.171157E0,0E0,6.2473617E0,2.919428E0,5.6203504E0,0E0,0E0,0E0,0E0],"parents":[2147483647,0,0,2,2,3,3,4,4],"right_children":[2,-1,4,6,8,-1,-1,-1,-1],"split_conditions":[1E0,5.7439048E-2,1E0,3E0,2E0,-3.325072E-2,2.037649E-2,5.7557095E-2,5.2551255E-3],"split_indices":[3,0,5,1,5,0,0,0,0],"split_type":[0,0,0,0,0,0,0,0,0],"sum_hessian":[1.7498277E2,3.88783E1,1.3610446E2,4.9630623E1,8.647385E1,3.647745E1,1.315317E1,3.234038E1,5.413346E1],"tree_param":{"num_deleted":"0","num_feature":"6","num_nodes":"9","size_leaf_vector":"1"}},{"base_weights":[-5.1435363E-1],"categories":[],"categories_nodes":[],"categories_segments":[],"categories_sizes":[],"default_left":[0],"id":68,"left_children":[-1],"loss_changes":[0E0],"parents":[2147483647],"right_children":[-1],"split_conditions":[-5.1435363E-2],"split_indices":[0],"split_type":[0],"sum_hessian":[6.786172E1],"tree_param":{"num_deleted":"0","num_feature":"6","num_nodes":"1","size_leaf_vector":"1"}},{"base_weights":[-4.2994432E-2,-5.2859783E-2,5.030809E-2,2.681121E-1,-1.18929595E-1,3.9088912E-2,-1.00444015E-2,5.2842563E-3,-5.6855686E-2],"categories":[],"categories_nodes":[],"categories_segments":[],"categories_sizes":[],"default_left":[0,0,0,0,0,0,0,0,0],"id":69,"left_children":[1,-1,3,5,7,-1,-1,-1,-1],"loss_changes":[7.0397263E0,0E0,4.851555E0,2.6402726E0,5.7664156E0,0E0,0E0,0E0,0E0],"parents":[2147483647,0,0,2,2,3,3,4,4],"right_children":[2,-1,4,6,8,-1,-1,-1,-1],"split_conditions":[1E0,-5.2859783E-2,1E0,3E0,2E0,3.9088912E-2,-1.00444015E-2,5.2842563E-3,-5.6855686E-2],"split_indices":[3,0,5,1,4,0,0,0,0],"split_type":[0,0,0,0,0,0,0,0,0],"sum_hessian":[1.537879E2,2.4034138E1,1.2975377E2,5.6480618E1,7.3273155E1,4.2321476E1,1.41591425E1,5.365694E1,1.961621E1],"tree_param":{"num_deleted":"0","num_feature":"6","num_nodes":"9","size_leaf_vector":"1"}},{"base_weights":[1.9939533E-1,5.6200176E-2,1.07562385E-1,-1.0413627E-1,2.291801E-1,-4.4345404E-3,-2.8170917E-2,5.6380995E-2,4.5239055E-3],"categories":[],"categories_nodes":[],"categories_segments":[],"categories_sizes":[],"default_left":[0,0,0,0,0,0,0,0,0],"id":70,"left_children":[1,-1,3,5,7,-1,-1,-1,-1],"loss_changes":[5.6423955E0,0E0,3.574E0,5.289801E-1,5.384293E0,0E0,0E0,0E0,0E0],"parents":[2147483647,0,0,2,2,3,3,4,4],"right_children":[2,-1,4,6,8,-1,-1,-1,-1],"split_conditions":[1E0,5.6200176E-2,1E0,3E0,2E0,-4.4345404E-3,-2.8170917E-2,5.6380995E-2,4.5239055E-3],"split_indices":[3,0,5,2,5,0,0,0,0],"split_type":[0,0,0,0,0,0,0,0,0],"sum_hessian":[1.7026067E2,3.33716E1,1.3688907E2,4.9999393E1,8.688967E1,3.83397E1,1.1659694E1,3.0087898E1,5.6801773E1],"tree_param":{"num_deleted":"0","num_feature":"6","num_nodes":"9","size_leaf_vector":"1"}},{"base_weights":[-5.0889826E-1],"categories":[],"categories_nodes":[],"categories_segments":[],"categories_sizes":[],"default_left":[0],"id":71,"left_children":[-1],"loss_changes":[0E0],"parents":[2147483647],"right_children":[-1],"split_conditions":[-5.0889827E-2],"split_indices":[0],"split_type":[0],"sum_hessian":[5.991071E1],"tree_param":{"num_deleted":"0","num_feature":"6","num_nodes":"1","size_leaf_vector":"1"}},{"base_weights":[-3.7275027E-2,-5.210619E-2,4.6065856E-2,1.5408601E-1,-2.6144144E-1,-1.1461678E-2,3.3517163E-2,-6.6489264E-2,-4.4093616E-3],"categories":[],"categories_nodes":[],"categories_segments":[],"categories_sizes":[],"default_left":[0,0,0,0,0,0,0,0,0],"id":72,"left_children":[1,-1,3,5,7,-1,-1,-1,-1],"loss_changes":[6.0422983E0,0E0,4.300359E0,4.6871886E0,2.926734E0,0E0,0E0,0E0,0E0],"parents":[2147483647,0,0,2,2,3,3,4,4],"right_children":[2,-1,4,6,8,-1,-1,-1,-1],"split_conditions":[1E0,-5.210619E-2,3E0,1E0,1E0,-1.1461678E-2,3.3517163E-2,-6.6489264E-2,-4.4093616E-3],"split_indices":[3,0,1,1,0,0,0,0,0],"split_type":[0,0,0,0,0,0,0,0,0],"sum_hessian":[1.4826614E2,2.101627E1,1.2724987E2,9.453932E1,3.2710545E1,3.820948E1,5.6329845E1,1.0731366E1,2.1979181E1],"tree_param":{"num_deleted":"0","num_feature":"6","num_nodes":"9","size_leaf_vector":"1"}},{"base_weights":[1.9315402E-1,5.532828E-2,1.0300932E-1,-9.44645E-4,3.4412634E-1,-9.795087E-3,1.5175088E-2,4.585487E-2,2.9474908E-2],"categories":[],"categories_nodes":[],"categories_segments":[],"categories_sizes":[],"default_left":[0,0,0,0,0,0,0,0,0],"id":73,"left_children":[1,-1,3,5,7,-1,-1,-1,-1],"loss_changes":[5.213758E0,0E0,3.2859297E0,1.3863608E0,8.7967396E-2,0E0,0E0,0E0,0E0],"parents":[2147483647,0,0,2,2,3,3,4,4],"right_children":[2,-1,4,6,8,-1,-1,-1,-1],"split_conditions":[1E0,5.532828E-2,2E0,2E0,1E0,-9.795087E-3,1.5175088E-2,4.585487E-2,2.9474908E-2],"split_indices":[3,0,4,0,2,0,0,0,0],"split_type":[0,0,0,0,0,0,0,0,0],"sum_hessian":[1.6135835E2,3.1275354E1,1.3008301E2,9.1591E1,3.8491997E1,5.6228203E1,3.53628E1,9.105381E0,2.9386618E1],"tree_param":{"num_deleted":"0","num_feature":"6","num_nodes":"9","size_leaf_vector":"1"}},{"base_weights":[-5.047961E-1],"categories":[],"categories_nodes":[],"categories_segments":[],"categories_sizes":[],"default_left":[0],"id":74,"left_children":[-1],"loss_changes":[0E0],"parents":[2147483647],"right_children":[-1],"split_conditions":[-5.047961E-2],"split_indices":[0],"split_type":[0],"sum_hessian":[5.547384E1],"tree_param":{"num_deleted":"0","num_feature":"6","num_nodes":"1","size_leaf_vector":"1"}},{"base_weights":[5.24083E-3,1.2506527E-1,-1.9558182E-1,3.0634102E-1,2.638246E-3,-6.777788E-2,5.842394E-3,2.0137735E-2,4.7908094E-2,9.404077E-3,-2.21414E-2,2.1747582E-2,-5.6247648E-2],"categories":[],"categories_nodes":[],"categories_segments":[],"categories_sizes":[],"default_left":[0,0,0,0,0,0,0,0,0,0,0,0,0],"id":75,"left_children":[1,3,5,7,9,-1,11,-1,-1,-1,-1,-1,-1],"loss_changes":[3.3826334E0,1.9524857E0,5.107074E0,5.4666257E-1,1.1173221E0,0E0,4.699001E0,0E0,0E0,0E0,0E0,0E0,0E0],"parents":[2147483647,0,0,1,1,2,2,3,3,4,4,6,6],"right_children":[2,4,6,8,10,-1,12,-1,-1,-1,-1,-1,-1],"split_conditions":[2E0,1E0,1E0,1E0,3E0,-6.777788E-2,3E0,2.0137735E-2,4.7908094E-2,9.404077E-3,-2.21414E-2,2.1747582E-2,-5.6247648E-2],"split_indices":[0,4,1,0,1,0,1,0,0,0,0,0,0],"split_type":[0,0,0,0,0,0,0,0,0,0,0,0,0],"sum_hessian":[1.3855486E2,8.701377E1,5.1541092E1,3.447095E1,5.254282E1,1.4489413E1,3.7051678E1,2.278914E1,1.1681809E1,3.773076E1,1.4812058E1,2.7447847E1,9.603831E0],"tree_param":{"num_deleted":"0","num_feature":"6","num_nodes":"13","size_leaf_vector":"1"}},{"base_weights":[1.9267665E-1,5.4532778E-2,1.1311168E-1,-8.724163E-3,3.8797814E-1,-1.5419215E-2,2.0080414E-2,5.725281E-3,6.0689367E-2],"categories":[],"categories_nodes":[],"categories_segments":[],"categories_sizes":[],"default_left":[0,0,0,0,0,0,0,0,0],"id":76,"left_children":[1,-1,3,5,7,-1,-1,-1,-1],"loss_changes":[4.526861E0,0E0,4.5140047E0,2.9052756E0,2.9618235E0,0E0,0E0,0E0,0E0],"parents":[2147483647,0,0,2,2,3,3,4,4],"right_children":[2,-1,4,6,8,-1,-1,-1,-1],"split_conditions":[1E0,5.4532778E-2,2E0,2E0,1E0,-1.5419215E-2,2.0080414E-2,5.725281E-3,6.0689367E-2],"split_indices":[3,0,4,0,5,0,0,0,0],"split_type":[0,0,0,0,0,0,0,0,0],"sum_hessian":[1.6253386E2,2.8842607E1,1.3369125E2,9.330267E1,4.0388588E1,5.522561E1,3.8077065E1,1.6588753E1,2.3799835E1],"tree_param":{"num_deleted":"0","num_feature":"6","num_nodes":"9","size_leaf_vector":"1"}},{"base_weights":[-5.0231564E-1],"categories":[],"categories_nodes":[],"categories_segments":[],"categories_sizes":[],"default_left":[0],"id":77,"left_children":[-1],"loss_changes":[0E0],"parents":[2147483647],"right_children":[-1],"split_conditions":[-5.0231565E-2],"split_indices":[0],"split_type":[0],"sum_hessian":[5.48232E1],"tree_param":{"num_deleted":"0","num_feature":"6","num_nodes":"1","size_leaf_vector":"1"}},{"base_weights":[4.433543E-2,-5.110388E-2,1.3178672E-1,2.4888328E-1,-4.76393E-2,7.85394E-3,4.791694E-2,-6.8826675E-2,2.271465E-2],"categories":[],"categories_nodes":[],"categories_segments":[],"categories_sizes":[],"default_left":[0,0,0,0,0,0,0,0,0],"id":78,"left_children":[1,-1,3,5,7,-1,-1,-1,-1],"loss_changes":[6.842748E0,0E0,2.560801E0,2.8484054E0,8.73777E0,0E0,0E0,0E0,0E0],"parents":[2147483647,0,0,2,2,3,3,4,4],"right_children":[2,-1,4,6,8,-1,-1,-1,-1],"split_conditions":[1E0,-5.110388E-2,2E0,1E0,1E0,7.85394E-3,4.791694E-2,-6.8826675E-2,2.271465E-2],"split_indices":[3,0,0,0,1,0,0,0,0],"split_type":[0,0,0,0,0,0,0,0,0],"sum_hessian":[1.3850282E2,1.818326E1,1.20319565E2,7.257121E1,4.7748352E1,4.2485504E1,3.0085707E1,1.388126E1,3.3867092E1],"tree_param":{"num_deleted":"0","num_feature":"6","num_nodes":"9","size_leaf_vector":"1"}},{"base_weights":[1.369667E-1,5.421384E-2,4.4357758E-2,-1.7120273E-1,1.8914706E-1,-4.1818347E-2,1.3372202E-2,5.530517E-2,3.802397E-4],"categories":[],"categories_nodes":[],"categories_segments":[],"categories_sizes":[],"default_left":[0,0,0,0,0,0,0,0,0],"id":79,"left_children":[1,-1,3,5,7,-1,-1,-1,-1],"loss_changes":[6.0612583E0,0E0,4.1863737E0,4.12288E0,5.3999195E0,0E0,0E0,0E0,0E0],"parents":[2147483647,0,0,2,2,3,3,4,4],"right_children":[2,-1,4,6,8,-1,-1,-1,-1],"split_conditions":[1E0,5.421384E-2,1E0,2E0,2E0,-4.1818347E-2,1.3372202E-2,5.530517E-2,3.802397E-4],"split_indices":[3,0,5,0,5,0,0,0,0],"split_type":[0,0,0,0,0,0,0,0,0],"sum_hessian":[1.6117743E2,2.9082977E1,1.3209445E2,5.3002525E1,7.909192E1,2.907839E1,2.3924135E1,2.6020166E1,5.307176E1],"tree_param":{"num_deleted":"0","num_feature":"6","num_nodes":"9","size_leaf_vector":"1"}},{"base_weights":[-4.9859822E-1],"categories":[],"categories_nodes":[],"categories_segments":[],"categories_sizes":[],"default_left":[0],"id":80,"left_children":[-1],"loss_changes":[0E0],"parents":[2147483647],"right_children":[-1],"split_conditions":[-4.985982E-2],"split_indices":[0],"split_type":[0],"sum_hessian":[5.1034992E1],"tree_param":{"num_deleted":"0","num_feature":"6","num_nodes":"1","size_leaf_vector":"1"}},{"base_weights":[-1.7143788E-2,6.731863E-2,-2.4796036E-1,-1.0727482E-1,1.9399488E-1,-6.4071044E-2,-2.724209E-2,1.7475814E-2,-6.599625E-2,-9.3343295E-3,3.0619184E-2,3.904299E-2,-5.7243496E-2],"categories":[],"categories_nodes":[],"categories_segments":[],"categories_sizes":[],"default_left":[0,0,0,0,0,0,0,0,0,0,0,0,0],"id":81,"left_children":[1,3,5,7,9,-1,11,-1,-1,-1,-1,-1,-1],"loss_changes":[2.6005676E0,2.184237E0,3.0790231E0,6.6268907E0,1.8675957E0,0E0,5.6687446E0,0E0,0E0,0E0,0E0,0E0,0E0],"parents":[2147483647,0,0,1,1,2,2,3,3,4,4,6,6],"right_children":[2,4,6,8,10,-1,12,-1,-1,-1,-1,-1,-1],"split_conditions":[3E0,1E0,1E0,2E0,1E0,-6.4071044E-2,2E0,1.7475814E-2,-6.599625E-2,-9.3343295E-3,3.0619184E-2,3.904299E-2,-5.7243496E-2],"split_indices":[1,1,0,0,2,0,0,0,0,0,0,0,0],"split_type":[0,0,0,0,0,0,0,0,0,0,0,0,0],"sum_hessian":[1.315382E2,9.681803E1,3.4720158E1,4.077392E1,5.6044113E1,1.1807261E1,2.2912897E1,2.7450108E1,1.3323811E1,1.5785425E1,4.0258686E1,1.3134461E1,9.778437E0],"tree_param":{"num_deleted":"0","num_feature":"6","num_nodes":"13","size_leaf_vector":"1"}},{"base_weights":[1.8118984E-1,5.3239714E-2,1.10517934E-1,1.4988701E-2,3.5923433E-1,2.2144506E-2,-1.3407032E-2,7.1075216E-2,1.4200225E-2],"categories":[],"categories_nodes":[],"categories_segments":[],"categories_sizes":[],"default_left":[0,0,0,0,0,0,0,0,0],"id":82,"left_children":[1,-1,3,5,7,-1,-1,-1,-1],"loss_changes":[3.725792E0,0E0,3.0405853E0,2.9122138E0,2.6123366E0,0E0,0E0,0E0,0E0],"parents":[2147483647,0,0,2,2,3,3,4,4],"right_children":[2,-1,4,6,8,-1,-1,-1,-1],"split_conditions":[1E0,5.3239714E-2,3E0,1E0,1E0,2.2144506E-2,-1.3407032E-2,7.1075216E-2,1.4200225E-2],"split_indices":[3,0,1,1,0,0,0,0,0],"split_type":[0,0,0,0,0,0,0,0,0],"sum_hessian":[1.514801E2,2.4281029E1,1.2719907E2,9.266697E1,3.45321E1,3.8649418E1,5.401755E1,1.23216915E1,2.2210411E1],"tree_param":{"num_deleted":"0","num_feature":"6","num_nodes":"9","size_leaf_vector":"1"}},{"base_weights":[-4.9514118E-1],"categories":[],"categories_nodes":[],"categories_segments":[],"categories_sizes":[],"default_left":[0],"id":83,"left_children":[-1],"loss_changes":[0E0],"parents":[2147483647],"right_children":[-1],"split_conditions":[-4.951412E-2],"split_indices":[0],"split_type":[0],"sum_hessian":[4.77748E1],"tree_param":{"num_deleted":"0","num_feature":"6","num_nodes":"1","size_leaf_vector":"1"}},{"base_weights":[3.4738943E-2,-5.0350655E-2,1.14306085E-1,2.1508431E-1,-5.529941E-2,6.661262E-3,4.380799E-2,-6.366023E-2,1.432389E-2],"categories":[],"categories_nodes":[],"categories_segments":[],"categories_sizes":[],"default_left":[0,0,0,0,0,0,0,0,0],"id":84,"left_children":[1,-1,3,5,7,-1,-1,-1,-1],"loss_changes":[5.734525E0,0E0,1.9997588E0,2.3929377E0,5.1857934E0,0E0,0E0,0E0,0E0],"parents":[2147483647,0,0,2,2,3,3,4,4],"right_children":[2,-1,4,6,8,-1,-1,-1,-1],"split_conditions":[1E0,-5.0350655E-2,2E0,1E0,1E0,6.661262E-3,4.380799E-2,-6.366023E-2,1.432389E-2],"split_indices":[3,0,0,0,1,0,0,0,0],"split_type":[0,0,0,0,0,0,0,0,0],"sum_hessian":[1.3155698E2,1.6256826E1,1.1530014E2,7.215693E1,4.3143215E1,4.409617E1,2.8060757E1,1.0422017E1,3.27212E1],"tree_param":{"num_deleted":"0","num_feature":"6","num_nodes":"9","size_leaf_vector":"1"}},{"base_weights":[1.7591414E-1,2.255485E-2,2.6911983E-1,-9.058989E-2,1.8625353E-1,5.4638516E-2,1.3153504E-1,4.6162694E-3,-3.2334726E-2,2.4938352E-2,1.7418511E-3,-2.258636E-2,3.6355264E-2],"categories":[],"categories_nodes":[],"categories_segments":[],"categories_sizes":[],"default_left":[0,0,0,0,0,0,0,0,0,0,0,0,0],"id":85,"left_children":[1,3,5,7,9,-1,11,-1,-1,-1,-1,-1,-1],"loss_changes":[2.2745056E0,1.1541642E0,3.7102585E0,1.1920335E0,2.6662344E-1,0E0,5.6860833E0,0E0,0E0,0E0,0E0,0E0,0E0],"parents":[2147483647,0,0,1,1,2,2,3,3,4,4,6,6],"right_children":[2,4,6,8,10,-1,12,-1,-1,-1,-1,-1,-1],"split_conditions":[1E0,2E0,2E0,1E0,3E0,5.4638516E-2,1E0,4.6162694E-3,-3.2334726E-2,2.4938352E-2,1.7418511E-3,-2.258636E-2,3.6355264E-2],"split_indices":[5,0,5,0,2,0,4,0,0,0,0,0,0],"split_type":[0,0,0,0,0,0,0,0,0,0,0,0,0],"sum_hessian":[1.5854823E2,6.040338E1,9.814486E1,3.5980854E1,2.4422527E1,3.1564262E1,6.65806E1,2.3169615E1,1.2811237E1,1.7428617E1,6.993911E0,2.6219202E1,4.0361393E1],"tree_param":{"num_deleted":"0","num_feature":"6","num_nodes":"13","size_leaf_vector":"1"}},{"base_weights":[-4.9045867E-1],"categories":[],"categories_nodes":[],"categories_segments":[],"categories_sizes":[],"default_left":[0],"id":86,"left_children":[-1],"loss_changes":[0E0],"parents":[2147483647],"right_children":[-1],"split_conditions":[-4.904587E-2],"split_indices":[0],"split_type":[0],"sum_hessian":[4.339997E1],"tree_param":{"num_deleted":"0","num_feature":"6","num_nodes":"1","size_leaf_vector":"1"}},{"base_weights":[-9.11733E-3,-5.024146E-2,6.2014237E-2,2.478304E-1,-8.296831E-2,-9.5278415E-4,3.4307282E-2,-5.1565327E-2,7.377367E-3],"categories":[],"categories_nodes":[],"categories_segments":[],"categories_sizes":[],"default_left":[0,0,0,0,0,0,0,0,0],"id":87,"left_children":[1,-1,3,5,7,-1,-1,-1,-1],"loss_changes":[4.771938E0,0E0,3.225644E0,1.287503E0,4.621131E0,0E0,0E0,0E0,0E0],"parents":[2147483647,0,0,2,2,3,3,4,4],"right_children":[2,-1,4,6,8,-1,-1,-1,-1],"split_conditions":[1E0,-5.024146E-2,1E0,1E0,2E0,-9.5278415E-4,3.4307282E-2,-5.1565327E-2,7.377367E-3],"split_indices":[3,0,5,2,5,0,0,0,0],"split_type":[0,0,0,0,0,0,0,0,0],"sum_hessian":[1.3410732E2,1.6136633E1,1.1797068E2,5.139331E1,6.657737E1,1.4125151E1,3.726816E1,1.7095516E1,4.948185E1],"tree_param":{"num_deleted":"0","num_feature":"6","num_nodes":"9","size_leaf_vector":"1"}},{"base_weights":[1.3330397E-1,5.2624624E-2,5.783652E-2,-4.1813333E-2,2.988677E-1,-1.3431427E-2,2.199492E-2,3.761891E-2,2.3307288E-2],"categories":[],"categories_nodes":[],"categories_segments":[],"categories_sizes":[],"default_left":[0,0,0,0,0,0,0,0,0],"id":88,"left_children":[1,-1,3,5,7,-1,-1,-1,-1],"loss_changes":[4.5582585E0,0E0,3.1573188E0,2.2937622E0,1.0777974E-1,0E0,0E0,0E0,0E0],"parents":[2147483647,0,0,2,2,3,3,4,4],"right_children":[2,-1,4,6,8,-1,-1,-1,-1],"split_conditions":[1E0,5.2624624E-2,2E0,3E0,1E0,-1.3431427E-2,2.199492E-2,3.761891E-2,2.3307288E-2],"split_indices":[3,0,4,1,0,0,0,0,0],"split_type":[0,0,0,0,0,0,0,0,0],"sum_hessian":[1.5373935E2,2.3807228E1,1.2993213E2,9.251149E1,3.742063E1,6.871578E1,2.3795712E1,1.5034563E1,2.2386068E1],"tree_param":{"num_deleted":"0","num_feature":"6","num_nodes":"9","size_leaf_vector":"1"}},{"base_weights":[-4.8745188E-1],"categories":[],"categories_nodes":[],"categories_segments":[],"categories_sizes":[],"default_left":[0],"id":89,"left_children":[-1],"loss_changes":[0E0],"parents":[2147483647],"right_children":[-1],"split_conditions":[-4.874519E-2],"split_indices":[0],"split_type":[0],"sum_hessian":[4.14211E1],"tree_param":{"num_deleted":"0","num_feature":"6","num_nodes":"1","size_leaf_vector":"1"}},{"base_weights":[1.8494915E-3,1.7111774E-1,-1.3542205E-1,3.0187345E-1,-3.562053E-2,-5.1372606E-2,1.3225861E-2,1.4513144E-2,5.2761406E-2,-6.433163E-2,2.348089E-2,-1.659657E-2,2.0585438E-2],"categories":[],"categories_nodes":[],"categories_segments":[],"categories_sizes":[],"default_left":[0,0,0,0,0,0,0,0,0,0,0,0,0],"id":90,"left_children":[1,3,5,7,9,-1,11,-1,-1,-1,-1,-1,-1],"loss_changes":[3.0152466E0,1.5814986E0,4.0367546E0,1.1865919E0,3.9976878E0,0E0,1.8436772E0,0E0,0E0,0E0,0E0,0E0,0E0],"parents":[2147483647,0,0,1,1,2,2,3,3,4,4,6,6],"right_children":[2,4,6,8,10,-1,12,-1,-1,-1,-1,-1,-1],"split_conditions":[1E0,2E0,2E0,1E0,1E0,-5.1372606E-2,2E0,1.4513144E-2,5.2761406E-2,-6.433163E-2,2.348089E-2,-1.659657E-2,2.0585438E-2],"split_indices":[5,0,5,0,1,0,2,0,0,0,0,0,0],"split_type":[0,0,0,0,0,0,0,0,0,0,0,0,0],"sum_hessian":[1.2777045E2,5.7106453E1,7.0663994E1,3.469974E1,2.2406712E1,1.9240803E1,5.142319E1,2.1449373E1,1.3250369E1,6.4757824E0,1.5930929E1,2.6712479E1,2.4710714E1],"tree_param":{"num_deleted":"0","num_feature":"6","num_nodes":"13","size_leaf_vector":"1"}},{"base_weights":[1.1740318E-1,5.2280493E-2,3.8386904E-2,-6.975016E-2,3.0798095E-1,1.1514831E-2,-2.1336509E-2,4.052804E-2,5.9505826E-4],"categories":[],"categories_nodes":[],"categories_segments":[],"categories_sizes":[],"default_left":[0,0,0,0,0,0,0,0,0],"id":91,"left_children":[1,-1,3,5,7,-1,-1,-1,-1],"loss_changes":[4.640297E0,0E0,3.602453E0,2.3741841E0,1.0364151E0,0E0,0E0,0E0,0E0],"parents":[2147483647,0,0,2,2,3,3,4,4],"right_children":[2,-1,4,6,8,-1,-1,-1,-1],"split_conditions":[1E0,5.2280493E-2,3E0,1E0,3E0,1.1514831E-2,-2.1336509E-2,4.052804E-2,5.9505826E-4],"split_indices":[3,0,1,1,2,0,0,0,0],"split_type":[0,0,0,0,0,0,0,0,0],"sum_hessian":[1.444849E2,2.2651653E1,1.2183324E2,8.748382E1,3.434942E1,3.8331615E1,4.9152203E1,2.5721392E1,8.628027E0],"tree_param":{"num_deleted":"0","num_feature":"6","num_nodes":"9","size_leaf_vector":"1"}},{"base_weights":[-4.8361617E-1],"categories":[],"categories_nodes":[],"categories_segments":[],"categories_sizes":[],"default_left":[0],"id":92,"left_children":[-1],"loss_changes":[0E0],"parents":[2147483647],"right_children":[-1],"split_conditions":[-4.8361618E-2],"split_indices":[0],"split_type":[0],"sum_hessian":[3.8867786E1],"tree_param":{"num_deleted":"0","num_feature":"6","num_nodes":"1","size_leaf_vector":"1"}},{"base_weights":[8.013255E-3,1.843759E-1,-1.04381785E-1,3.2192093E-1,-5.711453E-2,-1.9376557E-1,1.1659381E-2,4.0669434E-2,2.1219796E-2,-5.6820657E-2,1.2495064E-2,-1.2593339E-2,-3.727985E-2,1.8489987E-2,-2.2443555E-2],"categories":[],"categories_nodes":[],"categories_segments":[],"categories_sizes":[],"default_left":[0,0,0,0,0,0,0,0,0,0,0,0,0,0,0],"id":93,"left_children":[1,3,5,7,9,11,13,-1,-1,-1,-1,-1,-1,-1,-1],"loss_changes":[2.5439975E0,1.6771277E0,8.1576174E-1,2.110467E-1,1.8362896E0,4.9178314E-1,1.4758989E0,0E0,0E0,0E0,0E0,0E0,0E0,0E0,0E0],"parents":[2147483647,0,0,1,1,2,2,3,3,4,4,5,5,6,6],"right_children":[2,4,6,8,10,12,14,-1,-1,-1,-1,-1,-1,-1,-1],"split_conditions":[1E0,2E0,2E0,2E0,1E0,3E0,2E0,4.0669434E-2,2.1219796E-2,-5.6820657E-2,1.2495064E-2,-1.2593339E-2,-3.727985E-2,1.8489987E-2,-2.2443555E-2],"split_indices":[4,0,2,1,1,1,4,0,0,0,0,0,0,0,0],"split_type":[0,0,0,0,0,0,0,0,0,0,0,0,0,0,0],"sum_hessian":[1.2636937E2,4.89383E1,7.743107E1,3.0967287E1,1.7971014E1,4.3361176E1,3.4069893E1,1.5942979E1,1.5024307E1,4.1632032E0,1.3807811E1,3.2681995E1,1.0679179E1,1.9775774E1,1.429412E1],"tree_param":{"num_deleted":"0","num_feature":"6","num_nodes":"15","size_leaf_vector":"1"}},{"base_weights":[1.5045713E-1,-1.0015458E-2,2.601642E-1,-8.747862E-2,1.5766764E-1,5.342261E-2,1.2109099E-1,1.0840923E-2,-2.540766E-2,1.8478433E-2,3.0436653E-3,-2.3887547E-2,3.2649398E-2],"categories":[],"categories_nodes":[],"categories_segments":[],"categories_sizes":[],"default_left":[0,0,0,0,0,0,0,0,0,0,0,0,0],"id":94,"left_children":[1,3,5,7,9,-1,11,-1,-1,-1,-1,-1,-1],"loss_changes":[2.482201E0,7.6916885E-1,3.1252184E0,1.3466691E0,5.900532E-2,0E0,4.2785854E0,0E0,0E0,0E0,0E0,0E0,0E0],"parents":[2147483647,0,0,1,1,2,2,3,3,4,4,6,6],"right_children":[2,4,6,8,10,-1,12,-1,-1,-1,-1,-1,-1],"split_conditions":[1E0,3E0,2E0,1E0,3E0,5.342261E-2,1E0,1.0840923E-2,-2.540766E-2,1.8478433E-2,3.0436653E-3,-2.3887547E-2,3.2649398E-2],"split_indices":[5,1,5,1,2,0,4,0,0,0,0,0,0],"split_type":[0,0,0,0,0,0,0,0,0,0,0,0,0],"sum_hessian":[1.3984631E2,5.7153896E1,8.269242E1,3.9421146E1,1.773275E1,2.6880178E1,5.581224E1,1.827843E1,2.1142715E1,1.4244477E1,3.4882722E0,2.0217804E1,3.5594437E1],"tree_param":{"num_deleted":"0","num_feature":"6","num_nodes":"13","size_leaf_vector":"1"}},{"base_weights":[-4.7943535E-1],"categories":[],"categories_nodes":[],"categories_segments":[],"categories_sizes":[],"default_left":[0],"id":95,"left_children":[-1],"loss_changes":[0E0],"parents":[2147483647],"right_children":[-1],"split_conditions":[-4.7943536E-2],"split_indices":[0],"split_type":[0],"sum_hessian":[3.5972485E1],"tree_param":{"num_deleted":"0","num_feature":"6","num_nodes":"1","size_leaf_vector":"1"}},{"base_weights":[1.25921145E-2,-4.9244728E-2,7.465321E-2,2.6553372E-1,-7.926507E-2,7.4104085E-3,3.530437E-2,7.0006982E-3,-5.4500826E-2],"categories":[],"categories_nodes":[],"categories_segments":[],"categories_sizes":[],"default_left":[0,0,0,0,0,0,0,0,0],"id":96,"left_children":[1,-1,3,5,7,-1,-1,-1,-1],"loss_changes":[3.9840183E0,0E0,3.3416524E0,8.2288384E-1,4.441665E0,0E0,0E0,0E0,0E0],"parents":[2147483647,0,0,2,2,3,3,4,4],"right_children":[2,-1,4,6,8,-1,-1,-1,-1],"split_conditions":[1E0,-4.9244728E-2,1E0,1E0,2E0,7.4104085E-3,3.530437E-2,7.0006982E-3,-5.4500826E-2],"split_indices":[3,0,5,1,4,0,0,0,0],"split_type":[0,0,0,0,0,0,0,0,0],"sum_hessian":[1.249362E2,1.29135685E1,1.1202264E2,4.9683224E1,6.233941E1,1.6166197E1,3.351703E1,4.7852295E1,1.4487113E1],"tree_param":{"num_deleted":"0","num_feature":"6","num_nodes":"9","size_leaf_vector":"1"}},{"base_weights":[1.1885283E-1,5.1553555E-2,4.73922E-2,-5.8145836E-2,3.1816337E-1,-2.6523922E-2,7.996104E-3,3.836224E-2,2.360527E-2],"categories":[],"categories_nodes":[],"categories_segments":[],"categories_sizes":[],"default_left":[0,0,0,0,0,0,0,0,0],"id":97,"left_children":[1,-1,3,5,7,-1,-1,-1,-1],"loss_changes":[3.8157609E0,0E0,3.3303094E0,2.4304159E0,8.497286E-2,0E0,0E0,0E0,0E0],"parents":[2147483647,0,0,2,2,3,3,4,4],"right_children":[2,-1,4,6,8,-1,-1,-1,-1],"split_conditions":[1E0,5.1553555E-2,3E0,1E0,2E0,-2.6523922E-2,7.996104E-3,3.836224E-2,2.360527E-2],"split_indices":[3,0,1,5,2,0,0,0,0],"split_type":[0,0,0,0,0,0,0,0,0],"sum_hessian":[1.3446994E2,1.9577831E1,1.1489211E2,8.3235E1,3.1657112E1,3.293217E1,5.030283E1,1.5571459E1,1.6085653E1],"tree_param":{"num_deleted":"0","num_feature":"6","num_nodes":"9","size_leaf_vector":"1"}},{"base_weights":[-4.7481117E-1],"categories":[],"categories_nodes":[],"categories_segments":[],"categories_sizes":[],"default_left":[0],"id":98,"left_children":[-1],"loss_changes":[0E0],"parents":[2147483647],"right_children":[-1],"split_conditions":[-4.7481116E-2],"split_indices":[0],"split_type":[0],"sum_hessian":[3.3186882E1],"tree_param":{"num_deleted":"0","num_feature":"6","num_nodes":"1","size_leaf_vector":"1"}},{"base_weights":[5.3248107E-2,2.1425307E-1,-8.067413E-2,3.1150788E-1,-2.9844342E-2,-5.0818186E-2,6.1077096E-2,3.4425226E-3,5.2226663E-2,1.8949224E-2,-9.743392E-3,2.0540586E-2,-4.580414E-2],"categories":[],"categories_nodes":[],"categories_segments":[],"categories_sizes":[],"default_left":[0,0,0,0,0,0,0,0,0,0,0,0,0],"id":99,"left_children":[1,3,5,7,9,-1,11,-1,-1,-1,-1,-1,-1],"loss_changes":[2.8621387E0,1.4380541E0,4.4398503E0,2.5004E0,2.8619632E-1,0E0,4.2545595E0,0E0,0E0,0E0,0E0,0E0,0E0],"parents":[2147483647,0,0,1,1,2,2,3,3,4,4,6,6],"right_children":[2,4,6,8,10,-1,12,-1,-1,-1,-1,-1,-1],"split_conditions":[1E0,3E0,2E0,1E0,1E0,-5.0818186E-2,2E0,3.4425226E-3,5.2226663E-2,1.8949224E-2,-9.743392E-3,2.0540586E-2,-4.580414E-2],"split_indices":[5,1,5,1,2,0,4,0,0,0,0,0,0],"split_type":[0,0,0,0,0,0,0,0,0,0,0,0,0],"sum_hessian":[1.3093744E2,5.918445E1,7.175299E1,4.2124702E1,1.7059748E1,1.7223522E1,5.4529472E1,1.8701433E1,2.342327E1,3.593811E0,1.3465937E1,4.3139782E1,1.1389691E1],"tree_param":{"num_deleted":"0","num_feature":"6","num_nodes":"13","size_leaf_vector":"1"}},{"base_weights":[1.4290422E-1,5.1136475E-2,7.962297E-2,-1.3663484E-1,2.2361639E-1,-3.1050393E-2,7.3516625E-3,5.295962E-2,8.332434E-3],"categories":[],"categories_nodes":[],"categories_segments":[],"categories_sizes":[],"default_left":[0,0,0,0,0,0,0,0,0],"id":100,"left_children":[1,-1,3,5,7,-1,-1,-1,-1],"loss_changes":[3.0936317E0,0E0,3.639856E0,1.7382889E0,2.9589176E0,0E0,0E0,0E0,0E0],"parents":[2147483647,0,0,2,2,3,3,4,4],"right_children":[2,-1,4,6,8,-1,-1,-1,-1],"split_conditions":[1E0,5.1136475E-2,1E0,2E0,2E0,-3.1050393E-2,7.3516625E-3,5.295962E-2,8.332434E-3],"split_indices":[3,0,5,0,5,0,0,0,0],"split_type":[0,0,0,0,0,0,0,0,0],"sum_hessian":[1.3342534E2,1.8518562E1,1.1490677E2,4.5948982E1,6.895779E1,2.4883806E1,2.1065176E1,2.0805534E1,4.8152252E1],"tree_param":{"num_deleted":"0","num_feature":"6","num_nodes":"9","size_leaf_vector":"1"}},{"base_weights":[-4.6981665E-1],"categories":[],"categories_nodes":[],"categories_segments":[],"categories_sizes":[],"default_left":[0],"id":101,"left_children":[-1],"loss_changes":[0E0],"parents":[2147483647],"right_children":[-1],"split_conditions":[-4.6981666E-2],"split_indices":[0],"split_type":[0],"sum_hessian":[3.037584E1],"tree_param":{"num_deleted":"0","num_feature":"6","num_nodes":"1","size_leaf_vector":"1"}},{"base_weights":[3.984952E-2,-4.87568E-2,1.0524721E-1,2.0443065E-1,-1.6533022E-1,3.6670286E-2,8.7340195E-3,-3.0855993E-2,-4.070723E-3],"categories":[],"categories_nodes":[],"categories_segments":[],"categories_sizes":[],"default_left":[0,0,0,0,0,0,0,0,0],"id":102,"left_children":[1,-1,3,5,7,-1,-1,-1,-1],"loss_changes":[4.1694093E0,0E0,2.90653E0,1.464802E0,5.0983155E-1,0E0,0E0,0E0,0E0],"parents":[2147483647,0,0,2,2,3,3,4,4],"right_children":[2,-1,4,6,8,-1,-1,-1,-1],"split_conditions":[1E0,-4.87568E-2,3E0,1E0,2E0,3.6670286E-2,8.7340195E-3,-3.0855993E-2,-4.070723E-3],"split_indices":[3,0,1,5,2,0,0,0,0],"split_type":[0,0,0,0,0,0,0,0,0],"sum_hessian":[1.1839313E2,1.2348647E1,1.0604448E2,7.777834E1,2.8266136E1,3.1706064E1,4.6072277E1,1.2464587E1,1.5801549E1],"tree_param":{"num_deleted":"0","num_feature":"6","num_nodes":"9","size_leaf_vector":"1"}},{"base_weights":[1.025058E-1,5.0686296E-2,3.930387E-2,-6.046203E-2,2.8682703E-1,-2.7423484E-2,7.6971226E-3,6.792766E-2,6.8227584E-3],"categories":[],"categories_nodes":[],"categories_segments":[],"categories_sizes":[],"default_left":[0,0,0,0,0,0,0,0,0],"id":103,"left_children":[1,-1,3,5,7,-1,-1,-1,-1],"loss_changes":[3.4565725E0,0E0,2.9492896E0,2.531522E0,2.8946426E0,0E0,0E0,0E0,0E0],"parents":[2147483647,0,0,2,2,3,3,4,4],"right_children":[2,-1,4,6,8,-1,-1,-1,-1],"split_conditions":[1E0,5.0686296E-2,3E0,1E0,1E0,-2.7423484E-2,7.6971226E-3,6.792766E-2,6.8227584E-3],"split_indices":[3,0,1,5,0,0,0,0,0],"split_type":[0,0,0,0,0,0,0,0,0],"sum_hessian":[1.3503355E2,1.7304167E1,1.1772938E2,8.444784E1,3.3281544E1,3.265644E1,5.1791393E1,1.115238E1,2.2129166E1],"tree_param":{"num_deleted":"0","num_feature":"6","num_nodes":"9","size_leaf_vector":"1"}},{"base_weights":[-4.676794E-1],"categories":[],"categories_nodes":[],"categories_segments":[],"categories_sizes":[],"default_left":[0],"id":104,"left_children":[-1],"loss_changes":[0E0],"parents":[2147483647],"right_children":[-1],"split_conditions":[-4.6767943E-2],"split_indices":[0],"split_type":[0],"sum_hessian":[2.966464E1],"tree_param":{"num_deleted":"0","num_feature":"6","num_nodes":"1","size_leaf_vector":"1"}},{"base_weights":[-3.0231157E-2,7.902894E-2,-3.015819E-1,1.6857743E-1,-7.001369E-2,-7.2618105E-2,-5.382957E-2,3.8273477E-3,3.2247666E-2,1.3517904E-3,-1.30202845E-2,-5.7806253E-2,1.7063271E-2],"categories":[],"categories_nodes":[],"categories_segments":[],"categories_sizes":[],"default_left":[0,0,0,0,0,0,0,0,0,0,0,0,0],"id":105,"left_children":[1,3,5,7,9,11,-1,-1,-1,-1,-1,-1,-1],"loss_changes":[3.5690594E0,1.1601887E0,1.8326309E0,1.0714194E0,1.6767725E-1,2.3990836E0,0E0,0E0,0E0,0E0,0E0,0E0,0E0],"parents":[2147483647,0,0,1,1,2,2,3,3,4,4,5,5],"right_children":[2,4,6,8,10,12,-1,-1,-1,-1,-1,-1,-1],"split_conditions":[2E0,2E0,1E0,2E0,1E0,1E0,-5.382957E-2,3.8273477E-3,3.2247666E-2,1.3517904E-3,-1.30202845E-2,-5.7806253E-2,1.7063271E-2],"split_indices":[4,0,5,2,5,2,0,0,0,0,0,0,0],"split_type":[0,0,0,0,0,0,0,0,0,0,0,0,0],"sum_hessian":[1.18578E2,8.5043686E1,3.353431E1,5.3043045E1,3.200064E1,1.7710463E1,1.5823848E1,2.9399586E1,2.3643461E1,1.3726362E1,1.827428E1,5.306929E0,1.2403534E1],"tree_param":{"num_deleted":"0","num_feature":"6","num_nodes":"13","size_leaf_vector":"1"}},{"base_weights":[8.344053E-2,-3.3986592E-3,3.1076187E-1,-8.54408E-2,2.4362247E-1,5.2480478E-2,5.098831E-1,7.478849E-3,-2.656581E-2,1.1143419E-2,3.1473067E-2,4.8101168E-2,-1.5914388E-2,2.597769E-2,5.5417545E-2],"categories":[],"categories_nodes":[],"categories_segments":[],"categories_sizes":[],"default_left":[0,0,0,0,0,0,0,0,0,0,0,0,0,0,0],"id":106,"left_children":[1,3,5,7,9,11,13,-1,-1,-1,-1,-1,-1,-1,-1],"loss_changes":[2.5629504E0,1.9439768E0,1.8187284E0,2.0982628E0,1.8975854E-1,1.5943086E0,7.923174E-2,0E0,0E0,0E0,0E0,0E0,0E0,0E0,0E0],"parents":[2147483647,0,0,1,1,2,2,3,3,4,4,5,5,6,6],"right_children":[2,4,6,8,10,12,14,-1,-1,-1,-1,-1,-1,-1,-1],"split_conditions":[2E0,3E0,1E0,2E0,1E0,1E0,1E0,7.478849E-3,-2.656581E-2,1.1143419E-2,3.1473067E-2,4.8101168E-2,-1.5914388E-2,2.597769E-2,5.5417545E-2],"split_indices":[4,1,5,5,5,2,2,0,0,0,0,0,0,0,0],"split_type":[0,0,0,0,0,0,0,0,0,0,0,0,0,0,0],"sum_hessian":[1.2877925E2,9.3895294E1,3.488396E1,7.0976326E1,2.2918968E1,1.5736112E1,1.9147848E1,3.7881393E1,3.3094933E1,8.9144125E0,1.4004556E1,4.7812705E0,1.0954841E1,3.9136484E0,1.52342E1],"tree_param":{"num_deleted":"0","num_feature":"6","num_nodes":"15","size_leaf_vector":"1"}},{"base_weights":[-4.6408617E-1],"categories":[],"categories_nodes":[],"categories_segments":[],"categories_sizes":[],"default_left":[0],"id":107,"left_children":[-1],"loss_changes":[0E0],"parents":[2147483647],"right_children":[-1],"split_conditions":[-4.640862E-2],"split_indices":[0],"split_type":[0],"sum_hessian":[2.8049793E1],"tree_param":{"num_deleted":"0","num_feature":"6","num_nodes":"1","size_leaf_vector":"1"}},{"base_weights":[4.4215266E-2,-4.8419423E-2,1.06883876E-1,1.7289712E-1,-1.00447915E-1,4.3762117E-3,2.6584605E-2,-1.4391365E-2,-4.4399346E-3],"categories":[],"categories_nodes":[],"categories_segments":[],"categories_sizes":[],"default_left":[0,0,0,0,0,0,0,0,0],"id":108,"left_children":[1,-1,3,5,7,-1,-1,-1,-1],"loss_changes":[3.9735866E0,0E0,1.4776549E0,9.641466E-1,5.792433E-2,0E0,0E0,0E0,0E0],"parents":[2147483647,0,0,2,2,3,3,4,4],"right_children":[2,-1,4,6,8,-1,-1,-1,-1],"split_conditions":[1E0,-4.8419423E-2,3E0,1E0,2E0,4.3762117E-3,2.6584605E-2,-1.4391365E-2,-4.4399346E-3],"split_indices":[3,0,1,1,3,0,0,0,0],"split_type":[0,0,0,0,0,0,0,0,0],"sum_hessian":[1.1743185E2,1.1737477E1,1.0569437E2,8.029499E1,2.5399376E1,3.4221497E1,4.6073494E1,1.3422528E1,1.1976848E1],"tree_param":{"num_deleted":"0","num_feature":"6","num_nodes":"9","size_leaf_vector":"1"}},{"base_weights":[4.54429E-2,5.013923E-2,-2.1756496E-2,-9.306422E-2,1.6984606E-1,-1.7816467E-2,1.334349E-2,2.4233393E-2,6.4484477E-3],"categories":[],"categories_nodes":[],"categories_segments":[],"categories_sizes":[],"default_left":[0,0,0,0,0,0,0,0,0],"id":109,"left_children":[1,-1,3,5,7,-1,-1,-1,-1],"loss_changes":[3.9343553E0,0E0,1.5537086E0,1.6174116E0,2.2024387E-1,0E0,0E0,0E0,0E0],"parents":[2147483647,0,0,2,2,3,3,4,4],"right_children":[2,-1,4,6,8,-1,-1,-1,-1],"split_conditions":[1E0,5.013923E-2,2E0,3E0,2E0,-1.7816467E-2,1.334349E-2,2.4233393E-2,6.4484477E-3],"split_indices":[3,0,4,1,1,0,0,0,0],"split_type":[0,0,0,0,0,0,0,0,0],"sum_hessian":[1.2705182E2,1.5490073E1,1.11561745E2,8.167826E1,2.9883486E1,5.952636E1,2.21519E1,1.6933416E1,1.2950069E1],"tree_param":{"num_deleted":"0","num_feature":"6","num_nodes":"9","size_leaf_vector":"1"}},{"base_weights":[-4.9737427E-1],"categories":[],"categories_nodes":[],"categories_segments":[],"categories_sizes":[],"default_left":[0],"id":110,"left_children":[-1],"loss_changes":[0E0],"parents":[2147483647],"right_children":[-1],"split_conditions":[-4.9737427E-2],"split_indices":[0],"split_type":[0],"sum_hessian":[2.743553E1],"tree_param":{"num_deleted":"0","num_feature":"6","num_nodes":"1","size_leaf_vector":"1"}},{"base_weights":[8.586096E-3,-4.7252923E-2,5.5714354E-2,-1.3351801E-1,1.2381458E-1,2.8898783E-3,-2.843207E-2,2.4183039E-2,-2.638642E-3],"categories":[],"categories_nodes":[],"categories_segments":[],"categories_sizes":[],"default_left":[0,0,0,0,0,0,0,0,0],"id":111,"left_children":[1,-1,3,5,7,-1,-1,-1,-1],"loss_changes":[2.6309505E0,0E0,1.3763181E0,7.039453E-1,1.391014E0,0E0,0E0,0E0,0E0],"parents":[2147483647,0,0,2,2,3,3,4,4],"right_children":[2,-1,4,6,8,-1,-1,-1,-1],"split_conditions":[1E0,-4.7252923E-2,1E0,2E0,2E0,2.8898783E-3,-2.843207E-2,2.4183039E-2,-2.638642E-3],"split_indices":[3,0,2,3,0,0,0,0,0],"split_type":[0,0,0,0,0,0,0,0,0],"sum_hessian":[1.13872055E2,9.354E0,1.0451806E2,2.7405336E1,7.7112724E1,1.3583773E1,1.3821564E1,4.2841385E1,3.4271336E1],"tree_param":{"num_deleted":"0","num_feature":"6","num_nodes":"9","size_leaf_vector":"1"}},{"base_weights":[9.9436045E-2,-5.126035E-2,2.2129908E-1,-1.7935719E-1,1.0687758E-1,5.1731985E-2,1.04772E-1,2.1890167E-3,-4.9390957E-2,6.9292285E-2,-1.4157382E-2,-2.4373723E-2,3.160303E-2],"categories":[],"categories_nodes":[],"categories_segments":[],"categories_sizes":[],"default_left":[0,0,0,0,0,0,0,0,0,0,0,0,0],"id":112,"left_children":[1,3,5,7,9,-1,11,-1,-1,-1,-1,-1,-1],"loss_changes":[2.4160702E0,1.2215929E0,2.4496489E0,2.1104126E0,4.0572047E0,0E0,4.004084E0,0E0,0E0,0E0,0E0,0E0,0E0],"parents":[2147483647,0,0,1,1,2,2,3,3,4,4,6,6],"right_children":[2,4,6,8,10,-1,12,-1,-1,-1,-1,-1,-1],"split_conditions":[1E0,2E0,2E0,1E0,1E0,5.1731985E-2,1E0,2.1890167E-3,-4.9390957E-2,6.9292285E-2,-1.4157382E-2,-2.4373723E-2,3.160303E-2],"split_indices":[5,0,5,0,1,0,4,0,0,0,0,0,0],"split_type":[0,0,0,0,0,0,0,0,0,0,0,0,0],"sum_hessian":[1.2994556E2,5.8358517E1,7.158704E1,3.216757E1,2.6190952E1,1.9248764E1,5.233828E1,2.018428E1,1.1983286E1,7.265106E0,1.8925846E1,1.9694635E1,3.2643646E1],"tree_param":{"num_deleted":"0","num_feature":"6","num_nodes":"13","size_leaf_vector":"1"}},{"base_weights":[-4.9509424E-1],"categories":[],"categories_nodes":[],"categories_segments":[],"categories_sizes":[],"default_left":[0],"id":113,"left_children":[-1],"loss_changes":[0E0],"parents":[2147483647],"right_children":[-1],"split_conditions":[-4.9509425E-2],"split_indices":[0],"split_type":[0],"sum_hessian":[2.53934E1],"tree_param":{"num_deleted":"0","num_feature":"6","num_nodes":"1","size_leaf_vector":"1"}},{"base_weights":[6.8539366E-2,-4.727189E-2,1.20571345E-1,2.1830258E-1,-1.734715E-1,4.490254E-3,4.086378E-2,1.257837E-2,-5.220766E-2],"categories":[],"categories_nodes":[],"categories_segments":[],"categories_sizes":[],"default_left":[0,0,0,0,0,0,0,0,0],"id":114,"left_children":[1,-1,3,5,7,-1,-1,-1,-1],"loss_changes":[3.3688421E0,0E0,3.1437874E0,2.673517E0,2.936471E0,0E0,0E0,0E0,0E0],"parents":[2147483647,0,0,2,2,3,3,4,4],"right_children":[2,-1,4,6,8,-1,-1,-1,-1],"split_conditions":[1E0,-4.727189E-2,2E0,2E0,1E0,4.490254E-3,4.086378E-2,1.257837E-2,-5.220766E-2],"split_indices":[3,0,4,5,5,0,0,0,0],"split_type":[0,0,0,0,0,0,0,0,0],"sum_hessian":[1.1659673E2,9.516543E0,1.07080185E2,8.056149E1,2.6518696E1,4.280291E1,3.7758583E1,1.4613296E1,1.19054E1],"tree_param":{"num_deleted":"0","num_feature":"6","num_nodes":"9","size_leaf_vector":"1"}},{"base_weights":[3.804651E-2,4.917307E-2,-1.8501123E-2,-8.996794E-2,1.8131024E-1,-1.6828809E-2,4.3589654E-3,4.6654455E-3,3.114861E-2],"categories":[],"categories_nodes":[],"categories_segments":[],"categories_sizes":[],"default_left":[0,0,0,0,0,0,0,0,0],"id":115,"left_children":[1,-1,3,5,7,-1,-1,-1,-1],"loss_changes":[3.2183344E0,0E0,1.6184177E0,8.787251E-1,5.0937873E-1,0E0,0E0,0E0,0E0],"parents":[2147483647,0,0,2,2,3,3,4,4],"right_children":[2,-1,4,6,8,-1,-1,-1,-1],"split_conditions":[1E0,4.917307E-2,2E0,2E0,2E0,-1.6828809E-2,4.3589654E-3,4.6654455E-3,3.114861E-2],"split_indices":[3,0,4,0,3,0,0,0,0],"split_type":[0,0,0,0,0,0,0,0,0],"sum_hessian":[1.2409321E2,1.2900008E1,1.111932E2,8.230485E1,2.8888357E1,5.171712E1,3.0587727E1,1.4867548E1,1.4020809E1],"tree_param":{"num_deleted":"0","num_feature":"6","num_nodes":"9","size_leaf_vector":"1"}},{"base_weights":[-4.5171064E-1],"categories":[],"categories_nodes":[],"categories_segments":[],"categories_sizes":[],"default_left":[0],"id":116,"left_children":[-1],"loss_changes":[0E0],"parents":[2147483647],"right_children":[-1],"split_conditions":[-4.5171063E-2],"split_indices":[0],"split_type":[0],"sum_hessian":[2.3416637E1],"tree_param":{"num_deleted":"0","num_feature":"6","num_nodes":"1","size_leaf_vector":"1"}},{"base_weights":[-1.5319836E-2,6.9684386E-2,-2.6113248E-1,-1.3809319E-1,2.1339388E-1,-6.3503675E-2,-3.2326747E-2,1.1264087E-2,-6.3619696E-2,4.1770436E-2,8.975222E-3,3.7886992E-2,-5.5132028E-2],"categories":[],"categories_nodes":[],"categories_segments":[],"categories_sizes":[],"default_left":[0,0,0,0,0,0,0,0,0,0,0,0,0],"id":117,"left_children":[1,3,5,7,9,-1,11,-1,-1,-1,-1,-1,-1],"loss_changes":[2.412562E0,2.5954525E0,2.516478E0,4.535612E0,1.2556946E0,0E0,4.3598027E0,0E0,0E0,0E0,0E0,0E0,0E0],"parents":[2147483647,0,0,1,1,2,2,3,3,4,4,6,6],"right_children":[2,4,6,8,10,-1,12,-1,-1,-1,-1,-1,-1],"split_conditions":[3E0,1E0,1E0,2E0,1E0,-6.3503675E-2,2E0,1.1264087E-2,-6.3619696E-2,4.1770436E-2,8.975222E-3,3.7886992E-2,-5.5132028E-2],"split_indices":[1,1,0,0,5,0,0,0,0,0,0,0,0],"split_type":[0,0,0,0,0,0,0,0,0,0,0,0,0],"sum_hessian":[1.1358971E2,8.493495E1,2.8654758E1,3.4742603E1,5.019235E1,1.0204148E1,1.845061E1,2.3624454E1,1.1118149E1,1.8026423E1,3.2165928E1,1.0445037E1,8.005573E0],"tree_param":{"num_deleted":"0","num_feature":"6","num_nodes":"13","size_leaf_vector":"1"}},{"base_weights":[6.596979E-2,1.6736557E-1,-6.2114995E-2,-2.0169238E-2,3.0668756E-1,-1.7426378E-1,2.080055E-1,-1.3105221E-2,1.4950893E-2,4.936677E-2,2.301963E-2,-5.727884E-3,-2.8239135E-2,6.0900487E-2,-2.277071E-3],"categories":[],"categories_nodes":[],"categories_segments":[],"categories_sizes":[],"default_left":[0,0,0,0,0,0,0,0,0,0,0,0,0,0,0],"id":118,"left_children":[1,3,5,7,9,11,13,-1,-1,-1,-1,-1,-1,-1,-1],"loss_changes":[1.5994227E0,1.7975546E0,1.6960626E0,5.87087E-1,4.4986176E-1,4.8044384E-1,1.5435894E0,0E0,0E0,0E0,0E0,0E0,0E0,0E0,0E0],"parents":[2147483647,0,0,1,1,2,2,3,3,4,4,5,5,6,6],"right_children":[2,4,6,8,10,12,14,-1,-1,-1,-1,-1,-1,-1,-1],"split_conditions":[2E0,1E0,3E0,2E0,2E0,2E0,1E0,-1.3105221E-2,1.4950893E-2,4.936677E-2,2.301963E-2,-5.727884E-3,-2.8239135E-2,6.0900487E-2,-2.277071E-3],"split_indices":[2,5,1,0,5,5,0,0,0,0,0,0,0,0,0],"split_type":[0,0,0,0,0,0,0,0,0,0,0,0,0,0,0],"sum_hessian":[1.21352776E2,6.756199E1,5.3790787E1,2.9162693E1,3.83993E1,3.8260597E1,1.55301895E1,1.7774729E1,1.1387964E1,9.564738E0,2.883456E1,1.9112362E1,1.9148235E1,5.0742226E0,1.0455967E1],"tree_param":{"num_deleted":"0","num_feature":"6","num_nodes":"15","size_leaf_vector":"1"}},{"base_weights":[-4.9156904E-1],"categories":[],"categories_nodes":[],"categories_segments":[],"categories_sizes":[],"default_left":[0],"id":119,"left_children":[-1],"loss_changes":[0E0],"parents":[2147483647],"right_children":[-1],"split_conditions":[-4.9156904E-2],"split_indices":[0],"split_type":[0],"sum_hessian":[2.2683092E1],"tree_param":{"num_deleted":"0","num_feature":"6","num_nodes":"1","size_leaf_vector":"1"}},{"base_weights":[8.416721E-3,-4.6843108E-2,5.2696947E-2,1.6339304E-1,-1.2508242E-1,3.04494E-3,3.8987428E-2,-2.0387823E-2,-3.8731724E-3],"categories":[],"categories_nodes":[],"categories_segments":[],"categories_sizes":[],"default_left":[0,0,0,0,0,0,0,0,0],"id":120,"left_children":[1,-1,3,5,7,-1,-1,-1,-1],"loss_changes":[2.4615047E0,0E0,2.116305E0,1.9773457E0,2.7401984E-1,0E0,0E0,0E0,0E0],"parents":[2147483647,0,0,2,2,3,3,4,4],"right_children":[2,-1,4,6,8,-1,-1,-1,-1],"split_conditions":[1E0,-4.6843108E-2,2E0,1E0,2E0,3.04494E-3,3.8987428E-2,-2.0387823E-2,-3.8731724E-3],"split_indices":[3,0,0,0,3,0,0,0,0],"split_type":[0,0,0,0,0,0,0,0,0],"sum_hessian":[1.1440743E2,8.907285E0,1.05500145E2,6.5066666E1,4.043348E1,4.1714725E1,2.3351938E1,2.0429932E1,2.0003548E1],"tree_param":{"num_deleted":"0","num_feature":"6","num_nodes":"9","size_leaf_vector":"1"}},{"base_weights":[9.849571E-2,5.2615004E-3,3.4393638E-1,1.0060646E-1,-1.1937512E-1,1.20241575E-1,5.407703E-2,-1.0458093E-2,2.1754486E-2,1.0993613E-2,-3.6392167E-2,4.8932306E-2,-7.7736787E-3],"categories":[],"categories_nodes":[],"categories_segments":[],"categories_sizes":[],"default_left":[0,0,0,0,0,0,0,0,0,0,0,0,0],"id":121,"left_children":[1,3,5,7,9,11,-1,-1,-1,-1,-1,-1,-1],"loss_changes":[2.6831875E0,1.0345608E0,1.3565245E0,1.2055643E0,2.157068E0,1.2362063E0,0E0,0E0,0E0,0E0,0E0,0E0,0E0],"parents":[2147483647,0,0,1,1,2,2,3,3,4,4,5,5],"right_children":[2,4,6,8,10,12,-1,-1,-1,-1,-1,-1,-1],"split_conditions":[2E0,2E0,1E0,1E0,2E0,1E0,5.407703E-2,-1.0458093E-2,2.1754486E-2,1.0993613E-2,-3.6392167E-2,4.8932306E-2,-7.7736787E-3],"split_indices":[4,2,5,5,5,2,0,0,0,0,0,0,0],"split_type":[0,0,0,0,0,0,0,0,0,0,0,0,0],"sum_hessian":[1.163335E2,8.504816E1,3.1285341E1,4.8295616E1,3.6752544E1,1.5397503E1,1.5887838E1,1.7570683E1,3.0724932E1,1.9251175E1,1.7501371E1,4.8619695E0,1.0535533E1],"tree_param":{"num_deleted":"0","num_feature":"6","num_nodes":"13","size_leaf_vector":"1"}},{"base_weights":[-4.4254696E-1],"categories":[],"categories_nodes":[],"categories_segments":[],"categories_sizes":[],"default_left":[0],"id":122,"left_children":[-1],"loss_changes":[0E0],"parents":[2147483647],"right_children":[-1],"split_conditions":[-4.4254698E-2],"split_indices":[0],"split_type":[0],"sum_hessian":[2.0686617E1],"tree_param":{"num_deleted":"0","num_feature":"6","num_nodes":"1","size_leaf_vector":"1"}},{"base_weights":[1.2189716E-2,-4.6747923E-2,5.7992883E-2,2.119785E-1,-5.495724E-2,-2.6035549E-3,4.580266E-2,1.8916175E-2,-2.707316E-2],"categories":[],"categories_nodes":[],"categories_segments":[],"categories_sizes":[],"default_left":[0,0,0,0,0,0,0,0,0],"id":123,"left_children":[1,-1,3,5,7,-1,-1,-1,-1],"loss_changes":[2.467506E0,0E0,1.7906489E0,2.558594E0,3.201061E0,0E0,0E0,0E0,0E0],"parents":[2147483647,0,0,2,2,3,3,4,4],"right_children":[2,-1,4,6,8,-1,-1,-1,-1],"split_conditions":[1E0,-4.6747923E-2,1E0,2E0,1E0,-2.6035549E-3,4.580266E-2,1.8916175E-2,-2.707316E-2],"split_indices":[3,0,4,5,5,0,0,0,0],"split_type":[0,0,0,0,0,0,0,0,0],"sum_hessian":[1.1007673E2,8.792449E0,1.0128428E2,4.2486046E1,5.8798233E1,2.205011E1,2.0435936E1,2.7645027E1,3.1153208E1],"tree_param":{"num_deleted":"0","num_feature":"6","num_nodes":"9","size_leaf_vector":"1"}},{"base_weights":[4.162031E-2,-6.377919E-2,2.1166936E-1,5.3865433E-2,-2.7205285E-1,6.497555E-2,3.615953E-2,-9.445062E-3,6.3108705E-2,-6.053695E-3,-4.296012E-2,-1.6034883E-2,5.6251224E-2],"categories":[],"categories_nodes":[],"categories_segments":[],"categories_sizes":[],"default_left":[0,0,0,0,0,0,0,0,0,0,0,0,0],"id":124,"left_children":[1,3,5,7,9,-1,11,-1,-1,-1,-1,-1,-1],"loss_changes":[2.1884701E0,1.869094E0,3.5645661E0,4.271663E0,8.8988876E-1,0E0,3.6458728E0,0E0,0E0,0E0,0E0,0E0,0E0],"parents":[2147483647,0,0,1,1,2,2,3,3,4,4,6,6],"right_children":[2,4,6,8,10,-1,12,-1,-1,-1,-1,-1,-1],"split_conditions":[2E0,1E0,1E0,3E0,1E0,6.497555E-2,3E0,-9.445062E-3,6.3108705E-2,-6.053695E-3,-4.296012E-2,-1.6034883E-2,5.6251224E-2],"split_indices":[0,0,1,1,1,0,1,0,0,0,0,0,0],"split_type":[0,0,0,0,0,0,0,0,0,0,0,0,0],"sum_hessian":[1.2035022E2,7.46844E1,4.5665817E1,4.8199818E1,2.6484583E1,1.2289119E1,3.3376698E1,3.90121E1,9.187718E0,1.1896811E1,1.4587772E1,2.4809635E1,8.567063E0],"tree_param":{"num_deleted":"0","num_feature":"6","num_nodes":"13","size_leaf_vector":"1"}},{"base_weights":[-4.4039E-1],"categories":[],"categories_nodes":[],"categories_segments":[],"categories_sizes":[],"default_left":[0],"id":125,"left_children":[-1],"loss_changes":[0E0],"parents":[2147483647],"right_children":[-1],"split_conditions":[-4.4039E-2],"split_indices":[0],"split_type":[0],"sum_hessian":[2.0217127E1],"tree_param":{"num_deleted":"0","num_feature":"6","num_nodes":"1","size_leaf_vector":"1"}},{"base_weights":[3.247439E-2,8.4925964E-2,-1.2180293E-1,-5.0403055E-2,2.3982495E-1,7.13391E-2,-4.1623217E-1,1.1110219E-2,-4.954336E-2,7.7024843E-3,4.166057E-2,-4.3259948E-3,3.9322387E-2,-1.20679E-2,-4.9149826E-2],"categories":[],"categories_nodes":[],"categories_segments":[],"categories_sizes":[],"default_left":[0,0,0,0,0,0,0,0,0,0,0,0,0,0,0],"id":126,"left_children":[1,3,5,7,9,11,13,-1,-1,-1,-1,-1,-1,-1,-1],"loss_changes":[8.868818E-1,1.7189732E0,1.6159328E0,3.2380009E0,1.0656219E0,6.6984975E-1,1.897428E-1,0E0,0E0,0E0,0E0,0E0,0E0,0E0,0E0],"parents":[2147483647,0,0,1,1,2,2,3,3,4,4,5,5,6,6],"right_children":[2,4,6,8,10,12,14,-1,-1,-1,-1,-1,-1,-1,-1],"split_conditions":[2E0,2E0,1E0,1E0,2E0,3E0,1E0,1.1110219E-2,-4.954336E-2,7.7024843E-3,4.166057E-2,-4.3259948E-3,3.9322387E-2,-1.20679E-2,-4.9149826E-2],"split_indices":[4,5,5,5,2,2,2,0,0,0,0,0,0,0,0],"split_type":[0,0,0,0,0,0,0,0,0,0,0,0,0,0,0],"sum_hessian":[1.0732033E2,8.042632E1,2.6894007E1,4.3284767E1,3.7141552E1,1.6698015E1,1.0195992E1,3.230967E1,1.0975096E1,2.0082748E1,1.7058805E1,1.2952282E1,3.7457325E0,2.5979168E0,7.598076E0],"tree_param":{"num_deleted":"0","num_feature":"6","num_nodes":"15","size_leaf_vector":"1"}},{"base_weights":[9.345733E-2,-4.826804E-2,2.040056E-1,-1.844762E-1,1.5012908E-1,5.1439684E-2,