{"learner":{"attributes":{},"feature_names":[],"feature_types":[],"gradient_booster":{"model":{"gbtree_model_param":{"num_parallel_tree":"1","num_trees":"24"},"iteration_indptr":[0,2,4,6,8,10,12,14,16,18,20,22,24],"tree_info":[0,1,0,1,0,1,0,1,0,1,0,1,0,1,0,1,0,1,0,1,0,1,0,1],"trees":[{"base_weights":[3.4246576E-1,-6.1904764E-1,7.037037E-1,-7.894737E-1,1.2698409E-2,1.2698409E-2,8.039216E-1,-2.647059E-1,-1.1207185E-1,1.2693745E-1,2.5813955E-1],"categories":[],"categories_nodes":[],"categories_segments":[],"categories_sizes":[],"default_left":[0,0,0,0,0,0,0,0,0,0,0],"id":0,"left_children":[1,3,5,7,-1,-1,9,-1,-1,-1,-1],"loss_changes":[1.3113357E1,1.9783168E0,2.9785595E0,4.1748095E-1,0E0,0E0,2.3554039E-1,0E0,0E0,0E0,0E0],"parents":[2147483647,0,0,1,1,2,2,3,3,6,6],"right_children":[2,4,6,8,-1,-1,10,-1,-1,-1,-1],"split_conditions":[1.5172E0,2.2E-1,1.245E1,8.27E0,1.2698409E-2,1.2698409E-2,3.45E0,-2.647059E-1,-1.1207185E-1,1.2693745E-1,2.5813955E-1],"split_indices":[0,8,1,6,0,0,2,0,0,0,0],"split_type":[0,0,0,0,0,0,0,0,0,0,0],"sum_hessian":[3.55E1,9.5E0,2.6E1,8.5E0,1E0,1.5E0,2.45E1,7.5E0,1E0,4E0,2.05E1],"tree_param":{"num_deleted":"0","num_feature":"9","num_nodes":"11","size_leaf_vector":"1"}},{"base_weights":[-3.4246576E-1,-8.039216E-1,6.666667E-1,-2.857143E-1,-9.090909E-2,2.5E-1,2.3333335E-1,-5E-1,-2.0588234E-2,-2.0588234E-2,1.5416667E-1,-1.5649351E-1,-8.529413E-2],"categories":[],"categories_nodes":[],"categories_segments":[],"categories_sizes":[],"default_left":[0,0,0,0,0,0,0,0,0,0,0,0,0],"id":1,"left_children":[1,3,5,-1,7,9,-1,11,-1,-1,-1,-1,-1],"loss_changes":[1.7532902E1,2.6126804E0,3.6111164E-1,0E0,7.3688877E-1,6.8831533E-1,0E0,1.0857105E-1,0E0,0E0,0E0,0E0,0E0],"parents":[2147483647,0,0,1,1,2,2,4,4,5,5,7,7],"right_children":[2,4,6,-1,8,10,-1,12,-1,-1,-1,-1,-1],"split_conditions":[1.43E0,6.2E-1,1.273E1,-2.857143E-1,8.78E0,1.58E0,2.3333335E-1,1.299E1,-2.0588234E-2,-2.0588234E-2,1.5416667E-1,-1.5649351E-1,-8.529413E-2],"split_indices":[3,5,1,0,6,3,0,1,0,0,0,0,0],"split_type":[0,0,0,0,0,0,0,0,0,0,0,0,0],"sum_hessian":[3.55E1,2.45E1,1.1E1,2E1,4.5E0,3E0,8E0,3E0,1.5E0,1.5E0,1.5E0,2E0,1E0],"tree_param":{"num_deleted":"0","num_feature":"9","num_nodes":"13","size_leaf_vector":"1"}},{"base_weights":[2.5045893E-1,-4.7747782E-1,5.277091E-1,-6.240323E-1,7.5346963E-3,7.5346963E-3,6.2011796E-1,-2.1029358E-1,-8.98375E-2,3.2261682E-1,1.9990313E-1,9.6785046E-2,1.4834408E-1],"categories":[],"categories_nodes":[],"categories_segments":[],"categories_sizes":[],"default_left":[0,0,0,0,0,0,0,0,0,0,0,0,0],"id":2,"left_children":[1,3,5,7,-1,-1,9,-1,-1,11,-1,-1,-1],"loss_changes":[7.2511034E0,1.0771916E0,2.0656304E0,1.559298E-1,0E0,0E0,1.5125465E-1,0E0,0E0,4.3105602E-2,0E0,0E0,0E0],"parents":[2147483647,0,0,1,1,2,2,3,3,6,6,9,9],"right_children":[2,4,6,8,-1,-1,10,-1,-1,12,-1,-1,-1],"split_conditions":[1.5172E0,1.5E-1,1.245E1,8.17E0,7.5346963E-3,7.5346963E-3,3.45E0,-2.1029358E-1,-8.98375E-2,7.295E1,1.9990313E-1,9.6785046E-2,1.4834408E-1],"split_indices":[0,8,1,6,0,0,2,0,0,4,0,0,0],"split_type":[0,0,0,0,0,0,0,0,0,0,0,0,0],"sum_hessian":[3.3679977E1,9.090401E0,2.4589577E1,7.606359E0,1.4840417E0,1.494875E0,2.3094702E1,6.147252E0,1.4591068E0,3.8837898E0,1.921091E1,1.9557846E0,1.9280052E0],"tree_param":{"num_deleted":"0","num_feature":"9","num_nodes":"13","size_leaf_vector":"1"}},{"base_weights":[-2.504589E-1,-6.1965364E-1,5.393398E-1,-7.261491E-1,-1.2047079E-2,2.1306069E-1,1.8794437E-1,-2.2958519E-1,-1.1494591E-1,-1.2047079E-2,1.2593128E-1],"categories":[],"categories_nodes":[],"categories_segments":[],"categories_sizes":[],"default_left":[0,0,0,0,0,0,0,0,0,0,0],"id":3,"left_children":[1,3,5,7,-1,9,-1,-1,-1,-1,-1],"loss_changes":[1.044652E1,2.1001644E0,1.9582176E-1,2.5709057E-1,0E0,5.3268135E-1,0E0,0E0,0E0,0E0,0E0],"parents":[2147483647,0,0,1,1,2,2,3,3,5,5],"right_children":[2,4,6,8,-1,10,-1,-1,-1,-1,-1],"split_conditions":[1.43E0,6.3E-1,1.273E1,7.339E1,-1.2047079E-2,1.58E0,1.8794437E-1,-2.2958519E-1,-1.1494591E-1,-1.2047079E-2,1.2593128E-1],"split_indices":[3,5,1,4,0,3,0,0,0,0,0],"split_type":[0,0,0,0,0,0,0,0,0,0,0],"sum_hessian":[3.3679977E1,2.3098099E1,1.0581877E1,2.0663054E1,2.4350462E0,2.9566064E0,7.62527E0,1.921911E1,1.4439431E0,1.482899E0,1.4737073E0],"tree_param":{"num_deleted":"0","num_feature":"9","num_nodes":"11","size_leaf_vector":"1"}},{"base_weights":[1.8959947E-1,-3.971055E-1,4.197751E-1,-5.383612E-1,3.4004422E-3,3.4004422E-3,5.1461715E-1,-1.8218626E-1,-7.905397E-2,2.8805184E-1,1.8416283E-1,7.88928E-2,1.3528919E-1],"categories":[],"categories_nodes":[],"categories_segments":[],"categories_sizes":[],"default_left":[0,0,0,0,0,0,0,0,0,0,0,0,0],"id":4,"left_children":[1,3,5,7,-1,-1,9,-1,-1,11,-1,-1,-1],"loss_changes":[4.3802023E0,8.2028913E-1,1.6046753E0,9.9121094E-2,0E0,0E0,3.0476427E-1,0E0,0E0,5.3648645E-1,0E0,0E0,0E0],"parents":[2147483647,0,0,1,1,2,2,3,3,6,6,9,9],"right_children":[2,4,6,8,-1,-1,10,-1,-1,12,-1,-1,-1],"split_conditions":[1.5172E0,1.5E-1,1.245E1,8.17E0,3.4004422E-3,3.4004422E-3,7.261E1,-1.8218626E-1,-7.905397E-2,1.51905E0,1.8416283E-1,7.88928E-2,1.3528919E-1],"split_indices":[0,8,1,6,0,0,4,0,0,0,0,0,0],"split_type":[0,0,0,0,0,0,0,0,0,0,0,0,0],"sum_hessian":[3.0200727E1,8.305427E0,2.1895302E1,6.8525825E0,1.452844E0,1.480285E0,2.0415016E1,5.4456797E0,1.4069026E0,7.4079294E0,1.3007087E1,1.4372972E0,5.970632E0],"tree_param":{"num_deleted":"0","num_feature":"9","num_nodes":"13","size_leaf_vector":"1"}},{"base_weights":[-1.8959944E-1,-5.1128125E-1,4.659986E-1,-1.9817649E-1,-2.2641331E-2,1.1990784E-2,5.212919E-1,-3.4161478E-1,-6.7923996E-3,8.418918E-2,1.9629939E-1,-1.0248444E-1,-5.463842E-2],"categories":[],"categories_nodes":[],"categories_segments":[],"categories_sizes":[],"default_left":[0,0,0,0,0,0,0,0,0,0,0,0,0],"id":5,"left_children":[1,3,5,-1,7,-1,9,11,-1,-1,-1,-1,-1],"loss_changes":[6.818302E0,1.8969994E0,2.3341513E-1,0E0,4.2414504E-1,0E0,3.0756474E-1,2.9118657E-3,0E0,0E0,0E0,0E0,0E0],"parents":[2147483647,0,0,1,1,2,2,4,4,6,6,7,7],"right_children":[2,4,6,-1,8,-1,10,12,-1,-1,-1,-1,-1],"split_conditions":[1.43E0,6.2E-1,1.51574E0,-1.9817649E-1,8.78E0,1.1990784E-2,5.8E-1,3.52E0,-6.7923996E-3,8.418918E-2,1.9629939E-1,-1.0248444E-1,-5.463842E-2],"split_indices":[3,5,0,0,6,0,5,2,0,0,0,0,0],"split_type":[0,0,0,0,0,0,0,0,0,0,0,0,0],"sum_hessian":[3.0200727E1,2.0407515E1,9.793212E0,1.6222042E1,4.1854734E0,1.3229418E0,8.47027E0,2.7463498E0,1.4391235E0,2.7763875E0,5.6938825E0,1.3892641E0,1.3570858E0],"tree_param":{"num_deleted":"0","num_feature":"9","num_nodes":"13","size_leaf_vector":"1"}},{"base_weights":[1.437163E-1,-3.3384293E-1,3.3839157E-1,-4.7704446E-1,6.822959E-4,2.2743195E-3,4.884953E-1,-1.6403155E-1,-7.1215525E-2,6.822959E-4,1.4249294E-1,2.555403E-1,1.7887405E-1,2.171509E-2,7.361545E-2,7.361545E-2,1.2776807E-1],"categories":[],"categories_nodes":[],"categories_segments":[],"categories_sizes":[],"default_left":[0,0,0,0,0,0,0,0,0,0,0,0,0,0,0,0,0],"id":6,"left_children":[1,3,5,7,-1,9,11,-1,-1,-1,13,15,-1,-1,-1,-1,-1],"loss_changes":[2.6665602E0,6.584125E-1,1.3623168E0,8.437371E-2,0E0,8.331689E-2,2.3229885E-1,0E0,0E0,0E0,1.8542612E-1,2.8776187E-1,0E0,0E0,0E0,0E0,0E0],"parents":[2147483647,0,0,1,1,2,2,3,3,5,5,6,6,10,10,11,11],"right_children":[2,4,6,8,-1,10,12,-1,-1,-1,14,16,-1,-1,-1,-1,-1],"split_conditions":[1.5172E0,1.5E-1,3.45E0,8.17E0,6.822959E-4,1.245E1,1.12E0,-1.6403155E-1,-7.1215525E-2,6.822959E-4,7.295E1,1.5186E0,1.7887405E-1,2.171509E-2,7.361545E-2,7.361545E-2,1.2776807E-1],"split_indices":[0,8,2,6,0,1,3,0,0,0,4,0,0,0,0,0,0],"split_type":[0,0,0,0,0,0,0,0,0,0,0,0,0,0,0,0,0],"sum_hessian":[2.646713E1,7.457707E0,1.9009424E1,6.0248103E0,1.4328966E0,4.6849055E0,1.4324518E1,4.685395E0,1.3394159E0,1.4470257E0,3.23788E0,5.596548E0,8.72797E0,1.730881E0,1.506999E0,1.2472249E0,4.3493233E0],"tree_param":{"num_deleted":"0","num_feature":"9","num_nodes":"17","size_leaf_vector":"1"}},{"base_weights":[-1.4371628E-1,-4.333139E-1,4.1129678E-1,-1.7967248E-1,-1.1008561E-2,1.8820852E-3,4.6904507E-1,-3.049584E-1,-3.3025683E-3,2.3765935E-1,1.7847164E-1,-9.148753E-2,-4.7395047E-2,7.129781E-2,1.2488472E-1],"categories":[],"categories_nodes":[],"categories_segments":[],"categories_sizes":[],"default_left":[0,0,0,0,0,0,0,0,0,0,0,0,0,0,0],"id":7,"left_children":[1,3,5,-1,7,-1,9,11,-1,13,-1,-1,-1,-1,-1],"loss_changes":[4.593026E0,1.7285907E0,2.2933483E-1,0E0,3.34288E-1,0E0,2.450254E-1,1.02547705E-2,0E0,2.5378153E-2,0E0,0E0,0E0,0E0,0E0],"parents":[2147483647,0,0,1,1,2,2,4,4,6,6,7,7,9,9],"right_children":[2,4,6,-1,8,-1,10,12,-1,14,-1,-1,-1,-1,-1],"split_conditions":[1.43E0,6.2E-1,1.51574E0,-1.7967248E-1,8.78E0,1.8820852E-3,5.8E-1,3.52E0,-3.3025683E-3,1.314E1,1.7847164E-1,-9.148753E-2,-4.7395047E-2,7.129781E-2,1.2488472E-1],"split_indices":[3,5,0,0,6,0,5,2,0,1,0,0,0,0,0],"split_type":[0,0,0,0,0,0,0,0,0,0,0,0,0,0,0],"sum_hessian":[2.646713E1,1.7536247E1,8.930883E0,1.3566321E1,3.9699259E0,1.2528112E0,7.678072E0,2.5520108E0,1.417915E0,2.6751158E0,5.002956E0,1.2877254E0,1.2642852E0,1.4131616E0,1.2619542E0],"tree_param":{"num_deleted":"0","num_feature":"9","num_nodes":"15","size_leaf_vector":"1"}},{"base_weights":[1.0876409E-1,-2.5439295E-1,2.9266125E-1,-4.072996E-1,5.740245E-3,1.9134149E-2,4.210577E-1,-1.5556997E-1,-5.8224823E-2,5.740245E-3,3.230609E-2,2.2009593E-1,1.6544038E-1,6.602878E-2,1.1573458E-1],"categories":[],"categories_nodes":[],"categories_segments":[],"categories_sizes":[],"default_left":[0,0,0,0,0,0,0,0,0,0,0,0,0,0,0],"id":8,"left_children":[1,3,5,7,-1,9,11,-1,-1,-1,-1,13,-1,-1,-1],"loss_changes":[1.677143E0,4.932142E-1,7.8872204E-1,2.2237659E-1,0E0,2.1807984E-2,2.9417372E-1,0E0,0E0,0E0,0E0,2.0377037E-1,0E0,0E0,0E0],"parents":[2147483647,0,0,1,1,2,2,3,3,5,5,6,6,11,11],"right_children":[2,4,6,8,-1,10,12,-1,-1,-1,-1,14,-1,-1,-1],"split_conditions":[1.51735E0,8.27E0,3.45E0,1E-1,5.740245E-3,7.295E1,1.12E0,-1.5556997E-1,-5.8224823E-2,5.740245E-3,3.230609E-2,1.308E1,1.6544038E-1,6.602878E-2,1.1573458E-1],"split_indices":[0,6,2,8,0,4,3,0,0,0,0,1,0,0,0],"split_type":[0,0,0,0,0,0,0,0,0,0,0,0,0,0,0],"sum_hessian":[2.2998306E1,7.602222E0,1.5396084E1,5.2535048E0,2.348717E0,3.9176638E0,1.147842E1,4.1699047E0,1.0836003E0,2.0899124E0,1.8277515E0,4.7688804E0,6.7095394E0,1.1773479E0,3.5915327E0],"tree_param":{"num_deleted":"0","num_feature":"9","num_nodes":"15","size_leaf_vector":"1"}},{"base_weights":[-1.08764105E-1,-3.7029487E-1,3.632541E-1,-1.6735871E-1,-3.5203844E-3,-1.0561154E-3,4.240092E-1,-2.8069136E-1,-1.0561154E-3,2.1024442E-1,1.6425343E-1,-8.420741E-2,-4.2631764E-2,6.307333E-2,1.13663375E-1],"categories":[],"categories_nodes":[],"categories_segments":[],"categories_sizes":[],"default_left":[0,0,0,0,0,0,0,0,0,0,0,0,0,0,0],"id":9,"left_children":[1,3,5,-1,7,-1,9,11,-1,13,-1,-1,-1,-1,-1],"loss_changes":[3.0970368E0,1.5981243E0,2.1978426E-1,0E0,2.7058256E-1,0E0,2.0171666E-1,1.6356707E-2,0E0,2.9860377E-2,0E0,0E0,0E0,0E0,0E0],"parents":[2147483647,0,0,1,1,2,2,4,4,6,6,7,7,9,9],"right_children":[2,4,6,-1,8,-1,10,12,-1,14,-1,-1,-1,-1,-1],"split_conditions":[1.43E0,6.2E-1,1.51574E0,-1.6735871E-1,8.78E0,-1.0561154E-3,5.8E-1,3.52E0,-1.0561154E-3,1.314E1,1.6425343E-1,-8.420741E-2,-4.2631764E-2,6.307333E-2,1.13663375E-1],"split_indices":[3,5,0,0,6,0,5,2,0,1,0,0,0,0,0],"split_type":[0,0,0,0,0,0,0,0,0,0,0,0,0,0,0],"sum_hessian":[2.2998306E1,1.4937439E1,8.060867E0,1.1177541E1,3.759898E0,1.1897414E0,6.871126E0,2.3630304E0,1.3968675E0,2.5471811E0,4.323945E0,1.1972822E0,1.1657482E0,1.3830874E0,1.1640937E0],"tree_param":{"num_deleted":"0","num_feature":"9","num_nodes":"15","size_leaf_vector":"1"}},{"base_weights":[7.978214E-2,-3.3024487E-1,2.0884742E-1,-1.6247544E-1,-1.8209618E-2,-6.0698725E-2,3.5889846E-1,-6.0698725E-2,3.0080264E-2,1.4909987E-1,1.6623534E-1,-1.8209618E-2,2.7734032E-3,4.4729963E-2,1.0548266E-1],"categories":[],"categories_nodes":[],"categories_segments":[],"categories_sizes":[],"default_left":[0,0,0,0,0,0,0,0,0,0,0,0,0,0,0],"id":10,"left_children":[1,3,5,-1,-1,7,9,11,-1,13,-1,-1,-1,-1,-1],"loss_changes":[1.1818978E0,3.785705E-1,9.815524E-1,0E0,0E0,4.8440173E-2,6.976118E-1,6.3239336E-3,0E0,3.1679636E-1,0E0,0E0,0E0,0E0,0E0],"parents":[2147483647,0,0,1,1,2,2,5,5,6,6,7,7,9,9],"right_children":[2,4,6,-1,-1,8,10,12,-1,14,-1,-1,-1,-1,-1],"split_conditions":[3.42E0,1.51747E0,8.17E0,-1.6247544E-1,-1.8209618E-2,1E-1,7.261E1,1.51645E0,3.0080264E-2,1.51905E0,1.6623534E-1,-1.8209618E-2,2.7734032E-3,4.4729963E-2,1.0548266E-1],"split_indices":[2,0,6,0,0,8,4,0,0,0,0,0,0,0,0],"split_type":[0,0,0,0,0,0,0,0,0,0,0,0,0,0,0],"sum_hessian":[2.0030268E1,4.4223084E0,1.5607959E1,2.3565776E0,2.0657308E0,4.158408E0,1.1449551E1,3.1466665E0,1.0117418E0,4.7208343E0,6.728717E0,2.1008565E0,1.04581E0,1.3598943E0,3.3609397E0],"tree_param":{"num_deleted":"0","num_feature":"9","num_nodes":"15","size_leaf_vector":"1"}},{"base_weights":[-7.9782166E-2,-2.851702E-1,4.140935E-1,-4.7321534E-1,6.446165E-2,1.5616779E-1,2.1571419E-1,-1.6204995E-1,-6.1313055E-2,-1.0685121E-2,1.9338496E-2,1.9338496E-2,1.213448E-1],"categories":[],"categories_nodes":[],"categories_segments":[],"categories_sizes":[],"default_left":[0,0,0,0,0,0,0,0,0,0,0,0,0],"id":11,"left_children":[1,3,5,7,9,11,-1,-1,-1,-1,-1,-1,-1],"loss_changes":[2.2513165E0,1.5192708E0,4.0564096E-1,3.2181644E-1,2.4093822E-2,2.87006E-1,0E0,0E0,0E0,0E0,0E0,0E0,0E0],"parents":[2147483647,0,0,1,1,2,2,3,3,4,4,5,5],"right_children":[2,4,6,8,10,12,-1,-1,-1,-1,-1,-1,-1],"split_conditions":[6.3E-1,1.43E0,8.78E0,7.339E1,1.305E1,1.299E1,2.1571419E-1,-1.6204995E-1,-6.1313055E-2,-1.0685121E-2,1.9338496E-2,1.9338496E-2,1.213448E-1],"split_indices":[5,3,6,4,1,1,0,0,0,0,0,0,0],"split_type":[0,0,0,0,0,0,0,0,0,0,0,0,0],"sum_hessian":[2.0030268E1,1.4445435E1,5.584834E0,1.0800604E1,3.6448307E0,3.8449397E0,1.7398946E0,9.788593E0,1.0120106E0,1.8204697E0,1.8243608E0,1.9741243E0,1.8708154E0],"tree_param":{"num_deleted":"0","num_feature":"9","num_nodes":"13","size_leaf_vector":"1"}},{"base_weights":[3.9909262E-2,-2.7627295E-1,1.7711556E-1,-1.5091217E-1,-4.9578696E-2,-4.9578696E-2,3.4532055E-1,-7.428544E-2,-1.487361E-2,-4.9578696E-2,2.5335366E-2,1.4787093E-1,1.5379383E-1,-1.487361E-2,2.7589323E-3,4.436128E-2,9.907755E-2],"categories":[],"categories_nodes":[],"categories_segments":[],"categories_sizes":[],"default_left":[0,0,0,0,0,0,0,0,0,0,0,0,0,0,0,0,0],"id":12,"left_children":[1,3,5,-1,7,9,11,-1,-1,13,-1,15,-1,-1,-1,-1,-1],"loss_changes":[8.62107E-1,3.317045E-1,8.134607E-1,0E0,1.1054087E-1,3.4292042E-2,4.290558E-1,0E0,0E0,4.4815317E-3,0E0,1.6862038E-1,0E0,0E0,0E0,0E0,0E0],"parents":[2147483647,0,0,1,1,2,2,4,4,5,5,6,6,9,9,11,11],"right_children":[2,4,6,-1,8,10,12,-1,-1,14,-1,16,-1,-1,-1,-1,-1],"split_conditions":[3.45E0,1.51747E0,8.17E0,-1.5091217E-1,7.295E1,7.315E1,1.12E0,-7.428544E-2,-1.487361E-2,3.59E0,2.5335366E-2,1.5186E0,1.5379383E-1,-1.487361E-2,2.7589323E-3,4.436128E-2,9.907755E-2],"split_indices":[2,0,6,0,4,4,3,0,0,2,0,0,0,0,0,0,0],"split_type":[0,0,0,0,0,0,0,0,0,0,0,0,0,0,0,0,0],"sum_hessian":[1.7744436E1,5.063167E0,1.268127E1,2.1403868E0,2.92278E0,3.9406617E0,8.740608E0,1.8811837E0,1.0415964E0,2.8949003E0,1.0457615E0,3.4978094E0,5.242799E0,1.8860604E0,1.00884E0,1.1048768E0,2.3929327E0],"tree_param":{"num_deleted":"0","num_feature":"9","num_nodes":"17","size_leaf_vector":"1"}},{"base_weights":[-3.99093E-2,-3.1460297E-1,2.6787272E-1,-1.4845061E-1,-2.3365125E-2,-2.2655675E-2,2.1941431E-1,-4.7480952E-2,-7.009538E-3,-7.009538E-3,1.063088E-1],"categories":[],"categories_nodes":[],"categories_segments":[],"categories_sizes":[],"default_left":[0,0,0,0,0,0,0,0,0,0,0],"id":13,"left_children":[1,3,5,-1,7,9,-1,-1,-1,-1,-1],"loss_changes":[1.6690366E0,8.4146E-1,1.2796929E0,0E0,4.081519E-2,4.8835224E-1,0E0,0E0,0E0,0E0,0E0],"parents":[2147483647,0,0,1,1,2,2,4,4,5,5],"right_children":[2,4,6,-1,8,10,-1,-1,-1,-1,-1],"split_conditions":[6E-1,1.38E0,8.78E0,-1.4845061E-1,1.314E1,1.3E1,2.1941431E-1,-4.7480952E-2,-7.009538E-3,-7.009538E-3,1.063088E-1],"split_indices":[5,3,6,0,1,1,0,0,0,0,0],"split_type":[0,0,0,0,0,0,0,0,0,0,0],"sum_hessian":[1.7744438E1,9.364509E0,8.3799305E0,6.742872E0,2.621636E0,5.7358212E0,2.6441092E0,1.2726787E0,1.3489571E0,3.4480252E0,2.2877963E0],"tree_param":{"num_deleted":"0","num_feature":"9","num_nodes":"11","size_leaf_vector":"1"}},{"base_weights":[2.162126E-2,-2.1548307E-1,1.6082329E-1,-3.528366E-1,-8.198968E-3,-2.7329892E-2,3.288459E-1,-1.3534477E-1,-5.7024978E-2,-8.198968E-3,4.52274E-2,4.52274E-2,1.4391978E-1],"categories":[],"categories_nodes":[],"categories_segments":[],"categories_sizes":[],"default_left":[0,0,0,0,0,0,0,0,0,0,0,0,0],"id":14,"left_children":[1,3,5,7,-1,9,11,-1,-1,-1,-1,-1,-1],"loss_changes":[5.944137E-1,3.3832034E-1,5.2295566E-1,1.09042704E-1,0E0,2.7492437E-1,3.535592E-1,0E0,0E0,0E0,0E0,0E0,0E0],"parents":[2147483647,0,0,1,1,2,2,3,3,5,5,6,6],"right_children":[2,4,6,8,-1,10,12,-1,-1,-1,-1,-1,-1],"split_conditions":[1.51735E0,1.5E-1,7.261E1,8.24E0,-8.198968E-3,1.51905E0,3.33E0,-1.3534477E-1,-5.7024978E-2,-8.198968E-3,4.52274E-2,4.52274E-2,1.4391978E-1],"split_indices":[0,8,4,6,0,0,2,0,0,0,0,0,0],"split_type":[0,0,0,0,0,0,0,0,0,0,0,0,0],"sum_hessian":[1.59596195E1,5.7010207E0,1.0258599E1,4.4390655E0,1.2619551E0,3.9886448E0,6.269954E0,3.243945E0,1.1951206E0,1.4406729E0,2.547972E0,1.662562E0,4.6073923E0],"tree_param":{"num_deleted":"0","num_feature":"9","num_nodes":"13","size_leaf_vector":"1"}},{"base_weights":[-2.162131E-2,-2.0685162E-1,3.5896775E-1,-4.1639182E-1,7.605807E-2,9.068539E-2,1.8174343E-1,-1.4665602E-1,-5.1050067E-2,-3.6844532E-3,2.2817422E-2,2.2817422E-2,1.0120508E-1],"categories":[],"categories_nodes":[],"categories_segments":[],"categories_sizes":[],"default_left":[0,0,0,0,0,0,0,0,0,0,0,0,0],"id":15,"left_children":[1,3,5,7,9,11,-1,-1,-1,-1,-1,-1,-1],"loss_changes":[1.2698492E0,1.1416978E0,3.3694702E-1,2.220329E-1,1.4679283E-2,1.5027744E-1,0E0,0E0,0E0,0E0,0E0,0E0,0E0],"parents":[2147483647,0,0,1,1,2,2,3,3,4,4,5,5],"right_children":[2,4,6,8,10,12,-1,-1,-1,-1,-1,-1,-1],"split_conditions":[6.3E-1,1.43E0,3.55E0,7.328E1,1.305E1,1.58E0,1.8174343E-1,-1.4665602E-1,-5.1050067E-2,-3.6844532E-3,2.2817422E-2,2.2817422E-2,1.0120508E-1],"split_indices":[5,3,2,4,1,3,0,0,0,0,0,0,0],"split_type":[0,0,0,0,0,0,0,0,0,0,0,0,0],"sum_hessian":[1.5959621E1,1.104203E1,4.9175906E0,7.7061496E0,3.3358805E0,3.0117004E0,1.9058903E0,6.6684384E0,1.0377114E0,1.6222978E0,1.7135829E0,1.7132926E0,1.2984079E0],"tree_param":{"num_deleted":"0","num_feature":"9","num_nodes":"13","size_leaf_vector":"1"}},{"base_weights":[6.897233E-4,-2.71996E-1,1.3422903E-1,-1.3488537E-1,-6.888348E-2,-2.0665044E-2,2.6622078E-1,-6.949492E-2,-2.0665044E-2,9.866865E-2,1.245029E-1,2.9600596E-2,7.705175E-2],"categories":[],"categories_nodes":[],"categories_segments":[],"categories_sizes":[],"default_left":[0,0,0,0,0,0,0,0,0,0,0,0,0],"id":16,"left_children":[1,3,5,-1,7,-1,9,-1,-1,11,-1,-1,-1],"loss_changes":[5.903008E-1,1.8654585E-1,5.1899725E-1,0E0,4.8330896E-2,0E0,3.3754432E-1,0E0,0E0,1.2153597E-1,0E0,0E0,0E0],"parents":[2147483647,0,0,1,1,2,2,4,4,6,6,9,9],"right_children":[2,4,6,-1,8,-1,10,-1,-1,12,-1,-1,-1],"split_conditions":[3.45E0,1.51747E0,8.09E0,-1.3488537E-1,7.279E1,-2.0665044E-2,1.12E0,-6.949492E-2,-2.0665044E-2,1.5186E0,1.245029E-1,2.9600596E-2,7.705175E-2],"split_indices":[2,0,6,0,4,0,3,0,0,0,0,0,0],"split_type":[0,0,0,0,0,0,0,0,0,0,0,0,0],"sum_hessian":[1.4208079E1,4.329818E0,9.878262E0,1.8364688E0,2.493349E0,2.2178342E0,7.660427E0,1.003402E0,1.4899471E0,2.7605526E0,4.8998747E0,1.109179E0,1.6513736E0],"tree_param":{"num_deleted":"0","num_feature":"9","num_nodes":"13","size_leaf_vector":"1"}},{"base_weights":[-6.897223E-4,-2.4739401E-1,2.4563381E-1,-1.3547434E-1,-8.8009983E-4,-8.8009983E-4,1.9017214E-1,-3.4548245E-2,-2.6402995E-4,-2.6402995E-4,9.439794E-2],"categories":[],"categories_nodes":[],"categories_segments":[],"categories_sizes":[],"default_left":[0,0,0,0,0,0,0,0,0,0,0],"id":17,"left_children":[1,3,5,-1,7,9,-1,-1,-1,-1,-1],"loss_changes":[9.849493E-1,6.720909E-1,9.189877E-1,0E0,2.7832307E-2,2.7378088E-1,0E0,0E0,0E0,0E0,0E0],"parents":[2147483647,0,0,1,1,2,2,4,4,5,5],"right_children":[2,4,6,-1,8,10,-1,-1,-1,-1,-1],"split_conditions":[6E-1,1.38E0,8.78E0,-1.3547434E-1,1.314E1,1.3E1,1.9017214E-1,-3.4548245E-2,-2.6402995E-4,-2.6402995E-4,9.439794E-2],"split_indices":[5,3,6,0,1,1,0,0,0,0,0],"split_type":[0,0,0,0,0,0,0,0,0,0,0],"sum_hessian":[1.4208079E1,7.096382E0,7.111697E0,4.7307796E0,2.3656025E0,4.607758E0,2.5039396E0,1.1311569E0,1.2344456E0,2.8579912E0,1.7497666E0],"tree_param":{"num_deleted":"0","num_feature":"9","num_nodes":"11","size_leaf_vector":"1"}},{"base_weights":[-1.2094508E-2,-2.43493E-1,1.0484235E-1,-1.22741744E-1,-6.932533E-2,-2.07976E-2,2.3474632E-1,-4.1853726E-2,-2.07976E-2,8.27105E-2,1.3863702E-1,2.4813151E-2,8.1725076E-2],"categories":[],"categories_nodes":[],"categories_segments":[],"categories_sizes":[],"default_left":[0,0,0,0,0,0,0,0,0,0,0,0,0],"id":18,"left_children":[1,3,5,-1,7,-1,9,-1,-1,11,-1,-1,-1],"loss_changes":[4.0285277E-1,1.5106979E-1,4.2146528E-1,0E0,5.7481676E-3,0E0,3.439255E-1,0E0,0E0,1.4395529E-1,0E0,0E0,0E0],"parents":[2147483647,0,0,1,1,2,2,4,4,6,6,9,9],"right_children":[2,4,6,-1,8,-1,10,-1,-1,12,-1,-1,-1],"split_conditions":[3.45E0,1.51747E0,8.09E0,-1.22741744E-1,7.286E1,-2.07976E-2,7.292E1,-4.1853726E-2,-2.07976E-2,1.5186E0,1.3863702E-1,2.4813151E-2,8.1725076E-2],"split_indices":[2,0,6,0,4,0,4,0,0,0,0,0,0],"split_type":[0,0,0,0,0,0,0,0,0,0,0,0,0],"sum_hessian":[1.2944501E1,3.9821773E0,8.962323E0,1.6586818E0,2.3234954E0,2.0835037E0,6.87882E0,1.1424453E0,1.1810501E0,4.177053E0,2.7017667E0,2.5399728E0,1.6370802E0],"tree_param":{"num_deleted":"0","num_feature":"9","num_nodes":"13","size_leaf_vector":"1"}},{"base_weights":[1.2094434E-2,-2.1727228E-1,2.2720832E-1,-1.2961788E-1,4.9680173E-3,4.9680173E-3,1.7412707E-1,-3.0256253E-2,1.4904053E-3,1.4904053E-3,8.780873E-2],"categories":[],"categories_nodes":[],"categories_segments":[],"categories_sizes":[],"default_left":[0,0,0,0,0,0,0,0,0,0,0],"id":19,"left_children":[1,3,5,-1,7,9,-1,-1,-1,-1,-1],"loss_changes":[7.3738736E-1,5.9817296E-1,7.283865E-1,0E0,2.2972263E-2,2.3689593E-1,0E0,0E0,0E0,0E0,0E0],"parents":[2147483647,0,0,1,1,2,2,4,4,5,5],"right_children":[2,4,6,-1,8,10,-1,-1,-1,-1,-1],"split_conditions":[6E-1,1.38E0,8.78E0,-1.2961788E-1,1.314E1,1.3E1,1.7412707E-1,-3.0256253E-2,1.4904053E-3,1.4904053E-3,8.780873E-2],"split_indices":[5,3,6,0,1,1,0,0,0,0,0],"split_type":[0,0,0,0,0,0,0,0,0,0,0],"sum_hessian":[1.2944503E1,6.2598543E0,6.684648E0,4.0094337E0,2.2504208E0,4.338838E0,2.3458102E0,1.0536038E0,1.196817E0,2.6985695E0,1.6402684E0],"tree_param":{"num_deleted":"0","num_feature":"9","num_nodes":"11","size_leaf_vector":"1"}},{"base_weights":[-2.1137252E-2,-2.233647E-1,8.83817E-2,-1.5376894E-1,-2.0247452E-2,-6.74915E-2,3.245836E-1,-6.74915E-2,3.8563814E-2,3.8563814E-2,1.158047E-1,-2.0247452E-2,9.158182E-3],"categories":[],"categories_nodes":[],"categories_segments":[],"categories_sizes":[],"default_left":[0,0,0,0,0,0,0,0,0,0,0,0,0],"id":20,"left_children":[1,3,5,-1,-1,7,9,11,-1,-1,-1,-1,-1],"loss_changes":[3.04038E-1,5.138205E-1,4.438592E-1,0E0,0E0,8.834344E-2,3.679511E-2,3.568706E-2,0E0,0E0,0E0,0E0,0E0],"parents":[2147483647,0,0,1,1,2,2,5,5,6,6,7,7],"right_children":[2,4,6,-1,-1,8,10,12,-1,-1,-1,-1,-1],"split_conditions":[7.273E1,1.51905E0,1.51747E0,-1.5376894E-1,-2.0247452E-2,2.2E-1,7.295E1,8.27E0,3.8563814E-2,3.8563814E-2,1.158047E-1,-2.0247452E-2,9.158182E-3],"split_indices":[4,0,0,0,0,8,4,6,0,0,0,0,0],"split_type":[0,0,0,0,0,0,0,0,0,0,0,0,0],"sum_hessian":[1.1836372E1,3.7930236E0,8.043349E0,2.204772E0,1.5882515E0,4.6969852E0,3.346364E0,3.4806008E0,1.2163842E0,1.0223178E0,2.3240461E0,2.1891928E0,1.2914082E0],"tree_param":{"num_deleted":"0","num_feature":"9","num_nodes":"13","size_leaf_vector":"1"}},{"base_weights":[2.1137204E-2,-1.618816E-1,2.506183E-1,-1.2762798E-1,4.4368356E-2,1.3310508E-2,1.0996076E-1,-5.1273476E-2,1.3310508E-2],"categories":[],"categories_nodes":[],"categories_segments":[],"categories_sizes":[],"default_left":[0,0,0,0,0,0,0,0,0],"id":21,"left_children":[1,3,5,-1,7,-1,-1,-1,-1],"loss_changes":[5.7969E-1,7.535224E-1,2.0537618E-1,0E0,1.0959663E-1,0E0,0E0,0E0,0E0],"parents":[2147483647,0,0,1,1,2,2,4,4],"right_children":[2,4,6,-1,8,-1,-1,-1,-1],"split_conditions":[1.43E0,6.2E-1,1.273E1,-1.2762798E-1,8.78E0,1.3310508E-2,1.0996076E-1,-5.1273476E-2,1.3310508E-2],"split_indices":[3,5,1,0,6,0,0,0,0],"split_type":[0,0,0,0,0,0,0,0,0],"sum_hessian":[1.1836373E1,6.748665E0,5.087709E0,3.9165199E0,2.832145E0,1.5949667E0,3.492742E0,1.4072522E0,1.4248927E0],"tree_param":{"num_deleted":"0","num_feature":"9","num_nodes":"9","size_leaf_vector":"1"}},{"base_weights":[-2.6037347E-2,-2.3243302E-1,8.3518475E-2,-1.10461704E-1,-2.2337183E-2,-2.2337183E-2,2.0336905E-1,6.445589E-2,1.2789397E-1,1.9336767E-2,7.3615365E-2],"categories":[],"categories_nodes":[],"categories_segments":[],"categories_sizes":[],"default_left":[0,0,0,0,0,0,0,0,0,0,0],"id":22,"left_children":[1,3,5,-1,-1,-1,7,9,-1,-1,-1],"loss_changes":[2.8731206E-1,9.451498E-2,3.045869E-1,0E0,0E0,0E0,2.7761665E-1,1.02232285E-1,0E0,0E0,0E0],"parents":[2147483647,0,0,1,1,2,2,6,6,7,7],"right_children":[2,4,6,-1,-1,-1,8,10,-1,-1,-1],"split_conditions":[3.45E0,1.51747E0,8.09E0,-1.10461704E-1,-2.2337183E-2,-2.2337183E-2,7.292E1,1.5186E0,1.2789397E-1,1.9336767E-2,7.3615365E-2],"split_indices":[2,0,6,0,0,0,4,0,0,0,0],"split_type":[0,0,0,0,0,0,0,0,0,0,0],"sum_hessian":[1.08477545E1,3.3725348E0,7.4752192E0,1.4242193E0,1.9483155E0,1.717112E0,5.7581077E0,3.6102588E0,2.1478488E0,2.3837864E0,1.2264721E0],"tree_param":{"num_deleted":"0","num_feature":"9","num_nodes":"11","size_leaf_vector":"1"}},{"base_weights":[2.6037335E-2,-1.918153E-1,2.1435328E-1,-1.1925408E-1,3.3806965E-3,1.1268988E-2,1.5384404E-1,3.3806965E-3,7.8612365E-2],"categories":[],"categories_nodes":[],"categories_segments":[],"categories_sizes":[],"default_left":[0,0,0,0,0,0,0,0,0],"id":23,"left_children":[1,3,5,-1,-1,7,-1,-1,-1],"loss_changes":[5.2717185E-1,4.212639E-1,5.1048696E-1,0E0,0E0,1.6766919E-1,0E0,0E0,0E0],"parents":[2147483647,0,0,1,1,2,2,5,5],"right_children":[2,4,6,-1,-1,8,-1,-1,-1],"split_conditions":[6E-1,1.38E0,8.78E0,-1.1925408E-1,3.3806965E-3,1.3E1,1.5384404E-1,3.3806965E-3,7.8612365E-2],"split_indices":[5,3,6,0,0,1,0,0,0],"split_type":[0,0,0,0,0,0,0,0,0],"sum_hessian":[1.08477545E1,5.0208354E0,5.8269186E0,3.0077605E0,2.013075E0,3.6776915E0,2.1492271E0,2.3029258E0,1.3747659E0],"tree_param":{"num_deleted":"0","num_feature":"9","num_nodes":"9","size_leaf_vector":"1"}}]},"name":"gbtree"},"learner_model_param":{"base_score":"5E-1","boost_from_average":"1","num_class":"2","num_feature":"9","num_target":"1"},"objective":{"name":"multi:softmax","softmax_multiclass_param":{"num_class":"2"}}},"version":[3,0,0]}