{"learner":{"attributes":{},"feature_names":["Age","Sex","ChestPainType","RestingBP","Cholesterol","FastingBS","RestingECG","MaxHR","ExerciseAngina","Oldpeak","ST_Slope"],"feature_types":["int","float","float","int","int","int","float","int","float","float","float"],"gradient_booster":{"model":{"gbtree_model_param":{"num_parallel_tree":"1","num_trees":"20"},"iteration_indptr":[0,2,4,6,8,10,12,14,16,18,20],"tree_info":[0,1,0,1,0,1,0,1,0,1,0,1,0,1,0,1,0,1,0,1],"trees":[{"base_weights":[-1.8721461E-1,-7.837838E-1,6.685083E-1,-5.763775E-2,8.783784E-1,-2.5714287E-1,-5.3846157E-1,-2.0934066E-1,-3.1707317E-1,-1.5223132E-1,-1.7291326E-2,6.585366E-1,2.8348625E-1,1.231111E-1,2.2000001E-1,-5.763775E-2,6.666667E-2,1.3543379E-3,7.5E-2,-1.7291326E-2,-0E0],"categories":[],"categories_nodes":[],"categories_segments":[],"categories_sizes":[],"default_left":[0,0,0,0,0,0,0,0,0,0,0,0,0,0,0,0,0,0,0,0,0],"id":0,"left_children":[1,5,3,15,11,-1,7,-1,9,-1,-1,13,-1,-1,-1,19,17,-1,-1,-1,-1],"loss_changes":[1.12323E2,1.8690338E0,1.711045E1,1.1256486E-1,4.6077728E-1,0E0,1.6594849E0,0E0,1.8640382E0,0E0,0E0,1.3364887E-1,0E0,0E0,0E0,6.6441894E-3,2.120605E-1,0E0,0E0,0E0,0E0],"parents":[2147483647,0,0,2,2,1,1,6,6,8,8,4,4,11,11,3,3,16,16,15,15],"right_children":[2,6,4,16,12,-1,8,-1,10,-1,-1,14,-1,-1,-1,20,18,-1,-1,-1,-1],"split_conditions":[2E0,1E0,8.5E1,1E0,1E0,-2.5714287E-1,7E-1,-2.0934066E-1,1.29E2,-1.5223132E-1,-1.7291326E-2,1.22E2,2.8348625E-1,1.231111E-1,2.2000001E-1,1.52E2,6.1E1,1.3543379E-3,7.5E-2,-1.7291326E-2,-0E0],"split_indices":[10,2,4,2,2,0,9,0,7,0,0,7,0,0,0,3,0,0,0,0,0],"split_type":[0,0,0,0,0,0,0,0,0,0,0,0,0,0,0,0,0,0,0,0,0],"sum_hessian":[2.18E2,1.285E2,8.95E1,1.65E1,7.3E1,9.7E1,3.15E1,1.2E1,1.95E1,1.1E1,8.5E0,1.95E1,5.35E1,5.5E0,1.4E1,1E1,6.5E0,3.5E0,3E0,8E0,2E0],"tree_param":{"num_deleted":"0","num_feature":"11","num_nodes":"21","size_leaf_vector":"1"}},{"base_weights":[1.8721461E-1,-2.9661018E-1,7.4509805E-1,-5.300546E-1,2.2424394E-1,-6.712329E-1,-1.5290534E-1,2.2424394E-1,7.8723407E-1,-2.2561985E-1,-1.2362074E-1,-4.5871604E-2,6.7273185E-2,1.517217E-1,2.3870969E-1,6.7273185E-2,1.5E-1,-7.894737E-2,-4.5871604E-2],"categories":[],"categories_nodes":[],"categories_segments":[],"categories_sizes":[],"default_left":[0,0,0,0,0,0,0,0,0,0,0,0,0,0,0,0,0,0,0],"id":1,"left_children":[1,3,7,5,11,9,17,15,13,-1,-1,-1,-1,-1,-1,-1,-1,-1,-1],"loss_changes":[5.9333004E1,1.9998032E1,2.072277E0,6.573944E0,3.9412737E-1,1.9207649E0,9.2098355E-2,1.0179749E-1,1.14860535E-1,0E0,0E0,0E0,0E0,0E0,0E0,0E0,0E0,0E0,0E0],"parents":[2147483647,0,0,1,1,3,3,2,2,5,5,4,4,8,8,7,7,6,6],"right_children":[2,4,8,6,12,10,18,16,14,-1,-1,-1,-1,-1,-1,-1,-1,-1,-1],"split_conditions":[1E0,1E0,1E0,3E-1,1E0,5.7E1,1.1E0,6.2E1,9.6E1,-2.2561985E-1,-1.2362074E-1,-4.5871604E-2,6.7273185E-2,1.517217E-1,2.3870969E-1,6.7273185E-2,1.5E-1,-7.894737E-2,-4.5871604E-2],"split_indices":[8,5,1,9,6,0,9,0,3,0,0,0,0,0,0,0,0,0,0],"split_type":[0,0,0,0,0,0,0,0,0,0,0,0,0,0,0,0,0,0,0],"sum_hessian":[2.18E2,1.17E2,1.01E2,9.05E1,2.65E1,7.2E1,1.85E1,8E0,9.3E1,5.95E1,1.25E1,1.5E0,2.5E1,1E0,9.2E1,7E0,1E0,8.5E0,1E1],"tree_param":{"num_deleted":"0","num_feature":"11","num_nodes":"19","size_leaf_vector":"1"}},{"base_weights":[-1.515211E-1,-6.2786716E-1,5.313815E-1,-4.8242837E-2,7.1291035E-1,-2.4787587E-1,-5.45746E-1,-1.8806878E-1,-2.4730973E-1,-1.0856797E-1,-1.44728515E-2,5.431131E-1,2.2940582E-1,9.970013E-2,1.7746899E-1,-4.8242837E-2,2.1657718E-2,-3.987768E-3,5.6642372E-2,-1.44728515E-2,-3.987768E-3],"categories":[],"categories_nodes":[],"categories_segments":[],"categories_sizes":[],"default_left":[0,0,0,0,0,0,0,0,0,0,0,0,0,0,0,0,0,0,0,0,0],"id":2,"left_children":[1,5,3,15,11,-1,7,-1,9,-1,-1,13,-1,-1,-1,19,17,-1,-1,-1,-1],"loss_changes":[6.876864E1,1.575573E0,1.1703028E1,3.4064263E-2,2.0578003E-1,0E0,2.0468311E0,0E0,9.909035E-1,0E0,0E0,1.1440086E-1,0E0,0E0,0E0,2.067113E-2,1.5310301E-1,0E0,0E0,0E0,0E0],"parents":[2147483647,0,0,2,2,1,1,6,6,8,8,4,4,11,11,3,3,16,16,15,15],"right_children":[2,6,4,16,12,-1,8,-1,10,-1,-1,14,-1,-1,-1,20,18,-1,-1,-1,-1],"split_conditions":[2E0,2E-1,8.5E1,1E0,1E0,-2.4787587E-1,1E0,-1.8806878E-1,1.58E2,-1.0856797E-1,-1.44728515E-2,1.13E2,2.2940582E-1,9.970013E-2,1.7746899E-1,1.52E2,6.1E1,-3.987768E-3,5.6642372E-2,-1.44728515E-2,-3.987768E-3],"split_indices":[10,9,4,2,2,0,2,0,7,0,0,3,0,0,0,3,0,0,0,0,0],"split_type":[0,0,0,0,0,0,0,0,0,0,0,0,0,0,0,0,0,0,0,0,0],"sum_hessian":[2.0937634E2,1.2338913E2,8.598722E1,1.6339659E1,6.964756E1,3.347057E1,8.991856E1,6.983E1,2.0088554E1,1.7591019E1,2.4975352E0,1.8959637E1,5.0687923E1,3.4177551E0,1.5541881E1,9.891657E0,6.4480023E0,3.472505E0,2.9754975E0,7.9198794E0,1.9717773E0],"tree_param":{"num_deleted":"0","num_feature":"11","num_nodes":"21","size_leaf_vector":"1"}},{"base_weights":[1.515211E-1,-2.3724443E-1,5.311639E-1,-3.8999188E-1,4.4087917E-2,-4.9669528E-1,-3.6454827E-2,1.4695972E-1,5.8597004E-1,-1.7499952E-1,-9.2731714E-2,4.8867157E-1,2.2270991E-1,1.0993947E-1,1.6977988E-1,1.4695972E-1,1.0993947E-1,4.4087917E-2,7.70137E-2],"categories":[],"categories_nodes":[],"categories_segments":[],"categories_sizes":[],"default_left":[0,0,0,0,0,0,0,0,0,0,0,0,0,0,0,0,0,0,0],"id":3,"left_children":[1,3,7,5,-1,9,-1,15,11,-1,-1,13,-1,-1,-1,17,-1,-1,-1],"loss_changes":[3.1175888E1,9.332782E0,2.6195278E0,3.9582195E0,0E0,1.2210999E0,0E0,3.9966577E-1,1.0898628E0,0E0,0E0,9.282284E-1,0E0,0E0,0E0,8.897057E-2,0E0,0E0,0E0],"parents":[2147483647,0,0,1,1,3,3,2,2,5,5,8,8,11,11,7,7,15,15],"right_children":[2,4,8,6,-1,10,-1,16,12,-1,-1,14,-1,-1,-1,18,-1,-1,-1],"split_conditions":[5E-1,1E0,1E0,1E0,4.4087917E-2,5.5E1,-3.6454827E-2,1E0,1E0,-1.7499952E-1,-9.2731714E-2,1E0,2.2270991E-1,1.0993947E-1,1.6977988E-1,1.52E2,1.0993947E-1,4.4087917E-2,7.70137E-2],"split_indices":[9,8,1,5,0,0,0,5,5,0,0,8,0,0,0,3,0,0,0],"split_type":[0,0,0,0,0,0,0,0,0,0,0,0,0,0,0,0,0,0,0],"sum_hessian":[2.0937636E2,1.036306E2,1.0574575E2,8.501366E1,1.861695E1,7.127074E1,1.374292E1,1.1284953E1,9.446079E1,5.032775E1,2.0942982E1,6.0775337E1,3.3685455E1,1.1882641E1,4.8892696E1,9.331864E0,1.9530891E0,6.8843317E0,2.4475322E0],"tree_param":{"num_deleted":"0","num_feature":"11","num_nodes":"19","size_leaf_vector":"1"}},{"base_weights":[-1.2442865E-1,-5.253591E-1,4.499846E-1,-3.7687242E-2,6.18456E-1,-2.2856961E-1,-4.2499676E-1,-5.099929E-1,-1.3540857E-1,-9.681023E-2,-1.1306173E-2,4.630096E-1,2.0059066E-1,-1.68847E-1,-1.18840046E-1,8.711532E-2,1.5217501E-1,-3.7687242E-2,1.5029085E-2,-3.398724E-3,4.6472833E-2,-1.1306173E-2,-3.398724E-3],"categories":[],"categories_nodes":[],"categories_segments":[],"categories_sizes":[],"default_left":[0,0,0,0,0,0,0,0,0,0,0,0,0,0,0,0,0,0,0,0,0,0,0],"id":4,"left_children":[1,5,3,17,11,-1,7,13,9,-1,-1,15,-1,-1,-1,-1,-1,21,19,-1,-1,-1,-1],"loss_changes":[4.4857967E1,2.3960438E0,8.56596E0,1.8933773E-2,1.9114685E-1,0E0,1.9665403E0,1.5946007E-1,7.9306424E-1,0E0,0E0,8.602095E-2,0E0,0E0,0E0,0E0,0E0,2.1262258E-2,1.2970962E-1,0E0,0E0,0E0,0E0],"parents":[2147483647,0,0,2,2,1,1,6,6,8,8,4,4,7,7,11,11,3,3,18,18,17,17],"right_children":[2,6,4,18,12,-1,8,14,10,-1,-1,16,-1,-1,-1,-1,-1,22,20,-1,-1,-1,-1],"split_conditions":[2E0,2E-1,8.5E1,1E0,1E0,-2.2856961E-1,1E0,2E0,1.29E2,-9.681023E-2,-1.1306173E-2,1.13E2,2.0059066E-1,-1.68847E-1,-1.18840046E-1,8.711532E-2,1.5217501E-1,1.52E2,1.28E2,-3.398724E-3,4.6472833E-2,-1.1306173E-2,-3.398724E-3],"split_indices":[10,9,4,2,2,0,2,6,7,0,0,3,0,0,0,0,0,3,7,0,0,0,0],"split_type":[0,0,0,0,0,0,0,0,0,0,0,0,0,0,0,0,0,0,0,0,0,0,0],"sum_hessian":[1.9275426E2,1.1356988E2,7.918439E1,1.599018E1,6.319421E1,3.1868616E1,8.170126E1,6.2574207E1,1.9127052E1,9.967428E0,9.159625E0,1.79172E1,4.5277008E1,4.004862E1,2.2525587E1,3.3089576E0,1.4608242E1,9.665959E0,6.324221E0,2.4418154E0,3.8824055E0,7.7330475E0,1.9329116E0],"tree_param":{"num_deleted":"0","num_feature":"11","num_nodes":"23","size_leaf_vector":"1"}},{"base_weights":[1.2442864E-1,-1.6116817E-1,4.646077E-1,-3.2532465E-1,1.5171975E-1,-4.2015192E-1,-8.680245E-2,1.5171975E-1,5.0238603E-1,-1.443373E-1,-7.604316E-2,-2.6040737E-2,4.5515925E-2,-6.69994E-2,-2.6040737E-2,4.0461764E-1,5.5487156E-1,1.4392339E-1,1.8426166E-1,9.811587E-2,1.4392339E-1,4.5515925E-2,7.592593E-2],"categories":[],"categories_nodes":[],"categories_segments":[],"categories_sizes":[],"default_left":[0,0,0,0,0,0,0,0,0,0,0,0,0,0,0,0,0,0,0,0,0,0,0],"id":5,"left_children":[1,3,7,5,11,9,13,21,15,-1,-1,-1,-1,-1,-1,19,17,-1,-1,-1,-1,-1,-1],"loss_changes":[1.8898888E1,8.126743E0,1.2817345E0,2.4355183E0,2.1223998E-1,8.5700035E-1,2.0743981E-1,6.4930096E-3,1.9224167E-1,0E0,0E0,0E0,0E0,0E0,0E0,1.466279E-1,1.9196224E-1,0E0,0E0,0E0,0E0,0E0,0E0],"parents":[2147483647,0,0,1,1,3,3,2,2,5,5,4,4,6,6,8,8,16,16,15,15,7,7],"right_children":[2,4,8,6,12,10,14,22,16,-1,-1,-1,-1,-1,-1,20,18,-1,-1,-1,-1,-1,-1],"split_conditions":[1E0,1E0,1E0,3E-1,1E0,5.7E1,1.7E0,1E0,1.31E2,-1.443373E-1,-7.604316E-2,-2.6040737E-2,4.5515925E-2,-6.69994E-2,-2.6040737E-2,1E0,6E-1,1.4392339E-1,1.8426166E-1,9.811587E-2,1.4392339E-1,4.5515925E-2,7.592593E-2],"split_indices":[8,5,1,9,6,0,9,5,3,0,0,0,0,0,0,5,9,0,0,0,0,0,0],"split_type":[0,0,0,0,0,0,0,0,0,0,0,0,0,0,0,0,0,0,0,0,0,0,0],"sum_hessian":[1.9275426E2,1.0506953E2,8.768474E1,8.04419E1,2.4627619E1,6.2682472E1,1.7759432E1,7.468659E0,8.021608E1,5.0914585E1,1.176789E1,1.3991755E0,2.3228443E1,1.0532882E1,7.22655E0,3.1062658E1,4.915342E1,1.1149228E1,3.8004192E1,2.2452072E1,8.610586E0,5.59651E0,1.8721491E0],"tree_param":{"num_deleted":"0","num_feature":"11","num_nodes":"23","size_leaf_vector":"1"}},{"base_weights":[-1.0886549E-1,-4.552195E-1,3.8796633E-1,-3.3626586E-2,5.5432E-1,-2.1157178E-1,-3.4777996E-1,-4.332293E-1,-7.867157E-2,-7.678513E-2,-1.0087976E-2,-1.5795287E-1,-1.0941219E-1,4.0419647E-1,1.8192396E-1,7.810402E-2,1.3522223E-1,-3.3626586E-2,-1.50162075E-2,-7.2964192E-3,3.55137E-2,-1.0087976E-2,-7.2964192E-3],"categories":[],"categories_nodes":[],"categories_segments":[],"categories_sizes":[],"default_left":[0,0,0,0,0,0,0,0,0,0,0,0,0,0,0,0,0,0,0,0,0,0,0],"id":6,"left_children":[1,5,3,17,13,-1,7,11,9,-1,-1,-1,-1,15,-1,-1,-1,21,19,-1,-1,-1,-1],"loss_changes":[3.0375502E1,2.544796E0,6.800579E0,1.36365E-3,2.0080376E-1,0E0,1.6818361E0,2.1358776E-1,4.9401462E-1,0E0,0E0,0E0,0E0,9.24685E-2,0E0,0E0,0E0,1.0035947E-2,9.624558E-2,0E0,0E0,0E0,0E0],"parents":[2147483647,0,0,2,2,1,1,6,6,8,8,7,7,4,4,13,13,3,3,18,18,17,17],"right_children":[2,6,4,18,14,-1,8,12,10,-1,-1,-1,-1,16,-1,-1,-1,22,20,-1,-1,-1,-1],"split_conditions":[2E0,2E-1,8.5E1,1E0,1E0,-2.1157178E-1,1E0,1.71E2,1.29E2,-7.678513E-2,-1.0087976E-2,-1.5795287E-1,-1.0941219E-1,1.13E2,1.8192396E-1,7.810402E-2,1.3522223E-1,1.52E2,1.28E2,-7.2964192E-3,3.55137E-2,-1.0087976E-2,-7.2964192E-3],"split_indices":[10,9,4,2,2,0,2,4,7,0,0,0,0,3,0,0,0,3,7,0,0,0,0],"split_type":[0,0,0,0,0,0,0,0,0,0,0,0,0,0,0,0,0,0,0,0,0,0,0],"sum_hessian":[1.7449362E2,1.0286652E2,7.16271E1,1.5607813E1,5.6019287E1,2.924566E1,7.3620865E1,5.5415154E1,1.8205711E1,9.19832E0,9.007391E0,1.8917736E1,3.6497417E1,1.6687614E1,3.9331673E1,3.1702113E0,1.3517404E1,9.405817E0,6.2019963E0,2.4159245E0,3.7860715E0,7.5436773E0,1.8621395E0],"tree_param":{"num_deleted":"0","num_feature":"11","num_nodes":"23","size_leaf_vector":"1"}},{"base_weights":[1.08865485E-1,-1.548879E-1,3.6267227E-1,-2.5315642E-1,3.1167656E-2,2.3902628E-1,5.955801E-1,-3.3350718E-1,-2.2389637E-2,1.03892185E-1,3.1339103E-1,6.2592484E-2,1.2519097E-1,-1.2909105E-1,-6.1220895E-2,1.2519097E-1,1.8740217E-1,3.1167656E-2,6.2592484E-2],"categories":[],"categories_nodes":[],"categories_segments":[],"categories_sizes":[],"default_left":[0,0,0,0,0,0,0,0,0,0,0,0,0,0,0,0,0,0,0],"id":7,"left_children":[1,3,5,7,-1,9,15,13,-1,17,11,-1,-1,-1,-1,-1,-1,-1,-1],"loss_changes":[1.1804136E1,3.274817E0,2.4417658E0,1.6744795E0,0E0,1.1541703E0,8.4607124E-2,6.983919E-1,0E0,4.4554114E-2,8.7382936E-1,0E0,0E0,0E0,0E0,0E0,0E0,0E0,0E0],"parents":[2147483647,0,0,1,1,2,2,3,3,5,5,10,10,7,7,6,6,9,9],"right_children":[2,4,6,8,-1,10,16,14,-1,18,12,-1,-1,-1,-1,-1,-1,-1,-1],"split_conditions":[5E-1,1E0,1E0,1E0,3.1167656E-2,1E0,1E0,5.3E1,-2.2389637E-2,1.52E2,1.7E0,6.2592484E-2,1.2519097E-1,-1.2909105E-1,-6.1220895E-2,1.2519097E-1,1.8740217E-1,3.1167656E-2,6.2592484E-2],"split_indices":[9,8,5,5,0,1,6,0,0,3,9,0,0,0,0,0,0,0,0],"split_type":[0,0,0,0,0,0,0,0,0,0,0,0,0,0,0,0,0,0,0],"sum_hessian":[1.7449364E2,8.576121E1,8.873242E1,7.034841E1,1.5412795E1,5.9285328E1,2.9447094E1,5.8000416E1,1.2347998E1,8.659446E0,5.0625885E1,2.9418913E1,2.120697E1,3.2772465E1,2.522795E1,1.9269912E0,2.7520103E1,6.4199953E0,2.2394507E0],"tree_param":{"num_deleted":"0","num_feature":"11","num_nodes":"19","size_leaf_vector":"1"}},{"base_weights":[-9.191637E-2,-3.9425352E-1,3.4256372E-1,-2.5844902E-2,5.156165E-1,-2.0023626E-1,-2.737013E-1,-3.6486408E-1,-2.5844902E-2,-1.2919208E-1,-6.9980524E-2,-5.781623E-2,-7.753471E-3,7.346574E-2,1.5812758E-1,-2.5844902E-2,4.416194E-2,-7.753471E-3,4.5995085E-4],"categories":[],"categories_nodes":[],"categories_segments":[],"categories_sizes":[],"default_left":[0,0,0,0,0,0,0,0,0,0,0,0,0,0,0,0,0,0,0],"id":8,"left_children":[1,5,3,15,13,-1,7,9,11,-1,-1,-1,-1,-1,-1,17,-1,-1,-1],"loss_changes":[2.0979506E1,2.9143696E0,5.3478303E0,8.572853E-2,1.0617256E-1,0E0,1.5980201E0,3.296523E-1,2.6254743E-1,0E0,0E0,0E0,0E0,0E0,0E0,5.5752695E-3,0E0,0E0,0E0],"parents":[2147483647,0,0,2,2,1,1,6,6,7,7,8,8,4,4,3,3,15,15],"right_children":[2,6,4,16,14,-1,8,10,12,-1,-1,-1,-1,-1,-1,18,-1,-1,-1],"split_conditions":[2E0,2E-1,1.56E2,8.5E1,1.02E2,-2.0023626E-1,1E0,2E0,1.29E2,-1.2919208E-1,-6.9980524E-2,-5.781623E-2,-7.753471E-3,7.346574E-2,1.5812758E-1,5.9E1,4.416194E-2,-7.753471E-3,4.5995085E-4],"split_indices":[10,9,4,4,3,0,2,6,7,0,0,0,0,0,0,0,0,0,0],"split_type":[0,0,0,0,0,0,0,0,0,0,0,0,0,0,0,0,0,0,0],"sum_hessian":[1.576825E2,9.303546E1,6.464703E1,1.701337E1,4.7633667E1,2.7094986E1,6.5940475E1,4.8689636E1,1.7250843E1,3.0948181E1,1.7741455E1,8.452012E0,8.798831E0,1.7886629E0,4.5845005E1,1.5128368E1,1.8850019E0,7.79918E0,7.329188E0],"tree_param":{"num_deleted":"0","num_feature":"11","num_nodes":"19","size_leaf_vector":"1"}},{"base_weights":[9.191638E-2,-1.2766132E-1,3.0083507E-1,1.8198085E-1,5.378069E-1,-2.0920986E-1,2.5976064E-2,-2.8262976E-1,-1.8393448E-2,8.658688E-2,3.147202E-1,-1.17222875E-1,-5.2760098E-2,6.019607E-2,1.07968174E-1,2.5976064E-2,6.019607E-2,1.07968174E-1,1.71063E-1],"categories":[],"categories_nodes":[],"categories_segments":[],"categories_sizes":[],"default_left":[0,0,0,0,0,0,0,0,0,0,0,0,0,0,0,0,0,0,0],"id":9,"left_children":[1,5,3,9,17,7,-1,11,-1,15,13,-1,-1,-1,-1,-1,-1,-1,-1],"loss_changes":[7.3177896E0,2.0201304E0,2.2007627E0,1.0978708E0,1.3103342E-1,1.1710422E0,0E0,5.3868914E-1,0E0,2.6697078E-1,4.235742E-1,0E0,0E0,0E0,0E0,0E0,0E0,0E0,0E0],"parents":[2147483647,0,0,2,2,1,1,5,5,3,3,7,7,10,10,9,9,4,4],"right_children":[2,6,4,10,18,8,-1,12,-1,16,14,-1,-1,-1,-1,-1,-1,-1,-1],"split_conditions":[5E-1,1E0,1E0,1.31E2,1E0,1E0,2.5976064E-2,5E1,-1.8393448E-2,2.4E0,1E0,-1.17222875E-1,-5.2760098E-2,6.019607E-2,1.07968174E-1,2.5976064E-2,6.019607E-2,1.07968174E-1,1.71063E-1],"split_indices":[9,8,5,3,6,5,0,0,0,9,8,0,0,0,0,0,0,0,0],"split_type":[0,0,0,0,0,0,0,0,0,0,0,0,0,0,0,0,0,0,0],"sum_hessian":[1.576825E2,7.706968E1,8.0612816E1,5.4863663E1,2.5749159E1,6.3131195E1,1.3938485E1,5.1623726E1,1.1507467E1,2.4857151E1,3.000651E1,2.4328045E1,2.7295681E1,4.833527E0,2.5172983E1,2.1126324E1,3.7308276E0,1.7168375E0,2.4032322E1],"tree_param":{"num_deleted":"0","num_feature":"11","num_nodes":"19","size_leaf_vector":"1"}},{"base_weights":[-7.5583324E-2,-3.407868E-1,3.0529657E-1,-1.7745122E-2,4.736503E-1,-1.9056547E-1,-2.0832255E-1,-3.0514857E-1,-1.7745122E-2,-1.12933666E-1,-5.0726887E-2,3.243696E-1,1.5845197E-1,-3.9561525E-2,-5.3235367E-3,6.838578E-2,1.1647057E-1,-5.3235367E-3,6.963008E-2,7.782744E-3,6.838578E-2],"categories":[],"categories_nodes":[],"categories_segments":[],"categories_sizes":[],"default_left":[0,0,0,0,0,0,0,0,0,0,0,0,0,0,0,0,0,0,0,0,0],"id":10,"left_children":[1,5,3,17,11,-1,7,9,13,-1,-1,15,-1,-1,-1,-1,-1,-1,19,-1,-1],"loss_changes":[1.4619461E1,3.1901321E0,4.188169E0,7.1469665E-2,1.7920017E-1,0E0,1.437284E0,3.6213446E-1,1.139438E-1,0E0,0E0,1.0602403E-1,0E0,0E0,0E0,0E0,0E0,0E0,4.390207E-1,0E0,0E0],"parents":[2147483647,0,0,2,2,1,1,6,6,7,7,4,4,8,8,11,11,3,3,18,18],"right_children":[2,6,4,18,12,-1,8,10,14,-1,-1,16,-1,-1,-1,-1,-1,-1,20,-1,-1],"split_conditions":[2E0,2E-1,1.56E2,1.28E2,1E0,-1.9056547E-1,1E0,2E0,1.29E2,-1.12933666E-1,-5.0726887E-2,1.13E2,1.5845197E-1,-3.9561525E-2,-5.3235367E-3,6.838578E-2,1.1647057E-1,-5.3235367E-3,1.3E2,7.782744E-3,6.838578E-2],"split_indices":[10,9,4,7,2,0,2,6,7,0,0,3,0,0,0,0,0,0,3,0,0],"split_type":[0,0,0,0,0,0,0,0,0,0,0,0,0,0,0,0,0,0,0,0,0],"sum_hessian":[1.4270184E2,8.418782E1,5.851402E1,1.6448019E1,4.2065998E1,2.49455E1,5.9242325E1,4.28929E1,1.6349426E1,2.6985367E1,1.590753E1,1.3112886E1,2.8953114E1,7.7723365E0,8.57709E0,2.8564641E0,1.0256422E1,8.045273E0,8.402746E0,4.771359E0,3.6313875E0],"tree_param":{"num_deleted":"0","num_feature":"11","num_nodes":"21","size_leaf_vector":"1"}},{"base_weights":[7.5583324E-2,-9.212041E-2,2.6795283E-1,-1.805236E-1,8.791621E-2,9.5046684E-2,4.1641432E-1,-2.570087E-1,-1.3891109E-2,8.791621E-2,2.557305E-1,3.257846E-1,1.7674121E-1,-8.793567E-2,-4.549686E-2,7.671916E-2,1.2212765E-1,2.6374863E-2,5.154701E-2,5.154701E-2,7.671916E-2,-3.8128097E-2,2.6374863E-2,-1.3891109E-2,7.4682175E-3],"categories":[],"categories_nodes":[],"categories_segments":[],"categories_sizes":[],"default_left":[0,0,0,0,0,0,0,0,0,0,0,0,0,0,0,0,0,0,0,0,0,0,0,0,0],"id":11,"left_children":[1,3,5,7,21,9,11,13,-1,17,19,15,-1,-1,-1,-1,-1,-1,-1,-1,-1,23,-1,-1,-1],"loss_changes":[4.6606607E0,1.8022246E0,1.685049E0,1.0865864E0,4.4596314E-2,4.1913205E-1,3.692875E-1,3.5251236E-1,0E0,1.740318E-1,6.357825E-2,2.3284793E-1,0E0,0E0,0E0,0E0,0E0,0E0,0E0,0E0,0E0,2.3928583E-2,0E0,0E0,0E0],"parents":[2147483647,0,0,1,1,2,2,3,3,5,5,6,6,7,7,11,11,9,9,10,10,4,4,21,21],"right_children":[2,4,6,8,22,10,12,14,-1,18,20,16,-1,-1,-1,-1,-1,-1,-1,-1,-1,24,-1,-1,-1],"split_conditions":[9E-1,1E0,1.31E2,1E0,1E0,1E0,1E0,3E0,-1.3891109E-2,2.4E0,1.04E2,1.72E2,1.7674121E-1,-8.793567E-2,-4.549686E-2,7.671916E-2,1.2212765E-1,2.6374863E-2,5.154701E-2,5.154701E-2,7.671916E-2,1.36E2,2.6374863E-2,-1.3891109E-2,7.4682175E-3],"split_indices":[9,5,3,8,1,5,5,2,0,9,7,4,0,0,0,0,0,0,0,0,0,3,0,0,0],"split_type":[0,0,0,0,0,0,0,0,0,0,0,0,0,0,0,0,0,0,0,0,0,0,0,0,0],"sum_hessian":[1.4270184E2,7.651702E1,6.618482E1,5.8985172E1,1.7531853E1,3.133298E1,3.485184E1,4.7863262E1,1.112191E1,2.1910315E1,9.422665E0,2.4750921E1,1.0100919E1,4.4865807E1,2.997457E0,7.2168937E0,1.7534027E1,1.8350508E1,3.5598054E0,1.1328702E0,8.289795E0,2.2935727E0,1.5238279E1,1.1483885E0,1.1451842E0],"tree_param":{"num_deleted":"0","num_feature":"11","num_nodes":"25","size_leaf_vector":"1"}},{"base_weights":[-6.528112E-2,-2.9453102E-1,2.6561764E-1,-1.4456689E-2,4.3804768E-1,-1.8252905E-1,-1.5229213E-1,-2.5305152E-1,-1.4456689E-2,-1.1410835E-1,-5.1194847E-2,2.8543475E-1,1.4963476E-1,6.353865E-2,1.0596927E-1,-1.4456689E-2,3.620027E-2,-2.587614E-2,-4.337007E-3,-4.337007E-3,9.0165585E-3],"categories":[],"categories_nodes":[],"categories_segments":[],"categories_sizes":[],"default_left":[0,0,0,0,0,0,0,0,0,0,0,0,0,0,0,0,0,0,0,0,0],"id":12,"left_children":[1,5,3,15,11,-1,7,9,17,-1,-1,13,-1,-1,-1,19,-1,-1,-1,-1,-1],"loss_changes":[1.0018476E1,3.3846655E0,3.5622303E0,4.9457423E-2,2.1118736E-1,0E0,1.1912733E0,3.970921E-1,4.236553E-2,0E0,0E0,9.2936754E-2,0E0,0E0,0E0,1.5498206E-2,0E0,0E0,0E0,0E0,0E0],"parents":[2147483647,0,0,2,2,1,1,6,6,7,7,4,4,11,11,3,3,8,8,15,15],"right_children":[2,6,4,16,12,-1,8,10,18,-1,-1,14,-1,-1,-1,20,-1,-1,-1,-1,-1],"split_conditions":[2E0,2E-1,1.56E2,8.5E1,1E0,-1.8252905E-1,1E0,1.71E2,1.29E2,-1.1410835E-1,-5.1194847E-2,1.13E2,1.4963476E-1,6.353865E-2,1.0596927E-1,5.9E1,3.620027E-2,-2.587614E-2,-4.337007E-3,-4.337007E-3,9.0165585E-3],"split_indices":[10,9,4,4,2,0,2,4,7,0,0,3,0,0,0,0,0,0,0,0,0],"split_type":[0,0,0,0,0,0,0,0,0,0,0,0,0,0,0,0,0,0,0,0,0],"sum_hessian":[1.3003662E2,7.688196E1,5.3154667E1,1.6010437E1,3.714423E1,2.2952293E1,5.3929665E1,3.826169E1,1.5667977E1,1.2473674E1,2.5788015E1,1.2196607E1,2.494762E1,2.7308958E0,9.465712E0,1.4290266E1,1.7201712E0,7.2591605E0,8.408817E0,7.3625746E0,6.9276915E0],"tree_param":{"num_deleted":"0","num_feature":"11","num_nodes":"21","size_leaf_vector":"1"}},{"base_weights":[6.5281145E-2,-2.6105821E-2,3.2131335E-1,-1.7023757E-1,1.4760377E-1,1.4760377E-1,4.64637E-1,-2.3088036E-1,-1.1316903E-2,-1.1316903E-2,1.4760377E-1,-8.9227565E-2,-3.6329594E-2,-3.6329594E-2,-3.395071E-3,9.1836125E-2,1.5149638E-1,2.044303E-2,4.4281133E-2,1.4760377E-1,9.1836125E-2,4.4281133E-2,6.8058625E-2,-3.395071E-3,2.044303E-2],"categories":[],"categories_nodes":[],"categories_segments":[],"categories_sizes":[],"default_left":[0,0,0,0,0,0,0,0,0,0,0,0,0,0,0,0,0,0,0,0,0,0,0,0,0],"id":13,"left_children":[1,3,5,7,9,19,15,11,13,23,17,-1,-1,-1,-1,-1,-1,-1,-1,21,-1,-1,-1,-1,-1],"loss_changes":[3.0743837E0,2.669058E0,1.0808501E0,9.786365E-1,6.334628E-1,1.2605706E-1,1.604371E-1,5.16778E-1,1.6244414E-1,1.379003E-2,1.3253272E-1,0E0,0E0,0E0,0E0,0E0,0E0,0E0,0E0,7.2102845E-2,0E0,0E0,0E0,0E0,0E0],"parents":[2147483647,0,0,1,1,2,2,3,3,4,4,7,7,8,8,6,6,10,10,5,5,19,19,9,9],"right_children":[2,4,6,8,10,20,16,12,14,24,18,-1,-1,-1,-1,-1,-1,-1,-1,22,-1,-1,-1,-1,-1],"split_conditions":[1E0,1E0,5E-1,1.7E0,1E0,1.41E2,1E0,2.55E2,1E0,1.43E2,4.3E1,-8.9227565E-2,-3.6329594E-2,-3.6329594E-2,-3.395071E-3,9.1836125E-2,1.5149638E-1,2.044303E-2,4.4281133E-2,1.52E2,9.1836125E-2,4.4281133E-2,6.8058625E-2,-3.395071E-3,2.044303E-2],"split_indices":[5,8,9,9,1,3,6,4,1,7,0,0,0,0,0,0,0,0,0,7,0,0,0,0,0],"split_type":[0,0,0,0,0,0,0,0,0,0,0,0,0,0,0,0,0,0,0,0,0,0,0,0,0],"sum_hessian":[1.3003662E2,9.649292E1,3.3543705E1,5.4756504E1,4.1736416E1,1.3202612E1,2.0341093E1,4.8513214E1,6.243292E0,4.2883453E0,3.744807E1,3.5286232E1,1.3226978E1,1.6975785E0,4.545713E0,1.3555349E0,1.8985558E1,2.2326837E0,3.5215385E1,9.999558E0,3.2030537E0,7.5209217E0,2.4786365E0,3.227178E0,1.0611672E0],"tree_param":{"num_deleted":"0","num_feature":"11","num_nodes":"25","size_leaf_vector":"1"}},{"base_weights":[-5.5917867E-2,-2.5454578E-1,2.332709E-1,-1.7479387E-1,-1.0992861E-1,-1.063744E-2,4.0323326E-1,-2.1381184E-1,-1.063744E-2,-1.03886224E-1,-3.462383E-2,2.4581356E-1,1.415068E-1,-3.3667393E-2,-3.191232E-3,5.8889378E-2,9.558516E-2,-3.191232E-3,6.6150546E-2,8.326966E-3,5.8889378E-2],"categories":[],"categories_nodes":[],"categories_segments":[],"categories_sizes":[],"default_left":[0,0,0,0,0,0,0,0,0,0,0,0,0,0,0,0,0,0,0,0,0],"id":14,"left_children":[1,3,5,-1,7,17,11,9,13,-1,-1,15,-1,-1,-1,-1,-1,-1,19,-1,-1],"loss_changes":[6.952769E0,3.3343306E0,2.8770366E0,0E0,9.446703E-1,5.2239776E-2,2.4990654E-1,6.4040077E-1,2.1509784E-1,0E0,0E0,7.757723E-2,0E0,0E0,0E0,0E0,0E0,0E0,3.4096223E-1,0E0,0E0],"parents":[2147483647,0,0,1,1,2,2,4,4,7,7,6,6,8,8,11,11,5,5,18,18],"right_children":[2,4,6,-1,8,18,12,10,14,-1,-1,16,-1,-1,-1,-1,-1,-1,20,-1,-1],"split_conditions":[2E0,2E-1,1.56E2,-1.7479387E-1,1.39E2,1.28E2,1E0,5.3E1,1.3E0,-1.03886224E-1,-3.462383E-2,1.13E2,1.415068E-1,-3.3667393E-2,-3.191232E-3,5.8889378E-2,9.558516E-2,-3.191232E-3,1.3E2,8.326966E-3,5.8889378E-2],"split_indices":[10,9,4,0,7,7,2,0,9,0,0,3,0,0,0,0,0,0,3,0,0],"split_type":[0,0,0,0,0,0,0,0,0,0,0,0,0,0,0,0,0,0,0,0,0],"sum_hessian":[1.1900826E2,7.062181E1,4.8386456E1,2.067851E1,4.9943302E1,1.5436726E1,3.294973E1,3.4053917E1,1.5889382E1,9.248587E0,2.4805332E1,1.1377396E1,2.1572332E1,6.3611965E0,9.528186E0,2.588812E0,8.788584E0,7.5579214E0,7.8788047E0,4.5064855E0,3.372319E0],"tree_param":{"num_deleted":"0","num_feature":"11","num_nodes":"21","size_leaf_vector":"1"}},{"base_weights":[5.591785E-2,-9.729493E-2,1.8105575E-1,9.220747E-2,3.886575E-1,4.1880414E-2,2.4043249E-1,-1.3716266E-1,4.1880414E-2,-3.6515456E-1,-8.6314216E-2,7.212975E-2,4.5151544E-1,1.2564125E-2,4.2346936E-2,-3.7965074E-2,-1.4292337E-2,-1.4292337E-2,1.2564125E-2,1.037922E-1,1.6688289E-1,-1.3321252E-1,-6.772032E-2,4.2346936E-2,7.212975E-2],"categories":[],"categories_nodes":[],"categories_segments":[],"categories_sizes":[],"default_left":[0,0,0,0,0,0,0,0,0,0,0,0,0,0,0,0,0,0,0,0,0,0,0,0,0],"id":15,"left_children":[1,7,3,5,11,13,23,9,17,21,15,-1,19,-1,-1,-1,-1,-1,-1,-1,-1,-1,-1,-1,-1],"loss_changes":[2.318501E0,5.301155E-1,1.1890218E0,8.73919E-1,3.1374025E-1,2.4638423E-1,4.856956E-2,5.433189E-1,8.9854956E-2,7.87859E-2,1.4873025E-1,0E0,8.147001E-2,0E0,0E0,0E0,0E0,0E0,0E0,0E0,0E0,0E0,0E0,0E0,0E0],"parents":[2147483647,0,0,2,2,3,3,1,1,7,7,4,4,5,5,10,10,8,8,12,12,9,9,6,6],"right_children":[2,8,4,6,12,14,24,10,18,22,16,-1,20,-1,-1,-1,-1,-1,-1,-1,-1,-1,-1,-1,-1],"split_conditions":[3E-1,1.54E2,1E0,2.4E0,1E0,2.39E2,1.13E2,1E0,4.8E1,1.56E2,1E0,7.212975E-2,1.31E2,1.2564125E-2,4.2346936E-2,-3.7965074E-2,-1.4292337E-2,-1.4292337E-2,1.2564125E-2,1.037922E-1,1.6688289E-1,-1.3321252E-1,-6.772032E-2,4.2346936E-2,7.212975E-2],"split_indices":[9,3,5,9,6,4,7,1,0,7,5,0,3,0,0,0,0,0,0,0,0,0,0,0,0],"split_type":[0,0,0,0,0,0,0,0,0,0,0,0,0,0,0,0,0,0,0,0,0,0,0,0,0],"sum_hessian":[1.1900827E2,5.360248E1,6.5405785E1,4.6814518E1,1.8591269E1,4.0142677E1,6.6718407E0,4.8584675E1,5.0178075E0,7.732558E0,4.0852116E1,1.591882E0,1.6999386E1,2.6085411E1,1.4057264E1,3.3303234E1,7.5488834E0,1.2232251E0,3.7945824E0,8.917544E0,8.081842E0,5.2840405E0,2.4485173E0,1.6548965E0,5.016944E0],"tree_param":{"num_deleted":"0","num_feature":"11","num_nodes":"25","size_leaf_vector":"1"}},{"base_weights":[-4.706538E-2,-2.168263E-1,2.0294197E-1,-1.6768344E-1,-6.904876E-2,-6.942168E-3,3.709524E-1,-1.7550865E-1,-6.942168E-3,-8.014461E-2,-2.7367624E-2,2.1242455E-1,1.3389881E-1,5.4601535E-2,9.881309E-2,-2.0826505E-3,6.0496006E-2,8.033076E-3,5.4601535E-2,-1.7773379E-2,-2.0826505E-3],"categories":[],"categories_nodes":[],"categories_segments":[],"categories_sizes":[],"default_left":[0,0,0,0,0,0,0,0,0,0,0,0,0,0,0,0,0,0,0,0,0],"id":16,"left_children":[1,3,5,-1,7,15,11,9,19,-1,-1,13,-1,-1,-1,-1,17,-1,-1,-1,-1],"loss_changes":[4.77457E0,3.3420713E0,2.355558E0,0E0,7.6191735E-1,3.938186E-2,2.7035618E-1,4.077679E-1,7.335713E-3,0E0,0E0,7.8133106E-2,0E0,0E0,0E0,0E0,2.958279E-1,0E0,0E0,0E0,0E0],"parents":[2147483647,0,0,1,1,2,2,4,4,7,7,6,6,11,11,5,5,16,16,8,8],"right_children":[2,4,6,-1,8,16,12,10,20,-1,-1,14,-1,-1,-1,-1,18,-1,-1,-1,-1],"split_conditions":[2E0,2E-1,1.56E2,-1.6768344E-1,1E0,1.28E2,1E0,2E0,1E0,-8.014461E-2,-2.7367624E-2,1E0,1.3389881E-1,5.4601535E-2,9.881309E-2,-2.0826505E-3,1.3E2,8.033076E-3,5.4601535E-2,-1.7773379E-2,-2.0826505E-3],"split_indices":[10,9,4,0,2,7,2,6,10,0,0,5,0,0,0,0,3,0,0,0,0],"split_type":[0,0,0,0,0,0,0,0,0,0,0,0,0,0,0,0,0,0,0,0,0],"sum_hessian":[1.1046094E2,6.5867836E1,4.4593105E1,1.9029793E1,4.6838043E1,1.5033492E1,2.9559612E1,3.230985E1,1.4528195E1,2.0089914E1,1.2219933E1,1.0756149E1,1.8803463E1,9.213391E0,1.5427581E0,7.363559E0,7.6699333E0,4.4127774E0,3.2571554E0,1.6992458E0,1.2828949E1],"tree_param":{"num_deleted":"0","num_feature":"11","num_nodes":"21","size_leaf_vector":"1"}},{"base_weights":[4.7065385E-2,-2.3392672E-2,2.592829E-1,-3.006451E-1,3.145481E-2,-1.1315721E-1,1.17945105E-1,1.17945105E-1,3.9861026E-1,-4.5320007E-1,-1.3459516E-1,-4.037855E-2,7.181838E-4,2.5827768E-1,1.6254021E-1,7.181838E-4,3.5383534E-2,-1.7917606E-1,-8.816929E-2,7.748331E-2,1.2001176E-1,1.17945105E-1,7.663205E-2,3.5383534E-2,5.6007795E-2,-6.82579E-2,-4.037855E-2],"categories":[],"categories_nodes":[],"categories_segments":[],"categories_sizes":[],"default_left":[0,0,0,0,0,0,0,0,0,0,0,0,0,0,0,0,0,0,0,0,0,0,0,0,0,0,0],"id":17,"left_children":[1,3,7,9,5,11,15,21,13,17,25,-1,-1,19,-1,-1,-1,-1,-1,-1,-1,23,-1,-1,-1,-1,-1],"loss_changes":[1.6726776E0,1.2958754E0,7.7408695E-1,6.763632E-1,1.2426612E0,3.2345656E-1,2.6088232E-1,5.086343E-2,2.9042983E-1,2.1445704E-1,4.9009323E-3,0E0,0E0,1.1590296E-1,0E0,0E0,0E0,0E0,0E0,0E0,0E0,5.4524466E-2,0E0,0E0,0E0,0E0,0E0],"parents":[2147483647,0,0,1,1,4,4,2,2,3,3,5,5,8,8,6,6,9,9,13,13,7,7,21,21,10,10],"right_children":[2,4,8,10,6,12,16,22,14,18,26,-1,-1,20,-1,-1,-1,-1,-1,-1,-1,24,-1,-1,-1,-1,-1],"split_conditions":[1E0,1E0,5E-1,1.41E2,3E-1,3E0,4.3E1,1.41E2,1.31E2,1.46E2,9E-1,-4.037855E-2,7.181838E-4,2E0,1.6254021E-1,7.181838E-4,3.5383534E-2,-1.7917606E-1,-8.816929E-2,7.748331E-2,1.2001176E-1,1.52E2,7.663205E-2,3.5383534E-2,5.6007795E-2,-6.82579E-2,-4.037855E-2],"split_indices":[5,1,9,3,9,2,0,3,3,7,9,0,0,10,0,0,0,0,0,0,0,7,0,0,0,0,0],"split_type":[0,0,0,0,0,0,0,0,0,0,0,0,0,0,0,0,0,0,0,0,0,0,0,0,0,0,0],"sum_hessian":[1.10460945E2,8.3596085E1,2.6864857E1,1.3066058E1,7.053003E1,3.254644E1,3.7983585E1,1.0795076E1,1.606978E1,9.662261E0,3.4037964E0,3.073451E1,1.8119305E0,8.445104E0,7.624677E0,2.8939264E0,3.508966E1,5.2093296E0,4.452932E0,5.527336E0,2.917767E0,8.368744E0,2.4263325E0,6.2865562E0,2.0821877E0,1.6651522E0,1.7386444E0],"tree_param":{"num_deleted":"0","num_feature":"11","num_nodes":"27","size_leaf_vector":"1"}},{"base_weights":[-3.731967E-2,-1.857447E-1,1.7563385E-1,-3.6812198E-1,-5.0345358E-2,2.1712235E-3,3.261438E-1,-4.8651612E-1,-2.0923367E-1,-5.0554276E-3,1.6415751E-1,4.9247254E-2,4.2998466E-1,-2.0923367E-1,-5.0554276E-3,2.3865314E-2,4.9247254E-2,-6.2770106E-2,-3.2143366E-2,-1.5166283E-3,2.3865314E-2,-1.04362465E-1,-6.2770106E-2,-3.2143366E-2,-1.5166283E-3,-1.64658E-1,-1.04362465E-1,9.367344E-2,1.513612E-1],"categories":[],"categories_nodes":[],"categories_segments":[],"categories_sizes":[],"default_left":[0,0,0,0,0,0,0,0,0,0,0,0,0,0,0,0,0,0,0,0,0,0,0,0,0,0,0,0,0],"id":18,"left_children":[1,3,5,7,13,9,11,25,21,19,15,-1,27,17,23,-1,-1,-1,-1,-1,-1,-1,-1,-1,-1,-1,-1,-1,-1],"loss_changes":[3.307753E0,1.5012772E0,1.1238091E0,7.798703E-1,6.3493913E-1,6.689256E-1,6.398368E-1,3.2289505E-2,1.3725376E-1,1.5182596E-1,1.6994E-1,0E0,4.3463707E-4,1.6067111E-1,1.3020425E-1,0E0,0E0,0E0,0E0,0E0,0E0,0E0,0E0,0E0,0E0,0E0,0E0,0E0,0E0],"parents":[2147483647,0,0,1,1,2,2,3,3,5,5,6,6,4,4,10,10,13,13,9,9,8,8,14,14,7,7,12,12],"right_children":[2,4,6,8,14,10,12,26,22,20,16,-1,28,18,24,-1,-1,-1,-1,-1,-1,-1,-1,-1,-1,-1,-1,-1,-1],"split_conditions":[1E0,1.56E2,2E0,1.5E0,1.23E2,1.3E0,8.5E1,2E0,1.18E2,2.97E2,5.6E1,4.9247254E-2,1.42E2,2E0,5.1E1,2.3865314E-2,4.9247254E-2,-6.2770106E-2,-3.2143366E-2,-1.5166283E-3,2.3865314E-2,-1.04362465E-1,-6.2770106E-2,-3.2143366E-2,-1.5166283E-3,-1.64658E-1,-1.04362465E-1,9.367344E-2,1.513612E-1],"split_indices":[2,4,10,9,3,9,4,10,7,4,0,0,7,6,0,0,0,0,0,0,0,0,0,0,0,0,0,0,0],"split_type":[0,0,0,0,0,0,0,0,0,0,0,0,0,0,0,0,0,0,0,0,0,0,0,0,0,0,0,0,0],"sum_hessian":[1.0261832E2,6.0546318E1,4.2072E1,2.5065434E1,3.5480885E1,2.0016926E1,2.2055073E1,1.8271296E1,6.794139E0,1.1308923E1,8.708004E0,5.058105E0,1.6996967E1,9.679695E0,2.5801191E1,4.637151E0,4.0708528E0,7.195762E0,2.4839327E0,9.925735E0,1.3831874E0,2.742394E0,4.051745E0,8.127218E0,1.7673973E1,1.1965142E1,6.306152E0,8.601302E0,8.395666E0],"tree_param":{"num_deleted":"0","num_feature":"11","num_nodes":"29","size_leaf_vector":"1"}},{"base_weights":[3.7319694E-2,8.5578713E-4,4.060925E-1,-6.786339E-2,2.0347413E-1,-1.5791093E-1,4.959276E-2,-7.2441235E-2,-1.6247725E-2,-1.6247725E-2,2.0341612E-2,6.780537E-2,2.0347413E-1,2.0347413E-1,1.6842136E-1,4.0691927E-2,6.104224E-2,2.0341612E-2,4.0691927E-2,6.104224E-2,1.1294075E-1],"categories":[],"categories_nodes":[],"categories_segments":[],"categories_sizes":[],"default_left":[0,0,0,0,0,0,0,0,0,0,0,0,0,0,0,0,0,0,0,0,0],"id":19,"left_children":[1,3,13,5,11,7,9,-1,-1,-1,-1,17,15,19,-1,-1,-1,-1,-1,-1,-1],"loss_changes":[1.392997E0,1.4494636E0,2.3696828E-1,7.8403974E-1,3.4582388E-1,6.134453E-1,4.73734E-1,0E0,0E0,0E0,0E0,4.049448E-2,6.1674714E-2,2.5261104E-2,0E0,0E0,0E0,0E0,0E0,0E0,0E0],"parents":[2147483647,0,0,1,1,3,3,5,5,6,6,4,4,2,2,12,12,11,11,13,13],"right_children":[2,4,14,6,12,8,10,-1,-1,-1,-1,18,16,20,-1,-1,-1,-1,-1,-1,-1],"split_conditions":[2.4E0,1E0,1.31E2,1E0,5E-1,2.55E2,6.2E1,-7.2441235E-2,-1.6247725E-2,-1.6247725E-2,2.0341612E-2,1.41E2,1E0,2.61E2,1.6842136E-1,4.0691927E-2,6.104224E-2,2.0341612E-2,4.0691927E-2,6.104224E-2,1.1294075E-1],"split_indices":[9,5,3,8,9,4,0,0,0,0,0,3,6,4,0,0,0,0,0,0,0],"split_type":[0,0,0,0,0,0,0,0,0,0,0,0,0,0,0,0,0,0,0,0,0],"sum_hessian":[1.0261832E2,9.429667E1,8.321645E0,7.238897E1,2.1907701E1,4.078036E1,3.160861E1,2.9386213E1,1.1394147E1,2.4657373E1,6.9512377E0,9.732707E0,1.2174994E1,4.1616945E0,4.1599507E0,1.005853E0,1.1169142E1,7.6561627E0,2.0765445E0,2.9342017E0,1.2274926E0],"tree_param":{"num_deleted":"0","num_feature":"11","num_nodes":"21","size_leaf_vector":"1"}}]},"name":"gbtree"},"learner_model_param":{"base_score":"5E-1","boost_from_average":"1","num_class":"2","num_feature":"11","num_target":"1"},"objective":{"name":"multi:softmax","softmax_multiclass_param":{"num_class":"2"}}},"version":[3,0,0]}