{"learner":{"attributes":{},"feature_names":["Age","Sex","ChestPainType","RestingBP","Cholesterol","FastingBS","RestingECG","MaxHR","ExerciseAngina","Oldpeak","ST_Slope"],"feature_types":["int","float","float","int","int","int","float","int","float","float","float"],"gradient_booster":{"model":{"gbtree_model_param":{"num_parallel_tree":"1","num_trees":"200"},"iteration_indptr":[0,2,4,6,8,10,12,14,16,18,20,22,24,26,28,30,32,34,36,38,40,42,44,46,48,50,52,54,56,58,60,62,64,66,68,70,72,74,76,78,80,82,84,86,88,90,92,94,96,98,100,102,104,106,108,110,112,114,116,118,120,122,124,126,128,130,132,134,136,138,140,142,144,146,148,150,152,154,156,158,160,162,164,166,168,170,172,174,176,178,180,182,184,186,188,190,192,194,196,198,200],"tree_info":[0,1,0,1,0,1,0,1,0,1,0,1,0,1,0,1,0,1,0,1,0,1,0,1,0,1,0,1,0,1,0,1,0,1,0,1,0,1,0,1,0,1,0,1,0,1,0,1,0,1,0,1,0,1,0,1,0,1,0,1,0,1,0,1,0,1,0,1,0,1,0,1,0,1,0,1,0,1,0,1,0,1,0,1,0,1,0,1,0,1,0,1,0,1,0,1,0,1,0,1,0,1,0,1,0,1,0,1,0,1,0,1,0,1,0,1,0,1,0,1,0,1,0,1,0,1,0,1,0,1,0,1,0,1,0,1,0,1,0,1,0,1,0,1,0,1,0,1,0,1,0,1,0,1,0,1,0,1,0,1,0,1,0,1,0,1,0,1,0,1,0,1,0,1,0,1,0,1,0,1,0,1,0,1,0,1,0,1,0,1,0,1,0,1,0,1,0,1,0,1],"trees":[{"base_weights":[-1.6376306E-1,-7.6969695E-1,6.451613E-1,-8.345864E-3,-4.7058824E-1,9.574468E-3,-3.125E-1,-7.142857E-3,-6.666667E-2,-7.142857E-3,-0E0,-5.5555557E-3,5E-3,5.5555557E-3,-3.8461538E-3],"categories":[],"categories_nodes":[],"categories_segments":[],"categories_sizes":[],"default_left":[0,0,0,0,0,0,0,0,0,0,0,0,0,0,0],"id":0,"left_children":[1,3,5,-1,7,-1,9,-1,11,-1,13,-1,-1,-1,-1],"loss_changes":[7.083378E1,1.2084961E0,1.8841154E1,0E0,1.6257703E0,0E0,2.0089285E0,0E0,2.3555555E0,0E0,2.3504272E0,0E0,0E0,0E0,0E0],"parents":[2147483647,0,0,1,1,2,2,4,4,6,6,8,8,10,10],"right_children":[2,4,6,-1,8,-1,10,-1,12,-1,14,-1,-1,-1,-1],"split_conditions":[2E0,2E0,3E-1,-8.345864E-3,1.1E0,9.574468E-3,1.28E2,-7.142857E-3,1.28E2,-7.142857E-3,1.38E2,-5.5555557E-3,5E-3,5.5555557E-3,-3.8461538E-3],"split_indices":[10,2,9,0,9,0,7,0,7,0,7,0,0,0,0],"split_type":[0,0,0,0,0,0,0,0,0,0,0,0,0,0,0],"sum_hessian":[1.425E2,8.15E1,6.1E1,6.55E1,1.6E1,4.6E1,1.5E1,9.5E0,6.5E0,6E0,9E0,3.5E0,3E0,3.5E0,5.5E0],"tree_param":{"num_deleted":"0","num_feature":"11","num_nodes":"15","size_leaf_vector":"1"}},{"base_weights":[1.6E-1,7.5438595E-1,-6.183206E-1,6.097561E-1,8.681319E-1,-9.2E-1,3.3333334E-1,8.571428E-3,4.642857E-1,3.3333334E-3,8.8505745E-3,-4.285714E-3,-9.368421E-3,-6.666667E-3,5.1724136E-1,-0E0,5E-3,-1.4285714E-3,6.666667E-3],"categories":[],"categories_nodes":[],"categories_segments":[],"categories_sizes":[],"default_left":[0,0,0,0,0,0,0,0,0,0,0,0,0,0,0,0,0,0,0],"id":1,"left_children":[1,3,5,7,9,11,13,-1,15,-1,-1,-1,-1,-1,17,-1,-1,-1,-1],"loss_changes":[6.985988E1,8.7721634E-1,1.9111347E1,1.0775261E0,1.1683273E-1,1.2329102E-2,3.3793101E0,0E0,4.6428585E-1,0E0,0E0,0E0,0E0,0E0,1.5254519E0,0E0,0E0,0E0,0E0],"parents":[2147483647,0,0,1,1,2,2,3,3,4,4,5,5,6,6,8,8,14,14],"right_children":[2,4,6,8,10,12,14,-1,16,-1,-1,-1,-1,-1,18,-1,-1,-1,-1],"split_conditions":[2E0,1.31E2,3E-1,1E-1,4.3E1,3.5E1,1E0,8.571428E-3,8E-1,3.3333334E-3,8.8505745E-3,-4.285714E-3,-9.368421E-3,-6.666667E-3,5E-1,-0E0,5E-3,-1.4285714E-3,6.666667E-3],"split_indices":[10,3,9,9,0,0,1,0,9,0,0,0,0,0,9,0,0,0,0],"split_type":[0,0,0,0,0,0,0,0,0,0,0,0,0,0,0,0,0,0,0],"sum_hessian":[1.49E2,8.45E1,6.45E1,4E1,4.45E1,4.9E1,1.55E1,1.3E1,2.7E1,2E0,4.25E1,2.5E0,4.65E1,2E0,1.35E1,2E0,2.5E1,2.5E0,1.1E1],"tree_param":{"num_deleted":"0","num_feature":"11","num_nodes":"19","size_leaf_vector":"1"}},{"base_weights":[-2.2704554E-1,-6.2708473E-1,3.4136403E-1,-3.513641E-1,-7.6370406E-1,5.9557486E-1,-4.496436E-1,-7.6094635E-2,-7.096715E-1,-8.478672E-3,-6.3034534E-1,7.026038E-1,-2.2878107E-1,-6.6097474E-1,9.3190593E-4,-2.2426543E-3,3.984476E-3,-8.681523E-3,-4.2716744E-3,-5.2884757E-3,-8.520332E-3,7.6917536E-3,9.070757E-4,2.4876192E-3,-7.091681E-3,-7.5859325E-3,-3.2969469E-3],"categories":[],"categories_nodes":[],"categories_segments":[],"categories_sizes":[],"default_left":[0,0,0,0,0,0,0,0,0,0,0,0,0,0,0,0,0,0,0,0,0,0,0,0,0,0,0],"id":2,"left_children":[1,3,5,7,9,11,13,15,17,-1,19,21,23,25,-1,-1,-1,-1,-1,-1,-1,-1,-1,-1,-1,-1,-1],"loss_changes":[3.5911457E1,3.2158127E0,1.3437866E1,3.1513128E0,1.5016937E-1,4.5719357E0,1.9543531E0,1.460379E0,2.5592232E-1,0E0,1.6814232E-1,1.7428074E0,1.667471E0,1.3794565E-1,0E0,0E0,0E0,0E0,0E0,0E0,0E0,0E0,0E0,0E0,0E0,0E0,0E0],"parents":[2147483647,0,0,1,1,2,2,3,3,4,4,5,5,6,6,7,7,8,8,10,10,11,11,12,12,13,13],"right_children":[2,4,6,8,10,12,14,16,18,-1,20,22,24,26,-1,-1,-1,-1,-1,-1,-1,-1,-1,-1,-1,-1,-1],"split_conditions":[1E0,1E0,1E0,1E0,1.25E2,1E0,1.29E2,2E0,1.34E2,-8.478672E-3,1.42E2,3E0,2E0,1E0,9.3190593E-4,-2.2426543E-3,3.984476E-3,-8.681523E-3,-4.2716744E-3,-5.2884757E-3,-8.520332E-3,7.6917536E-3,9.070757E-4,2.4876192E-3,-7.091681E-3,-7.5859325E-3,-3.2969469E-3],"split_indices":[2,8,8,5,7,5,7,6,7,0,7,2,2,5,0,0,0,0,0,0,0,0,0,0,0,0,0],"split_type":[0,0,0,0,0,0,0,0,0,0,0,0,0,0,0,0,0,0,0,0,0,0,0,0,0,0,0],"sum_hessian":[1.5599022E2,9.149442E1,6.44958E1,3.149802E1,5.9996403E1,4.8996555E1,1.5499244E1,1.8498741E1,1.2999278E1,3.3497944E1,2.649846E1,4.3496895E1,5.4996586E0,1.0999417E1,4.4998264E0,1.4498992E1,3.9997497E0,6.99956E0,5.999718E0,2.0498816E1,5.9996457E0,3.8997147E1,4.4997506E0,2.999791E0,2.4998677E0,7.499615E0,3.499802E0],"tree_param":{"num_deleted":"0","num_feature":"11","num_nodes":"27","size_leaf_vector":"1"}},{"base_weights":[1.9338807E-1,8.0788475E-1,-6.726888E-1,6.7649883E-1,8.959423E-3,-7.8550845E-1,1.762594E-1,7.5463783E-3,2.8895178E-1,-8.453021E-1,1.1320818E-3,-1.4169211E-3,3.323547E-1,4.494756E-3,-4.0061645E-5,-9.006192E-3,-5.601493E-3,4.2713443E-3,1.4261066E-3],"categories":[],"categories_nodes":[],"categories_segments":[],"categories_sizes":[],"default_left":[0,0,0,0,0,0,0,0,0,0,0,0,0,0,0,0,0,0,0],"id":3,"left_children":[1,3,5,7,-1,9,11,-1,13,15,-1,-1,17,-1,-1,-1,-1,-1,-1],"loss_changes":[8.382753E1,4.5822525E-1,6.4114513E0,1.0234718E0,0E0,3.2122307E0,4.689337E-1,0E0,4.015134E-1,3.5512543E-1,0E0,0E0,4.6984553E-2,0E0,0E0,0E0,0E0,0E0,0E0],"parents":[2147483647,0,0,1,1,2,2,3,3,5,5,6,6,8,8,9,9,12,12],"right_children":[2,4,6,8,-1,10,12,-1,14,16,-1,-1,18,-1,-1,-1,-1,-1,-1],"split_conditions":[2E0,1.31E2,1E0,6.3E1,8.959423E-3,6.6E1,5.2E1,7.5463783E-3,1.22E2,5.7E1,1.1320818E-3,-1.4169211E-3,6.1E1,4.494756E-3,-4.0061645E-5,-9.006192E-3,-5.601493E-3,4.2713443E-3,1.4261066E-3],"split_indices":[10,3,8,0,0,0,0,0,3,0,0,0,0,0,0,0,0,0,0],"split_type":[0,0,0,0,0,0,0,0,0,0,0,0,0,0,0,0,0,0,0],"sum_hessian":[1.5548978E2,9.099466E1,6.449512E1,3.9998104E1,5.099656E1,5.699551E1,7.4996037E0,3.2498413E1,7.499692E0,5.3495754E1,3.4997592E0,2.4998717E0,4.999732E0,4.4997983E0,2.9998937E0,4.299645E1,1.0499304E1,2.4998934E0,2.4998388E0],"tree_param":{"num_deleted":"0","num_feature":"11","num_nodes":"19","size_leaf_vector":"1"}},{"base_weights":[-1.4427958E-1,3.4081602E-1,-6.243256E-1,5.0663626E-1,-6.404694E-3,7.333134E-2,-6.896915E-1,2.2199867E-2,7.4020535E-1,-3.2220408E-3,4.9992385E-3,-7.6605284E-1,-4.043424E-1,3.285648E-3,-2.2695346E-3,7.936513E-3,7.412726E-6,-6.7244456E-3,-8.884986E-3,-1.7377266E-3,-7.088807E-3],"categories":[],"categories_nodes":[],"categories_segments":[],"categories_sizes":[],"default_left":[0,0,0,0,0,0,0,0,0,0,0,0,0,0,0,0,0,0,0,0,0],"id":4,"left_children":[1,3,5,7,-1,9,11,13,15,-1,-1,17,19,-1,-1,-1,-1,-1,-1,-1,-1],"loss_changes":[3.5717716E1,1.2769405E1,3.5613651E0,7.449663E0,0E0,1.4264114E0,1.2261391E0,1.7917173E0,1.7576656E0,0E0,0E0,2.7076721E-2,1.0704031E0,0E0,0E0,0E0,0E0,0E0,0E0,0E0,0E0],"parents":[2147483647,0,0,1,1,2,2,3,3,5,5,6,6,7,7,8,8,11,11,12,12],"right_children":[2,4,6,8,-1,10,12,14,16,-1,-1,18,20,-1,-1,-1,-1,-1,-1,-1,-1],"split_conditions":[5E-1,1E0,1E0,1E0,-6.404694E-3,1E0,1E0,5E1,3E0,-3.2220408E-3,4.9992385E-3,6.1E1,1.7E0,3.285648E-3,-2.2695346E-3,7.936513E-3,7.412726E-6,-6.7244456E-3,-8.884986E-3,-1.7377266E-3,-7.088807E-3],"split_indices":[9,8,1,2,0,2,2,0,2,0,0,0,9,0,0,0,0,0,0,0,0],"split_type":[0,0,0,0,0,0,0,0,0,0,0,0,0,0,0,0,0,0,0,0,0],"sum_hessian":[1.5146794E2,7.548199E1,7.598595E1,6.498444E1,1.0497545E1,6.4990544E0,6.948689E1,2.149583E1,4.3488613E1,3.4992564E0,2.999798E0,5.348842E1,1.5998475E1,9.49806E0,1.199777E1,4.048893E1,2.9996812E0,3.399298E1,1.9495436E1,9.99884E0,5.999635E0],"tree_param":{"num_deleted":"0","num_feature":"11","num_nodes":"21","size_leaf_vector":"1"}},{"base_weights":[1.6095921E-1,-3.3549002E-1,7.488967E-1,-5.1353854E-1,3.0992854E-1,2.2069022E-1,7.895703E-1,-6.0359573E-1,-2.1906318E-4,-6.8391904E-2,5.121311E-1,4.2000134E-3,-8.8950495E-5,5.231928E-1,8.51225E-1,-6.1887004E-3,-2.4647387E-3,3.7127482E-3,-7.4308137E-3,4.2264117E-3,-3.984314E-3,3.2664752E-3,7.692918E-3,5.90461E-3,1.3345617E-3,3.237896E-3,8.82612E-3],"categories":[],"categories_nodes":[],"categories_segments":[],"categories_sizes":[],"default_left":[0,0,0,0,0,0,0,0,0,0,0,0,0,0,0,0,0,0,0,0,0,0,0,0,0,0,0],"id":5,"left_children":[1,3,5,7,9,11,13,15,17,19,21,-1,-1,23,25,-1,-1,-1,-1,-1,-1,-1,-1,-1,-1,-1,-1],"loss_changes":[4.562922E1,9.925E0,1.3615303E0,3.0964184E0,1.4883534E0,3.0111957E-1,6.3835907E-1,1.5830994E-1,3.3110206E0,1.3837714E0,3.448968E-1,0E0,0E0,3.1437874E-1,5.7486725E-1,0E0,0E0,0E0,0E0,0E0,0E0,0E0,0E0,0E0,0E0,0E0,0E0],"parents":[2147483647,0,0,1,1,2,2,3,3,4,4,5,5,6,6,7,7,8,8,9,9,10,10,13,13,14,14],"right_children":[2,4,6,8,10,12,14,16,18,20,22,-1,-1,24,26,-1,-1,-1,-1,-1,-1,-1,-1,-1,-1,-1,-1],"split_conditions":[1E0,5E-1,1E0,5.9E1,5.5E1,1.39E2,6E-1,1.52E2,1E-1,4.4E1,1.41E2,4.2000134E-3,-8.8950495E-5,1E-1,4.3E1,-6.1887004E-3,-2.4647387E-3,3.7127482E-3,-7.4308137E-3,4.2264117E-3,-3.984314E-3,3.2664752E-3,7.692918E-3,5.90461E-3,1.3345617E-3,3.237896E-3,8.82612E-3],"split_indices":[8,9,1,0,0,3,9,3,9,0,3,0,0,9,0,0,0,0,0,0,0,0,0,0,0,0,0],"split_type":[0,0,0,0,0,0,0,0,0,0,0,0,0,0,0,0,0,0,0,0,0,0,0,0,0,0,0],"sum_hessian":[1.5446729E2,8.398255E1,7.048474E1,6.5984146E1,1.79984E1,5.4989243E0,6.498582E1,5.5986046E1,9.998103E0,6.4995413E0,1.14988575E1,2.4995685E0,2.9993556E0,1.3997196E1,5.098862E1,5.2986828E1,2.9992208E0,6.9984818E0,2.9996212E0,2.4997833E0,3.9997578E0,7.999341E0,3.499517E0,1.1497681E1,2.4995155E0,3.499419E0,4.7489204E1],"tree_param":{"num_deleted":"0","num_feature":"11","num_nodes":"27","size_leaf_vector":"1"}},{"base_weights":[-9.020664E-2,-7.275785E-1,7.1014935E-1,-3.7942532E-1,-7.7069306E-1,9.27106E-1,-2.5022003E-1,-5.8769345E-1,8.860461E-5,-7.950154E-3,-4.1740865E-1,4.8638344E-1,9.604509E-3,-7.856151E-3,5.7864636E-2,-7.904365E-3,-1.3008278E-3,-7.428082E-3,1.2421701E-4,7.035451E-3,1.3021425E-3,5.029136E-3,-2.2492877E-3],"categories":[],"categories_nodes":[],"categories_segments":[],"categories_sizes":[],"default_left":[0,0,0,0,0,0,0,0,0,0,0,0,0,0,0,0,0,0,0,0,0,0,0],"id":6,"left_children":[1,3,5,7,9,11,13,15,-1,-1,17,19,-1,-1,21,-1,-1,-1,-1,-1,-1,-1,-1],"loss_changes":[7.929941E1,1.0054893E0,1.4602764E1,9.349958E-1,3.2093048E-1,3.6278915E-1,2.2718263E0,5.9286666E-1,0E0,0E0,9.881141E-1,3.723303E-1,0E0,0E0,1.3086163E0,0E0,0E0,0E0,0E0,0E0,0E0,0E0,0E0],"parents":[2147483647,0,0,1,1,2,2,3,3,4,4,5,5,6,6,7,7,10,10,11,11,14,14],"right_children":[2,4,6,8,10,12,14,16,-1,-1,18,20,-1,-1,22,-1,-1,-1,-1,-1,-1,-1,-1],"split_conditions":[2E0,1E0,5E-1,1.2E0,1.51E2,8.5E1,1.28E2,2.8E2,8.860461E-5,-7.950154E-3,6E-1,1E-1,9.604509E-3,-7.856151E-3,1.38E2,-7.904365E-3,-1.3008278E-3,-7.428082E-3,1.2421701E-4,7.035451E-3,1.3021425E-3,5.029136E-3,-2.2492877E-3],"split_indices":[10,1,9,9,7,4,7,4,0,0,9,9,0,0,7,0,0,0,0,0,0,0,0],"split_type":[0,0,0,0,0,0,0,0,0,0,0,0,0,0,0,0,0,0,0,0,0,0,0],"sum_hessian":[1.5343822E2,8.546678E1,6.7971436E1,1.0497673E1,7.496911E1,5.5473972E1,1.2497464E1,6.498473E0,3.9992003E0,6.897039E1,5.9987197E0,4.998241E0,5.047573E1,3.99861E0,8.498855E0,3.9992878E0,2.4991853E0,2.999688E0,2.999032E0,2.4991562E0,2.4990845E0,2.999688E0,5.4991665E0],"tree_param":{"num_deleted":"0","num_feature":"11","num_nodes":"23","size_leaf_vector":"1"}},{"base_weights":[2.009391E-1,-1.3108326E-1,5.542063E-1,-2.4003518E-1,5.5764073E-1,5.906344E-1,-2.5361865E-3,1.2077391E-1,-4.1361937E-1,7.2001717E-3,2.025561E-3,4.5357183E-1,7.796847E-1,-4.4459584E-3,2.7405068E-3,-3.003621E-3,-7.330869E-3,-1.4677442E-3,4.9234675E-3,8.912146E-3,3.6858558E-3],"categories":[],"categories_nodes":[],"categories_segments":[],"categories_sizes":[],"default_left":[0,0,0,0,0,0,0,0,0,0,0,0,0,0,0,0,0,0,0,0,0],"id":7,"left_children":[1,3,5,7,9,11,-1,13,15,-1,-1,17,19,-1,-1,-1,-1,-1,-1,-1,-1],"loss_changes":[1.8538723E1,6.284481E0,2.4000874E0,4.526208E0,5.170162E-1,1.5500832E0,0E0,2.2007165E0,1.5339537E0,0E0,0E0,1.1193705E0,1.023529E0,0E0,0E0,0E0,0E0,0E0,0E0,0E0,0E0],"parents":[2147483647,0,0,1,1,2,2,3,3,4,4,5,5,7,7,8,8,11,11,12,12],"right_children":[2,4,6,8,10,12,-1,14,16,-1,-1,18,20,-1,-1,-1,-1,-1,-1,-1,-1],"split_conditions":[5.5E1,1E0,1.58E2,1.29E2,1.39E2,1E0,-2.5361865E-3,1E0,1.68E2,7.2001717E-3,2.025561E-3,1E0,1.33E2,-4.4459584E-3,2.7405068E-3,-3.003621E-3,-7.330869E-3,-1.4677442E-3,4.9234675E-3,8.912146E-3,3.6858558E-3],"split_indices":[0,5,7,7,7,5,0,1,7,0,0,1,7,0,0,0,0,0,0,0,0],"split_type":[0,0,0,0,0,0,0,0,0,0,0,0,0,0,0,0,0,0,0,0,0],"sum_hessian":[1.5643597E2,8.0967064E1,7.546891E1,7.0470535E1,1.0496528E1,7.246981E1,2.999094E0,2.29894E1,4.7481133E1,6.4975376E0,3.9989896E0,4.39819E1,2.8487915E1,4.49793E0,1.849147E1,3.648626E1,1.0994872E1,2.4993625E0,4.1482536E1,2.1489887E1,6.9980264E0],"tree_param":{"num_deleted":"0","num_feature":"11","num_nodes":"21","size_leaf_vector":"1"}},{"base_weights":[-1.8517655E-1,2.7454615E-1,-6.543846E-1,-1.5873763E-1,5.7760304E-1,-8.3454627E-1,-3.0620852E-1,-3.6717182E-1,1.7719615E-1,-5.384088E-3,6.7980003E-1,-2.3567E-3,-8.6741406E-1,5.548306E-3,-4.5190752E-1,-1.9120502E-3,-6.9184136E-3,7.001102E-3,-3.3441274E-3,7.4884193E-3,-1.2903033E-5,-9.010763E-3,-5.164291E-3,-2.3449126E-3,-7.705193E-3],"categories":[],"categories_nodes":[],"categories_segments":[],"categories_sizes":[],"default_left":[0,0,0,0,0,0,0,0,0,0,0,0,0,0,0,0,0,0,0,0,0,0,0,0,0],"id":8,"left_children":[1,3,5,7,9,11,13,15,17,-1,19,-1,21,-1,23,-1,-1,-1,-1,-1,-1,-1,-1,-1,-1],"loss_changes":[3.3807636E1,1.0524131E1,4.6026382E0,2.4095755E0,5.722595E0,7.887993E-1,3.7620537E0,1.0668063E0,3.844419E0,0E0,2.044981E0,0E0,9.540558E-2,0E0,1.5157518E0,0E0,0E0,0E0,0E0,0E0,0E0,0E0,0E0,0E0,0E0],"parents":[2147483647,0,0,1,1,2,2,3,3,4,4,5,5,6,6,7,7,8,8,10,10,12,12,14,14],"right_children":[2,4,6,8,10,12,14,16,18,-1,20,-1,22,-1,24,-1,-1,-1,-1,-1,-1,-1,-1,-1,-1],"split_conditions":[5E-1,1E0,1.31E2,1.31E2,9.9E1,9E-1,1E0,1E0,1.45E2,-5.384088E-3,3E0,-2.3567E-3,2E0,5.548306E-3,1E0,-1.9120502E-3,-6.9184136E-3,7.001102E-3,-3.3441274E-3,7.4884193E-3,-1.2903033E-5,-9.010763E-3,-5.164291E-3,-2.3449126E-3,-7.705193E-3],"split_indices":[9,2,7,7,7,9,1,5,7,0,2,0,2,0,5,0,0,0,0,0,0,0,0,0,0],"split_type":[0,0,0,0,0,0,0,0,0,0,0,0,0,0,0,0,0,0,0,0,0,0,0,0,0],"sum_hessian":[1.5489757E2,7.844917E1,7.6448395E1,3.2483444E1,4.5965725E1,4.945915E1,2.6989244E1,1.9988405E1,1.2495039E1,3.4980423E0,4.246768E1,2.9982893E0,4.6460857E1,3.4995937E0,2.348965E1,1.3993194E1,5.9952126E0,5.9970365E0,6.4980025E0,3.846865E1,3.9990306E0,4.0964733E1,5.496124E0,1.499396E1,8.495691E0],"tree_param":{"num_deleted":"0","num_feature":"11","num_nodes":"25","size_leaf_vector":"1"}},{"base_weights":[1.3573448E-1,5.251822E-1,-4.2623502E-1,1.3368851E-1,7.26854E-1,-6.339414E-1,2.3626314E-1,7.2564664E-3,-3.8345835E-1,6.0565364E-1,9.259934E-3,-8.981402E-3,-3.0907005E-1,5.5585563E-1,-1.10707395E-2,-6.3794653E-4,-5.585911E-3,1.8371185E-3,6.468673E-3,3.2340833E-3,-4.975274E-3,1.2608615E-3,7.665168E-3,-4.576749E-3,4.3775407E-3],"categories":[],"categories_nodes":[],"categories_segments":[],"categories_sizes":[],"default_left":[0,0,0,0,0,0,0,0,0,0,0,0,0,0,0,0,0,0,0,0,0,0,0,0,0],"id":9,"left_children":[1,3,5,7,9,11,13,-1,15,17,-1,-1,19,21,23,-1,-1,-1,-1,-1,-1,-1,-1,-1,-1],"loss_changes":[3.4124546E1,7.1618805E0,8.950613E0,1.0222767E1,8.983288E-1,3.9249344E0,1.2704349E0,0E0,9.71632E-1,5.849838E-1,0E0,0E0,2.9601605E0,5.368643E-1,2.2041938E0,0E0,0E0,0E0,0E0,0E0,0E0,0E0,0E0,0E0,0E0],"parents":[2147483647,0,0,1,1,2,2,3,3,4,4,5,5,6,6,8,8,9,9,12,12,13,13,14,14],"right_children":[2,4,6,8,10,12,14,-1,16,18,-1,-1,20,22,24,-1,-1,-1,-1,-1,-1,-1,-1,-1,-1],"split_conditions":[1E0,4E-1,8E-1,8.5E1,1E0,2E0,1.61E2,7.2564664E-3,1.23E2,9E-1,9.259934E-3,-8.981402E-3,8.5E1,1.7E0,1.31E2,-6.3794653E-4,-5.585911E-3,1.8371185E-3,6.468673E-3,3.2340833E-3,-4.975274E-3,1.2608615E-3,7.665168E-3,-4.576749E-3,4.3775407E-3],"split_indices":[2,9,9,4,5,2,4,0,3,9,0,0,4,9,3,0,0,0,0,0,0,0,0,0,0],"split_type":[0,0,0,0,0,0,0,0,0,0,0,0,0,0,0,0,0,0,0,0,0,0,0,0,0],"sum_hessian":[1.5389833E2,9.0941124E1,6.29572E1,3.1484678E1,5.9456448E1,4.796296E1,1.4994238E1,1.4492497E1,1.699218E1,3.9473442E1,1.9983006E1,2.5478325E1,2.2484634E1,5.99736E0,8.996879E0,6.497248E0,1.0494932E1,3.9981587E0,3.5475285E1,4.9972777E0,1.7487356E1,2.4985664E0,3.4987936E0,4.4997115E0,4.497167E0],"tree_param":{"num_deleted":"0","num_feature":"11","num_nodes":"25","size_leaf_vector":"1"}},{"base_weights":[-1.7018333E-1,2.6727584E-1,-6.8850336E-3,4.8173627E-1,-4.7225127E-1,5.356588E-1,-4.876094E-3,-1.9949017E-1,-5.9329534E-1,6.276965E-3,2.7078197E-3,-2.454474E-5,-3.302239E-3,-3.9475486E-3,-7.922127E-3],"categories":[],"categories_nodes":[],"categories_segments":[],"categories_sizes":[],"default_left":[0,0,0,0,0,0,0,0,0,0,0,0,0,0,0],"id":10,"left_children":[1,3,-1,5,7,9,-1,11,13,-1,-1,-1,-1,-1,-1],"loss_changes":[3.5181473E1,1.3616993E1,0E0,3.7078314E0,5.2492E-1,1.36446E0,0E0,1.922622E-1,2.0022392E-1,0E0,0E0,0E0,0E0,0E0,0E0],"parents":[2147483647,0,0,1,1,3,3,4,4,5,5,7,7,8,8],"right_children":[2,4,-1,6,8,10,-1,12,14,-1,-1,-1,-1,-1,-1],"split_conditions":[1E0,1E0,-6.8850336E-3,6.7E1,5.6E1,5.5E1,-4.876094E-3,1.22E2,1.41E2,6.276965E-3,2.7078197E-3,-2.454474E-5,-3.302239E-3,-3.9475486E-3,-7.922127E-3],"split_indices":[8,5,0,0,0,0,0,3,3,0,0,0,0,0,0],"split_type":[0,0,0,0,0,0,0,0,0,0,0,0,0,0,0],"sum_hessian":[1.5334795E2,8.342341E1,6.992454E1,6.49397E1,1.8483711E1,6.1941437E1,2.9982617E0,6.4952884E0,1.1988422E1,4.4952026E1,1.6989408E1,2.9970503E0,3.498238E0,7.4935675E0,4.4948545E0],"tree_param":{"num_deleted":"0","num_feature":"11","num_nodes":"15","size_leaf_vector":"1"}},{"base_weights":[1.8141018E-1,7.7824765E-1,-6.732914E-1,8.311092E-3,5.6266177E-1,-8.8009185E-1,3.738767E-1,8.185244E-3,2.1651769E-1,-9.102447E-3,-4.8220023E-3,-1.0002743E-2,7.946227E-3,3.5388288E-3,-1.5928672E-3,4.172522E-3,-3.4008494E-3],"categories":[],"categories_nodes":[],"categories_segments":[],"categories_sizes":[],"default_left":[0,0,0,0,0,0,0,0,0,0,0,0,0,0,0,0,0],"id":11,"left_children":[1,3,5,-1,7,9,11,-1,13,-1,-1,15,-1,-1,-1,-1,-1],"loss_changes":[8.1042175E1,5.9682846E-1,1.4499758E1,0E0,1.7259517E0,2.2026825E-1,1.8643324E0,0E0,5.980338E-1,0E0,0E0,1.1287721E0,0E0,0E0,0E0,0E0,0E0],"parents":[2147483647,0,0,1,1,2,2,4,4,5,5,6,6,8,8,11,11],"right_children":[2,4,6,-1,8,10,12,-1,14,-1,-1,16,-1,-1,-1,-1,-1],"split_conditions":[2E0,1.39E2,4E-1,8.311092E-3,1.3E0,2E-1,1E0,8.185244E-3,1.51E2,-9.102447E-3,-4.8220023E-3,1.1E0,7.946227E-3,3.5388288E-3,-1.5928672E-3,4.172522E-3,-3.4008494E-3],"split_indices":[10,7,9,0,9,9,5,0,7,0,0,9,0,0,0,0,0],"split_type":[0,0,0,0,0,0,0,0,0,0,0,0,0,0,0,0,0],"sum_hessian":[1.568423E2,9.2405235E1,6.443706E1,7.191628E1,2.0488955E1,5.3943542E1,1.0493515E1,1.099614E1,9.492815E0,4.8946625E1,4.996919E0,5.9976325E0,4.495882E0,6.9944973E0,2.4983182E0,2.4989421E0,3.4986904E0],"tree_param":{"num_deleted":"0","num_feature":"11","num_nodes":"17","size_leaf_vector":"1"}},{"base_weights":[-1.4647435E-1,-5.344681E-1,3.788852E-1,-3.445836E-1,-9.2565585E-3,-2.0445506E-1,5.6207705E-1,-5.139248E-1,6.295424E-3,-4.3492496E-1,2.1700406E-1,6.991529E-1,6.5561277E-3,-7.1147573E-3,-3.8143839E-3,2.5155565E-3,-1.3434438E-3,-1.259633E-3,-7.8042396E-3,4.1654366E-3,-1.1814106E-4,-3.964274E-6,7.551515E-3,2.4849272E-3,-4.7899135E-3],"categories":[],"categories_nodes":[],"categories_segments":[],"categories_sizes":[],"default_left":[0,0,0,0,0,0,0,0,0,0,0,0,0,0,0,0,0,0,0,0,0,0,0,0,0],"id":12,"left_children":[1,3,5,7,-1,9,11,13,15,17,19,21,23,-1,-1,-1,-1,-1,-1,-1,-1,-1,-1,-1,-1],"loss_changes":[3.1549446E1,6.282469E0,7.158619E0,3.6528816E0,0E0,1.6957004E0,3.8353958E0,8.132372E-1,7.5754136E-1,1.0748937E0,3.0147952E-1,1.5843945E0,1.410024E0,0E0,0E0,0E0,0E0,0E0,0E0,0E0,0E0,0E0,0E0,0E0,0E0],"parents":[2147483647,0,0,1,1,2,2,3,3,5,5,6,6,7,7,8,8,9,9,10,10,11,11,12,12],"right_children":[2,4,6,8,-1,10,12,14,16,18,20,22,24,-1,-1,-1,-1,-1,-1,-1,-1,-1,-1,-1,-1],"split_conditions":[1E0,1E0,1.61E2,1.31E2,-9.2565585E-3,1.29E2,1E0,1.61E2,1.81E2,1.21E2,1.48E2,1.09E2,2.61E2,-7.1147573E-3,-3.8143839E-3,2.5155565E-3,-1.3434438E-3,-1.259633E-3,-7.8042396E-3,4.1654366E-3,-1.1814106E-4,-3.964274E-6,7.551515E-3,2.4849272E-3,-4.7899135E-3],"split_indices":[2,5,4,7,0,7,5,4,4,7,7,7,4,0,0,0,0,0,0,0,0,0,0,0,0],"split_type":[0,0,0,0,0,0,0,0,0,0,0,0,0,0,0,0,0,0,0,0,0,0,0,0,0],"sum_hessian":[1.5278496E2,8.787172E1,6.491324E1,6.0422966E1,2.7448751E1,1.5485737E1,4.94275E1,4.044077E1,1.9982197E1,9.990564E0,5.495172E0,3.9437637E1,9.989865E0,1.4479762E1,2.5961008E1,6.9950147E0,1.2987181E1,5.9945426E0,3.996022E0,2.497141E0,2.9980311E0,2.996573E0,3.6441067E1,6.9934297E0,2.9964354E0],"tree_param":{"num_deleted":"0","num_feature":"11","num_nodes":"25","size_leaf_vector":"1"}},{"base_weights":[2.3746154E-1,7.7413917E-1,-6.439843E-1,3.547098E-1,8.038277E-3,-3.0925596E-1,-8.077355E-3,1.276738E-3,4.3465975E-3,-1.8037236E-6,-3.8416216E-1,-5.6167594E-3,-1.2530104E-3],"categories":[],"categories_nodes":[],"categories_segments":[],"categories_sizes":[],"default_left":[0,0,0,0,0,0,0,0,0,0,0,0,0],"id":13,"left_children":[1,3,5,7,-1,9,-1,-1,-1,-1,11,-1,-1],"loss_changes":[7.159225E1,8.837204E-1,2.8975677E0,8.962202E-2,0E0,4.741522E-1,0E0,0E0,0E0,0E0,6.872206E-1,0E0,0E0],"parents":[2147483647,0,0,1,1,2,2,3,3,5,5,10,10],"right_children":[2,4,6,8,-1,10,-1,-1,-1,-1,12,-1,-1],"split_conditions":[2E0,1E0,1E0,1.31E2,8.038277E-3,1.2E2,-8.077355E-3,1.276738E-3,4.3465975E-3,-1.8037236E-6,1.37E2,-5.6167594E-3,-1.2530104E-3],"split_indices":[10,1,2,3,0,3,0,0,0,0,3,0,0],"split_type":[0,0,0,0,0,0,0,0,0,0,0,0,0],"sum_hessian":[1.4928723E2,9.286633E1,5.6420906E1,6.9947453E0,8.587159E1,1.9483242E1,3.6937664E1,2.4980083E0,4.496737E0,3.9962888E0,1.5486953E1,8.4930525E0,6.9939E0],"tree_param":{"num_deleted":"0","num_feature":"11","num_nodes":"13","size_leaf_vector":"1"}},{"base_weights":[-2.2894646E-1,-7.396237E-1,5.876005E-1,-8.078609E-1,-5.213682E-1,2.6708984E-1,7.4355483E-1,-4.714506E-1,-8.359944E-3,-2.9158503E-1,-7.376679E-1,-4.2067594E-3,3.768758E-1,7.790536E-3,1.3590431E-3,-6.9212327E-3,-2.451854E-3,-3.959377E-3,1.4926816E-3,-8.639331E-3,-3.0712297E-3,-1.96308E-3,5.3743385E-3],"categories":[],"categories_nodes":[],"categories_segments":[],"categories_sizes":[],"default_left":[0,0,0,0,0,0,0,0,0,0,0,0,0,0,0,0,0,0,0,0,0,0,0],"id":14,"left_children":[1,3,5,7,9,11,13,15,-1,17,19,-1,21,-1,-1,-1,-1,-1,-1,-1,-1,-1,-1],"loss_changes":[6.7446976E1,1.0578766E0,2.9200459E0,3.047104E-1,1.1007304E0,1.8183594E0,7.8735924E-1,2.2933257E-1,0E0,7.2573256E-1,4.4049025E-1,0E0,1.8985829E0,0E0,0E0,0E0,0E0,0E0,0E0,0E0,0E0,0E0,0E0],"parents":[2147483647,0,0,1,1,2,2,3,3,4,4,5,5,6,6,7,7,9,9,10,10,12,12],"right_children":[2,4,6,8,10,12,14,16,-1,18,20,-1,22,-1,-1,-1,-1,-1,-1,-1,-1,-1,-1],"split_conditions":[2E0,1E0,1E0,1E0,1.31E2,9.9E1,3E0,1.22E2,-8.359944E-3,1.51E2,1.58E2,-4.2067594E-3,1.2E2,7.790536E-3,1.3590431E-3,-6.9212327E-3,-2.451854E-3,-3.959377E-3,1.4926816E-3,-8.639331E-3,-3.0712297E-3,-1.96308E-3,5.3743385E-3],"split_indices":[10,2,2,1,3,7,2,3,0,7,3,0,3,0,0,0,0,0,0,0,0,0,0],"split_type":[0,0,0,0,0,0,0,0,0,0,0,0,0,0,0,0,0,0,0,0,0,0,0],"sum_hessian":[1.5970421E2,9.831264E1,6.1391575E1,7.28384E1,2.547424E1,2.0982286E1,4.040929E1,6.9917226E0,6.584668E1,1.3490665E1,1.1983574E1,2.4984837E0,1.8483803E1,3.791238E1,2.4969103E0,2.4972715E0,4.494451E0,1.0990928E1,2.4997375E0,8.487774E0,3.4958005E0,3.9959192E0,1.4487883E1],"tree_param":{"num_deleted":"0","num_feature":"11","num_nodes":"23","size_leaf_vector":"1"}},{"base_weights":[1.769661E-1,7.589681E-1,-6.52605E-1,7.824962E-1,2.5789125E-3,1.2533018E-1,-8.107355E-1,8.159084E-3,5.722797E-1,4.1671884E-3,-2.6844454E-3,-5.417954E-1,-8.81328E-3,-1.6106578E-3,7.319046E-3,-1.4112706E-3,-6.199759E-3],"categories":[],"categories_nodes":[],"categories_segments":[],"categories_sizes":[],"default_left":[0,0,0,0,0,0,0,0,0,0,0,0,0,0,0,0,0],"id":15,"left_children":[1,3,5,7,-1,9,11,-1,13,-1,-1,15,-1,-1,-1,-1,-1],"loss_changes":[7.350226E1,8.51326E-1,7.837242E0,1.2891006E-1,0E0,1.4301399E0,5.172119E-1,0E0,1.8717971E0,0E0,0E0,3.3504248E-1,0E0,0E0,0E0,0E0,0E0],"parents":[2147483647,0,0,1,1,2,2,3,3,5,5,6,6,8,8,11,11],"right_children":[2,4,6,8,-1,10,12,-1,14,-1,-1,16,-1,-1,-1,-1,-1],"split_conditions":[2E0,1.59E2,8.5E1,1.41E2,2.5789125E-3,1.28E2,1E0,8.159084E-3,1.43E2,4.1671884E-3,-2.6844454E-3,1.21E2,-8.81328E-3,-1.6106578E-3,7.319046E-3,-1.4112706E-3,-6.199759E-3],"split_indices":[10,7,4,7,0,7,2,0,7,0,0,7,0,0,0,0,0],"split_type":[0,0,0,0,0,0,0,0,0,0,0,0,0,0,0,0,0],"sum_hessian":[1.5021196E2,8.8328476E1,6.188348E1,8.3830574E1,4.497901E0,1.04890785E1,5.1394398E1,6.984758E1,1.3982995E1,5.9947596E0,4.494319E0,1.2489064E1,3.8905334E1,2.4979477E0,1.1485048E1,2.4970512E0,9.992013E0],"tree_param":{"num_deleted":"0","num_feature":"11","num_nodes":"17","size_leaf_vector":"1"}},{"base_weights":[-1.770579E-1,-7.650789E-1,6.4501786E-1,-8.2267183E-1,-5.749149E-1,-3.526509E-1,8.528602E-3,-5.044928E-1,-8.416972E-3,-3.0867973E-1,-6.2478534E-3,-4.525712E-3,-1.6903107E-3,-7.189181E-3,-1.1521889E-3,1.6501069E-3,-6.940528E-3],"categories":[],"categories_nodes":[],"categories_segments":[],"categories_sizes":[],"default_left":[0,0,0,0,0,0,0,0,0,0,0,0,0,0,0,0,0],"id":16,"left_children":[1,3,5,7,9,11,-1,13,-1,15,-1,-1,-1,-1,-1,-1,-1],"loss_changes":[7.909577E1,5.702667E-1,1.4473572E1,3.8986206E-3,1.4522171E-1,1.526897E-1,0E0,4.5890498E-1,0E0,1.2086599E0,0E0,0E0,0E0,0E0,0E0,0E0,0E0],"parents":[2147483647,0,0,1,1,2,2,3,3,4,4,5,5,7,7,9,9],"right_children":[2,4,6,8,10,12,-1,14,-1,16,-1,-1,-1,-1,-1,-1,-1],"split_conditions":[2E0,1E0,8.5E1,1E0,2E0,2E0,8.528602E-3,8.5E1,-8.416972E-3,2.25E2,-6.2478534E-3,-4.525712E-3,-1.6903107E-3,-7.189181E-3,-1.1521889E-3,1.6501069E-3,-6.940528E-3],"split_indices":[10,2,4,1,2,6,0,4,0,4,0,0,0,0,0,0,0],"split_type":[0,0,0,0,0,0,0,0,0,0,0,0,0,0,0,0,0],"sum_hessian":[1.6160371E2,9.4254166E1,6.734955E1,6.9791145E1,2.4463022E1,1.1491623E1,5.585792E1,5.490197E0,6.430095E1,4.993692E0,1.946933E1,6.493397E0,4.998225E0,2.9941173E0,2.4960797E0,2.4966683E0,2.4970236E0],"tree_param":{"num_deleted":"0","num_feature":"11","num_nodes":"17","size_leaf_vector":"1"}},{"base_weights":[1.5302908E-1,7.923406E-1,-7.1534383E-1,6.849623E-1,8.70239E-1,-8.119469E-1,1.836765E-1,7.3308586E-3,1.6287238E-3,3.9967913E-3,8.864228E-3,-8.835251E-1,8.227734E-3,3.2028079E-3,-1.5998917E-4,-9.132141E-3,-5.1026773E-3,-4.0850574E-3,4.224315E-3],"categories":[],"categories_nodes":[],"categories_segments":[],"categories_sizes":[],"default_left":[0,0,0,0,0,0,0,0,0,0,0,0,0,0,0,0,0,0,0],"id":17,"left_children":[1,3,5,7,9,11,13,-1,-1,-1,-1,15,17,-1,-1,-1,-1,-1,-1],"loss_changes":[8.9991425E1,1.8391418E-1,6.1267776E0,9.836674E-1,2.9129028E-2,3.6667366E0,2.0952904E-1,0E0,0E0,0E0,0E0,1.6944122E-1,1.2072387E0,0E0,0E0,0E0,0E0,0E0,0E0],"parents":[2147483647,0,0,1,1,2,2,3,3,4,4,5,5,6,6,11,11,12,12],"right_children":[2,4,6,8,10,12,14,-1,-1,-1,-1,16,18,-1,-1,-1,-1,-1,-1],"split_conditions":[2E0,1.31E2,1E0,6.4E1,4.2E1,6.3E1,5.8E1,7.3308586E-3,1.6287238E-3,3.9967913E-3,8.864228E-3,1E0,1.39E2,3.2028079E-3,-1.5998917E-4,-9.132141E-3,-5.1026773E-3,-4.0850574E-3,4.224315E-3],"split_indices":[10,3,8,0,0,0,0,0,0,0,0,5,3,0,0,0,0,0,0],"split_type":[0,0,0,0,0,0,0,0,0,0,0,0,0,0,0,0,0,0,0],"sum_hessian":[1.600788E2,9.225016E1,6.782864E1,4.2903397E1,4.9346764E1,6.1334835E1,6.493806E0,3.89125E1,3.9908965E0,2.4951103E0,4.685165E1,5.6340645E1,4.994191E0,3.497232E0,2.9965742E0,5.0849453E1,5.4911914E0,2.4963505E0,2.4978404E0],"tree_param":{"num_deleted":"0","num_feature":"11","num_nodes":"19","size_leaf_vector":"1"}},{"base_weights":[-1.24715984E-1,-6.857237E-1,6.250481E-1,-7.1517974E-1,-2.0726813E-1,-2.9888028E-1,8.056491E-1,-6.101404E-1,-9.032384E-3,-4.790738E-3,1.6267019E-3,5.5250928E-2,-7.704278E-3,8.522299E-1,-5.6860856E-5,-6.6940743E-3,-3.7426688E-3,-2.4879437E-3,3.1345082E-3,8.67208E-3,3.9418517E-3],"categories":[],"categories_nodes":[],"categories_segments":[],"categories_sizes":[],"default_left":[0,0,0,0,0,0,0,0,0,0,0,0,0,0,0,0,0,0,0,0,0],"id":18,"left_children":[1,3,5,7,9,11,13,15,-1,-1,-1,17,-1,19,-1,-1,-1,-1,-1,-1,-1],"loss_changes":[6.45702E1,1.0877914E0,1.1218552E1,1.0727997E0,7.3094416E-1,1.9607071E0,2.094883E0,5.2991486E-1,0E0,0E0,0E0,6.662268E-1,0E0,1.7017365E-2,0E0,0E0,0E0,0E0,0E0,0E0,0E0],"parents":[2147483647,0,0,1,1,2,2,3,3,4,4,5,5,6,6,7,7,11,11,13,13],"right_children":[2,4,6,8,10,12,14,16,-1,-1,-1,18,-1,20,-1,-1,-1,-1,-1,-1,-1],"split_conditions":[2E0,1.58E2,8.5E1,1E0,5.2E1,1E0,6.3E1,1.39E2,-9.032384E-3,-4.790738E-3,1.6267019E-3,1.22E2,-7.704278E-3,3.22E2,-5.6860856E-5,-6.6940743E-3,-3.7426688E-3,-2.4879437E-3,3.1345082E-3,8.67208E-3,3.9418517E-3],"split_indices":[10,7,4,5,0,5,0,7,0,0,0,7,0,4,0,0,0,0,0,0,0],"split_type":[0,0,0,0,0,0,0,0,0,0,0,0,0,0,0,0,0,0,0,0,0],"sum_hessian":[1.5149171E2,8.6702415E1,6.47893E1,8.120809E1,5.494324E0,1.0486577E1,5.430272E1,5.4828373E1,2.637972E1,2.9971848E0,2.4971392E0,6.493102E0,3.9934752E0,5.1306667E1,2.9960508E0,4.2349407E1,1.2478968E1,2.9985561E0,3.494546E0,4.8817055E1,2.4896135E0],"tree_param":{"num_deleted":"0","num_feature":"11","num_nodes":"21","size_leaf_vector":"1"}},{"base_weights":[1.9257638E-1,-2.4341288E-1,6.0953003E-1,6.100229E-1,-5.915904E-1,6.86767E-2,6.870727E-1,4.5845346E-3,8.275235E-3,-6.450037E-1,-1.376179E-1,3.5152215E-1,-2.77943E-3,5.041036E-1,7.705014E-1,-7.2356784E-3,-4.8484607E-3,1.0635706E-3,-4.117604E-3,4.732879E-3,1.1174207E-3,7.7839973E-3,2.4275992E-3,4.8261904E-3,9.103176E-3],"categories":[],"categories_nodes":[],"categories_segments":[],"categories_sizes":[],"default_left":[0,0,0,0,0,0,0,0,0,0,0,0,0,0,0,0,0,0,0,0,0,0,0,0,0],"id":19,"left_children":[1,3,5,7,9,11,13,-1,-1,15,17,19,-1,21,23,-1,-1,-1,-1,-1,-1,-1,-1,-1,-1],"loss_changes":[2.8053005E1,2.2870523E1,3.2554855E0,3.6046028E-1,1.2281628E0,1.1747341E0,6.6125107E-1,0E0,0E0,2.5719452E-1,5.1121557E-1,1.3662809E-1,0E0,1.5621114E0,1.3854752E0,0E0,0E0,0E0,0E0,0E0,0E0,0E0,0E0,0E0,0E0],"parents":[2147483647,0,0,1,1,2,2,3,3,4,4,5,5,6,6,9,9,10,10,11,11,13,13,14,14],"right_children":[2,4,6,8,10,12,14,-1,-1,16,18,20,-1,22,24,-1,-1,-1,-1,-1,-1,-1,-1,-1,-1],"split_conditions":[4E-1,1.29E2,1E0,1E0,1E0,1.6E0,1.1E0,4.5845346E-3,8.275235E-3,2.52E2,2.21E2,2.47E2,-2.77943E-3,1.77E2,1.72E2,-7.2356784E-3,-4.8484607E-3,1.0635706E-3,-4.117604E-3,4.732879E-3,1.1174207E-3,7.7839973E-3,2.4275992E-3,4.8261904E-3,9.103176E-3],"split_indices":[9,4,1,5,5,9,9,0,0,4,4,4,0,4,4,0,0,0,0,0,0,0,0,0,0],"split_type":[0,0,0,0,0,0,0,0,0,0,0,0,0,0,0,0,0,0,0,0,0,0,0,0,0],"sum_hessian":[1.5250154E2,7.47525E1,7.774904E1,2.1442253E1,5.331025E1,9.985649E0,6.776339E1,1.4467869E1,6.974384E0,4.7321693E1,5.9885545E0,5.4908843E0,4.494765E0,2.3427162E1,4.433623E1,2.9387856E1,1.793384E1,3.4924567E0,2.4960978E0,2.9957387E0,2.4951456E0,1.0465025E1,1.2962136E1,1.594899E1,2.8387241E1],"tree_param":{"num_deleted":"0","num_feature":"11","num_nodes":"25","size_leaf_vector":"1"}},{"base_weights":[-1.5690342E-1,-7.435857E-1,6.706309E-1,-9.163915E-3,-6.54824E-1,8.6681056E-1,-3.5038048E-1,-3.6588138E-1,-7.4551743E-1,8.992438E-1,3.1130859E-3,-7.845865E-3,7.0627496E-2,1.578331E-3,-4.673289E-3,-4.4133067E-3,-7.711426E-3,9.171927E-3,3.9651776E-3,-1.5226607E-3,2.479975E-3],"categories":[],"categories_nodes":[],"categories_segments":[],"categories_sizes":[],"default_left":[0,0,0,0,0,0,0,0,0,0,0,0,0,0,0,0,0,0,0,0,0],"id":20,"left_children":[1,3,5,-1,7,9,11,13,15,17,-1,-1,19,-1,-1,-1,-1,-1,-1,-1,-1],"loss_changes":[7.448585E1,7.749977E-1,1.30721035E1,0E0,1.3710766E0,6.8862915E-1,2.063757E0,9.74288E-1,2.4316788E-2,8.987045E-2,0E0,0E0,2.9455262E-1,0E0,0E0,0E0,0E0,0E0,0E0,0E0,0E0],"parents":[2147483647,0,0,1,1,2,2,4,4,5,5,6,6,7,7,8,8,9,9,12,12],"right_children":[2,4,6,-1,8,10,12,14,16,18,-1,-1,20,-1,-1,-1,-1,-1,-1,-1,-1],"split_conditions":[2E0,2E-1,5E-1,-9.163915E-3,1E0,6.3E1,1.28E2,4.8E1,1E2,3E-1,3.1130859E-3,-7.845865E-3,5.3E1,1.578331E-3,-4.673289E-3,-4.4133067E-3,-7.711426E-3,9.171927E-3,3.9651776E-3,-1.5226607E-3,2.479975E-3],"split_indices":[10,9,9,0,8,0,7,0,7,9,0,0,0,0,0,0,0,0,0,0,0],"split_type":[0,0,0,0,0,0,0,0,0,0,0,0,0,0,0,0,0,0,0,0,0],"sum_hessian":[1.5139388E2,8.864807E1,6.27458E1,2.6918182E1,6.1729885E1,5.275949E1,9.986311E0,1.5949666E1,4.578022E1,4.926437E1,3.4951196E0,4.4909678E0,5.4953437E0,2.498023E0,1.3451643E1,4.97278E0,4.0807438E1,4.677009E1,2.4942827E0,2.497887E0,2.9974568E0],"tree_param":{"num_deleted":"0","num_feature":"11","num_nodes":"21","size_leaf_vector":"1"}},{"base_weights":[1.9299224E-1,7.504057E-1,-5.9019125E-1,8.453294E-3,3.8200662E-1,-8.589773E-1,4.448177E-1,6.7817387E-3,1.9307265E-1,-8.9511415E-3,-2.3930238E-3,6.220921E-1,9.007704E-4,-9.862224E-4,5.0017587E-3,2.4402225E-3,7.839712E-3],"categories":[],"categories_nodes":[],"categories_segments":[],"categories_sizes":[],"default_left":[0,0,0,0,0,0,0,0,0,0,0,0,0,0,0,0,0],"id":21,"left_children":[1,3,5,-1,7,9,11,-1,13,-1,-1,15,-1,-1,-1,-1,-1],"loss_changes":[6.2617386E1,2.602047E0,1.7011896E1,0E0,9.300399E-1,8.560753E-1,7.60376E-1,0E0,1.2115574E0,0E0,0E0,3.2811975E-1,0E0,0E0,0E0,0E0,0E0],"parents":[2147483647,0,0,1,1,2,2,4,4,5,5,6,6,8,8,11,11],"right_children":[2,4,6,-1,8,10,12,-1,14,-1,-1,16,-1,-1,-1,-1,-1],"split_conditions":[2E0,1E0,4E-1,8.453294E-3,6E-1,1E0,1.9E0,6.7817387E-3,1.7E0,-8.9511415E-3,-2.3930238E-3,1E0,9.007704E-4,-9.862224E-4,5.0017587E-3,2.4402225E-3,7.839712E-3],"split_indices":[10,2,9,0,9,8,9,0,9,0,0,8,0,0,0,0,0],"split_type":[0,0,0,0,0,0,0,0,0,0,0,0,0,0,0,0,0],"sum_hessian":[1.414201E2,8.2642784E1,5.877732E1,6.46819E1,1.796089E1,4.6795E1,1.1982323E1,5.9867554E0,1.1974134E1,4.3796482E1,2.9985156E0,7.487129E0,4.4951935E0,6.489293E0,5.484841E0,2.9964151E0,4.490714E0],"tree_param":{"num_deleted":"0","num_feature":"11","num_nodes":"17","size_leaf_vector":"1"}},{"base_weights":[-1.3814346E-1,-5.3700197E-1,3.906529E-1,-2.1045995E-1,-7.696873E-1,6.0435146E-1,-1.8719833E-1,-6.260787E-1,5.4359674E-1,-2.1490762E-3,-8.012542E-1,-6.515376E-2,6.949451E-1,-5.7966745E-1,1.1501274E-1,-7.830544E-3,-1.3309239E-3,8.099495E-3,2.9129514E-3,-8.487812E-3,-5.595434E-3,2.4950425E-3,-4.0619764E-3,7.7696624E-3,3.5893826E-3,-7.7391826E-3,-1.0886175E-3,3.1121199E-3,-3.952553E-3],"categories":[],"categories_nodes":[],"categories_segments":[],"categories_sizes":[],"default_left":[0,0,0,0,0,0,0,0,0,0,0,0,0,0,0,0,0,0,0,0,0,0,0,0,0,0,0,0,0],"id":22,"left_children":[1,3,5,7,9,11,13,15,17,-1,19,21,23,25,27,-1,-1,-1,-1,-1,-1,-1,-1,-1,-1,-1,-1,-1,-1],"loss_changes":[3.1165813E1,6.2269497E0,7.9773197E0,1.1736471E1,6.810646E-1,2.8794708E0,2.1965003E0,1.745861E0,6.6832733E-1,0E0,5.044365E-2,7.9712176E-1,8.5779953E-1,6.4532065E-1,1.2222011E0,0E0,0E0,0E0,0E0,0E0,0E0,0E0,0E0,0E0,0E0,0E0,0E0,0E0,0E0],"parents":[2147483647,0,0,1,1,2,2,3,3,4,4,5,5,6,6,7,7,8,8,10,10,11,11,12,12,13,13,14,14],"right_children":[2,4,6,8,10,12,14,16,18,-1,20,22,24,26,28,-1,-1,-1,-1,-1,-1,-1,-1,-1,-1,-1,-1,-1,-1],"split_conditions":[1E0,9E-1,4E-1,2.04E2,1.1E2,1.59E2,1.81E2,8.5E1,2.3E2,-2.1490762E-3,2.69E2,1.22E2,2E0,1.36E2,1.41E2,-7.830544E-3,-1.3309239E-3,8.099495E-3,2.9129514E-3,-8.487812E-3,-5.595434E-3,2.4950425E-3,-4.0619764E-3,7.7696624E-3,3.5893826E-3,-7.7391826E-3,-1.0886175E-3,3.1121199E-3,-3.952553E-3],"split_indices":[2,9,9,4,3,4,4,4,4,0,4,3,6,3,3,0,0,0,0,0,0,0,0,0,0,0,0,0,0],"split_type":[0,0,0,0,0,0,0,0,0,0,0,0,0,0,0,0,0,0,0,0,0,0,0,0,0,0,0,0,0],"sum_hessian":[1.4577025E2,8.3085396E1,6.268485E1,3.53629E1,4.7722496E1,4.5728035E1,1.6956814E1,2.2906874E1,1.2456025E1,2.9895701E0,4.4732925E1,5.4836407E0,4.0244396E1,6.977427E0,9.979387E0,1.692823E1,5.978645E0,4.984104E0,7.4719205E0,3.5283615E1,9.449308E0,2.9917586E0,2.491882E0,3.1293198E1,8.951198E0,4.4836793E0,2.4937477E0,7.489686E0,2.489701E0],"tree_param":{"num_deleted":"0","num_feature":"11","num_nodes":"29","size_leaf_vector":"1"}},{"base_weights":[1.718151E-1,-2.5394386E-1,6.69967E-1,-4.8231527E-1,3.9119732E-1,7.006077E-1,-2.0922798E-4,3.8221546E-3,-5.4800487E-1,7.698848E-3,-3.5246192E-3,7.5124046E-3,4.5013043E-1,1.3897563E-3,-5.812251E-3,-5.2602813E-3,2.7359405E-3,2.5241293E-3,7.5514857E-3],"categories":[],"categories_nodes":[],"categories_segments":[],"categories_sizes":[],"default_left":[0,0,0,0,0,0,0,0,0,0,0,0,0,0,0,0,0,0,0],"id":23,"left_children":[1,3,5,7,9,11,-1,-1,13,-1,15,-1,17,-1,-1,-1,-1,-1,-1],"loss_changes":[3.2775E1,1.2507469E1,1.520155E0,3.7418747E0,3.3527524E0,5.2584076E-1,0E0,0E0,1.4094353E0,0E0,1.8769819E0,0E0,6.507089E-1,0E0,0E0,0E0,0E0,0E0,0E0],"parents":[2147483647,0,0,1,1,2,2,3,3,4,4,5,5,8,8,10,10,12,12],"right_children":[2,4,6,8,10,12,-1,-1,14,-1,16,-1,18,-1,-1,-1,-1,-1,-1],"split_conditions":[1E0,1E0,1.51E2,1E0,1.34E2,1.31E2,-2.0922798E-4,3.8221546E-3,9.3E1,7.698848E-3,1.41E2,7.5124046E-3,1.43E2,1.3897563E-3,-5.812251E-3,-5.2602813E-3,2.7359405E-3,2.5241293E-3,7.5514857E-3],"split_indices":[8,5,7,6,7,7,0,0,7,0,7,0,7,0,0,0,0,0,0],"split_type":[0,0,0,0,0,0,0,0,0,0,0,0,0,0,0,0,0,0,0],"sum_hessian":[1.5272935E2,8.261254E1,7.0116806E1,6.12007E1,2.1411846E1,6.712574E1,2.9910684E0,3.9815543E0,5.7219143E1,1.0442803E1,1.0969044E1,5.4175243E1,1.2950496E1,2.4924703E0,5.4726673E1,3.49017E0,7.4788737E0,8.966079E0,3.9844174E0],"tree_param":{"num_deleted":"0","num_feature":"11","num_nodes":"19","size_leaf_vector":"1"}},{"base_weights":[-1.6233304E-1,-6.850897E-1,6.555335E-1,-3.218492E-1,-7.1623385E-1,8.3246744E-1,-1.5471196E-1,-1.0592593E-1,-6.6230097E-3,-8.606578E-3,-6.494902E-1,8.635667E-3,3.717968E-3,1.7383578E-1,-7.414927E-3,-4.006455E-3,1.4698856E-3,4.981888E-4,-6.84206E-3,-1.1784018E-3,4.0156734E-3],"categories":[],"categories_nodes":[],"categories_segments":[],"categories_sizes":[],"default_left":[0,0,0,0,0,0,0,0,0,0,0,0,0,0,0,0,0,0,0,0,0],"id":24,"left_children":[1,3,5,7,9,11,13,15,-1,-1,17,-1,-1,19,-1,-1,-1,-1,-1,-1,-1],"loss_changes":[6.803697E1,8.6603546E-1,9.039104E0,6.2604004E-1,2.93705E-1,4.1201782E-1,2.4390755E0,5.795833E-1,0E0,0E0,1.6018028E0,0E0,0E0,6.113923E-1,0E0,0E0,0E0,0E0,0E0,0E0,0E0],"parents":[2147483647,0,0,1,1,2,2,3,3,4,4,5,5,6,6,7,7,10,10,13,13],"right_children":[2,4,6,8,10,12,14,16,-1,-1,18,-1,-1,20,-1,-1,-1,-1,-1,-1,-1],"split_conditions":[2E0,1E0,5E-1,1E0,2E-1,6.3E1,1E0,4.8E1,-6.6230097E-3,-8.606578E-3,6E-1,8.635667E-3,3.717968E-3,5.3E1,-7.414927E-3,-4.006455E-3,1.4698856E-3,4.981888E-4,-6.84206E-3,-1.1784018E-3,4.0156734E-3],"split_indices":[10,1,9,5,9,0,5,0,0,0,9,0,0,0,0,0,0,0,0,0,0],"split_type":[0,0,0,0,0,0,0,0,0,0,0,0,0,0,0,0,0,0,0,0,0],"sum_hessian":[1.5708357E2,9.5930145E1,6.115343E1,8.470563E0,8.745958E1,5.017028E1,1.09831505E1,5.9855237E0,2.4850392E0,2.3883698E1,6.3575886E1,4.6178265E1,3.9920173E0,7.492006E0,3.4911451E0,2.494539E0,3.4909847E0,2.9862587E0,6.0589626E1,3.4964025E0,3.9956033E0],"tree_param":{"num_deleted":"0","num_feature":"11","num_nodes":"21","size_leaf_vector":"1"}},{"base_weights":[1.3754566E-1,5.086723E-1,-3.2558796E-1,6.5949035E-1,3.1952235E-1,1.8447053E-1,-5.5576396E-1,7.7134864E-3,5.1218796E-1,1.6264448E-1,6.3924927E-1,4.9858177E-1,-1.0719542E-1,-6.4591557E-1,-5.6936435E-2,-3.0724477E-4,5.9317774E-3,-3.6221235E-3,2.50582E-3,8.168648E-3,2.951807E-3,2.4168554E-3,7.582311E-3,-4.1413936E-3,5.2921777E-3,-7.177865E-3,1.2838296E-4,1.957772E-3,-3.2487907E-3],"categories":[],"categories_nodes":[],"categories_segments":[],"categories_sizes":[],"default_left":[0,0,0,0,0,0,0,0,0,0,0,0,0,0,0,0,0,0,0,0,0,0,0,0,0,0,0,0,0],"id":25,"left_children":[1,3,5,7,9,11,13,-1,15,17,19,21,23,25,27,-1,-1,-1,-1,-1,-1,-1,-1,-1,-1,-1,-1,-1,-1],"loss_changes":[2.6827753E1,2.2569904E0,8.275637E0,3.8245392E-1,1.9181542E0,2.1054347E0,2.1315908E0,0E0,1.0446606E0,1.4009228E0,5.489764E-1,5.4787254E-1,2.6486332E0,1.9381008E0,6.3761246E-1,0E0,0E0,0E0,0E0,0E0,0E0,0E0,0E0,0E0,0E0,0E0,0E0,0E0,0E0],"parents":[2147483647,0,0,1,1,2,2,3,3,4,4,5,5,6,6,8,8,9,9,10,10,11,11,12,12,13,13,14,14],"right_children":[2,4,6,8,10,12,14,-1,16,18,20,22,24,26,28,-1,-1,-1,-1,-1,-1,-1,-1,-1,-1,-1,-1,-1,-1],"split_conditions":[1E0,1.26E2,1.29E2,2.07E2,1E0,1.47E2,1E0,7.7134864E-3,2.23E2,1.29E2,1.31E2,1.21E2,2.67E2,3E0,1.44E2,-3.0724477E-4,5.9317774E-3,-3.6221235E-3,2.50582E-3,8.168648E-3,2.951807E-3,2.4168554E-3,7.582311E-3,-4.1413936E-3,5.2921777E-3,-7.177865E-3,1.2838296E-4,1.957772E-3,-3.2487907E-3],"split_indices":[2,7,7,4,5,4,5,0,4,7,3,7,4,2,7,0,0,0,0,0,0,0,0,0,0,0,0,0,0],"split_type":[0,0,0,0,0,0,0,0,0,0,0,0,0,0,0,0,0,0,0,0,0,0,0,0,0,0,0,0,0],"sum_hessian":[1.5411954E2,8.550377E1,6.861576E1,4.618874E1,3.931503E1,2.1397823E1,4.721794E1,2.384492E1,2.234382E1,2.7386307E1,1.1928723E1,9.960924E0,1.1436899E1,3.974083E1,7.4771094E0,2.9810529E0,1.9362768E1,3.4824228E0,2.3903885E1,6.9611135E0,4.96761E0,5.97756E0,3.9833639E0,7.9512486E0,3.4856505E0,3.575076E1,3.990072E0,3.9865105E0,3.4905987E0],"tree_param":{"num_deleted":"0","num_feature":"11","num_nodes":"29","size_leaf_vector":"1"}},{"base_weights":[-1.5191132E-1,-6.779967E-1,6.2125605E-1,-5.68164E-1,-7.8996075E-3,-2.7325565E-1,8.178304E-3,-7.3537393E-3,-3.8631007E-1,1.0882964E-1,-7.799085E-3,-2.1116446E-4,-5.012465E-3,4.119314E-3,-1.0370262E-3],"categories":[],"categories_nodes":[],"categories_segments":[],"categories_sizes":[],"default_left":[0,0,0,0,0,0,0,0,0,0,0,0,0,0,0],"id":26,"left_children":[1,3,5,7,-1,9,-1,-1,11,13,-1,-1,-1,-1,-1],"loss_changes":[6.528462E1,7.2402954E-1,1.16691475E1,1.2882195E0,0E0,2.5001945E0,0E0,0E0,1.1174979E0,5.57447E-1,0E0,0E0,0E0,0E0,0E0],"parents":[2147483647,0,0,1,1,2,2,3,3,5,5,8,8,9,9],"right_children":[2,4,6,8,-1,10,-1,-1,12,14,-1,-1,-1,-1,-1],"split_conditions":[2E0,1.31E2,8.5E1,1.73E2,-7.8996075E-3,1E0,8.178304E-3,-7.3537393E-3,2.29E2,2E0,-7.799085E-3,-2.1116446E-4,-5.012465E-3,4.119314E-3,-1.0370262E-3],"split_indices":[10,3,4,4,0,5,0,0,4,6,0,0,0,0,0],"split_type":[0,0,0,0,0,0,0,0,0,0,0,0,0,0,0],"sum_hessian":[1.5846672E2,9.43746E1,6.409211E1,5.0707195E1,4.3667408E1,1.1476805E1,5.2615303E1,2.4831501E1,2.5875694E1,6.9903374E0,4.4864674E0,6.4776473E0,1.9398046E1,2.494547E0,4.495791E0],"tree_param":{"num_deleted":"0","num_feature":"11","num_nodes":"15","size_leaf_vector":"1"}},{"base_weights":[1.774252E-1,7.308954E-1,-6.268997E-1,8.028816E-3,5.005679E-1,-2.3313168E-1,-7.905576E-1,3.4330383E-1,6.2415907E-3,-3.6779636E-1,3.1222005E-3,-8.449382E-1,-2.529983E-3,2.24979E-3,5.166584E-3,-4.95034E-3,-2.0665035E-3,-8.661645E-3,-3.7578952E-3],"categories":[],"categories_nodes":[],"categories_segments":[],"categories_sizes":[],"default_left":[0,0,0,0,0,0,0,0,0,0,0,0,0,0,0,0,0,0,0],"id":27,"left_children":[1,3,5,-1,7,9,11,13,-1,15,-1,17,-1,-1,-1,-1,-1,-1,-1],"loss_changes":[6.877924E1,1.1131363E0,3.8818817E0,0E0,2.6023912E-1,1.5794603E0,1.0769749E0,1.4971673E-1,0E0,2.3505092E-1,0E0,6.954956E-2,0E0,0E0,0E0,0E0,0E0,0E0,0E0],"parents":[2147483647,0,0,1,1,2,2,4,4,5,5,6,6,7,7,9,9,11,11],"right_children":[2,4,6,-1,8,10,12,14,-1,16,-1,18,-1,-1,-1,-1,-1,-1,-1],"split_conditions":[2E0,1E0,1E0,8.028816E-3,1.31E2,1E0,1E0,2E0,6.2415907E-3,1.33E2,3.1222005E-3,1.52E2,-2.529983E-3,2.24979E-3,5.166584E-3,-4.95034E-3,-2.0665035E-3,-8.661645E-3,-3.7578952E-3],"split_indices":[10,2,2,0,3,5,5,6,0,3,0,3,0,0,0,0,0,0,0],"split_type":[0,0,0,0,0,0,0,0,0,0,0,0,0,0,0,0,0,0,0],"sum_hessian":[1.5247183E2,9.0374695E1,6.2097134E1,6.696098E1,2.341371E1,1.894328E1,4.3153854E1,1.1965676E1,1.1448033E1,1.5453018E1,3.4902616E0,3.86701E1,4.4837513E0,8.477246E0,3.4884295E0,7.4772058E0,7.9758124E0,3.6186615E1,2.4834874E0],"tree_param":{"num_deleted":"0","num_feature":"11","num_nodes":"19","size_leaf_vector":"1"}},{"base_weights":[-1.7320478E-1,-5.6285214E-1,3.429759E-1,-5.9456974E-1,3.965805E-3,-8.64483E-2,5.815975E-1,-6.807971E-1,-3.7356696E-1,4.5505312E-1,-3.1552178E-1,6.248605E-1,-1.0265465E-4,-6.821624E-4,-7.160955E-3,-4.7790052E-4,-7.2050993E-3,5.838478E-3,1.2232318E-3,-9.364814E-4,-6.666889E-3,6.628307E-3,2.5554474E-3],"categories":[],"categories_nodes":[],"categories_segments":[],"categories_sizes":[],"default_left":[0,0,0,0,0,0,0,0,0,0,0,0,0,0,0,0,0,0,0,0,0,0,0],"id":28,"left_children":[1,3,5,7,-1,9,11,13,15,17,19,21,-1,-1,-1,-1,-1,-1,-1,-1,-1,-1,-1],"loss_changes":[3.1919006E1,2.9826622E0,7.0668077E0,1.4184036E0,0E0,3.2854908E0,1.1367817E0,1.2901783E0,3.0004869E0,2.6880693E-1,1.3704095E0,4.0772247E-1,0E0,0E0,0E0,0E0,0E0,0E0,0E0,0E0,0E0,0E0,0E0],"parents":[2147483647,0,0,1,1,2,2,3,3,5,5,6,6,7,7,8,8,9,9,10,10,11,11],"right_children":[2,4,6,8,-1,10,12,14,16,18,20,22,-1,-1,-1,-1,-1,-1,-1,-1,-1,-1,-1],"split_conditions":[1E0,1.68E2,1.29E2,1.31E2,3.965805E-3,2E0,3E0,1E0,1.43E2,1.31E2,1.21E2,1.5E2,-1.0265465E-4,-6.821624E-4,-7.160955E-3,-4.7790052E-4,-7.2050993E-3,5.838478E-3,1.2232318E-3,-9.364814E-4,-6.666889E-3,6.628307E-3,2.5554474E-3],"split_indices":[2,7,7,7,0,2,2,1,7,3,7,3,0,0,0,0,0,0,0,0,0,0,0],"split_type":[0,0,0,0,0,0,0,0,0,0,0,0,0,0,0,0,0,0,0,0,0,0,0],"sum_hessian":[1.567398E2,8.926572E1,6.747408E1,8.677726E1,2.4884562E0,2.432909E1,4.3144997E1,6.0925743E1,2.5851519E1,6.939195E0,1.7389894E1,4.0154125E1,2.990871E0,3.4791937E0,5.744655E1,1.3919221E1,1.1932298E1,4.458614E0,2.4805813E0,1.1433E1,5.9568954E0,3.5690002E1,4.464123E0],"tree_param":{"num_deleted":"0","num_feature":"11","num_nodes":"23","size_leaf_vector":"1"}},{"base_weights":[1.7060532E-1,-2.609556E-1,6.549556E-1,4.1217926E-1,-5.1997876E-1,8.265417E-2,7.129116E-1,8.939286E-2,7.56174E-3,-6.61948E-1,2.7341807E-1,3.780671E-3,-1.2016877E-3,8.033901E-3,6.0163873E-1,2.6236358E-3,-1.7026748E-3,-7.2433706E-3,-4.38375E-3,-1.1418666E-3,5.001395E-3,1.8346219E-3,6.7483294E-3],"categories":[],"categories_nodes":[],"categories_segments":[],"categories_sizes":[],"default_left":[0,0,0,0,0,0,0,0,0,0,0,0,0,0,0,0,0,0,0,0,0,0,0],"id":29,"left_children":[1,3,5,7,9,11,13,15,-1,17,19,-1,-1,-1,21,-1,-1,-1,-1,-1,-1,-1,-1],"loss_changes":[3.304523E1,1.4840136E1,2.408432E0,2.582528E0,7.053816E0,5.2306753E-1,1.9540024E-1,6.486335E-1,0E0,4.0846252E-1,9.331509E-1,0E0,0E0,0E0,9.2349625E-1,0E0,0E0,0E0,0E0,0E0,0E0,0E0,0E0],"parents":[2147483647,0,0,1,1,2,2,3,3,4,4,5,5,6,6,7,7,9,9,10,10,14,14],"right_children":[2,4,6,8,10,12,14,16,-1,18,20,-1,-1,-1,22,-1,-1,-1,-1,-1,-1,-1,-1],"split_conditions":[1E0,1.29E2,1E0,1E0,5E-1,2.15E2,2.13E2,1E-1,7.56174E-3,2.61E2,2.01E2,3.780671E-3,-1.2016877E-3,8.033901E-3,6E-1,2.6236358E-3,-1.7026748E-3,-7.2433706E-3,-4.38375E-3,-1.1418666E-3,5.001395E-3,1.8346219E-3,6.7483294E-3],"split_indices":[8,4,1,5,9,4,4,9,0,4,4,0,0,0,9,0,0,0,0,0,0,0,0],"split_type":[0,0,0,0,0,0,0,0,0,0,0,0,0,0,0,0,0,0,0,0,0,0,0],"sum_hessian":[1.562733E2,8.288403E1,7.338926E1,2.2867075E1,6.0016956E1,6.9716845E0,6.641758E1,1.2447175E1,1.04199E1,5.1048153E1,8.968803E0,2.486319E0,4.4853654E0,3.3201042E1,3.3216537E1,7.4644074E0,4.982767E0,3.81597E1,1.2888454E1,3.4931853E0,5.4756184E0,5.470238E0,2.77463E1],"tree_param":{"num_deleted":"0","num_feature":"11","num_nodes":"23","size_leaf_vector":"1"}},{"base_weights":[-1.6432422E-1,-7.0641804E-1,6.1666596E-1,-8.553273E-3,-6.258228E-1,7.244105E-1,-1.549893E-1,-2.4808422E-4,-6.721101E-1,7.867627E-1,-4.192051E-3,1.0040462E-2,-3.941582E-3,-3.6320842E-3,-7.0078713E-3,8.285165E-3,3.950103E-3,-1.45953E-3,1.6318972E-3],"categories":[],"categories_nodes":[],"categories_segments":[],"categories_sizes":[],"default_left":[0,0,0,0,0,0,0,0,0,0,0,0,0,0,0,0,0,0,0],"id":30,"left_children":[1,3,5,-1,7,9,11,-1,13,15,-1,17,-1,-1,-1,-1,-1,-1,-1],"loss_changes":[6.4436966E1,5.412369E-1,5.3062763E0,0E0,1.7060795E0,4.2512703E0,3.3857727E-1,0E0,2.5446892E-1,5.314522E-1,0E0,1.669587E-1,0E0,0E0,0E0,0E0,0E0,0E0,0E0],"parents":[2147483647,0,0,1,1,2,2,4,4,5,5,6,6,8,8,9,9,11,11],"right_children":[2,4,6,-1,8,10,12,-1,14,16,-1,18,-1,-1,-1,-1,-1,-1,-1],"split_conditions":[2E0,5.3E1,1E0,-8.553273E-3,5.4E1,6.6E1,1E0,-2.4808422E-4,1E0,1E0,-4.192051E-3,5.2E1,-3.941582E-3,-3.6320842E-3,-7.0078713E-3,8.285165E-3,3.950103E-3,-1.45953E-3,1.6318972E-3],"split_indices":[10,0,8,0,0,0,5,0,6,5,0,0,0,0,0,0,0,0,0],"split_type":[0,0,0,0,0,0,0,0,0,0,0,0,0,0,0,0,0,0,0],"sum_hessian":[1.501712E2,8.869944E1,6.1471764E1,2.7772966E1,6.092647E1,5.399394E1,7.477826E0,4.4665713E0,5.64599E1,5.149819E1,2.4957473E0,4.991585E0,2.4862413E0,5.957088E0,5.050281E1,4.5530544E1,5.967645E0,2.4961085E0,2.4954765E0],"tree_param":{"num_deleted":"0","num_feature":"11","num_nodes":"19","size_leaf_vector":"1"}},{"base_weights":[1.6643344E-1,-2.4713314E-1,5.885719E-1,4.6044454E-1,-5.499506E-1,1.6557047E-2,6.5865266E-1,5.5775297E-1,-9.4094797E-4,-7.7632633E-3,-4.6093562E-1,2.2496863E-3,-2.155759E-3,6.875548E-1,1.4929527E-3,8.6292904E-4,6.4695263E-3,-5.1480667E-3,-2.0022332E-3,5.523094E-3,7.7688857E-3],"categories":[],"categories_nodes":[],"categories_segments":[],"categories_sizes":[],"default_left":[0,0,0,0,0,0,0,0,0,0,0,0,0,0,0,0,0,0,0,0,0],"id":31,"left_children":[1,3,5,7,9,11,13,15,-1,-1,17,-1,-1,19,-1,-1,-1,-1,-1,-1,-1],"loss_changes":[2.7324173E1,1.7253569E1,3.089304E0,1.364996E0,7.7098846E-1,5.064838E-1,9.1121864E-1,8.204365E-1,0E0,0E0,4.96212E-1,0E0,0E0,3.5497475E-1,0E0,0E0,0E0,0E0,0E0,0E0,0E0],"parents":[2147483647,0,0,1,1,2,2,3,3,4,4,5,5,6,6,7,7,10,10,13,13],"right_children":[2,4,6,8,10,12,14,16,-1,-1,18,-1,-1,20,-1,-1,-1,-1,-1,-1,-1],"split_conditions":[5E-1,1.29E2,1E0,1E-1,1E0,1.6E0,3.18E2,0E0,-9.4094797E-4,-7.7632633E-3,1.43E2,2.2496863E-3,-2.155759E-3,1.31E2,1.4929527E-3,8.6292904E-4,6.4695263E-3,-5.1480667E-3,-2.0022332E-3,5.523094E-3,7.7688857E-3],"split_indices":[9,4,1,9,1,9,4,9,0,0,3,0,0,3,0,0,0,0,0,0,0],"split_type":[0,0,0,0,0,0,0,0,0,0,0,0,0,0,0,0,0,0,0,0,0],"sum_hessian":[1.5467848E2,7.834193E1,7.6336555E1,2.3323229E1,5.50187E1,8.466589E0,6.7869965E1,1.9836586E1,3.4866421E0,1.3349082E1,4.1669617E1,4.4775004E0,3.9890883E0,6.3894592E1,3.9753737E0,3.468967E0,1.6367619E1,3.372615E1,7.9434667E0,2.8273289E1,3.5621304E1],"tree_param":{"num_deleted":"0","num_feature":"11","num_nodes":"21","size_leaf_vector":"1"}},{"base_weights":[-1.302149E-1,-7.037691E-1,6.170632E-1,-7.3346305E-1,-2.4515498E-1,7.6721585E-1,-3.008409E-1,-4.152497E-1,-7.6352516E-3,-6.6582393E-3,1.3558229E-3,7.915682E-3,2.2682443E-3,-4.9759983E-3,1.456103E-4,-7.152944E-3,-1.214517E-3],"categories":[],"categories_nodes":[],"categories_segments":[],"categories_sizes":[],"default_left":[0,0,0,0,0,0,0,0,0,0,0,0,0,0,0,0,0],"id":32,"left_children":[1,3,5,7,9,11,13,15,-1,-1,-1,-1,-1,-1,-1,-1,-1],"loss_changes":[6.8340515E1,1.0472336E0,9.786467E0,4.8767853E-1,1.2084253E0,6.082802E-1,6.567016E-1,7.464812E-1,0E0,0E0,0E0,0E0,0E0,0E0,0E0,0E0,0E0],"parents":[2147483647,0,0,1,1,2,2,3,3,4,4,5,5,6,6,7,7],"right_children":[2,4,6,8,10,12,14,16,-1,-1,-1,-1,-1,-1,-1,-1,-1],"split_conditions":[2E0,1.59E2,1E0,1E0,1E0,3E0,1.28E2,1.24E2,-7.6352516E-3,-6.6582393E-3,1.3558229E-3,7.915682E-3,2.2682443E-3,-4.9759983E-3,1.456103E-4,-7.152944E-3,-1.214517E-3],"split_indices":[10,7,8,1,2,2,7,7,0,0,0,0,0,0,0,0,0],"split_type":[0,0,0,0,0,0,0,0,0,0,0,0,0,0,0,0,0],"sum_hessian":[1.5743568E2,8.910423E1,6.833145E1,8.3122955E1,5.981275E0,5.886617E1,9.4652815E0,8.453555E0,7.46694E1,2.4858902E0,3.495385E0,5.5883034E1,2.983136E0,5.4732223E0,3.9920595E0,3.4725373E0,4.9810176E0],"tree_param":{"num_deleted":"0","num_feature":"11","num_nodes":"17","size_leaf_vector":"1"}},{"base_weights":[2.1600291E-1,-2.1060595E-1,6.825548E-1,-4.2719004E-1,5.8530325E-1,7.123208E-1,1.5149798E-3,-4.643987E-1,2.2080606E-3,8.132392E-3,2.281378E-1,7.5348876E-3,5.1306087E-1,-2.8737797E-3,-6.470706E-3,-3.995874E-3,5.859739E-3,3.0411622E-3,6.670249E-3],"categories":[],"categories_nodes":[],"categories_segments":[],"categories_sizes":[],"default_left":[0,0,0,0,0,0,0,0,0,0,0,0,0,0,0,0,0,0,0],"id":33,"left_children":[1,3,5,7,9,11,-1,13,-1,-1,15,-1,17,-1,-1,-1,-1,-1,-1],"loss_changes":[2.9112135E1,1.3487308E1,9.94709E-1,1.5719271E0,1.1861076E0,1.5302277E-1,0E0,1.6881275E0,0E0,0E0,2.0206754E0,0E0,2.6031423E-1,0E0,0E0,0E0,0E0,0E0,0E0],"parents":[2147483647,0,0,1,1,2,2,3,3,4,4,5,5,7,7,10,10,12,12],"right_children":[2,4,6,8,10,12,-1,14,-1,-1,16,-1,18,-1,-1,-1,-1,-1,-1],"split_conditions":[1E0,1E0,1.51E2,6.5E1,1.34E2,1.31E2,1.5149798E-3,1.3E2,2.2080606E-3,8.132392E-3,5.6E1,7.5348876E-3,1.41E2,-2.8737797E-3,-6.470706E-3,-3.995874E-3,5.859739E-3,3.0411622E-3,6.670249E-3],"split_indices":[8,5,7,0,7,7,0,3,0,0,0,0,7,0,0,0,0,0,0],"split_type":[0,0,0,0,0,0,0,0,0,0,0,0,0,0,0,0,0,0,0],"sum_hessian":[1.4454405E2,7.5790665E1,6.875339E1,5.994233E1,1.5848334E1,6.478105E1,3.972339E0,5.6955227E1,2.9871025E0,8.894875E0,6.9534593E0,5.1383545E1,1.3397505E1,3.0231836E1,2.6723389E1,2.4822886E0,4.471171E0,6.946138E0,6.451367E0],"tree_param":{"num_deleted":"0","num_feature":"11","num_nodes":"19","size_leaf_vector":"1"}},{"base_weights":[-1.4606039E-1,-6.902063E-1,5.884348E-1,-7.4697426E-3,-5.045166E-1,7.3405236E-1,-3.3325836E-1,-9.6708864E-2,-6.093043E-1,7.8015345E-1,4.418053E-1,-7.5714104E-3,1.977363E-3,1.9651777E-3,-3.6273764E-3,-6.9322577E-3,-3.4857823E-3,5.5712885E-3,8.246477E-3,8.4776414E-4,6.2164185E-3],"categories":[],"categories_nodes":[],"categories_segments":[],"categories_sizes":[],"default_left":[0,0,0,0,0,0,0,0,0,0,0,0,0,0,0,0,0,0,0,0,0],"id":34,"left_children":[1,3,5,-1,7,9,11,13,15,17,19,-1,-1,-1,-1,-1,-1,-1,-1,-1,-1],"loss_changes":[6.0291958E1,5.3528976E-1,8.875359E0,0E0,9.385128E-1,4.077072E-1,2.2792368E0,5.362181E-1,1.6053963E-1,6.2618256E-3,5.8389294E-1,0E0,0E0,0E0,0E0,0E0,0E0,0E0,0E0,0E0,0E0],"parents":[2147483647,0,0,1,1,2,2,4,4,5,5,6,6,7,7,8,8,9,9,10,10],"right_children":[2,4,6,-1,8,10,12,14,16,18,20,-1,-1,-1,-1,-1,-1,-1,-1,-1,-1],"split_conditions":[2E0,1.39E2,1E0,-7.4697426E-3,1.42E2,1.41E2,1.23E2,1.31E2,2E0,1.2E2,1.26E2,-7.5714104E-3,1.977363E-3,1.9651777E-3,-3.6273764E-3,-6.9322577E-3,-3.4857823E-3,5.5712885E-3,8.246477E-3,8.4776414E-4,6.2164185E-3],"split_indices":[10,7,8,0,7,3,7,3,2,3,7,0,0,0,0,0,0,0,0,0,0],"split_type":[0,0,0,0,0,0,0,0,0,0,0,0,0,0,0,0,0,0,0,0,0],"sum_hessian":[1.488372E2,8.553182E1,6.330538E1,6.319079E1,2.234103E1,5.4844177E1,8.4612055E0,4.9601746E0,1.7380856E1,4.5929447E1,8.914728E0,4.4683313E0,3.9928737E0,2.483767E0,2.4764073E0,1.1893723E1,5.487133E0,9.887978E0,3.604147E1,3.4790976E0,5.4356313E0],"tree_param":{"num_deleted":"0","num_feature":"11","num_nodes":"21","size_leaf_vector":"1"}},{"base_weights":[1.5062144E-1,5.472078E-1,-3.9516646E-1,2.6963437E-1,7.0633227E-3,-6.2052673E-1,4.4518968E-1,-6.0763836E-2,4.7297096E-1,-6.936221E-1,3.0648224E-3,2.166914E-3,5.2620494E-3,3.9011682E-3,-2.8054358E-3,6.3767764E-3,1.7308386E-3,-8.002317E-3,-5.26632E-3],"categories":[],"categories_nodes":[],"categories_segments":[],"categories_sizes":[],"default_left":[0,0,0,0,0,0,0,0,0,0,0,0,0,0,0,0,0,0,0],"id":35,"left_children":[1,3,5,7,-1,9,11,13,15,17,-1,-1,-1,-1,-1,-1,-1,-1,-1],"loss_changes":[3.3495678E1,3.7611237E0,1.2639983E1,2.3275054E0,0E0,3.7291145E0,1.5231562E-1,1.4890146E0,9.414706E-1,4.404049E-1,0E0,0E0,0E0,0E0,0E0,0E0,0E0,0E0,0E0],"parents":[2147483647,0,0,1,1,2,2,3,3,5,5,6,6,7,7,8,8,9,9],"right_children":[2,4,6,8,-1,10,12,14,16,18,-1,-1,-1,-1,-1,-1,-1,-1,-1],"split_conditions":[1E0,1E0,1E0,5.2E1,7.0633227E-3,6.7E1,5.4E1,4.1E1,2E0,2E0,3.0648224E-3,2.166914E-3,5.2620494E-3,3.9011682E-3,-2.8054358E-3,6.3767764E-3,1.7308386E-3,-8.002317E-3,-5.26632E-3],"split_indices":[2,8,8,0,0,0,0,0,6,2,0,0,0,0,0,0,0,0,0],"split_type":[0,0,0,0,0,0,0,0,0,0,0,0,0,0,0,0,0,0,0],"sum_hessian":[1.5274974E2,8.846543E1,6.428431E1,3.321696E1,5.524847E1,5.089679E1,1.3387522E1,1.2921767E1,2.0295195E1,4.7410217E1,3.4865685E0,4.466042E0,8.92148E0,3.980563E0,8.941204E0,1.2373124E1,7.9220715E0,2.66221E1,2.0788118E1],"tree_param":{"num_deleted":"0","num_feature":"11","num_nodes":"19","size_leaf_vector":"1"}},{"base_weights":[-1.5299186E-1,2.581677E-1,-6.3735706E-1,-3.661775E-1,4.965346E-1,-7.4478933E-3,-5.353563E-1,-4.8618484E-1,-1.4895456E-1,6.382875E-1,-1.42121E-1,-1.6199811E-1,-6.227566E-1,-5.909488E-3,-1.1163155E-3,1.4509549E-3,-3.2940018E-3,6.968232E-3,2.6547227E-3,1.7775692E-3,-3.965303E-3,-3.4128397E-3,4.9595773E-4,-3.4713629E-3,-7.2161653E-3],"categories":[],"categories_nodes":[],"categories_segments":[],"categories_sizes":[],"default_left":[0,0,0,0,0,0,0,0,0,0,0,0,0,0,0,0,0,0,0,0,0,0,0,0,0],"id":36,"left_children":[1,3,5,7,9,-1,11,13,15,17,19,21,23,-1,-1,-1,-1,-1,-1,-1,-1,-1,-1,-1,-1],"loss_changes":[3.0863953E1,1.2696053E1,3.7999725E-1,5.482416E-1,5.6383705E0,0E0,1.2046833E0,5.184908E-1,5.7385343E-1,9.1337204E-1,1.0428578E0,3.5610554E-1,6.2329674E-1,0E0,0E0,0E0,0E0,0E0,0E0,0E0,0E0,0E0,0E0,0E0,0E0],"parents":[2147483647,0,0,1,1,2,2,3,3,4,4,6,6,7,7,8,8,9,9,10,10,11,11,12,12],"right_children":[2,4,6,8,10,-1,12,14,16,18,20,22,24,-1,-1,-1,-1,-1,-1,-1,-1,-1,-1,-1,-1],"split_conditions":[1E0,1.29E2,2.07E2,6.2E1,5E-1,-7.4478933E-3,9E-1,2E0,6.4E1,5.8E1,2.36E2,2.57E2,2.29E2,-5.909488E-3,-1.1163155E-3,1.4509549E-3,-3.2940018E-3,6.968232E-3,2.6547227E-3,1.7775692E-3,-3.965303E-3,-3.4128397E-3,4.9595773E-4,-3.4713629E-3,-7.2161653E-3],"split_indices":[8,4,4,0,9,0,9,6,0,0,4,4,4,0,0,0,0,0,0,0,0,0,0,0,0],"split_type":[0,0,0,0,0,0,0,0,0,0,0,0,0,0,0,0,0,0,0,0,0,0,0,0,0],"sum_hessian":[1.5315112E2,8.30879E1,7.0063225E1,2.280899E1,6.0278908E1,3.10539E1,3.9009323E1,1.3894584E1,8.914408E0,4.933036E1,1.0948548E1,7.940877E0,3.1068447E1,1.040619E1,3.4883943E0,3.4645543E0,5.449853E0,4.1884922E1,7.445436E0,4.983682E0,5.9648666E0,3.9668233E0,3.9740536E0,9.392807E0,2.167564E1],"tree_param":{"num_deleted":"0","num_feature":"11","num_nodes":"25","size_leaf_vector":"1"}},{"base_weights":[1.6482387E-1,-3.1774494E-1,5.9264344E-1,1.867891E-1,-6.1635077E-1,6.912211E-1,2.6284102E-1,4.7637787E-1,-2.6869273E-1,3.6806304E-3,-6.81141E-1,5.887288E-1,8.49599E-3,4.658449E-1,2.6457978E-2,5.832384E-3,2.323813E-3,-6.388169E-3,1.7660458E-3,-8.509951E-3,-4.2475476E-3,8.43313E-3,4.4243685E-3,1.5919511E-3,7.429897E-3,-3.297223E-3,2.5156543E-3],"categories":[],"categories_nodes":[],"categories_segments":[],"categories_sizes":[],"default_left":[0,0,0,0,0,0,0,0,0,0,0,0,0,0,0,0,0,0,0,0,0,0,0,0,0,0,0],"id":37,"left_children":[1,3,5,7,9,11,13,15,17,-1,19,21,-1,23,25,-1,-1,-1,-1,-1,-1,-1,-1,-1,-1,-1,-1],"loss_changes":[3.1798916E1,1.1053358E1,2.4682884E0,3.789784E0,3.1745472E0,5.0849533E-1,9.6517956E-1,3.163705E-1,1.9965653E0,0E0,1.5268879E0,1.1532202E0,0E0,8.07961E-1,9.2255104E-1,0E0,0E0,0E0,0E0,0E0,0E0,0E0,0E0,0E0,0E0,0E0,0E0],"parents":[2147483647,0,0,1,1,2,2,3,3,4,4,5,5,6,6,7,7,8,8,10,10,11,11,13,13,14,14],"right_children":[2,4,6,8,10,12,14,16,18,-1,20,22,-1,24,26,-1,-1,-1,-1,-1,-1,-1,-1,-1,-1,-1,-1],"split_conditions":[5E-1,1E0,1E0,1.34E2,9.9E1,1E0,1.29E2,6E1,1.45E2,3.6806304E-3,2E0,5.2E1,8.49599E-3,1.21E2,2E0,5.832384E-3,2.323813E-3,-6.388169E-3,1.7660458E-3,-8.509951E-3,-4.2475476E-3,8.43313E-3,4.4243685E-3,1.5919511E-3,7.429897E-3,-3.297223E-3,2.5156543E-3],"split_indices":[9,2,2,7,7,5,7,0,7,0,2,0,0,7,2,0,0,0,0,0,0,0,0,0,0,0,0],"split_type":[0,0,0,0,0,0,0,0,0,0,0,0,0,0,0,0,0,0,0,0,0,0,0,0,0,0,0],"sum_hessian":[1.5211328E2,7.160363E1,8.050965E1,2.6761314E1,4.484232E1,6.113931E1,1.9370344E1,1.633187E1,1.0429444E1,2.4800458E0,4.2362274E1,3.998242E1,2.1156885E1,9.8987E0,9.471644E0,1.0390778E1,5.941092E0,5.4581394E0,4.971305E0,2.4086168E1,1.8276106E1,1.2852061E1,2.7130362E1,5.4466305E0,4.4520693E0,3.487985E0,5.9836597E0],"tree_param":{"num_deleted":"0","num_feature":"11","num_nodes":"27","size_leaf_vector":"1"}},{"base_weights":[-1.3878638E-1,-4.235025E-1,2.2146691E-1,-7.112248E-1,-2.0055369E-1,-3.4480444E-1,3.3353147E-1,-7.516712E-1,-1.1450888E-3,3.9205945E-1,-3.1728834E-1,1.4440216E-3,-5.772896E-1,4.6403235E-1,-1.376624E-1,-7.989183E-3,-1.163372E-3,6.171957E-3,-1.0717208E-3,2.2612058E-3,-4.3411944E-3,-7.6243076E-3,-1.2043187E-3,5.9277974E-3,1.8511239E-3,1.6428133E-3,-5.792005E-3],"categories":[],"categories_nodes":[],"categories_segments":[],"categories_sizes":[],"default_left":[0,0,0,0,0,0,0,0,0,0,0,0,0,0,0,0,0,0,0,0,0,0,0,0,0,0,0],"id":38,"left_children":[1,3,5,7,9,11,13,15,-1,17,19,-1,21,23,25,-1,-1,-1,-1,-1,-1,-1,-1,-1,-1,-1,-1],"loss_changes":[1.5319843E1,5.198203E0,4.315137E0,7.817364E-1,3.4658878E0,1.3828849E0,3.4926648E0,9.124775E-1,0E0,1.009844E0,2.6951814E0,0E0,5.802231E-1,1.466567E0,1.8103168E0,0E0,0E0,0E0,0E0,0E0,0E0,0E0,0E0,0E0,0E0,0E0,0E0],"parents":[2147483647,0,0,1,1,2,2,3,3,4,4,5,5,6,6,7,7,9,9,10,10,12,12,13,13,14,14],"right_children":[2,4,6,8,10,12,14,16,-1,18,20,-1,22,24,26,-1,-1,-1,-1,-1,-1,-1,-1,-1,-1,-1,-1],"split_conditions":[1.31E2,1.71E2,8.5E1,1.29E2,1.98E2,1.42E2,5.7E1,7.1E1,-1.1450888E-3,1.52E2,4.8E1,1.4440216E-3,1.57E2,1.34E2,2E0,-7.989183E-3,-1.163372E-3,6.171957E-3,-1.0717208E-3,2.2612058E-3,-4.3411944E-3,-7.6243076E-3,-1.2043187E-3,5.9277974E-3,1.8511239E-3,1.6428133E-3,-5.792005E-3],"split_indices":[7,4,4,7,4,7,0,0,0,3,0,0,7,3,6,0,0,0,0,0,0,0,0,0,0,0,0],"split_type":[0,0,0,0,0,0,0,0,0,0,0,0,0,0,0,0,0,0,0,0,0,0,0,0,0,0,0],"sum_hessian":[1.4744557E2,8.225895E1,6.518663E1,3.495647E1,4.730248E1,1.0426059E1,5.476057E1,3.2494274E1,2.4621954E0,7.3962507E0,3.990623E1,3.480692E0,6.9453664E0,4.2895515E1,1.1865056E1,3.0005417E1,2.4888575E0,4.9346166E0,2.4616342E0,6.8959775E0,3.301025E1,4.4664736E0,2.4788926E0,2.8578585E1,1.4316931E1,7.419322E0,4.4457345E0],"tree_param":{"num_deleted":"0","num_feature":"11","num_nodes":"27","size_leaf_vector":"1"}},{"base_weights":[1.4593321E-1,6.4836955E-1,-6.118683E-1,6.6455126E-1,6.828048E-4,-7.4634475E-1,2.594164E-1,5.42671E-1,7.753554E-3,-4.5381662E-1,-7.862066E-1,7.762005E-4,3.7102913E-3,6.840511E-3,3.1047177E-3,-5.849221E-3,-9.967844E-4,-5.336136E-3,-8.367658E-3],"categories":[],"categories_nodes":[],"categories_segments":[],"categories_sizes":[],"default_left":[0,0,0,0,0,0,0,0,0,0,0,0,0,0,0,0,0,0,0],"id":39,"left_children":[1,3,5,7,-1,9,11,13,-1,15,17,-1,-1,-1,-1,-1,-1,-1,-1],"loss_changes":[5.505752E1,7.6950836E-1,6.960058E0,7.182503E-1,0E0,2.2958755E-1,1.4293468E-1,1.2155056E0,0E0,3.3151472E-1,1.0124016E-1,0E0,0E0,0E0,0E0,0E0,0E0,0E0,0E0],"parents":[2147483647,0,0,1,1,2,2,3,3,5,5,6,6,7,7,9,9,10,10],"right_children":[2,4,6,8,-1,10,12,14,-1,16,18,-1,-1,-1,-1,-1,-1,-1,-1],"split_conditions":[2E0,1.78E2,1E0,1.31E2,6.828048E-4,1.2E2,1.21E2,1.23E2,7.753554E-3,1.12E2,1.24E2,7.762005E-4,3.7102913E-3,6.840511E-3,3.1047177E-3,-5.849221E-3,-9.967844E-4,-5.336136E-3,-8.367658E-3],"split_indices":[10,3,8,3,0,3,7,3,0,3,7,0,0,0,0,0,0,0,0],"split_type":[0,0,0,0,0,0,0,0,0,0,0,0,0,0,0,0,0,0,0],"sum_hessian":[1.42562E2,8.5811676E1,5.6750313E1,8.3341255E1,2.4704194E0,4.9286674E1,7.463639E0,4.2495483E1,4.0845776E1,7.39594E0,4.189073E1,3.4841113E0,3.9795275E0,2.5203665E1,1.7291819E1,4.9220653E0,2.4738748E0,8.913458E0,3.2977276E1],"tree_param":{"num_deleted":"0","num_feature":"11","num_nodes":"19","size_leaf_vector":"1"}},{"base_weights":[-1.4376538E-1,2.887324E-1,-6.3648343E-1,4.8853052E-1,-3.2361227E-1,-1.03451826E-1,-6.756116E-1,7.1503407E-1,3.03004E-1,-3.890569E-4,-6.985473E-3,1.8253641E-3,-3.605096E-3,-7.07707E-3,-4.5102367E-1,1.322424E-3,8.10723E-3,9.613825E-5,4.5337393E-3,-3.4080015E-3,3.3947297E-3,-5.5568903E-3,-2.921741E-3],"categories":[],"categories_nodes":[],"categories_segments":[],"categories_sizes":[],"default_left":[0,0,0,0,0,0,0,0,0,0,0,0,0,0,0,0,0,0,0,0,0,0,0],"id":40,"left_children":[1,3,5,7,9,11,13,15,17,19,-1,-1,-1,-1,21,-1,-1,-1,-1,-1,-1,-1,-1],"loss_changes":[3.189333E1,9.937319E0,1.3873653E0,2.3326588E0,2.455685E0,5.0388616E-1,1.486988E-1,1.3751116E0,1.5434813E0,1.49058E0,0E0,0E0,0E0,0E0,1.8425941E-2,0E0,0E0,0E0,0E0,0E0,0E0,0E0,0E0],"parents":[2147483647,0,0,1,1,2,2,3,3,4,4,5,5,6,6,7,7,8,8,9,9,14,14],"right_children":[2,4,6,8,10,12,14,16,18,20,-1,-1,-1,-1,22,-1,-1,-1,-1,-1,-1,-1,-1],"split_conditions":[1E0,1E0,1E0,4.9E1,5.9E1,5.4E1,2E0,3.7E1,1E0,1E0,-6.985473E-3,1.8253641E-3,-3.605096E-3,-7.07707E-3,5.6E1,1.322424E-3,8.10723E-3,9.613825E-5,4.5337393E-3,-3.4080015E-3,3.3947297E-3,-5.5568903E-3,-2.921741E-3],"split_indices":[8,5,1,0,0,0,2,0,2,2,0,0,0,0,0,0,0,0,0,0,0,0,0],"split_type":[0,0,0,0,0,0,0,0,0,0,0,0,0,0,0,0,0,0,0,0,0,0,0],"sum_hessian":[1.4780165E2,7.893134E1,6.8870316E1,5.9665623E1,1.9265724E1,4.9590163E0,6.3911297E1,2.5580772E1,3.4084846E1,1.0883949E1,8.381775E0,2.4846423E0,2.474374E0,5.4037743E1,9.873553E0,3.9437087E0,2.1637064E1,1.191031E1,2.2174538E1,5.436203E0,5.4477463E0,4.4459352E0,5.4276185E0],"tree_param":{"num_deleted":"0","num_feature":"11","num_nodes":"23","size_leaf_vector":"1"}},{"base_weights":[1.9713515E-1,5.109631E-1,-2.6189327E-1,4.093287E-1,7.092903E-1,-6.399792E-1,3.0104602E-2,5.2003044E-1,2.8696123E-1,4.581709E-1,8.302083E-3,-7.534012E-3,-1.2942946E-3,-4.6887E-1,1.9435748E-1,7.76051E-4,5.748079E-3,1.8527979E-3,6.0950345E-3,7.5358963E-3,-6.4346995E-7,-9.432263E-4,-5.98278E-3,2.6163454E-3,-1.1516716E-3],"categories":[],"categories_nodes":[],"categories_segments":[],"categories_sizes":[],"default_left":[0,0,0,0,0,0,0,0,0,0,0,0,0,0,0,0,0,0,0,0,0,0,0,0,0],"id":41,"left_children":[1,3,5,7,9,11,13,15,17,19,-1,-1,-1,21,23,-1,-1,-1,-1,-1,-1,-1,-1,-1,-1],"loss_changes":[2.1072956E1,1.456667E0,6.608398E0,6.590624E-1,4.6988106E-1,1.4111567E0,2.929416E0,6.8477917E-1,8.897383E-1,1.534131E0,0E0,0E0,0E0,3.7347567E-1,5.8740747E-1,0E0,0E0,0E0,0E0,0E0,0E0,0E0,0E0,0E0,0E0],"parents":[2147483647,0,0,1,1,2,2,3,3,4,4,5,5,6,6,7,7,8,8,9,9,13,13,14,14],"right_children":[2,4,6,8,10,12,14,16,18,20,-1,-1,-1,22,24,-1,-1,-1,-1,-1,-1,-1,-1,-1,-1],"split_conditions":[1E0,6.1E1,2E0,1.32E2,1.31E2,5.7E1,4.7E1,1E0,1.55E2,1.26E2,8.302083E-3,-7.534012E-3,-1.2942946E-3,3.7E1,6.4E1,7.76051E-4,5.748079E-3,1.8527979E-3,6.0950345E-3,7.5358963E-3,-6.4346995E-7,-9.432263E-4,-5.98278E-3,2.6163454E-3,-1.1516716E-3],"split_indices":[2,0,2,3,3,0,0,1,3,3,0,0,0,0,0,0,0,0,0,0,0,0,0,0,0],"split_type":[0,0,0,0,0,0,0,0,0,0,0,0,0,0,0,0,0,0,0,0,0,0,0,0,0],"sum_hessian":[1.443542E2,8.567018E1,5.868402E1,5.8668793E1,2.7001394E1,2.505303E1,3.3630993E1,2.9096462E1,2.9572329E1,1.033241E1,1.6668983E1,2.0109829E1,4.943202E0,7.8696527E0,2.576134E1,3.4718509E0,2.562461E1,2.3681252E1,5.8910766E0,5.8903956E0,4.442014E0,2.4647546E0,5.404898E0,2.1288809E1,4.472531E0],"tree_param":{"num_deleted":"0","num_feature":"11","num_nodes":"25","size_leaf_vector":"1"}},{"base_weights":[-1.762861E-1,-7.118685E-1,6.3069534E-1,-7.269626E-1,-1.868565E-3,-1.5621686E-1,8.003459E-1,-7.667046E-3,-5.745007E-1,3.0321077E-1,-7.553212E-3,8.296221E-3,3.5881319E-3,-7.68673E-3,-3.4847218E-3,5.725604E-3,-1.6847589E-3],"categories":[],"categories_nodes":[],"categories_segments":[],"categories_sizes":[],"default_left":[0,0,0,0,0,0,0,0,0,0,0,0,0,0,0,0,0],"id":42,"left_children":[1,3,5,7,-1,9,11,-1,13,15,-1,-1,-1,-1,-1,-1,-1],"loss_changes":[6.7654816E1,6.085472E-1,8.4769535E0,1.10687256E-1,0E0,3.513298E0,3.6969757E-1,0E0,7.3268366E-1,1.0451216E0,0E0,0E0,0E0,0E0,0E0,0E0,0E0],"parents":[2147483647,0,0,1,1,2,2,3,3,5,5,6,6,8,8,9,9],"right_children":[2,4,6,8,-1,10,12,-1,14,16,-1,-1,-1,-1,-1,-1,-1],"split_conditions":[2E0,3.44E2,8.5E1,1.39E2,-1.868565E-3,1E0,6.2E1,-7.667046E-3,5.2E1,1.39E2,-7.553212E-3,8.296221E-3,3.5881319E-3,-7.68673E-3,-3.4847218E-3,5.725604E-3,-1.6847589E-3],"split_indices":[10,4,4,7,0,5,0,0,0,7,0,0,0,0,0,0,0],"split_type":[0,0,0,0,0,0,0,0,0,0,0,0,0,0,0,0,0],"sum_hessian":[1.5449525E2,9.293406E1,6.156119E1,8.996297E1,2.9710917E0,1.0932189E1,5.0629E1,6.816554E1,2.1797422E1,6.4668956E0,4.465294E0,4.665645E1,3.9725518E0,1.0433567E1,1.1363855E1,3.9802024E0,2.4866931E0],"tree_param":{"num_deleted":"0","num_feature":"11","num_nodes":"17","size_leaf_vector":"1"}},{"base_weights":[1.7034857E-1,6.425643E-1,-5.657062E-1,8.322223E-3,5.5947447E-1,-7.906916E-1,3.8177854E-1,5.9892756E-1,-4.7289455E-4,-8.234372E-3,-3.8610676E-3,7.7225044E-3,-6.531505E-2,4.7341962E-3,7.4101016E-3,-1.3906101E-3,1.5686487E-4],"categories":[],"categories_nodes":[],"categories_segments":[],"categories_sizes":[],"default_left":[0,0,0,0,0,0,0,0,0,0,0,0,0,0,0,0,0],"id":43,"left_children":[1,3,5,-1,7,9,11,13,-1,-1,-1,-1,15,-1,-1,-1,-1],"loss_changes":[5.203688E1,9.68956E-1,1.2800894E1,0E0,1.6167126E0,3.1412315E-1,2.132393E0,7.6148415E-1,0E0,0E0,0E0,0E0,4.0900342E-2,0E0,0E0,0E0,0E0],"parents":[2147483647,0,0,1,1,2,2,4,4,5,5,6,6,7,7,12,12],"right_children":[2,4,6,-1,8,10,12,14,-1,-1,-1,-1,16,-1,-1,-1,-1],"split_conditions":[2E0,2E-1,4E-1,8.322223E-3,1.58E2,2E-1,1.26E2,1.7E0,-4.7289455E-4,-8.234372E-3,-3.8610676E-3,7.7225044E-3,1.53E2,4.7341962E-3,7.4101016E-3,-1.3906101E-3,1.5686487E-4],"split_indices":[10,9,9,0,7,9,7,9,0,0,0,0,7,0,0,0,0],"split_type":[0,0,0,0,0,0,0,0,0,0,0,0,0,0,0,0,0],"sum_hessian":[1.4766759E2,9.003358E1,5.7634003E1,2.468119E1,6.535239E1,4.6708336E1,1.0925668E1,6.13746E1,3.9777913E0,4.225325E1,4.4550858E0,5.443919E0,5.481748E0,3.4888256E1,2.6486343E1,2.4941957E0,2.9875526E0],"tree_param":{"num_deleted":"0","num_feature":"11","num_nodes":"17","size_leaf_vector":"1"}},{"base_weights":[-1.5707934E-1,-6.7621005E-1,6.293923E-1,-7.0799917E-1,-1.1061398E-1,8.264124E-1,-2.2473241E-1,-7.2545594E-1,-1.6832863E-3,1.7956705E-3,-3.6995618E-3,8.636625E-3,2.6322186E-3,-6.968755E-3,9.992399E-3,-6.1471113E-3,-8.088292E-3,-3.8339691E-3,2.1946616E-3],"categories":[],"categories_nodes":[],"categories_segments":[],"categories_sizes":[],"default_left":[0,0,0,0,0,0,0,0,0,0,0,0,0,0,0,0,0,0,0],"id":44,"left_children":[1,3,5,7,9,11,13,15,-1,-1,-1,-1,-1,-1,17,-1,-1,-1,-1],"loss_changes":[6.098557E1,1.5368614E0,1.0197714E1,6.7741394E-1,5.1537305E-1,7.913666E-1,1.3299534E0,2.5905228E-1,0E0,0E0,0E0,0E0,0E0,0E0,8.224523E-1,0E0,0E0,0E0,0E0],"parents":[2147483647,0,0,1,1,2,2,3,3,4,4,5,5,6,6,7,7,14,14],"right_children":[2,4,6,8,10,12,14,16,-1,-1,-1,-1,-1,-1,18,-1,-1,-1,-1],"split_conditions":[2E0,1.58E2,4E-1,1.8E2,1.62E2,1.54E2,1.2E2,1.31E2,-1.6832863E-3,1.7956705E-3,-3.6995618E-3,8.636625E-3,2.6322186E-3,-6.968755E-3,1.26E2,-6.1471113E-3,-8.088292E-3,-3.8339691E-3,2.1946616E-3],"split_indices":[10,7,9,3,7,3,3,3,0,0,0,0,0,0,7,0,0,0,0],"split_type":[0,0,0,0,0,0,0,0,0,0,0,0,0,0,0,0,0,0,0],"sum_hessian":[1.4732892E2,8.883278E1,5.8496143E1,8.386727E1,4.9655046E0,4.7558353E1,1.093779E1,8.090594E1,2.9613328E0,2.4885938E0,2.4769108E0,4.4107513E1,3.4508395E0,2.978237E0,7.9595532E0,3.83451E1,4.256084E1,2.47717E0,5.4823833E0],"tree_param":{"num_deleted":"0","num_feature":"11","num_nodes":"19","size_leaf_vector":"1"}},{"base_weights":[1.4001337E-1,6.5756476E-1,-5.8851063E-1,8.631188E-3,5.738994E-1,-8.080147E-3,2.2976737E-1,-2.2870062E-3,6.0796636E-1,7.611967E-2,6.880242E-3,6.915449E-3,3.2887075E-3,2.9422168E-3,-4.3407897E-3],"categories":[],"categories_nodes":[],"categories_segments":[],"categories_sizes":[],"default_left":[0,0,0,0,0,0,0,0,0,0,0,0,0,0,0],"id":45,"left_children":[1,3,5,-1,7,-1,9,-1,11,13,-1,-1,-1,-1,-1],"loss_changes":[5.8376587E1,1.059185E0,1.1754196E1,0E0,1.9771843E0,0E0,9.61643E-1,0E0,1.2832699E0,1.4529784E0,0E0,0E0,0E0,0E0,0E0],"parents":[2147483647,0,0,1,1,2,2,4,4,6,6,8,8,9,9],"right_children":[2,4,6,-1,8,-1,10,-1,12,14,-1,-1,-1,-1,-1],"split_conditions":[2E0,2E-1,3E-1,8.631188E-3,6E-1,-8.080147E-3,2.4E0,-2.2870062E-3,1E0,1E0,6.880242E-3,6.915449E-3,3.2887075E-3,2.9422168E-3,-4.3407897E-3],"split_indices":[10,9,9,0,9,0,9,0,2,2,0,0,0,0,0],"split_type":[0,0,0,0,0,0,0,0,0,0,0,0,0,0,0],"sum_hessian":[1.5279875E2,8.939148E1,6.3407276E1,2.3164127E1,6.622735E1,5.000572E1,1.3401557E1,2.4639835E0,6.3763367E1,1.09097595E1,2.4917972E0,4.7931805E1,1.5831563E1,7.9391956E0,2.9705641E0],"tree_param":{"num_deleted":"0","num_feature":"11","num_nodes":"15","size_leaf_vector":"1"}},{"base_weights":[-1.4285702E-1,-6.4048E-1,5.9679174E-1,-7.14848E-1,-4.1361967E-1,3.2353276E-1,7.2125965E-1,-3.3577895E-1,-7.4468446E-3,-1.8719505E-1,-6.100221E-1,4.8374924E-1,-5.0012E-2,8.110413E-3,3.6104745E-1,-6.446993E-3,-1.9171384E-4,-3.4186633E-3,6.275909E-4,-6.9039115E-3,-3.6652924E-3,1.2216932E-3,6.4428705E-3,-1.4951328E-3,2.9967082E-4,-1.7412379E-3,5.5060834E-3],"categories":[],"categories_nodes":[],"categories_segments":[],"categories_sizes":[],"default_left":[0,0,0,0,0,0,0,0,0,0,0,0,0,0,0,0,0,0,0,0,0,0,0,0,0,0,0],"id":46,"left_children":[1,3,5,7,9,11,13,15,-1,17,19,21,23,-1,25,-1,-1,-1,-1,-1,-1,-1,-1,-1,-1,-1,-1],"loss_changes":[5.8337387E1,1.3005333E0,1.9381943E0,5.403099E-1,1.0300803E0,1.3285265E0,1.0995121E0,6.6447484E-1,0E0,5.3930813E-1,7.93457E-3,8.120787E-1,6.3752845E-2,0E0,1.1501212E0,0E0,0E0,0E0,0E0,0E0,0E0,0E0,0E0,0E0,0E0,0E0,0E0],"parents":[2147483647,0,0,1,1,2,2,3,3,4,4,5,5,6,6,7,7,9,9,10,10,11,11,12,12,14,14],"right_children":[2,4,6,8,10,12,14,16,-1,18,20,22,24,-1,26,-1,-1,-1,-1,-1,-1,-1,-1,-1,-1,-1,-1],"split_conditions":[2E0,1E0,1E0,1E0,1.31E2,5.5E1,5.7E1,5.2E1,-7.4468446E-3,1.23E2,1.52E2,1.23E2,5.8E1,8.110413E-3,1.25E2,-6.446993E-3,-1.9171384E-4,-3.4186633E-3,6.275909E-4,-6.9039115E-3,-3.6652924E-3,1.2216932E-3,6.4428705E-3,-1.4951328E-3,2.9967082E-4,-1.7412379E-3,5.5060834E-3],"split_indices":[10,2,2,1,3,0,0,0,0,3,3,3,0,0,3,0,0,0,0,0,0,0,0,0,0,0,0],"split_type":[0,0,0,0,0,0,0,0,0,0,0,0,0,0,0,0,0,0,0,0,0,0,0,0,0,0,0],"sum_hessian":[1.5645848E2,9.361201E1,6.2846474E1,6.888085E1,2.473116E1,2.079409E1,4.2052383E1,5.9201365E0,6.2960712E1,1.2394803E1,1.2336356E1,1.43459635E1,6.4481273E0,3.2660336E1,9.392045E0,2.4719412E0,3.4481952E0,7.4296374E0,4.965166E0,7.8950825E0,4.441273E0,4.952479E0,9.393485E0,2.4859602E0,3.9621668E0,2.4778829E0,6.9141626E0],"tree_param":{"num_deleted":"0","num_feature":"11","num_nodes":"27","size_leaf_vector":"1"}},{"base_weights":[1.6873638E-1,6.7499965E-1,-5.832298E-1,4.4462255E-1,6.9507235E-1,3.4409663E-1,-7.589925E-1,2.6910692E-1,6.63443E-3,7.099881E-1,3.0694336E-3,-5.6550067E-2,7.5562582E-3,-8.0402946E-1,1.372377E-4,4.461537E-3,5.1638146E-4,7.527703E-3,5.595604E-3,-2.257865E-3,1.5323353E-3,-3.7419302E-3,-8.180216E-3],"categories":[],"categories_nodes":[],"categories_segments":[],"categories_sizes":[],"default_left":[0,0,0,0,0,0,0,0,0,0,0,0,0,0,0,0,0,0,0,0,0,0,0],"id":47,"left_children":[1,3,5,7,9,11,13,15,-1,17,-1,19,-1,21,-1,-1,-1,-1,-1,-1,-1,-1,-1],"loss_changes":[6.0702744E1,1.309166E-1,1.0737848E1,2.2090912E-1,2.784462E-1,1.8448386E0,1.9023991E0,2.6394713E-1,0E0,1.0525513E-1,0E0,2.6425216E-1,0E0,2.872467E-3,0E0,0E0,0E0,0E0,0E0,0E0,0E0,0E0,0E0],"parents":[2147483647,0,0,1,1,2,2,3,3,4,4,5,5,6,6,7,7,9,9,11,11,13,13],"right_children":[2,4,6,8,10,12,14,16,-1,18,-1,20,-1,22,-1,-1,-1,-1,-1,-1,-1,-1,-1],"split_conditions":[2E0,1E0,8.5E1,1E0,3.15E2,1E0,6.3E1,5.2E1,6.63443E-3,6.3E1,3.0694336E-3,6E1,7.5562582E-3,1.63E2,1.372377E-4,4.461537E-3,5.1638146E-4,7.527703E-3,5.595604E-3,-2.257865E-3,1.5323353E-3,-3.7419302E-3,-8.180216E-3],"split_indices":[10,1,4,5,4,5,0,0,0,0,0,0,0,4,0,0,0,0,0,0,0,0,0],"split_type":[0,0,0,0,0,0,0,0,0,0,0,0,0,0,0,0,0,0,0,0,0,0,0],"sum_hessian":[1.5741922E2,9.414093E1,6.3278286E1,9.400504E0,8.4740425E1,9.929958E0,5.3348328E1,6.453759E0,2.946745E0,8.08058E1,3.934624E0,5.468578E0,4.461381E0,5.037193E1,2.9764006E0,2.9778452E0,3.4759142E0,5.9795544E1,2.1010258E1,2.9845784E0,2.4839993E0,2.4626594E0,4.7909267E1],"tree_param":{"num_deleted":"0","num_feature":"11","num_nodes":"23","size_leaf_vector":"1"}},{"base_weights":[-1.301016E-1,2.8354037E-1,-5.842084E-1,-2.9260302E-1,5.018644E-1,6.404436E-2,-6.4146584E-1,-6.159971E-1,2.0051078E-1,2.4099489E-1,6.065485E-1,-4.916448E-4,1.9085709E-3,-7.4784616E-3,-5.34758E-1,-3.0981386E-3,-7.692116E-3,3.9960155E-3,8.074459E-4,4.57488E-3,-1.1378552E-3,6.5174233E-3,8.1444194E-4,-2.0588646E-3,-5.6137936E-3],"categories":[],"categories_nodes":[],"categories_segments":[],"categories_sizes":[],"default_left":[0,0,0,0,0,0,0,0,0,0,0,0,0,0,0,0,0,0,0,0,0,0,0,0,0],"id":48,"left_children":[1,3,5,7,9,11,13,15,17,19,21,-1,-1,-1,23,-1,-1,-1,-1,-1,-1,-1,-1,-1,-1],"loss_changes":[2.9325508E1,1.0450308E1,2.7999E0,3.8139305E0,1.486103E0,1.0903661E-1,3.7636948E-1,4.2884636E-1,2.0427439E-1,1.4941889E0,9.4352245E-1,0E0,0E0,0E0,2.1404457E-1,0E0,0E0,0E0,0E0,0E0,0E0,0E0,0E0,0E0,0E0],"parents":[2147483647,0,0,1,1,2,2,3,3,4,4,5,5,6,6,7,7,8,8,9,9,10,10,14,14],"right_children":[2,4,6,8,10,12,14,16,18,20,22,-1,-1,-1,24,-1,-1,-1,-1,-1,-1,-1,-1,-1,-1],"split_conditions":[1E0,1.29E2,1E0,1E0,1E0,2.47E2,1.71E2,1E0,2E0,2.43E2,3E0,-4.916448E-4,1.9085709E-3,-7.4784616E-3,2.08E2,-3.0981386E-3,-7.692116E-3,3.9960155E-3,8.074459E-4,4.57488E-3,-1.1378552E-3,6.5174233E-3,8.1444194E-4,-2.0588646E-3,-5.6137936E-3],"split_indices":[8,4,1,2,2,4,4,5,2,4,2,0,0,0,4,0,0,0,0,0,0,0,0,0,0],"split_type":[0,0,0,0,0,0,0,0,0,0,0,0,0,0,0,0,0,0,0,0,0,0,0,0,0],"sum_hessian":[1.542397E2,8.091267E1,7.3327034E1,2.2141752E1,5.8770916E1,5.941417E0,6.738562E1,1.3221577E1,8.9201765E0,1.7775944E1,4.0994972E1,3.462587E0,2.4788299E0,3.0735806E1,3.6649815E1,5.4174547E0,7.804122E0,2.4728963E0,6.4472804E0,1.0859682E1,6.916261E0,3.752423E1,3.4707432E0,3.3985968E0,3.3251217E1],"tree_param":{"num_deleted":"0","num_feature":"11","num_nodes":"25","size_leaf_vector":"1"}},{"base_weights":[1.16883665E-1,-2.6642844E-1,5.129638E-1,-3.4971228E-1,1.9514184E-1,-9.7275086E-2,5.8015615E-1,-6.2041776E-3,-2.6656008E-1,4.684739E-3,4.519397E-2,-3.015902E-3,2.0745033E-3,4.6219304E-1,7.5878537E-1,-6.780599E-4,-4.395789E-3,-1.2126927E-3,3.6553435E-3,1.452477E-3,5.938592E-3,7.888834E-3,3.33567E-3],"categories":[],"categories_nodes":[],"categories_segments":[],"categories_sizes":[],"default_left":[0,0,0,0,0,0,0,0,0,0,0,0,0,0,0,0,0,0,0,0,0,0,0],"id":49,"left_children":[1,3,5,7,9,11,13,-1,15,-1,17,-1,-1,19,21,-1,-1,-1,-1,-1,-1,-1,-1],"loss_changes":[2.3625061E1,3.1158829E0,3.1903E0,1.3544807E0,5.018139E-1,5.878663E-1,1.1030788E0,0E0,1.8067625E0,0E0,5.427387E-1,0E0,0E0,1.7545156E0,6.8097115E-2,0E0,0E0,0E0,0E0,0E0,0E0,0E0,0E0],"parents":[2147483647,0,0,1,1,2,2,3,3,4,4,5,5,6,6,8,8,10,10,13,13,14,14],"right_children":[2,4,6,8,10,12,14,-1,16,-1,18,-1,-1,20,22,-1,-1,-1,-1,-1,-1,-1,-1],"split_conditions":[5E-1,1E0,1E0,1E0,1.2E2,1.41E2,1E0,-6.2041776E-3,1.3E2,4.684739E-3,1.41E2,-3.015902E-3,2.0745033E-3,1.1E0,2.4E0,-6.780599E-4,-4.395789E-3,-1.2126927E-3,3.6553435E-3,1.452477E-3,5.938592E-3,7.888834E-3,3.33567E-3],"split_indices":[9,5,1,1,3,3,5,0,3,0,3,0,0,9,9,0,0,0,0,0,0,0,0],"split_type":[0,0,0,0,0,0,0,0,0,0,0,0,0,0,0,0,0,0,0,0,0,0,0],"sum_hessian":[1.5370976E2,7.8280266E1,7.54295E1,6.652001E1,1.1760252E1,7.4372187E0,6.799228E1,1.4113073E1,5.240694E1,3.4135768E0,8.346676E0,4.458279E0,2.9789393E0,4.311045E1,2.4881826E1,2.503736E1,2.7369581E1,5.901452E0,2.4452233E0,1.3270059E1,2.9840391E1,2.2438337E1,2.4434888E0],"tree_param":{"num_deleted":"0","num_feature":"11","num_nodes":"23","size_leaf_vector":"1"}},{"base_weights":[-8.3444536E-2,-6.144569E-1,5.768004E-1,-8.4951585E-3,-5.0172424E-1,8.11794E-3,-2.005355E-1,6.660258E-2,-5.6718284E-1,-4.914639E-3,1.3117959E-1,-1.7994129E-3,2.9576898E-3,2.2849247E-3,-6.107709E-3,4.15756E-3,-9.831213E-4],"categories":[],"categories_nodes":[],"categories_segments":[],"categories_sizes":[],"default_left":[0,0,0,0,0,0,0,0,0,0,0,0,0,0,0,0,0],"id":50,"left_children":[1,3,5,-1,7,-1,9,11,13,-1,15,-1,-1,-1,-1,-1,-1],"loss_changes":[5.2653095E1,1.7774296E0,1.2403339E1,0E0,2.219575E0,0E0,1.6429989E0,4.460142E-1,1.9671345E0,0E0,5.915529E-1,0E0,0E0,0E0,0E0,0E0,0E0],"parents":[2147483647,0,0,1,1,2,2,4,4,6,6,7,7,8,8,10,10],"right_children":[2,4,6,-1,8,-1,10,12,14,-1,16,-1,-1,-1,-1,-1,-1],"split_conditions":[2E0,2E-1,3E-1,-8.4951585E-3,1E0,8.11794E-3,1E0,1.1E0,6E-1,-4.914639E-3,2E0,-1.7994129E-3,2.9576898E-3,2.2849247E-3,-6.107709E-3,4.15756E-3,-9.831213E-4],"split_indices":[10,9,9,0,1,0,2,9,9,0,2,0,0,0,0,0,0],"split_type":[0,0,0,0,0,0,0,0,0,0,0,0,0,0,0,0,0],"sum_hessian":[1.4816982E2,8.2160385E1,6.600943E1,2.4512884E1,5.7647507E1,5.065252E1,1.5356912E1,5.952144E0,5.1695362E1,7.924873E0,7.4320383E0,2.9708347E0,2.9813097E0,2.4645371E0,4.9230824E1,2.9554973E0,4.476541E0],"tree_param":{"num_deleted":"0","num_feature":"11","num_nodes":"17","size_leaf_vector":"1"}},{"base_weights":[1.3339357E-1,-2.7647793E-1,6.1985666E-1,-4.5474967E-1,3.685143E-1,2.6543042E-1,6.4263797E-1,-5.1106316E-1,3.4209003E-3,5.8325934E-1,1.4077471E-1,3.5605298E-3,9.86212E-4,5.6859773E-1,7.7268695E-3,-1.995868E-3,-6.2184166E-3,3.398904E-3,6.9801533E-3,-1.5884015E-3,3.4750523E-3,4.953263E-3,7.185364E-3],"categories":[],"categories_nodes":[],"categories_segments":[],"categories_sizes":[],"default_left":[0,0,0,0,0,0,0,0,0,0,0,0,0,0,0,0,0,0,0,0,0,0,0],"id":51,"left_children":[1,3,5,7,9,11,13,15,-1,17,19,-1,-1,21,-1,-1,-1,-1,-1,-1,-1,-1,-1],"loss_changes":[3.0685772E1,9.797547E0,3.9696884E-1,3.139248E0,8.3184314E-1,5.4812044E-2,1.8981361E-1,2.0187492E0,0E0,2.2488832E-2,6.9860786E-1,0E0,0E0,1.4311409E-1,0E0,0E0,0E0,0E0,0E0,0E0,0E0,0E0,0E0],"parents":[2147483647,0,0,1,1,2,2,3,3,4,4,5,5,6,6,7,7,9,9,10,10,13,13],"right_children":[2,4,6,8,10,12,14,16,-1,18,20,-1,-1,22,-1,-1,-1,-1,-1,-1,-1,-1,-1],"split_conditions":[1E0,1E0,1E0,6.4E1,1E0,5.3E1,1E0,1E0,3.4209003E-3,5.9E1,2E0,3.5605298E-3,9.86212E-4,6.2E1,7.7268695E-3,-1.995868E-3,-6.2184166E-3,3.398904E-3,6.9801533E-3,-1.5884015E-3,3.4750523E-3,4.953263E-3,7.185364E-3],"split_indices":[8,5,1,0,2,0,5,2,0,0,2,0,0,0,0,0,0,0,0,0,0,0,0],"split_type":[0,0,0,0,0,0,0,0,0,0,0,0,0,0,0,0,0,0,0,0,0,0,0],"sum_hessian":[1.5204076E2,8.275058E1,6.9290184E1,6.506264E1,1.7687943E1,4.9488215E0,6.434136E1,6.1103054E1,3.9595783E0,8.300233E0,9.387711E0,2.471588E0,2.477234E0,4.4422607E1,1.9918755E1,1.6765396E1,4.4337658E1,3.9292095E0,4.371023E0,3.927392E0,5.4603186E0,3.273118E1,1.1691428E1],"tree_param":{"num_deleted":"0","num_feature":"11","num_nodes":"23","size_leaf_vector":"1"}},{"base_weights":[-1.7208236E-1,-6.3498205E-1,5.203591E-1,-7.1540385E-1,-3.3694652E-1,-4.647459E-1,7.5026584E-1,-7.247796E-3,-3.2608286E-3,-5.726374E-1,5.5934894E-3,-1.5842117E-3,-5.978284E-1,7.787247E-1,2.3642427E-3,-2.5392815E-3,-7.526124E-3,3.8379466E-3,-5.00993E-3,-7.355181E-3,-2.756744E-3,8.346695E-3,5.8575897E-3],"categories":[],"categories_nodes":[],"categories_segments":[],"categories_sizes":[],"default_left":[0,0,0,0,0,0,0,0,0,0,0,0,0,0,0,0,0,0,0,0,0,0,0],"id":52,"left_children":[1,3,5,7,9,11,13,-1,-1,15,17,-1,19,21,-1,-1,-1,-1,-1,-1,-1,-1,-1],"loss_changes":[4.756097E1,1.8864784E0,1.3844162E1,1.5563965E-2,1.6786263E0,3.901155E-1,5.2796936E-1,0E0,0E0,5.146055E-1,2.0026639E0,0E0,1.490016E-1,4.4727325E-3,0E0,0E0,0E0,0E0,0E0,0E0,0E0,0E0,0E0],"parents":[2147483647,0,0,1,1,2,2,3,3,4,4,5,5,6,6,9,9,10,10,12,12,13,13],"right_children":[2,4,6,8,10,12,14,-1,-1,16,18,-1,20,22,-1,-1,-1,-1,-1,-1,-1,-1,-1],"split_conditions":[2E0,1E0,8.5E1,3.26E2,1.37E2,1.21E2,1E0,-7.247796E-3,-3.2608286E-3,1E0,2.36E2,-1.5842117E-3,1E0,2.61E2,2.3642427E-3,-2.5392815E-3,-7.526124E-3,3.8379466E-3,-5.00993E-3,-7.355181E-3,-2.756744E-3,8.346695E-3,5.8575897E-3],"split_indices":[10,2,4,4,7,7,8,0,0,8,4,0,2,4,0,0,0,0,0,0,0,0,0],"split_type":[0,0,0,0,0,0,0,0,0,0,0,0,0,0,0,0,0,0,0,0,0,0,0],"sum_hessian":[1.4635098E2,8.776364E1,5.858734E1,6.801114E1,1.9752508E1,1.0892724E1,4.769462E1,6.5570404E1,2.4407358E0,1.1303318E1,8.44919E0,3.962462E0,6.930262E0,4.4703255E1,2.9913623E0,4.9494615E0,6.3538566E0,4.9763775E0,3.4728124E0,3.9562302E0,2.9740317E0,3.2077747E1,1.2625509E1],"tree_param":{"num_deleted":"0","num_feature":"11","num_nodes":"23","size_leaf_vector":"1"}},{"base_weights":[1.4523254E-1,6.7075527E-1,-5.336439E-1,8.150967E-3,5.912491E-1,-7.805011E-1,3.0789208E-1,3.869537E-1,7.2234296E-3,-8.112588E-3,-2.578766E-3,4.0388417E-1,-1.6463539E-3,2.2137256E-3,6.6129756E-3,-8.091259E-4,5.1613683E-3],"categories":[],"categories_nodes":[],"categories_segments":[],"categories_sizes":[],"default_left":[0,0,0,0,0,0,0,0,0,0,0,0,0,0,0,0,0],"id":53,"left_children":[1,3,5,-1,7,9,11,13,-1,-1,-1,15,-1,-1,-1,-1,-1],"loss_changes":[5.628874E1,5.3725815E-1,1.4566473E1,0E0,1.3517094E0,6.52462E-1,8.084911E-1,1.0329051E0,0E0,0E0,0E0,7.9742885E-1,0E0,0E0,0E0,0E0,0E0],"parents":[2147483647,0,0,1,1,2,2,4,4,5,5,6,6,7,7,11,11],"right_children":[2,4,6,-1,8,10,12,14,-1,-1,-1,16,-1,-1,-1,-1,-1],"split_conditions":[2E0,7E-1,3E-1,8.150967E-3,1.31E2,1.54E2,1.5E2,1E0,7.2234296E-3,-8.112588E-3,-2.578766E-3,5E-1,-1.6463539E-3,2.2137256E-3,6.6129756E-3,-8.091259E-4,5.1613683E-3],"split_indices":[10,9,9,0,3,3,3,5,0,0,0,9,0,0,0,0,0],"split_type":[0,0,0,0,0,0,0,0,0,0,0,0,0,0,0,0,0],"sum_hessian":[1.5577208E2,8.780985E1,6.796223E1,2.7902176E1,5.9907677E1,5.2603867E1,1.5358359E1,2.4960777E1,3.49469E1,4.91585E1,3.4453688E0,1.2885907E1,2.4724526E0,1.6692738E1,8.268041E0,2.4752007E0,1.04107065E1],"tree_param":{"num_deleted":"0","num_feature":"11","num_nodes":"17","size_leaf_vector":"1"}},{"base_weights":[-1.3399668E-1,-6.346074E-1,5.509989E-1,-6.888371E-1,-4.2167026E-1,7.891086E-1,-3.108976E-1,-7.1601844E-3,-3.841683E-1,-7.348709E-1,-3.6785282E-2,3.7278873E-3,8.352599E-3,-6.6223536E-3,3.4394626E-2,-1.0175162E-3,-6.418548E-3,-3.5409238E-3,-8.00628E-3,-2.824364E-3,2.8856953E-3,4.0470953E-3,-1.8793213E-3],"categories":[],"categories_nodes":[],"categories_segments":[],"categories_sizes":[],"default_left":[0,0,0,0,0,0,0,0,0,0,0,0,0,0,0,0,0,0,0,0,0,0,0],"id":54,"left_children":[1,3,5,7,9,11,13,-1,15,17,19,-1,-1,-1,21,-1,-1,-1,-1,-1,-1,-1,-1],"loss_changes":[5.3001778E1,7.3928833E-1,1.3660326E1,3.0044556E-1,2.4657614E0,6.7813873E-1,1.8263365E0,0E0,5.0597215E-1,6.608963E-4,9.0715754E-1,0E0,0E0,0E0,7.7163535E-1,0E0,0E0,0E0,0E0,0E0,0E0,0E0,0E0],"parents":[2147483647,0,0,1,1,2,2,3,3,4,4,5,5,6,6,8,8,9,9,10,10,14,14],"right_children":[2,4,6,8,10,12,14,-1,16,18,20,-1,-1,-1,22,-1,-1,-1,-1,-1,-1,-1,-1],"split_conditions":[2E0,1.41E2,3E-1,2.93E2,1.3E0,8.5E1,1.32E2,-7.1601844E-3,1.1E0,1.46E2,1.51E2,3.7278873E-3,8.352599E-3,-6.6223536E-3,1.41E2,-1.0175162E-3,-6.418548E-3,-3.5409238E-3,-8.00628E-3,-2.824364E-3,2.8856953E-3,4.0470953E-3,-1.8793213E-3],"split_indices":[10,7,9,4,9,4,7,0,9,7,7,0,0,0,7,0,0,0,0,0,0,0,0],"split_type":[0,0,0,0,0,0,0,0,0,0,0,0,0,0,0,0,0,0,0,0,0,0,0],"sum_hessian":[1.5254224E2,8.817526E1,6.4366974E1,6.849611E1,1.9679155E1,5.0500134E1,1.386684E1,6.164613E1,6.8499765E0,1.0348623E1,9.330531E0,5.9454365E0,4.4554695E1,6.4182835E0,7.448557E0,3.9336648E0,2.9163117E0,2.4641826E0,7.8844404E0,5.3916283E0,3.938903E0,2.486546E0,4.9620113E0],"tree_param":{"num_deleted":"0","num_feature":"11","num_nodes":"23","size_leaf_vector":"1"}},{"base_weights":[1.8489E-1,5.2295667E-1,-3.201476E-1,1.7136201E-1,6.800958E-1,9.9261254E-2,-5.304082E-1,4.82845E-1,-1.10277876E-1,7.6158475E-3,5.647009E-1,-2.88065E-2,6.486172E-3,-5.969761E-1,1.246287E-3,6.199153E-3,3.0125948E-3,5.674696E-3,-4.2476356E-3,4.2877984E-3,7.701877E-3,-3.309716E-3,1.3055037E-3,-7.4127517E-3,-1.969752E-3],"categories":[],"categories_nodes":[],"categories_segments":[],"categories_sizes":[],"default_left":[0,0,0,0,0,0,0,0,0,0,0,0,0,0,0,0,0,0,0,0,0,0,0,0,0],"id":55,"left_children":[1,3,5,7,9,11,13,15,17,-1,19,21,-1,23,-1,-1,-1,-1,-1,-1,-1,-1,-1,-1,-1],"loss_changes":[2.5039728E1,4.7256813E0,5.2585263E0,2.5453963E0,1.3634872E-1,1.4648236E0,1.7958403E0,1.5362501E-1,3.5943837E0,0E0,4.7411537E-1,8.9196056E-1,0E0,1.9324379E0,0E0,0E0,0E0,0E0,0E0,0E0,0E0,0E0,0E0,0E0,0E0],"parents":[2147483647,0,0,1,1,2,2,3,3,4,4,5,5,6,6,7,7,8,8,10,10,11,11,13,13],"right_children":[2,4,6,8,10,12,14,16,18,-1,20,22,-1,24,-1,-1,-1,-1,-1,-1,-1,-1,-1,-1,-1],"split_conditions":[1E0,4E-1,1.29E2,1.25E2,1.26E2,1.7E0,3E0,1.07E2,1.2E2,7.6158475E-3,1E0,2E0,6.486172E-3,3E-1,1.246287E-3,6.199153E-3,3.0125948E-3,5.674696E-3,-4.2476356E-3,4.2877984E-3,7.701877E-3,-3.309716E-3,1.3055037E-3,-7.4127517E-3,-1.969752E-3],"split_indices":[2,9,7,7,7,9,2,7,3,0,5,2,0,9,0,0,0,0,0,0,0,0,0,0,0],"split_type":[0,0,0,0,0,0,0,0,0,0,0,0,0,0,0,0,0,0,0,0,0,0,0,0,0],"sum_hessian":[1.4467667E2,8.664319E1,5.8033485E1,2.7408318E1,5.923487E1,1.955495E1,3.8478535E1,1.2675402E1,1.4732917E1,3.1435854E1,2.7799017E1,1.662649E1,2.9284613E0,3.5009357E1,3.469176E0,5.847499E0,6.827903E0,4.4145947E0,1.0318322E1,1.858949E1,9.209526E0,5.3690414E0,1.1257448E1,2.5101048E1,9.908312E0],"tree_param":{"num_deleted":"0","num_feature":"11","num_nodes":"25","size_leaf_vector":"1"}},{"base_weights":[-1.7290536E-1,2.4549969E-1,-6.319924E-1,-4.9853086E-1,5.1755273E-1,-2.3879214E-1,-6.5700053E-3,-5.8882777E-3,-2.1396255E-1,6.687399E-1,2.6527977E-1,-6.2880097E-3,2.1866616E-3,-4.6683158E-4,-3.6748776E-3,7.005419E-3,1.6282168E-3,-1.8689882E-4,5.1761544E-3],"categories":[],"categories_nodes":[],"categories_segments":[],"categories_sizes":[],"default_left":[0,0,0,0,0,0,0,0,0,0,0,0,0,0,0,0,0,0,0],"id":56,"left_children":[1,3,5,7,9,11,-1,-1,13,15,17,-1,-1,-1,-1,-1,-1,-1,-1],"loss_changes":[2.9387047E1,1.6519947E1,5.5939484E-1,4.3982792E-1,2.085064E0,1.194932E0,0E0,0E0,1.5940285E-1,4.7212029E-1,1.7212431E0,0E0,0E0,0E0,0E0,0E0,0E0,0E0,0E0],"parents":[2147483647,0,0,1,1,2,2,3,3,4,4,5,5,8,8,9,9,10,10],"right_children":[2,4,6,8,10,12,-1,-1,14,16,18,-1,-1,-1,-1,-1,-1,-1,-1],"split_conditions":[1E0,1.29E2,1E0,2E0,2.47E2,5.2E1,-6.5700053E-3,-5.8882777E-3,6.4E1,6.3E1,2.71E2,-6.2880097E-3,2.1866616E-3,-4.6683158E-4,-3.6748776E-3,7.005419E-3,1.6282168E-3,-1.8689882E-4,5.1761544E-3],"split_indices":[8,4,1,6,4,0,0,0,0,0,4,0,0,0,0,0,0,0,0],"split_type":[0,0,0,0,0,0,0,0,0,0,0,0,0,0,0,0,0,0,0],"sum_hessian":[1.5118259E2,7.933923E1,7.1843346E1,2.1019928E1,5.831931E1,4.926899E0,6.691645E1,1.5145034E1,5.8748946E0,3.5433285E1,2.2886023E1,2.457332E0,2.4695668E0,3.435589E0,2.4393058E0,3.297574E1,2.4575467E0,1.1203702E1,1.168232E1],"tree_param":{"num_deleted":"0","num_feature":"11","num_nodes":"19","size_leaf_vector":"1"}},{"base_weights":[1.9459355E-1,6.654036E-1,-5.229096E-1,6.8722755E-1,2.3506193E-1,-7.7831835E-1,4.2422038E-1,8.072346E-3,6.159302E-1,6.059612E-4,3.4195133E-3,-2.7095606E-3,-8.308921E-3,1.07697345E-1,7.5127725E-3,8.0348476E-4,6.529534E-3,3.980827E-3,-3.7912258E-3],"categories":[],"categories_nodes":[],"categories_segments":[],"categories_sizes":[],"default_left":[0,0,0,0,0,0,0,0,0,0,0,0,0,0,0,0,0,0,0],"id":57,"left_children":[1,3,5,7,9,11,13,-1,15,-1,-1,-1,-1,17,-1,-1,-1,-1,-1],"loss_changes":[5.0926888E1,6.916504E-1,1.481592E1,2.3812485E-1,8.938989E-2,1.0423107E0,1.3027117E0,0E0,1.100214E0,0E0,0E0,0E0,0E0,1.2761244E0,0E0,0E0,0E0,0E0,0E0],"parents":[2147483647,0,0,1,1,2,2,3,3,4,4,5,5,6,6,8,8,13,13],"right_children":[2,4,6,8,10,12,14,-1,16,-1,-1,-1,-1,18,-1,-1,-1,-1,-1],"split_conditions":[2E0,3.39E2,4E-1,2E-1,3.93E2,8.5E1,1E0,8.072346E-3,8E-1,6.059612E-4,3.4195133E-3,-2.7095606E-3,-8.308921E-3,1E0,7.5127725E-3,8.0348476E-4,6.529534E-3,3.980827E-3,-3.7912258E-3],"split_indices":[10,4,9,9,4,4,5,0,9,0,0,0,0,2,0,0,0,0,0],"split_type":[0,0,0,0,0,0,0,0,0,0,0,0,0,0,0,0,0,0,0],"sum_hessian":[1.4872704E2,8.984518E1,5.888186E1,8.494065E1,4.9045258E0,4.651624E1,1.2365617E1,2.7809614E1,5.7131035E1,2.4585557E0,2.44597E0,4.945321E0,4.157092E1,6.959531E0,5.4060864E0,3.8989277E0,5.323211E1,4.4734325E0,2.4860983E0],"tree_param":{"num_deleted":"0","num_feature":"11","num_nodes":"19","size_leaf_vector":"1"}},{"base_weights":[-1.2838413E-1,-4.7266564E-1,3.2160714E-1,-3.123717E-1,-7.822461E-3,6.0059667E-1,5.5808995E-2,-4.9243084E-1,-6.316109E-2,9.4347855E-4,6.390893E-1,1.6536278E-1,-4.5338254E-3,-6.5980754E-3,-4.814693E-4,5.473097E-3,-1.6716936E-3,6.9758603E-3,2.4896578E-3,2.9212332E-3,-2.8944649E-3],"categories":[],"categories_nodes":[],"categories_segments":[],"categories_sizes":[],"default_left":[0,0,0,0,0,0,0,0,0,0,0,0,0,0,0,0,0,0,0,0,0],"id":58,"left_children":[1,3,5,7,-1,9,11,13,15,-1,17,19,-1,-1,-1,-1,-1,-1,-1,-1,-1],"loss_changes":[2.3374615E1,3.989973E0,4.8287244E0,2.5663075E0,0E0,5.6110096E-1,2.0095923E0,2.4562016E0,1.7059469E0,0E0,4.986658E-1,1.7721915E0,0E0,0E0,0E0,0E0,0E0,0E0,0E0,0E0,0E0],"parents":[2147483647,0,0,1,1,2,2,3,3,5,5,6,6,7,7,8,8,10,10,11,11],"right_children":[2,4,6,8,-1,10,12,14,16,-1,18,20,-1,-1,-1,-1,-1,-1,-1,-1,-1],"split_conditions":[1E0,1E0,2E0,1.26E2,-7.822461E-3,1.11E2,1E0,2E0,1.29E2,9.4347855E-4,1E0,2E0,-4.5338254E-3,-6.5980754E-3,-4.814693E-4,5.473097E-3,-1.6716936E-3,6.9758603E-3,2.4896578E-3,2.9212332E-3,-2.8944649E-3],"split_indices":[2,5,2,7,0,7,5,6,7,0,5,6,0,0,0,0,0,0,0,0,0],"split_type":[0,0,0,0,0,0,0,0,0,0,0,0,0,0,0,0,0,0,0,0,0],"sum_hessian":[1.4889706E2,8.432834E1,6.4568726E1,5.6884056E1,2.7444283E1,3.0888084E1,3.368064E1,3.245719E1,2.4426865E1,2.426478E0,2.8461607E1,2.8272902E1,5.407738E0,2.3223146E1,9.234045E0,2.9354174E0,2.1491447E1,2.4065071E1,4.3965364E0,2.23902E1,5.8827024E0],"tree_param":{"num_deleted":"0","num_feature":"11","num_nodes":"21","size_leaf_vector":"1"}},{"base_weights":[1.18616685E-1,4.0334064E-1,-2.9324937E-1,5.116444E-1,1.7762615E-1,7.945763E-2,-4.86762E-1,4.188686E-1,7.3049706E-3,-2.6944265E-1,4.9466988E-1,-7.654508E-2,4.7474477E-1,-5.428596E-1,2.9390128E-4,5.5077597E-3,1.2895797E-3,-4.157246E-3,-1.6320653E-3,5.894354E-3,4.4863707E-5,2.249518E-3,-2.6191222E-3,2.2282824E-3,6.230946E-3,-6.443176E-3,-5.057858E-4],"categories":[],"categories_nodes":[],"categories_segments":[],"categories_sizes":[],"default_left":[0,0,0,0,0,0,0,0,0,0,0,0,0,0,0,0,0,0,0,0,0,0,0,0,0,0,0],"id":59,"left_children":[1,3,5,7,9,11,13,15,-1,17,19,21,23,25,-1,-1,-1,-1,-1,-1,-1,-1,-1,-1,-1,-1,-1],"loss_changes":[1.7682339E1,2.0842552E0,4.495822E0,9.040613E-1,4.439714E0,1.391766E0,1.1978531E0,1.6191406E0,0E0,1.3811791E-1,8.39488E-1,9.878496E-1,9.879446E-2,1.8088417E0,0E0,0E0,0E0,0E0,0E0,0E0,0E0,0E0,0E0,0E0,0E0,0E0,0E0],"parents":[2147483647,0,0,1,1,2,2,3,3,4,4,5,5,6,6,7,7,9,9,10,10,11,11,12,12,13,13],"right_children":[2,4,6,8,10,12,14,16,-1,18,20,22,24,26,-1,-1,-1,-1,-1,-1,-1,-1,-1,-1,-1,-1,-1],"split_conditions":[1E0,1.31E2,1.29E2,1E0,1.42E2,1.21E2,3E0,2E0,7.3049706E-3,1.22E2,1.68E2,1.28E2,1.41E2,1E0,2.9390128E-4,5.5077597E-3,1.2895797E-3,-4.157246E-3,-1.6320653E-3,5.894354E-3,4.4863707E-5,2.249518E-3,-2.6191222E-3,2.2282824E-3,6.230946E-3,-6.443176E-3,-5.057858E-4],"split_indices":[2,7,7,5,7,7,2,6,0,3,7,3,3,5,0,0,0,0,0,0,0,0,0,0,0,0,0],"split_type":[0,0,0,0,0,0,0,0,0,0,0,0,0,0,0,0,0,0,0,0,0,0,0,0,0,0,0],"sum_hessian":[1.4877693E2,8.797814E1,6.0798786E1,5.8595627E1,2.9382513E1,2.0980175E1,3.981861E1,4.319737E1,1.5398258E1,1.2253617E1,1.7128895E1,1.56214285E1,5.358746E0,3.5868523E1,3.9500902E0,2.907062E1,1.4126749E1,3.929573E0,8.324044E0,1.4184227E1,2.9446683E0,5.86635E0,9.755078E0,2.9134278E0,2.445318E0,2.9483252E1,6.3852706E0],"tree_param":{"num_deleted":"0","num_feature":"11","num_nodes":"27","size_leaf_vector":"1"}},{"base_weights":[-1.4927495E-1,-6.3575083E-1,5.807194E-1,-7.1692807E-3,-3.2874742E-1,-1.0683485E-1,7.25891E-1,-4.0470606E-1,9.669468E-4,3.1050408E-1,-7.144626E-3,7.676789E-3,2.4381576E-3,-4.0033314E-4,-5.245698E-3,-3.8667003E-4,5.519409E-3],"categories":[],"categories_nodes":[],"categories_segments":[],"categories_sizes":[],"default_left":[0,0,0,0,0,0,0,0,0,0,0,0,0,0,0,0,0],"id":60,"left_children":[1,3,5,-1,7,9,11,13,-1,15,-1,-1,-1,-1,-1,-1,-1],"loss_changes":[5.3384403E1,2.0088272E0,6.0886364E0,0E0,7.074616E-1,3.1052806E0,8.1711006E-1,7.544713E-1,0E0,6.4837444E-1,0E0,0E0,0E0,0E0,0E0,0E0,0E0],"parents":[2147483647,0,0,1,1,2,2,4,4,5,5,6,6,7,7,9,9],"right_children":[2,4,6,-1,8,10,12,14,-1,16,-1,-1,-1,-1,-1,-1,-1],"split_conditions":[2E0,1E0,8.5E1,-7.1692807E-3,6.3E1,1E0,6.2E1,2E0,9.669468E-4,5.6E1,-7.144626E-3,7.676789E-3,2.4381576E-3,-4.0033314E-4,-5.245698E-3,-3.8667003E-4,5.519409E-3],"split_indices":[10,2,4,0,0,5,0,2,0,0,0,0,0,0,0,0,0],"split_type":[0,0,0,0,0,0,0,0,0,0,0,0,0,0,0,0,0],"sum_hessian":[1.4828618E2,8.906286E1,5.9223324E1,6.938182E1,1.9681042E1,1.0370615E1,4.885271E1,1.674086E1,2.940181E0,6.437865E0,3.9327497E0,4.44106E1,4.44211E0,4.471323E0,1.2269538E1,2.9750829E0,3.462782E0],"tree_param":{"num_deleted":"0","num_feature":"11","num_nodes":"17","size_leaf_vector":"1"}},{"base_weights":[1.0252485E-1,-2.974101E-1,6.019399E-1,-4.8605803E-1,3.6370006E-1,5.3632736E-1,7.119635E-1,-6.482883E-1,-3.2899415E-1,7.227456E-3,1.8902612E-1,5.9392047E-1,2.4623607E-1,7.4486784E-3,3.1966893E-3,-2.7712106E-3,-7.07606E-3,-1.694362E-3,-5.2871183E-3,-1.6536071E-3,7.1746334E-3,6.248517E-3,2.1904036E-3,4.1086634E-4,5.8775744E-3],"categories":[],"categories_nodes":[],"categories_segments":[],"categories_sizes":[],"default_left":[0,0,0,0,0,0,0,0,0,0,0,0,0,0,0,0,0,0,0,0,0,0,0,0,0],"id":61,"left_children":[1,3,5,7,9,11,13,15,17,-1,19,21,23,-1,-1,-1,-1,-1,-1,-1,-1,-1,-1,-1,-1],"loss_changes":[2.9801987E1,1.0531809E1,9.66568E-2,1.4435568E0,1.0552609E0,6.152048E-1,4.2103767E-2,4.8544788E-1,1.0279238E0,0E0,2.7664452E0,2.9585648E-1,6.2447774E-1,0E0,0E0,0E0,0E0,0E0,0E0,0E0,0E0,0E0,0E0,0E0,0E0],"parents":[2147483647,0,0,1,1,2,2,3,3,4,4,5,5,6,6,7,7,8,8,10,10,11,11,12,12],"right_children":[2,4,6,8,10,12,14,16,18,-1,20,22,24,-1,-1,-1,-1,-1,-1,-1,-1,-1,-1,-1,-1],"split_conditions":[1E0,1E0,1.41E2,4.9E1,1.2E2,1.4E2,1.8E2,1.12E2,1.36E2,7.227456E-3,1.41E2,6.4E1,2E0,7.4486784E-3,3.1966893E-3,-2.7712106E-3,-7.07606E-3,-1.694362E-3,-5.2871183E-3,-1.6536071E-3,7.1746334E-3,6.248517E-3,2.1904036E-3,4.1086634E-4,5.8775744E-3],"split_indices":[8,5,3,0,3,3,3,3,3,0,3,0,6,0,0,0,0,0,0,0,0,0,0,0,0],"split_type":[0,0,0,0,0,0,0,0,0,0,0,0,0,0,0,0,0,0,0,0,0,0,0,0,0],"sum_hessian":[1.4731242E2,8.202818E1,6.528424E1,6.402377E1,1.800441E1,4.4576008E1,2.0708233E1,2.9955442E1,3.406833E1,4.8655324E0,1.3138878E1,3.6318233E1,8.257775E0,1.8276512E1,2.4317205E0,4.9091783E0,2.5046265E1,1.9965734E1,1.4102594E1,8.275884E0,4.862994E0,3.293405E1,3.38418E0,5.8587637E0,2.399012E0],"tree_param":{"num_deleted":"0","num_feature":"11","num_nodes":"25","size_leaf_vector":"1"}},{"base_weights":[-1.5265033E-1,-6.3513255E-1,8.1186E-2,-1.6717534E-3,-6.6066164E-1,4.6928576E-1,-8.2259394E-2,-6.873815E-3,-1.9608273E-3,-1.4465438E-3,5.8996473E-3,6.870984E-2,-4.3377754E-1,4.8662345E-3,-3.8284026E-4,-1.7550808E-3,-7.5345538E-3],"categories":[],"categories_nodes":[],"categories_segments":[],"categories_sizes":[],"default_left":[0,0,0,0,0,0,0,0,0,0,0,0,0,0,0,0,0],"id":62,"left_children":[1,3,5,-1,7,9,11,-1,-1,-1,-1,13,15,-1,-1,-1,-1],"loss_changes":[1.7235973E1,4.8491287E-1,6.6026225E0,0E0,4.4763565E-1,2.368363E0,3.939093E0,0E0,0E0,0E0,0E0,2.3614795E0,1.7063541E0,0E0,0E0,0E0,0E0],"parents":[2147483647,0,0,1,1,2,2,4,4,5,5,6,6,11,11,12,12],"right_children":[2,4,6,-1,8,10,12,-1,-1,-1,-1,14,16,-1,-1,-1,-1],"split_conditions":[1.29E2,1.02E2,4.7E1,-1.6717534E-3,7.1E1,1.12E2,1.41E2,-6.873815E-3,-1.9608273E-3,-1.4465438E-3,5.8996473E-3,1E0,6E1,4.8662345E-3,-3.8284026E-4,-1.7550808E-3,-7.5345538E-3],"split_indices":[4,3,0,0,0,3,3,0,0,0,0,1,0,0,0,0,0],"split_type":[0,0,0,0,0,0,0,0,0,0,0,0,0,0,0,0,0],"sum_hessian":[1.5131454E2,4.8835175E1,1.0247937E2,2.916843E0,4.591833E1,2.9814314E1,7.2665054E1,4.296751E1,2.9508188E0,4.865087E0,2.4949228E1,5.1396103E1,2.1268951E1,9.753029E0,4.1643074E1,1.2621219E1,8.647734E0],"tree_param":{"num_deleted":"0","num_feature":"11","num_nodes":"17","size_leaf_vector":"1"}},{"base_weights":[1.6629551E-1,6.736886E-1,-5.4527664E-1,7.332175E-3,4.7510058E-1,2.526645E-1,-7.2591084E-1,5.679707E-1,-2.1730363E-3,-8.4530277E-4,3.938095E-3,-7.655432E-1,-2.9080296E-3,1.5611057E-3,6.566959E-3,-7.816823E-3,-3.3059753E-3],"categories":[],"categories_nodes":[],"categories_segments":[],"categories_sizes":[],"default_left":[0,0,0,0,0,0,0,0,0,0,0,0,0,0,0,0,0],"id":63,"left_children":[1,3,5,-1,7,9,11,13,-1,-1,-1,15,-1,-1,-1,-1,-1],"loss_changes":[5.4508133E1,6.9177246E-1,9.259813E0,0E0,1.6109028E0,6.2181E-1,6.67284E-1,6.5292835E-1,0E0,0E0,0E0,6.929016E-2,0E0,0E0,0E0,0E0,0E0],"parents":[2147483647,0,0,1,1,2,2,4,4,5,5,6,6,7,7,11,11],"right_children":[2,4,6,-1,8,10,12,14,-1,-1,-1,16,-1,-1,-1,-1,-1],"split_conditions":[2E0,1E0,8.5E1,7.332175E-3,2.97E2,5.2E1,6.2E1,2E0,-2.1730363E-3,-8.4530277E-4,3.938095E-3,3.22E2,-2.9080296E-3,1.5611057E-3,6.566959E-3,-7.816823E-3,-3.3059753E-3],"split_indices":[10,2,4,0,4,0,0,2,0,0,0,4,0,0,0,0,0],"split_type":[0,0,0,0,0,0,0,0,0,0,0,0,0,0,0,0,0],"sum_hessian":[1.4895505E2,8.698373E1,6.1971313E1,6.48516E1,2.2132126E1,1.1365614E1,5.06057E1,1.9673138E1,2.4589868E0,3.472039E0,7.8935747E0,4.5684986E1,4.920713E0,3.9760249E0,1.5697114E1,4.3281773E1,2.403216E0],"tree_param":{"num_deleted":"0","num_feature":"11","num_nodes":"17","size_leaf_vector":"1"}},{"base_weights":[-1.3255705E-1,-6.582444E-1,5.305361E-1,-6.934797E-1,-5.284438E-1,-3.2151425E-1,7.1166533E-1,-2.9968566E-3,-7.042094E-1,-5.100797E-2,-7.1498463E-3,-1.807107E-3,-7.3134634E-3,7.545447E-3,-1.4734243E-3,-7.1512596E-3,-3.1329428E-3,-4.148762E-3,3.6573552E-3,4.0171538E-3,-2.58125E-3],"categories":[],"categories_nodes":[],"categories_segments":[],"categories_sizes":[],"default_left":[0,0,0,0,0,0,0,0,0,0,0,0,0,0,0,0,0,0,0,0,0],"id":64,"left_children":[1,3,5,7,9,11,13,-1,15,17,-1,19,-1,-1,-1,-1,-1,-1,-1,-1,-1],"loss_changes":[5.2520485E1,1.739502E-2,1.0528574E1,5.4344177E-2,1.9336677E0,1.6219392E0,2.1498985E0,0E0,3.371811E-2,