{"learner":{"attributes":{},"feature_names":["parents_great_pret","parents_pretentious","parents_usual","has_nurs_critical","has_nurs_improper","has_nurs_less_proper","has_nurs_proper","has_nurs_very_crit","form_complete","form_completed","form_foster","form_incomplete","children_1","children_2","children_3","children_more","housing_convenient","housing_critical","housing_less_conv","finance_convenient","finance_inconv","social_nonprob","social_problematic","social_slightly_prob","health_not_recom","health_priority","health_recommended","class_not_recom","class_priority","class_recommend","class_spec_prior"],"feature_types":["int","int","int","int","int","int","int","int","int","int","int","int","int","int","int","int","int","int","int","int","int","int","int","int","int","int","int","int","int","int","int"],"gradient_booster":{"model":{"gbtree_model_param":{"num_parallel_tree":"1","num_trees":"20"},"iteration_indptr":[0,2,4,6,8,10,12,14,16,18,20],"tree_info":[0,1,0,1,0,1,0,1,0,1,0,1,0,1,0,1,0,1,0,1],"trees":[{"base_weights":[9.5040774E-1,9.252119E-1,2.9980388E-1,8.754842E-1,2.8868374E-1,7.2677594E-1,2.756645E-1,-2.9734513E-1,2.4684864E-1],"categories":[],"categories_nodes":[],"categories_segments":[],"categories_sizes":[],"default_left":[0,0,0,0,0,0,0,0,0],"id":0,"left_children":[1,3,-1,5,-1,7,-1,-1,-1],"loss_changes":[4.669922E0,8.5529785E0,0E0,2.6143555E1,0E0,3.6355392E2,0E0,0E0,0E0],"parents":[2147483647,0,0,1,1,3,3,5,5],"right_children":[2,4,-1,6,-1,8,-1,-1,-1],"split_conditions":[1E0,1E0,2.9980388E-1,1E0,2.8868374E-1,1E0,2.756645E-1,-2.9734513E-1,2.4684864E-1],"split_indices":[0,28,0,24,0,30,0,0,0],"split_type":[0,0,0,0,0,0,0,0,0],"sum_hessian":[4.536E3,3.0075E3,1.5285E3,1.806E3,1.2015E3,8.225E2,9.835E2,1.12E2,7.105E2],"tree_param":{"num_deleted":"0","num_feature":"31","num_nodes":"9","size_leaf_vector":"1"}},{"base_weights":[-9.5040774E-1,-2.9990053E-1,-8.522167E-1,-9.19172E-1,-7.1709234E-1,-8.1813216E-1,-4.9710983E-1,-1.9728632E-1,-7.1428575E-2,-2.7778277E-1,-8.1813216E-1,-2.4543966E-1,-1.9728632E-1,-2.6161122E-1,-2.4543966E-1],"categories":[],"categories_nodes":[],"categories_segments":[],"categories_sizes":[],"default_left":[0,0,0,0,0,0,0,0,0,0,0,0,0,0,0],"id":1,"left_children":[1,-1,3,9,5,11,7,-1,-1,-1,13,-1,-1,-1,-1],"loss_changes":[2.1093262E1,0E0,1.3115356E1,3.9194946E0,1.196283E1,3.7020874E0,9.89455E0,0E0,0E0,0E0,2.5909424E-2,0E0,0E0,0E0,0E0],"parents":[2147483647,0,0,2,2,4,4,6,6,3,3,5,5,10,10],"right_children":[2,-1,4,10,6,12,8,-1,-1,-1,14,-1,-1,-1,-1],"split_conditions":[1E0,-2.9990053E-1,1E0,1E0,1E0,1E0,1E0,-1.9728632E-1,-7.1428575E-2,-2.7778277E-1,1E0,-2.4543966E-1,-1.9728632E-1,-2.6161122E-1,-2.4543966E-1],"split_indices":[26,0,16,12,2,6,19,0,0,0,18,0,0,0,0],"split_type":[0,0,0,0,0,0,0,0,0,0,0,0,0,0,0],"sum_hessian":[4.536E3,3.0145E3,1.5215E3,1.0135E3,5.08E2,3.36E2,1.72E2,8.9E1,8.3E1,7.595E2,2.54E2,2.745E2,6.15E1,1.31E2,1.23E2],"tree_param":{"num_deleted":"0","num_feature":"31","num_nodes":"15","size_leaf_vector":"1"}},{"base_weights":[7.373605E-1,7.134732E-1,2.3559266E-1,6.4906615E-1,2.2481732E-1,-2.8267872E-1,2.0976858E-1],"categories":[],"categories_nodes":[],"categories_segments":[],"categories_sizes":[],"default_left":[0,0,0,0,0,0,0],"id":2,"left_children":[1,3,-1,5,-1,-1,-1],"loss_changes":[4.246826E0,1.082312E1,0E0,2.989151E2,0E0,0E0,0E0],"parents":[2147483647,0,0,1,1,3,3],"right_children":[2,4,-1,6,-1,-1,-1],"split_conditions":[1E0,1E0,2.3559266E-1,1E0,2.2481732E-1,-2.8267872E-1,2.0976858E-1],"split_indices":[28,30,0,24,0,0,0],"split_type":[0,0,0,0,0,0,0],"sum_hessian":[4.195957E3,2.8112874E3,1.3846694E3,1.4905614E3,1.320726E3,1.1150991E2,1.3790515E3],"tree_param":{"num_deleted":"0","num_feature":"31","num_nodes":"7","size_leaf_vector":"1"}},{"base_weights":[-7.373605E-1,-2.3372485E-1,-6.5560204E-1,-7.103382E-1,-5.472113E-1,-6.1391085E-1,-2.6347414E-1,-1.8863244E-1,-1.3160776E-1,-1.3160776E-1,-6.9149793E-3,-2.1520272E-1,-6.2877476E-1,-2.0191757E-1,-1.8863244E-1],"categories":[],"categories_nodes":[],"categories_segments":[],"categories_sizes":[],"default_left":[0,0,0,0,0,0,0,0,0,0,0,0,0,0,0],"id":3,"left_children":[1,-1,3,11,5,7,9,-1,-1,-1,-1,-1,13,-1,-1],"loss_changes":[1.3805664E1,0E0,8.062134E0,3.011078E0,8.965851E0,8.925766E0,5.0427327E0,0E0,0E0,0E0,0E0,0E0,3.2058716E-2,0E0,0E0],"parents":[2147483647,0,0,2,2,4,4,5,5,6,6,3,3,12,12],"right_children":[2,-1,4,12,6,8,10,-1,-1,-1,-1,-1,14,-1,-1],"split_conditions":[1E0,-2.3372485E-1,1E0,1E0,1E0,1E0,1E0,-1.8863244E-1,-1.3160776E-1,-1.3160776E-1,-6.9149793E-3,-2.1520272E-1,1E0,-2.0191757E-1,-1.8863244E-1],"split_indices":[26,0,16,12,6,5,19,0,0,0,0,0,18,0,0],"split_type":[0,0,0,0,0,0,0,0,0,0,0,0,0,0,0],"sum_hessian":[4.1959565E3,2.7725596E3,1.4233972E3,9.420954E2,4.813018E2,3.8875217E2,9.254963E1,2.9068613E2,9.806602E1,4.6621204E1,4.5928425E1,7.038905E2,2.3820488E2,1.22182526E2,1.16022354E2],"tree_param":{"num_deleted":"0","num_feature":"31","num_nodes":"15","size_leaf_vector":"1"}},{"base_weights":[6.3340694E-1,6.0852355E-1,2.0507096E-1,5.430582E-1,1.9381402E-1,-2.6554164E-1,1.7836574E-1],"categories":[],"categories_nodes":[],"categories_segments":[],"categories_sizes":[],"default_left":[0,0,0,0,0,0,0],"id":4,"left_children":[1,3,-1,5,-1,-1,-1],"loss_changes":[4.037964E0,9.74054E0,0E0,2.389783E2,0E0,0E0,0E0],"parents":[2147483647,0,0,1,1,3,3],"right_children":[2,4,-1,6,-1,-1,-1],"split_conditions":[1E0,1E0,2.0507096E-1,1E0,1.9381402E-1,-2.6554164E-1,1.7836574E-1],"split_indices":[28,30,0,24,0,0,0],"split_type":[0,0,0,0,0,0,0],"sum_hessian":[3.5671348E3,2.3931445E3,1.1739905E3,1.2745156E3,1.1186288E3,1.09854355E2,1.1646614E3],"tree_param":{"num_deleted":"0","num_feature":"31","num_nodes":"7","size_leaf_vector":"1"}},{"base_weights":[-6.3340694E-1,-2.0318034E-1,-5.501895E-1,-5.8908165E-1,-3.9376023E-1,-6.1372864E-1,-1.4742628E-1,-4.9142092E-1,-2.0179433E-1,-1.0398229E-1,4.218698E-3,-1.4742628E-1,-1.0398229E-1,-1.841186E-1,-1.6577244E-1],"categories":[],"categories_nodes":[],"categories_segments":[],"categories_sizes":[],"default_left":[0,0,0,0,0,0,0,0,0,0,0,0,0,0,0],"id":5,"left_children":[1,-1,3,5,7,13,-1,11,9,-1,-1,-1,-1,-1,-1],"loss_changes":[1.2650879E1,0E0,7.2929688E0,7.132721E0,4.982792E0,7.1707153E-1,0E0,1.6086121E0,4.0822716E0,0E0,0E0,0E0,0E0,0E0,0E0],"parents":[2147483647,0,0,2,2,3,3,4,4,8,8,7,7,5,5],"right_children":[2,-1,4,6,8,14,-1,12,10,-1,-1,-1,-1,-1,-1],"split_conditions":[1E0,-2.0318034E-1,1E0,1E0,1E0,1E0,-1.4742628E-1,1E0,1E0,-1.0398229E-1,4.218698E-3,-1.4742628E-1,-1.0398229E-1,-1.841186E-1,-1.6577244E-1],"split_indices":[26,0,5,6,16,4,0,12,19,0,0,0,0,0,0],"split_type":[0,0,0,0,0,0,0,0,0,0,0,0,0,0,0],"sum_hessian":[3.567135E3,2.33127E3,1.2358651E3,9.87566E2,2.4829909E2,7.430703E2,2.4449567E2,1.5867343E2,8.962565E1,4.3710083E1,4.5915565E1,1.1478431E2,4.3889126E1,5.0041992E2,2.426504E2],"tree_param":{"num_deleted":"0","num_feature":"31","num_nodes":"15","size_leaf_vector":"1"}},{"base_weights":[5.7072866E-1,5.432807E-1,1.8787736E-1,4.698148E-1,1.7543077E-1,-2.4960433E-1,1.5818761E-1],"categories":[],"categories_nodes":[],"categories_segments":[],"categories_sizes":[],"default_left":[0,0,0,0,0,0,0],"id":6,"left_children":[1,3,-1,5,-1,-1,-1],"loss_changes":[4.1168213E0,9.7230835E0,0E0,1.9612804E2,0E0,0E0,0E0],"parents":[2147483647,0,0,1,1,3,3],"right_children":[2,4,-1,6,-1,-1,-1],"split_conditions":[1E0,1E0,1.8787736E-1,1E0,1.7543077E-1,-2.4960433E-1,1.5818761E-1],"split_indices":[28,24,0,30,0,0,0],"split_type":[0,0,0,0,0,0,0],"sum_hessian":[2.9233328E3,1.9635422E3,9.5979047E2,1.01655853E3,9.4698376E2,1.07116196E2,9.094423E2],"tree_param":{"num_deleted":"0","num_feature":"31","num_nodes":"7","size_leaf_vector":"1"}},{"base_weights":[-5.7072866E-1,-1.8591961E-1,-4.8169008E-1,-5.41591E-1,-3.65475E-1,-4.4706059E-1,-1.4917281E-1,-8.943501E-2,3.78941E-2,-1.6521332E-1,-4.5817664E-1,-1.3605991E-1,-8.943501E-2,-1.5133315E-1,-1.3605991E-1],"categories":[],"categories_nodes":[],"categories_segments":[],"categories_sizes":[],"default_left":[0,0,0,0,0,0,0,0,0,0,0,0,0,0,0],"id":7,"left_children":[1,-1,3,9,5,11,7,-1,-1,-1,13,-1,-1,-1,-1],"loss_changes":[1.246106E1,0E0,7.0599823E0,2.6945343E0,6.245407E0,2.674488E0,4.1286745E0,0E0,0E0,0E0,1.2143631E0,0E0,0E0,0E0,0E0],"parents":[2147483647,0,0,2,2,4,4,6,6,3,3,5,5,10,10],"right_children":[2,-1,4,10,6,12,8,-1,-1,-1,14,-1,-1,-1,-1],"split_conditions":[1E0,-1.8591961E-1,1E0,1E0,1E0,1E0,1E0,-8.943501E-2,3.78941E-2,-1.6521332E-1,1E0,-1.3605991E-1,-8.943501E-2,-1.5133315E-1,-1.3605991E-1],"split_indices":[26,0,2,1,12,16,23,0,0,0,5,0,0,0,0],"split_type":[0,0,0,0,0,0,0,0,0,0,0,0,0,0,0],"sum_hessian":[2.9233328E3,1.8817372E3,1.0415957E3,6.849109E2,3.5668472E2,2.582212E2,9.846355E1,6.3802197E1,3.4661346E1,3.2914664E2,3.5576428E2,1.6207976E2,9.614144E1,2.8300018E2,7.27641E1],"tree_param":{"num_deleted":"0","num_feature":"31","num_nodes":"15","size_leaf_vector":"1"}},{"base_weights":[5.277347E-1,4.9725148E-1,1.7695852E-1,4.1730747E-1,1.6306698E-1,-2.3527826E-1,1.4412962E-1],"categories":[],"categories_nodes":[],"categories_segments":[],"categories_sizes":[],"default_left":[0,0,0,0,0,0,0],"id":8,"left_children":[1,3,-1,5,-1,-1,-1],"loss_changes":[4.1607666E0,9.859863E0,0E0,1.6306705E2,0E0,0E0,0E0],"parents":[2147483647,0,0,1,1,3,3],"right_children":[2,4,-1,6,-1,-1,-1],"split_conditions":[1E0,1E0,1.7695852E-1,1E0,1.6306698E-1,-2.3527826E-1,1.4412962E-1],"split_indices":[28,30,0,24,0,0,0],"split_type":[0,0,0,0,0,0,0],"sum_hessian":[2.350862E3,1.5831024E3,7.6775964E2,8.492444E2,7.33858E2,1.0321459E2,7.4602985E2],"tree_param":{"num_deleted":"0","num_feature":"31","num_nodes":"7","size_leaf_vector":"1"}},{"base_weights":[-5.277347E-1,-1.7504403E-1,-4.3206462E-1,-4.9227554E-1,-3.2024354E-1,-3.979323E-1,-1.24903806E-1,-1.5233171E-1,-4.0625954E-1,-7.54436E-2,2.8898923E-2,-1.21877864E-1,-7.8425415E-2,-1.3710478E-1,-1.21877864E-1],"categories":[],"categories_nodes":[],"categories_segments":[],"categories_sizes":[],"default_left":[0,0,0,0,0,0,0,0,0,0,0,0,0,0,0],"id":9,"left_children":[1,-1,3,7,5,11,9,-1,13,-1,-1,-1,-1,-1,-1],"loss_changes":[1.22907715E1,0E0,5.698044E0,2.979004E0,4.6132145E0,2.2671585E0,2.513298E0,0E0,9.43943E-1,0E0,0E0,0E0,0E0,0E0,0E0],"parents":[2147483647,0,0,2,2,4,4,3,3,6,6,5,5,8,8],"right_children":[2,-1,4,8,6,12,10,-1,14,-1,-1,-1,-1,-1,-1],"split_conditions":[1E0,-1.7504403E-1,1E0,1E0,1E0,1E0,1E0,-1.5233171E-1,1E0,-7.54436E-2,2.8898923E-2,-1.21877864E-1,-7.8425415E-2,-1.3710478E-1,-1.21877864E-1],"split_indices":[26,0,2,1,12,16,23,0,5,0,0,0,0,0,0],"split_type":[0,0,0,0,0,0,0,0,0,0,0,0,0,0,0],"sum_hessian":[2.350862E3,1.4821425E3,8.6871954E2,5.624576E2,3.06262E2,2.183748E2,8.788717E1,2.6579654E2,2.9666104E2,5.5816204E1,3.2070965E1,1.3372206E2,8.465275E1,2.3366634E2,6.2994705E1],"tree_param":{"num_deleted":"0","num_feature":"31","num_nodes":"15","size_leaf_vector":"1"}},{"base_weights":[4.9511528E-1,4.6087164E-1,1.6968842E-1,3.727596E-1,1.5397497E-1,-2.2369787E-1,1.3290143E-1],"categories":[],"categories_nodes":[],"categories_segments":[],"categories_sizes":[],"default_left":[0,0,0,0,0,0,0],"id":10,"left_children":[1,3,-1,5,-1,-1,-1],"loss_changes":[4.263916E0,9.829926E0,0E0,1.3690564E2,0E0,0E0,0E0],"parents":[2147483647,0,0,1,1,3,3],"right_children":[2,4,-1,6,-1,-1,-1],"split_conditions":[1E0,1E0,1.6968842E-1,1E0,1.5397497E-1,-2.2369787E-1,1.3290143E-1],"split_indices":[28,30,0,24,0,0,0],"split_type":[0,0,0,0,0,0,0],"sum_hessian":[1.872813E3,1.2656849E3,6.071281E2,6.864471E2,5.7923785E2,9.843507E1,5.88012E2],"tree_param":{"num_deleted":"0","num_feature":"31","num_nodes":"7","size_leaf_vector":"1"}},{"base_weights":[-4.951153E-1,-1.679332E-1,-3.9026028E-1,-4.563225E-1,-2.7658254E-1,-3.4779242E-1,-2.2563612E-2,-1.0993576E-1,-5.5553406E-2,-4.750188E-1,-3.6645252E-1,-5.5553406E-2,4.3708272E-2,-1.4250565E-1,-1.262207E-1,-1.262207E-1,-1.0993576E-1],"categories":[],"categories_nodes":[],"categories_segments":[],"categories_sizes":[],"default_left":[0,0,0,0,0,0,0,0,0,0,0,0,0,0,0,0,0],"id":11,"left_children":[1,-1,3,9,5,7,11,-1,-1,13,15,-1,-1,-1,-1,-1,-1],"loss_changes":[1.2486237E1,0E0,5.2663193E0,2.6031036E0,4.8120327E0,4.651037E0,1.9583039E0,0E0,0E0,3.014145E-1,1.6571331E-1,0E0,0E0,0E0,0E0,0E0,0E0],"parents":[2147483647,0,0,2,2,4,4,5,5,3,3,6,6,9,9,10,10],"right_children":[2,-1,4,10,6,8,12,-1,-1,14,16,-1,-1,-1,-1,-1,-1],"split_conditions":[1E0,-1.679332E-1,1E0,1E0,1E0,1E0,1E0,-1.0993576E-1,-5.5553406E-2,1E0,1E0,-5.5553406E-2,4.3708272E-2,-1.4250565E-1,-1.262207E-1,-1.262207E-1,-1.0993576E-1],"split_indices":[26,0,16,12,6,5,19,0,0,13,18,0,0,0,0,0,0],"split_type":[0,0,0,0,0,0,0,0,0,0,0,0,0,0,0,0,0],"sum_hessian":[1.8728131E3,1.1557477E3,7.170654E2,4.5160654E2,2.654589E2,2.070475E2,5.841139E1,1.4576047E2,6.128703E1,3.2575284E2,1.25853714E2,2.6859758E1,3.1551628E1,2.119868E2,1.1376603E2,6.1594467E1,6.425925E1],"tree_param":{"num_deleted":"0","num_feature":"31","num_nodes":"17","size_leaf_vector":"1"}},{"base_weights":[4.6868566E-1,4.3019664E-1,1.6466436E-1,3.3338562E-1,1.4686167E-1,-2.1354093E-1,1.2343868E-1],"categories":[],"categories_nodes":[],"categories_segments":[],"categories_sizes":[],"default_left":[0,0,0,0,0,0,0],"id":12,"left_children":[1,3,-1,5,-1,-1,-1],"loss_changes":[4.352783E0,9.739883E0,0E0,1.14731735E2,0E0,0E0,0E0],"parents":[2147483647,0,0,1,1,3,3],"right_children":[2,4,-1,6,-1,-1,-1],"split_conditions":[1E0,1E0,1.6466436E-1,1E0,1.4686167E-1,-2.1354093E-1,1.2343868E-1],"split_indices":[28,30,0,24,0,0,0],"split_type":[0,0,0,0,0,0,0],"sum_hessian":[1.4857094E3,1.008199E3,4.7751044E2,5.5401544E2,4.5418347E2,9.274816E1,4.612673E2],"tree_param":{"num_deleted":"0","num_feature":"31","num_nodes":"7","size_leaf_vector":"1"}},{"base_weights":[-4.6868566E-1,-1.630375E-1,-3.546197E-1,-4.0373272E-1,-1.7941655E-1,-4.4903898E-1,-8.7472394E-2,-2.687335E-1,1.8782819E-2,-8.7472394E-2,-3.7492603E-2,-3.2230448E-2,6.702978E-2,-1.347117E-1,-1.1109204E-1],"categories":[],"categories_nodes":[],"categories_segments":[],"categories_sizes":[],"default_left":[0,0,0,0,0,0,0,0,0,0,0,0,0,0,0],"id":13,"left_children":[1,-1,3,5,7,13,-1,9,11,-1,-1,-1,-1,-1,-1],"loss_changes":[1.2487427E1,0E0,5.017769E0,5.957115E0,2.329719E0,1.0061646E0,0E0,1.3441024E0,1.101875E0,0E0,0E0,0E0,0E0,0E0,0E0],"parents":[2147483647,0,0,2,2,3,3,4,4,7,7,8,8,5,5],"right_children":[2,-1,4,6,8,14,-1,10,12,-1,-1,-1,-1,-1,-1],"split_conditions":[1E0,-1.630375E-1,1E0,1E0,1E0,1E0,-8.7472394E-2,1E0,1E0,-8.7472394E-2,-3.7492603E-2,-3.2230448E-2,6.702978E-2,-1.347117E-1,-1.1109204E-1],"split_indices":[26,0,5,6,12,4,0,13,23,0,0,0,0,0,0],"split_type":[0,0,0,0,0,0,0,0,0,0,0,0,0,0,0],"sum_hessian":[1.4857095E3,8.951533E2,5.9055615E2,4.6023773E2,1.3031839E2,3.341195E2,1.26118225E2,8.958966E1,4.0728733E1,5.480858E1,3.4781082E1,2.548556E1,1.5243173E1,2.2054396E2,1.1357555E2],"tree_param":{"num_deleted":"0","num_feature":"31","num_nodes":"15","size_leaf_vector":"1"}},{"base_weights":[4.4544148E-1,4.020199E-1,1.610498E-1,2.938759E-1,1.408279E-1,-2.0466673E-1,1.1449534E-1],"categories":[],"categories_nodes":[],"categories_segments":[],"categories_sizes":[],"default_left":[0,0,0,0,0,0,0],"id":14,"left_children":[1,3,-1,5,-1,-1,-1],"loss_changes":[4.465027E0,9.758804E0,0E0,9.604965E1,0E0,0E0,0E0],"parents":[2147483647,0,0,1,1,3,3],"right_children":[2,4,-1,6,-1,-1,-1],"split_conditions":[1E0,1E0,1.610498E-1,1E0,1.408279E-1,-2.0466673E-1,1.1449534E-1],"split_indices":[28,24,0,30,0,0,0],"split_type":[0,0,0,0,0,0,0],"sum_hessian":[1.1785428E3,8.0260803E2,3.759348E2,4.4129028E2,3.6131772E2,8.7001915E1,3.542884E2],"tree_param":{"num_deleted":"0","num_feature":"31","num_nodes":"7","size_leaf_vector":"1"}},{"base_weights":[-4.4544148E-1,-1.5956898E-1,-3.2204336E-1,-3.9578083E-1,-1.9807734E-1,-1.28091E-1,-2.969291E-1,-2.7802628E-1,-2.2648107E-2,-8.907873E-2,-4.510116E-2,-3.932061E-2,5.173964E-2,-1.08584866E-1,-8.907873E-2],"categories":[],"categories_nodes":[],"categories_segments":[],"categories_sizes":[],"default_left":[0,0,0,0,0,0,0,0,0,0,0,0,0,0,0],"id":15,"left_children":[1,-1,3,5,7,-1,13,9,11,-1,-1,-1,-1,-1,-1],"loss_changes":[1.2412537E1,0E0,4.3867874E0,3.1990585E0,2.5770483E0,0E0,6.4671993E-1,1.59336E0,1.2654564E0,0E0,0E0,0E0,0E0,0E0,0E0],"parents":[2147483647,0,0,2,2,3,3,4,4,7,7,8,8,6,6],"right_children":[2,-1,4,6,8,-1,14,10,12,-1,-1,-1,-1,-1,-1],"split_conditions":[1E0,-1.5956898E-1,1E0,1E0,1E0,-1.28091E-1,1E0,1E0,1E0,-8.907873E-2,-4.510116E-2,-3.932061E-2,5.173964E-2,-1.08584866E-1,-8.907873E-2],"split_indices":[26,0,2,1,12,0,5,13,21,0,0,0,0,0,0],"split_type":[0,0,0,0,0,0,0,0,0,0,0,0,0,0,0],"sum_hessian":[1.1785428E3,6.9106146E2,4.8748135E2,3.0429056E2,1.831908E2,1.3696713E2,1.6732343E2,1.25439156E2,5.7751648E1,7.71942E1,4.824495E1,3.7334103E1,2.0417547E1,1.2631901E2,4.1004414E1],"tree_param":{"num_deleted":"0","num_feature":"31","num_nodes":"15","size_leaf_vector":"1"}},{"base_weights":[4.2429453E-1,3.7541637E-1,1.5814501E-1,3.0230764E-1,1.3538498E-1,1.3546197E-1,1.1303863E-1,-1.9705978E-1,7.683861E-2],"categories":[],"categories_nodes":[],"categories_segments":[],"categories_sizes":[],"default_left":[0,0,0,0,0,0,0,0,0],"id":16,"left_children":[1,3,-1,5,-1,7,-1,-1,-1],"loss_changes":[4.5172424E0,5.7265244E0,0E0,1.1885326E1,0E0,6.469948E1,0E0,0E0,0E0],"parents":[2147483647,0,0,1,1,3,3,5,5],"right_children":[2,4,-1,6,-1,8,-1,-1,-1],"split_conditions":[1E0,1E0,1.5814501E-1,1E0,1.3538498E-1,1E0,1.1303863E-1,-1.9705978E-1,7.683861E-2],"split_indices":[22,28,0,24,0,30,0,0,0],"split_type":[0,0,0,0,0,0,0,0,0],"sum_hessian":[9.368861E2,6.3823785E2,2.986483E2,4.3198267E2,2.0625516E2,2.4675433E2,1.8522835E2,8.102478E1,1.6572955E2],"tree_param":{"num_deleted":"0","num_feature":"31","num_nodes":"9","size_leaf_vector":"1"}},{"base_weights":[-4.242946E-1,-1.5699533E-1,-2.9425415E-1,-3.4626764E-1,-1.11628905E-1,-4.0878594E-1,-6.868448E-2,-2.2894827E-1,5.4272868E-2,-1.2263579E-1,-9.566013E-2,-2.4635438E-2,7.2593294E-2,-6.868448E-2,-2.6201311E-2],"categories":[],"categories_nodes":[],"categories_segments":[],"categories_sizes":[],"default_left":[0,0,0,0,0,0,0,0,0,0,0,0,0,0,0],"id":17,"left_children":[1,-1,3,5,7,9,-1,13,11,-1,-1,-1,-1,-1,-1],"loss_changes":[1.1923218E1,0E0,3.8343468E0,5.4221E0,1.9114407E0,1.0762482E0,0E0,9.8833275E-1,1.0501825E0,0E0,0E0,0E0,0E0,0E0,0E0],"parents":[2147483647,0,0,2,2,3,3,4,4,5,5,8,8,7,7],"right_children":[2,-1,4,6,8,10,-1,14,12,-1,-1,-1,-1,-1,-1],"split_conditions":[1E0,-1.5699533E-1,1E0,1E0,1E0,1E0,-6.868448E-2,1E0,1E0,-1.2263579E-1,-9.566013E-2,-2.4635438E-2,7.2593294E-2,-6.868448E-2,-2.6201311E-2],"split_indices":[26,0,6,5,16,4,0,12,1,0,0,0,0,0,0],"split_type":[0,0,0,0,0,0,0,0,0,0,0,0,0,0,0],"sum_hessian":[9.368864E2,5.301578E2,4.0672864E2,3.1586972E2,9.085892E1,2.2096857E2,9.4901146E1,5.161432E1,3.92446E1,1.4325388E2,7.771469E1,2.3054867E1,1.618973E1,3.411269E1,1.7501629E1],"tree_param":{"num_deleted":"0","num_feature":"31","num_nodes":"15","size_leaf_vector":"1"}},{"base_weights":[4.0550143E-1,3.5137883E-1,1.5644446E-1,2.169133E-1,1.3092905E-1,-1.9030838E-1,9.800152E-2],"categories":[],"categories_nodes":[],"categories_segments":[],"categories_sizes":[],"default_left":[0,0,0,0,0,0,0],"id":18,"left_children":[1,3,-1,5,-1,-1,-1],"loss_changes":[4.5403214E0,1.0000526E1,0E0,6.634319E1,0E0,0E0,0E0],"parents":[2147483647,0,0,1,1,3,3],"right_children":[2,4,-1,6,-1,-1,-1],"split_conditions":[1E0,1E0,1.5644446E-1,1E0,1.3092905E-1,-1.9030838E-1,9.800152E-2],"split_indices":[28,30,0,24,0,0,0],"split_type":[0,0,0,0,0,0,0],"sum_hessian":[7.514985E2,5.151372E2,2.3636124E2,2.879663E2,2.2717093E2,7.471703E1,2.1324928E2],"tree_param":{"num_deleted":"0","num_feature":"31","num_nodes":"7","size_leaf_vector":"1"}},{"base_weights":[-4.055014E-1,-1.5514019E-1,-2.7055132E-1,-3.2660404E-1,-9.141647E-2,-3.9384264E-1,-6.270308E-2,-2.0471328E-1,9.092503E-2,-6.270308E-2,-1.7068239E-2,-1.181528E-1,-9.0427935E-2,-1.4537924E-2,7.684788E-2],"categories":[],"categories_nodes":[],"categories_segments":[],"categories_sizes":[],"default_left":[0,0,0,0,0,0,0,0,0,0,0,0,0,0,0],"id":19,"left_children":[1,-1,3,5,7,11,-1,9,13,-1,-1,-1,-1,-1,-1],"loss_changes":[1.1196342E1,0E0,3.4118652E0,4.495466E0,1.7349613E0,1.134819E0,0E0,1.2422221E0,7.616505E-1,0E0,0E0,0E0,0E0,0E0,0E0],"parents":[2147483647,0,0,2,2,3,3,4,4,7,7,5,5,8,8],"right_children":[2,-1,4,6,8,12,-1,10,14,-1,-1,-1,-1,-1,-1],"split_conditions":[1E0,-1.5514019E-1,1E0,1E0,1E0,1E0,-6.270308E-2,1E0,1E0,-6.270308E-2,-1.7068239E-2,-1.181528E-1,-9.0427935E-2,-1.4537924E-2,7.684788E-2],"split_indices":[26,0,5,6,1,4,0,2,16,0,0,0,0,0,0],"split_type":[0,0,0,0,0,0,0,0,0,0,0,0,0,0,0],"sum_hessian":[7.514984E2,4.097311E2,3.417673E2,2.5968622E2,8.208106E1,1.8088417E2,7.8802055E1,5.054965E1,3.1531416E1,2.0109133E1,3.0440516E1,1.1542282E2,6.546135E1,1.7486921E1,1.4044495E1],"tree_param":{"num_deleted":"0","num_feature":"31","num_nodes":"15","size_leaf_vector":"1"}}]},"name":"gbtree"},"learner_model_param":{"base_score":"5E-1","boost_from_average":"1","num_class":"2","num_feature":"31","num_target":"1"},"objective":{"name":"multi:softmax","softmax_multiclass_param":{"num_class":"2"}}},"version":[3,0,0]}