{"learner":{"attributes":{},"feature_names":["gender","ssc_p","hsc_p","degree_p","workex","etest_p","mba_p"],"feature_types":["int","float","float","float","int","float","float"],"gradient_booster":{"model":{"gbtree_model_param":{"num_parallel_tree":"1","num_trees":"40"},"iteration_indptr":[0,4,8,12,16,20,24,28,32,36,40],"tree_info":[0,1,2,3,0,1,2,3,0,1,2,3,0,1,2,3,0,1,2,3,0,1,2,3,0,1,2,3,0,1,2,3,0,1,2,3,0,1,2,3],"trees":[{"base_weights":[8.201893E-2,-1.5384616E-1,1.0033445E-1,-1.0588236E-1,-8.026756E-3,-8.026756E-3,1.12676054E-1,1.288803E-2,1.1764706E-1,9.756097E-2,1.3793103E-1,3.5323802E-2,3.3766234E-1,6.831125E-2,1.3170733E-1,2.4657534E-2,3.5323802E-2],"categories":[],"categories_nodes":[],"categories_segments":[],"categories_sizes":[],"default_left":[0,0,0,0,0,0,0,0,0,0,0,0,0,0,0,0,0],"id":0,"left_children":[1,3,5,-1,-1,-1,7,-1,9,15,11,-1,13,-1,-1,-1,-1],"loss_changes":[1.8661577E-1,1.7288366E-1,8.57698E-2,0E0,0E0,0E0,1.5270084E-2,0E0,3.9580464E-4,8.53315E-4,4.457238E-1,0E0,6.0640216E-2,0E0,0E0,0E0,0E0],"parents":[2147483647,0,0,1,1,2,2,6,6,8,8,10,10,12,12,9,9],"right_children":[2,4,6,-1,-1,-1,8,-1,10,16,12,-1,14,-1,-1,-1,-1],"split_conditions":[5.9E1,6.46E1,5.8E1,-1.0588236E-1,-8.026756E-3,-8.026756E-3,5.455E1,1.288803E-2,6.408E1,8.333E1,6.9E1,3.5323802E-2,1E0,6.831125E-2,1.3170733E-1,2.4657534E-2,3.5323802E-2],"split_indices":[2,3,1,0,0,0,6,0,6,1,3,0,4,0,0,0,0],"split_type":[0,0,0,0,0,0,0,0,0,0,0,0,0,0,0,0,0],"sum_hessian":[3.8625E1,2.25E0,3.6375E1,1.125E0,1.125E0,1.875E0,3.45E1,1.5E0,3.3E1,1.95E1,1.35E1,4.875E0,8.625E0,4.5E0,4.125E0,1.725E1,2.25E0],"tree_param":{"num_deleted":"0","num_feature":"7","num_nodes":"17","size_leaf_vector":"1"}},{"base_weights":[7.8864354E-1,-0E0,1.1312218E0,-2.1686748E-1,1.6968328E-1,-1.6800001E-1,1.743717E-1,1.6968328E-1,3.5533983E-1,-1.5384616E-1,5.2311514E-2,-5.7844244E-2,3.0788318E-3],"categories":[],"categories_nodes":[],"categories_segments":[],"categories_sizes":[],"default_left":[0,0,0,0,0,0,0,0,0,0,0,0,0],"id":1,"left_children":[1,3,7,5,-1,-1,9,-1,-1,11,-1,-1,-1],"loss_changes":[1.0705568E1,1.8735064E0,7.041893E-1,1.7521493E0,0E0,0E0,3.1970716E-1,0E0,0E0,1.3820398E-1,0E0,0E0,0E0],"parents":[2147483647,0,0,1,1,3,3,2,2,6,6,9,9],"right_children":[2,4,8,6,-1,-1,10,-1,-1,12,-1,-1,-1],"split_conditions":[1E0,7.65E1,5.7E1,7.42E1,1.6968328E-1,-1.6800001E-1,7.52E1,1.6968328E-1,3.5533983E-1,6.93E1,5.2311514E-2,-5.7844244E-2,3.0788318E-3],"split_indices":[0,2,5,1,0,0,5,0,0,3,0,0,0],"split_type":[0,0,0,0,0,0,0,0,0,0,0,0,0],"sum_hessian":[3.8625E1,1.2E1,2.6625E1,9.375E0,2.625E0,5.25E0,4.125E0,1.875E0,2.475E1,2.25E0,1.875E0,1.125E0,1.125E0],"tree_param":{"num_deleted":"0","num_feature":"7","num_nodes":"13","size_leaf_vector":"1"}},{"base_weights":[-3.7223974E-1,-5.16129E-1,1.2987013E-1,-5.7938837E-2,4.9056605E-1,4.4615492E-2,8.5714287E-1,-5.968586E-1,-2.1538462E-1,-1.2183649E-1,-1.9312945E-1,1.5087917E-1,3.2307696E-1,-1.909091E-1,-1.2183649E-1,-8.9887656E-2,-5.7938837E-2],"categories":[],"categories_nodes":[],"categories_segments":[],"categories_sizes":[],"default_left":[0,0,0,0,0,0,0,0,0,0,0,0,0,0,0,0,0],"id":2,"left_children":[1,7,3,-1,5,-1,11,13,9,-1,15,-1,-1,-1,-1,-1,-1],"loss_changes":[2.9298654E0,6.240959E-1,2.0553238E0,0E0,1.3993474E0,0E0,2.6891398E-1,1.3272762E-1,4.173677E-1,0E0,1.0932595E-2,0E0,0E0,0E0,0E0,0E0,0E0],"parents":[2147483647,0,0,2,2,4,4,1,1,8,8,6,6,7,7,10,10],"right_children":[2,8,4,-1,6,-1,12,14,10,-1,16,-1,-1,-1,-1,-1,-1],"split_conditions":[7.9E1,7.6E1,7.1E1,-5.7938837E-2,6.9E1,4.4615492E-2,6.8E1,6.807E1,7.8E1,-1.2183649E-1,6.65E1,1.5087917E-1,3.2307696E-1,-1.909091E-1,-1.2183649E-1,-8.9887656E-2,-5.7938837E-2],"split_indices":[1,2,5,0,3,0,2,6,5,0,1,0,0,0,0,0,0],"split_type":[0,0,0,0,0,0,0,0,0,0,0,0,0,0,0,0,0],"sum_hessian":[3.8625E1,3E1,8.625E0,3E0,5.625E0,2.25E0,3.375E0,2.2875E1,7.125E0,3.75E0,3.375E0,1.125E0,2.25E0,2.1E1,1.875E0,1.125E0,2.25E0],"tree_param":{"num_deleted":"0","num_feature":"7","num_nodes":"17","size_leaf_vector":"1"}},{"base_weights":[-4.984227E-1,-5.704918E-1,2.4000001E-1,-1.935484E-1,-2.1538462E-1,-4E-1,3.4426235E-2,-1.2908189E-1,-4.2786885E-2],"categories":[],"categories_nodes":[],"categories_segments":[],"categories_sizes":[],"default_left":[0,0,0,0,0,0,0,0,0],"id":3,"left_children":[1,3,-1,-1,5,7,-1,-1,-1],"loss_changes":[4.1643476E0,8.719511E-1,0E0,0E0,7.5734854E-1,2.2112143E-1,0E0,0E0,0E0],"parents":[2147483647,0,0,1,1,4,4,5,5],"right_children":[2,4,-1,-1,6,8,-1,-1,-1],"split_conditions":[9E1,6.694E1,2.4000001E-1,-1.935484E-1,9.134E1,7.34E1,3.4426235E-2,-1.2908189E-1,-4.2786885E-2],"split_indices":[2,6,0,0,5,2,0,0,0],"split_type":[0,0,0,0,0,0,0,0,0],"sum_hessian":[3.8625E1,3.7125E1,1.5E0,3E1,7.125E0,5.25E0,1.875E0,3.75E0,1.5E0],"tree_param":{"num_deleted":"0","num_feature":"7","num_nodes":"9","size_leaf_vector":"1"}},{"base_weights":[6.687692E-2,-1.497675E-1,8.357992E-2,-1.0151255E-1,-9.928138E-3,-9.928138E-3,9.383766E-2,9.111581E-3,2.9165076E-2],"categories":[],"categories_nodes":[],"categories_segments":[],"categories_sizes":[],"default_left":[0,0,0,0,0,0,0,0,0],"id":4,"left_children":[1,3,5,-1,-1,-1,7,-1,-1],"loss_changes":[1.5761422E-1,1.4832237E-1,6.3883364E-2,0E0,0E0,0E0,8.340567E-3,0E0,0E0],"parents":[2147483647,0,0,1,1,2,2,6,6],"right_children":[2,4,6,-1,-1,-1,8,-1,-1],"split_conditions":[5.9E1,6.46E1,5.8E1,-1.0151255E-1,-9.928138E-3,-9.928138E-3,5.455E1,9.111581E-3,2.9165076E-2],"split_indices":[2,3,1,0,0,0,6,0,0],"split_type":[0,0,0,0,0,0,0,0,0],"sum_hessian":[3.9097305E1,2.228342E0,3.686896E1,1.0747964E0,1.1535456E0,1.840277E0,3.5028687E1,1.477622E0,3.3551064E1],"tree_param":{"num_deleted":"0","num_feature":"7","num_nodes":"9","size_leaf_vector":"1"}},{"base_weights":[5.579743E-1,-1.3734951E-2,7.7111745E-1,-2.1017435E-1,1.13607384E-1,-1.6423813E-1,8.425845E-2,3.7869126E-1,8.6158913E-1,1.8604207E-1,3.33391E-1,1.13607384E-1,1.8604207E-1,-1.569076E-1,2.5277536E-2,-6.948029E-2,-1.0897373E-2],"categories":[],"categories_nodes":[],"categories_segments":[],"categories_sizes":[],"default_left":[0,0,0,0,0,0,0,0,0,0,0,0,0,0,0,0,0],"id":5,"left_children":[1,3,7,5,-1,-1,13,11,9,-1,-1,-1,-1,15,-1,-1,-1],"loss_changes":[5.4652605E0,1.3939141E0,8.664646E-1,1.5231869E0,0E0,0E0,1.8252228E-1,5.2936816E-1,9.2274475E-1,0E0,0E0,0E0,0E0,1.3792288E-1,0E0,0E0,0E0],"parents":[2147483647,0,0,1,1,3,3,2,2,8,8,7,7,6,6,13,13],"right_children":[2,4,8,6,-1,-1,14,12,10,-1,-1,-1,-1,16,-1,-1,-1],"split_conditions":[1E0,7.65E1,5.724E1,7.42E1,1.13607384E-1,-1.6423813E-1,7.52E1,6.4E1,1E0,1.8604207E-1,3.33391E-1,1.13607384E-1,1.8604207E-1,6.93E1,2.5277536E-2,-6.948029E-2,-1.0897373E-2],"split_indices":[0,2,6,1,0,0,5,1,4,0,0,0,0,3,0,0,0],"split_type":[0,0,0,0,0,0,0,0,0,0,0,0,0,0,0,0,0],"sum_hessian":[4.3763268E1,1.2138907E1,3.1624361E1,9.268378E0,2.8705285E0,5.065269E0,4.2031097E0,6.748637E0,2.4875723E1,1.4203546E1,1.0672178E1,2.6978712E0,4.050766E0,2.260287E0,1.9428228E0,1.1392386E0,1.1210485E0],"tree_param":{"num_deleted":"0","num_feature":"7","num_nodes":"17","size_leaf_vector":"1"}},{"base_weights":[-3.2568341E-1,-4.6862277E-1,1.1656975E-1,-5.2807953E-2,4.4129598E-1,3.979042E-2,7.438194E-1,-5.578775E-1,-1.7602651E-1,-1.1008561E-1,-1.7602651E-1,1.3146812E-1,2.7702504E-1,-1.8062459E-1,-1.1008561E-1,-8.144678E-2,-5.2807953E-2],"categories":[],"categories_nodes":[],"categories_segments":[],"categories_sizes":[],"default_left":[0,0,0,0,0,0,0,0,0,0,0,0,0,0,0,0,0],"id":6,"left_children":[1,7,3,-1,5,-1,11,13,9,-1,15,-1,-1,-1,-1,-1,-1],"loss_changes":[2.3597949E0,6.9878197E-1,1.7410834E0,0E0,1.0660286E0,0E0,1.97119E-1,1.7360783E-1,3.4279048E-1,0E0,7.5309575E-3,0E0,0E0,0E0,0E0,0E0,0E0],"parents":[2147483647,0,0,2,2,4,4,1,1,8,8,6,6,7,7,10,10],"right_children":[2,8,4,-1,6,-1,12,14,10,-1,16,-1,-1,-1,-1,-1,-1],"split_conditions":[7.9E1,7.6E1,7.1E1,-5.2807953E-2,6.9E1,3.979042E-2,6.8E1,6.807E1,7.8E1,-1.1008561E-1,6.65E1,1.3146812E-1,2.7702504E-1,-1.8062459E-1,-1.1008561E-1,-8.144678E-2,-5.2807953E-2],"split_indices":[1,2,5,0,3,0,2,6,5,0,1,0,0,0,0,0,0],"split_type":[0,0,0,0,0,0,0,0,0,0,0,0,0,0,0,0,0],"sum_hessian":[3.5465286E1,2.6757462E1,8.707827E0,2.8768923E0,5.830934E0,2.187832E0,3.643102E0,2.0302738E1,6.454723E0,3.4009562E0,3.0537667E0,1.1480536E0,2.495048E0,1.8621563E1,1.6811745E0,1.0234057E0,2.0303612E0],"tree_param":{"num_deleted":"0","num_feature":"7","num_nodes":"17","size_leaf_vector":"1"}},{"base_weights":[-4.47412E-1,-5.2517265E-1,2.22207E-1,-1.8226162E-1,-1.5803462E-1,-1.14836E-1,1.0775864E-1,-4.1254204E-2,3.2327592E-2],"categories":[],"categories_nodes":[],"categories_segments":[],"categories_sizes":[],"default_left":[0,0,0,0,0,0,0,0,0],"id":7,"left_children":[1,3,-1,-1,5,-1,7,-1,-1],"loss_changes":[3.6479087E0,9.22843E-1,0E0,0E0,7.0841736E-1,0E0,7.038988E-1,0E0,0E0],"parents":[2147483647,0,0,1,1,4,4,6,6],"right_children":[2,4,-1,-1,6,-1,8,-1,-1],"split_conditions":[9E1,6.694E1,2.22207E-1,-1.8226162E-1,1E0,-1.14836E-1,7.067E1,-4.1254204E-2,3.2327592E-2],"split_indices":[2,6,0,0,0,0,3,0,0],"split_type":[0,0,0,0,0,0,0,0,0],"sum_hessian":[3.4274414E1,3.269267E1,1.5817446E0,2.616733E1,6.5253377E0,2.7830095E0,3.742328E0,2.3656194E0,1.3767087E0],"tree_param":{"num_deleted":"0","num_feature":"7","num_nodes":"9","size_leaf_vector":"1"}},{"base_weights":[5.8721665E-2,-1.4575346E-1,7.43737E-2,-9.6855745E-2,-1.0706964E-2,-1.0706964E-2,8.351015E-2,6.1656266E-2,1.1127986E-1,2.594042E-2,2.814013E-1,5.5180408E-2,1.1004331E-1,3.4540515E-2,8.646806E-2,6.0504287E-2,8.646806E-2,2.2045854E-2,2.594042E-2,1.8151287E-2,2.2045854E-2,7.1730413E-3,1.8151287E-2],"categories":[],"categories_nodes":[],"categories_segments":[],"categories_sizes":[],"default_left":[0,0,0,0,0,0,0,0,0,0,0,0,0,0,0,0,0,0,0,0,0,0,0],"id":8,"left_children":[1,3,5,-1,-1,-1,7,13,9,-1,11,-1,-1,21,15,19,17,-1,-1,-1,-1,-1,-1],"loss_changes":[1.3941695E-1,1.2629163E-1,5.2447766E-2,0E0,0E0,0E0,1.5084654E-2,1.883848E-2,3.6071968E-1,0E0,5.056852E-2,0E0,0E0,8.855566E-3,2.8400019E-2,9.615503E-3,1.652965E-2,0E0,0E0,0E0,0E0,0E0,0E0],"parents":[2147483647,0,0,1,1,2,2,6,6,8,8,10,10,7,7,14,14,16,16,15,15,13,13],"right_children":[2,4,6,-1,-1,-1,8,14,10,-1,12,-1,-1,22,16,20,18,-1,-1,-1,-1,-1,-1],"split_conditions":[5.9E1,6.46E1,5.8E1,-9.6855745E-2,-1.0706964E-2,-1.0706964E-2,6.408E1,1E0,6.9E1,2.594042E-2,1E0,5.5180408E-2,1.1004331E-1,8.65E1,7.324E1,7.5E1,6.64E1,2.2045854E-2,2.594042E-2,1.8151287E-2,2.2045854E-2,7.1730413E-3,1.8151287E-2],"split_indices":[2,3,1,0,0,0,6,4,3,0,4,0,0,1,1,5,3,0,0,0,0,0,0],"split_type":[0,0,0,0,0,0,0,0,0,0,0,0,0,0,0,0,0,0,0,0,0,0,0],"sum_hessian":[3.9174553E1,2.1944592E0,3.6980095E1,1.01623E0,1.1782293E0,1.8181713E0,3.5161922E1,2.1478941E1,1.3682982E1,4.755462E0,8.927521E0,4.5839376E0,4.343583E0,1.3891245E1,7.587695E0,4.8664527E0,2.7212424E0,1.1226723E0,1.5985701E0,2.9639916E0,1.902461E0,1.2765287E1,1.1259577E0],"tree_param":{"num_deleted":"0","num_feature":"7","num_nodes":"23","size_leaf_vector":"1"}},{"base_weights":[4.2580914E-1,-2.1465674E-2,5.8164936E-1,-2.022065E-1,8.402756E-2,-1.6046318E-1,3.8942672E-2,2.8009185E-1,6.593825E-1,1.4126594E-1,2.5397685E-1,8.402756E-2,1.4092116E-1,-1.5550107E-1,1.1682802E-2,-7.439019E-2,-1.748376E-2],"categories":[],"categories_nodes":[],"categories_segments":[],"categories_sizes":[],"default_left":[0,0,0,0,0,0,0,0,0,0,0,0,0,0,0,0,0],"id":9,"left_children":[1,3,7,5,-1,-1,13,11,9,-1,-1,-1,-1,15,-1,-1,-1],"loss_changes":[3.297989E0,1.0801772E0,7.414799E-1,1.3427916E0,0E0,0E0,1.21395856E-1,4.4153136E-1,5.8299637E-1,0E0,0E0,0E0,0E0,1.3175015E-1,0E0,0E0,0E0],"parents":[2147483647,0,0,1,1,3,3,2,2,8,8,7,7,6,6,13,13],"right_children":[2,4,8,6,-1,-1,14,12,10,-1,-1,-1,-1,16,-1,-1,-1],"split_conditions":[1E0,7.65E1,5.724E1,7.42E1,8.402756E-2,-1.6046318E-1,7.52E1,6.4E1,1E0,1.4126594E-1,2.5397685E-1,8.402756E-2,1.4092116E-1,6.93E1,1.1682802E-2,-7.439019E-2,-1.748376E-2],"split_indices":[0,2,6,1,0,0,5,1,4,0,0,0,0,3,0,0,0],"split_type":[0,0,0,0,0,0,0,0,0,0,0,0,0,0,0,0,0],"sum_hessian":[4.6135426E1,1.2143836E1,3.399159E1,9.1193905E0,3.0244455E0,4.869908E0,4.2494826E0,7.17341E0,2.6818178E1,1.5114712E1,1.1703466E1,2.857127E0,4.3162827E0,2.250931E0,1.9985518E0,1.139306E0,1.1116251E0],"tree_param":{"num_deleted":"0","num_feature":"7","num_nodes":"17","size_leaf_vector":"1"}},{"base_weights":[-2.877249E-1,-1.7332885E-1,-7.0461504E-2,-3.2411215E-1,3.4387037E-1,9.879112E-3,6.351221E-1,-3.2411215E-1,-4.947463E-2,9.675019E-2,2.3790386E-1,-5.603802E-2,2.9637339E-3,2.9637339E-3,6.619452E-2,-9.7233646E-2,-5.603802E-2],"categories":[],"categories_nodes":[],"categories_segments":[],"categories_sizes":[],"default_left":[0,0,0,0,0,0,0,0,0,0,0,0,0,0,0,0,0],"id":10,"left_children":[1,-1,3,7,5,13,9,15,11,-1,-1,-1,-1,-1,-1,-1,-1],"loss_changes":[2.0753543E0,0E0,2.3667035E0,2.4237812E-1,9.6767867E-1,1.3881107E-1,2.3652446E-1,1.0115194E-1,1.8675199E-1,0E0,0E0,0E0,0E0,0E0,0E0,0E0,0E0],"parents":[2147483647,0,0,2,2,4,4,3,3,6,6,8,8,5,5,7,7],"right_children":[2,-1,4,8,6,14,10,16,12,-1,-1,-1,-1,-1,-1,-1,-1],"split_conditions":[7.2E1,-1.7332885E-1,7.125E1,8.9E1,7.74E1,7.6E1,6.8E1,6.769E1,6.078E1,9.675019E-2,2.3790386E-1,-5.603802E-2,2.9637339E-3,2.9637339E-3,6.619452E-2,-9.7233646E-2,-5.603802E-2],"split_indices":[5,0,3,5,1,2,2,6,6,0,0,0,0,0,0,0,0],"split_type":[0,0,0,0,0,0,0,0,0,0,0,0,0,0,0,0,0],"sum_hessian":[3.258054E1,1.3242743E1,1.9337797E1,1.1865694E1,7.4721045E0,3.5790374E0,3.893067E0,8.259485E0,3.6062088E0,1.1947416E0,2.6983254E0,1.1595945E0,2.4466143E0,1.4521325E0,2.1269047E0,6.929552E0,1.3299329E0],"tree_param":{"num_deleted":"0","num_feature":"7","num_nodes":"17","size_leaf_vector":"1"}},{"base_weights":[-4.059728E-1,-5.2013755E-1,4.9136204E-1,-4.316327E-3,2.8576598E-1,-1.7492782E-1,-1.9224115E-1,-1.16300076E-1,-4.316327E-3],"categories":[],"categories_nodes":[],"categories_segments":[],"categories_sizes":[],"default_left":[0,0,0,0,0,0,0,0,0],"id":11,"left_children":[1,5,3,-1,-1,-1,7,-1,-1],"loss_changes":[3.4774423E0,4.738741E-1,1.0484313E0,0E0,0E0,0E0,4.533149E-1,0E0,0E0],"parents":[2147483647,0,0,2,2,1,1,6,6],"right_children":[2,6,4,-1,-1,-1,8,-1,-1],"split_conditions":[7.8E1,6.694E1,7.8E1,-4.316327E-3,2.8576598E-1,-1.7492782E-1,6.8E1,-1.16300076E-1,-4.316327E-3],"split_indices":[3,6,2,0,0,0,2,0,0],"split_type":[0,0,0,0,0,0,0,0,0],"sum_hessian":[3.0450018E1,2.738613E1,3.0638876E0,1.8305535E0,1.2333342E0,2.2322077E1,5.0640526E0,2.523209E0,2.5408435E0],"tree_param":{"num_deleted":"0","num_feature":"7","num_nodes":"9","size_leaf_vector":"1"}},{"base_weights":[5.0901804E-2,-4.2755246E-2,6.562895E-2,-1.1533279E-2,7.354417E-2,6.6580676E-2,4.7148656E-2,5.9399802E-2,3.3561427E-2,5.264986E-3,6.1592013E-2,1.7030025E-2,2.5690684E-2],"categories":[],"categories_nodes":[],"categories_segments":[],"categories_sizes":[],"default_left":[0,0,0,0,0,0,0,0,0,0,0,0,0],"id":12,"left_children":[1,-1,3,-1,5,7,-1,9,-1,-1,11,-1,-1],"loss_changes":[1.23533845E-1,0E0,4.0969416E-2,0E0,1.0582194E-2,9.289399E-3,0E0,3.232792E-3,0E0,0E0,4.1142106E-5,0E0,0E0],"parents":[2147483647,0,0,2,2,4,4,5,5,7,7,10,10],"right_children":[2,-1,4,-1,6,8,-1,10,-1,-1,12,-1,-1],"split_conditions":[5.9E1,-4.2755246E-2,5.8E1,-1.1533279E-2,7.401E1,8.3E1,4.7148656E-2,5.455E1,3.3561427E-2,5.264986E-3,8.65E1,1.7030025E-2,2.5690684E-2],"split_indices":[2,0,1,0,6,3,0,6,0,0,1,0,0],"split_type":[0,0,0,0,0,0,0,0,0,0,0,0,0],"sum_hessian":[3.9084255E1,2.151415E0,3.6932842E1,1.7880301E0,3.514481E1,3.4101196E1,1.0436122E0,3.3070744E1,1.0304548E0,1.4819281E0,3.1588816E1,3.045388E1,1.1349347E0],"tree_param":{"num_deleted":"0","num_feature":"7","num_nodes":"13","size_leaf_vector":"1"}},{"base_weights":[3.410807E-1,-1.5225508E-2,4.599932E-1,-1.3566017E-1,1.2713386E-1,2.2238386E-1,5.551985E-1,-1.6253334E-1,2.2238386E-1,2.2238386E-1,1.1663736E-1,8.977577E-3,6.671516E-2,1.2596114E-1,2.0356986E-1,6.671516E-2,9.1676265E-2,-4.8760004E-2,2.593057E-3],"categories":[],"categories_nodes":[],"categories_segments":[],"categories_sizes":[],"default_left":[0,0,0,0,0,0,0,0,0,0,0,0,0,0,0,0,0,0,0],"id":13,"left_children":[1,3,5,-1,7,9,13,17,11,15,-1,-1,-1,-1,-1,-1,-1,-1,-1],"loss_changes":[2.0303473E0,8.610581E-1,6.9127226E-1,0E0,4.5500517E-1,4.235242E-1,1.3170004E-1,4.0431827E-2,1.698944E-1,1.0082644E-1,0E0,0E0,0E0,0E0,0E0,0E0,0E0,0E0,0E0],"parents":[2147483647,0,0,1,1,2,2,4,4,5,5,8,8,6,6,9,9,7,7],"right_children":[2,4,6,-1,8,10,14,18,12,16,-1,-1,-1,-1,-1,-1,-1,-1,-1],"split_conditions":[1E0,6.078E1,6.4E1,-1.3566017E-1,5.9E1,5.724E1,1E0,6.25E1,7.324E1,7.874E1,1.1663736E-1,8.977577E-3,6.671516E-2,1.2596114E-1,2.0356986E-1,6.671516E-2,9.1676265E-2,-4.8760004E-2,2.593057E-3],"split_indices":[0,6,2,0,5,6,4,2,1,5,0,0,0,0,0,0,0,0,0],"split_type":[0,0,0,0,0,0,0,0,0,0,0,0,0,0,0,0,0,0,0],"sum_hessian":[4.6754986E1,1.1917543E1,3.4837444E1,2.3936653E0,9.523878E0,1.0883437E1,2.3954004E1,2.3496783E0,7.1741996E0,4.4427505E0,6.440687E0,1.787859E0,5.3863406E0,1.3523176E1,1.0430829E1,2.9472988E0,1.4954517E0,1.0682628E0,1.2814155E0],"tree_param":{"num_deleted":"0","num_feature":"7","num_nodes":"19","size_leaf_vector":"1"}},{"base_weights":[-2.5705516E-1,-1.6646823E-1,-5.090171E-2,-3.028979E-1,3.1987995E-1,2.5473074E-3,4.8990595E-1,7.475955E-2,2.0658539E-1,-3.028979E-1,-2.0906497E-2,-4.8570663E-2,2.5473074E-3,-9.0869375E-2,-4.8570663E-2],"categories":[],"categories_nodes":[],"categories_segments":[],"categories_sizes":[],"default_left":[0,0,0,0,0,0,0,0,0,0,0,0,0,0,0],"id":14,"left_children":[1,-1,3,9,5,-1,7,-1,-1,13,11,-1,-1,-1,-1],"loss_changes":[1.8902881E0,0E0,1.9694713E0,2.6010132E-1,8.523432E-1,0E0,4.0608466E-1,0E0,0E0,1.2123263E-1,1.6750273E-1,0E0,0E0,0E0,0E0],"parents":[2147483647,0,0,2,2,4,4,6,6,3,3,10,10,9,9],"right_children":[2,-1,4,10,6,-1,8,-1,-1,14,12,-1,-1,-1,-1],"split_conditions":[7.2E1,-1.6646823E-1,7.125E1,8.9E1,6.55E1,2.5473074E-3,7.74E1,7.475955E-2,2.0658539E-1,6.769E1,6.078E1,-4.8570663E-2,2.5473074E-3,-9.0869375E-2,-4.8570663E-2],"split_indices":[5,0,3,5,2,0,1,0,0,6,6,0,0,0,0],"split_type":[0,0,0,0,0,0,0,0,0,0,0,0,0,0,0],"sum_hessian":[3.024621E1,1.1679977E1,1.8566233E1,1.104826E1,7.517973E0,1.2762506E0,6.241722E0,2.6440067E0,3.5977156E0,7.6235557E0,3.4247036E0,1.0976917E0,2.327012E0,6.3910747E0,1.2324812E0],"tree_param":{"num_deleted":"0","num_feature":"7","num_nodes":"15","size_leaf_vector":"1"}},{"base_weights":[-3.674899E-1,-1.6904747E-1,2.0717046E-1,-5.344817E-2,5.311224E-1,5.2944276E-2,3.5288617E-1],"categories":[],"categories_nodes":[],"categories_segments":[],"categories_sizes":[],"default_left":[0,0,0,0,0,0,0],"id":15,"left_children":[1,-1,3,-1,5,-1,-1],"loss_changes":[3.272632E0,0E0,1.6257102E0,0E0,2.3395472E0,0E0,0E0],"parents":[2147483647,0,0,2,2,4,4],"right_children":[2,-1,4,-1,6,-1,-1],"split_conditions":[6.694E1,-1.6904747E-1,7.067E1,-5.344817E-2,1E0,5.2944276E-2,3.5288617E-1],"split_indices":[6,0,3,0,0,0,0],"split_type":[0,0,0,0,0,0,0],"sum_hessian":[2.701891E1,2.0161713E1,6.8571978E0,2.2436268E0,4.613571E0,2.5356638E0,2.077907E0],"tree_param":{"num_deleted":"0","num_feature":"7","num_nodes":"7","size_leaf_vector":"1"}},{"base_weights":[5.4736406E-2,-4.086341E-2,6.91283E-2,3.6743548E-2,1.10474385E-1,2.208269E-2,2.987992E-1,-1.0062461E-2,7.077139E-2,1.8614927E-2,2.208269E-2,1.8620408E-1,1.20554276E-1,5.5861223E-2,8.820775E-2,5.5844784E-3,1.3833584E-2],"categories":[],"categories_nodes":[],"categories_segments":[],"categories_sizes":[],"default_left":[0,0,0,0,0,0,0,0,0,0,0,0,0,0,0,0,0],"id":16,"left_children":[1,-1,3,7,5,-1,11,-1,9,15,-1,13,-1,-1,-1,-1,-1],"loss_changes":[1.181327E-1,0E0,4.60874E-2,1.2099456E-1,4.1097832E-1,0E0,5.1229835E-2,0E0,5.2546054E-2,6.8179066E-3,0E0,3.5008937E-2,0E0,0E0,0E0,0E0,0E0],"parents":[2147483647,0,0,2,2,4,4,3,3,8,8,6,6,11,11,9,9],"right_children":[2,-1,4,8,6,-1,12,-1,10,16,-1,14,-1,-1,-1,-1,-1],"split_conditions":[5.9E1,-4.086341E-2,1E0,5.8E1,6.8E1,2.208269E-2,6.672E1,-1.0062461E-2,6.362E1,8.65E1,2.208269E-2,7.324E1,1.20554276E-1,5.5861223E-2,8.820775E-2,5.5844784E-3,1.3833584E-2],"split_indices":[2,0,4,1,3,0,6,0,6,1,0,1,0,0,0,0,0],"split_type":[0,0,0,0,0,0,0,0,0,0,0,0,0,0,0,0,0],"sum_hessian":[3.856067E1,2.1093903E0,3.645128E1,2.1499924E1,1.4951354E1,7.312625E0,7.6387286E0,1.0620918E0,2.0437832E1,1.3997663E1,6.4401703E0,4.436323E0,3.2024057E0,1.8323948E0,2.6039283E0,1.2861287E1,1.136375E0],"tree_param":{"num_deleted":"0","num_feature":"7","num_nodes":"17","size_leaf_vector":"1"}},{"base_weights":[2.7213398E-1,-3.3668462E-2,3.7599617E-1,-1.9634971E-1,5.134916E-2,-1.5566024E-1,-1.2592927E-2,1.7116386E-1,4.713119E-1,1.7116386E-1,3.2123786E-1,5.134916E-2,7.386026E-2,1.072212E-1,1.7293134E-1,-1.6861133E-1,-3.7778781E-3,-7.971905E-2,-2.718064E-2,7.386026E-2,9.637136E-2],"categories":[],"categories_nodes":[],"categories_segments":[],"categories_sizes":[],"default_left":[0,0,0,0,0,0,0,0,0,0,0,0,0,0,0,0,0,0,0,0,0],"id":17,"left_children":[1,3,7,5,-1,-1,15,9,13,11,19,-1,-1,-1,-1,17,-1,-1,-1,-1,-1],"loss_changes":[1.532098E0,7.6279706E-1,7.120614E-1,1.0998771E0,0E0,0E0,7.9740986E-2,3.5883582E-1,9.213066E-2,1.09032154E-1,8.392572E-3,0E0,0E0,0E0,0E0,1.1502326E-1,0E0,0E0,0E0,0E0,0E0],"parents":[2147483647,0,0,1,1,3,3,2,2,7,7,9,9,8,8,6,6,15,15,10,10],"right_children":[2,4,8,6,-1,-1,16,10,14,12,20,-1,-1,-1,-1,18,-1,-1,-1,-1,-1],"split_conditions":[1E0,7.65E1,6.4E1,7.42E1,5.134916E-2,-1.5566024E-1,7.52E1,5.724E1,1E0,7.874E1,1E0,5.134916E-2,7.386026E-2,1.072212E-1,1.7293134E-1,6.93E1,-3.7778781E-3,-7.971905E-2,-2.718064E-2,7.386026E-2,9.637136E-2],"split_indices":[0,2,2,1,0,0,5,6,4,5,4,0,0,0,0,3,0,0,0,0,0],"split_type":[0,0,0,0,0,0,0,0,0,0,0,0,0,0,0,0,0,0,0,0,0],"sum_hessian":[4.68393E1,1.2046502E1,3.4792797E1,8.917186E0,3.1293163E0,4.598234E0,4.318952E0,1.089415E1,2.3898647E1,4.479112E0,6.4150376E0,2.9845347E0,1.4945772E0,1.3581908E1,1.031674E1,2.28241E0,2.036542E0,1.1668923E0,1.1155176E0,3.490216E0,2.9248216E0],"tree_param":{"num_deleted":"0","num_feature":"7","num_nodes":"21","size_leaf_vector":"1"}},{"base_weights":[-2.2816285E-1,-1.6050774E-1,-3.2663442E-2,-2.432376E-1,3.647136E-1,-2.8384462E-1,6.0738005E-2,1.8221403E-2,5.18103E-1,8.682616E-2,1.9692053E-1,-8.5153386E-2,-3.3465996E-2,-1.1146361E-1,1.8221403E-2,-3.3465996E-2,-7.6088407E-3],"categories":[],"categories_nodes":[],"categories_segments":[],"categories_sizes":[],"default_left":[0,0,0,0,0,0,0,0,0,0,0,0,0,0,0,0,0],"id":18,"left_children":[1,-1,3,5,7,11,13,-1,9,-1,-1,-1,-1,15,-1,-1,-1],"loss_changes":[1.7280471E0,0E0,1.665035E0,9.0643394E-1,4.2523372E-1,1.6551566E-1,9.265442E-2,0E0,1.6915977E-1,0E0,0E0,0E0,0E0,7.0863485E-2,0E0,0E0,0E0],"parents":[2147483647,0,0,2,2,3,3,4,4,8,8,5,5,6,6,13,13],"right_children":[2,-1,4,6,8,12,14,-1,10,-1,-1,-1,-1,16,-1,-1,-1],"split_conditions":[7.2E1,-1.6050774E-1,7.9E1,7.6E1,6.9E1,6.769E1,9E1,1.8221403E-2,6.8E1,8.682616E-2,1.9692053E-1,-8.5153386E-2,-3.3465996E-2,6.323E1,1.8221403E-2,-3.3465996E-2,-7.6088407E-3],"split_indices":[5,0,1,2,3,6,5,0,2,0,0,0,0,6,0,0,0],"split_type":[0,0,0,0,0,0,0,0,0,0,0,0,0,0,0,0,0],"sum_hessian":[2.8096157E1,1.0258046E1,1.7838112E1,1.1913119E1,5.9249916E0,8.569458E0,3.3436615E0,1.8155823E0,4.1094093E0,1.2473496E0,2.8620598E0,7.4068737E0,1.1625844E0,2.2489882E0,1.0946734E0,1.1553019E0,1.0936861E0],"tree_param":{"num_deleted":"0","num_feature":"7","num_nodes":"17","size_leaf_vector":"1"}},{"base_weights":[-3.3758867E-1,-1.6363755E-1,1.872922E-1,-1.441707E-1,6.8051755E-1,-5.3724945E-2,4.7582235E-2,8.045203E-2,2.7152053E-1],"categories":[],"categories_nodes":[],"categories_segments":[],"categories_sizes":[],"default_left":[0,0,0,0,0,0,0,0,0],"id":19,"left_children":[1,-1,3,5,7,-1,-1,-1,-1],"loss_changes":[2.8640041E0,0E0,1.3937941E0,3.4345883E-1,2.760589E-1,0E0,0E0,0E0,0E0],"parents":[2147483647,0,0,2,2,3,3,4,4],"right_children":[2,-1,4,6,8,-1,-1,-1,-1],"split_conditions":[6.694E1,-1.6363755E-1,7.725E1,6.8E1,1E0,-5.3724945E-2,4.7582235E-2,8.045203E-2,2.7152053E-1],"split_indices":[6,0,3,2,0,0,0,0,0],"split_type":[0,0,0,0,0,0,0,0,0],"sum_hessian":[2.431319E1,1.7387838E1,6.9253516E0,4.5651355E0,2.3602161E0,2.2125416E0,2.3525937E0,1.0938795E0,1.2663367E0],"tree_param":{"num_deleted":"0","num_feature":"7","num_nodes":"9","size_leaf_vector":"1"}},{"base_weights":[4.416265E-2,-4.1046932E-2,5.7956167E-2,2.7010936E-2,9.784916E-2,1.8729014E-2,2.6026323E-1,-1.1830041E-2,5.980928E-2,1.0187905E-2,6.2430046E-2,1.6134664E-1,1.0604296E-1,4.8403997E-2,7.722348E-2,3.0563718E-3,1.0892693E-2,1.0892693E-2,1.8729014E-2],"categories":[],"categories_nodes":[],"categories_segments":[],"categories_sizes":[],"default_left":[0,0,0,0,0,0,0,0,0,0,0,0,0,0,0,0,0,0,0],"id":20,"left_children":[1,-1,3,7,5,-1,11,-1,9,15,17,13,-1,-1,-1,-1,-1,-1,-1],"loss_changes":[1.06157124E-1,0E0,4.3358326E-2,1.09736905E-1,3.1865165E-1,0E0,4.6842277E-2,0E0,4.9674697E-2,6.759832E-3,8.8103116E-4,3.6338672E-2,0E0,0E0,0E0,0E0,0E0,0E0,0E0],"parents":[2147483647,0,0,2,2,4,4,3,3,8,8,6,6,11,11,9,9,10,10],"right_children":[2,-1,4,8,6,-1,12,-1,10,16,18,14,-1,-1,-1,-1,-1,-1,-1],"split_conditions":[5.9E1,-4.1046932E-2,1E0,5.8E1,6.8E1,1.8729014E-2,6.672E1,-1.1830041E-2,6.362E1,8.65E1,6.65E1,7.324E1,1.0604296E-1,4.8403997E-2,7.722348E-2,3.0563718E-3,1.0892693E-2,1.0892693E-2,1.8729014E-2],"split_indices":[2,0,4,1,3,0,6,0,6,1,1,1,0,0,0,0,0,0,0],"split_type":[0,0,0,0,0,0,0,0,0,0,0,0,0,0,0,0,0,0,0],"sum_hessian":[3.8347137E1,2.0839605E0,3.6263176E1,2.1366299E1,1.4896879E1,7.1459875E0,7.750892E0,1.0409532E0,2.0325346E1,1.3956313E1,6.3690324E0,4.457174E0,3.2937179E0,1.818104E0,2.63907E0,1.2824038E1,1.1322756E0,1.2523938E0,5.1166387E0],"tree_param":{"num_deleted":"0","num_feature":"7","num_nodes":"19","size_leaf_vector":"1"}},{"base_weights":[2.2709754E-1,-1.6038013E-1,2.8365627E-1,-4.4754738E-1,1.8491423E-2,6.1638072E-2,3.3706668E-1,2.1180665E-1,4.870722E-1,1.8491423E-2,5.9805717E-2,1.0483184E-1,1.7868045E-1,5.9805717E-2,1.0483184E-1,-1.8166825E-1,-5.78864E-2],"categories":[],"categories_nodes":[],"categories_segments":[],"categories_sizes":[],"default_left":[0,0,0,0,0,0,0,0,0,0,0,0,0,0,0,0,0],"id":21,"left_children":[1,3,5,15,-1,9,7,13,11,-1,-1,-1,-1,-1,-1,-1,-1],"loss_changes":[1.0760422E0,7.9434484E-1,5.8873224E-1,2.118743E-1,0E0,3.1440946E-1,5.489969E-1,2.7149516E-1,2.8519607E-1,0E0,0E0,0E0,0E0,0E0,0E0,0E0,0E0],"parents":[2147483647,0,0,1,1,2,2,6,6,5,5,8,8,7,7,3,3],"right_children":[2,4,6,16,-1,10,8,14,12,-1,-1,-1,-1,-1,-1,-1,-1],"split_conditions":[5.76E1,7.029E1,5.724E1,6.96E1,1.8491423E-2,6.4E1,1E0,7.65E1,1E0,1.8491423E-2,5.9805717E-2,1.0483184E-1,1.7868045E-1,5.9805717E-2,1.0483184E-1,-1.8166825E-1,-5.78864E-2],"split_indices":[5,2,6,1,0,1,4,2,0,0,0,0,0,0,0,0,0],"split_type":[0,0,0,0,0,0,0,0,0,0,0,0,0,0,0,0,0],"sum_hessian":[4.6024307E1,5.62849E0,4.0395817E1,3.3386312E0,2.289859E0,6.6873264E0,3.370849E1,1.9683802E1,1.4024688E1,2.7904465E0,3.89688E0,3.6061678E0,1.041852E1,1.4965172E1,4.718629E0,2.1150892E0,1.2235417E0],"tree_param":{"num_deleted":"0","num_feature":"7","num_nodes":"17","size_leaf_vector":"1"}},{"base_weights":[-1.9947457E-1,-1.5625446E-1,-1.2538511E-2,-8.0008E-2,1.8567593E-1,-4.0508695E-2,4.278972E-1,1.9369426E-1,1.7752267E-1,-4.0508695E-2,5.5813458E-2,-1.2152609E-2,2.1830425E-2,5.810828E-2,1.1504062E-1],"categories":[],"categories_nodes":[],"categories_segments":[],"categories_sizes":[],"default_left":[0,0,0,0,0,0,0,0,0,0,0,0,0,0,0],"id":22,"left_children":[1,-1,3,-1,5,9,7,13,-1,11,-1,-1,-1,-1,-1],"loss_changes":[1.6180514E0,0E0,1.5098462E0,0E0,9.1951025E-1,1.687506E-1,3.4776366E-1,4.5997895E-2,0E0,7.1737625E-2,0E0,0E0,0E0,0E0,0E0],"parents":[2147483647,0,0,2,2,4,4,6,6,5,5,9,9,7,7],"right_children":[2,-1,4,-1,6,10,8,14,-1,12,-1,-1,-1,-1,-1],"split_conditions":[6.8E1,-1.5625446E-1,7.2E1,-8.0008E-2,7.125E1,6.525E1,7.34E1,8.3E1,1.7752267E-1,7.5E1,5.5813458E-2,-1.2152609E-2,2.1830425E-2,5.810828E-2,1.1504062E-1],"split_indices":[1,0,5,0,3,6,2,1,0,2,0,0,0,0,0],"split_type":[0,0,0,0,0,0,0,0,0,0,0,0,0,0,0],"sum_hessian":[2.6041967E1,8.920292E0,1.7121675E1,4.675806E0,1.2445869E1,6.11221E0,6.3336596E0,2.3631406E0,3.9705188E0,3.7924528E0,2.3197572E0,2.7252886E0,1.0671641E0,1.0441937E0,1.318947E0],"tree_param":{"num_deleted":"0","num_feature":"7","num_nodes":"15","size_leaf_vector":"1"}},{"base_weights":[-3.072839E-1,-1.592508E-1,1.9270724E-1,-5.0719313E-2,4.6397412E-1,1.4745487E-1,2.3608457E-1,4.4236463E-2,1.0698114E-1],"categories":[],"categories_nodes":[],"categories_segments":[],"categories_sizes":[],"default_left":[0,0,0,0,0,0,0,0,0],"id":23,"left_children":[1,-1,3,-1,5,7,-1,-1,-1],"loss_changes":[2.6567528E0,0E0,1.2878911E0,0E0,6.46551E-1,9.552198E-2,0E0,0E0,0E0],"parents":[2147483647,0,0,2,2,4,4,5,5],"right_children":[2,-1,4,-1,6,8,-1,-1,-1],"split_conditions":[6.694E1,-1.592508E-1,6.7E1,-5.0719313E-2,7.725E1,7.42E1,2.3608457E-1,4.4236463E-2,1.0698114E-1],"split_indices":[6,0,2,0,3,1,0,0,0],"split_type":[0,0,0,0,0,0,0,0,0],"sum_hessian":[2.185376E1,1.5059007E1,6.794753E0,1.9639038E0,4.830849E0,2.7682555E0,2.062594E0,1.0875026E0,1.6807528E0],"tree_param":{"num_deleted":"0","num_feature":"7","num_nodes":"9","size_leaf_vector":"1"}},{"base_weights":[4.316883E-2,-3.7406877E-2,5.5722058E-2,2.3042977E-2,9.848374E-2,1.8229008E-2,2.425064E-1,-3.4483764E-2,6.076336E-2,3.941939E-3,1.8229008E-2,1.5163487E-1,9.582085E-2,4.5490462E-2,7.065566E-2,-3.4483764E-2,3.941939E-3,-1.0345129E-2,-2.2990992E-2,-8.621214E-3,-3.2015953E-3],"categories":[],"categories_nodes":[],"categories_segments":[],"categories_sizes":[],"default_left":[0,0,0,0,0,0,0,0,0,0,0,0,0,0,0,0,0,0,0,0,0],"id":24,"left_children":[1,-1,3,7,5,-1,11,15,9,-1,-1,13,-1,-1,-1,17,-1,-1,19,-1,-1],"loss_changes":[8.8878386E-2,0E0,4.924977E-2,1.1017607E-1,2.6290452E-1,0E0,5.4854155E-2,1.858219E-2,7.0813656E-2,0E0,0E0,8.471743E-2,0E0,0E0,0E0,4.717745E-4,0E0,0E0,7.3584276E-3,0E0,0E0],"parents":[2147483647,0,0,2,2,4,4,3,3,8,8,6,6,11,11,7,7,15,15,18,18],"right_children":[2,-1,4,8,6,-1,12,16,10,-1,-1,14,-1,-1,-1,18,-1,-1,20,-1,-1],"split_conditions":[5.9E1,-3.7406877E-2,1E0,6.362E1,6.8E1,1.8229008E-2,7.324E1,8.65E1,6.4E1,3.941939E-3,1.8229008E-2,6.408E1,9.582085E-2,4.5490462E-2,7.065566E-2,6.1E1,3.941939E-3,-1.0345129E-2,6.25E1,-8.621214E-3,-3.2015953E-3],"split_indices":[2,0,4,6,3,0,1,1,1,0,0,6,0,0,0,3,0,0,2,0,0],"split_type":[0,0,0,0,0,0,0,0,0,0,0,0,0,0,0,0,0,0,0,0,0],"sum_hessian":[3.788182E1,2.0142977E0,3.586752E1,2.1202864E1,1.4664658E1,6.918665E0,7.745993E0,1.4643683E1,6.5591793E0,1.0756295E0,5.48355E0,3.414222E0,4.3317714E0,1.2999976E0,2.1142244E0,1.3526889E1,1.1167951E0,1.9522594E0,1.1574629E1,1.9233576E0,9.651272E0],"tree_param":{"num_deleted":"0","num_feature":"7","num_nodes":"21","size_leaf_vector":"1"}},{"base_weights":[1.8471277E-1,-5.0435245E-2,2.6727495E-1,1.0841985E-1,3.6406565E-1,-1.3037002E-1,7.0699714E-2,-1.8193349E-1,1.0841985E-1,1.0841985E-1,7.087283E-2,3.2525957E-2,5.1699392E-2,2.6620123E-1,1.3849278E-1,-1.10270465E-2,3.2525957E-2,-5.458005E-2,-1.5450624E-2,7.087283E-2,1.0917657E-1],"categories":[],"categories_nodes":[],"categories_segments":[],"categories_sizes":[],"default_left":[0,0,0,0,0,0,0,0,0,0,0,0,0,0,0,0,0,0,0,0,0],"id":25,"left_children":[1,5,3,9,13,-1,7,17,15,11,-1,-1,-1,19,-1,-1,-1,-1,-1,-1,-1],"loss_changes":[9.1621876E-1,6.321309E-1,6.836641E-1,2.7354938E-1,1.0620284E-1,0E0,3.72051E-1,6.624609E-3,1.03007734E-1,1.1166224E-1,0E0,0E0,0E0,4.2123795E-3,0E0,0E0,0E0,0E0,0E0,0E0,0E0],"parents":[2147483647,0,0,2,2,1,1,6,6,3,3,9,9,4,4,8,8,7,7,13,13],"right_children":[2,6,4,10,14,-1,8,18,16,12,-1,-1,-1,20,-1,-1,-1,-1,-1,-1,-1],"split_conditions":[1E0,6.078E1,6.4E1,7.874E1,1E0,-1.3037002E-1,5.9E1,6.25E1,7.324E1,5.724E1,7.087283E-2,3.2525957E-2,5.1699392E-2,8E1,1.3849278E-1,-1.10270465E-2,3.2525957E-2,-5.458005E-2,-1.5450624E-2,7.087283E-2,1.0917657E-1],"split_indices":[0,6,2,5,4,0,5,2,1,6,0,0,0,2,0,0,0,0,0,0,0],"split_type":[0,0,0,0,0,0,0,0,0,0,0,0,0,0,0,0,0,0,0,0,0],"sum_hessian":[4.549856E1,1.19246645E1,3.35739E1,1.0583456E1,2.2990442E1,2.238546E0,9.686119E0,2.3982747E0,7.287844E0,7.2511187E0,3.332337E0,2.9817467E0,4.2693725E0,1.3339629E1,9.650813E0,1.7993772E0,5.4884667E0,1.0632404E0,1.3350343E0,1.0632347E1,2.7072816E0],"tree_param":{"num_deleted":"0","num_feature":"7","num_nodes":"21","size_leaf_vector":"1"}},{"base_weights":[-1.768905E-1,-1.5199822E-1,7.667624E-3,-7.4848965E-2,1.8004131E-1,-3.472761E-2,3.95912E-1,1.805922E-1,1.6482054E-1,-3.472761E-2,5.417766E-2,-1.0418284E-2,2.1879688E-2,5.417766E-2,1.094991E-1],"categories":[],"categories_nodes":[],"categories_segments":[],"categories_sizes":[],"default_left":[0,0,0,0,0,0,0,0,0,0,0,0,0,0,0],"id":26,"left_children":[1,-1,3,-1,5,9,7,13,-1,11,-1,-1,-1,-1,-1],"loss_changes":[1.5583546E0,0E0,1.2612636E0,0E0,7.6110065E-1,1.7313789E-1,3.1154394E-1,4.8467714E-2,0E0,7.377269E-2,0E0,0E0,0E0,0E0,0E0],"parents":[2147483647,0,0,2,2,4,4,6,6,5,5,9,9,7,7],"right_children":[2,-1,4,-1,6,10,8,14,-1,12,-1,-1,-1,-1,-1],"split_conditions":[7.2E1,-1.5199822E-1,6.716E1,-7.4848965E-2,7.125E1,6.525E1,7.34E1,8.3E1,1.6482054E-1,7.5E1,5.417766E-2,-1.0418284E-2,2.1879688E-2,5.417766E-2,1.094991E-1],"split_indices":[5,0,1,0,3,6,2,1,0,2,0,0,0,0,0],"split_type":[0,0,0,0,0,0,0,0,0,0,0,0,0,0,0],"sum_hessian":[2.4540998E1,8.17987E0,1.636113E1,3.9647849E0,1.2396345E1,5.953806E0,6.442539E0,2.3755598E0,4.0669794E0,3.6761892E0,2.2776165E0,2.6511116E0,1.0250776E0,1.0459459E0,1.3296139E0],"tree_param":{"num_deleted":"0","num_feature":"7","num_nodes":"15","size_leaf_vector":"1"}},{"base_weights":[-2.777091E-1,-1.54996E-1,1.897169E-1,-4.9040463E-2,4.3684086E-1,1.3668633E-1,2.1727677E-1,4.10059E-2,1.0528695E-1],"categories":[],"categories_nodes":[],"categories_segments":[],"categories_sizes":[],"default_left":[0,0,0,0,0,0,0,0,0],"id":27,"left_children":[1,-1,3,-1,5,7,-1,-1,-1],"loss_changes":[2.4103057E0,0E0,1.1340593E0,0E0,5.348953E-1,1.0475518E-1,0E0,0E0,0E0],"parents":[2147483647,0,0,2,2,4,4,5,5],"right_children":[2,-1,4,-1,6,8,-1,-1,-1],"split_conditions":[6.694E1,-1.54996E-1,6.7E1,-4.9040463E-2,7.725E1,7.42E1,2.1727677E-1,4.10059E-2,1.0528695E-1],"split_indices":[6,0,2,0,3,1,0,0,0],"split_type":[0,0,0,0,0,0,0,0,0],"sum_hessian":[1.9702963E1,1.2968342E1,6.7346215E0,1.8362676E0,4.898354E0,2.7556586E0,2.1426954E0,1.067055E0,1.6886036E0],"tree_param":{"num_deleted":"0","num_feature":"7","num_nodes":"9","size_leaf_vector":"1"}},{"base_weights":[4.1332535E-2,-3.6402397E-2,5.3517904E-2,2.1716483E-2,9.510128E-2,1.7522665E-2,2.2334658E-1,-3.3911705E-2,5.8408882E-2,3.6745768E-3,1.7522665E-2,1.4087772E-1,9.362469E-2,4.2263318E-2,6.7944005E-2,-3.3911705E-2,3.6745768E-3,-1.0173512E-2,-2.3563212E-2,-8.621238E-3,-3.2494676E-3],"categories":[],"categories_nodes":[],"categories_segments":[],"categories_sizes":[],"default_left":[0,0,0,0,0,0,0,0,0,0,0,0,0,0,0,0,0,0,0,0,0],"id":28,"left_children":[1,-1,3,7,5,-1,11,15,9,-1,-1,13,-1,-1,-1,17,-1,-1,19,-1,-1],"loss_changes":[8.244207E-2,0E0,4.598877E-2,1.1036412E-1,2.1294132E-1,0E0,4.7697812E-2,1.656713E-2,6.7102715E-2,0E0,0E0,3.0325845E-2,0E0,0E0,0E0,1.8204004E-4,0E0,0E0,6.5591694E-3,0E0,0E0],"parents":[2147483647,0,0,2,2,4,4,3,3,8,8,6,6,11,11,7,7,15,15,18,18],"right_children":[2,-1,4,8,6,-1,12,16,10,-1,-1,14,-1,-1,-1,18,-1,-1,20,-1,-1],"split_conditions":[5.9E1,-3.6402397E-2,1E0,6.362E1,6.8E1,1.7522665E-2,6.672E1,8.65E1,6.4E1,3.6745768E-3,1.7522665E-2,7.324E1,9.362469E-2,4.2263318E-2,6.7944005E-2,6.1E1,3.6745768E-3,-1.0173512E-2,6.25E1,-8.621238E-3,-3.2494676E-3],"split_indices":[2,0,4,6,3,0,6,1,1,0,0,1,0,0,0,3,0,0,2,0,0],"split_type":[0,0,0,0,0,0,0,0,0,0,0,0,0,0,0,0,0,0,0,0,0],"sum_hessian":[3.7314285E1,1.97606E0,3.5338223E1,2.0886923E1,1.4451302E1,6.7337756E0,7.717526E0,1.4461887E1,6.425035E0,1.0600914E0,5.3649435E0,4.3903728E0,3.3271532E0,1.7715423E0,2.6188304E0,1.3361877E1,1.1000099E0,1.9235022E0,1.1438375E1,1.9036517E0,9.534724E0],"tree_param":{"num_deleted":"0","num_feature":"7","num_nodes":"21","size_leaf_vector":"1"}},{"base_weights":[1.533315E-1,-1.7843553E-1,2.0376489E-1,-4.3321133E-1,3.7994029E-3,1.2664676E-2,2.614942E-1,1.5656352E-1,3.9526296E-1,4.112383E-2,8.2773976E-2,3.7994029E-3,1.3707943E-1,2.7591324E-1,1.490727E-1,-1.7655717E-1,-6.3082E-2,2.2461617E-2,4.112383E-2,8.2773976E-2,1.15923345E-1],"categories":[],"categories_nodes":[],"categories_segments":[],"categories_sizes":[],"default_left":[0,0,0,0,0,0,0,0,0,0,0,0,0,0,0,0,0,0,0,0,0],"id":29,"left_children":[1,3,5,15,-1,11,7,9,13,-1,-1,-1,17,19,-1,-1,-1,-1,-1,-1,-1],"loss_changes":[7.98694E-1,6.0597247E-1,5.680108E-1,1.799652E-1,0E0,2.8155696E-1,3.9821124E-1,3.3325678E-1,2.2209644E-1,0E0,0E0,0E0,6.694889E-2,2.8169379E-2,0E0,0E0,0E0,0E0,0E0,0E0,0E0],"parents":[2147483647,0,0,1,1,2,2,6,6,7,7,5,5,8,8,3,3,12,12,13,13],"right_children":[2,4,6,16,-1,12,8,10,14,-1,-1,-1,18,20,-1,-1,-1,-1,-1,-1,-1],"split_conditions":[5.76E1,7.029E1,5.734E1,6.96E1,3.7994029E-3,6.4E1,1E0,7.14E1,1E0,4.112383E-2,8.2773976E-2,3.7994029E-3,7.1E1,8.266E1,1.490727E-1,-1.7655717E-1,-6.3082E-2,2.2461617E-2,4.112383E-2,8.2773976E-2,1.15923345E-1],"split_indices":[5,2,6,1,0,1,4,2,0,0,0,0,5,5,0,0,0,0,0,0,0],"split_type":[0,0,0,0,0,0,0,0,0,0,0,0,0,0,0,0,0,0,0,0,0],"sum_hessian":[4.4561134E1,5.5451717E0,3.9015965E1,3.2511811E0,2.2939904E0,7.2373395E0,3.1778625E1,1.9025265E1,1.2753362E1,1.0080439E1,8.944825E0,2.7529693E0,4.4843698E0,3.6358147E0,9.117547E0,2.0436776E0,1.2075036E0,1.22335E0,3.26102E0,2.4896855E0,1.1461293E0],"tree_param":{"num_deleted":"0","num_feature":"7","num_nodes":"21","size_leaf_vector":"1"}},{"base_weights":[-1.579254E-1,-1.4758068E-1,1.2020758E-2,-2.3995742E-1,1.9647153E-1,-2.1742947E-2,3.45234E-1,-6.5228846E-3,4.852366E-2,-7.198723E-2,-6.5228846E-3,1.8465996E-1,1.2926663E-1,4.852366E-2,9.233231E-2],"categories":[],"categories_nodes":[],"categories_segments":[],"categories_sizes":[],"default_left":[0,0,0,0,0,0,0,0,0,0,0,0,0,0,0],"id":30,"left_children":[1,-1,3,9,5,7,11,-1,-1,-1,-1,13,-1,-1,-1],"loss_changes":[1.3819869E0,0E0,1.1503518E0,1.2514865E-1,4.7430506E-1,3.2634246E-1,2.7391136E-2,0E0,0E0,0E0,0E0,1.466669E-1,0E0,0E0,0E0],"parents":[2147483647,0,0,2,2,4,4,5,5,3,3,6,6,11,11],"right_children":[2,-1,4,10,6,8,12,-1,-1,-1,-1,14,-1,-1,-1],"split_conditions":[7.2E1,-1.4758068E-1,6.129E1,7.193E1,1E0,7.767E1,8.65E1,-6.5228846E-3,4.852366E-2,-7.198723E-2,-6.5228846E-3,6.8E1,1.2926663E-1,4.852366E-2,9.233231E-2],"split_indices":[5,0,6,3,0,1,5,0,0,0,0,3,0,0,0],"split_type":[0,0,0,0,0,0,0,0,0,0,0,0,0,0,0],"sum_hessian":[2.3242117E1,7.198875E0,1.6043242E1,5.0200615E0,1.102318E1,4.246569E0,6.776611E0,2.3257303E0,1.9208387E0,3.9553022E0,1.0647593E0,3.455175E0,3.3214362E0,1.0353408E0,2.4198341E0],"tree_param":{"num_deleted":"0","num_feature":"7","num_nodes":"15","size_leaf_vector":"1"}},{"base_weights":[-2.5099018E-1,-1.5121426E-1,1.8386534E-1,-4.802733E-2,4.1690013E-1,3.852136E-2,7.0702946E-1,1.253151E-1,2.9905397E-1],"categories":[],"categories_nodes":[],"categories_segments":[],"categories_sizes":[],"default_left":[0,0,0,0,0,0,0,0,0],"id":31,"left_children":[1,-1,3,-1,5,-1,7,-1,-1],"loss_changes":[2.1713672E0,0E0,1.0355026E0,0E0,1.0241942E0,0E0,5.214336E-1,0E0,0E0],"parents":[2147483647,0,0,2,2,4,4,6,6],"right_children":[2,-1,4,-1,6,-1,8,-1,-1],"split_conditions":[6.694E1,-1.5121426E-1,8E1,-4.802733E-2,7.067E1,3.852136E-2,1E0,1.253151E-1,2.9905397E-1],"split_indices":[6,0,5,0,3,0,0,0,0],"split_type":[0,0,0,0,0,0,0,0,0],"sum_hessian":[1.7889736E1,1.120819E1,6.6815457E0,1.764474E0,4.917072E0,1.3378395E0,3.5792322E0,1.3614628E0,2.2177694E0],"tree_param":{"num_deleted":"0","num_feature":"7","num_nodes":"9","size_leaf_vector":"1"}},{"base_weights":[4.0850397E-2,-3.459209E-2,5.244764E-2,2.0553224E-2,9.422186E-2,1.7216263E-2,2.0377187E-1,-3.1429656E-2,5.7387542E-2,3.893683E-3,1.7216263E-2,1.3057971E-1,8.134312E-2,3.9173916E-2,6.025852E-2,-9.428897E-3,3.893683E-3],"categories":[],"categories_nodes":[],"categories_segments":[],"categories_sizes":[],"default_left":[0,0,0,0,0,0,0,0,0,0,0,0,0,0,0,0,0],"id":32,"left_children":[1,-1,3,7,5,-1,11,15,9,-1,-1,13,-1,-1,-1,-1,-1],"loss_changes":[7.441027E-2,0E0,4.579722E-2,1.18812874E-1,1.6297501E-1,0E0,4.2009056E-2,1.608552E-2,6.279193E-2,0E0,0E0,6.910806E-2,0E0,0E0,0E0,0E0,0E0],"parents":[2147483647,0,0,2,2,4,4,3,3,8,8,6,6,11,11,7,7],"right_children":[2,-1,4,8,6,-1,12,16,10,-1,-1,14,-1,-1,-1,-1,-1],"split_conditions":[5.9E1,-3.459209E-2,1E0,6.362E1,6.8E1,1.7216263E-2,7.324E1,8.65E1,6.4E1,3.893683E-3,1.7216263E-2,6.408E1,8.134312E-2,3.9173916E-2,6.025852E-2,-9.428897E-3,3.893683E-3],"split_indices":[2,0,4,6,3,0,1,1,1,0,0,6,0,0,0,0,0],"split_type":[0,0,0,0,0,0,0,0,0,0,0,0,0,0,0,0,0],"sum_hessian":[3.6748688E1,1.9222947E0,3.4826393E1,2.0594555E1,1.4231837E1,6.5081534E0,7.7236834E0,1.4331526E1,6.2630286E0,1.0396132E0,5.2234154E0,3.3692749E0,4.3544087E0,1.2545055E0,2.1147692E0,1.3253784E1,1.0777416E0],"tree_param":{"num_deleted":"0","num_feature":"7","num_nodes":"17","size_leaf_vector":"1"}},{"base_weights":[1.2443814E-1,-7.585412E-2,1.99359E-1,6.175244E-2,3.010307E-1,-1.2817705E-1,3.4250785E-2,-5.89509E-2,6.175244E-2,6.175244E-2,5.4417472E-2,1.8525733E-2,3.64716E-2,2.1305892E-1,3.9304635E-1,-2.0212585E-2,1.8525733E-2,5.4417472E-2,9.091579E-2,9.091579E-2,1.3372117E-1],"categories":[],"categories_nodes":[],"categories_segments":[],"categories_sizes":[],"default_left":[0,0,0,0,0,0,0,0,0,0,0,0,0,0,0,0,0,0,0,0,0],"id":33,"left_children":[1,5,3,9,13,-1,7,-1,15,11,-1,-1,-1,17,19,-1,-1,-1,-1,-1,-1],"loss_changes":[6.8824095E-1,5.151265E-1,6.7458236E-1,2.4457534E-1,1.0030675E-1,0E0,3.1621683E-1,0E0,8.278882E-2,1.0354838E-1,0E0,0E0,0E0,4.051578E-2,5.220294E-3,0E0,0E0,0E0,0E0,0E0,0E0],"parents":[2147483647,0,0,2,2,1,1,6,6,3,3,9,9,4,4,8,8,13,13,14,14],"right_children":[2,6,4,10,14,-1,8,-1,16,12,-1,-1,-1,18,20,-1,-1,-1,-1,-1,-1],"split_conditions":[1E0,6.078E1,6.4E1,7.874E1,1E0,-1.2817705E-1,5.9E1,-5.89509E-2,7.324E1,5.724E1,5.4417472E-2,1.8525733E-2,3.64716E-2,8E1,6.46E1,-2.0212585E-2,1.8525733E-2,5.4417472E-2,9.091579E-2,9.091579E-2,1.3372117E-1],"split_indices":[0,6,2,5,4,0,5,0,1,6,0,0,0,2,1,0,0,0,0,0,0],"split_type":[0,0,0,0,0,0,0,0,0,0,0,0,0,0,0,0,0,0,0,0,0],"sum_hessian":[4.3856434E1,1.1935582E1,3.192085E1,1.018412E1,2.173673E1,2.1603422E0,9.77524E0,2.4149287E0,7.3603115E0,7.0217013E0,3.1624186E0,2.9586842E0,4.0630174E0,1.28075285E1,8.929202E0,1.7978665E0,5.562445E0,1.0238621E1,2.5689087E0,1.211811E0,7.717391E0],"tree_param":{"num_deleted":"0","num_feature":"7","num_nodes":"21","size_leaf_vector":"1"}},{"base_weights":[-1.3332205E-1,-1.4447217E-1,3.158065E-2,-6.749898E-2,1.8185578E-1,-2.1570407E-2,3.7624085E-1,1.7733522E-1,1.5688567E-1,-2.1570407E-2,5.320057E-2,-6.471122E-3,2.3364723E-2,5.320057E-2,1.03598855E-1],"categories":[],"categories_nodes":[],"categories_segments":[],"categories_sizes":[],"default_left":[0,0,0,0,0,0,0,0,0,0,0,0,0,0,0],"id":34,"left_children":[1,-1,3,-1,5,9,7,13,-1,11,-1,-1,-1,-1,-1],"loss_changes":[1.3389026E0,0E0,1.0459262E0,0E0,6.346755E-1,1.4839435E-1,2.8366578E-1,3.4479804E-2,0E0,6.6595495E-2,0E0,0E0,0E0,0E0,0E0],"parents":[2147483647,0,0,2,2,4,4,6,6,5,5,9,9,7,7],"right_children":[2,-1,4,-1,6,10,8,14,-1,12,-1,-1,-1,-1,-1],"split_conditions":[6.8E1,-1.4447217E-1,7.2E1,-6.749898E-2,7.125E1,6.525E1,7.34E1,8.3E1,1.5688567E-1,9E1,5.320057E-2,-6.471122E-3,2.3364723E-2,5.320057E-2,1.03598855E-1],"split_indices":[1,0,5,0,3,6,2,1,0,5,0,0,0,0,0],"split_type":[0,0,0,0,0,0,0,0,0,0,0,0,0,0,0],"sum_hessian":[2.2049768E1,6.4686074E0,1.5581161E1,3.3622055E0,1.2218955E1,5.7488627E0,6.4700923E0,2.3579073E0,4.112185E0,3.4642007E0,2.2846618E0,2.4544394E0,1.0097612E0,1.0218773E0,1.3360301E0],"tree_param":{"num_deleted":"0","num_feature":"7","num_nodes":"15","size_leaf_vector":"1"}},{"base_weights":[-2.3299158E-1,-1.4764522E-1,1.5880686E-1,-5.0001577E-2,3.7195027E-1,1.02639176E-1,1.8020563E-1,3.0791754E-2,9.551412E-2],"categories":[],"categories_nodes":[],"categories_segments":[],"categories_sizes":[],"default_left":[0,0,0,0,0,0,0,0,0],"id":35,"left_children":[1,-1,3,-1,5,7,-1,-1,-1],"loss_changes":[1.8435276E0,0E0,8.953832E-1,0E0,3.6452496E-1,1.161536E-1,0E0,0E0,0E0],"parents":[2147483647,0,0,2,2,4,4,5,5],"right_children":[2,-1,4,-1,6,8,-1,-1,-1],"split_conditions":[6.694E1,-1.4764522E-1,6.7E1,-5.0001577E-2,7.725E1,7.42E1,1.8020563E-1,3.0791754E-2,9.551412E-2],"split_indices":[6,0,2,0,3,1,0,0,0],"split_type":[0,0,0,0,0,0,0,0,0],"sum_hessian":[1.638628E1,9.708416E0,6.6778646E0,1.6921866E0,4.9856777E0,2.7234662E0,2.2622118E0,1.001576E0,1.7218901E0],"tree_param":{"num_deleted":"0","num_feature":"7","num_nodes":"9","size_leaf_vector":"1"}},{"base_weights":[3.9627183E-2,-3.3237945E-2,5.0824843E-2,1.9137358E-2,9.245948E-2,1.6739527E-2,1.9123842E-1,-2.998415E-2,5.579842E-2,3.8721405E-3,1.6739527E-2,1.2351842E-1,8.217417E-2,3.705553E-2,5.9614852E-2,-8.995245E-3,3.8721405E-3],"categories":[],"categories_nodes":[],"categories_segments":[],"categories_sizes":[],"default_left":[0,0,0,0,0,0,0,0,0,0,0,0,0,0,0,0,0],"id":36,"left_children":[1,-1,3,7,5,-1,11,15,9,-1,-1,13,-1,-1,-1,-1,-1],"loss_changes":[6.8100035E-2,0E0,4.4674672E-2,1.1494786E-1,1.3497166E-1,0E0,4.3626755E-2,1.442242E-2,5.9740126E-2,0E0,0E0,2.3459956E-2,0E0,0E0,0E0,0E0,0E0],"parents":[2147483647,0,0,2,2,4,4,3,3,8,8,6,6,11,11,7,7],"right_children":[2,-1,4,8,6,-1,12,16,10,-1,-1,14,-1,-1,-1,-1,-1],"split_conditions":[5.9E1,-3.3237945E-2,1E0,6.362E1,6.8E1,1.6739527E-2,6.672E1,8.65E1,6.4E1,3.8721405E-3,1.6739527E-2,7.324E1,8.217417E-2,3.705553E-2,5.9614852E-2,-8.995245E-3,3.8721405E-3],"split_indices":[2,0,4,6,3,0,6,1,1,0,0,1,0,0,0,0,0],"split_type":[0,0,0,0,0,0,0,0,0,0,0,0,0,0,0,0,0],"sum_hessian":[3.6087776E1,1.8840917E0,3.4203682E1,2.0250776E1,1.3952907E1,6.329793E0,7.6231136E0,1.4108781E1,6.141996E0,1.0294837E0,5.112512E0,4.271461E0,3.3516526E0,1.702348E0,2.569113E0,1.3052765E1,1.0560157E0],"tree_param":{"num_deleted":"0","num_feature":"7","num_nodes":"17","size_leaf_vector":"1"}},{"base_weights":[1.0311979E-1,-6.558452E-2,1.8959817E-1,-4.285233E-1,6.2006827E-2,-2.4288814E-1,-5.4977473E-2,6.2006827E-2,2.7057165E-1,-1.8325824E-1,6.2006827E-2,6.2006827E-2,4.9886774E-2,2.146333E-1,1.289712E-1,4.9886774E-2,9.050204E-2,-5.4977473E-2,-1.8187711E-2,1.8602049E-2,3.424441E-2,3.2663994E-2,1.8602049E-2,-6.0625702E-2,1.4200623E-2,-1.8187711E-2,-1.9935442E-3],"categories":[],"categories_nodes":[],"categories_segments":[],"categories_sizes":[],"default_left":[0,0,0,0,0,0,0,0,0,0,0,0,0,0,0,0,0,0,0,0,0,0,0,0,0,0,0],"id":37,"left_children":[1,3,7,5,9,-1,-1,11,13,17,21,19,-1,15,-1,-1,-1,-1,-1,-1,-1,23,-1,25,-1,-1,-1],"loss_changes":[6.5060985E-1,1.0859447E0,4.7983754E-1,1.2909472E0,3.3217943E-1,0E0,0E0,1.392768E-1,1.0415137E-1,2.5682077E-2,8.093715E-4,1.3369188E-2,0E0,8.160722E-2,0E0,0E0,0E0,0E0,0E0,0E0,0E0,1.399862E-1,0E0,7.155531E-2,0E0,0E0,0E0],"parents":[2147483647,0,0,1,1,3,3,2,2,4,4,7,7,8,8,13,13,9,9,11,11,10,10,21,21,23,23],"right_children":[2,4,8,6,10,-1,-1,12,14,18,22,20,-1,16,-1,-1,-1,-1,-1,-1,-1,24,-1,26,-1,-1,-1],"split_conditions":[6.4E1,5.724E1,1E0,8.04E1,5.9E1,-2.4288814E-1,-5.4977473E-2,7.65E1,8E1,6.716E1,1E0,7.211E1,4.9886774E-2,1E0,1.289712E-1,4.9886774E-2,9.050204E-2,-5.4977473E-2,-1.8187711E-2,1.8602049E-2,3.424441E-2,6.133E1,1.8602049E-2,6.93E1,1.4200623E-2,-1.8187711E-2,-1.9935442E-3],"split_indices":[2,6,0,5,5,0,0,2,2,1,4,3,0,4,0,0,0,0,0,0,0,2,0,3,0,0,0],"split_type":[0,0,0,0,0,0,0,0,0,0,0,0,0,0,0,0,0,0,0,0,0,0,0,0,0,0,0],"sum_hessian":[4.2742756E1,1.456689E1,2.8175865E1,4.582298E0,9.9845915E0,3.2318962E0,1.3504018E0,7.1375175E0,2.1038347E1,2.265458E0,7.7191334E0,4.0672727E0,3.0702446E0,1.7308697E1,3.7296512E0,1.0013075E1,7.2956223E0,1.0841014E0,1.1813567E0,2.9900398E0,1.0772328E0,4.4055886E0,3.3135445E0,2.757012E0,1.6485769E0,1.3488255E0,1.4081863E0],"tree_param":{"num_deleted":"0","num_feature":"7","num_nodes":"27","size_leaf_vector":"1"}},{"base_weights":[-1.1920837E-1,-1.407364E-1,3.484741E-2,-2.0096257E-1,2.772248E-1,3.8131118E-2,2.04928E-1,-2.1713696E-1,1.14393355E-2,1.14393355E-2,1.0555621E-1,-6.514109E-2,-2.6850877E-2],"categories":[],"categories_nodes":[],"categories_segments":[],"categories_sizes":[],"default_left":[0,0,0,0,0,0,0,0,0,0,0,0,0],"id":38,"left_children":[1,-1,3,7,5,9,-1,11,-1,-1,-1,-1,-1],"loss_changes":[1.205698E0,0E0,9.844677E-1,4.2431235E-1,8.2749903E-1,3.2656756E-1,0E0,1.2857234E-1,0E0,0E0,0E0,0E0,0E0],"parents":[2147483647,0,0,2,2,4,4,3,3,5,5,7,7],"right_children":[2,-1,4,8,6,10,-1,12,-1,-1,-1,-1,-1],"split_conditions":[7.2E1,-1.407364E-1,7.3E1,8.2E1,9.134E1,7.33E1,2.04928E-1,6.705E1,1.14393355E-2,1.14393355E-2,1.0555621E-1,-6.514109E-2,-2.6850877E-2],"split_indices":[5,0,2,1,5,3,0,6,0,0,0,0,0],"split_type":[0,0,0,0,0,0,0,0,0,0,0,0,0],"sum_hessian":[2.1063364E1,5.813589E0,1.5249774E1,7.816215E0,7.433559E0,5.2817826E0,2.151776E0,5.940457E0,1.8757583E0,2.948977E0,2.3328059E0,4.847548E0,1.0929087E0],"tree_param":{"num_deleted":"0","num_feature":"7","num_nodes":"13","size_leaf_vector":"1"}},{"base_weights":[-2.09104E-1,-1.4422032E-1,1.5611926E-1,-4.869227E-2,3.573474E-1,2.9255977E-2,5.969987E-1,1.04177795E-1,2.5630015E-1],"categories":[],"categories_nodes":[],"categories_segments":[],"categories_sizes":[],"default_left":[0,0,0,0,0,0,0,0,0],"id":39,"left_children":[1,-1,3,-1,5,-1,7,-1,-1],"loss_changes":[1.6645386E0,0E0,8.173561E-1,0E0,7.7108926E-1,0E0,4.4593847E-1,0E0,0E0],"parents":[2147483647,0,0,2,2,4,4,6,6],"right_children":[2,-1,4,-1,6,-1,8,-1,-1],"split_conditions":[6.694E1,-1.4422032E-1,8E1,-4.869227E-2,7.067E1,2.9255977E-2,1E0,1.04177795E-1,2.5630015E-1],"split_indices":[6,0,5,0,3,0,0,0,0],"split_type":[0,0,0,0,0,0,0,0,0],"sum_hessian":[1.5022124E1,8.43352E0,6.588604E0,1.6148837E0,4.9737206E0,1.2282833E0,3.745437E0,1.3910338E0,2.3544033E0],"tree_param":{"num_deleted":"0","num_feature":"7","num_nodes":"9","size_leaf_vector":"1"}}]},"name":"gbtree"},"learner_model_param":{"base_score":"5E-1","boost_from_average":"1","num_class":"4","num_feature":"7","num_target":"1"},"objective":{"name":"multi:softmax","softmax_multiclass_param":{"num_class":"4"}}},"version":[3,0,0]}