{"learner":{"attributes":{},"feature_names":[],"feature_types":[],"gradient_booster":{"model":{"gbtree_model_param":{"num_parallel_tree":"1","num_trees":"40"},"iteration_indptr":[0,2,4,6,8,10,12,14,16,18,20,22,24,26,28,30,32,34,36,38,40],"tree_info":[0,1,0,1,0,1,0,1,0,1,0,1,0,1,0,1,0,1,0,1,0,1,0,1,0,1,0,1,0,1,0,1,0,1,0,1,0,1,0,1],"trees":[{"base_weights":[2.5083613E-1,-5.0476193E-1,6.564103E-1,-5.670103E-1,7.582417E-2,7.582417E-2,7.1273714E-1,-6.042781E-1,-2.4559306E-1,-7.367792E-2,2.2747252E-2,2.2747252E-2,1.182842E-1,5.6626505E-1,2.2500001E-1,-2.6842105E-1,-5.647059E-1,-1.2748069E-1,-7.367792E-2,4.4262296E-1,1.9743977E-1,-1.909091E-1,-4.2493558E-1,1.182842E-1,1.5333335E-1,-1.5919489E-1,-1.2748069E-1],"categories":[],"categories_nodes":[],"categories_segments":[],"categories_sizes":[],"default_left":[0,0,0,0,0,0,0,0,0,0,0,0,0,0,0,0,0,0,0,0,0,0,0,0,0,0,0],"id":0,"left_children":[1,3,5,7,9,11,13,15,17,-1,-1,-1,-1,19,-1,-1,21,-1,-1,23,-1,-1,25,-1,-1,-1,-1],"loss_changes":[9.196019E1,4.68474E0,9.107536E0,1.9479427E0,8.2208574E-1,1.5497606E0,5.8229065E-1,5.694351E-1,5.7860494E-2,0E0,0E0,0E0,0E0,6.331692E-1,0E0,0E0,6.1749077E-1,0E0,0E0,8.0375195E-2,0E0,0E0,8.7201595E-2,0E0,0E0,0E0,0E0],"parents":[2147483647,0,0,1,1,2,2,3,3,4,4,5,5,6,6,7,7,8,8,13,13,16,16,19,19,22,22],"right_children":[2,4,6,8,10,12,14,16,18,-1,-1,-1,-1,20,-1,-1,22,-1,-1,24,-1,-1,26,-1,-1,-1,-1],"split_conditions":[1E0,3E0,1E1,3E0,2.1075E1,3E0,1E0,1.4E1,2.325E1,-7.367792E-2,2.2747252E-2,2.2747252E-2,1.182842E-1,1E0,2.2500001E-1,-2.6842105E-1,1E0,-1.2748069E-1,-7.367792E-2,2.9699118E1,1.9743977E-1,-1.909091E-1,1E0,1.182842E-1,1.5333335E-1,-1.5919489E-1,-1.2748069E-1],"split_indices":[4,1,0,2,3,1,6,0,3,0,0,0,0,5,0,0,1,0,0,0,0,0,6,0,0,0,0],"split_type":[0,0,0,0,0,0,0,0,0,0,0,0,0,0,0,0,0,0,0,0,0,0,0,0,0,0,0],"sum_hessian":[2.98E2,1.04E2,1.94E2,9.6E1,8E0,1.05E1,1.835E2,9.25E1,3.5E0,1.5E0,6.5E0,7E0,3.5E0,4.05E1,1.43E2,8.5E0,8.4E1,1E0,2.5E0,2.95E1,1.1E1,5.4E1,3E1,8E0,2.15E1,1.1E1,1.9E1],"tree_param":{"num_deleted":"0","num_feature":"7","num_nodes":"27","size_leaf_vector":"1"}},{"base_weights":[-2.5083613E-1,-5.731225E-1,-1.4409222E-2,-6.497696E-1,-2.9376587E-1,-1.1660777E-1,4.2424244E-1,-2.769231E-1,-6.062176E-1,-1.4153032E-1,-8.812977E-2,-1.9298245E-1,-0E0,2.3076923E-1,4.5454547E-1,-6.407186E-1,-1.4153032E-1,-2.9376587E-1,-9.6491225E-2,-1.0309278E-2,5.263158E-2,4.61452E-2,1.0279721E-1,1.0279721E-1,1.5405406E-1,-2.0000002E-1,-1.6687296E-1,-8.812977E-2,-5.8538567E-2,-1.6363636E-1,-9.6491225E-2,-3.157895E-3,-0E0,6.3483454E-3,1.1111111E-1,-5.769231E-2,-3.9019138E-2,-3.9019138E-2,-2.8947368E-2,1.984084E-2,4.61452E-2],"categories":[],"categories_nodes":[],"categories_segments":[],"categories_sizes":[],"default_left":[0,0,0,0,0,0,0,0,0,0,0,0,0,0,0,0,0,0,0,0,0,0,0,0,0,0,0,0,0,0,0,0,0,0,0,0,0,0,0,0,0],"id":1,"left_children":[1,3,5,7,9,11,13,-1,15,-1,-1,17,19,21,23,25,-1,27,29,31,33,-1,-1,-1,-1,-1,-1,-1,-1,35,37,-1,-1,-1,39,-1,-1,-1,-1,-1,-1],"loss_changes":[2.2774694E1,3.7927704E0,7.8273983E0,7.3189545E-1,2.1690989E-1,1.2601826E0,8.85787E-2,0E0,4.1648102E-1,0E0,0E0,1.0133004E0,3.1470425E-2,3.181928E-1,7.836342E-2,8.238983E-2,0E0,5.230768E-1,1.146723E-1,1.085191E-4,2.6553003E-2,0E0,0E0,0E0,0E0,0E0,0E0,0E0,0E0,5.281967E-2,4.1967988E-2,0E0,0E0,0E0,1.23314485E-1,0E0,0E0,0E0,0E0,0E0,0E0],"parents":[2147483647,0,0,1,1,2,2,3,3,4,4,5,5,6,6,8,8,11,11,12,12,13,13,14,14,15,15,17,17,18,18,19,19,20,20,29,29,30,30,34,34],"right_children":[2,4,6,8,10,12,14,-1,16,-1,-1,18,20,22,24,26,-1,28,30,32,34,-1,-1,-1,-1,-1,-1,-1,-1,36,38,-1,-1,-1,40,-1,-1,-1,-1,-1,-1],"split_conditions":[1.11333E1,1E0,7.79583E1,7.225E0,7.7333E0,1E0,8.18583E1,-2.769231E-1,9.5875E0,-1.4153032E-1,-8.812977E-2,2.59292E1,4.71E1,4.7E1,2.8E1,1E0,-1.4153032E-1,2.9699118E1,1E0,4.9E1,3E1,4.61452E-2,1.0279721E-1,1.0279721E-1,1.5405406E-1,-2.0000002E-1,-1.6687296E-1,-8.812977E-2,-5.8538567E-2,5.69292E1,3.05E1,-3.157895E-3,-0E0,6.3483454E-3,2E0,-5.769231E-2,-3.9019138E-2,-3.9019138E-2,-2.8947368E-2,1.984084E-2,4.61452E-2],"split_indices":[3,5,3,3,3,2,3,0,3,0,0,3,3,0,0,2,0,0,1,0,0,0,0,0,0,0,0,0,0,3,3,0,0,0,2,0,0,0,0,0,0],"split_type":[0,0,0,0,0,0,0,0,0,0,0,0,0,0,0,0,0,0,0,0,0,0,0,0,0,0,0,0,0,0,0,0,0,0,0,0,0,0,0,0,0],"sum_hessian":[2.98E2,1.255E2,1.725E2,1.075E2,1.8E1,1.405E2,3.2E1,1.2E1,9.55E1,2E0,1.6E1,8.45E1,5.6E1,5.5E0,2.65E1,8.25E1,1.3E1,4.2E1,4.25E1,4.75E1,8.5E0,2.5E0,3E0,9E0,1.75E1,8E1,2.5E0,1.4E1,2.8E1,2.65E1,1.6E1,4.65E1,1E0,5E0,3.5E0,2.5E1,1.5E0,5.5E0,1.05E1,2.5E0,1E0],"tree_param":{"num_deleted":"0","num_feature":"7","num_nodes":"41","size_leaf_vector":"1"}},{"base_weights":[1.7817488E-1,-4.4084844E-1,5.173748E-1,-4.9786073E-1,3.8263187E-2,3.8263187E-2,5.689434E-1,-5.344215E-1,-6.893963E-2,-6.893963E-2,1.1478957E-2,1.1478957E-2,9.108099E-2,4.6492645E-1,5.9538144E-1,-2.3806964E-1,-4.993333E-1,3.4880275E-1,1.5904619E-1,5.7595223E-1,2.3785058E-1,-5.741956E-1,-3.8211012E-1,9.108099E-2,1.23182274E-1,1.6645499E-1,2.0531814E-1,-1.8344928E-1,-1.4344586E-1,-1.4344586E-1,-1.1463304E-1],"categories":[],"categories_nodes":[],"categories_segments":[],"categories_sizes":[],"default_left":[0,0,0,0,0,0,0,0,0,0,0,0,0,0,0,0,0,0,0,0,0,0,0,0,0,0,0,0,0,0,0],"id":2,"left_children":[1,3,5,7,9,11,13,15,-1,-1,-1,-1,-1,17,19,-1,21,23,-1,25,-1,27,29,-1,-1,-1,-1,-1,-1,-1,-1],"loss_changes":[6.1722008E1,3.7319584E0,6.922924E0,1.6375904E0,6.828457E-1,1.3362417E0,2.1592331E-1,4.4685555E-1,0E0,0E0,0E0,0E0,0E0,5.344744E-1,7.7762604E-2,0E0,7.0916367E-1,1.0007548E-1,0E0,4.6928406E-2,0E0,7.131386E-2,3.7858486E-3,0E0,0E0,0E0,0E0,0E0,0E0,0E0,0E0],"parents":[2147483647,0,0,1,1,2,2,3,3,4,4,5,5,6,6,7,7,13,13,14,14,16,16,17,17,19,19,21,21,22,22],"right_children":[2,4,6,8,10,12,14,16,-1,-1,-1,-1,-1,18,20,-1,22,24,-1,26,-1,28,30,-1,-1,-1,-1,-1,-1,-1,-1],"split_conditions":[1E0,3E0,1E1,3E0,2.1075E1,3E0,1E0,1.4E1,-6.893963E-2,-6.893963E-2,1.1478957E-2,1.1478957E-2,9.108099E-2,1E0,2E0,-2.3806964E-1,1E0,2.9699118E1,1.5904619E-1,5.2E1,2.3785058E-1,3.7E1,1E0,9.108099E-2,1.23182274E-1,1.6645499E-1,2.0531814E-1,-1.8344928E-1,-1.4344586E-1,-1.4344586E-1,-1.1463304E-1],"split_indices":[4,1,0,2,3,1,6,0,0,0,0,0,0,5,1,0,1,0,0,0,0,0,6,0,0,0,0,0,0,0,0],"split_type":[0,0,0,0,0,0,0,0,0,0,0,0,0,0,0,0,0,0,0,0,0,0,0,0,0,0,0,0,0,0,0],"sum_hessian":[2.9186636E2,1.03211235E2,1.8865514E2,9.5214745E1,7.9964867E0,1.0480853E1,1.7817427E2,9.17218E1,3.4929414E0,1.4988587E0,6.4976277E0,6.993726E0,3.4871268E0,3.9875412E1,1.3829886E2,8.36032E0,8.336149E1,2.9085136E1,1.0790277E1,1.2947552E2,8.823347E0,5.3595608E1,2.9765877E1,7.926497E0,2.115864E1,1.2113709E2,8.338429E0,4.4191723E1,9.403884E0,1.0864588E1,1.8901289E1],"tree_param":{"num_deleted":"0","num_feature":"7","num_nodes":"31","size_leaf_vector":"1"}},{"base_weights":[-1.7817487E-1,-4.3395653E-1,5.3788633E-3,-4.9517393E-1,-2.1428883E-1,-1.0296474E-1,2.6427594E-1,-2.218795E-1,-4.5764798E-1,-1.0641942E-1,-6.428665E-2,-1.6436528E-1,-2.2223454E-3,1.3336347E-1,3.741881E-1,-4.7837627E-1,-1.0641942E-1,-2.1428883E-1,-8.5886545E-2,8.0655605E-2,2.4999335E-1,7.613274E-2,4.2080578E-1,-1.5256646E-1,-1.2496615E-1,-6.428665E-2,-4.5026306E-2,-4.5026306E-2,-2.5765965E-2,2.4196682E-2,4.82876E-2,4.9597345E-2,7.613274E-2,3.3729076E-1,1.5196823E-1,1.0118724E-1,1.2657773E-1],"categories":[],"categories_nodes":[],"categories_segments":[],"categories_sizes":[],"default_left":[0,0,0,0,0,0,0,0,0,0,0,0,0,0,0,0,0,0,0,0,0,0,0,0,0,0,0,0,0,0,0,0,0,0,0,0,0],"id":3,"left_children":[1,3,5,7,9,11,13,-1,15,-1,-1,17,-1,19,21,23,-1,25,27,29,31,-1,33,-1,-1,-1,-1,-1,-1,-1,-1,-1,-1,35,-1,-1,-1],"loss_changes":[1.37523155E1,2.2989674E0,4.8376174E0,6.2062263E-1,2.3818588E-1,7.123573E-1,6.821294E-1,0E0,2.7462578E-1,0E0,0E0,4.8963237E-1,0E0,3.368892E-1,4.980421E-2,1.570549E-1,0E0,3.4220576E-1,1.6999571E-1,9.522185E-3,1.5036184E-1,0E0,4.0763855E-2,0E0,0E0,0E0,0E0,0E0,0E0,0E0,0E0,0E0,0E0,4.67062E-3,0E0,0E0,0E0],"parents":[2147483647,0,0,1,1,2,2,3,3,4,4,5,5,6,6,8,8,11,11,13,13,14,14,15,15,17,17,18,18,19,19,20,20,22,22,33,33],"right_children":[2,4,6,8,10,12,14,-1,16,-1,-1,18,-1,20,22,24,-1,26,28,30,32,-1,34,-1,-1,-1,-1,-1,-1,-1,-1,-1,-1,36,-1,-1,-1],"split_conditions":[1.11333E1,1E0,5.25542E1,7.225E0,7.7333E0,1E0,8.18583E1,-2.218795E-1,1E0,-1.0641942E-1,-6.428665E-2,2.59292E1,-2.2223454E-3,3E1,2.8E1,9.8417E0,-1.0641942E-1,2.9699118E1,1E0,7.79583E1,1E0,7.613274E-2,1.2E2,-1.5256646E-1,-1.2496615E-1,-6.428665E-2,-4.5026306E-2,-4.5026306E-2,-2.5765965E-2,2.4196682E-2,4.82876E-2,4.9597345E-2,7.613274E-2,1E0,1.5196823E-1,1.0118724E-1,1.2657773E-1],"split_indices":[3,5,3,3,3,2,3,0,2,0,0,3,0,0,0,3,0,0,6,3,1,0,3,0,0,0,0,0,0,0,0,0,0,6,0,0,0],"split_type":[0,0,0,0,0,0,0,0,0,0,0,0,0,0,0,0,0,0,0,0,0,0,0,0,0,0,0,0,0,0,0,0,0,0,0,0,0],"sum_hessian":[2.9186636E2,1.21371414E2,1.7049495E2,1.0356473E2,1.7806686E1,1.2062002E2,4.987493E1,1.1293815E1,9.227091E1,1.9712067E0,1.5835479E1,7.299601E1,4.7624004E1,2.3773054E1,2.610188E1,8.9813965E1,2.4569466E0,4.144901E1,3.1547005E1,1.0397705E1,1.3375349E1,8.923482E0,1.7178396E1,7.906246E1,1.0751506E1,1.3802716E1,2.7646292E1,7.9249086E0,2.3622097E1,8.912273E0,1.485432E0,2.4812891E0,1.0894059E1,8.3600445E0,8.818352E0,4.4343915E0,3.9256532E0],"tree_param":{"num_deleted":"0","num_feature":"7","num_nodes":"37","size_leaf_vector":"1"}},{"base_weights":[1.3404809E-1,-3.8303536E-1,4.279374E-1,-4.3653476E-1,2.2451013E-2,2.2451013E-2,4.7829476E-1,-4.7276902E-1,-6.2112566E-2,-6.2112566E-2,6.7353044E-3,6.7353044E-3,7.5111866E-2,4.6301365E-1,1.9485934E-1,-5.3557116E-1,-3.5681528E-1,2.8221843E-1,5.000371E-1,-1.7198743E-1,-1.3385797E-1,-1.3385797E-1,-1.01971634E-1,7.5111866E-2,1.1733834E-1,1.4110307E-1,1.6688173E-1],"categories":[],"categories_nodes":[],"categories_segments":[],"categories_sizes":[],"default_left":[0,0,0,0,0,0,0,0,0,0,0,0,0,0,0,0,0,0,0,0,0,0,0,0,0,0,0],"id":4,"left_children":[1,3,5,7,9,11,13,15,-1,-1,-1,-1,-1,17,-1,19,21,23,25,-1,-1,-1,-1,-1,-1,-1,-1],"loss_changes":[4.278155E1,3.040784E0,5.605816E0,1.4012012E0,5.8818716E-1,1.1469649E0,1.4106369E-1,4.6930122E-1,0E0,0E0,0E0,0E0,0E0,9.1976166E-1,0E0,1.1651039E-1,2.5713015E-1,1.3375187E-1,1.23500824E-1,0E0,0E0,0E0,0E0,0E0,0E0,0E0,0E0],"parents":[2147483647,0,0,1,1,2,2,3,3,4,4,5,5,6,6,7,7,13,13,15,15,16,16,17,17,18,18],"right_children":[2,4,6,8,10,12,14,16,-1,-1,-1,-1,-1,18,-1,20,22,24,26,-1,-1,-1,-1,-1,-1,-1,-1],"split_conditions":[1E0,3E0,1E1,3E0,2.1075E1,3E0,1E0,1E0,-6.2112566E-2,-6.2112566E-2,6.7353044E-3,6.7353044E-3,7.5111866E-2,1E0,1.9485934E-1,3.7E1,1.45E1,3.7E1,1E0,-1.7198743E-1,-1.3385797E-1,-1.3385797E-1,-1.01971634E-1,7.5111866E-2,1.1733834E-1,1.4110307E-1,1.6688173E-1],"split_indices":[4,1,0,2,3,1,5,1,0,0,0,0,0,6,0,0,0,0,2,0,0,0,0,0,0,0,0],"split_type":[0,0,0,0,0,0,0,0,0,0,0,0,0,0,0,0,0,0,0,0,0,0,0,0,0,0,0],"sum_hessian":[2.7944324E2,1.01157814E2,1.7828542E2,9.3167114E1,7.9907002E0,1.0443359E1,1.6784206E2,8.9688065E1,3.4790466E0,1.4974904E0,6.49321E0,6.9834023E0,3.459957E0,1.5749149E2,1.0350573E1,5.5830616E1,3.3857452E1,2.8235014E1,1.2925647E2,4.664052E1,9.1901E0,5.195984E0,2.8661467E1,2.0942612E1,7.2924037E0,1.13421524E2,1.5834943E1],"tree_param":{"num_deleted":"0","num_feature":"7","num_nodes":"27","size_leaf_vector":"1"}},{"base_weights":[-1.3404807E-1,-3.6415416E-1,1.870979E-3,-4.252641E-1,-1.8114159E-1,-8.347281E-2,2.2432302E-1,-1.9305758E-1,-3.88611E-1,-9.096085E-2,-5.434248E-2,-1.2106104E-1,-5.0968225E-3,1.2095144E-1,3.1172425E-1,-1.2395817E-1,-9.096085E-2,-1.8114159E-1,-6.9025226E-2,7.042511E-2,2.1633784E-1,2.764825E-1,1.6206461E-1,-5.434248E-2,-1.250834E-1,-3.752502E-2,-2.0707568E-2,2.1127533E-2,3.66211E-2,4.3014444E-2,6.490136E-2,6.490136E-2,9.973796E-2,-4.5933753E-2,-3.752502E-2],"categories":[],"categories_nodes":[],"categories_segments":[],"categories_sizes":[],"default_left":[0,0,0,0,0,0,0,0,0,0,0,0,0,0,0,0,0,0,0,0,0,0,0,0,0,0,0,0,0,0,0,0,0,0,0],"id":5,"left_children":[1,3,5,7,9,11,13,-1,15,-1,-1,17,-1,19,21,-1,-1,23,25,27,29,31,-1,-1,33,-1,-1,-1,-1,-1,-1,-1,-1,-1,-1],"loss_changes":[8.771768E0,1.6506615E0,3.384726E0,4.4414425E-1,2.2719437E-1,3.1998175E-1,4.0890098E-1,0E0,2.4827671E-1,0E0,0E0,5.405954E-1,0E0,2.9555807E-1,6.1218023E-2,0E0,0E0,2.3176849E-1,1.2307274E-1,1.5626475E-3,1.197536E-1,3.064835E-2,0E0,0E0,3.310713E-2,0E0,0E0,0E0,0E0,0E0,0E0,0E0,0E0,0E0,0E0],"parents":[2147483647,0,0,1,1,2,2,3,3,4,4,5,5,6,6,8,8,11,11,13,13,14,14,17,17,18,18,19,19,20,20,21,21,24,24],"right_children":[2,4,6,8,10,12,14,-1,16,-1,-1,18,-1,20,22,-1,-1,24,26,28,30,32,-1,-1,34,-1,-1,-1,-1,-1,-1,-1,-1,-1,-1],"split_conditions":[9.8417E0,1E0,5.25542E1,7.225E0,7.7333E0,1E0,8.18583E1,-1.9305758E-1,1E0,-9.096085E-2,-5.434248E-2,2.59292E1,-5.0968225E-3,3E1,5.123292E2,-1.2395817E-1,-9.096085E-2,2.9699118E1,1E0,7.79583E1,1E0,1E0,1.6206461E-1,-5.434248E-2,1.11333E1,-3.752502E-2,-2.0707568E-2,2.1127533E-2,3.66211E-2,4.3014444E-2,6.490136E-2,6.490136E-2,9.973796E-2,-4.5933753E-2,-3.752502E-2],"split_indices":[3,5,3,3,3,2,3,0,2,0,0,3,0,0,3,0,0,0,6,3,1,6,0,0,3,0,0,0,0,0,0,0,0,0,0],"split_type":[0,0,0,0,0,0,0,0,0,0,0,0,0,0,0,0,0,0,0,0,0,0,0,0,0,0,0,0,0,0,0,0,0,0,0],"sum_hessian":[2.7944324E2,1.0314435E2,1.7629887E2,8.5778656E1,1.736569E1,1.2786731E2,4.843157E1,9.953075E0,7.5825584E1,1.909967E0,1.5455723E1,8.116021E1,4.6707104E1,2.3280735E1,2.5150833E1,7.344344E1,2.382142E0,5.0506844E1,3.0653366E1,1.0173523E1,1.3107212E1,2.3704727E1,1.446106E0,1.9430496E1,3.1076347E1,7.7579746E0,2.2895391E1,8.72816E0,1.4453626E0,2.429971E0,1.0677241E1,1.2333529E1,1.1371199E1,4.183459E0,2.6892887E1],"tree_param":{"num_deleted":"0","num_feature":"7","num_nodes":"35","size_leaf_vector":"1"}},{"base_weights":[1.0087594E-1,-3.3532548E-1,3.5943457E-1,-4.2124817E-1,-1.1920282E-2,1.2054548E-2,4.09915E-1,-4.8417893E-1,-3.1074643E-1,-2.1658422E-1,1.2054548E-2,3.6163644E-3,6.329543E-2,3.9028987E-1,1.666055E-1,-1.5313236E-1,-1.192388E-1,-1.192388E-1,-7.8635685E-2,-6.497527E-2,-3.0679451E-2,-3.0679451E-2,1.2054548E-2,3.7303194E-1,1.4184624E-1,-1.3531544E-2,3.6163644E-3,3.5187724E-1,1.2687792E-1,6.463997E-2,1.1432215E-1],"categories":[],"categories_nodes":[],"categories_segments":[],"categories_sizes":[],"default_left":[0,0,0,0,0,0,0,0,0,0,0,0,0,0,0,0,0,0,0,0,0,0,0,0,0,0,0,0,0,0,0],"id":6,"left_children":[1,3,5,7,9,11,13,15,17,19,21,-1,-1,23,-1,-1,-1,-1,-1,-1,-1,-1,25,27,-1,-1,-1,29,-1,-1,-1],"loss_changes":[3.0168207E1,2.7644958E0,4.6653976E0,3.969307E-1,1.3613985E0,9.9214625E-1,2.3238754E-1,3.4747124E-2,9.59425E-2,8.119249E-2,1.606364E-1,0E0,0E0,1.350441E-1,0E0,0E0,0E0,0E0,0E0,0E0,0E0,0E0,4.054296E-2,1.2458801E-1,0E0,0E0,0E0,4.188347E-1,0E0,0E0,0E0],"parents":[2147483647,0,0,1,1,2,2,3,3,4,4,5,5,6,6,7,7,8,8,9,9,10,10,13,13,22,22,23,23,27,27],"right_children":[2,4,6,8,10,12,14,16,18,20,22,-1,-1,24,-1,-1,-1,-1,-1,-1,-1,-1,26,28,-1,-1,-1,30,-1,-1,-1],"split_conditions":[1E0,2E0,1E1,1E0,2.79E1,3E0,5E1,4.5E1,1.45E1,2.9699118E1,1E0,3.6163644E-3,6.329543E-2,2E0,1.666055E-1,-1.5313236E-1,-1.192388E-1,-1.192388E-1,-7.8635685E-2,-6.497527E-2,-3.0679451E-2,-3.0679451E-2,1E0,1E0,1.4184624E-1,-1.3531544E-2,3.6163644E-3,1E0,1.2687792E-1,6.463997E-2,1.1432215E-1],"split_indices":[4,2,0,1,3,1,0,0,0,0,6,0,0,1,0,0,0,0,0,0,0,0,1,5,0,0,0,6,0,0,0],"split_type":[0,0,0,0,0,0,0,0,0,0,0,0,0,0,0,0,0,0,0,0,0,0,0,0,0,0,0,0,0,0,0],"sum_hessian":[2.6541873E2,9.86665E1,1.6675224E2,7.7716225E1,2.095028E1,1.0394027E1,1.5635822E2,4.736194E1,3.0354282E1,7.0520177E0,1.3898261E1,6.96906E0,3.424967E0,1.4101352E2,1.5344698E1,4.259022E1,4.771719E0,4.6212225E0,2.5733059E1,4.667756E0,2.3842616E0,2.3152444E0,1.1583016E1,1.3215248E2,8.861039E0,1.7895443E0,9.793472E0,1.2477921E2,7.3732605E0,2.3475958E1,1.0130326E2],"tree_param":{"num_deleted":"0","num_feature":"7","num_nodes":"31","size_leaf_vector":"1"}},{"base_weights":[-1.0087591E-1,-2.993109E-1,1.0498421E-2,-3.538248E-1,-1.4440623E-1,-5.9929162E-2,1.944842E-1,-1.7454796E-1,-3.181391E-1,-7.473466E-2,-4.332187E-2,-8.2233496E-2,-6.2316745E-3,9.4655484E-2,2.667652E-1,-1.03133544E-1,-7.473466E-2,-1.4440623E-1,-5.1502872E-2,2.0183258E-2,1.8071035E-1,1.9303386E-1,1.2971745E-1,-4.332187E-2,-9.795455E-2,-2.9386366E-2,-1.5450862E-2,1.2399393E-1,5.4213107E-2,5.4213107E-2,2.4027236E-1,-3.6354117E-2,-2.9386366E-2,3.7198182E-2,4.5705643E-2,6.314741E-2,9.381381E-2],"categories":[],"categories_nodes":[],"categories_segments":[],"categories_sizes":[],"default_left":[0,0,0,0,0,0,0,0,0,0,0,0,0,0,0,0,0,0,0,0,0,0,0,0,0,0,0,0,0,0,0,0,0,0,0,0,0],"id":7,"left_children":[1,3,5,7,9,11,13,-1,15,-1,-1,17,-1,19,21,-1,-1,23,25,-1,27,29,-1,-1,31,-1,-1,33,-1,-1,35,-1,-1,-1,-1,-1,-1],"loss_changes":[5.8911467E0,1.1520748E0,2.2353106E0,4.5902538E-1,2.1613334E-1,1.0734773E-1,3.1923497E-1,0E0,2.1399355E-1,0E0,0E0,4.9282616E-1,0E0,2.720322E-1,2.4797821E-1,0E0,0E0,1.953355E-1,9.314041E-2,0E0,1.1514187E-2,2.1316111E-2,0E0,0E0,3.106016E-2,0E0,0E0,9.672061E-3,0E0,0E0,3.879851E-2,0E0,0E0,0E0,0E0,0E0,0E0],"parents":[2147483647,0,0,1,1,2,2,3,3,4,4,5,5,6,6,8,8,11,11,13,13,14,14,17,17,18,18,20,20,21,21,24,24,27,27,30,30],"right_children":[2,4,6,8,10,12,14,-1,16,-1,-1,18,-1,20,22,-1,-1,24,26,-1,28,30,-1,-1,32,-1,-1,34,-1,-1,36,-1,-1,-1,-1,-1,-1],"split_conditions":[9.8417E0,1E0,5.25542E1,7.225E0,7.7333E0,1E0,3E1,-1.7454796E-1,1E0,-7.473466E-2,-4.332187E-2,2.59292E1,-6.2316745E-3,7.965E1,1.2E2,-1.03133544E-1,-7.473466E-2,2.9699118E1,1E0,2.0183258E-2,1E0,1E0,1.2971745E-1,-4.332187E-2,1.11333E1,-2.9386366E-2,-1.5450862E-2,1E0,5.4213107E-2,5.4213107E-2,5.1E1,-3.6354117E-2,-2.9386366E-2,3.7198182E-2,4.5705643E-2,6.314741E-2,9.381381E-2],"split_indices":[3,5,3,3,3,2,0,0,2,0,0,3,0,3,3,0,0,0,6,0,1,1,0,0,3,0,0,6,0,0,0,0,0,0,0,0,0],"split_type":[0,0,0,0,0,0,0,0,0,0,0,0,0,0,0,0,0,0,0,0,0,0,0,0,0,0,0,0,0,0,0,0,0,0,0,0,0],"sum_hessian":[2.6541873E2,9.48096E1,1.7060915E2,7.816619E1,1.664341E1,1.2386815E2,4.674099E1,8.507324E0,6.965887E1,1.8146907E0,1.4828718E1,7.821542E1,4.5652725E1,2.059978E1,2.6141212E1,6.737201E1,2.2868536E0,4.860076E1,2.9614662E1,9.449553E0,1.1150228E1,1.9587141E1,6.5540705E0,1.8653763E1,2.9946999E1,7.561969E0,2.2052694E1,5.108656E0,6.0415716E0,4.4922147E0,1.5094927E1,3.9963067E0,2.5950693E1,2.8453407E0,2.2633152E0,1.0908124E1,4.186803E0],"tree_param":{"num_deleted":"0","num_feature":"7","num_nodes":"37","size_leaf_vector":"1"}},{"base_weights":[7.425652E-2,-2.9811963E-1,3.0441934E-1,-3.797751E-1,2.5990282E-3,3.1498522E-3,3.5565993E-1,-4.4085217E-1,-2.7390423E-1,-1.8858804E-1,3.1498522E-3,9.449557E-4,5.3821467E-2,3.4214061E-1,1.8375027E-1,-1.4021488E-1,-1.0721346E-1,-1.0721346E-1,-6.770681E-2,-5.6576412E-2,-2.781573E-2,-2.781573E-2,3.1498522E-3,3.2529655E-1,1.4319624E-1,-1.3435387E-2,9.449557E-4,3.0370012E-1,1.203926E-1,5.3821467E-2,1.0062939E-1],"categories":[],"categories_nodes":[],"categories_segments":[],"categories_sizes":[],"default_left":[0,0,0,0,0,0,0,0,0,0,0,0,0,0,0,0,0,0,0,0,0,0,0,0,0,0,0,0,0,0,0],"id":8,"left_children":[1,3,5,7,9,11,13,15,17,19,21,-1,-1,23,-1,-1,-1,-1,-1,-1,-1,-1,25,27,-1,-1,-1,29,-1,-1,-1],"loss_changes":[2.178856E1,2.3880167E0,3.9726505E0,3.7364578E-1,1.1312001E0,8.7025213E-1,2.9951668E-1,5.6624413E-2,1.12107754E-1,6.327808E-2,1.2476558E-1,0E0,0E0,2.6345634E-1,0E0,0E0,0E0,0E0,0E0,0E0,0E0,0E0,2.7525157E-2,2.6876736E-1,0E0,0E0,0E0,4.6612263E-1,0E0,0E0,0E0],"parents":[2147483647,0,0,1,1,2,2,3,3,4,4,5,5,6,6,7,7,8,8,9,9,10,10,13,13,22,22,23,23,27,27],"right_children":[2,4,6,8,10,12,14,16,18,20,22,-1,-1,24,-1,-1,-1,-1,-1,-1,-1,-1,26,28,-1,-1,-1,30,-1,-1,-1],"split_conditions":[1E0,2E0,1E1,1E0,2.79E1,3E0,6.1E1,4.5E1,1.45E1,2.9699118E1,1E0,9.449557E-4,5.3821467E-2,2E0,1.8375027E-1,-1.4021488E-1,-1.0721346E-1,-1.0721346E-1,-6.770681E-2,-5.6576412E-2,-2.781573E-2,-2.781573E-2,1E0,1E0,1.4319624E-1,-1.3435387E-2,9.449557E-4,1E0,1.203926E-1,5.3821467E-2,1.0062939E-1],"split_indices":[4,2,0,1,3,1,0,0,0,0,6,0,0,1,0,0,0,0,0,0,0,0,1,5,0,0,0,6,0,0,0],"split_type":[0,0,0,0,0,0,0,0,0,0,0,0,0,0,0,0,0,0,0,0,0,0,0,0,0,0,0,0,0,0,0],"sum_hessian":[2.5216219E2,9.621021E1,1.5595197E2,7.54579E1,2.0752308E1,1.0342869E1,1.456091E2,4.58455E1,2.9612402E1,6.97512E0,1.3777187E1,6.956583E0,3.3862853E0,1.4054343E2,5.065669E0,4.1207867E1,4.637632E0,4.4832172E0,2.5129185E1,4.6001563E0,2.3749638E0,2.2824106E0,1.1494777E1,1.3217314E2,8.370287E0,1.7437763E0,9.751E0,1.2487566E2,7.297484E0,2.5523367E1,9.9352295E1],"tree_param":{"num_deleted":"0","num_feature":"7","num_nodes":"31","size_leaf_vector":"1"}},{"base_weights":[-7.4256524E-2,-2.368963E-1,2.735375E-2,-1.7326438E-1,-1.9973595E-1,-3.6165398E-2,1.669607E-1,-2.4397436E-1,-1.0477128E-1,-4.8244867E-2,-5.566662E-3,6.539765E-2,2.3747551E-1,-2.6671138E-1,-5.231185E-2,-5.0401855E-2,-3.1431384E-2,-1.0477128E-1,-3.3400204E-2,1.9619295E-2,1.5143658E-1,1.811206E-1,1.1536598E-1,-2.8978378E-1,-6.616263E-2,-3.1431384E-2,-2.0725723E-2,-6.908574E-2,-1.0020061E-2,1.08417116E-1,4.5430977E-2,4.5430977E-2,2.46781E-1,-9.3820475E-2,-7.654889E-2,-2.0725723E-2,-1.5372892E-2,3.2525137E-2,3.8978055E-2,5.9732642E-2,8.485108E-2],"categories":[],"categories_nodes":[],"categories_segments":[],"categories_sizes":[],"default_left":[0,0,0,0,0,0,0,0,0,0,0,0,0,0,0,0,0,0,0,0,0,0,0,0,0,0,0,0,0,0,0,0,0,0,0,0,0,0,0,0,0],"id":9,"left_children":[1,3,5,-1,7,9,11,13,15,17,-1,19,21,23,-1,-1,-1,25,27,-1,29,31,-1,33,-1,-1,-1,35,-1,37,-1,-1,39,-1,-1,-1,-1,-1,-1,-1,-1],"loss_changes":[4.190207E0,1.1182384E0,1.395715E0,0E0,6.223078E-1,2.219078E-2,3.3869112E-1,2.2431421E-1,3.5359263E-3,3.92144E-1,0E0,2.0190981E-1,1.6836107E-1,9.886694E-2,0E0,0E0,0E0,1.9837534E-1,6.673686E-2,0E0,8.674771E-3,1.2037724E-1,0E0,2.0134926E-2,0E0,0E0,0E0,2.4131984E-3,0E0,7.1507245E-3,0E0,0E0,5.7685018E-2,0E0,0E0,0E0,0E0,0E0,0E0,0E0,0E0],"parents":[2147483647,0,0,1,1,2,2,4,4,5,5,6,6,7,7,8,8,9,9,11,11,12,12,13,13,17,17,18,18,20,20,21,21,23,23,27,27,29,29,32,32],"right_children":[2,4,6,-1,8,10,12,14,16,18,-1,20,22,24,-1,-1,-1,26,28,-1,30,32,-1,34,-1,-1,-1,36,-1,38,-1,-1,40,-1,-1,-1,-1,-1,-1,-1,-1],"split_conditions":[1.11333E1,7.225E0,5.14792E1,-1.7326438E-1,1E0,1E0,3E1,1E0,7.7375E0,2.59292E1,-5.566662E-3,7.965E1,1.2E2,9.8417E0,-5.231185E-2,-5.0401855E-2,-3.1431384E-2,2.9699118E1,1E0,1.9619295E-2,1E0,1E0,1.1536598E-1,3E1,-6.616263E-2,-3.1431384E-2,-2.0725723E-2,3.55E1,-1.0020061E-2,2E0,4.5430977E-2,4.5430977E-2,4.7E1,-9.3820475E-2,-7.654889E-2,-2.0725723E-2,-1.5372892E-2,3.2525137E-2,3.8978055E-2,5.9732642E-2,8.485108E-2],"split_indices":[3,3,3,0,5,2,0,2,3,3,0,3,3,3,0,0,0,0,6,0,1,1,0,0,0,0,0,3,0,2,0,0,0,0,0,0,0,0,0,0,0],"split_type":[0,0,0,0,0,0,0,0,0,0,0,0,0,0,0,0,0,0,0,0,0,0,0,0,0,0,0,0,0,0,0,0,0,0,0,0,0,0,0,0,0],"sum_hessian":[2.5216219E2,9.645024E1,1.5571193E2,8.056222E0,8.839402E1,1.07528824E2,4.8183113E1,7.328542E1,1.5108598E1,6.2747536E1,4.478129E1,2.0467422E1,2.7715693E1,7.10804E1,2.2050254E0,2.6294613E0,1.2479136E1,3.740023E1,2.5347303E1,9.626598E0,1.0840823E1,2.1651194E1,6.0645E0,6.181337E1,9.267031E0,1.2426233E1,2.4973997E1,7.318295E0,1.8029007E1,4.95469E0,5.8861327E0,4.6908813E0,1.6960312E1,4.743238E1,1.4380986E1,5.055201E0,2.263094E0,3.0276427E0,1.9270473E0,8.709553E0,8.250759E0],"tree_param":{"num_deleted":"0","num_feature":"7","num_nodes":"41","size_leaf_vector":"1"}},{"base_weights":[5.333978E-2,-2.6473165E-1,2.5775132E-1,-3.429326E-1,-3.4901649E-3,-3.4901649E-3,3.0995762E-1,-4.032726E-1,-2.3989712E-1,-1.732114E-1,-3.4901649E-3,-1.0470495E-3,4.5970123E-2,2.8580326E-1,4.6582392E-1,-1.2902185E-1,-9.647546E-2,-9.647546E-2,-5.7521556E-2,-5.1963422E-2,-2.6505236E-2,-2.6505236E-2,-3.4901649E-3,2.650982E-1,3.758136E-1,1.12744085E-1,1.6570531E-1,-1.3776142E-2,-1.0470495E-3,2.4361397E-1,9.613678E-2,9.613678E-2,1.12744085E-1,4.5970123E-2,8.019476E-2],"categories":[],"categories_nodes":[],"categories_segments":[],"categories_sizes":[],"default_left":[0,0,0,0,0,0,0,0,0,0,0,0,0,0,0,0,0,0,0,0,0,0,0,0,0,0,0,0,0,0,0,0,0,0,0],"id":10,"left_children":[1,3,5,7,9,11,13,15,17,19,21,-1,-1,23,25,-1,-1,-1,-1,-1,-1,-1,27,29,31,-1,-1,-1,-1,33,-1,-1,-1,-1,-1],"loss_changes":[1.5719568E1,2.0781465E0,3.4005642E0,3.640213E-1,9.728622E-1,7.65942E-1,3.8174343E-1,7.429695E-2,1.273557E-1,5.5031598E-2,1.0201631E-1,0E0,0E0,2.1625137E-1,1.9924164E-1,0E0,0E0,0E0,0E0,0E0,0E0,0E0,1.9353386E-2,1.6076374E-1,3.1695843E-2,0E0,0E0,0E0,0E0,2.4901009E-1,0E0,0E0,0E0,0E0,0E0],"parents":[2147483647,0,0,1,1,2,2,3,3,4,4,5,5,6,6,7,7,8,8,9,9,10,10,13,13,14,14,22,22,23,23,24,24,29,29],"right_children":[2,4,6,8,10,12,14,16,18,20,22,-1,-1,24,26,-1,-1,-1,-1,-1,-1,-1,28,30,32,-1,-1,-1,-1,34,-1,-1,-1,-1,-1],"split_conditions":[1E0,2E0,1E1,1E0,2.79E1,3E0,5.79792E1,4.5E1,1.45E1,2.9699118E1,1E0,-1.0470495E-3,4.5970123E-2,1E0,1.9E1,-1.2902185E-1,-9.647546E-2,-9.647546E-2,-5.7521556E-2,-5.1963422E-2,-2.6505236E-2,-2.6505236E-2,1E0,1E0,1.575E1,1.12744085E-1,1.6570531E-1,-1.3776142E-2,-1.0470495E-3,1E0,9.613678E-2,9.613678E-2,1.12744085E-1,4.5970123E-2,8.019476E-2],"split_indices":[4,2,0,1,3,1,3,0,0,0,6,0,0,2,0,0,0,0,0,0,0,0,1,5,3,0,0,0,0,6,0,0,0,0,0],"split_type":[0,0,0,0,0,0,0,0,0,0,0,0,0,0,0,0,0,0,0,0,0,0,0,0,0,0,0,0,0,0,0,0,0,0,0],"sum_hessian":[2.3972504E2,9.367242E1,1.4605261E2,7.311204E1,2.0560379E1,1.0293716E1,1.357589E2,4.427162E1,2.884042E1,6.903177E0,1.3657203E1,6.946333E0,3.3473833E0,1.19996826E2,1.5762071E1,3.9766537E1,4.505082E0,4.3426523E0,2.4497768E1,4.537724E0,2.3654528E0,2.2518058E0,1.1405396E1,1.08136635E2,1.1860191E1,1.4796948E0,1.4282375E1,1.7012234E0,9.704173E0,1.0025911E2,7.877525E0,2.0402708E0,9.819921E0,1.6767452E1,8.349166E1],"tree_param":{"num_deleted":"0","num_feature":"7","num_nodes":"35","size_leaf_vector":"1"}},{"base_weights":[-5.3339783E-2,-2.0858636E-1,2.5556482E-2,-1.6446963E-1,-1.7011459E-1,-2.5134552E-2,1.4675537E-1,-2.1607189E-1,-9.1514945E-2,-1.9590726E-2,-2.1184688E-2,6.081041E-2,2.113501E-1,-2.4385478E-1,-4.613803E-2,-4.613803E-2,-2.7454484E-2,-3.7868246E-2,-1.52172595E-2,1.8243123E-2,1.3608025E-1,1.6128129E-1,1.03869155E-1,-2.697507E-1,-1.9882411E-1,-4.3243553E-2,-7.962827E-3,-2.6542753E-2,1.42364185E-2,9.8445326E-2,4.0824078E-2,4.0824078E-2,2.301571E-1,-8.6042374E-2,-7.028623E-2,-7.028623E-2,-5.9647236E-2,-1.2973066E-2,-1.04679465E-2,-7.962827E-3,-1.8459503E-3,-1.8459503E-3,1.8243123E-2,2.9533599E-2,3.5178836E-2,5.4935604E-2,7.612677E-2],"categories":[],"categories_nodes":[],"categories_segments":[],"categories_sizes":[],"default_left":[0,0,0,0,0,0,0,0,0,0,0,0,0,0,0,0,0,0,0,0,0,0,0,0,0,0,0,0,0,0,0,0,0,0,0,0,0,0,0,0,0,0,0,0,0,0,0],"id":11,"left_children":[1,3,5,-1,7,9,11,13,15,-1,17,19,21,23,-1,-1,-1,25,27,-1,29,31,-1,33,35,37,-1,39,41,43,-1,-1,45,-1,-1,-1,-1,-1,-1,-1,-1,-1,-1,-1,-1,-1,-1],"loss_changes":[2.9538212E0,9.6806455E-1,9.897623E-1,0E0,4.6229386E-1,1.6707182E-2,2.7082288E-1,2.128458E-1,9.8425E-3,0E0,9.9066645E-3,1.604917E-1,1.304754E-1,6.764197E-2,0E0,0E0,0E0,7.3721364E-2,7.0739284E-2,0E0,1.0646105E-2,1.22428596E-1,0E0,4.2877197E-3,1.1029762E-1,6.6965073E-3,0E0,4.3000177E-2,1.7806922E-1,7.6422505E-3,0E0,0E0,3.7383556E-2,0E0,0E0,0E0,0E0,0E0,0E0,0E0,0E0,0E0,0E0,0E0,0E0,0E0,0E0],"parents":[2147483647,0,0,1,1,2,2,4,4,5,5,6,6,7,7,8,8,10,10,11,11,12,12,13,13,17,17,18,18,20,20,21,21,23,23,24,24,25,25,27,27,28,28,29,29,32,32],"right_children":[2,4,6,-1,8,10,12,14,16,-1,18,20,22,24,-1,-1,-1,26,28,-1,30,32,-1,34,36,38,-1,40,42,44,-1,-1,46,-1,-1,-1,-1,-1,-1,-1,-1,-1,-1,-1,-1,-1,-1],"split_conditions":[9.8417E0,7.225E0,5.14792E1,-1.6446963E-1,1E0,1.11333E1,3E1,1E0,7.7375E0,-1.9590726E-2,1E0,7.965E1,1.2E2,3E1,-4.613803E-2,-4.613803E-2,-2.7454484E-2,1.51E1,2.7E1,1.8243123E-2,1E0,1E0,1.03869155E-1,1E0,7.925E0,1E0,-7.962827E-3,1E0,2.625E1,2E0,4.0824078E-2,4.0824078E-2,4.7E1,-8.6042374E-2,-7.028623E-2,-7.028623E-2,-5.9647236E-2,-1.2973066E-2,-1.04679465E-2,-7.962827E-3,-1.8459503E-3,-1.8459503E-3,1.8243123E-2,2.9533599E-2,3.5178836E-2,5.4935604E-2,7.612677E-2],"split_indices":[3,3,3,0,5,3,0,2,3,0,6,3,3,0,0,0,0,3,0,0,1,1,0,1,3,5,0,2,3,2,0,0,0,0,0,0,0,0,0,0,0,0,0,0,0,0,0],"split_type":[0,0,0,0,0,0,0,0,0,0,0,0,0,0,0,0,0,0,0,0,0,0,0,0,0,0,0,0,0,0,0,0,0,0,0,0,0,0,0,0,0,0,0,0,0,0,0],"sum_hessian":[2.3972502E2,8.022333E1,1.595017E2,6.814216E0,7.340911E1,1.1302287E2,4.647883E1,5.8967472E1,1.4441639E1,8.728293E0,1.0429458E2,1.9889956E1,2.6588873E1,5.683328E1,2.1341953E0,2.5070584E0,1.193458E1,2.6068167E1,7.822641E1,9.344782E0,1.0545175E1,2.0992138E1,5.5967355E0,4.3616146E1,1.3217131E1,7.672303E0,1.8395864E1,3.0153152E1,4.8073257E1,4.808184E0,5.73699E0,4.488698E0,1.6503439E1,4.079581E1,2.8203375E0,5.1195507E0,8.09758E0,6.3826604E0,1.2896428E0,6.7814727E0,2.3371681E1,3.1347963E1,1.6725294E1,2.892727E0,1.9154572E0,8.493881E0,8.009558E0],"tree_param":{"num_deleted":"0","num_feature":"7","num_nodes":"47","size_leaf_vector":"1"}},{"base_weights":[3.8250707E-2,-2.3239738E-1,2.1720695E-1,-3.0764672E-1,-7.5952113E-3,-7.5952113E-3,2.7001235E-1,-3.6721498E-1,-2.0765863E-1,-1.5762097E-1,-7.5952113E-3,-2.2785636E-3,3.9362572E-2,2.452527E-1,1.3565983E-1,-1.1844677E-1,-8.6231045E-2,-8.6231045E-2,-4.7805455E-2,-4.728629E-2,-2.4782429E-2,-2.4782429E-2,-7.5952113E-3,2.2459723E-1,1.0461781E-1,-1.3530496E-2,-2.2785636E-3,1.9984406E-1,8.599849E-2,3.9362572E-2,6.7136824E-2],"categories":[],"categories_nodes":[],"categories_segments":[],"categories_sizes":[],"default_left":[0,0,0,0,0,0,0,0,0,0,0,0,0,0,0,0,0,0,0,0,0,0,0,0,0,0,0,0,0,0,0],"id":12,"left_children":[1,3,5,7,9,11,13,15,17,19,21,-1,-1,23,-1,-1,-1,-1,-1,-1,-1,-1,25,27,-1,-1,-1,29,-1,-1,-1],"loss_changes":[1.1195451E1,1.8027406E0,2.898687E0,3.5083294E-1,8.3919764E-1,6.7180324E-1,4.700327E-1,9.251928E-2,1.4036179E-1,4.796797E-2,8.4530726E-2,0E0,0E0,3.0709982E-1,0E0,0E0,0E0,0E0,0E0,0E0,0E0,0E0,1.3072841E-2,2.7136707E-1,0E0,0E0,0E0,1.9502974E-1,0E0,0E0,0E0],"parents":[2147483647,0,0,1,1,2,2,3,3,4,4,5,5,6,6,7,7,8,8,9,9,10,10,13,13,22,22,23,23,27,27],"right_children":[2,4,6,8,10,12,14,16,18,20,22,-1,-1,24,-1,-1,-1,-1,-1,-1,-1,-1,26,28,-1,-1,-1,30,-1,-1,-1],"split_conditions":[1E0,2E0,1E1,1E0,2.79E1,3E0,5E1,4.5E1,1.45E1,2.9699118E1,1E0,-2.2785636E-3,3.9362572E-2,2E0,1.3565983E-1,-1.1844677E-1,-8.6231045E-2,-8.6231045E-2,-4.7805455E-2,-4.728629E-2,-2.4782429E-2,-2.4782429E-2,1E0,1E0,1.0461781E-1,-1.3530496E-2,-2.2785636E-3,1E0,8.599849E-2,3.9362572E-2,6.7136824E-2],"split_indices":[4,2,0,1,3,1,0,0,0,0,6,0,0,1,0,0,0,0,0,0,0,0,1,5,0,0,0,6,0,0,0],"split_type":[0,0,0,0,0,0,0,0,0,0,0,0,0,0,0,0,0,0,0,0,0,0,0,0,0,0,0,0,0,0,0],"sum_hessian":[2.2910556E2,9.107214E1,1.3803342E2,7.070602E1,2.0366127E1,1.0248415E1,1.27784996E2,4.263405E1,2.807197E1,6.829412E0,1.35367155E1,6.9374413E0,3.3109734E0,1.1456191E2,1.3223087E1,3.827E1,4.364048E0,4.2020683E0,2.3869902E1,4.4743657E0,2.3550463E0,2.2229557E0,1.131376E1,1.0712589E2,7.4360137E0,1.6596783E0,9.654081E0,1.0116431E2,5.9615884E0,2.1251152E1,7.9913155E1],"tree_param":{"num_deleted":"0","num_feature":"7","num_nodes":"31","size_leaf_vector":"1"}},{"base_weights":[-3.82507E-2,-1.7500383E-1,2.8195871E-2,-1.5778987E-1,-1.3823085E-1,-1.9245557E-2,1.4280109E-1,-1.7683516E-1,-7.340398E-2,-1.7368242E-2,-1.5529793E-2,1.2309237E-1,1.4119591E-1,-2.0565379E-1,-3.7535872E-2,-3.7535872E-2,-2.2021193E-2,-3.570068E-2,-8.408747E-3,6.1777767E-2,1.9104303E-1,-2.3408513E-1,-1.6538668E-1,-3.6711965E-2,-6.616414E-3,-2.2054713E-2,2.5074957E-2,1.853333E-2,1.264104E-1,1.5765068E-1,8.3761044E-2,-7.572099E-2,-5.9920777E-2,-5.9920777E-2,-4.9616005E-2,-1.101359E-2,-8.815002E-3,-6.616414E-3,4.5303657E-4,4.5303657E-4,1.853333E-2,2.8228225E-2,3.792312E-2,3.792312E-2,6.5528125E-2],"categories":[],"categories_nodes":[],"categories_segments":[],"categories_sizes":[],"default_left":[0,0,0,0,0,0,0,0,0,0,0,0,0,0,0,0,0,0,0,0,0,0,0,0,0,0,0,0,0,0,0,0,0,0,0,0,0,0,0,0,0,0,0,0,0],"id":13,"left_children":[1,3,5,-1,7,9,11,13,15,-1,17,19,-1,21,-1,-1,-1,23,25,27,29,31,33,35,-1,37,39,-1,41,43,-1,-1,-1,-1,-1,-1,-1,-1,-1,-1,-1,-1,-1,-1,-1],"loss_changes":[2.0958517E0,9.001906E-1,8.494142E-1,0E0,2.9853272E-1,1.50434375E-2,2.3741394E-1,1.8340719E-1,1.7614573E-2,0E0,1.4443228E-2,3.022648E-1,0E0,8.099198E-2,0E0,0E0,0E0,6.7625806E-2,9.105901E-2,7.4510425E-2,3.936386E-2,1.8745184E-2,1.1596882E-1,5.4684877E-3,0E0,4.4640332E-2,1.7980844E-1,0E0,1.9693017E-2,1.5980262E-1,0E0,0E0,0E0,0E0,0E0,0E0,0E0,0E0,0E0,0E0,0E0,0E0,0E0,0E0,0E0],"parents":[2147483647,0,0,1,1,2,2,4,4,5,5,6,6,7,7,8,8,10,10,11,11,13,13,17,17,18,18,19,19,20,20,21,21,22,22,23,23,25,25,26,26,28,28,29,29],"right_children":[2,4,6,-1,8,10,12,14,16,-1,18,20,-1,22,-1,-1,-1,24,26,28,30,32,34,36,-1,38,40,-1,42,44,-1,-1,-1,-1,-1,-1,-1,-1,-1,-1,-1,-1,-1,-1,-1],"split_conditions":[9.8417E0,7.225E0,5.14792E1,-1.5778987E-1,1E0,1.11333E1,5.123292E2,1E0,7.7375E0,-1.7368242E-2,1E0,1E0,1.4119591E-1,3E1,-3.7535872E-2,-3.7535872E-2,-2.2021193E-2,1.51E1,2.7E1,7.965E1,1.13275E2,1E0,7.925E0,1E0,-6.616414E-3,1E0,2.625E1,1.853333E-2,1E0,4.7E1,8.3761044E-2,-7.572099E-2,-5.9920777E-2,-5.9920777E-2,-4.9616005E-2,-1.101359E-2,-8.815002E-3,-6.616414E-3,4.5303657E-4,4.5303657E-4,1.853333E-2,2.8228225E-2,3.792312E-2,3.792312E-2,6.5528125E-2],"split_indices":[3,3,3,0,5,3,3,2,3,0,6,1,0,0,0,0,0,3,0,3,3,1,3,5,0,2,3,0,6,0,0,0,0,0,0,0,0,0,0,0,0,0,0,0,0],"split_type":[0,0,0,0,0,0,0,0,0,0,0,0,0,0,0,0,0,0,0,0,0,0,0,0,0,0,0,0,0,0,0,0,0,0,0,0,0,0,0,0,0,0,0,0,0],"sum_hessian":[2.2910555E2,7.438358E1,1.5472197E2,5.7929E0,6.859068E1,1.1001341E2,4.4708557E1,5.4746536E1,1.3844141E1,8.370379E0,1.01643036E2,4.347077E1,1.2377819E0,5.2680183E1,2.0663567E0,2.3959312E0,1.144821E1,2.5473646E1,7.616939E1,1.6147476E1,2.7323298E1,4.0399452E1,1.2280728E1,7.4720693E0,1.8001577E1,2.9485687E1,4.66837E1,7.043726E0,9.103749E0,2.1839441E1,5.483857E0,3.7749447E1,2.650007E0,4.744803E0,7.535926E0,6.237921E0,1.2341484E0,6.5657725E0,2.2919914E1,3.0366377E1,1.6317324E1,4.546381E0,4.5573683E0,1.4083067E1,7.7563744E0],"tree_param":{"num_deleted":"0","num_feature":"7","num_nodes":"45","size_leaf_vector":"1"}},{"base_weights":[2.795511E-2,-2.0266095E-1,1.8414855E-1,-3.2291633E-1,-4.9388416E-2,-9.256199E-3,2.3929457E-1,-1.19443E-1,-5.584571E-2,-5.584571E-2,-9.256199E-3,-2.7768598E-3,3.450576E-2,2.0342422E-1,4.6435934E-1,-2.9311286E-2,-9.256199E-3,1.844598E-1,1.00167535E-1,1.00167535E-1,1.6688439E-1,-1.6044073E-2,-2.7768598E-3,1.618531E-1,2.5917578E-1,4.2216048E-2,6.315433E-2,6.315433E-2,7.775274E-2],"categories":[],"categories_nodes":[],"categories_segments":[],"categories_sizes":[],"default_left":[0,0,0,0,0,0,0,0,0,0,0,0,0,0,0,0,0,0,0,0,0,0,0,0,0,0,0,0,0],"id":14,"left_children":[1,3,5,7,9,11,13,-1,-1,-1,15,-1,-1,17,19,-1,21,23,-1,-1,-1,-1,-1,25,27,-1,-1,-1,-1],"loss_changes":[7.988202E0,1.6356747E0,2.4884691E0,8.899417E-1,7.652096E-1,7.041344E-1,8.765917E-1,0E0,0E0,0E0,2.6052576E-1,0E0,0E0,3.507204E-1,3.969264E-2,0E0,1.0409384E-1,2.3264313E-1,0E0,0E0,0E0,0E0,0E0,1.5523505E-1,6.5761566E-2,0E0,0E0,0E0,0E0],"parents":[2147483647,0,0,1,1,2,2,3,3,4,4,5,5,6,6,10,10,13,13,14,14,16,16,17,17,23,23,24,24],"right_children":[2,4,6,8,10,12,14,-1,-1,-1,16,-1,-1,18,20,-1,22,24,-1,-1,-1,-1,-1,26,28,-1,-1,-1,-1],"split_conditions":[1E0,1E0,1.3E1,3.7E1,1E0,3E0,5.79792E1,-1.19443E-1,-5.584571E-2,-5.584571E-2,2E0,-2.7768598E-3,3.450576E-2,5.7E1,1E0,-2.9311286E-2,2.79E1,1E0,1.00167535E-1,1.00167535E-1,1.6688439E-1,-1.6044073E-2,-2.7768598E-3,1E0,1.575E1,4.2216048E-2,6.315433E-2,6.315433E-2,7.775274E-2],"split_indices":[4,1,0,0,6,1,3,0,0,0,2,0,0,0,6,0,3,2,0,0,0,0,0,5,3,0,0,0,0],"split_type":[0,0,0,0,0,0,0,0,0,0,0,0,0,0,0,0,0,0,0,0,0,0,0,0,0,0,0,0,0],"sum_hessian":[2.1973083E2,8.860704E1,1.3112378E2,4.9031128E1,3.9575916E1,1.1842143E1,1.1928164E2,4.039719E1,8.633937E0,1.04249325E1,2.9150986E1,7.835412E0,4.006731E0,1.045263E2,1.47553425E1,1.8161036E1,1.0989949E1,1.00140114E2,4.3861837E0,7.2760587E0,7.479284E0,1.4040412E0,9.585908E0,9.026423E1,9.875887E0,8.432902E1,5.935207E0,1.8721429E0,8.003744E0],"tree_param":{"num_deleted":"0","num_feature":"7","num_nodes":"29","size_leaf_vector":"1"}},{"base_weights":[-2.7955094E-2,-1.376435E-1,3.2240815E-2,-1.522351E-1,-1.0586393E-1,-1.0860057E-2,1.2898156E-1,-1.3182159E-1,-5.2701343E-2,-3.2970827E-2,-3.1144316E-3,5.9060752E-2,1.9359502E-1,-1.570053E-1,-2.767844E-2,-2.767844E-2,-1.5810404E-2,-5.2701343E-2,-5.412789E-3,-1.804263E-2,3.4896605E-2,1.7718226E-2,1.2632789E-1,1.6300164E-1,1.3383867E-1,-1.7287436E-1,-3.7390016E-2,-1.5810404E-2,-1.0611596E-2,-1.804263E-2,8.426988E-3,8.426988E-3,5.9060752E-2,9.269432E-2,3.789837E-2,1.2632789E-1,6.274569E-2,-6.1216377E-2,-4.462616E-2,-5.412789E-3,-1.4423464E-3,-1.4423464E-3,2.5280963E-3,2.5280963E-3,1.0123162E-2,1.0123162E-2,1.7718226E-2,2.7808297E-2,3.2853335E-2,3.789837E-2,5.0322026E-2],"categories":[],"categories_nodes":[],"categories_segments":[],"categories_sizes":[],"default_left":[0,0,0,0,0,0,0,0,0,0,0,0,0,0,0,0,0,0,0,0,0,0,0,0,0,0,0,0,0,0,0,0,0,0,0,0,0,0,0,0,0,0,0,0,0,0,0,0,0,0,0],"id":15,"left_children":[1,3,5,-1,7,9,11,13,15,17,19,21,23,25,-1,-1,-1,27,-1,29,31,-1,33,35,-1,37,-1,-1,-1,39,41,43,45,47,-1,49,-1,-1,-1,-1,-1,-1,-1,-1,-1,-1,-1,-1,-1,-1,-1],"loss_changes":[1.461878E0,8.676872E-1,5.990244E-1,0E0,1.6649354E-1,1.7036371E-2,2.4225879E-1,1.4119649E-1,2.6829537E-2,1.6968699E-1,1.1278633E-1,1.1135718E-1,1.2452936E-1,4.0237665E-2,0E0,0E0,0E0,1.3368875E-2,0E0,4.1835614E-2,1.6450414E-1,0E0,1.582992E-2,7.295871E-2,0E0,6.7004204E-2,0E0,0E0,0E0,1.8487163E-2,8.824424E-3,2.9293492E-2,3.459111E-2,5.2225776E-3,0E0,7.7575594E-3,0E0,0E0,0E0,0E0,0E0,0E0,0E0,0E0,0E0,0E0,0E0,0E0,0E0,0E0,0E0],"parents":[2147483647,0,0,1,1,2,2,4,4,5,5,6,6,7,7,8,8,9,9,10,10,11,11,12,12,13,13,17,17,19,19,20,20,22,22,23,23,25,25,29,29,30,30,31,31,32,32,33,33,35,35],"right_children":[2,4,6,-1,8,10,12,14,16,18,20,22,24,26,-1,-1,-1,28,-1,30,32,-1,34,36,-1,38,-1,-1,-1,40,42,44,46,48,-1,50,-1,-1,-1,-1,-1,-1,-1,-1,-1,-1,-1,-1,-1,-1,-1],"split_conditions":[1.11333E1,7.225E0,5.14792E1,-1.522351E-1,1E0,1E0,3E1,1E0,7.775E0,1.51E1,2.7E1,7.965E1,5.123292E2,9.8417E0,-2.767844E-2,-2.767844E-2,-1.5810404E-2,1E0,-5.412789E-3,1E0,2.625E1,1.7718226E-2,2E0,1E0,1.3383867E-1,3E1,-3.7390016E-2,-1.5810404E-2,-1.0611596E-2,2.54667E1,1E0,3E0,1E0,1E0,3.789837E-2,7.965E1,6.274569E-2,-6.1216377E-2,-4.462616E-2,-5.412789E-3,-1.4423464E-3,-1.4423464E-3,2.5280963E-3,2.5280963E-3,1.0123162E-2,1.0123162E-2,1.7718226E-2,2.7808297E-2,3.2853335E-2,3.789837E-2,5.0322026E-2],"split_indices":[3,3,3,0,5,6,0,2,3,3,0,3,3,3,0,0,0,5,0,2,3,0,2,1,0,0,0,0,0,3,4,1,4,1,0,3,0,0,0,0,0,0,0,0,0,0,0,0,0,0,0],"split_type":[0,0,0,0,0,0,0,0,0,0,0,0,0,0,0,0,0,0,0,0,0,0,0,0,0,0,0,0,0,0,0,0,0,0,0,0,0,0,0,0,0,0,0,0,0,0,0,0,0,0,0],"sum_hessian":[2.1973082E2,7.7402374E1,1.4232845E2,4.940763E0,7.246161E1,9.907523E1,4.3253216E1,5.9206387E1,1.3255224E1,2.4858139E1,7.4217094E1,1.8722223E1,2.4530993E1,5.7193104E1,2.0132828E0,1.074677E1,2.5084538E0,7.2694745E0,1.7588665E1,2.8875906E1,4.5341187E1,8.788841E0,9.933382E0,2.3347954E1,1.183039E0,4.9169575E1,8.023528E0,6.0991135E0,1.1703607E0,6.357304E0,2.2518602E1,2.9419228E1,1.5921961E1,4.9660435E0,4.9673386E0,6.6123023E0,1.6735651E1,3.7689926E1,1.147965E1,4.687511E0,1.6697932E0,1.0505221E1,1.201338E1,2.807222E1,1.3470085E0,4.2281766E0,1.1693784E1,2.6302319E0,2.3358116E0,2.4705071E0,4.141795E0],"tree_param":{"num_deleted":"0","num_feature":"7","num_nodes":"51","size_leaf_vector":"1"}},{"base_weights":[2.251906E-2,-1.7358126E-1,1.5686762E-1,-2.4807271E-1,-8.356817E-3,-8.356817E-3,2.1054699E-1,-3.0355486E-1,-1.5796593E-1,-1.2821476E-1,-8.356817E-3,-2.5070452E-3,3.0328525E-2,1.8131164E-1,3.85201E-1,-9.933403E-2,-6.922812E-2,-6.922812E-2,-3.846443E-2,-3.846443E-2,-2.0485738E-2,-2.0485738E-2,-8.356817E-3,1.5590924E-1,2.8325632E-1,8.49769E-2,1.4214076E-1,-1.1496392E-2,-2.5070452E-3,1.3197297E-1,6.587484E-2,6.587484E-2,8.49769E-2,3.3223856E-2,5.2733365E-2],"categories":[],"categories_nodes":[],"categories_segments":[],"categories_sizes":[],"default_left":[0,0,0,0,0,0,0,0,0,0,0,0,0,0,0,0,0,0,0,0,0,0,0,0,0,0,0,0,0,0,0,0,0,0,0],"id":16,"left_children":[1,3,5,7,9,11,13,15,17,19,21,-1,-1,23,25,-1,-1,-1,-1,-1,-1,-1,27,29,31,-1,-1,-1,-1,33,-1,-1,-1,-1,-1],"loss_changes":[5.638978E0,1.4918246E0,2.1297388E0,2.886448E-1,6.0371137E-1,5.1792127E-1,5.263276E-1,9.838128E-2,1.4999592E-1,4.6004295E-2,5.362533E-2,0E0,0E0,3.40806E-1,2.77287E-1,0E0,0E0,0E0,0E0,0E0,0E0,0E0,2.7971566E-3,2.3234797E-1,1.063627E-1,0E0,0E0,0E0,0E0,1.4253116E-1,0E0,0E0,0E0,0E0,0E0],"parents":[2147483647,0,0,1,1,2,2,3,3,4,4,5,5,6,6,7,7,8,8,9,9,10,10,13,13,14,14,22,22,23,23,24,24,29,29],"right_children":[2,4,6,8,10,12,14,16,18,20,22,-1,-1,24,26,-1,-1,-1,-1,-1,-1,-1,28,30,32,-1,-1,-1,-1,34,-1,-1,-1,-1,-1],"split_conditions":[1E0,2E0,1E1,1E0,2.79E1,3E0,5.79792E1,4.5E1,1.45E1,2.9699118E1,1E0,-2.5070452E-3,3.0328525E-2,1E0,1.9E1,-9.933403E-2,-6.922812E-2,-6.922812E-2,-3.846443E-2,-3.846443E-2,-2.0485738E-2,-2.0485738E-2,1E0,1E0,1.575E1,8.49769E-2,1.4214076E-1,-1.1496392E-2,-2.5070452E-3,5.2E1,6.587484E-2,6.587484E-2,8.49769E-2,3.3223856E-2,5.2733365E-2],"split_indices":[4,2,0,1,3,1,3,0,0,0,6,0,0,2,0,0,0,0,0,0,0,0,1,5,3,0,0,0,0,0,0,0,0,0,0],"split_type":[0,0,0,0,0,0,0,0,0,0,0,0,0,0,0,0,0,0,0,0,0,0,0,0,0,0,0,0,0,0,0,0,0,0,0],"sum_hessian":[2.1200359E2,8.6074265E1,1.2592931E2,6.632849E1,1.974577E1,1.0172279E1,1.15757034E2,3.9585415E1,2.6743078E1,6.549999E0,1.3195771E1,6.9230194E0,3.24926E0,1.0090471E2,1.4852328E1,3.5412E1,4.173415E0,4.004966E0,2.2738111E1,4.258185E0,2.291814E0,2.1157084E0,1.1080063E1,9.02673E1,1.0637409E1,1.4678512E0,1.3384477E1,1.539931E0,9.540132E0,8.376231E1,6.504993E0,1.8073351E0,8.830074E0,7.846735E1,5.2949643E0],"tree_param":{"num_deleted":"0","num_feature":"7","num_nodes":"35","size_leaf_vector":"1"}},{"base_weights":[-2.2519046E-2,-1.4780855E-1,-1.0502161E-2,-4.444114E-2,1.2255647E-1,-9.564496E-2,-1.3853983E-2,3.9057665E-2,1.8524519E-1,-1.2003092E-1,-5.474947E-2,-3.7084695E-2,-1.0821839E-3,1.17173E-2,1.1215143E-1,1.5443018E-1,1.3088793E-1,-1.5045735E-1,-2.6217058E-2,-2.6217058E-2,-1.6424842E-2,-5.474947E-2,-2.0345988E-2,7.560454E-2,3.364543E-2,1.1215143E-1,6.1544355E-2,-5.5454038E-2,-3.567713E-2,-1.6424842E-2,-1.12643195E-2,-1.12643195E-2,-6.1037964E-3,2.2681363E-2,2.8163398E-2,3.364543E-2,4.7594894E-2],"categories":[],"categories_nodes":[],"categories_segments":[],"categories_sizes":[],"default_left":[0,0,0,0,0,0,0,0,0,0,0,0,0,0,0,0,0,0,0,0,0,0,0,0,0,0,0,0,0,0,0,0,0,0,0,0,0],"id":17,"left_children":[1,-1,3,5,7,9,11,13,15,17,19,21,-1,-1,23,25,-1,27,-1,-1,-1,29,31,33,-1,35,-1,-1,-1,-1,-1,-1,-1,-1,-1,-1,-1],"loss_changes":[1.1983069E0,0E0,9.479865E-1,2.60279E-1,2.265274E-1,1.04175806E-1,2.5035838E-2,1.3481069E-1,1.2290263E-1,1.2897605E-1,2.901595E-2,1.6921026E-1,0E0,0E0,1.922521E-2,9.47417E-2,0E0,9.799707E-2,0E0,0E0,0E0,1.2202799E-2,3.3967495E-3,9.259554E-3,0E0,8.200362E-3,0E0,0E0,0E0,0E0,0E0,0E0,0E0,0E0,0E0,0E0,0E0],"parents":[2147483647,0,0,2,2,3,3,4,4,5,5,6,6,7,7,8,8,9,9,10,10,11,11,14,14,15,15,17,17,21,21,22,22,23,23,25,25],"right_children":[2,-1,4,6,8,10,12,14,16,18,20,22,-1,-1,24,26,-1,28,-1,-1,-1,30,32,34,-1,36,-1,-1,-1,-1,-1,-1,-1,-1,-1,-1,-1],"split_conditions":[7.225E0,-1.4780855E-1,5.14792E1,9.8417E0,3E1,1E0,1.52458E1,7.965E1,5.123292E2,1E0,7.775E0,1E0,-1.0821839E-3,1.17173E-2,2E0,1E0,1.3088793E-1,3E1,-2.6217058E-2,-2.6217058E-2,-1.6424842E-2,1E0,1.11333E1,1E0,3.364543E-2,1.2E2,6.1544355E-2,-5.5454038E-2,-3.567713E-2,-1.6424842E-2,-1.12643195E-2,-1.12643195E-2,-6.1037964E-3,2.2681363E-2,2.8163398E-2,3.364543E-2,4.7594894E-2],"split_indices":[3,0,3,3,0,5,3,3,3,2,3,6,0,0,2,1,0,0,0,0,0,5,3,1,0,3,0,0,0,0,0,0,0,0,0,0,0],"split_type":[0,0,0,0,0,0,0,0,0,0,0,0,0,0,0,0,0,0,0,0,0,0,0,0,0,0,0,0,0,0,0,0,0,0,0,0,0],"sum_hessian":[2.1200357E2,4.2865496E0,2.0771703E2,1.6603328E2,4.1683746E1,6.129562E1,1.04737656E2,1.8087263E1,2.3596485E1,4.859538E1,1.2700239E1,3.1256227E1,7.348143E1,8.480905E0,9.6063595E0,2.2455336E1,1.141149E0,4.663158E1,1.9637997E0,1.02916355E1,2.4086041E0,7.0620265E0,2.4194202E1,4.7445364E0,4.8618226E0,6.198147E0,1.6257189E1,3.570245E1,1.0929131E1,5.951308E0,1.1107186E0,7.7120743E0,1.6482126E1,2.4958043E0,2.248732E0,3.8204384E0,2.3777084E0],"tree_param":{"num_deleted":"0","num_feature":"7","num_nodes":"37","size_leaf_vector":"1"}},{"base_weights":[1.6235333E-2,-1.4933115E-1,1.3097934E-1,-2.6423317E-1,-9.175904E-3,-9.175904E-3,1.8630248E-1,-1.02593675E-1,-4.1011363E-2,-4.1011363E-2,-9.175904E-3,-2.7527714E-3,2.6568988E-2,1.5054251E-1,4.0491405E-1,-2.1882065E-2,-9.175904E-3,1.2824559E-1,8.331849E-2,8.331849E-2,1.4925928E-1,-1.2317418E-2,-2.7527714E-3,1.0378441E-1,2.0298694E-1,2.6568988E-2,4.6015702E-2,4.6015702E-2,6.0896084E-2],"categories":[],"categories_nodes":[],"categories_segments":[],"categories_sizes":[],"default_left":[0,0,0,0,0,0,0,0,0,0,0,0,0,0,0,0,0,0,0,0,0,0,0,0,0,0,0,0,0],"id":18,"left_children":[1,3,5,7,9,11,13,-1,-1,-1,15,-1,-1,17,19,-1,21,23,-1,-1,-1,-1,-1,25,27,-1,-1,-1,-1],"loss_changes":[3.938485E0,1.3729578E0,1.8243954E0,8.454459E-1,5.0527906E-1,5.38466E-1,8.0409837E-1,0E0,0E0,0E0,1.1874356E-1,0E0,0E0,3.784604E-1,6.1467886E-2,0E0,7.471226E-2,2.5296378E-1,0E0,0E0,0E0,0E0,0E0,1.6747284E-1,8.921349E-2,0E0,0E0,0E0,0E0],"parents":[2147483647,0,0,1,1,2,2,3,3,4,4,5,5,6,6,10,10,13,13,14,14,16,16,17,17,23,23,24,24],"right_children":[2,4,6,8,10,12,14,-1,-1,-1,16,-1,-1,18,20,-1,22,24,-1,-1,-1,-1,-1,26,28,-1,-1,-1,-1],"split_conditions":[1E0,1E0,1.3E1,3.7E1,1E0,3E0,5.79792E1,-1.02593675E-1,-4.1011363E-2,-4.1011363E-2,2E0,-2.7527714E-3,2.6568988E-2,5.2E1,1E0,-2.1882065E-2,2.79E1,1E0,8.331849E-2,8.331849E-2,1.4925928E-1,-1.2317418E-2,-2.7527714E-3,1E0,1.575E1,2.6568988E-2,4.6015702E-2,4.6015702E-2,6.0896084E-2],"split_indices":[4,1,0,0,6,1,3,0,0,0,2,0,0,0,6,0,3,2,0,0,0,0,0,5,3,0,0,0,0],"split_type":[0,0,0,0,0,0,0,0,0,0,0,0,0,0,0,0,0,0,0,0,0,0,0,0,0,0,0,0,0],"sum_hessian":[2.0528354E2,8.390863E1,1.2137491E2,4.5744774E1,3.816386E1,1.1719277E1,1.0965563E2,3.7549187E1,8.195586E0,9.748244E0,2.8415615E1,7.814695E0,3.904583E0,9.56913E1,1.396433E1,1.752526E1,1.0890355E1,8.938651E1,6.3047857E0,7.0851827E0,6.8791466E0,1.3919119E0,9.498443E0,8.019901E1,9.187505E0,7.488251E1,5.3164997E0,1.7396202E0,7.447885E0],"tree_param":{"num_deleted":"0","num_feature":"7","num_nodes":"29","size_leaf_vector":"1"}},{"base_weights":[-1.6235301E-2,-1.4360256E-1,-5.3192046E-3,-3.6321554E-2,1.2824683E-1,-6.8216816E-2,1.9359136E-3,1.07329056E-1,1.3089304E-1,-9.1755785E-2,-3.314045E-2,-1.7767332E-3,4.596264E-2,4.596264E-2,1.6528374E-1,-1.5736187E-1,-6.2448118E-2,-1.8734436E-2,-9.942136E-3,6.0060294E-3,1.3788792E-2,1.3788792E-2,1.05623186E-1,1.3215856E-1,7.30492E-2,-5.0929334E-2,-3.2971498E-2,-3.2971498E-2,-1.8734436E-2,2.2737874E-2,3.1686958E-2,3.1686958E-2,5.6348387E-2],"categories":[],"categories_nodes":[],"categories_segments":[],"categories_sizes":[],"default_left":[0,0,0,0,0,0,0,0,0,0,0,0,0,0,0,0,0,0,0,0,0,0,0,0,0,0,0,0,0,0,0,0,0],"id":19,"left_children":[1,-1,3,5,7,9,11,13,-1,15,17,-1,19,21,23,25,27,-1,-1,-1,-1,-1,29,31,-1,-1,-1,-1,-1,-1,-1,-1,-1],"loss_changes":[1.0387812E0,0E0,8.4333843E-1,2.0166768E-1,2.0046556E-1,1.7779559E-1,3.3844154E-2,2.0049378E-1,0E0,2.4227858E-1,2.1494217E-2,0E0,3.495843E-2,6.505227E-2,3.022343E-2,2.1953046E-2,1.4605573E-1,0E0,0E0,0E0,0E0,0E0,1.3293311E-2,7.4350566E-2,0E0,0E0,0E0,0E0,0E0,0E0,0E0,0E0,0E0],"parents":[2147483647,0,0,2,2,3,3,4,4,5,5,6,6,7,7,9,9,10,10,12,12,13,13,14,14,15,15,16,16,22,22,23,23],"right_children":[2,-1,4,6,8,10,12,14,-1,16,18,-1,20,22,24,26,28,-1,-1,-1,-1,-1,30,32,-1,-1,-1,-1,-1,-1,-1,-1,-1],"split_conditions":[7.225E0,-1.4360256E-1,5.25542E1,1.52458E1,5.123292E2,1E0,4.8E1,1E0,1.3089304E-1,2.85E1,1E0,-1.7767332E-3,1E0,2E0,1.13275E2,1E0,7.7333E0,-1.8734436E-2,-9.942136E-3,6.0060294E-3,1.3788792E-2,1.3788792E-2,1E0,3E1,7.30492E-2,-5.0929334E-2,-3.2971498E-2,-3.2971498E-2,-1.8734436E-2,2.2737874E-2,3.1686958E-2,3.1686958E-2,5.6348387E-2],"split_indices":[3,0,3,3,3,2,0,1,0,0,6,0,6,2,3,1,3,0,0,0,0,0,6,0,0,0,0,0,0,0,0,0,0],"split_type":[0,0,0,0,0,0,0,0,0,0,0,0,0,0,0,0,0,0,0,0,0,0,0,0,0,0,0,0,0,0,0,0,0],"sum_hessian":[2.0528354E2,3.7458825E0,2.0153766E2,1.6416173E2,3.7375927E1,8.909778E1,7.506395E1,3.6262096E1,1.11383E0,8.3332466E1,5.765315E0,6.712454E1,7.939411E0,1.31757965E1,2.30863E1,3.4367767E1,4.8964695E1,1.6035624E0,4.161753E0,1.8569045E0,6.0825067E0,1.0245824E1,2.9299726E0,1.810721E1,4.9790897E0,3.0727879E1,3.6398902E0,6.617135E0,4.234756E1,1.4304556E0,1.4995171E0,5.8095775E0,1.2297633E1],"tree_param":{"num_deleted":"0","num_feature":"7","num_nodes":"33","size_leaf_vector":"1"}},{"base_weights":[1.2624734E-2,-1.6231254E-2,5.735318E-1,-6.1917037E-1,3.2003794E-2,8.359509E-2,1.9502477E-1,-2.4050757E-1,-8.807498E-2,-1.4528072E-1,1.5056665E-1,-1.8228363E-1,7.928901E-4,1.089632E-1,2.7865028E-1,-2.5532627E-1,-8.9820325E-2,8.9432016E-2,5.8142025E-2,1.9846284E-1,8.359509E-2,-8.807498E-2,-5.177199E-2,-4.853211E-2,-2.69461E-2,7.928901E-4,3.7841193E-2,5.8142025E-2,7.156697E-2],"categories":[],"categories_nodes":[],"categories_segments":[],"categories_sizes":[],"default_left":[0,0,0,0,0,0,0,0,0,0,0,0,0,0,0,0,0,0,0,0,0,0,0,0,0,0,0,0,0],"id":20,"left_children":[1,3,5,7,9,-1,-1,-1,-1,11,13,15,-1,17,19,21,23,25,-1,27,-1,-1,-1,-1,-1,-1,-1,-1,-1],"loss_changes":[3.2526672E0,5.5907493E0,2.2986412E-1,1.7109299E0,3.7699609E0,0E0,0E0,0E0,0E0,8.1973004E-1,5.6310177E-1,5.6218696E-1,0E0,2.153269E-1,4.6412468E-2,2.5700855E-1,3.8038492E-2,3.4934837E-1,0E0,7.581037E-2,0E0,0E0,0E0,0E0,0E0,0E0,0E0,0E0,0E0],"parents":[2147483647,0,0,1,1,2,2,3,3,4,4,9,9,10,10,11,11,13,13,14,14,15,15,16,16,17,17,19,19],"right_children":[2,4,6,8,10,-1,-1,-1,-1,12,14,16,-1,18,20,22,24,26,-1,28,-1,-1,-1,-1,-1,-1,-1,-1,-1],"split_conditions":[4E0,9E0,2.97E1,3E0,1E0,8.359509E-2,1.9502477E-1,-2.4050757E-1,-8.807498E-2,4E0,4E1,1E0,7.928901E-4,1E0,5.7E1,3.7E1,1E0,1E0,5.8142025E-2,5.7E1,8.359509E-2,-8.807498E-2,-5.177199E-2,-4.853211E-2,-2.69461E-2,7.928901E-4,3.7841193E-2,5.8142025E-2,7.156697E-2],"split_indices":[1,0,3,1,4,0,0,0,0,2,0,1,0,5,3,0,6,6,0,0,0,0,0,0,0,0,0,0,0],"split_type":[0,0,0,0,0,0,0,0,0,0,0,0,0,0,0,0,0,0,0,0,0,0,0,0,0,0,0,0,0],"sum_hessian":[1.993863E2,1.9055426E2,8.832044E0,1.323833E1,1.7731593E2,1.4061193E0,7.4259243E0,1.1807169E1,1.4311613E0,7.097026E1,1.0634567E2,6.902045E1,1.9498177E0,8.2414E1,2.3931675E1,4.1672398E1,2.7348047E1,7.733037E1,5.0836287E0,1.829369E1,5.637986E0,3.4558712E1,7.113687E0,7.9054704E0,1.9442577E1,1.6736032E1,6.0594337E1,1.4525672E1,3.7680178E0],"tree_param":{"num_deleted":"0","num_feature":"7","num_nodes":"29","size_leaf_vector":"1"}},{"base_weights":[-1.2624746E-2,-1.3982396E-1,-2.6718513E-3,-3.3054903E-2,1.178265E-1,-6.226952E-2,2.774864E-3,4.2385798E-2,1.798604E-1,-8.473279E-2,-2.9747328E-2,-1.670087E-2,1.7009182E-2,1.271574E-2,1.111231E-1,1.483138E-1,1.2752266E-1,-1.5004158E-1,-5.724006E-2,-1.717202E-2,-8.924198E-3,-2.9747328E-2,1.5415624E-4,1.5415624E-4,4.2385798E-2,7.675445E-2,3.333693E-2,1.111231E-1,6.0316544E-2,-4.9018234E-2,-3.1092249E-2,-3.1092249E-2,-1.717202E-2,-8.924198E-3,-4.438976E-3,-4.438976E-3,4.6246874E-5,4.6246874E-5,6.3809934E-3,6.3809934E-3,1.271574E-2,2.3026336E-2,2.8181633E-2,3.333693E-2,4.682674E-2],"categories":[],"categories_nodes":[],"categories_segments":[],"categories_sizes":[],"default_left":[0,0,0,0,0,0,0,0,0,0,0,0,0,0,0,0,0,0,0,0,0,0,0,0,0,0,0,0,0,0,0,0,0,0,0,0,0,0,0,0,0,0,0,0,0],"id":21,"left_children":[1,-1,3,5,7,9,11,13,15,17,19,21,23,-1,25,27,-1,29,31,-1,-1,33,35,37,39,41,-1,43,-1,-1,-1,-1,-1,-1,-1,-1,-1,-1,-1,-1,-1,-1,-1,-1,-1],"loss_changes":[9.0313643E-1,0E0,7.25456E-1,1.6574962E-1,2.0500892E-1,1.535295E-1,2.0245394E-2,1.0943599E-1,1.1456716E-1,2.290138E-1,2.3447484E-2,5.4945245E-2,7.364093E-2,0E0,2.0009413E-2,8.966634E-2,0E0,2.4896026E-2,1.4214884E-1,0E0,0E0,2.3145236E-2,1.1321646E-2,9.378385E-2,7.424112E-2,5.0188377E-3,0E0,5.336106E-4,0E0,0E0,0E0,0E0,0E0,0E0,0E0,0E0,0E0,0E0,0E0,0E0,0E0,0E0,0E0,0E0,0E0],"parents":[2147483647,0,0,2,2,3,3,4,4,5,5,6,6,7,7,8,8,9,9,10,10,11,11,12,12,14,14,15,15,17,17,18,18,21,21,22,22,23,23,24,24,25,25,27,27],"right_children":[2,-1,4,6,8,10,12,14,16,18,20,22,24,-1,26,28,-1,30,32,-1,-1,34,36,38,40,42,-1,44,-1,-1,-1,-1,-1,-1,-1,-1,-1,-1,-1,-1,-1,-1,-1,-1,-1],"split_conditions":[7.225E0,-1.3982396E-1,5.14792E1,1.52458E1,3E1,1E0,1E0,7.965E1,5.123292E2,2.85E1,1E0,2.8E1,2.62833E1,1.271574E-2,2E0,1E0,1.2752266E-1,1E0,7.7333E0,-1.717202E-2,-8.924198E-3,3.13875E1,1E0,1E0,2E1,1E0,3.333693E-2,1.2E2,6.0316544E-2,-4.9018234E-2,-3.1092249E-2,-3.1092249E-2,-1.717202E-2,-8.924198E-3,-4.438976E-3,-4.438976E-3,4.6246874E-5,4.6246874E-5,6.3809934E-3,6.3809934E-3,1.271574E-2,2.3026336E-2,2.8181633E-2,3.333693E-2,4.682674E-2],"split_indices":[3,0,3,3,0,2,4,3,3,0,6,0,3,0,2,1,0,1,3,0,0,3,6,2,0,1,0,3,0,0,0,0,0,0,0,0,0,0,0,0,0,0,0,0,0],"split_type":[0,0,0,0,0,0,0,0,0,0,0,0,0,0,0,0,0,0,0,0,0,0,0,0,0,0,0,0,0,0,0,0,0,0,0,0,0,0,0,0,0,0,0,0,0],"sum_hessian":[1.993863E2,3.2980525E0,1.9608826E2,1.5718144E2,3.8906822E1,8.617707E1,7.100437E1,1.6946825E1,2.1959997E1,8.057069E1,5.606384E0,2.990895E1,4.1095417E1,7.942097E0,9.004729E0,2.08788E1,1.0811987E0,3.3131596E1,4.7439087E1,1.5601757E0,4.046208E0,1.4706692E1,1.5202259E1,1.7795282E1,2.3300135E1,4.348832E0,4.6558967E0,5.5237007E0,1.5355099E1,2.9563005E1,3.5685897E0,6.393149E0,4.104594E1,1.1360585E1,3.3461058E0,3.470701E0,1.1731558E1,9.439187E0,8.356096E0,7.083158E0,1.6216978E1,2.2562773E0,2.0925548E0,3.439252E0,2.0844488E0],"tree_param":{"num_deleted":"0","num_feature":"7","num_nodes":"45","size_leaf_vector":"1"}},{"base_weights":[1.3997728E-2,-1.8587051E-2,4.243326E-1,-2.1551792E-1,4.104654E-2,6.0861833E-2,1.7362106E-1,-1.0467919E-1,1.3685748E-1,-1.8961862E-1,1.6089145E-2,9.899919E-2,6.0861833E-2,-8.045136E-2,-2.6029423E-2,-8.676474E-2,4.8267436E-3,7.545069E-2,4.5280796E-2,-2.6029423E-2,-1.060134E-2,1.6774934E-2,3.3958003E-2],"categories":[],"categories_nodes":[],"categories_segments":[],"categories_sizes":[],"default_left":[0,0,0,0,0,0,0,0,0,0,0,0,0,0,0,0,0,0,0,0,0,0,0],"id":22,"left_children":[1,3,5,-1,7,-1,-1,9,11,13,15,17,-1,-1,-1,19,-1,21,-1,-1,-1,-1,-1],"loss_changes":[2.6025257E0,7.5719647E0,1.0736682E0,0E0,2.3528457E0,0E0,0E0,7.8420216E-1,4.7369576E-1,6.616503E-1,1.7887135E-1,2.106188E-1,0E0,0E0,0E0,2.127102E-2,0E0,1.2534043E-1,0E0,0E0,0E0,0E0,0E0],"parents":[2147483647,0,0,1,1,2,2,4,4,7,7,8,8,9,9,10,10,11,11,15,15,17,17],"right_children":[2,4,6,-1,8,-1,-1,10,12,14,16,18,-1,-1,-1,20,-1,22,-1,-1,-1,-1,-1],"split_conditions":[3E0,1.4E1,2.1075E1,-2.1551792E-1,1E0,6.0861833E-2,1.7362106E-1,1E0,5.79792E1,3.7E1,1E0,5.2E1,6.0861833E-2,-8.045136E-2,-2.6029423E-2,1E0,4.8267436E-3,1E0,4.5280796E-2,-2.6029423E-2,-1.060134E-2,1.6774934E-2,3.3958003E-2],"split_indices":[1,0,3,0,4,0,0,1,3,0,6,0,0,0,0,2,0,5,0,0,0,0,0],"split_type":[0,0,0,0,0,0,0,0,0,0,0,0,0,0,0,0,0,0,0,0,0,0,0],"sum_hessian":[1.930545E2,1.7973631E2,1.3318196E1,1.3246035E1,1.6649028E2,1.4562694E0,1.1861927E1,6.600539E1,1.00484886E2,4.063312E1,2.5372267E1,8.7707245E1,1.2777645E1,3.27183E1,7.914824E0,7.6080446E0,1.7764221E1,8.195533E1,5.7519135E0,6.28949E0,1.3185544E0,7.713216E1,4.8231716E0],"tree_param":{"num_deleted":"0","num_feature":"7","num_nodes":"23","size_leaf_vector":"1"}},{"base_weights":[-1.3997754E-2,-1.3579056E-1,-4.996313E-3,-3.1336818E-2,1.0953041E-1,-5.5512484E-2,-3.0950538E-3,8.9506015E-2,1.1975349E-1,-7.4890554E-2,-2.9303769E-2,-1.4354438E-2,3.9096795E-2,3.9096795E-2,1.5337922E-1,-1.393736E-1,-5.209716E-2,-1.5629148E-2,-8.791131E-3,-2.9303769E-2,-6.075754E-3,3.7113538E-3,1.1729039E-2,1.1729039E-2,9.6238E-2,1.2795779E-1,6.255696E-2,-4.5917995E-2,-2.8720615E-2,-2.8720615E-2,-1.5629148E-2,-8.791131E-3,-5.3069284E-3,-5.3069284E-3,3.7113538E-3,2.0300219E-2,2.8871402E-2,2.8871402E-2,5.0472148E-2],"categories":[],"categories_nodes":[],"categories_segments":[],"categories_sizes":[],"default_left":[0,0,0,0,0,0,0,0,0,0,0,0,0,0,0,0,0,0,0,0,0,0,0,0,0,0,0,0,0,0,0,0,0,0,0,0,0,0,0],"id":23,"left_children":[1,-1,3,5,7,9,11,13,-1,15,17,19,21,23,25,27,29,-1,-1,31,33,-1,-1,-1,35,37,-1,-1,-1,-1,-1,-1,-1,-1,-1,-1,-1,-1,-1],"loss_changes":[7.6393735E-1,0E0,5.8011365E-1,1.0647288E-1,1.7288503E-1,1.0493934E-1,5.5644967E-2,2.0877793E-1,0E0,2.0667037E-1,2.4802916E-2,8.617518E-3,3.1703446E-2,5.0356463E-2,5.4181814E-3,2.475673E-2,1.332805E-1,0E0,0E0,3.3670917E-2,4.965789E-2,0E0,0E0,0E0,1.0637537E-2,5.7583362E-2,0E0,0E0,0E0,0E0,0E0,0E0,0E0,0E0,0E0,0E0,0E0,0E0,0E0],"parents":[2147483647,0,0,2,2,3,3,4,4,5,5,6,6,7,7,9,9,10,10,11,11,12,12,13,13,14,14,15,15,16,16,19,19,20,20,24,24,25,25],"right_children":[2,-1,4,6,8,10,12,14,-1,16,18,20,22,24,26,28,30,-1,-1,32,34,-1,-1,-1,36,38,-1,-1,-1,-1,-1,-1,-1,-1,-1,-1,-1,-1,-1],"split_conditions":[7.225E0,-1.3579056E-1,5.25542E1,1.52458E1,5.123292E2,1E0,4.8E1,1E0,1.1975349E-1,2.85E1,1E0,1.9E1,1E0,2E0,1.13275E2,1E0,7.7333E0,-1.5629148E-2,-8.791131E-3,1E0,2.625E1,3.7113538E-3,1.1729039E-2,1.1729039E-2,1E0,3E1,6.255696E-2,-4.5917995E-2,-2.8720615E-2,-2.8720615E-2,-1.5629148E-2,-8.791131E-3,-5.3069284E-3,-5.3069284E-3,3.7113538E-3,2.0300219E-2,2.8871402E-2,2.8871402E-2,5.0472148E-2],"split_indices":[3,0,3,3,3,2,0,1,0,0,6,0,6,2,3,1,3,0,0,2,3,0,0,0,6,0,0,0,0,0,0,0,0,0,0,0,0,0,0],"split_type":[0,0,0,0,0,0,0,0,0,0,0,0,0,0,0,0,0,0,0,0,0,0,0,0,0,0,0,0,0,0,0,0,0,0,0,0,0,0,0],"sum_hessian":[1.9305452E2,2.891025E0,1.9016348E2,1.5519572E2,3.496777E1,8.309698E1,7.209874E1,3.393101E1,1.0367559E0,7.770634E1,5.390647E0,6.455763E1,7.5411096E0,1.2032207E1,2.1898806E1,3.1856724E1,4.584961E1,1.5246587E0,3.8659885E0,2.0839577E1,4.3718056E1,1.7422256E0,5.798884E0,9.309893E0,2.722313E0,1.7261614E1,4.6371913E0,2.8363249E1,3.4934742E0,6.1864963E0,3.9663113E1,1.6804786E0,1.9159098E1,2.2579395E1,2.113866E1,1.4101992E0,1.3121139E0,5.5907936E0,1.1670821E1],"tree_param":{"num_deleted":"0","num_feature":"7","num_nodes":"39","size_leaf_vector":"1"}},{"base_weights":[1.3664703E-2,-3.7133653E-4,2.3481901E-1,-2.950711E-2,3.6591357E-1,-6.5929765E-1,2.3196658E-2,5.0460972E-2,1.17353804E-1,-2.0887493E-1,-9.541515E-2,-1.2719935E-1,1.200742E-1,-2.0382966E-1,-3.562577E-3,8.346251E-2,5.0460972E-2,-7.425985E-2,-3.1108838E-2,-3.1108838E-2,-1.0687732E-3,1.7879646E-2,3.7749864E-2],"categories":[],"categories_nodes":[],"categories_segments":[],"categories_sizes":[],"default_left":[0,0,0,0,0,0,0,0,0,0,0,0,0,0,0,0,0,0,0,0,0,0,0],"id":24,"left_children":[1,3,-1,5,7,9,11,-1,-1,-1,-1,13,15,17,19,21,-1,-1,-1,-1,-1,-1,-1],"loss_changes":[2.0412972E0,2.003116E0,0E0,5.785994E0,7.773206E-1,2.3015976E-2,2.3668244E0,0E0,0E0,0E0,0E0,6.158501E-1,3.641553E-1,2.6954913E-1,1.10588655E-1,1.8379313E-1,0E0,0E0,0E0,0E0,0E0,0E0,0E0],"parents":[2147483647,0,0,1,1,3,3,4,4,5,5,6,6,11,11,12,12,13,13,14,14,15,15],"right_children":[2,4,-1,6,8,10,12,-1,-1,-1,-1,14,16,18,20,22,-1,-1,-1,-1,-1,-1,-1],"split_conditions":[4E0,3E0,2.3481901E-1,1.4E1,2.1075E1,1E1,1E0,5.0460972E-2,1.17353804E-1,-2.0887493E-1,-9.541515E-2,1E0,5.79792E1,3.7E1,1E0,5.2E1,5.0460972E-2,-7.425985E-2,-3.1108838E-2,-3.1108838E-2,-1.0687732E-3,1.7879646E-2,3.7749864E-2],"split_indices":[2,1,0,0,3,0,4,0,0,0,0,1,3,0,6,0,0,0,0,0,0,0,0],"split_type":[0,0,0,0,0,0,0,0,0,0,0,0,0,0,0,0,0,0,0,0,0,0,0],"sum_hessian":[1.8807608E2,1.8568668E2,2.3894088E0,1.7285641E2,1.2830252E1,1.2459578E1,1.6039684E2,1.4628706E0,1.1367382E1,1.0826053E1,1.6335251E0,6.271811E1,9.767873E1,3.8640583E1,2.4077528E1,8.5482124E1,1.2196608E1,3.1759794E1,6.8807874E0,7.3938303E0,1.6683699E1,7.9895355E1,5.586767E0],"tree_param":{"num_deleted":"0","num_feature":"7","num_nodes":"23","size_leaf_vector":"1"}},{"base_weights":[-1.3664686E-2,-1.3204165E-1,-5.402583E-3,-3.185691E-2,9.8947704E-2,-7.5653076E-2,-1.7785342E-2,3.3545397E-2,1.61658E-1,-2.9502325E-2,-4.671921E-2,-4.671921E-2,2.8638344E-2,1.0063619E-2,9.76017E-2,1.1802423E-1,5.5553418E-2,-2.1759044E-2,-1.4015763E-2,-4.671921E-2,-2.7121296E-3,-9.040432E-3,3.3545397E-2,6.557354E-2,2.928051E-2,2.928051E-2,4.548034E-2,-1.4015763E-2,-8.363946E-3,-2.7121296E-3,3.6757449E-3,5.9152595E-3,1.0063619E-2,1.9672064E-2,2.4476288E-2],"categories":[],"categories_nodes":[],"categories_segments":[],"categories_sizes":[],"default_left":[0,0,0,0,0,0,0,0,0,0,0,0,0,0,0,0,0,0,0,0,0,0,0,0,0,0,0,0,0,0,0,0,0,0,0],"id":25,"left_children":[1,-1,3,5,7,9,11,13,15,-1,17,19,21,-1,23,25,-1,-1,-1,27,-1,29,31,33,-1,-1,-1,-1,-1,-1,-1,-1,-1,-1,-1],"loss_changes":[6.638456E-1,0E0,5.179751E-1,9.080958E-2,2.4094346E-1,3.522612E-2,3.02472E-1,9.3382835E-2,3.4337044E-3,0E0,4.1917652E-2,2.2800219E-1,1.8830796E-1,0E0,1.23613775E-2,4.523708E-2,0E0,0E0,0E0,3.7561E-2,0E0,1.1157542E-3,6.6956133E-3,1.0415101E-2,0E0,0E0,0E0,0E0,0E0,0E0,0E0,0E0,0E0,0E0,0E0],"parents":[2147483647,0,0,2,2,3,3,4,4,5,5,6,6,7,7,8,8,10,10,11,11,12,12,14,14,15,15,19,19,21,21,22,22,23,23],"right_children":[2,-1,4,6,8,10,12,14,16,-1,18,20,22,-1,24,26,-1,-1,-1,28,-1,30,32,34,-1,-1,-1,-1,-1,-1,-1,-1,-1,-1,-1],"split_conditions":[7.225E0,-1.3204165E-1,5.14792E1,7.925E0,1E0,1E0,2.7E1,7.965E1,3.25E1,-2.9502325E-2,7.775E0,1E0,1E0,1.0063619E-2,3E1,1.108833E2,5.5553418E-2,-2.1759044E-2,-1.4015763E-2,1.875E1,-2.7121296E-3,5.1E1,2.625E1,2E0,2.928051E-2,2.928051E-2,4.548034E-2,-1.4015763E-2,-8.363946E-3,-2.7121296E-3,3.6757449E-3,5.9152595E-3,1.0063619E-2,1.9672064E-2,2.4476288E-2],"split_indices":[3,0,3,3,1,5,0,3,0,0,3,2,6,0,0,3,0,0,0,3,0,0,3,2,0,0,0,0,0,0,0,0,0,0,0],"split_type":[0,0,0,0,0,0,0,0,0,0,0,0,0,0,0,0,0,0,0,0,0,0,0,0,0,0,0,0,0,0,0,0,0,0,0],"sum_hessian":[1.8807607E2,2.5809379E0,1.8549513E2,1.4853424E2,3.6960896E1,3.505456E1,1.13479675E2,1.3318911E1,2.3641983E1,2.43648E1,1.0689764E1,4.3954876E1,6.95248E1,5.5485234E0,7.7703867E0,1.03881645E1,1.3253819E1,8.857148E0,1.8326161E0,1.871072E1,2.5244156E1,1.482716E1,5.469764E1,3.764784E0,4.005603E0,6.7856836E0,3.6024806E0,1.5784768E1,2.9259508E0,1.3272723E1,1.5544369E0,3.990223E1,1.4795413E1,2.1107206E0,1.6540636E0],"tree_param":{"num_deleted":"0","num_feature":"7","num_nodes":"35","size_leaf_vector":"1"}},{"base_weights":[1.6842462E-2,3.955124E-3,2.1039432E-1,-1.7469415E-2,3.5263476E-1,-4.573071E-1,1.4604067E-2,5.0274804E-2,1.0579043E-1,-1.9279659E-1,-6.640546E-2,-1.2732275E-1,1.07638255E-1,-1.8937473E-1,-3.2913834E-2,6.531817E-2,5.0274804E-2,-6.640546E-2,-3.3343285E-2,-2.955856E-2,-2.9526742E-3,1.3882569E-2,3.4935128E-2],"categories":[],"categories_nodes":[],"categories_segments":[],"categories_sizes":[],"default_left":[0,0,0,0,0,0,0,0,0,0,0,0,0,0,0,0,0,0,0,0,0,0,0],"id":26,"left_children":[1,3,-1,5,7,9,11,-1,-1,-1,-1,13,15,17,19,21,-1,-1,-1,-1,-1,-1,-1],"loss_changes":[1.6263473E0,1.6220659E0,0E0,2.468879E0,1.1327517E-1,1.1496472E0,2.17445E0,0E0,0E0,0E0,0E0,3.760382E-1,4.229542E-1,2.2952604E-1,4.9635854E-2,1.4264113E-1,0E0,0E0,0E0,0E0,0E0,0E0,0E0],"parents":[2147483647,0,0,1,1,3,3,4,4,5,5,6,6,11,11,12,12,13,13,14,14,15,15],"right_children":[2,4,-1,6,8,10,12,-1,-1,-1,-1,14,16,18,20,22,-1,-1,-1,-1,-1,-1,-1],"split_conditions":[4E0,4E0,2.1039432E-1,9E0,2.97E1,3E0,1E0,5.0274804E-2,1.0579043E-1,-1.9279659E-1,-6.640546E-2,1E0,4E1,3.7E1,1E0,1E0,5.0274804E-2,-6.640546E-2,-3.3343285E-2,-2.955856E-2,-2.9526742E-3,1.3882569E-2,3.4935128E-2],"split_indices":[2,1,0,0,3,1,4,0,0,0,0,1,0,0,6,5,0,0,0,0,0,0,0],"split_type":[0,0,0,0,0,0,0,0,0,0,0,0,0,0,0,0,0,0,0,0,0,0,0],"sum_hessian":[1.8368626E2,1.812789E2,2.4073677E0,1.7353593E2,7.742953E0,1.0893297E1,1.6264264E2,1.2705579E0,6.472395E0,9.483583E0,1.4097129E0,6.425338E1,9.838927E1,3.8163696E1,2.608968E1,7.627813E1,2.2111135E1,3.1400873E1,6.7628217E0,7.156441E0,1.8933239E1,7.174685E1,4.531283E0],"tree_param":{"num_deleted":"0","num_feature":"7","num_nodes":"23","size_leaf_vector":"1"}},{"base_weights":[-1.6842477E-2,-1.282394E-1,-9.2922645E-3,-1.7202476E-2,9.60213E-2,-4.975988E-2,2.837924E-2,-8.760123E-2,-1.069032E-2,-1.069032E-2,4.940569E-2,-6.111352E-2,-4.9145773E-2,-1.4743732E-2,-3.2070961E-3,-3.2070961E-3,5.8073057E-3,1.9357685E-2,9.949324E-2,-3.7928626E-2,-1.4743732E-2,5.8073057E-3,1.7827641E-2,2.1978546E-2,4.543028E-2],"categories":[],"categories_nodes":[],"categories_segments":[],"categories_sizes":[],"default_left":[0,0,0,0,0,0,0,0,0,0,0,0,0,0,0,0,0,0,0,0,0,0,0,0,0],"id":27,"left_children":[1,-1,3,5,-1,7,9,11,13,15,17,-1,19,-1,-1,-1,-1,21,23,-1,-1,-1,-1,-1,-1],"loss_changes":[5.6860787E-1,0E0,4.8065087E-1,2.6711985E-1,0E0,3.560311E-1,7.128892E-2,7.177E-1,2.0816289E-2,8.338551E-2,1.8858442E-1,0E0,2.1102773E-1,0E0,0E0,0E0,0E0,7.184933E-2,8.138049E-2,0E0,0E0,0E0,0E0,0E0,0E0],"parents":[2147483647,0,0,2,2,3,3,5,5,6,6,7,7,8,8,9,9,10,10,12,12,17,17,18,18],"right_children":[2,-1,4,6,-1,8,10,12,14,16,18,-1,20,-1,-1,-1,-1,22,24,-1,-1,-1,-1,-1,-1],"split_conditions":[7.225E0,-1.282394E-1,2.62375E2,2.59292E1,9.60213E-2,1E0,2.7E1,2.9E1,8.4583E0,4.71E1,1E0,-6.111352E-2,7.7333E0,-1.4743732E-2,-3.2070961E-3,-3.2070961E-3,5.8073057E-3,5.2E1,8.65E1,-3.7928626E-2,-1.4743732E-2,5.8073057E-3,1.7827641E-2,2.1978546E-2,4.543028E-2],"split_indices":[3,0,3,3,0,2,0,0,3,3,6,0,3,0,0,0,0,0,3,0,0,0,0,0,0],"split_type":[0,0,0,0,0,0,0,0,0,0,0,0,0,0,0,0,0,0,0,0,0,0,0,0,0],"sum_hessian":[1.8368626E2,2.3123384E0,1.8137393E2,1.7804562E2,3.3282948E0,1.0380777E2,7.423786E1,8.625309E1,1.7554674E1,2.3667326E1,5.0570538E1,3.4543095E1,5.171E1,1.3952507E0,1.6159424E1,1.4439663E1,9.227662E0,1.4894727E1,3.567581E1,5.8494887E0,4.5860508E1,1.1778453E1,3.1162746E0,3.2261597E1,3.4142137E0],"tree_param":{"num_deleted":"0","num_feature":"7","num_nodes":"25","size_leaf_vector":"1"}},{"base_weights":[1.42298015E-2,2.1819663E-3,1.9258429E-1,-2.8979825E-2,2.5435552E-1,-5.801E-1,9.855366E-3,3.3806358E-2,3.220648E-1,-1.8607323E-1,-8.5536696E-2,-1.0886819E-1,8.681699E-2,6.52129E-2,9.661944E-2,-1.6698E-1,-1.10256E-2,4.5111936E-2,3.3806358E-2,-6.3334584E-2,-2.6700841E-2,-1.4627238E-2,-3.3076801E-3,2.0219453E-3,2.3669967E-2],"categories":[],"categories_nodes":[],"categories_segments":[],"categories_sizes":[],"default_left":[0,0,0,0,0,0,0,0,0,0,0,0,0,0,0,0,0,0,0,0,0,0,0,0,0],"id":28,"left_children":[1,3,-1,5,7,9,11,-1,13,-1,-1,15,17,-1,-1,19,21,23,-1,-1,-1,-1,-1,-1,-1],"loss_changes":[1.3602889E0,1.403514E0,0E0,3.4093053E0,5.256772E-1,4.349947E-3,1.3758227E0,0E0,3.5243034E-2,0E0,0E0,3.4958214E-1,2.4969697E-1,0E0,0E0,2.2572577E-1,1.04958275E-2,2.5724706E-1,0E0,0E0,0E0,0E0,0E0,0E0,0E0],"parents":[2147483647,0,0,1,1,3,3,4,4,5,5,6,6,8,8,11,11,12,12,15,15,16,16,17,17],"right_children":[2,4,-1,6,8,10,12,-1,14,-1,-1,16,18,-1,-1,20,22,24,-1,-1,-1,-1,-1,-1,-1],"split_conditions":[4E0,2E0,1.9258429E-1,1.4E1,2.345E1,1E1,1E0,3.3806358E-2,4E0,-1.8607323E-1,-8.5536696E-2,1E0,3.675E1,6.52129E-2,9.661944E-2,3.7E1,1E0,1E0,3.3806358E-2,-6.3334584E-2,-2.6700841E-2,-1.4627238E-2,-3.3076801E-3,2.0219453E-3,2.3669967E-2],"split_indices":[2,1,0,0,3,0,4,0,1,0,0,1,3,0,0,0,6,5,0,0,0,0,0,0,0],"split_type":[0,0,0,0,0,0,0,0,0,0,0,0,0,0,0,0,0,0,0,0,0,0,0,0,0],"sum_hessian":[1.7905478E2,1.7666745E2,2.3873158E0,1.5802495E2,1.8642504E1,9.484894E0,1.4854005E2,5.149673E0,1.3492831E1,7.885983E0,1.5989108E0,5.825672E1,9.028333E1,6.5144997E0,6.978332E0,3.670195E1,2.1554771E1,6.984012E1,2.0443218E1,3.0042698E1,6.6592536E0,6.457639E0,1.5097133E1,6.513023E1,4.709886E0],"tree_param":{"num_deleted":"0","num_feature":"7","num_nodes":"25","size_leaf_vector":"1"}},{"base_weights":[-1.42298015E-2,-1.24323726E-1,-7.2273347E-3,-1.4614435E-2,9.008031E-2,-4.4737123E-2,2.721239E-2,-7.596034E-2,-8.762366E-3,-8.762366E-3,5.2623507E-2,-5.6194462E-2,-4.2361353E-2,-1.2708406E-2,-2.62871E-3,-2.62871E-3,2.193057E-2,2.193057E-2,1.021906E-1,-3.4451433E-2,-1.2708406E-2,2.5735744E-3,6.5791714E-3,6.5791714E-3,1.8618176E-2,2.364161E-2,4.284799E-2],"categories":[],"categories_nodes":[],"categories_segments":[],"categories_sizes":[],"default_left":[0,0,0,0,0,0,0,0,0,0,0,0,0,0,0,0,0,0,0,0,0,0,0,0,0,0,0],"id":29,"left_children":[1,-1,3,5,-1,7,9,11,13,15,17,-1,19,-1,-1,-1,21,23,25,-1,-1,-1,-1,-1,-1,-1,-1],"loss_changes":[5.015662E-1,0E0,4.0866026E-1,2.213968E-1,0E0,2.5189096E-1,9.644933E-2,6.274194E-1,1.79597E-2,7.684238E-2,1.8526417E-1,0E0,1.9589537E-1,0E0,0E0,0E0,8.223206E-4,7.223305E-2,5.4900587E-2,0E0,0E0,0E0,0E0,0E0,0E0,0E0,0E0],"parents":[2147483647,0,0,2,2,3,3,5,5,6,6,7,7,8,8,9,9,10,10,12,12,16,16,17,17,18,18],"right_children":[2,-1,4,6,-1,8,10,12,14,16,18,-1,20,-1,-1,-1,22,24,26,-1,-1,-1,-1,-1,-1,-1,-1],"split_conditions":[7.225E0,-1.24323726E-1,2.62375E2,2.59292E1,9.008031E-2,1E0,2.7E1,2.9E1,8.4583E0,4.71E1,1E0,-5.6194462E-2,7.7333E0,-1.2708406E-2,-2.62871E-3,-2.62871E-3,2E0,5.2E1,8.65E1,-3.4451433E-2,-1.2708406E-2,2.5735744E-3,6.5791714E-3,6.5791714E-3,1.8618176E-2,2.364161E-2,4.284799E-2],"split_indices":[3,0,3,3,0,2,0,0,3,3,6,0,3,0,0,0,2,0,3,0,0,0,0,0,0,0,0],"split_type":[0,0,0,0,0,0,0,0,0,0,0,0,0,0,0,0,0,0,0,0,0,0,0,0,0,0,0],"sum_hessian":[1.7905476E2,2.0786989E0,1.7697607E2,1.7375436E2,3.2217114E0,1.0096918E2,7.278519E1,8.4024635E1,1.6944538E1,2.2828135E1,4.995705E1,3.3514294E1,5.0510345E1,1.3656209E0,1.55789175E1,1.3784312E1,9.043823E0,1.4669965E1,3.5287086E1,5.6536794E0,4.4856663E1,6.310406E0,2.7334168E0,1.1620142E1,3.0498233E0,3.1990875E1,3.2962105E0],"tree_param":{"num_deleted":"0","num_feature":"7","num_nodes":"27","size_leaf_vector":"1"}},{"base_weights":[1.3060632E-2,1.857132E-3,1.7827585E-1,-2.10704E-2,2.9171914E-1,-5.5570394E-1,1.799606E-2,4.0597312E-2,8.9416504E-2,-1.7786326E-1,-8.0656186E-2,-8.662472E-2,8.551649E-2,-1.5330185E-1,-5.541146E-4,3.4870163E-2,1.3532437E-1,-5.9323788E-2,-2.3078395E-2,-2.3078395E-2,-1.6623439E-4,-1.6623439E-4,2.5529182E-2,2.5529182E-2,4.0597312E-2],"categories":[],"categories_nodes":[],"categories_segments":[],"categories_sizes":[],"default_left":[0,0,0,0,0,0,0,0,0,0,0,0,0,0,0,0,0,0,0,0,0,0,0,0,0],"id":30,"left_children":[1,3,-1,5,7,9,11,-1,-1,-1,-1,13,15,17,19,21,23,-1,-1,-1,-1,-1,-1,-1,-1],"loss_changes":[1.1490533E0,1.1645153E0,0E0,3.4031105E0,5.747714E-1,1.34346485E-2,1.0837044E0,0E0,0E0,0E0,0E0,4.1538483E-1,4.7166717E-1,2.2186136E-1,5.5242576E-2,2.4170706E-1,5.4614544E-3,0E0,0E0,0E0,0E0,0E0,0E0,0E0,0E0],"parents":[2147483647,0,0,1,1,3,3,4,4,5,5,6,6,11,11,12,12,13,13,14,14,15,15,16,16],"right_children":[2,4,-1,6,8,10,12,-1,-1,-1,-1,14,16,18,20,22,24,-1,-1,-1,-1,-1,-1,-1,-1],"split_conditions":[4E0,3E0,1.7827585E-1,1.4E1,2.1075E1,1E1,1E0,4.0597312E-2,8.9416504E-2,-1.7786326E-1,-8.0656186E-2,1E0,3.675E1,3.7E1,1E0,1E0,2E1,-5.9323788E-2,-2.3078395E-2,-2.3078395E-2,-1.6623439E-4,-1.6623439E-4,2.5529182E-2,2.5529182E-2,4.0597312E-2],"split_indices":[2,1,0,0,3,0,4,0,0,0,0,1,3,0,6,1,0,0,0,0,0,0,0,0,0],"split_type":[0,0,0,0,0,0,0,0,0,0,0,0,0,0,0,0,0,0,0,0,0,0,0,0,0],"sum_hessian":[1.7563779E2,1.7330031E2,2.3374722E0,1.614567E2,1.1843609E1,1.0093959E1,1.5136275E2,1.4611454E0,1.0382463E1,8.510889E0,1.5830699E0,5.925933E1,9.210341E1,3.59364E1,2.332293E1,7.044484E1,2.1658571E1,2.9364353E1,6.572049E0,6.960849E0,1.636208E1,5.6933E1,1.351184E1,1.2948649E0,2.0363707E1],"tree_param":{"num_deleted":"0","num_feature":"7","num_nodes":"25","size_leaf_vector":"1"}},{"base_weights":[-1.3060616E-2,-1.206945E-1,-6.5310756E-3,-1.3847931E-2,8.886732E-2,-4.300282E-2,2.6466008E-2,-6.896993E-2,-8.268407E-3,-8.268407E-3,5.191829E-2,-1.7455745E-1,-3.8619168E-2,-1.1585751E-2,-2.480522E-3,-2.480522E-3,2.1824941E-2,2.1824941E-2,1.0039737E-1,-6.1326914E-2,-4.421791E-2,-3.197649E-2,-1.1585751E-2,2.8856988E-3,6.5474827E-3,6.5474827E-3,1.8333348E-2,2.3640908E-2,4.2356472E-2],"categories":[],"categories_nodes":[],"categories_segments":[],"categories_sizes":[],"default_left":[0,0,0,0,0,0,0,0,0,0,0,0,0,0,0,0,0,0,0,0,0,0,0,0,0,0,0,0,0],"id":31,"left_children":[1,-1,3,5,-1,7,9,11,13,15,17,19,21,-1,-1,-1,23,25,27,-1,-1,-1,-1,-1,-1,-1,-1,-1,-1],"loss_changes":[4.4632432E-1,0E0,3.9118963E-1,2.0279515E-1,0E0,1.8701991E-1,9.559357E-2,5.445502E-1,1.6349781E-2,7.148094E-2,1.7640647E-1,1.1752725E-2,1.8424103E-1,0E0,0E0,0E0,5.9223175E-4,6.976563E-2,4.8050374E-2,0E0,0E0,0E0,0E0,0E0,0E0,0E0,0E0,0E0,0E0],"parents":[2147483647,0,0,2,2,3,3,5,5,6,6,7,7,8,8,9,9,10,10,11,11,12,12,16,16,17,17,18,18],"right_children":[2,-1,4,6,-1,8,10,12,14,16,18,20,22,-1,-1,-1,24,26,28,-1,-1,-1,-1,-1,-1,-1,-1,-1,-1],"split_conditions":[7.225E0,-1.206945E-1,2.62375E2,2.59292E1,8.886732E-2,1E0,2.7E1,2.9E1,8.4583E0,4.71E1,1E0,1.9E1,7.7333E0,-1.1585751E-2,-2.480522E-3,-2.480522E-3,2E0,5.2E1,8.65E1,-6.1326914E-2,-4.421791E-2,-3.197649E-2,-1.1585751E-2,2.8856988E-3,6.5474827E-3,6.5474827E-3,1.8333348E-2,2.3640908E-2,4.2356472E-2],"split_indices":[3,0,3,3,0,2,0,0,3,3,6,0,3,0,0,0,2,0,3,0,0,0,0,0,0,0,0,0,0],"split_type":[0,0,0,0,0,0,0,0,0,0,0,0,0,0,0,0,0,0,0,0,0,0,0,0,0,0,0,0,0],"sum_hessian":[1.7563779E2,1.8976231E0,1.7374016E2,1.7057211E2,3.1680484E0,9.894718E1,7.162493E1,8.2500595E1,1.6446589E1,2.2028502E1,4.9596424E1,3.2711365E1,4.9789227E1,1.3478558E0,1.5098734E1,1.3192474E1,8.836028E0,1.4523066E1,3.507336E1,8.004173E0,2.4707193E1,5.5282435E0,4.4260983E1,6.1722965E0,2.6637313E0,1.14947815E1,3.0282843E0,3.1890432E1,3.1829278E0],"tree_param":{"num_deleted":"0","num_feature":"7","num_nodes":"29","size_leaf_vector":"1"}},{"base_weights":[1.2754954E-2,1.345569E-3,1.5889323E-1,-1.534403E-1,1.4376136E-2,-7.481963E-2,7.67124E-2,-7.456373E-2,-5.3418957E-2,3.987222E-2,2.6549482E-1,-8.0520414E-2,9.463839E-4,1.5080044E-2,1.5268353E-1,4.580506E-2,7.964845E-2,-3.4876827E-2,-1.1936106E-2,-1.1936106E-2,2.839152E-4,2.839152E-4,2.5164537E-2,2.5164537E-2,4.580506E-2],"categories":[],"categories_nodes":[],"categories_segments":[],"categories_sizes":[],"default_left":[0,0,0,0,0,0,0,0,0,0,0,0,0,0,0,0,0,0,0,0,0,0,0,0,0],"id":32,"left_children":[1,3,-1,-1,5,7,9,-1,11,13,15,17,19,21,23,-1,-1,-1,-1,-1,-1,-1,-1,-1,-1],"loss_changes":[1.0207866E0,1.1465021E0,0E0,0E0,9.3551725E-1,3.6340198E-1,7.6359576E-1,0E0,2.218085E-1,4.0765733E-1,3.0333698E-1,9.2564315E-2,1.7703023E-2,2.5832206E-1,4.8643947E-3,0E0,0E0,0E0,0E0,0E0,0E0,0E0,0E0,0E0,0E0],"parents":[2147483647,0,0,1,1,4,4,5,5,6,6,8,8,9,9,10,10,11,11,12,12,13,13,14,14],"right_children":[2,4,-1,-1,6,8,10,-1,12,14,16,18,20,22,24,-1,-1,-1,-1,-1,-1,-1,-1,-1,-1],"split_conditions":[5E0,2E0,1.5889323E-1,-1.534403E-1,1E0,7.55E0,5.79792E1,-7.456373E-2,3E0,5.2E1,1.8E1,1E0,2.85E1,3E0,1E0,4.580506E-2,7.964845E-2,-3.4876827E-2,-1.1936106E-2,-1.1936106E-2,2.839152E-4,2.839152E-4,2.5164537E-2,2.5164537E-2,4.580506E-2],"split_indices":[1,0,0,0,4,3,3,0,2,0,0,1,3,1,6,0,0,0,0,0,0,0,0,0,0],"split_type":[0,0,0,0,0,0,0,0,0,0,0,0,0,0,0,0,0,0,0,0,0,0,0,0,0],"sum_hessian":[1.722122E2,1.6947398E2,2.7382262E0,3.2517357E0,1.6622224E2,6.829705E1,9.792519E1,3.1998682E0,6.509718E1,8.46421E1,1.3283096E1,6.1856056E1,3.241124E0,7.9322525E1,5.319576E0,1.2099483E0,1.2073148E1,3.2935547E1,2.8920507E1,1.3193146E0,1.9218094E0,7.641258E1,2.90994E0,1.8772885E0,3.4422872E0],"tree_param":{"num_deleted":"0","num_feature":"7","num_nodes":"25","size_leaf_vector":"1"}},{"base_weights":[-1.2754944E-2,-3.7073445E-2,8.363809E-2,-1.1708183E-1,-2.9752547E-2,2.3282321E-2,1.6239792E-1,-6.601729E-2,-8.12006E-3,6.9846967E-3,9.284012E-2,1.4041553E-1,7.625652E-2,-1.1738765E-1,-1.1120603E-2,-1.1120603E-2,2.3282321E-2,5.806122E-2,9.284012E-2,1.07650734E-1,5.919059E-2,-4.8174337E-2,-2.316845E-2,-6.8931775E-3,6.9846967E-3,1.7418366E-2,2.2635203E-2,2.2635203E-2,2.7852038E-2,2.7852038E-2,3.9165273E-2,-2.0679533E-3,2.4583715E-3],"categories":[],"categories_nodes":[],"categories_segments":[],"categories_sizes":[],"default_left":[0,0,0,0,0,0,0,0,0,0,0,0,0,0,0,0,0,0,0,0,0,0,0,0,0,0,0,0,0,0,0,0,0],"id":33,"left_children":[1,3,5,-1,7,9,11,13,15,-1,17,19,-1,21,-1,-1,23,25,27,29,-1,-1,-1,31,-1,-1,-1,-1,-1,-1,-1,-1,-1],"loss_changes":[4.091334E-1,3.4783095E-1,3.239733E-1,0E0,1.0715145E-1,4.2343475E-2,1.151222E-2,1.511714E-1,3.4632552E-1,0E0,2.3976587E-2,3.1789005E-2,0E0,1.3696206E-1,0E0,0E0,1.15765534E-1,9.334287E-3,1.2342334E-3,1.0304719E-2,0E0,0E0,0E0,2.347473E-3,0E0,0E0,0E0,0E0,0E0,0E0,0E0,0E0,0E0],"parents":[2147483647,0,0,1,1,2,2,4,4,5,5,6,6,7,7,8,8,10,10,11,11,13,13,16,16,17,17,18,18,19,19,23,23],"right_children":[2,4,6,-1,8,10,12,14,16,-1,18,20,-1,22,-1,-1,24,26,28,30,-1,-1,-1,32,-1,-1,-1,-1,-1,-1,-1,-1,-1],"split_conditions":[5.14792E1,7.225E0,1E0,-1.1708183E-1,2.7E1,7.965E1,5.3E1,1E0,7.925E0,6.9846967E-3,3E1,1.13275E2,7.625652E-2,1.875E1,-1.1120603E-2,-1.1120603E-2,1E0,2E0,1.648667E2,2.2E1,5.919059E-2,-4.8174337E-2,-2.316845E-2,5.1E1,6.9846967E-3,1.7418366E-2,2.2635203E-2,2.2635203E-2,2.7852038E-2,2.7852038E-2,3.9165273E-2,-2.0679533E-3,2.4583715E-3],"split_indices":[3,3,1,0,0,3,0,2,3,0,0,3,0,3,0,0,6,2,3,0,0,0,0,0,0,0,0,0,0,0,0,0,0],"split_type":[0,0,0,0,0,0,0,0,0,0,0,0,0,0,0,0,0,0,0,0,0,0,0,0,0,0,0,0,0,0,0,0,0],"sum_hessian":[1.722122E2,1.3800981E2,3.420239E1,1.7402736E0,1.3626953E2,1.1808196E1,2.2394194E1,5.0148582E1,8.612096E1,5.032205E0,6.7759914E0,2.0108307E1,2.2858858E0,2.9290651E1,2.0857931E1,1.9358995E1,6.676196E1,3.3358526E0,3.4401386E0,1.6297377E1,3.810931E0,2.6603107E1,2.6875436E0,1.4198027E1,5.2563934E1,1.9082246E0,1.427628E0,2.0649602E0,1.3751782E0,1.3222843E0,1.4975092E1,1.2706955E1,1.4910723E0],"tree_param":{"num_deleted":"0","num_feature":"7","num_nodes":"33","size_leaf_vector":"1"}},{"base_weights":[1.3091551E-2,2.482472E-3,1.6690308E-1,-2.292961E-2,2.1357971E-1,-5.078715E-1,7.393953E-3,2.8597517E-2,2.79413E-1,-1.648579E-1,-7.507163E-2,-7.902348E-2,6.3051224E-2,5.621071E-2,8.3823904E-2,-7.507163E-2,-5.8544625E-2,1.7005611E-2,2.8597517E-2,-3.054756E-2,-2.3958385E-3,-2.3958385E-3,1.68496E-2],"categories":[],"categories_nodes":[],"categories_segments":[],"categories_sizes":[],"default_left":[0,0,0,0,0,0,0,0,0,0,0,0,0,0,0,0,0,0,0,0,0,0,0],"id":34,"left_children":[1,3,-1,5,7,9,11,-1,13,-1,-1,15,17,-1,-1,-1,19,21,-1,-1,-1,-1,-1],"loss_changes":[9.8397464E-1,9.0986073E-1,0E0,2.2312121E0,4.6506214E-1,5.2154064E-3,6.9540304E-1,0E0,2.4989724E-2,0E0,0E0,2.5750935E-1,3.126147E-1,0E0,0E0,0E0,1.525828E-1,2.2832751E-1,0E0,0E0,0E0,0E0,0E0],"parents":[2147483647,0,0,1,1,3,3,4,4,5,5,6,6,8,8,11,11,12,12,16,16,17,17],"right_children":[2,4,-1,6,8,10,12,-1,14,-1,-1,16,18,-1,-1,-1,20,22,-1,-1,-1,-1,-1],"split_conditions":[4E0,2E0,1.6690308E-1,1.4E1,2.345E1,1E1,1E0,2.8597517E-2,6E0,-1.648579E-1,-7.507163E-2,7.55E0,4E1,5.621071E-2,8.3823904E-2,-7.507163E-2,1E0,1E0,2.8597517E-2,-3.054756E-2,-2.3958385E-3,-2.3958385E-3,1.68496E-2],"split_indices":[2,1,0,0,3,0,4,0,0,0,0,3,0,0,0,0,1,5,0,0,0,0,0],"split_type":[0,0,0,0,0,0,0,0,0,0,0,0,0,0,0,0,0,0,0,0,0,0,0],"sum_hessian":[1.699677E2,1.6769733E2,2.2703638E0,1.5047446E2,1.7222876E1,7.9286776E0,1.4254578E2,4.89326E0,1.2329616E1,6.3735623E0,1.5551153E0,5.5677345E1,8.686843E1,3.1501055E0,9.17951E0,2.7511513E0,5.2926193E1,6.6367096E1,2.0501335E1,3.1988668E1,2.0937527E1,6.2534473E1,3.832621E0],"tree_param":{"num_deleted":"0","num_feature":"7","num_nodes":"23","size_leaf_vector":"1"}},{"base_weights":[-1.309156E-2,-3.5974678E-2,8.8380486E-2,-1.1396805E-1,-2.925177E-2,2.6202904E-2,4.4634093E-2,-6.0765546E-2,-1.1222969E-2,7.860872E-3,8.74916E-2,-1.05260216E-1,-3.5994258E-2,-1.0798277E-2,2.6202904E-2,5.6847252E-2,8.74916E-2,-6.137179E-2,-7.0627235E-2,-4.8298698E-2,-1.0798277E-2,-4.895677E-3,7.860872E-3,1.7054176E-2,2.1650828E-2,2.1650828E-2,2.624748E-2,-3.766055E-2,-2.1188172E-2,-2.1188172E-2,-1.2643944E-2,-1.4687032E-3,3.1960842E-3],"categories":[],"categories_nodes":[],"categories_segments":[],"categories_sizes":[],"default_left":[0,0,0,0,0,0,0,0,0,0,0,0,0,0,0,0,0,0,0,0,0,0,0,0,0,0,0,0,0,0,0,0,0],"id":35,"left_children":[1,3,5,-1,7,9,-1,11,13,-1,15,17,19,-1,21,23,25,-1,27,29,-1,31,-1,-1,-1,-1,-1,-1,-1,-1,-1,-1,-1],"loss_changes":[4.001659E-1,3.1309003E-1,1.9104391E-1,0E0,7.807173E-2,4.4234887E-2,0E0,1.109312E-1,3.2925734E-1,0E0,1.7432645E-2,1.4428595E-1,3.3493713E-4,0E0,1.2247868E-1,8.601565E-3,6.9230795E-4,0E0,5.4518253E-2,2.8288642E-2,0E0,2.79627E-3,0E0,0E0,0E0,0E0,0E0,0E0,0E0,0E0,0E0,0E0,0E0],"parents":[2147483647,0,0,1,1,2,2,4,4,5,5,7,7,8,8,10,10,11,11,12,12,14,14,15,15,16,16,18,18,19,19,21,21],"right_children":[2,4,6,-1,8,10,-1,12,14,-1,16,18,20,-1,22,24,26,-1,28,30,-1,32,-1,-1,-1,-1,-1,-1,-1,-1,-1,-1,-1],"split_conditions":[5.25542E1,7.225E0,1E0,-1.1396805E-1,2.7E1,7.965E1,4.4634093E-2,1E0,7.925E0,7.860872E-3,3E1,1.9E1,1E0,-1.0798277E-2,1E0,2E0,1.648667E2,-6.137179E-2,1.8E1,2E0,-1.0798277E-2,5.1E1,7.860872E-3,1.7054176E-2,2.1650828E-2,2.1650828E-2,2.624748E-2,-3.766055E-2,-2.1188172E-2,-2.1188172E-2,-1.2643944E-2,-1.4687032E-3,3.1960842E-3],"split_indices":[3,3,1,0,0,3,0,2,3,0,0,0,4,0,6,2,3,0,3,2,0,0,0,0,0,0,0,0,0,0,0,0,0],"split_type":[0,0,0,0,0,0,0,0,0,0,0,0,0,0,0,0,0,0,0,0,0,0,0,0,0,0,0,0,0,0,0,0,0],"sum_hessian":[1.699677E2,1.3921793E2,3.0749773E1,1.6049961E0,1.3761293E2,1.0819841E1,1.9929932E1,4.921543E1,8.839749E1,4.198272E0,6.6215696E0,2.881378E1,2.0401651E1,1.9152895E1,6.92446E1,3.2659025E0,3.3556669E0,7.8701873E0,2.0943592E1,9.76973E0,1.0631922E1,1.412274E1,5.5121857E1,1.8542194E0,1.4116831E0,1.9908881E0,1.3647789E0,1.873759E1,2.2060006E0,3.4435833E0,6.3261466E0,1.2652775E1,1.4699653E0],"tree_param":{"num_deleted":"0","num_feature":"7","num_nodes":"33","size_leaf_vector":"1"}},{"base_weights":[1.3281618E-2,3.5675378E-3,1.5571174E-1,-1.0896748E-2,2.613033E-1,-3.1104866E-1,6.727263E-3,3.7560984E-2,2.613033E-1,-1.5827045E-1,-4.5648213E-2,-8.4507145E-2,6.674719E-2,5.797599E-2,7.839099E-2,-1.3183492E-1,-1.5689839E-2,1.6695611E-2,1.2520328E-1,-4.5648213E-2,-2.2128714E-2,-1.7958444E-2,-2.6639935E-3,-2.6639935E-3,2.1284835E-2,2.1284835E-2,3.7560984E-2],"categories":[],"categories_nodes":[],"categories_segments":[],"categories_sizes":[],"default_left":[0,0,0,0,0,0,0,0,0,0,0,0,0,0,0,0,0,0,0,0,0,0,0,0,0,0,0],"id":36,"left_children":[1,3,-1,5,7,9,11,-1,13,-1,-1,15,17,-1,-1,19,21,23,25,-1,-1,-1,-1,-1,-1,-1,-1],"loss_changes":[8.271259E-1,7.313936E-1,0E0,8.4911555E-1,1.0534316E-1,8.1263834E-1,8.391785E-1,0E0,1.6351342E-3,0E0,0E0,1.9609952E-1,4.9523747E-1,0E0,0E0,1.9499725E-1,1.8492877E-2,2.723457E-1,7.7926934E-2,0E0,0E0,0E0,0E0,0E0,0E0,0E0,0E0],"parents":[2147483647,0,0,1,1,3,3,4,4,5,5,6,6,8,8,11,11,12,12,15,15,16,16,17,17,18,18],"right_children":[2,4,-1,6,8,10,12,-1,14,-1,-1,16,18,-1,-1,20,22,24,26,-1,-1,-1,-1,-1,-1,-1,-1],"split_conditions":[4E0,4E0,1.5571174E-1,9E0,2.97E1,3E0,1E0,3.7560984E-2,6E0,-1.5827045E-1,-4.5648213E-2,1E0,3.675E1,5.797599E-2,7.839099E-2,3.7E1,1E0,1E0,1.9E1,-4.5648213E-2,-2.2128714E-2,-1.7958444E-2,-2.6639935E-3,-2.6639935E-3,2.1284835E-2,2.1284835E-2,3.7560984E-2],"split_indices":[2,1,0,0,3,1,4,0,0,0,0,1,3,0,0,0,6,1,0,0,0,0,0,0,0,0,0],"split_type":[0,0,0,0,0,0,0,0,0,0,0,0,0,0,0,0,0,0,0,0,0,0,0,0,0,0,0],"sum_hessian":[1.6773253E2,1.6555968E2,2.1728497E0,1.591214E2,6.4382825E0,7.9015822E0,1.5121982E2,1.111579E0,5.3267035E0,6.525076E0,1.3765064E0,5.9844334E1,9.137549E1,1.6847512E0,3.6419523E0,3.4915882E1,2.492845E1,6.9203575E1,2.2171907E1,2.866521E1,6.2506723E0,6.608034E0,1.8320415E1,5.5736973E1,1.3466603E1,1.4440104E0,2.0727896E1],"tree_param":{"num_deleted":"0","num_feature":"7","num_nodes":"27","size_leaf_vector":"1"}},{"base_weights":[-1.3281632E-2,-2.0857638E-2,9.0307444E-2,-1.1095662E-1,-1.5450294E-2,-4.3754198E-2,2.3967864E-2,-5.9829473E-2,-9.893167E-3,-9.893167E-3,5.0006237E-2,-1.4587155E-1,-3.486132E-2,-1.0458396E-2,-2.9679502E-3,-2.9679502E-3,2.0056535E-2,2.0056535E-2,9.836503E-2,-5.7795852E-2,-3.605635E-2,-2.7109932E-2,-1.0458396E-2,1.5245052E-3,6.016961E-3,6.016961E-3,1.7763237E-2,1.7763237E-2,3.533218E-2],"categories":[],"categories_nodes":[],"categories_segments":[],"categories_sizes":[],"default_left":[0,0,0,0,0,0,0,0,0,0,0,0,0,0,0,0,0,0,0,0,0,0,0,0,0,0,0,0,0],"id":37,"left_children":[1,3,-1,-1,5,7,9,11,13,15,17,19,21,-1,-1,-1,23,25,27,-1,-1,-1,-1,-1,-1,-1,-1,-1,-1],"loss_changes":[4.0806243E-1,3.0697963E-1,0E0,0E0,1.8425784E-1,9.125416E-2,9.683829E-2,3.452423E-1,1.3008818E-2,5.8906693E-2,1.7157118E-1,2.0397007E-2,1.5810826E-1,0E0,0E0,0E0,1.5028827E-3,6.882486E-2,4.3092698E-2,0E0,0E0,0E0,0E0,0E0,0E0,0E0,0E0,0E0,0E0],"parents":[2147483647,0,0,1,1,4,4,5,5,6,6,7,7,8,8,9,9,10,10,11,11,12,12,16,16,17,17,18,18],"right_children":[2,4,-1,-1,6,8,10,12,14,16,18,20,22,-1,-1,-1,24,26,28,-1,-1,-1,-1,-1,-1,-1,-1,-1,-1],"split_conditions":[2.62375E2,7.225E0,9.0307444E-2,-1.1095662E-1,2.59292E1,1E0,2.7E1,2.9E1,8.4583E0,4.71E1,1E0,1.9E1,7.7333E0,-1.0458396E-2,-2.9679502E-3,-2.9679502E-3,2E0,5.2E1,2.62833E1,-5.7795852E-2,-3.605635E-2,-2.7109932E-2,-1.0458396E-2,1.5245052E-3,6.016961E-3,6.016961E-3,1.7763237E-2,1.7763237E-2,3.533218E-2],"split_indices":[3,3,0,0,3,2,0,0,3,3,6,0,3,0,0,0,2,0,3,0,0,0,0,0,0,0,0,0,0],"split_type":[0,0,0,0,0,0,0,0,0,0,0,0,0,0,0,0,0,0,0,0,0,0,0,0,0,0,0,0,0],"sum_hessian":[1.6773253E2,1.6469635E2,3.0361824E0,1.4845207E0,1.6321182E2,9.49347E1,6.827713E1,7.974473E1,1.5189971E1,2.0121552E1,4.815558E1,3.1198809E1,4.8545918E1,1.3081701E0,1.3881802E1,1.1801354E1,8.320198E0,1.3921156E1,3.4234425E1,7.8273535E0,2.3371456E1,5.2913156E0,4.32546E1,5.821725E0,2.4984732E0,1.1041065E1,2.8800905E0,5.8975525E0,2.8336872E1],"tree_param":{"num_deleted":"0","num_feature":"7","num_nodes":"29","size_leaf_vector":"1"}},{"base_weights":[1.4513445E-2,4.6307705E-3,1.4508608E-1,-2.9972438E-2,1.4514934E-1,-1.3306864E-1,-1.8281633E-2,8.663257E-2,7.323766E-2,-7.4361674E-2,2.3179328E-2,1.7276537E-2,1.6537905E-1,-1.5365595E-1,-7.677352E-3,-5.954467E-3,5.758845E-2,1.1148375E-1,1.6537905E-1,-6.9276564E-2,-3.4283638E-2,-7.677352E-3,7.745098E-3,7.745098E-3,1.7276537E-2,3.3445127E-2,4.152942E-2,4.152942E-2,4.9613718E-2],"categories":[],"categories_nodes":[],"categories_segments":[],"categories_sizes":[],"default_left":[0,0,0,0,0,0,0,0,0,0,0,0,0,0,0,0,0,0,0,0,0,0,0,0,0,0,0,0,0],"id":38,"left_children":[1,3,-1,5,7,-1,9,11,-1,13,15,-1,17,19,-1,21,23,25,27,-1,-1,-1,-1,-1,-1,-1,-1,-1,-1],"loss_changes":[7.681495E-1,8.0059373E-1,0E0,6.312343E-1,3.3623922E-1,0E0,3.0314243E-1,3.1204307E-1,0E0,3.8130367E-1,1.9043213E-1,0E0,2.722317E-2,1.4332747E-1,0E0,1.9202633E-1,6.677419E-3,5.5699915E-2,1.1471331E-2,0E0,0E0,0E0,0E0,0E0,0E0,0E0,0E0,0E0,0E0],"parents":[2147483647,0,0,1,1,3,3,4,4,6,6,7,7,9,9,10,10,12,12,13,13,15,15,16,16,17,17,18,18],"right_children":[2,4,-1,6,8,-1,10,12,-1,14,16,-1,18,20,-1,22,24,26,28,-1,-1,-1,-1,-1,-1,-1,-1,-1,-1],"split_conditions":[5E0,4.1E1,1.4508608E-1,2E0,2E0,-1.3306864E-1,1E0,1E0,7.323766E-2,1E0,2E0,1.7276537E-2,2.7E1,7.55E0,-7.677352E-3,1E0,2.345E1,5.2E1,1E0,-6.9276564E-2,-3.4283638E-2,-7.677352E-3,7.745098E-3,7.745098E-3,1.7276537E-2,3.3445127E-2,4.152942E-2,4.152942E-2,4.9613718E-2],"split_indices":[1,0,0,0,2,0,4,4,0,1,1,0,3,3,0,5,3,0,6,0,0,0,0,0,0,0,0,0,0],"split_type":[0,0,0,0,0,0,0,0,0,0,0,0,0,0,0,0,0,0,0,0,0,0,0,0,0,0,0,0,0],"sum_hessian":[1.651743E2,1.627554E2,2.4188972E0,1.3122697E2,3.1528418E1,2.591884E0,1.286351E2,2.780557E1,3.7228475E0,5.4340576E1,7.429452E1,8.055943E0,1.9749628E1,3.031531E1,2.4025265E1,6.906369E1,5.2308292E0,9.932049E0,9.81758E0,3.1206455E0,2.7194664E1,6.536146E1,3.7022307E0,1.5693614E0,3.6614678E0,6.912468E0,3.0195804E0,4.2416525E0,5.5759277E0],"tree_param":{"num_deleted":"0","num_feature":"7","num_nodes":"29","size_leaf_vector":"1"}},{"base_weights":[-1.45134395E-2,-2.1654418E-2,8.532377E-2,-1.0736206E-1,-1.6581224E-2,-4.3080017E-2,2.0326274E-2,-5.5550575E-2,-1.1376872E-2,-1.1376872E-2,4.662684E-2,-1.0585725E-1,-3.3463724E-2,-1.0039117E-2,-3.4130616E-3,-3.4130616E-3,1.7624984E-2,1.7624984E-2,9.2565276E-2,-4.744069E-2,-2.0898147E-2,-2.0898147E-2,-1.0039117E-2,1.777613E-3,5.2874954E-3,5.2874954E-3,1.652854E-2,1.652854E-2,3.3748E-2],"categories":[],"categories_nodes":[],"categories_segments":[],"categories_sizes":[],"default_left":[0,0,0,0,0,0,0,0,0,0,0,0,0,0,0,0,0,0,0,0,0,0,0,0,0,0,0,0,0],"id":39,"left_children":[1,3,-1,-1,5,7,9,11,13,15,17,19,21,-1,-1,-1,23,25,27,-1,-1,-1,-1,-1,-1,-1,-1,-1,-1],"loss_changes":[3.6087847E-1,2.7248213E-1,0E0,0E0,1.591644E-1,7.936069E-2,9.5580034E-2,1.5326983E-1,1.4655069E-3,5.758825E-2,1.5564923E-1,9.288284E-2,1.0607384E-1,0E0,0E0,0E0,6.084442E-4,6.600542E-2,4.3948114E-2,0E0,0E0,0E0,0E0,0E0,0E0,0E0,0E0,0E0,0E0],"parents":[2147483647,0,0,1,1,4,4,5,5,6,6,7,7,8,8,9,9,10,10,11,11,12,12,16,16,17,17,18,18],"right_children":[2,4,-1,-1,6,8,10,12,14,16,18,20,22,-1,-1,-1,24,26,28,-1,-1,-1,-1,-1,-1,-1,-1,-1,-1],"split_conditions":[2.62375E2,7.225E0,8.532377E-2,-1.0736206E-1,2.59292E1,2E0,2.7E1,2.9E1,1E0,4.71E1,1E0,1E0,7.7333E0,-1.0039117E-2,-3.4130616E-3,-3.4130616E-3,2E0,5.2E1,2.62833E1,-4.744069E-2,-2.0898147E-2,-2.0898147E-2,-1.0039117E-2,1.777613E-3,5.2874954E-3,5.2874954E-3,1.652854E-2,1.652854E-2,3.3748E-2],"split_indices":[3,3,0,0,3,2,0,0,6,3,6,4,3,0,0,0,2,0,3,0,0,0,0,0,0,0,0,0,0],"split_type":[0,0,0,0,0,0,0,0,0,0,0,0,0,0,0,0,0,0,0,0,0,0,0,0,0,0,0,0,0],"sum_hessian":[1.6517429E2,1.6222646E2,2.9478335E0,1.3777218E0,1.6084874E2,9.3529396E1,6.731934E1,8.8427155E1,5.1022377E0,1.9462193E1,4.785715E1,3.6783154E1,5.1644E1,1.3937445E0,3.7084932E0,1.1296497E1,8.165695E0,1.37694845E1,3.4087666E1,1.7809666E1,1.897349E1,5.2116737E0,4.6432327E1,5.7144895E0,2.4512057E0,1.09094715E1,2.8600135E0,5.8736687E0,2.8213997E1],"tree_param":{"num_deleted":"0","num_feature":"7","num_nodes":"29","size_leaf_vector":"1"}}]},"name":"gbtree"},"learner_model_param":{"base_score":"5E-1","boost_from_average":"1","num_class":"2","num_feature":"7","num_target":"1"},"objective":{"name":"multi:softmax","softmax_multiclass_param":{"num_class":"2"}}},"version":[3,0,0]}