{"learner":{"attributes":{},"feature_names":["PassengerId","output","Pclass","Age","SibSp","Parch","Fare","Sex_male","Embarked_MISSING","Embarked_Q"],"feature_types":["int","int","int","float","int","int","float","float","float","float"],"gradient_booster":{"model":{"gbtree_model_param":{"num_parallel_tree":"1","num_trees":"600"},"iteration_indptr":[0,2,4,6,8,10,12,14,16,18,20,22,24,26,28,30,32,34,36,38,40,42,44,46,48,50,52,54,56,58,60,62,64,66,68,70,72,74,76,78,80,82,84,86,88,90,92,94,96,98,100,102,104,106,108,110,112,114,116,118,120,122,124,126,128,130,132,134,136,138,140,142,144,146,148,150,152,154,156,158,160,162,164,166,168,170,172,174,176,178,180,182,184,186,188,190,192,194,196,198,200,202,204,206,208,210,212,214,216,218,220,222,224,226,228,230,232,234,236,238,240,242,244,246,248,250,252,254,256,258,260,262,264,266,268,270,272,274,276,278,280,282,284,286,288,290,292,294,296,298,300,302,304,306,308,310,312,314,316,318,320,322,324,326,328,330,332,334,336,338,340,342,344,346,348,350,352,354,356,358,360,362,364,366,368,370,372,374,376,378,380,382,384,386,388,390,392,394,396,398,400,402,404,406,408,410,412,414,416,418,420,422,424,426,428,430,432,434,436,438,440,442,444,446,448,450,452,454,456,458,460,462,464,466,468,470,472,474,476,478,480,482,484,486,488,490,492,494,496,498,500,502,504,506,508,510,512,514,516,518,520,522,524,526,528,530,532,534,536,538,540,542,544,546,548,550,552,554,556,558,560,562,564,566,568,570,572,574,576,578,580,582,584,586,588,590,592,594,596,598,600],"tree_info":[0,1,0,1,0,1,0,1,0,1,0,1,0,1,0,1,0,1,0,1,0,1,0,1,0,1,0,1,0,1,0,1,0,1,0,1,0,1,0,1,0,1,0,1,0,1,0,1,0,1,0,1,0,1,0,1,0,1,0,1,0,1,0,1,0,1,0,1,0,1,0,1,0,1,0,1,0,1,0,1,0,1,0,1,0,1,0,1,0,1,0,1,0,1,0,1,0,1,0,1,0,1,0,1,0,1,0,1,0,1,0,1,0,1,0,1,0,1,0,1,0,1,0,1,0,1,0,1,0,1,0,1,0,1,0,1,0,1,0,1,0,1,0,1,0,1,0,1,0,1,0,1,0,1,0,1,0,1,0,1,0,1,0,1,0,1,0,1,0,1,0,1,0,1,0,1,0,1,0,1,0,1,0,1,0,1,0,1,0,1,0,1,0,1,0,1,0,1,0,1,0,1,0,1,0,1,0,1,0,1,0,1,0,1,0,1,0,1,0,1,0,1,0,1,0,1,0,1,0,1,0,1,0,1,0,1,0,1,0,1,0,1,0,1,0,1,0,1,0,1,0,1,0,1,0,1,0,1,0,1,0,1,0,1,0,1,0,1,0,1,0,1,0,1,0,1,0,1,0,1,0,1,0,1,0,1,0,1,0,1,0,1,0,1,0,1,0,1,0,1,0,1,0,1,0,1,0,1,0,1,0,1,0,1,0,1,0,1,0,1,0,1,0,1,0,1,0,1,0,1,0,1,0,1,0,1,0,1,0,1,0,1,0,1,0,1,0,1,0,1,0,1,0,1,0,1,0,1,0,1,0,1,0,1,0,1,0,1,0,1,0,1,0,1,0,1,0,1,0,1,0,1,0,1,0,1,0,1,0,1,0,1,0,1,0,1,0,1,0,1,0,1,0,1,0,1,0,1,0,1,0,1,0,1,0,1,0,1,0,1,0,1,0,1,0,1,0,1,0,1,0,1,0,1,0,1,0,1,0,1,0,1,0,1,0,1,0,1,0,1,0,1,0,1,0,1,0,1,0,1,0,1,0,1,0,1,0,1,0,1,0,1,0,1,0,1,0,1,0,1,0,1,0,1,0,1,0,1,0,1,0,1,0,1,0,1,0,1,0,1,0,1,0,1,0,1,0,1,0,1,0,1,0,1,0,1,0,1,0,1,0,1,0,1,0,1,0,1,0,1,0,1,0,1,0,1,0,1,0,1,0,1,0,1,0,1,0,1,0,1,0,1,0,1,0,1,0,1,0,1,0,1,0,1,0,1,0,1,0,1,0,1,0,1,0,1,0,1,0,1,0,1,0,1,0,1,0,1,0,1,0,1,0,1,0,1,0,1,0,1],"trees":[{"base_weights":[-4.656E-1,-6.070175E-1,9.649123E-2,-6.771653E-1,-3.125E-2,-4.5454547E-2,-7.3390555E-1,-8.4E-2,9.047619E-2,-9.078341E-2,-5.7768922E-2,2.820513E-1,-4.814815E-1,-8.75E-2,7.692308E-3,1.25E-2,7.777778E-2],"categories":[],"categories_nodes":[],"categories_segments":[],"categories_sizes":[],"default_left":[0,0,0,0,0,0,0,0,0,0,0,0,0,0,0,0,0],"id":0,"left_children":[1,3,-1,5,11,7,9,-1,-1,-1,-1,15,13,-1,-1,-1,-1],"loss_changes":[6.3804337E1,1.1489655E1,0E0,9.070869E0,4.6496615E0,1.7369783E1,5.806282E0,0E0,0E0,0E0,0E0,1.4209403E0,3.033832E0,0E0,0E0,0E0,0E0],"parents":[2147483647,0,0,1,1,3,3,5,5,6,6,4,4,12,12,11,11],"right_children":[2,4,-1,6,12,8,10,-1,-1,-1,-1,16,14,-1,-1,-1,-1],"split_conditions":[1E0,7.525E1,9.649123E-2,7.25E0,1E0,7.225E0,1.34167E1,-8.4E-2,9.047619E-2,-9.078341E-2,-5.7768922E-2,4.55E1,5.03E2,-8.75E-2,7.692308E-3,1.25E-2,7.777778E-2],"split_indices":[9,6,0,6,5,6,6,0,0,0,0,3,0,0,0,0,0],"split_type":[0,0,0,0,0,0,0,0,0,0,0,0,0,0,0,0,0],"sum_hessian":[3.115E2,2.84E2,2.75E1,2.53E2,3.1E1,2.1E1,2.32E2,1.15E1,9.5E0,1.075E2,1.245E2,1.85E1,1.25E1,7E0,5.5E0,1.5E1,3.5E0],"tree_param":{"num_deleted":"0","num_feature":"10","num_nodes":"17","size_leaf_vector":"1"}},{"base_weights":[4.656E-1,6.070175E-1,-9.649123E-2,6.771653E-1,3.125E-2,4.5454547E-2,7.3390555E-1,8.4E-2,-9.047619E-2,9.078341E-2,5.7768922E-2,-2.820513E-1,4.814815E-1,8.75E-2,-7.692308E-3,-1.25E-2,-7.777778E-2],"categories":[],"categories_nodes":[],"categories_segments":[],"categories_sizes":[],"default_left":[0,0,0,0,0,0,0,0,0,0,0,0,0,0,0,0,0],"id":1,"left_children":[1,3,-1,5,11,7,9,-1,-1,-1,-1,15,13,-1,-1,-1,-1],"loss_changes":[6.3804337E1,1.1489655E1,0E0,9.070869E0,4.6496615E0,1.7369783E1,5.806282E0,0E0,0E0,0E0,0E0,1.4209403E0,3.033832E0,0E0,0E0,0E0,0E0],"parents":[2147483647,0,0,1,1,3,3,5,5,6,6,4,4,12,12,11,11],"right_children":[2,4,-1,6,12,8,10,-1,-1,-1,-1,16,14,-1,-1,-1,-1],"split_conditions":[1E0,7.525E1,-9.649123E-2,7.25E0,1E0,7.225E0,1.34167E1,8.4E-2,-9.047619E-2,9.078341E-2,5.7768922E-2,4.55E1,5.03E2,8.75E-2,-7.692308E-3,-1.25E-2,-7.777778E-2],"split_indices":[9,6,0,6,5,6,6,0,0,0,0,3,0,0,0,0,0],"split_type":[0,0,0,0,0,0,0,0,0,0,0,0,0,0,0,0,0],"sum_hessian":[3.115E2,2.84E2,2.75E1,2.53E2,3.1E1,2.1E1,2.32E2,1.15E1,9.5E0,1.075E2,1.245E2,1.85E1,1.25E1,7E0,5.5E0,1.5E1,3.5E0],"tree_param":{"num_deleted":"0","num_feature":"10","num_nodes":"17","size_leaf_vector":"1"}},{"base_weights":[-4.216491E-1,-5.498562E-1,8.799512E-2,-6.1365694E-1,-2.7896268E-2,-4.0905412E-2,-6.649996E-1,-7.678625E-2,8.292334E-2,-8.248322E-2,-5.2216925E-2,2.5881538E-1,-4.4111332E-1,-8.03991E-2,7.0417807E-3,1.1329847E-2,7.207834E-2],"categories":[],"categories_nodes":[],"categories_segments":[],"categories_sizes":[],"default_left":[0,0,0,0,0,0,0,0,0,0,0,0,0,0,0,0,0],"id":2,"left_children":[1,3,-1,5,11,7,9,-1,-1,-1,-1,15,13,-1,-1,-1,-1],"loss_changes":[5.233417E1,9.422806E0,0E0,7.3993225E0,3.8962076E0,1.4452904E1,4.858856E0,0E0,0E0,0E0,0E0,1.2276319E0,2.5525708E0,0E0,0E0,0E0,0E0],"parents":[2147483647,0,0,1,1,3,3,5,5,6,6,4,4,12,12,11,11],"right_children":[2,4,-1,6,12,8,10,-1,-1,-1,-1,16,14,-1,-1,-1,-1],"split_conditions":[1E0,7.525E1,8.799512E-2,7.25E0,1E0,7.225E0,1.34167E1,-7.678625E-2,8.292334E-2,-8.248322E-2,-5.2216925E-2,4.55E1,5.03E2,-8.03991E-2,7.0417807E-3,1.1329847E-2,7.207834E-2],"split_indices":[9,6,0,6,5,6,6,0,0,0,0,3,0,0,0,0,0],"split_type":[0,0,0,0,0,0,0,0,0,0,0,0,0,0,0,0,0],"sum_hessian":[3.0971466E2,2.8246912E2,2.724554E1,2.5154619E2,3.0922922E1,2.0841892E1,2.307043E2,1.1419236E1,9.422656E0,1.0661887E2,1.24085434E2,1.8476568E1,1.2446353E1,6.946679E0,5.4996743E0,1.4997657E1,3.4789124E0],"tree_param":{"num_deleted":"0","num_feature":"10","num_nodes":"17","size_leaf_vector":"1"}},{"base_weights":[4.2164904E-1,5.498561E-1,-8.799512E-2,6.136569E-1,2.789624E-2,4.090544E-2,6.6499954E-1,7.678625E-2,-8.292334E-2,8.248321E-2,5.2216914E-2,-2.5881538E-1,4.411133E-1,8.03991E-2,-7.041788E-3,-1.1329847E-2,-7.207834E-2],"categories":[],"categories_nodes":[],"categories_segments":[],"categories_sizes":[],"default_left":[0,0,0,0,0,0,0,0,0,0,0,0,0,0,0,0,0],"id":3,"left_children":[1,3,-1,5,11,7,9,-1,-1,-1,-1,15,13,-1,-1,-1,-1],"loss_changes":[5.2334164E1,9.422806E0,0E0,7.3993073E0,3.8962066E0,1.4452905E1,4.858879E0,0E0,0E0,0E0,0E0,1.2276319E0,2.5525718E0,0E0,0E0,0E0,0E0],"parents":[2147483647,0,0,1,1,3,3,5,5,6,6,4,4,12,12,11,11],"right_children":[2,4,-1,6,12,8,10,-1,-1,-1,-1,16,14,-1,-1,-1,-1],"split_conditions":[1E0,7.525E1,-8.799512E-2,7.25E0,1E0,7.225E0,1.34167E1,7.678625E-2,-8.292334E-2,8.248321E-2,5.2216914E-2,4.55E1,5.03E2,8.03991E-2,-7.041788E-3,-1.1329847E-2,-7.207834E-2],"split_indices":[9,6,0,6,5,6,6,0,0,0,0,3,0,0,0,0,0],"split_type":[0,0,0,0,0,0,0,0,0,0,0,0,0,0,0,0,0],"sum_hessian":[3.0971466E2,2.8246912E2,2.7245539E1,2.5154619E2,3.0922922E1,2.0841892E1,2.307043E2,1.1419236E1,9.422656E0,1.06618866E2,1.24085434E2,1.8476568E1,1.2446353E1,6.9466786E0,5.4996743E0,1.4997657E1,3.4789124E0],"tree_param":{"num_deleted":"0","num_feature":"10","num_nodes":"17","size_leaf_vector":"1"}},{"base_weights":[-3.8562134E-1,-5.0274616E-1,8.1506334E-2,-1.9544953E-1,-6.0108024E-1,4.535542E-2,-6.6328025E-1,-6.8094835E-2,7.699635E-2,-8.022524E-2,-9.305522E-2,8.962395E-2,-1.7823784E-2,4.21292E-2,-6.766705E-2],"categories":[],"categories_nodes":[],"categories_segments":[],"categories_sizes":[],"default_left":[0,0,0,0,0,0,0,0,0,0,0,0,0,0,0],"id":4,"left_children":[1,3,-1,9,5,7,13,-1,-1,-1,11,-1,-1,-1,-1],"loss_changes":[4.345293E1,8.328049E0,0E0,4.227219E0,8.5242E0,1.0775591E1,3.0846863E0,0E0,0E0,0E0,5.247265E0,0E0,0E0,0E0,0E0],"parents":[2147483647,0,0,1,1,4,4,5,5,3,3,10,10,6,6],"right_children":[2,4,-1,10,6,8,14,-1,-1,-1,12,-1,-1,-1,-1],"split_conditions":[1E0,2E0,8.1506334E-2,2.7E1,7.25E0,7.225E0,8.3E-1,-6.8094835E-2,7.699635E-2,-8.022524E-2,3E1,8.962395E-2,-1.7823784E-2,4.21292E-2,-6.766705E-2],"split_indices":[9,2,0,6,6,6,3,0,0,0,6,0,0,0,0],"split_type":[0,0,0,0,0,0,0,0,0,0,0,0,0,0,0],"sum_hessian":[3.05074E2,2.7848914E2,2.658487E1,6.823635E1,2.1025279E2,1.8478563E1,1.9177423E2,9.258575E0,9.219989E0,8.865174E0,5.9371178E1,3.9520004E0,5.5419174E1,1.9672849E0,1.8980695E2],"tree_param":{"num_deleted":"0","num_feature":"10","num_nodes":"15","size_leaf_vector":"1"}},{"base_weights":[3.8562134E-1,5.027461E-1,-8.150633E-2,1.9544955E-1,6.010802E-1,-4.5355506E-2,6.6328025E-1,6.809482E-2,-7.699635E-2,8.022524E-2,9.305523E-2,-8.962395E-2,1.7823784E-2,-4.2129207E-2,6.766705E-2],"categories":[],"categories_nodes":[],"categories_segments":[],"categories_sizes":[],"default_left":[0,0,0,0,0,0,0,0,0,0,0,0,0,0,0],"id":5,"left_children":[1,3,-1,9,5,7,13,-1,-1,-1,11,-1,-1,-1,-1],"loss_changes":[4.345293E1,8.328049E0,0E0,4.227219E0,8.5242E0,1.0775591E1,3.0846786E0,0E0,0E0,0E0,5.247265E0,0E0,0E0,0E0,0E0],"parents":[2147483647,0,0,1,1,4,4,5,5,3,3,10,10,6,6],"right_children":[2,4,-1,10,6,8,14,-1,-1,-1,12,-1,-1,-1,-1],"split_conditions":[1E0,2E0,-8.150633E-2,2.7E1,7.25E0,7.225E0,8.3E-1,6.809482E-2,-7.699635E-2,8.022524E-2,3E1,-8.962395E-2,1.7823784E-2,-4.2129207E-2,6.766705E-2],"split_indices":[9,2,0,6,6,6,3,0,0,0,6,0,0,0,0],"split_type":[0,0,0,0,0,0,0,0,0,0,0,0,0,0,0],"sum_hessian":[3.05074E2,2.7848914E2,2.6584867E1,6.823634E1,2.1025278E2,1.8478565E1,1.9177422E2,9.258575E0,9.21999E0,8.865173E0,5.9371174E1,3.952E0,5.5419174E1,1.9672847E0,1.8980693E2],"tree_param":{"num_deleted":"0","num_feature":"10","num_nodes":"15","size_leaf_vector":"1"}},{"base_weights":[-3.5446563E-1,-4.6184E-1,7.639275E-2,-1.7695935E-1,-5.548145E-1,4.2586792E-2,-6.119762E-1,-6.350623E-2,7.221437E-2,-7.480054E-2,-8.272053E-2,8.16558E-2,-1.6109088E-2,3.9094657E-2,-6.247564E-2],"categories":[],"categories_nodes":[],"categories_segments":[],"categories_sizes":[],"default_left":[0,0,0,0,0,0,0,0,0,0,0,0,0,0,0],"id":6,"left_children":[1,3,-1,9,5,7,13,-1,-1,-1,11,-1,-1,-1,-1],"loss_changes":[3.636029E1,7.164543E0,0E0,3.648022E0,7.069683E0,9.184004E0,2.6579971E0,0E0,0E0,0E0,4.3811097E0,0E0,0E0,0E0,0E0],"parents":[2147483647,0,0,1,1,4,4,5,5,3,3,10,10,6,6],"right_children":[2,4,-1,10,6,8,14,-1,-1,-1,12,-1,-1,-1,-1],"split_conditions":[1E0,2E0,7.639275E-2,2.7E1,7.25E0,7.225E0,8.3E-1,-6.350623E-2,7.221437E-2,-7.480054E-2,3E1,8.16558E-2,-1.6109088E-2,3.9094657E-2,-6.247564E-2],"split_indices":[9,2,0,6,6,6,3,0,0,0,6,0,0,0,0],"split_type":[0,0,0,0,0,0,0,0,0,0,0,0,0,0,0],"sum_hessian":[2.9884558E2,2.7320303E2,2.5642544E1,6.793836E1,2.0526466E2,1.7947615E1,1.8731705E2,9.019206E0,8.928409E0,8.640906E0,5.9297455E1,3.998342E0,5.5299114E1,1.9846134E0,1.8533244E2],"tree_param":{"num_deleted":"0","num_feature":"10","num_nodes":"15","size_leaf_vector":"1"}},{"base_weights":[3.5446563E-1,4.6183997E-1,-7.639273E-2,1.7695929E-1,5.548145E-1,-4.2586762E-2,6.119762E-1,6.350623E-2,-7.221437E-2,7.4800536E-2,8.272048E-2,-8.165581E-2,1.6109085E-2,-3.9094664E-2,6.247564E-2],"categories":[],"categories_nodes":[],"categories_segments":[],"categories_sizes":[],"default_left":[0,0,0,0,0,0,0,0,0,0,0,0,0,0,0],"id":7,"left_children":[1,3,-1,9,5,7,13,-1,-1,-1,11,-1,-1,-1,-1],"loss_changes":[3.6360283E1,7.164547E0,0E0,3.6480224E0,7.069683E0,9.184005E0,2.6579971E0,0E0,0E0,0E0,4.38111E0,0E0,0E0,0E0,0E0],"parents":[2147483647,0,0,1,1,4,4,5,5,3,3,10,10,6,6],"right_children":[2,4,-1,10,6,8,14,-1,-1,-1,12,-1,-1,-1,-1],"split_conditions":[1E0,2E0,-7.639273E-2,2.7E1,7.25E0,7.225E0,8.3E-1,6.350623E-2,-7.221437E-2,7.4800536E-2,3E1,-8.165581E-2,1.6109085E-2,-3.9094664E-2,6.247564E-2],"split_indices":[9,2,0,6,6,6,3,0,0,0,6,0,0,0,0],"split_type":[0,0,0,0,0,0,0,0,0,0,0,0,0,0,0],"sum_hessian":[2.9884558E2,2.7320303E2,2.5642542E1,6.793836E1,2.0526466E2,1.7947615E1,1.8731705E2,9.019207E0,8.928409E0,8.640905E0,5.9297455E1,3.998342E0,5.5299114E1,1.9846134E0,1.8533244E2],"tree_param":{"num_deleted":"0","num_feature":"10","num_nodes":"15","size_leaf_vector":"1"}},{"base_weights":[-3.276329E-1,-4.265055E-1,7.22623E-2,-4.827426E-1,7.8032045E-3,-3.231177E-2,-5.221215E-1,-6.225545E-2,6.826713E-2,-6.747641E-2,-3.9120443E-2,2.6977465E-1,-3.782394E-1,-7.2594546E-2,9.319531E-3,1.3448416E-2,6.9521874E-2],"categories":[],"categories_nodes":[],"categories_segments":[],"categories_sizes":[],"default_left":[0,0,0,0,0,0,0,0,0,0,0,0,0,0,0,0,0],"id":8,"left_children":[1,3,-1,5,11,7,9,-1,-1,-1,-1,15,13,-1,-1,-1,-1],"loss_changes":[3.0650648E1,6.541828E0,0E0,4.1871758E0,3.3051212E0,8.916372E0,4.090313E0,0E0,0E0,0E0,0E0,1.0261244E0,2.2347507E0,0E0,0E0,0E0,0E0],"parents":[2147483647,0,0,1,1,3,3,5,5,6,6,4,4,12,12,11,11],"right_children":[2,4,-1,6,12,8,10,-1,-1,-1,-1,16,14,-1,-1,-1,-1],"split_conditions":[1E0,7.525E1,7.22623E-2,7.25E0,1E0,7.225E0,1.34167E1,-6.225545E-2,6.826713E-2,-6.747641E-2,-3.9120443E-2,4.55E1,5.03E2,-7.2594546E-2,9.319531E-3,1.3448416E-2,6.9521874E-2],"split_indices":[9,6,0,6,5,6,6,0,0,0,0,3,0,0,0,0,0],"split_type":[0,0,0,0,0,0,0,0,0,0,0,0,0,0,0,0,0],"sum_hessian":[2.9119952E2,2.6668713E2,2.451241E1,2.3601488E2,3.0672245E1,1.912109E1,2.1689378E2,1.0545059E1,8.576031E0,9.82201E1,1.1867369E2,1.8451855E1,1.2220389E1,6.722416E0,5.497974E0,1.499847E1,3.4533844E0],"tree_param":{"num_deleted":"0","num_feature":"10","num_nodes":"17","size_leaf_vector":"1"}},{"base_weights":[3.2763287E-1,4.265055E-1,-7.22623E-2,4.8274258E-1,-7.803168E-3,3.2311786E-2,5.221215E-1,6.225545E-2,-6.826713E-2,6.747641E-2,3.912044E-2,-2.6977468E-1,3.782395E-1,7.259456E-2,-9.319524E-3,-1.3448419E-2,-6.9521874E-2],"categories":[],"categories_nodes":[],"categories_segments":[],"categories_sizes":[],"default_left":[0,0,0,0,0,0,0,0,0,0,0,0,0,0,0,0,0],"id":9,"left_children":[1,3,-1,5,11,7,9,-1,-1,-1,-1,15,13,-1,-1,-1,-1],"loss_changes":[3.0650658E1,6.5418243E0,0E0,4.1871758E0,3.3051224E0,8.916372E0,4.090309E0,0E0,0E0,0E0,0E0,1.0261241E0,2.2347503E0,0E0,0E0,0E0,0E0],"parents":[2147483647,0,0,1,1,3,3,5,5,6,6,4,4,12,12,11,11],"right_children":[2,4,-1,6,12,8,10,-1,-1,-1,-1,16,14,-1,-1,-1,-1],"split_conditions":[1E0,7.525E1,-7.22623E-2,7.25E0,1E0,7.225E0,1.34167E1,6.225545E-2,-6.826713E-2,6.747641E-2,3.912044E-2,4.55E1,5.03E2,7.259456E-2,-9.319524E-3,-1.3448419E-2,-6.9521874E-2],"split_indices":[9,6,0,6,5,6,6,0,0,0,0,3,0,0,0,0,0],"split_type":[0,0,0,0,0,0,0,0,0,0,0,0,0,0,0,0,0],"sum_hessian":[2.9119952E2,2.666871E2,2.4512411E1,2.3601488E2,3.0672243E1,1.912109E1,2.1689378E2,1.0545059E1,8.576031E0,9.822009E1,1.1867369E2,1.8451853E1,1.2220389E1,6.722416E0,5.4979734E0,1.4998469E1,3.4533844E0],"tree_param":{"num_deleted":"0","num_feature":"10","num_nodes":"17","size_leaf_vector":"1"}},{"base_weights":[-3.0432442E-1,-3.957011E-1,6.885815E-2,-1.4092278E-1,-4.827128E-1,3.9783224E-2,-5.3187174E-1,-5.602268E-2,6.494502E-2,-6.80446E-2,-5.58529E-2,7.825717E-2,-1.302693E-2,3.9614774E-2,-5.446322E-2],"categories":[],"categories_nodes":[],"categories_segments":[],"categories_sizes":[],"default_left":[0,0,0,0,0,0,0,0,0,0,0,0,0,0,0],"id":10,"left_children":[1,3,-1,9,5,7,13,-1,-1,-1,11,-1,-1,-1,-1],"loss_changes":[2.600343E1,5.7033463E0,0E0,3.0687027E0,4.9951324E0,6.7958775E0,2.3125725E0,0E0,0E0,0E0,3.8179615E0,0E0,0E0,0E0,0E0],"parents":[2147483647,0,0,1,1,4,4,5,5,3,3,10,10,6,6],"right_children":[2,4,-1,10,6,8,14,-1,-1,-1,12,-1,-1,-1,-1],"split_conditions":[1E0,2E0,6.885815E-2,2.7E1,7.25E0,7.225E0,8.3E-1,-5.602268E-2,6.494502E-2,-6.80446E-2,3E1,7.825717E-2,-1.302693E-2,3.9614774E-2,-5.446322E-2],"split_indices":[9,2,0,6,6,6,3,0,0,0,6,0,0,0,0],"split_type":[0,0,0,0,0,0,0,0,0,0,0,0,0,0,0],"sum_hessian":[2.826041E2,2.5933875E2,2.3265356E1,6.668843E1,1.9265031E2,1.6583183E1,1.7606714E2,8.398655E0,8.184528E0,8.129773E0,5.855866E1,3.998034E0,5.4560623E1,1.9805987E0,1.7408653E2],"tree_param":{"num_deleted":"0","num_feature":"10","num_nodes":"15","size_leaf_vector":"1"}},{"base_weights":[3.0432442E-1,3.9570108E-1,-6.885814E-2,1.4092273E-1,4.827128E-1,-3.9783288E-2,5.3187174E-1,5.602268E-2,-6.494503E-2,6.80446E-2,5.585284E-2,-7.825719E-2,1.3026925E-2,-3.9614774E-2,5.446322E-2],"categories":[],"categories_nodes":[],"categories_segments":[],"categories_sizes":[],"default_left":[0,0,0,0,0,0,0,0,0,0,0,0,0,0,0],"id":11,"left_children":[1,3,-1,9,5,7,13,-1,-1,-1,11,-1,-1,-1,-1],"loss_changes":[2.6003426E1,5.70335E0,0E0,3.0687034E0,4.9951324E0,6.795879E0,2.3125725E0,0E0,0E0,0E0,3.817962E0,0E0,0E0,0E0,0E0],"parents":[2147483647,0,0,1,1,4,4,5,5,3,3,10,10,6,6],"right_children":[2,4,-1,10,6,8,14,-1,-1,-1,12,-1,-1,-1,-1],"split_conditions":[1E0,2E0,-6.885814E-2,2.7E1,7.25E0,7.225E0,8.3E-1,5.602268E-2,-6.494503E-2,6.80446E-2,3E1,-7.825719E-2,1.3026925E-2,-3.9614774E-2,5.446322E-2],"split_indices":[9,2,0,6,6,6,3,0,0,0,6,0,0,0,0],"split_type":[0,0,0,0,0,0,0,0,0,0,0,0,0,0,0],"sum_hessian":[2.826041E2,2.5933875E2,2.3265356E1,6.668843E1,1.9265031E2,1.6583183E1,1.7606714E2,8.398655E0,8.184529E0,8.129773E0,5.855866E1,3.998034E0,5.4560623E1,1.9805987E0,1.7408653E2],"tree_param":{"num_deleted":"0","num_feature":"10","num_nodes":"15","size_leaf_vector":"1"}},{"base_weights":[-2.8308207E-1,-3.6763337E-1,6.60045E-2,-4.8019144E-1,-1.8079033E-1,-3.0526027E-1,1.2857229E-1,-1.3530636E-2,-5.8330346E-2,2.7436096E-2,-5.032131E-2,-8.612074E-2,-5.1992834E-1,-5.4302294E-2,5.967137E-2,-5.4590315E-2,3.995225E-3],"categories":[],"categories_nodes":[],"categories_segments":[],"categories_sizes":[],"default_left":[0,0,0,0,0,0,0,0,0,0,0,0,0,0,0,0,0],"id":12,"left_children":[1,3,-1,11,5,7,9,-1,-1,-1,-1,13,15,-1,-1,-1,-1],"loss_changes":[2.214445E1,5.227669E0,0E0,2.415207E0,3.7591665E0,3.1903749E0,2.7557898E0,0E0,0E0,0E0,0E0,5.187481E0,2.0942688E0,0E0,0E0,0E0,0E0],"parents":[2147483647,0,0,1,1,4,4,5,5,6,6,3,3,11,11,12,12],"right_children":[2,4,-1,12,6,8,10,-1,-1,-1,-1,14,16,-1,-1,-1,-1],"split_conditions":[1E0,1E0,6.60045E-2,7.25E0,5.79792E1,3E1,2E0,-1.3530636E-2,-5.8330346E-2,2.7436096E-2,-5.032131E-2,7.1417E0,7.92E1,-5.4302294E-2,5.967137E-2,-5.4590315E-2,3.995225E-3],"split_indices":[9,1,0,6,6,3,5,0,0,0,0,6,6,0,0,0,0],"split_type":[0,0,0,0,0,0,0,0,0,0,0,0,0,0,0,0,0],"sum_hessian":[2.7365604E2,2.5170122E2,2.1954813E1,1.5609587E2,9.560535E1,6.818488E1,2.7420462E1,4.324066E1,2.4944218E1,2.273902E1,4.6814427E0,1.4588556E1,1.4150732E2,8.862907E0,5.7256494E0,1.3525723E2,6.250083E0],"tree_param":{"num_deleted":"0","num_feature":"10","num_nodes":"17","size_leaf_vector":"1"}},{"base_weights":[2.830821E-1,3.676334E-1,-6.600451E-2,4.8019147E-1,1.8079035E-1,3.052603E-1,-1.2857233E-1,1.3530642E-2,5.8330353E-2,-2.7436102E-2,5.032131E-2,8.6120695E-2,5.199284E-1,5.4302294E-2,-5.9671372E-2,5.4590315E-2,-3.995231E-3],"categories":[],"categories_nodes":[],"categories_segments":[],"categories_sizes":[],"default_left":[0,0,0,0,0,0,0,0,0,0,0,0,0,0,0,0,0],"id":13,"left_children":[1,3,-1,11,5,7,9,-1,-1,-1,-1,13,15,-1,-1,-1,-1],"loss_changes":[2.2144455E1,5.227669E0,0E0,2.4152107E0,3.7591681E0,3.190374E0,2.7557902E0,0E0,0E0,0E0,0E0,5.187481E0,2.0942612E0,0E0,0E0,0E0,0E0],"parents":[2147483647,0,0,1,1,4,4,5,5,6,6,3,3,11,11,12,12],"right_children":[2,4,-1,12,6,8,10,-1,-1,-1,-1,14,16,-1,-1,-1,-1],"split_conditions":[1E0,1E0,-6.600451E-2,7.25E0,5.79792E1,3E1,2E0,1.3530642E-2,5.8330353E-2,-2.7436102E-2,5.032131E-2,7.1417E0,7.92E1,5.4302294E-2,-5.9671372E-2,5.4590315E-2,-3.995231E-3],"split_indices":[9,1,0,6,6,3,5,0,0,0,0,6,6,0,0,0,0],"split_type":[0,0,0,0,0,0,0,0,0,0,0,0,0,0,0,0,0],"sum_hessian":[2.7365604E2,2.5170122E2,2.1954813E1,1.5609589E2,9.560535E1,6.818488E1,2.742046E1,4.3240665E1,2.4944218E1,2.2739017E1,4.6814427E0,1.4588556E1,1.4150732E2,8.862907E0,5.7256494E0,1.3525725E2,6.250083E0],"tree_param":{"num_deleted":"0","num_feature":"10","num_nodes":"17","size_leaf_vector":"1"}},{"base_weights":[-2.6389936E-1,-3.4211314E-1,6.357672E-2,-1.11655235E-1,-4.2509994E-1,4.510637E-2,-4.688374E-1,-5.0465103E-2,6.0531534E-2,-6.2237646E-2,-3.664653E-2,7.613046E-2,-1.0850714E-2,-5.8440126E-2,-3.3323314E-2],"categories":[],"categories_nodes":[],"categories_segments":[],"categories_sizes":[],"default_left":[0,0,0,0,0,0,0,0,0,0,0,0,0,0,0],"id":14,"left_children":[1,3,-1,9,5,7,13,-1,-1,-1,11,-1,-1,-1,-1],"loss_changes":[1.8930954E1,4.6443214E0,0E0,2.517322E0,3.7232742E0,5.304539E0,2.387577E0,0E0,0E0,0E0,3.4587686E0,0E0,0E0,0E0,0E0],"parents":[2147483647,0,0,1,1,4,4,5,5,3,3,10,10,6,6],"right_children":[2,4,-1,10,6,8,14,-1,-1,-1,12,-1,-1,-1,-1],"split_conditions":[1E0,2E0,6.357672E-2,2.7E1,7.25E0,7.225E0,1.34167E1,-5.0465103E-2,6.0531534E-2,-6.2237646E-2,3E1,7.613046E-2,-1.0850714E-2,-5.8440126E-2,-3.3323314E-2],"split_indices":[9,2,0,6,6,6,6,0,0,0,6,0,0,0,0],"split_type":[0,0,0,0,0,0,0,0,0,0,0,0,0,0,0],"sum_hessian":[2.6494327E2,2.4432248E2,2.0620787E1,6.530715E1,1.7901534E2,1.5231844E1,1.637835E2,7.737688E0,7.4941554E0,7.4287434E0,5.7878407E1,3.9890628E0,5.3889343E1,8.6638954E1,7.714453E1],"tree_param":{"num_deleted":"0","num_feature":"10","num_nodes":"15","size_leaf_vector":"1"}},{"base_weights":[2.6389936E-1,3.4211314E-1,-6.357672E-2,1.1165523E-1,4.2509994E-1,-4.5106303E-2,4.6883744E-1,5.0465103E-2,-6.0531527E-2,6.2237646E-2,3.6646523E-2,-7.613046E-2,1.0850713E-2,5.8440126E-2,3.332332E-2],"categories":[],"categories_nodes":[],"categories_segments":[],"categories_sizes":[],"default_left":[0,0,0,0,0,0,0,0,0,0,0,0,0,0,0],"id":15,"left_children":[1,3,-1,9,5,7,13,-1,-1,-1,11,-1,-1,-1,-1],"loss_changes":[1.8930958E1,4.6443195E0,0E0,2.517322E0,3.723278E0,5.3045397E0,2.3875694E0,0E0,0E0,0E0,3.4587684E0,0E0,0E0,0E0,0E0],"parents":[2147483647,0,0,1,1,4,4,5,5,3,3,10,10,6,6],"right_children":[2,4,-1,10,6,8,14,-1,-1,-1,12,-1,-1,-1,-1],"split_conditions":[1E0,2E0,-6.357672E-2,2.7E1,7.25E0,7.225E0,1.34167E1,5.0465103E-2,-6.0531527E-2,6.2237646E-2,3E1,-7.613046E-2,1.0850713E-2,5.8440126E-2,3.332332E-2],"split_indices":[9,2,0,6,6,6,6,0,0,0,6,0,0,0,0],"split_type":[0,0,0,0,0,0,0,0,0,0,0,0,0,0,0],"sum_hessian":[2.6494327E2,2.4432248E2,2.0620787E1,6.530715E1,1.7901532E2,1.5231844E1,1.6378348E2,7.737689E0,7.494155E0,7.4287434E0,5.7878407E1,3.9890628E0,5.3889343E1,8.663895E1,7.714453E1],"tree_param":{"num_deleted":"0","num_feature":"10","num_nodes":"15","size_leaf_vector":"1"}},{"base_weights":[-2.4650857E-1,-3.1906027E-1,6.148379E-2,-4.3006316E-1,-1.4212586E-1,-2.554376E-1,1.2655291E-1,-9.306518E-3,-5.3046454E-2,2.5835833E-2,-4.629547E-2,-7.674632E-2,-4.646792E-1,-4.9065825E-2,5.5028286E-2,-5.8609646E-2,-3.3964097E-2],"categories":[],"categories_nodes":[],"categories_segments":[],"categories_sizes":[],"default_left":[0,0,0,0,0,0,0,0,0,0,0,0,0,0,0,0,0],"id":16,"left_children":[1,3,-1,11,5,7,9,-1,-1,-1,-1,13,15,-1,-1,-1,-1],"loss_changes":[1.624516E1,4.6038857E0,0E0,1.7434006E0,2.8655279E0,2.888484E0,2.316502E0,0E0,0E0,0E0,0E0,3.949606E0,1.809248E0,0E0,0E0,0E0,0E0],"parents":[2147483647,0,0,1,1,4,4,5,5,6,6,3,3,11,11,12,12],"right_children":[2,4,-1,12,6,8,10,-1,-1,-1,-1,14,16,-1,-1,-1,-1],"split_conditions":[1E0,1E0,6.148379E-2,7.25E0,5.79792E1,3E1,2E0,-9.306518E-3,-5.3046454E-2,2.5835833E-2,-4.629547E-2,7.1417E0,1.44542E1,-4.9065825E-2,5.5028286E-2,-5.8609646E-2,-3.3964097E-2],"split_indices":[9,1,0,6,6,3,5,0,0,0,0,6,6,0,0,0,0],"split_type":[0,0,0,0,0,0,0,0,0,0,0,0,0,0,0,0,0],"sum_hessian":[2.5581607E2,2.3652316E2,1.92929E1,1.4446187E2,9.20613E1,6.478736E1,2.7273943E1,4.1578384E1,2.3208975E1,2.2749271E1,4.524672E0,1.3177692E1,1.3128416E2,8.068822E0,5.1088705E0,6.473576E1,6.654841E1],"tree_param":{"num_deleted":"0","num_feature":"10","num_nodes":"17","size_leaf_vector":"1"}},{"base_weights":[2.4650854E-1,3.1906024E-1,-6.148379E-2,4.3006316E-1,1.4212582E-1,2.5543758E-1,-1.2655294E-1,9.306512E-3,5.3046454E-2,-2.583584E-2,4.629547E-2,7.674632E-2,4.6467918E-1,4.9065825E-2,-5.5028286E-2,5.8609642E-2,3.3964097E-2],"categories":[],"categories_nodes":[],"categories_segments":[],"categories_sizes":[],"default_left":[0,0,0,0,0,0,0,0,0,0,0,0,0,0,0,0,0],"id":17,"left_children":[1,3,-1,11,5,7,9,-1,-1,-1,-1,13,15,-1,-1,-1,-1],"loss_changes":[1.624516E1,4.6038876E0,0E0,1.7433968E0,2.865528E0,2.888486E0,2.3165026E0,0E0,0E0,0E0,0E0,3.949606E0,1.8092518E0,0E0,0E0,0E0,0E0],"parents":[2147483647,0,0,1,1,4,4,5,5,6,6,3,3,11,11,12,12],"right_children":[2,4,-1,12,6,8,10,-1,-1,-1,-1,14,16,-1,-1,-1,-1],"split_conditions":[1E0,1E0,-6.148379E-2,7.25E0,5.79792E1,3E1,2E0,9.306512E-3,5.3046454E-2,-2.583584E-2,4.629547E-2,7.1417E0,1.44542E1,4.9065825E-2,-5.5028286E-2,5.8609642E-2,3.3964097E-2],"split_indices":[9,1,0,6,6,3,5,0,0,0,0,6,6,0,0,0,0],"split_type":[0,0,0,0,0,0,0,0,0,0,0,0,0,0,0,0,0],"sum_hessian":[2.5581606E2,2.3652316E2,1.9292904E1,1.4446185E2,9.20613E1,6.478736E1,2.7273943E1,4.157838E1,2.3208975E1,2.2749271E1,4.524672E0,1.3177693E1,1.3128416E2,8.068823E0,5.1088705E0,6.4735756E1,6.654841E1],"tree_param":{"num_deleted":"0","num_feature":"10","num_nodes":"17","size_leaf_vector":"1"}},{"base_weights":[-2.3051727E-1,-2.9775757E-1,5.9657495E-2,-4.0517443E-1,-1.3106401E-1,-2.3570946E-1,1.1361029E-1,-8.4506525E-3,-5.011895E-2,4.3805987E-2,-1.2095725E-2,-4.2803633E-1,7.567183E-2,-2.836327E-2,6.752409E-2,-7.221063E-3,-4.6424195E-2],"categories":[],"categories_nodes":[],"categories_segments":[],"categories_sizes":[],"default_left":[0,0,0,0,0,0,0,0,0,0,0,0,0,0,0,0,0],"id":18,"left_children":[1,3,-1,11,5,7,9,-1,-1,-1,-1,15,13,-1,-1,-1,-1],"loss_changes":[1.3980201E1,4.0686607E0,0E0,1.5660095E0,2.3742814E0,2.548533E0,2.1946445E0,0E0,0E0,0E0,0E0,1.684103E0,1.7386465E0,0E0,0E0,0E0,0E0],"parents":[2147483647,0,0,1,1,4,4,5,5,6,6,3,3,12,12,11,11],"right_children":[2,4,-1,12,6,8,10,-1,-1,-1,-1,16,14,-1,-1,-1,-1],"split_conditions":[1E0,1E0,5.9657495E-2,7.92E1,5.79792E1,3E1,8.3475E1,-8.4506525E-3,-5.011895E-2,4.3805987E-2,-1.2095725E-2,7.25E0,5.03E2,-2.836327E-2,6.752409E-2,-7.221063E-3,-4.6424195E-2],"split_indices":[9,1,0,6,6,3,6,0,0,0,0,6,0,0,0,0,0],"split_type":[0,0,0,0,0,0,0,0,0,0,0,0,0,0,0,0,0],"sum_hessian":[2.4718544E2,2.291927E2,1.7992731E1,1.385079E2,9.068479E1,6.3544086E1,2.7140709E1,4.1325596E1,2.221849E1,1.1024416E1,1.6116293E1,1.3232626E2,6.1816435E0,4.1947746E0,1.9868689E0,1.2497394E1,1.1982887E2],"tree_param":{"num_deleted":"0","num_feature":"10","num_nodes":"17","size_leaf_vector":"1"}},{"base_weights":[2.3051727E-1,2.9775757E-1,-5.9657503E-2,4.0517443E-1,1.3106404E-1,2.3570949E-1,-1.13610275E-1,8.450656E-3,5.011895E-2,-4.3805987E-2,1.2095726E-2,4.2803633E-1,-7.567183E-2,2.836327E-2,-6.752409E-2,7.2210687E-3,4.6424195E-2],"categories":[],"categories_nodes":[],"categories_segments":[],"categories_sizes":[],"default_left":[0,0,0,0,0,0,0,0,0,0,0,0,0,0,0,0,0],"id":19,"left_children":[1,3,-1,11,5,7,9,-1,-1,-1,-1,15,13,-1,-1,-1,-1],"loss_changes":[1.3980205E1,4.068659E0,0E0,1.5660076E0,2.3742814E0,2.5485337E0,2.194645E0,0E0,0E0,0E0,0E0,1.6841049E0,1.7386465E0,0E0,0E0,0E0,0E0],"parents":[2147483647,0,0,1,1,4,4,5,5,6,6,3,3,12,12,11,11],"right_children":[2,4,-1,12,6,8,10,-1,-1,-1,-1,16,14,-1,-1,-1,-1],"split_conditions":[1E0,1E0,-5.9657503E-2,7.92E1,5.79792E1,3E1,8.3475E1,8.450656E-3,5.011895E-2,-4.3805987E-2,1.2095726E-2,7.25E0,5.03E2,2.836327E-2,-6.752409E-2,7.2210687E-3,4.6424195E-2],"split_indices":[9,1,0,6,6,3,6,0,0,0,0,6,0,0,0,0,0],"split_type":[0,0,0,0,0,0,0,0,0,0,0,0,0,0,0,0,0],"sum_hessian":[2.4718546E2,2.2919272E2,1.7992737E1,1.3850792E2,9.06848E1,6.354409E1,2.7140709E1,4.13256E1,2.221849E1,1.1024415E1,1.6116293E1,1.3232628E2,6.1816435E0,4.1947746E0,1.9868689E0,1.2497394E1,1.1982888E2],"tree_param":{"num_deleted":"0","num_feature":"10","num_nodes":"17","size_leaf_vector":"1"}},{"base_weights":[-2.144469E-1,-2.7648577E-1,5.8045637E-2,-4.3216613E-1,-1.6871332E-1,5.016105E-1,-2.3916587E-1,9.2960626E-2,-5.2603066E-2,-6.12258E-3,-4.205587E-2,-3.3248109E-3,-5.186567E-1,-4.833373E-2,5.732298E-2,1.9073127E-3,-5.3925373E-2],"categories":[],"categories_nodes":[],"categories_segments":[],"categories_sizes":[],"default_left":[0,0,0,0,0,0,0,0,0,0,0,0,0,0,0,0,0],"id":20,"left_children":[1,3,-1,11,5,7,9,-1,-1,-1,-1,13,15,-1,-1,-1,-1],"loss_changes":[1.2021963E1,3.6818428E0,0E0,3.3700733E0,6.442723E0,6.231357E0,3.9064627E0,0E0,0E0,0E0,0E0,4.778115E0,8.480797E-1,0E0,0E0,0E0,0E0],"parents":[2147483647,0,0,1,1,4,4,5,5,6,6,3,3,11,11,12,12],"right_children":[2,4,-1,12,6,8,10,-1,-1,-1,-1,14,16,-1,-1,-1,-1],"split_conditions":[1E0,1.34167E1,5.8045637E-2,7.25E0,1.575E1,3E1,2E0,9.2960626E-2,-5.2603066E-2,-6.12258E-3,-4.205587E-2,7.225E0,1.3E1,-4.833373E-2,5.732298E-2,1.9073127E-3,-5.3925373E-2],"split_indices":[9,6,0,6,6,3,2,0,0,0,0,6,3,0,0,0,0],"split_type":[0,0,0,0,0,0,0,0,0,0,0,0,0,0,0,0,0],"sum_hessian":[2.3952519E2,2.2278957E2,1.6735615E1,8.990675E1,1.3288281E2,1.2055969E1,1.2082685E2,8.578544E0,3.4774249E0,6.1669117E1,5.9157734E1,1.52637615E1,7.464299E1,8.417458E0,6.8463035E0,2.7563539E0,7.1886635E1],"tree_param":{"num_deleted":"0","num_feature":"10","num_nodes":"17","size_leaf_vector":"1"}},{"base_weights":[2.1444689E-1,2.7648577E-1,-5.8045637E-2,4.3216613E-1,1.6871327E-1,-5.016107E-1,2.3916586E-1,-9.296065E-2,5.2603066E-2,6.122581E-3,4.2055864E-2,3.324754E-3,5.1865673E-1,4.8333727E-2,-5.732298E-2,-1.907307E-3,5.3925373E-2],"categories":[],"categories_nodes":[],"categories_segments":[],"categories_sizes":[],"default_left":[0,0,0,0,0,0,0,0,0,0,0,0,0,0,0,0,0],"id":21,"left_children":[1,3,-1,11,5,7,9,-1,-1,-1,-1,13,15,-1,-1,-1,-1],"loss_changes":[1.2021964E1,3.6818428E0,0E0,3.3700752E0,6.442724E0,6.2313557E0,3.9064608E0,0E0,0E0,0E0,0E0,4.778115E0,8.480778E-1,0E0,0E0,0E0,0E0],"parents":[2147483647,0,0,1,1,4,4,5,5,6,6,3,3,11,11,12,12],"right_children":[2,4,-1,12,6,8,10,-1,-1,-1,-1,14,16,-1,-1,-1,-1],"split_conditions":[1E0,1.34167E1,-5.8045637E-2,7.25E0,1.575E1,3E1,2E0,-9.296065E-2,5.2603066E-2,6.122581E-3,4.2055864E-2,7.225E0,1.3E1,4.8333727E-2,-5.732298E-2,-1.907307E-3,5.3925373E-2],"split_indices":[9,6,0,6,6,3,2,0,0,0,0,6,3,0,0,0,0],"split_type":[0,0,0,0,0,0,0,0,0,0,0,0,0,0,0,0,0],"sum_hessian":[2.3952519E2,2.2278958E2,1.6735617E1,8.990676E1,1.3288281E2,1.2055967E1,1.2082684E2,8.578544E0,3.4774244E0,6.1669117E1,5.915773E1,1.52637615E1,7.4643005E1,8.417458E0,6.846304E0,2.7563539E0,7.188665E1],"tree_param":{"num_deleted":"0","num_feature":"10","num_nodes":"17","size_leaf_vector":"1"}},{"base_weights":[-2.0049006E-1,-2.5802723E-1,5.6607466E-2,-3.6273423E-1,-1.0277807E-1,-2.364674E-1,5.525502E-2,-7.61932E-3,-5.5450268E-2,-5.442467E-3,5.5824067E-2,-3.853503E-1,7.948991E-2,-2.5940899E-2,6.355228E-2,-6.216635E-3,-4.1904237E-2],"categories":[],"categories_nodes":[],"categories_segments":[],"categories_sizes":[],"default_left":[0,0,0,0,0,0,0,0,0,0,0,0,0,0,0,0,0],"id":22,"left_children":[1,3,-1,11,5,7,9,-1,-1,-1,-1,15,13,-1,-1,-1,-1],"loss_changes":[1.0392024E1,3.4864826E0,0E0,1.3214397E0,1.8872311E0,2.4169207E0,2.3178034E0,0E0,0E0,0E0,0E0,1.3127728E0,1.5043523E0,0E0,0E0,0E0,0E0],"parents":[2147483647,0,0,1,1,4,4,5,5,6,6,3,3,12,12,11,11],"right_children":[2,4,-1,12,6,8,10,-1,-1,-1,-1,16,14,-1,-1,-1,-1],"split_conditions":[1E0,1E0,5.6607466E-2,7.92E1,3.00708E1,3E1,4.8E1,-7.61932E-3,-5.5450268E-2,-5.442467E-3,5.5824067E-2,7.25E0,5.03E2,-2.5940899E-2,6.355228E-2,-6.216635E-3,-4.1904237E-2],"split_indices":[9,1,0,6,6,3,3,0,0,0,0,6,0,0,0,0,0],"split_type":[0,0,0,0,0,0,0,0,0,0,0,0,0,0,0,0,0],"sum_hessian":[2.3130333E2,2.1577127E2,1.553206E1,1.280632E2,8.770806E1,4.7244713E1,4.0463352E1,3.223794E1,1.500677E1,3.3951725E1,6.511625E0,1.2195485E2,6.1083603E0,4.126653E0,1.9817069E0,1.1782152E1,1.1017269E2],"tree_param":{"num_deleted":"0","num_feature":"10","num_nodes":"17","size_leaf_vector":"1"}},{"base_weights":[2.0049009E-1,2.5802723E-1,-5.6607466E-2,3.6273426E-1,1.0277806E-1,2.3646739E-1,-5.5255044E-2,7.6193176E-3,5.5450268E-2,5.4424643E-3,-5.5824067E-2,3.8535032E-1,-7.948987E-2,2.59409E-2,-6.355228E-2,6.216636E-3,4.1904237E-2],"categories":[],"categories_nodes":[],"categories_segments":[],"categories_sizes":[],"default_left":[0,0,0,0,0,0,0,0,0,0,0,0,0,0,0,0,0],"id":23,"left_children":[1,3,-1,11,5,7,9,-1,-1,-1,-1,15,13,-1,-1,-1,-1],"loss_changes":[1.0392023E1,3.4864836E0,0E0,1.3214378E0,1.8872313E0,2.4169219E0,2.3178034E0,0E0,0E0,0E0,0E0,1.3127728E0,1.5043522E0,0E0,0E0,0E0,0E0],"parents":[2147483647,0,0,1,1,4,4,5,5,6,6,3,3,12,12,11,11],"right_children":[2,4,-1,12,6,8,10,-1,-1,-1,-1,16,14,-1,-1,-1,-1],"split_conditions":[1E0,1E0,-5.6607466E-2,7.92E1,3.00708E1,3E1,4.8E1,7.6193176E-3,5.5450268E-2,5.4424643E-3,-5.5824067E-2,7.25E0,5.03E2,2.59409E-2,-6.355228E-2,6.216636E-3,4.1904237E-2],"split_indices":[9,1,0,6,6,3,3,0,0,0,0,6,0,0,0,0,0],"split_type":[0,0,0,0,0,0,0,0,0,0,0,0,0,0,0,0,0],"sum_hessian":[2.3130334E2,2.1577129E2,1.5532058E1,1.2806322E2,8.770807E1,4.7244717E1,4.0463352E1,3.223794E1,1.5006772E1,3.3951725E1,6.5116253E0,1.2195486E2,6.1083603E0,4.126653E0,1.9817069E0,1.1782152E1,1.1017271E2],"tree_param":{"num_deleted":"0","num_feature":"10","num_nodes":"17","size_leaf_vector":"1"}},{"base_weights":[-1.8640067E-1,-2.3950106E-1,5.5310644E-2,-3.9789018E-1,-1.362242E-1,4.7868356E-1,-2.0419438E-1,8.3325386E-2,-4.906667E-2,-4.5032664E-3,-3.7572812E-2,3.5883046E-3,-4.8274183E-1,-4.5921925E-2,5.561285E-2,2.6459505E-3,-5.0435245E-2],"categories":[],"categories_nodes":[],"categories_segments":[],"categories_sizes":[],"default_left":[0,0,0,0,0,0,0,0,0,0,0,0,0,0,0,0,0],"id":24,"left_children":[1,3,-1,11,5,7,9,-1,-1,-1,-1,13,15,-1,-1,-1,-1],"loss_changes":[8.975359E0,3.3941116E0,0E0,2.818369E0,5.494463E0,4.928953E0,3.176579E0,0E0,0E0,0E0,0E0,4.1981587E0,7.645216E-1,0E0,0E0,0E0,0E0],"parents":[2147483647,0,0,1,1,4,4,5,5,6,6,3,3,11,11,12,12],"right_children":[2,4,-1,12,6,8,10,-1,-1,-1,-1,14,16,-1,-1,-1,-1],"split_conditions":[1E0,1.34167E1,5.5310644E-2,7.25E0,1.575E1,3E1,2E0,8.3325386E-2,-4.906667E-2,-4.5032664E-3,-3.7572812E-2,7.225E0,1.3E1,-4.5921925E-2,5.561285E-2,2.6459505E-3,-5.0435245E-2],"split_indices":[9,6,0,6,6,3,2,0,0,0,0,6,3,0,0,0,0],"split_type":[0,0,0,0,0,0,0,0,0,0,0,0,0,0,0,0,0],"sum_hessian":[2.2419264E2,2.0980379E2,1.4388852E1,8.168147E1,1.2812231E2,1.2151197E1,1.1597112E2,8.999681E0,3.1515162E0,6.0809803E1,5.5161316E1,1.4418337E1,6.726314E1,7.938198E0,6.4801383E0,2.7293055E0,6.453384E1],"tree_param":{"num_deleted":"0","num_feature":"10","num_nodes":"17","size_leaf_vector":"1"}},{"base_weights":[1.8640064E-1,2.3950104E-1,-5.5310637E-2,3.9789015E-1,1.362242E-1,-4.786835E-1,2.0419438E-1,-8.332538E-2,4.9066674E-2,4.5032655E-3,3.7572812E-2,-3.5883237E-3,4.827418E-1,4.5921925E-2,-5.561286E-2,-2.6459533E-3,5.043524E-2],"categories":[],"categories_nodes":[],"categories_segments":[],"categories_sizes":[],"default_left":[0,0,0,0,0,0,0,0,0,0,0,0,0,0,0,0,0],"id":25,"left_children":[1,3,-1,11,5,7,9,-1,-1,-1,-1,13,15,-1,-1,-1,-1],"loss_changes":[8.975361E0,3.3941097E0,0E0,2.8183699E0,5.494462E0,4.9289527E0,3.176579E0,0E0,0E0,0E0,0E0,4.198159E0,7.645216E-1,0E0,0E0,0E0,0E0],"parents":[2147483647,0,0,1,1,4,4,5,5,6,6,3,3,11,11,12,12],"right_children":[2,4,-1,12,6,8,10,-1,-1,-1,-1,14,16,-1,-1,-1,-1],"split_conditions":[1E0,1.34167E1,-5.5310637E-2,7.25E0,1.575E1,3E1,2E0,-8.332538E-2,4.9066674E-2,4.5032655E-3,3.7572812E-2,7.225E0,1.3E1,4.5921925E-2,-5.561286E-2,-2.6459533E-3,5.043524E-2],"split_indices":[9,6,0,6,6,3,2,0,0,0,0,6,3,0,0,0,0],"split_type":[0,0,0,0,0,0,0,0,0,0,0,0,0,0,0,0,0],"sum_hessian":[2.2419264E2,2.0980379E2,1.4388853E1,8.168147E1,1.2812231E2,1.2151198E1,1.1597112E2,8.999682E0,3.1515164E0,6.0809803E1,5.516132E1,1.4418337E1,6.726313E1,7.938198E0,6.4801383E0,2.7293053E0,6.453383E1],"tree_param":{"num_deleted":"0","num_feature":"10","num_nodes":"17","size_leaf_vector":"1"}},{"base_weights":[-1.7423329E-1,-2.235172E-1,5.4129124E-2,-3.817316E-1,-1.2492016E-1,4.209513E-1,-1.8791759E-1,7.202121E-2,-4.7378883E-2,-4.067009E-3,-3.5237983E-2,4.2019864E-3,-4.6346864E-1,-4.394149E-2,5.3847935E-2,2.447858E-3,-4.8554532E-2],"categories":[],"categories_nodes":[],"categories_segments":[],"categories_sizes":[],"default_left":[0,0,0,0,0,0,0,0,0,0,0,0,0,0,0,0,0],"id":26,"left_children":[1,3,-1,11,5,7,9,-1,-1,-1,-1,13,15,-1,-1,-1,-1],"loss_changes":[7.792016E0,3.1380768E0,0E0,2.4599466E0,4.4568357E0,3.9506752E0,2.766275E0,0E0,0E0,0E0,0E0,3.6992812E0,7.046566E-1,0E0,0E0,0E0,0E0],"parents":[2147483647,0,0,1,1,4,4,5,5,6,6,3,3,11,11,12,12],"right_children":[2,4,-1,12,6,8,10,-1,-1,-1,-1,14,16,-1,-1,-1,-1],"split_conditions":[1E0,1.34167E1,5.4129124E-2,7.25E0,1.575E1,3E1,2E0,7.202121E-2,-4.7378883E-2,-4.067009E-3,-3.5237983E-2,7.225E0,1.3E1,-4.394149E-2,5.3847935E-2,2.447858E-3,-4.8554532E-2],"split_indices":[9,6,0,6,6,3,2,0,0,0,0,6,3,0,0,0,0],"split_type":[0,0,0,0,0,0,0,0,0,0,0,0,0,0,0,0,0],"sum_hessian":[2.165324E2,2.0322246E2,1.3309941E1,7.692024E1,1.2630221E2,1.2480125E1,1.1382208E2,9.498316E0,2.98181E0,6.0712147E1,5.310994E1,1.3609511E1,6.331073E1,7.532631E0,6.076881E0,2.7357316E0,6.0574997E1],"tree_param":{"num_deleted":"0","num_feature":"10","num_nodes":"17","size_leaf_vector":"1"}},{"base_weights":[1.7423332E-1,2.2351722E-1,-5.4129124E-2,3.8173163E-1,1.2492016E-1,-4.2095128E-1,1.8791758E-1,-7.202121E-2,4.7378883E-2,4.067006E-3,3.5237983E-2,-4.201969E-3,4.634687E-1,4.394149E-2,-5.3847935E-2,-2.4478592E-3,4.8554536E-2],"categories":[],"categories_nodes":[],"categories_segments":[],"categories_sizes":[],"default_left":[0,0,0,0,0,0,0,0,0,0,0,0,0,0,0,0,0],"id":27,"left_children":[1,3,-1,11,5,7,9,-1,-1,-1,-1,13,15,-1,-1,-1,-1],"loss_changes":[7.7920165E0,3.1380768E0,0E0,2.4599476E0,4.4568357E0,3.9506752E0,2.766276E0,0E0,0E0,0E0,0E0,3.6992812E0,7.0465755E-1,0E0,0E0,0E0,0E0],"parents":[2147483647,0,0,1,1,4,4,5,5,6,6,3,3,11,11,12,12],"right_children":[2,4,-1,12,6,8,10,-1,-1,-1,-1,14,16,-1,-1,-1,-1],"split_conditions":[1E0,1.34167E1,-5.4129124E-2,7.25E0,1.575E1,3E1,2E0,-7.202121E-2,4.7378883E-2,4.067006E-3,3.5237983E-2,7.225E0,1.3E1,4.394149E-2,-5.3847935E-2,-2.4478592E-3,4.8554536E-2],"split_indices":[9,6,0,6,6,3,2,0,0,0,0,6,3,0,0,0,0],"split_type":[0,0,0,0,0,0,0,0,0,0,0,0,0,0,0,0,0],"sum_hessian":[2.1653241E2,2.0322246E2,1.330994E1,7.692025E1,1.26302216E2,1.2480126E1,1.1382209E2,9.498316E0,2.9818103E0,6.0712147E1,5.3109943E1,1.3609511E1,6.3310738E1,7.532631E0,6.0768805E0,2.7357316E0,6.0575005E1],"tree_param":{"num_deleted":"0","num_feature":"10","num_nodes":"17","size_leaf_vector":"1"}},{"base_weights":[-1.6283229E-1,-2.0859767E-1,5.3041663E-2,-3.1171998E-1,-6.556181E-2,-1.8943751E-1,6.99081E-2,-3.926776E-3,-5.1168233E-2,-3.0511513E-3,5.2240152E-2,-3.344711E-1,8.518363E-2,5.0472476E-2,-3.4230534E-2,-2.8764753E-2,-6.346457E-2],"categories":[],"categories_nodes":[],"categories_segments":[],"categories_sizes":[],"default_left":[0,0,0,0,0,0,0,0,0,0,0,0,0,0,0,0,0],"id":28,"left_children":[1,3,-1,11,5,7,9,-1,-1,-1,-1,15,13,-1,-1,-1,-1],"loss_changes":[6.778418E0,2.8981113E0,0E0,1.0643024E0,1.425524E0,2.1202304E0,1.875674E0,0E0,0E0,0E0,0E0,1.3451395E0,1.431043E0,0E0,0E0,0E0,0E0],"parents":[2147483647,0,0,1,1,4,4,5,5,6,6,3,3,12,12,11,11],"right_children":[2,4,-1,12,6,8,10,-1,-1,-1,-1,16,14,-1,-1,-1,-1],"split_conditions":[1E0,1E0,5.3041663E-2,7.92E1,3.00708E1,3E1,4.8E1,-3.926776E-3,-5.1168233E-2,-3.0511513E-3,5.2240152E-2,4.24E1,1E0,5.0472476E-2,-3.4230534E-2,-2.8764753E-2,-6.346457E-2],"split_indices":[9,1,0,6,6,3,3,0,0,0,0,6,5,0,0,0,0],"split_type":[0,0,0,0,0,0,0,0,0,0,0,0,0,0,0,0,0],"sum_hessian":[2.0916217E2,1.9686507E2,1.2297107E1,1.1370771E2,8.315736E1,4.3229385E1,3.992797E1,3.0253002E1,1.2976385E1,3.343948E1,6.4884877E0,1.0769194E2,6.015772E0,2.944925E0,3.0708468E0,9.485411E1,1.2837832E1],"tree_param":{"num_deleted":"0","num_feature":"10","num_nodes":"17","size_leaf_vector":"1"}},{"base_weights":[1.6283233E-1,2.0859772E-1,-5.3041663E-2,3.1172E-1,6.556185E-2,1.8943758E-1,-6.99081E-2,3.9267843E-3,5.116824E-2,3.0511513E-3,-5.2240152E-2,3.3447114E-1,-8.518369E-2,-5.047248E-2,3.4230527E-2,2.8764755E-2,6.346457E-2],"categories":[],"categories_nodes":[],"categories_segments":[],"categories_sizes":[],"default_left":[0,0,0,0,0,0,0,0,0,0,0,0,0,0,0,0,0],"id":29,"left_children":[1,3,-1,11,5,7,9,-1,-1,-1,-1,15,13,-1,-1,-1,-1],"loss_changes":[6.7784176E0,2.8981104E0,0E0,1.0643024E0,1.4255248E0,2.1202302E0,1.875674E0,0E0,0E0,0E0,0E0,1.3451385E0,1.4310429E0,0E0,0E0,0E0,0E0],"parents":[2147483647,0,0,1,1,4,4,5,5,6,6,3,3,12,12,11,11],"right_children":[2,4,-1,12,6,8,10,-1,-1,-1,-1,16,14,-1,-1,-1,-1],"split_conditions":[1E0,1E0,-5.3041663E-2,7.92E1,3.00708E1,3E1,4.8E1,3.9267843E-3,5.116824E-2,3.0511513E-3,-5.2240152E-2,4.24E1,1E0,-5.047248E-2,3.4230527E-2,2.8764755E-2,6.346457E-2],"split_indices":[9,1,0,6,6,3,3,0,0,0,0,6,5,0,0,0,0],"split_type":[0,0,0,0,0,0,0,0,0,0,0,0,0,0,0,0,0],"sum_hessian":[2.0916219E2,1.9686508E2,1.2297105E1,1.13707726E2,8.315736E1,4.322939E1,3.9927967E1,3.0253004E1,1.2976386E1,3.343948E1,6.4884877E0,1.07691956E2,6.0157714E0,2.9449248E0,3.0708463E0,9.485412E1,1.2837833E1],"tree_param":{"num_deleted":"0","num_feature":"10","num_nodes":"17","size_leaf_vector":"1"}},{"base_weights":[-1.5104614E-1,-1.9319059E-1,5.2030724E-2,-3.5201865E-1,-9.950537E-2,4.001851E-1,-1.5950076E-1,6.5587245E-2,-4.481442E-2,-3.7357476E-2,-5.6413836E-3,2.7334074E-2,-4.3522313E-1,-4.096591E-2,5.283018E-2,2.7782212E-3,-4.583179E-2],"categories":[],"categories_nodes":[],"categories_segments":[],"categories_sizes":[],"default_left":[0,0,0,0,0,0,0,0,0,0,0,0,0,0,0,0,0],"id":30,"left_children":[1,3,-1,11,5,7,9,-1,-1,-1,-1,13,15,-1,-1,-1,-1],"loss_changes":[5.8868265E0,2.8391228E0,0E0,2.2614346E0,3.7479014E0,3.2130435E0,2.4159198E0,0E0,0E0,0E0,0E0,3.2289326E0,6.3836575E-1,0E0,0E0,0E0,0E0],"parents":[2147483647,0,0,1,1,4,4,5,5,6,6,3,3,11,11,12,12],"right_children":[2,4,-1,12,6,8,10,-1,-1,-1,-1,14,16,-1,-1,-1,-1],"split_conditions":[1E0,1.34167E1,5.2030724E-2,7.25E0,1.575E1,3E1,2.77208E1,6.5587245E-2,-4.481442E-2,-3.7357476E-2,-5.6413836E-3,7.225E0,1.3E1,-4.096591E-2,5.283018E-2,2.7782212E-3,-4.583179E-2],"split_indices":[9,6,0,6,6,3,6,0,0,0,0,6,3,0,0,0,0],"split_type":[0,0,0,0,0,0,0,0,0,0,0,0,0,0,0,0,0],"sum_hessian":[2.0350787E2,1.9215736E2,1.135051E1,7.0269455E1,1.2188791E2,1.2457923E1,1.09429985E2,9.7470255E0,2.7108974E0,3.471523E1,7.471475E1,1.2760808E1,5.7508648E1,6.9129333E0,5.847874E0,2.7226067E0,5.478604E1],"tree_param":{"num_deleted":"0","num_feature":"10","num_nodes":"17","size_leaf_vector":"1"}},{"base_weights":[1.5104616E-1,1.931906E-1,-5.2030724E-2,3.5201868E-1,9.950538E-2,-4.0018508E-1,1.5950078E-1,-6.558724E-2,4.481442E-2,3.7357476E-2,5.6413836E-3,-2.7333979E-2,4.3522313E-1,4.096592E-2,-5.283018E-2,-2.7782256E-3,4.583179E-2],"categories":[],"categories_nodes":[],"categories_segments":[],"categories_sizes":[],"default_left":[0,0,0,0,0,0,0,0,0,0,0,0,0,0,0,0,0],"id":31,"left_children":[1,3,-1,11,5,7,9,-1,-1,-1,-1,13,15,-1,-1,-1,-1],"loss_changes":[5.886826E0,2.8391247E0,0E0,2.2614336E0,3.747902E0,3.2130425E0,2.41592E0,0E0,0E0,0E0,0E0,3.228933E0,6.3836575E-1,0E0,0E0,0E0,0E0],"parents":[2147483647,0,0,1,1,4,4,5,5,6,6,3,3,11,11,12,12],"right_children":[2,4,-1,12,6,8,10,-1,-1,-1,-1,14,16,-1,-1,-1,-1],"split_conditions":[1E0,1.34167E1,-5.2030724E-2,7.25E0,1.575E1,3E1,2.77208E1,-6.558724E-2,4.481442E-2,3.7357476E-2,5.6413836E-3,7.225E0,1.3E1,4.096592E-2,-5.283018E-2,-2.7782256E-3,4.583179E-2],"split_indices":[9,6,0,6,6,3,6,0,0,0,0,6,3,0,0,0,0],"split_type":[0,0,0,0,0,0,0,0,0,0,0,0,0,0,0,0,0],"sum_hessian":[2.0350787E2,1.9215736E2,1.135051E1,7.0269455E1,1.2188791E2,1.2457922E1,1.09429985E2,9.7470255E0,2.7108972E0,3.471523E1,7.471475E1,1.2760808E1,5.750865E1,6.9129343E0,5.8478737E0,2.7226064E0,5.4786045E1],"tree_param":{"num_deleted":"0","num_feature":"10","num_nodes":"17","size_leaf_vector":"1"}},{"base_weights":[-1.4090766E-1,-1.8002196E-1,5.1081706E-2,-3.3777845E-1,-9.121686E-2,3.5760608E-1,-1.4640725E-1,5.808833E-2,-4.3409687E-2,-9.503236E-3,-5.7794113E-2,2.7105747E-2,-4.178745E-1,-3.9236035E-2,5.129946E-2,-8.894444E-3,-4.530042E-2],"categories":[],"categories_nodes":[],"categories_segments":[],"categories_sizes":[],"default_left":[0,0,0,0,0,0,0,0,0,0,0,0,0,0,0,0,0],"id":32,"left_children":[1,3,-1,11,5,7,9,-1,-1,-1,-1,13,15,-1,-1,-1,-1],"loss_changes":[5.1384506E0,2.5959387E0,0E0,1.9741726E0,3.0579145E0,2.6521387E0,2.3562481E0,0E0,0E0,0E0,0E0,2.8565845E0,5.967865E-1,0E0,0E0,0E0,0E0],"parents":[2147483647,0,0,1,1,4,4,5,5,6,6,3,3,11,11,12,12],"right_children":[2,4,-1,12,6,8,10,-1,-1,-1,-1,14,16,-1,-1,-1,-1],"split_conditions":[1E0,1.34167E1,5.1081706E-2,7.25E0,1.575E1,3E1,3E0,5.808833E-2,-4.3409687E-2,-9.503236E-3,-5.7794113E-2,7.225E0,1.8E1,-3.9236035E-2,5.129946E-2,-8.894444E-3,-4.530042E-2],"split_indices":[9,6,0,6,6,3,4,0,0,0,0,6,3,0,0,0,0],"split_type":[0,0,0,0,0,0,0,0,0,0,0,0,0,0,0,0,0],"sum_hessian":[1.9696576E2,1.8649666E2,1.0469114E1,6.6161476E1,1.20335175E2,1.2576906E1,1.0775827E2,1.0017923E1,2.5589828E0,9.738467E1,1.03736E1,1.202809E1,5.413339E1,6.5585804E0,5.469509E0,5.564374E0,4.8569016E1],"tree_param":{"num_deleted":"0","num_feature":"10","num_nodes":"17","size_leaf_vector":"1"}},{"base_weights":[1.4090768E-1,1.8002197E-1,-5.1081713E-2,3.377785E-1,9.121686E-2,-3.5760602E-1,1.4640723E-1,-5.808832E-2,4.3409687E-2,9.503235E-3,5.7794113E-2,-2.7105616E-2,4.1787452E-1,3.9236043E-2,-5.129946E-2,8.894448E-3,4.530042E-2],"categories":[],"categories_nodes":[],"categories_segments":[],"categories_sizes":[],"default_left":[0,0,0,0,0,0,0,0,0,0,0,0,0,0,0,0,0],"id":33,"left_children":[1,3,-1,11,5,7,9,-1,-1,-1,-1,13,15,-1,-1,-1,-1],"loss_changes":[5.1384544E0,2.5959387E0,0E0,1.9741726E0,3.0579143E0,2.6521382E0,2.3562484E0,0E0,0E0,0E0,0E0,2.8565845E0,5.9678555E-1,0E0,0E0,0E0,0E0],"parents":[2147483647,0,0,1,1,4,4,5,5,6,6,3,3,11,11,12,12],"right_children":[2,4,-1,12,6,8,10,-1,-1,-1,-1,14,16,-1,-1,-1,-1],"split_conditions":[1E0,1.34167E1,-5.1081713E-2,7.25E0,1.575E1,3E1,3E0,-5.808832E-2,4.3409687E-2,9.503235E-3,5.7794113E-2,7.225E0,1.8E1,3.9236043E-2,-5.129946E-2,8.894448E-3,4.530042E-2],"split_indices":[9,6,0,6,6,3,4,0,0,0,0,6,3,0,0,0,0],"split_type":[0,0,0,0,0,0,0,0,0,0,0,0,0,0,0,0,0],"sum_hessian":[1.9696577E2,1.8649666E2,1.0469118E1,6.616148E1,1.20335175E2,1.2576907E1,1.0775827E2,1.0017924E1,2.5589828E0,9.738467E1,1.03736E1,1.20280905E1,5.4133392E1,6.558582E0,5.4695086E0,5.564374E0,4.856902E1],"tree_param":{"num_deleted":"0","num_feature":"10","num_nodes":"17","size_leaf_vector":"1"}},{"base_weights":[-1.313631E-1,-1.6761918E-1,5.0182372E-2,-2.684245E-1,-3.621879E-2,-1.5252487E-1,8.130919E-2,-1.4611701E-3,-4.746156E-2,5.308315E-2,-1.2482655E-3,-5.3481206E-2,-3.1704393E-1,1.2811327E-2,-5.4330863E-2,-3.4577E-2,1.5417236E-2],"categories":[],"categories_nodes":[],"categories_segments":[],"categories_sizes":[],"default_left":[0,0,0,0,0,0,0,0,0,0,0,0,0,0,0,0,0],"id":34,"left_children":[1,3,-1,11,5,7,9,-1,-1,-1,-1,13,15,-1,-1,-1,-1],"loss_changes":[4.492763E0,2.4061818E0,0E0,1.0600047E0,1.1105185E0,1.8020971E0,1.7188009E0,0E0,0E0,0E0,0E0,1.8675821E0,1.1881971E0,0E0,0E0,0E0,0E0],"parents":[2147483647,0,0,1,1,4,4,5,5,6,6,3,3,11,11,12,12],"right_children":[2,4,-1,12,6,8,10,-1,-1,-1,-1,14,16,-1,-1,-1,-1],"split_conditions":[1E0,1E0,5.0182372E-2,1.43E2,3.00708E1,3E1,5E1,-1.4611701E-3,-4.746156E-2,5.308315E-2,-1.2482655E-3,3.4E1,7.92E1,1.2811327E-2,-5.4330863E-2,-3.4577E-2,1.5417236E-2],"split_indices":[9,1,0,0,6,3,6,0,0,0,0,3,6,0,0,0,0],"split_type":[0,0,0,0,0,0,0,0,0,0,0,0,0,0,0,0,0],"sum_hessian":[1.910404E2,1.8138937E2,9.651024E0,1.0205438E2,7.9335E1,3.9725117E1,3.9609886E1,2.8547134E1,1.117798E1,6.033424E0,3.357646E1,1.9213356E1,8.284103E1,1.4555591E1,4.6577644E0,7.8332E1,4.509026E0],"tree_param":{"num_deleted":"0","num_feature":"10","num_nodes":"17","size_leaf_vector":"1"}},{"base_weights":[1.3136308E-1,1.6761918E-1,-5.0182372E-2,2.6842448E-1,3.621882E-2,1.5252492E-1,-8.130918E-2,1.4611736E-3,4.746156E-2,-5.308315E-2,1.248268E-3,5.348117E-2,3.170439E-1,-1.2811332E-2,5.4330863E-2,3.4577E-2,-1.541724E-2],"categories":[],"categories_nodes":[],"categories_segments":[],"categories_sizes":[],"default_left":[0,0,0,0,0,0,0,0,0,0,0,0,0,0,0,0,0],"id":35,"left_children":[1,3,-1,11,5,7,9,-1,-1,-1,-1,13,15,-1,-1,-1,-1],"loss_changes":[4.4927635E0,2.4061813E0,0E0,1.0600057E0,1.1105187E0,1.8020973E0,1.7188013E0,0E0,0E0,0E0,0E0,1.8675822E0,1.1881962E0,0E0,0E0,0E0,0E0],"parents":[2147483647,0,0,1,1,4,4,5,5,6,6,3,3,11,11,12,12],"right_children":[2,4,-1,12,6,8,10,-1,-1,-1,-1,14,16,-1,-1,-1,-1],"split_conditions":[1E0,1E0,-5.0182372E-2,1.43E2,3.00708E1,3E1,5E1,1.4611736E-3,4.746156E-2,-5.308315E-2,1.248268E-3,3.4E1,7.92E1,-1.2811332E-2,5.4330863E-2,3.4577E-2,-1.541724E-2],"split_indices":[9,1,0,0,6,3,6,0,0,0,0,3,6,0,0,0,0],"split_type":[0,0,0,0,0,0,0,0,0,0,0,0,0,0,0,0,0],"sum_hessian":[1.910404E2,1.8138937E2,9.651026E0,1.02054375E2,7.933501E1,3.9725117E1,3.9609886E1,2.8547136E1,1.1177981E1,6.033424E0,3.357646E1,1.9213354E1,8.284102E1,1.4555591E1,4.6577644E0,7.833199E1,4.509026E0],"tree_param":{"num_deleted":"0","num_feature":"10","num_nodes":"17","size_leaf_vector":"1"}},{"base_weights":[-1.213435E-1,-1.5466784E-1,4.932237E-2,-3.1002557E-1,-7.267918E-2,-2.5396641E-2,-5.5823833E-2,3.4016464E-2,-7.607033E-3,5.074377E-2,-3.916525E-1,-3.631885E-2,5.041151E-2,-7.428795E-3,-4.2844515E-2],"categories":[],"categories_nodes":[],"categories_segments":[],"categories_sizes":[],"default_left":[0,0,0,0,0,0,0,0,0,0,0,0,0,0,0],"id":36,"left_children":[1,3,-1,9,5,7,-1,-1,-1,11,13,-1,-1,-1,-1],"loss_changes":[3.9206457E0,2.2551851E0,0E0,1.8299184E0,2.703051E0,2.0431657E0,0E0,0E0,0E0,2.477521E0,5.54791E-1,0E0,0E0,0E0,0E0],"parents":[2147483647,0,0,1,1,4,4,5,5,3,3,9,9,10,10],"right_children":[2,4,-1,10,6,8,-1,-1,-1,12,14,-1,-1,-1,-1],"split_conditions":[1E0,1.34167E1,4.932237E-2,7.25E0,3E0,1.575E1,-5.5823833E-2,3.4016464E-2,-7.607033E-3,7.225E0,1.8E1,-3.631885E-2,5.041151E-2,-7.428795E-3,-4.2844515E-2],"split_indices":[9,6,0,6,4,6,0,0,0,6,3,0,0,0,0],"split_type":[0,0,0,0,0,0,0,0,0,0,0,0,0,0,0],"sum_hessian":[1.8671252E2,1.778188E2,8.893727E0,6.046474E1,1.17354065E2,1.0789939E2,9.454669E0,1.2440496E1,9.54589E1,1.1226212E1,4.923853E1,5.972333E0,5.253879E0,5.4289384E0,4.380959E1],"tree_param":{"num_deleted":"0","num_feature":"10","num_nodes":"15","size_leaf_vector":"1"}},{"base_weights":[1.2134346E-1,1.546678E-1,-4.932237E-2,3.1002554E-1,7.267913E-2,2.5396595E-2,5.5823833E-2,-3.4016464E-2,7.607028E-3,-5.074374E-2,3.9165246E-1,3.631885E-2,-5.041152E-2,7.428804E-3,4.2844515E-2],"categories":[],"categories_nodes":[],"categories_segments":[],"categories_sizes":[],"default_left":[0,0,0,0,0,0,0,0,0,0,0,0,0,0,0],"id":37,"left_children":[1,3,-1,9,5,7,-1,-1,-1,11,13,-1,-1,-1,-1],"loss_changes":[3.920646E0,2.2551856E0,0E0,1.8299174E0,2.703051E0,2.0431654E0,0E0,0E0,0E0,2.4775214E0,5.54791E-1,0E0,0E0,0E0,0E0],"parents":[2147483647,0,0,1,1,4,4,5,5,3,3,9,9,10,10],"right_children":[2,4,-1,10,6,8,-1,-1,-1,12,14,-1,-1,-1,-1],"split_conditions":[1E0,1.34167E1,-4.932237E-2,7.25E0,3E0,1.575E1,5.5823833E-2,-3.4016464E-2,7.607028E-3,7.225E0,1.8E1,3.631885E-2,-5.041152E-2,7.428804E-3,4.2844515E-2],"split_indices":[9,6,0,6,4,6,0,0,0,6,3,0,0,0,0],"split_type":[0,0,0,0,0,0,0,0,0,0,0,0,0,0,0],"sum_hessian":[1.8671252E2,1.778188E2,8.893727E0,6.0464737E1,1.1735406E2,1.0789939E2,9.454668E0,1.2440496E1,9.545889E1,1.1226212E1,4.9238525E1,5.972333E0,5.2538786E0,5.428939E0,4.3809586E1],"tree_param":{"num_deleted":"0","num_feature":"10","num_nodes":"15","size_leaf_vector":"1"}},{"base_weights":[-1.1267682E-1,-1.4353065E-1,4.8492953E-2,-2.941145E-1,-6.440017E-2,5.7598907E-1,-9.977667E-2,-5.600256E-3,-5.434228E-2,4.9723666E-2,-3.6903656E-1,-3.4762595E-2,4.9049813E-2,1.5735319E-2,-4.087259E-2,8.44964E-2,7.307493E-3],"categories":[],"categories_nodes":[],"categories_segments":[],"categories_sizes":[],"default_left":[0,0,0,0,0,0,0,0,0,0,0,0,0,0,0,0,0],"id":38,"left_children":[1,3,-1,9,5,15,7,-1,-1,11,13,-1,-1,-1,-1,-1,-1],"loss_changes":[3.4369524E0,2.059554E0,0E0,1.5590386E0,2.6769311E0,7.770262E-1,2.114038E0,0E0,0E0,2.198921E0,1.0927348E0,0E0,0E0,0E0,0E0,0E0,0E0],"parents":[2147483647,0,0,1,1,4,4,6,6,3,3,9,9,10,10,5,5],"right_children":[2,4,-1,10,6,16,8,-1,-1,12,14,-1,-1,-1,-1,-1,-1],"split_conditions":[1E0,1.37917E1,4.8492953E-2,7.25E0,1.45E1,2.8E1,3E0,-5.600256E-3,-5.434228E-2,7.225E0,1.3E1,-3.4762595E-2,4.9049813E-2,1.5735319E-2,-4.087259E-2,8.44964E-2,7.307493E-3],"split_indices":[9,6,0,6,6,3,4,0,0,6,3,0,0,0,0,0,0],"split_type":[0,0,0,0,0,0,0,0,0,0,0,0,0,0,0,0,0],"sum_hessian":[1.8162657E2,1.7343227E2,8.194314E0,5.8806927E1,1.14625336E2,5.200664E0,1.0942467E2,1.00622574E2,8.802094E0,1.05815525E1,4.8225376E1,5.676041E0,4.905511E0,3.1733549E0,4.505202E1,2.945291E0,2.255373E0],"tree_param":{"num_deleted":"0","num_feature":"10","num_nodes":"17","size_leaf_vector":"1"}},{"base_weights":[1.1267683E-1,1.4353065E-1,-4.849295E-2,2.941145E-1,6.440018E-2,-5.75989E-1,9.977668E-2,5.6002564E-3,5.434228E-2,-4.9723655E-2,3.6903653E-1,3.4762595E-2,-4.9049813E-2,-1.5735319E-2,4.087259E-2,-8.4496394E-2,-7.307486E-3],"categories":[],"categories_nodes":[],"categories_segments":[],"categories_sizes":[],"default_left":[0,0,0,0,0,0,0,0,0,0,0,0,0,0,0,0,0],"id":39,"left_children":[1,3,-1,9,5,15,7,-1,-1,11,13,-1,-1,-1,-1,-1,-1],"loss_changes":[3.4369502E0,2.0595534E0,0E0,1.5590396E0,2.6769311E0,7.770264E-1,2.1140385E0,0E0,0E0,2.1989212E0,1.0927339E0,0E0,0E0,0E0,0E0,0E0,0E0],"parents":[2147483647,0,0,1,1,4,4,6,6,3,3,9,9,10,10,5,5],"right_children":[2,4,-1,10,6,16,8,-1,-1,12,14,-1,-1,-1,-1,-1,-1],"split_conditions":[1E0,1.37917E1,-4.849295E-2,7.25E0,1.45E1,2.8E1,3E0,5.6002564E-3,5.434228E-2,7.225E0,1.3E1,3.4762595E-2,-4.9049813E-2,-1.5735319E-2,4.087259E-2,-8.4496394E-2,-7.307486E-3],"split_indices":[9,6,0,6,6,3,4,0,0,6,3,0,0,0,0,0,0],"split_type":[0,0,0,0,0,0,0,0,0,0,0,0,0,0,0,0,0],"sum_hessian":[1.8162657E2,1.7343227E2,8.194309E0,5.8806923E1,1.14625336E2,5.2006645E0,1.09424675E2,1.00622574E2,8.802095E0,1.05815525E1,4.822537E1,5.6760416E0,4.9055114E0,3.1733549E0,4.5052013E1,2.9452913E0,2.2553732E0],"tree_param":{"num_deleted":"0","num_feature":"10","num_nodes":"17","size_leaf_vector":"1"}},{"base_weights":[-1.0411896E-1,-1.3269174E-1,4.7686692E-2,-2.2955684E-1,-1.4499523E-2,-1.6284698E-1,-4.279909E-1,-3.166986E-2,2.4437066E-3,-3.5180576E-2,6.2243283E-2,4.898118E-4,-5.422886E-2,-4.631279E-2,-1.19416285E-2],"categories":[],"categories_nodes":[],"categories_segments":[],"categories_sizes":[],"default_left":[0,0,0,0,0,0,0,0,0,0,0,0,0,0,0],"id":40,"left_children":[1,3,-1,5,9,7,13,-1,-1,11,-1,-1,-1,-1,-1],"loss_changes":[3.0139875E0,1.9452395E0,0E0,1.1676373E0,1.0457653E0,2.0699148E0,1.9302034E-1,0E0,0E0,1.5519745E0,0E0,0E0,0E0,0E0,0E0],"parents":[2147483647,0,0,1,1,3,3,5,5,4,4,9,9,6,6],"right_children":[2,4,-1,6,10,8,14,-1,-1,12,-1,-1,-1,-1,-1],"split_conditions":[1E0,1E0,4.7686692E-2,3.8E1,5.123292E2,2.9699118E1,7.79583E1,-3.166986E-2,2.4437066E-3,1.5155E2,6.2243283E-2,4.898118E-4,-5.422886E-2,-4.631279E-2,-1.19416285E-2],"split_indices":[9,1,0,3,6,3,6,0,0,6,0,0,0,0,0],"split_type":[0,0,0,0,0,0,0,0,0,0,0,0,0,0,0],"sum_hessian":[1.7674954E2,1.6919992E2,7.549615E0,9.247186E1,7.672806E1,7.056865E1,2.1903212E1,3.8362946E1,3.2205708E1,7.523012E1,1.4979398E0,7.0637695E1,4.5924273E0,1.921443E1,2.688781E0],"tree_param":{"num_deleted":"0","num_feature":"10","num_nodes":"15","size_leaf_vector":"1"}},{"base_weights":[1.0411897E-1,1.3269176E-1,-4.7686692E-2,2.2955684E-1,1.4499552E-2,1.6284698E-1,4.279909E-1,3.1669863E-2,-2.4437066E-3,3.5180606E-2,-6.2243283E-2,-4.8980856E-4,5.422886E-2,4.631279E-2,1.1941629E-2],"categories":[],"categories_nodes":[],"categories_segments":[],"categories_sizes":[],"default_left":[0,0,0,0,0,0,0,0,0,0,0,0,0,0,0],"id":41,"left_children":[1,3,-1,5,9,7,13,-1,-1,11,-1,-1,-1,-1,-1],"loss_changes":[3.0139875E0,1.9452393E0,0E0,1.1676373E0,1.0457653E0,2.069915E0,1.9302034E-1,0E0,0E0,1.5519743E0,0E0,0E0,0E0,0E0,0E0],"parents":[2147483647,0,0,1,1,3,3,5,5,4,4,9,9,6,6],"right_children":[2,4,-1,6,10,8,14,-1,-1,12,-1,-1,-1,-1,-1],"split_conditions":[1E0,1E0,-4.7686692E-2,3.8E1,5.123292E2,2.9699118E1,7.79583E1,3.1669863E-2,-2.4437066E-3,1.5155E2,-6.2243283E-2,-4.8980856E-4,5.422886E-2,4.631279E-2,1.1941629E-2],"split_indices":[9,1,0,3,6,3,6,0,0,6,0,0,0,0,0],"split_type":[0,0,0,0,0,0,0,0,0,0,0,0,0,0,0],"sum_hessian":[1.7674954E2,1.6919994E2,7.549615E0,9.247186E1,7.6728065E1,7.056865E1,2.1903212E1,3.8362946E1,3.2205708E1,7.5230125E1,1.4979398E0,7.0637695E1,4.5924273E0,1.921443E1,2.6887813E0],"tree_param":{"num_deleted":"0","num_feature":"10","num_nodes":"15","size_leaf_vector":"1"}},{"base_weights":[-9.574682E-2,-1.21967405E-1,4.6897326E-2,-2.131233E-1,2.3093454E-3,9.3919896E-2,-5.420422E-2,4.4529732E-2,-4.120727E-3,-1.3089454E-1,-4.7998103E-1,-8.308409E-3,-5.4125357E-2,-5.2124184E-2,1.0017262E-2],"categories":[],"categories_nodes":[],"categories_segments":[],"categories_sizes":[],"default_left":[0,0,0,0,0,0,0,0,0,0,0,0,0,0,0],"id":42,"left_children":[1,3,-1,9,5,7,-1,-1,-1,11,13,-1,-1,-1,-1],"loss_changes":[2.643485E0,1.9003673E0,0E0,2.0603213E0,3.6389818E0,2.9829776E0,0E0,0E0,0E0,1.4331502E0,5.888066E-1,0E0,0E0,0E0,0E0],"parents":[2147483647,0,0,1,1,4,4,5,5,3,3,9,9,10,10],"right_children":[2,4,-1,10,6,8,-1,-1,-1,12,14,-1,-1,-1,-1],"split_conditions":[1E0,2.77208E1,4.6897326E-2,3.4E1,3E0,4.24E1,-5.420422E-2,4.4529732E-2,-4.120727E-3,2.415E1,8.26E2,-8.308409E-3,-5.4125357E-2,-5.2124184E-2,1.0017262E-2],"split_indices":[9,6,0,3,2,6,0,0,0,6,0,0,0,0,0],"split_type":[0,0,0,0,0,0,0,0,0,0,0,0,0,0,0],"sum_hessian":[1.7366302E2,1.6670667E2,6.956353E0,9.575575E1,7.095091E1,6.143868E1,9.512236E0,1.642711E1,4.501157E1,7.43395E1,2.1416254E1,6.765909E1,6.680415E0,2.0089054E1,1.3271992E0],"tree_param":{"num_deleted":"0","num_feature":"10","num_nodes":"15","size_leaf_vector":"1"}},{"base_weights":[9.574683E-2,1.21967405E-1,-4.6897326E-2,2.1312329E-1,-2.3093375E-3,-9.39199E-2,5.420422E-2,-4.4529732E-2,4.120727E-3,1.3089456E-1,4.79981E-1,8.30841E-3,5.4125357E-2,5.2124184E-2,-1.0017267E-2],"categories":[],"categories_nodes":[],"categories_segments":[],"categories_sizes":[],"default_left":[0,0,0,0,0,0,0,0,0,0,0,0,0,0,0],"id":43,"left_children":[1,3,-1,9,5,7,-1,-1,-1,11,13,-1,-1,-1,-1],"loss_changes":[2.6434839E0,1.900367E0,0E0,2.0603213E0,3.638982E0,2.9829776E0,0E0,0E0,0E0,1.4331505E0,5.888066E-1,0E0,0E0,0E0,0E0],"parents":[2147483647,0,0,1,1,4,4,5,5,3,3,9,9,10,10],"right_children":[2,4,-1,10,6,8,-1,-1,-1,12,14,-1,-1,-1,-1],"split_conditions":[1E0,2.77208E1,-4.6897326E-2,3.4E1,3E0,4.24E1,5.420422E-2,-4.4529732E-2,4.120727E-3,2.415E1,8.26E2,8.30841E-3,5.4125357E-2,5.2124184E-2,-1.0017267E-2],"split_indices":[9,6,0,3,2,6,0,0,0,6,0,0,0,0,0],"split_type":[0,0,0,0,0,0,0,0,0,0,0,0,0,0,0],"sum_hessian":[1.7366302E2,1.6670668E2,6.9563518E0,9.575576E1,7.095091E1,6.143868E1,9.512236E0,1.642711E1,4.501157E1,7.433951E1,2.1416252E1,6.765909E1,6.680415E0,2.0089052E1,1.3271991E0],"tree_param":{"num_deleted":"0","num_feature":"10","num_nodes":"15","size_leaf_vector":"1"}},{"base_weights":[-8.8605724E-2,-1.1275672E-1,4.6119582E-2,-2.6508772E-1,-4.1274846E-2,-2.9444348E-3,-5.151639E-2,3.255941E-2,-4.9554585E-3,8.0167286E-2,-3.4593785E-1,-3.1373758E-2,4.833369E-2,-4.392897E-3,-3.8591933E-2],"categories":[],"categories_nodes":[],"categories_segments":[],"categories_sizes":[],"default_left":[0,0,0,0,0,0,0,0,0,0,0,0,0,0,0],"id":44,"left_children":[1,3,-1,9,5,7,-1,-1,-1,11,13,-1,-1,-1,-1],"loss_changes":[2.3286848E0,1.786253E0,0E0,1.4940245E0,2.0604863E0,1.6397969E0,0E0,0E0,0E0,1.8634336E0,4.9924564E-1,0E0,0E0,0E0,0E0],"parents":[2147483647,0,0,1,1,4,4,5,5,3,3,9,9,10,10],"right_children":[2,4,-1,10,6,8,-1,-1,-1,12,14,-1,-1,-1,-1],"split_conditions":[1E0,1.34167E1,4.6119582E-2,7.25E0,3E0,1.575E1,-5.151639E-2,3.255941E-2,-4.9554585E-3,7.225E0,1.8E1,-3.1373758E-2,4.833369E-2,-4.392897E-3,-3.8591933E-2],"split_indices":[9,6,0,6,4,6,0,0,0,6,3,0,0,0,0],"split_type":[0,0,0,0,0,0,0,0,0,0,0,0,0,0,0],"sum_hessian":[1.7045941E2,1.6404822E2,6.4111924E0,5.1529068E1,1.1251916E2,1.0503004E2,7.489118E0,1.2305738E1,9.27243E1,9.778839E0,4.175023E1,5.0584517E0,4.7203875E0,5.1263046E0,3.6623924E1],"tree_param":{"num_deleted":"0","num_feature":"10","num_nodes":"15","size_leaf_vector":"1"}},{"base_weights":[8.860573E-2,1.1275674E-1,-4.6119582E-2,2.6508772E-1,4.1274864E-2,2.9444548E-3,5.151639E-2,-3.2559406E-2,4.9554603E-3,-8.016722E-2,3.4593785E-1,3.1373765E-2,-4.833369E-2,4.3928935E-3,3.8591933E-2],"categories":[],"categories_nodes":[],"categories_segments":[],"categories_sizes":[],"default_left":[0,0,0,0,0,0,0,0,0,0,0,0,0,0,0],"id":45,"left_children":[1,3,-1,9,5,7,-1,-1,-1,11,13,-1,-1,-1,-1],"loss_changes":[2.3286853E0,1.7862525E0,0E0,1.4940245E0,2.060486E0,1.639797E0,0E0,0E0,0E0,1.8634338E0,4.9924612E-1,0E0,0E0,0E0,0E0],"parents":[2147483647,0,0,1,1,4,4,5,5,3,3,9,9,10,10],"right_children":[2,4,-1,10,6,8,-1,-1,-1,12,14,-1,-1,-1,-1],"split_conditions":[1E0,1.34167E1,-4.6119582E-2,7.25E0,3E0,1.575E1,5.151639E-2,-3.2559406E-2,4.9554603E-3,7.225E0,1.8E1,3.1373765E-2,-4.833369E-2,4.3928935E-3,3.8591933E-2],"split_indices":[9,6,0,6,4,6,0,0,0,6,3,0,0,0,0],"split_type":[0,0,0,0,0,0,0,0,0,0,0,0,0,0,0],"sum_hessian":[1.7045941E2,1.6404822E2,6.411193E0,5.1529068E1,1.1251916E2,1.0503004E2,7.489117E0,1.2305738E1,9.27243E1,9.778841E0,4.1750225E1,5.058453E0,4.720388E0,5.1263046E0,3.662392E1],"tree_param":{"num_deleted":"0","num_feature":"10","num_nodes":"15","size_leaf_vector":"1"}},{"base_weights":[-8.192064E-2,-1.043134E-1,4.5349058E-2,-1.9230422E-1,1.0288024E-2,8.914107E-2,-5.3729933E-2,3.9021324E-2,-3.1528578E-3,-1.2086425E-1,-5.003922E-1,-7.1746125E-3,-5.300801E-2,-1.8194102E-2,-5.31308E-2],"categories":[],"categories_nodes":[],"categories_segments":[],"categories_sizes":[],"default_left":[0,0,0,0,0,0,0,0,0,0,0,0,0,0,0],"id":46,"left_children":[1,3,-1,9,5,7,-1,-1,-1,11,13,-1,-1,-1,-1],"loss_changes":[2.055407E0,1.631328E0,0E0,1.9523709E0,3.1190963E0,2.3022676E0,0E0,0E0,0E0,1.4806472E0,6.967735E-2,0E0,0E0,0E0,0E0],"parents":[2147483647,0,0,1,1,4,4,5,5,3,3,9,9,10,10],"right_children":[2,4,-1,10,6,8,-1,-1,-1,12,14,-1,-1,-1,-1],"split_conditions":[1E0,2.77208E1,4.5349058E-2,3.6E1,2E0,4.24E1,-5.3729933E-2,3.9021324E-2,-3.1528578E-3,2.415E1,7.2292E0,-7.1746125E-3,-5.300801E-2,-1.8194102E-2,-5.31308E-2],"split_indices":[9,6,0,3,4,6,0,0,0,6,6,0,0,0,0],"split_type":[0,0,0,0,0,0,0,0,0,0,0,0,0,0,0],"sum_hessian":[1.664906E2,1.6057976E2,5.910836E0,9.045247E1,7.01273E1,6.2031868E1,8.09543E0,1.7109568E1,4.49223E1,7.455648E1,1.5895982E1,6.761588E1,6.9406E0,2.0159152E0,1.3880066E1],"tree_param":{"num_deleted":"0","num_feature":"10","num_nodes":"15","size_leaf_vector":"1"}},{"base_weights":[8.1920624E-2,1.0431341E-1,-4.5349058E-2,1.9230422E-1,-1.0288018E-2,-8.914106E-2,5.3729933E-2,-3.9021328E-2,3.1528596E-3,1.2086424E-1,5.003922E-1,7.174612E-3,5.300801E-2,1.8194098E-2,5.3130805E-2],"categories":[],"categories_nodes":[],"categories_segments":[],"categories_sizes":[],"default_left":[0,0,0,0,0,0,0,0,0,0,0,0,0,0,0],"id":47,"left_children":[1,3,-1,9,5,7,-1,-1,-1,11,13,-1,-1,-1,-1],"loss_changes":[2.055408E0,1.6313279E0,0E0,1.9523709E0,3.1190963E0,2.3022685E0,0E0,0E0,0E0,1.4806476E0,6.9676876E-2,0E0,0E0,0E0,0E0],"parents":[2147483647,0,0,1,1,4,4,5,5,3,3,9,9,10,10],"right_children":[2,4,-1,10,6,8,-1,-1,-1,12,14,-1,-1,-1,-1],"split_conditions":[1E0,2.77208E1,-4.5349058E-2,3.6E1,2E0,4.24E1,5.3729933E-2,-3.9021328E-2,3.1528596E-3,2.415E1,7.2292E0,7.174612E-3,5.300801E-2,1.8194098E-2,5.3130805E-2],"split_indices":[9,6,0,3,4,6,0,0,0,6,6,0,0,0,0],"split_type":[0,0,0,0,0,0,0,0,0,0,0,0,0,0,0],"sum_hessian":[1.664906E2,1.6057976E2,5.9108396E0,9.045246E1,7.01273E1,6.2031868E1,8.09543E0,1.7109568E1,4.49223E1,7.455648E1,1.5895982E1,6.761588E1,6.9405994E0,2.015915E0,1.3880067E1],"tree_param":{"num_deleted":"0","num_feature":"10","num_nodes":"15","size_leaf_vector":"1"}},{"base_weights":[-7.593336E-2,-9.658774E-2,4.4582173E-2,-2.4204038E-1,-2.8792754E-2,5.440747E-1,-6.2282432E-2,-2.8909822E-3,-4.9271632E-2,-5.951046E-2,-3.840737E-1,-1.9960618E-2,3.8497467E-2,8.138887E-3,-4.9165178E-2,7.791563E-2,8.160781E-3],"categories":[],"categories_nodes":[],"categories_segments":[],"categories_sizes":[],"default_left":[0,0,0,0,0,0,0,0,0,0,0,0,0,0,0,0,0],"id":48,"left_children":[1,3,-1,9,5,15,7,-1,-1,11,13,-1,-1,-1,-1,-1,-1],"loss_changes":[1.8186328E0,1.5639887E0,0E0,1.2866981E0,2.1403818E0,6.068727E-1,1.4887528E0,0E0,0E0,1.527019E0,1.4533019E0,0E0,0E0,0E0,0E0,0E0,0E0],"parents":[2147483647,0,0,1,1,4,4,6,6,3,3,9,9,10,10,5,5],"right_children":[2,4,-1,10,6,16,8,-1,-1,12,14,-1,-1,-1,-1,-1,-1],"split_conditions":[1E0,1.37917E1,4.4582173E-2,7.925E0,1.45E1,2.8E1,3E0,-2.8909822E-3,-4.9271632E-2,7.8958E0,1.8E1,-1.9960618E-2,3.8497467E-2,8.138887E-3,-4.9165178E-2,7.791563E-2,8.160781E-3],"split_indices":[9,6,0,6,6,3,4,0,0,6,3,0,0,0,0,0,0],"split_type":[0,0,0,0,0,0,0,0,0,0,0,0,0,0,0,0,0],"sum_hessian":[1.6376288E2,1.583108E2,5.452069E0,4.951255E1,1.08798256E2,5.1669774E0,1.0363128E2,9.7165E1,6.46628E0,2.228834E1,2.7224213E1,1.73658E1,4.9225388E0,5.1565585E0,2.2067654E1,2.971645E0,2.195332E0],"tree_param":{"num_deleted":"0","num_feature":"10","num_nodes":"17","size_leaf_vector":"1"}},{"base_weights":[7.593336E-2,9.658775E-2,-4.458218E-2,2.4204041E-1,2.8792746E-2,-5.440747E-1,6.2282424E-2,2.8909815E-3,4.9271632E-2,5.951048E-2,3.8407373E-1,1.9960621E-2,-3.8497474E-2,-8.138879E-3,4.916518E-2,-7.791563E-2,-8.160781E-3],"categories":[],"categories_nodes":[],"categories_segments":[],"categories_sizes":[],"default_left":[0,0,0,0,0,0,0,0,0,0,0,0,0,0,0,0,0],"id":49,"left_children":[1,3,-1,9,5,15,7,-1,-1,11,13,-1,-1,-1,-1,-1,-1],"loss_changes":[1.818634E0,1.563989E0,0E0,1.2866981E0,2.140382E0,6.0687256E-1,1.4887526E0,0E0,0E0,1.5270195E0,1.4533019E0,0E0,0E0,0E0,0E0,0E0,0E0],"parents":[2147483647,0,0,1,1,4,4,6,6,3,3,9,9,10,10,5,5],"right_children":[2,4,-1,10,6,16,8,-1,-1,12,14,-1,-1,-1,-1,-1,-1],"split_conditions":[1E0,1.37917E1,-4.458218E-2,7.925E0,1.45E1,2.8E1,3E0,2.8909815E-3,4.9271632E-2,7.8958E0,1.8E1,1.9960621E-2,-3.8497474E-2,-8.138879E-3,4.916518E-2,-7.791563E-2,-8.160781E-3],"split_indices":[9,6,0,6,6,3,4,0,0,6,3,0,0,0,0,0,0],"split_type":[0,0,0,0,0,0,0,0,0,0,0,0,0,0,0,0,0],"sum_hessian":[1.6376288E2,1.583108E2,5.452072E0,4.9512554E1,1.08798256E2,5.166977E0,1.0363128E2,9.7165E1,6.46628E0,2.228834E1,2.7224215E1,1.73658E1,4.9225388E0,5.156559E0,2.2067656E1,2.971645E0,2.195332E0],"tree_param":{"num_deleted":"0","num_feature":"10","num_nodes":"17","size_leaf_vector":"1"}},{"base_weights":[-6.944585E-2,-8.849725E-2,4.381604E-2,-1.7988847E-1,1.4794073E-2,-1.1388885E-1,-3.8564748E-1,-2.6960844E-2,6.3930103E-3,-7.1670115E-2,1.6572852E-1,2.703991E-2,-3.6893666E-2,3.8720717E-4,-4.83611E-2,-4.3413114E-2,-1.2326982E-2],"categories":[],"categories_nodes":[],"categories_segments":[],"categories_sizes":[],"default_left":[0,0,0,0,0,0,0,0,0,0,0,0,0,0,0,0,0],"id":50,"left_children":[1,3,-1,5,9,7,15,-1,-1,13,11,-1,-1,-1,-1,-1,-1],"loss_changes":[1.6063583E0,1.4853497E0,0E0,1.0887778E0,9.8617685E-1,1.8052125E0,1.9884157E-1,0E0,0E0,1.5006708E0,1.6383662E0,0E0,0E0,0E0,0E0,0E0,0E0],"parents":[2147483647,0,0,1,1,3,3,5,5,4,4,10,10,9,9,6,6],"right_children":[2,4,-1,6,10,8,16,-1,-1,14,12,-1,-1,-1,-1,-1,-1],"split_conditions":[1E0,1E0,4.381604E-2,3.8E1,5.79792E1,2.9699118E1,6.99E2,-2.6960844E-2,6.3930103E-3,5E1,2E0,2.703991E-2,-3.6893666E-2,3.8720717E-4,-4.83611E-2,-4.3413114E-2,-1.2326982E-2],"split_indices":[9,1,0,3,6,3,0,0,0,6,5,0,0,0,0,0,0],"split_type":[0,0,0,0,0,0,0,0,0,0,0,0,0,0,0,0,0],"sum_hessian":[1.610975E2,1.5606573E2,5.0317793E0,8.2409225E1,7.36565E1,6.3571445E1,1.8837784E1,3.361656E1,2.9954884E1,4.7163574E1,2.6492928E1,2.2568913E1,3.9240158E0,4.0692024E1,6.471549E0,1.5347232E1,3.4905524E0],"tree_param":{"num_deleted":"0","num_feature":"10","num_nodes":"17","size_leaf_vector":"1"}},{"base_weights":[6.944585E-2,8.8497266E-2,-4.3816045E-2,1.7988849E-1,-1.4794054E-2,1.1388887E-1,3.8564748E-1,2.6960844E-2,-6.393008E-3,7.167014E-2,-1.6572852E-1,-2.7039906E-2,3.6893666E-2,-3.872055E-4,4.8361104E-2,4.3413114E-2,1.2326985E-2],"categories":[],"categories_nodes":[],"categories_segments":[],"categories_sizes":[],"default_left":[0,0,0,0,0,0,0,0,0,0,0,0,0,0,0,0,0],"id":51,"left_children":[1,3,-1,5,9,7,15,-1,-1,13,11,-1,-1,-1,-1,-1,-1],"loss_changes":[1.6063592E0,1.4853492E0,0E0,1.0887775E0,9.86177E-1,1.8052125E0,1.9884157E-1,0E0,0E0,1.5006708E0,1.6383661E0,0E0,0E0,0E0,0E0,0E0,0E0],"parents":[2147483647,0,0,1,1,3,3,5,5,4,4,10,10,9,9,6,6],"right_children":[2,4,-1,6,10,8,16,-1,-1,14,12,-1,-1,-1,-1,-1,-1],"split_conditions":[1E0,1E0,-4.3816045E-2,3.8E1,5.79792E1,2.9699118E1,6.99E2,2.6960844E-2,-6.393008E-3,5E1,2E0,-2.7039906E-2,3.6893666E-2,-3.872055E-4,4.8361104E-2,4.3413114E-2,1.2326985E-2],"split_indices":[9,1,0,3,6,3,0,0,0,6,5,0,0,0,0,0,0],"split_type":[0,0,0,0,0,0,0,0,0,0,0,0,0,0,0,0,0],"sum_hessian":[1.6109752E2,1.5606573E2,5.031782E0,8.240923E1,7.36565E1,6.3571445E1,1.8837784E1,3.361656E1,2.9954884E1,4.7163574E1,2.6492928E1,2.2568913E1,3.9240158E0,4.0692024E1,6.47155E0,1.5347232E1,3.4905522E0],"tree_param":{"num_deleted":"0","num_feature":"10","num_nodes":"17","size_leaf_vector":"1"}},{"base_weights":[-6.422486E-2,-8.183312E-2,4.3048453E-2,-2.2286831E-1,-2.0879187E-2,3.0914116E-1,-6.5279886E-2,-5.3955477E-2,-2.1503447E-3,7.0506595E-2,-4.504712E-3,1.1337694E-1,-3.0789238E-1,-2.808269E-2,4.8007973E-2,-4.0886093E-2,-1.6060937E-2],"categories":[],"categories_nodes":[],"categories_segments":[],"categories_sizes":[],"default_left":[0,0,0,0,0,0,0,0,0,0,0,0,0,0,0,0,0],"id":52,"left_children":[1,3,-1,11,5,9,7,-1,-1,-1,-1,13,15,-1,-1,-1,-1],"loss_changes":[1.4259682E0,1.3278866E0,0E0,1.3692341E0,1.6222677E0,1.8743699E0,2.0063531E0,0E0,0E0,0E0,0E0,1.6021693E0,4.923215E-1,0E0,0E0,0E0,0E0],"parents":[2147483647,0,0,1,1,4,4,6,6,5,5,3,3,11,11,12,12],"right_children":[2,4,-1,12,6,10,8,-1,-1,-1,-1,14,16,-1,-1,-1,-1],"split_conditions":[1E0,1.34167E1,4.3048453E-2,7.25E0,1.575E1,3.85E2,1.87875E1,-5.3955477E-2,-2.1503447E-3,7.0506595E-2,-4.504712E-3,7.225E0,2.85E1,-2.808269E-2,4.8007973E-2,-4.0886093E-2,-1.6060937E-2],"split_indices":[9,6,0,6,6,0,6,0,0,0,0,6,3,0,0,0,0],"split_type":[0,0,0,0,0,0,0,0,0,0,0,0,0,0,0,0,0],"sum_hessian":[1.586539E2,1.540069E2,4.647004E0,4.567281E1,1.0833408E2,1.2139725E1,9.619436E1,7.1716213E0,8.9022736E1,5.264367E0,6.8753576E0,9.150763E0,3.6522045E1,4.522876E0,4.627887E0,2.061417E1,1.5907875E1],"tree_param":{"num_deleted":"0","num_feature":"10","num_nodes":"17","size_leaf_vector":"1"}},{"base_weights":[6.422488E-2,8.183312E-2,-4.304844E-2,2.2286834E-1,2.0879168E-2,-3.0914116E-1,6.5279864E-2,5.3955477E-2,2.1503433E-3,-7.0506595E-2,4.5047123E-3,-1.1337695E-1,3.0789244E-1,2.808269E-2,-4.8007976E-2,4.0886097E-2,1.6060939E-2],"categories":[],"categories_nodes":[],"categories_segments":[],"categories_sizes":[],"default_left":[0,0,0,0,0,0,0,0,0,0,0,0,0,0,0,0,0],"id":53,"left_children":[1,3,-1,11,5,9,7,-1,-1,-1,-1,13,15,-1,-1,-1,-1],"loss_changes":[1.4259666E0,1.327887E0,0E0,1.3692346E0,1.6222675E0,1.8743699E0,2.0063531E0,0E0,0E0,0E0,0E0,1.6021693E0,4.9232173E-1,0E0,0E0,0E0,0E0],"parents":[2147483647,0,0,1,1,4,4,6,6,5,5,3,3,11,11,12,12],"right_children":[2,4,-1,12,6,10,8,-1,-1,-1,-1,14,16,-1,-1,-1,-1],"split_conditions":[1E0,1.34167E1,-4.304844E-2,7.25E0,1.575E1,3.85E2,1.87875E1,5.3955477E-2,2.1503433E-3,-7.0506595E-2,4.5047123E-3,7.225E0,2.85E1,2.808269E-2,-4.8007976E-2,4.0886097E-2,1.6060939E-2],"split_indices":[9,6,0,6,6,0,6,0,0,0,0,6,3,0,0,0,0],"split_type":[0,0,0,0,0,0,0,0,0,0,0,0,0,0,0,0,0],"sum_hessian":[1.586539E2,1.540069E2,4.6470003E0,4.5672813E1,1.0833408E2,1.2139725E1,9.619436E1,7.1716204E0,8.9022736E1,5.264367E0,6.875357E0,9.150763E0,3.652205E1,4.522876E0,4.6278872E0,2.0614174E1,1.5907876E1],"tree_param":{"num_deleted":"0","num_feature":"10","num_nodes":"17","size_leaf_vector":"1"}},{"base_weights":[-5.9038263E-2,-7.539849E-2,4.2277735E-2,-1.6263816E-1,2.0697959E-2,-9.797985E-2,-3.6601385E-1,2.0432128E-2,-1.7983114E-2,9.992643E-4,5.791827E-2,4.078281E-3,-5.0260432E-2,-4.074584E-2,-7.710567E-3],"categories":[],"categories_nodes":[],"categories_segments":[],"categories_sizes":[],"default_left":[0,0,0,0,0,0,0,0,0,0,0,0,0,0,0],"id":54,"left_children":[1,3,-1,5,9,7,13,-1,-1,11,-1,-1,-1,-1,-1],"loss_changes":[1.2664812E0,1.2804034E0,0E0,1.0155632E0,8.066186E-1,1.5717008E0,1.9515538E-1,0E0,0E0,1.4605038E0,0E0,0E0,0E0,0E0,0E0],"parents":[2147483647,0,0,1,1,3,3,5,5,4,4,9,9,6,6],"right_children":[2,4,-1,6,10,8,14,-1,-1,12,-1,-1,-1,-1,-1],"split_conditions":[1E0,1E0,4.2277735E-2,3.8E1,5.123292E2,1.43E2,7.79583E1,2.0432128E-2,-1.7983114E-2,1.5155E2,5.791827E-2,4.078281E-3,-5.0260432E-2,-4.074584E-2,-7.710567E-3],"split_indices":[9,1,0,3,6,0,6,0,0,6,0,0,0,0,0],"split_type":[0,0,0,0,0,0,0,0,0,0,0,0,0,0,0],"sum_hessian":[1.5562376E2,1.5132884E2,4.2949147E0,7.895674E1,7.23721E1,6.1034195E1,1.7922552E1,1.2685738E1,4.8348457E1,7.087404E1,1.4980572E0,6.6536804E1,4.337239E0,1.5315211E1,2.6073403E0],"tree_param":{"num_deleted":"0","num_feature":"10","num_nodes":"15","size_leaf_vector":"1"}},{"base_weights":[5.903828E-2,7.539849E-2,-4.2277724E-2,1.6263814E-1,-2.0697942E-2,9.797986E-2,3.6601385E-1,-2.0432128E-2,1.7983114E-2,-9.992488E-4,-5.791827E-2,-4.0782797E-3,5.0260432E-2,4.0745836E-2,7.7105695E-3],"categories":[],"categories_nodes":[],"categories_segments":[],"categories_sizes":[],"default_left":[0,0,0,0,0,0,0,0,0,0,0,0,0,0,0],"id":55,"left_children":[1,3,-1,5,9,7,13,-1,-1,11,-1,-1,-1,-1,-1],"loss_changes":[1.2664796E0,1.2804029E0,0E0,1.0155632E0,8.0661845E-1,1.571701E0,1.9515467E-1,0E0,0E0,1.4605038E0,0E0,0E0,0E0,0E0,0E0],"parents":[2147483647,0,0,1,1,3,3,5,5,4,4,9,9,6,6],"right_children":[2,4,-1,6,10,8,14,-1,-1,12,-1,-1,-1,-1,-1],"split_conditions":[1E0,1E0,-4.2277724E-2,3.8E1,5.123292E2,1.43E2,7.79583E1,-2.0432128E-2,1.7983114E-2,1.5155E2,-5.791827E-2,-4.0782797E-3,5.0260432E-2,4.0745836E-2,7.7105695E-3],"split_indices":[9,1,0,3,6,0,6,0,0,6,0,0,0,0,0],"split_type":[0,0,0,0,0,0,0,0,0,0,0,0,0,0,0],"sum_hessian":[1.5562376E2,1.5132884E2,4.2949104E0,7.895674E1,7.23721E1,6.1034195E1,1.792255E1,1.2685737E1,4.8348457E1,7.087405E1,1.4980574E0,6.6536804E1,4.3372393E0,1.5315209E1,2.6073403E0],"tree_param":{"num_deleted":"0","num_feature":"10","num_nodes":"15","size_leaf_vector":"1"}},{"base_weights":[-5.3840462E-2,-3.4488723E-2,-4.4093337E-2,-4.9754925E-2,5.506748E-2,-2.6412714E-2,-6.505584E-2,-5.7841777E-3,4.8567437E-2],"categories":[],"categories_nodes":[],"categories_segments":[],"categories_sizes":[],"default_left":[0,0,0,0,0,0,0,0,0],"id":56,"left_children":[1,3,-1,5,-1,7,-1,-1,-1],"loss_changes":[1.1447741E0,1.3545511E0,0E0,2.0261745E0,0E0,2.3021803E0,0E0,0E0,0E0],"parents":[2147483647,0,0,1,1,3,3,5,5],"right_children":[2,4,-1,6,-1,8,-1,-1,-1],"split_conditions":[3E0,2.27525E2,-4.4093337E-2,1.5155E2,5.506748E-2,1.06425E2,-6.505584E-2,-5.7841777E-3,4.8567437E-2],"split_indices":[4,6,0,6,0,6,0,0,0],"split_type":[0,0,0,0,0,0,0,0,0],"sum_hessian":[1.5385164E2,1.4756366E2,6.287978E0,1.4470349E2,2.8601646E0,1.4029669E2,4.4067965E0,1.3301973E2,7.2769666E0],"tree_param":{"num_deleted":"0","num_feature":"10","num_nodes":"9","size_leaf_vector":"1"}},{"base_weights":[5.3840466E-2,3.4488726E-2,4.4093337E-2,4.9754925E-2,-5.5067476E-2,2.6412712E-2,6.505584E-2,5.7841777E-3,-4.8567433E-2],"categories":[],"categories_nodes":[],"categories_segments":[],"categories_sizes":[],"default_left":[0,0,0,0,0,0,0,0,0],"id":57,"left_children":[1,3,-1,5,-1,7,-1,-1,-1],"loss_changes":[1.1447742E0,1.3545508E0,0E0,2.0261748E0,0E0,2.30218E0,0E0,0E0,0E0],"parents":[2147483647,0,0,1,1,3,3,5,5],"right_children":[2,4,-1,6,-1,8,-1,-1,-1],"split_conditions":[3E0,2.27525E2,4.4093337E-2,1.5155E2,-5.5067476E-2,1.06425E2,6.505584E-2,5.7841777E-3,-4.8567433E-2],"split_indices":[4,6,0,6,0,6,0,0,0],"split_type":[0,0,0,0,0,0,0,0,0],"sum_hessian":[1.5385162E2,1.4756364E2,6.2879786E0,1.4470349E2,2.8601646E0,1.4029669E2,4.406797E0,1.3301973E2,7.2769666E0],"tree_param":{"num_deleted":"0","num_feature":"10","num_nodes":"9","size_leaf_vector":"1"}},{"base_weights":[-4.9009517E-2,-6.435606E-2,4.1663665E-2,-1.445516E-1,3.310244E-2,1.01699896E-1,-4.989297E-2,3.8946E-2,-1.6492781E-3,-7.977414E-2,-5.33594E-2,-1.4233768E-2,3.0316377E-2],"categories":[],"categories_nodes":[],"categories_segments":[],"categories_sizes":[],"default_left":[0,0,0,0,0,0,0,0,0,0,0,0,0],"id":58,"left_children":[1,3,-1,9,5,7,-1,-1,-1,11,-1,-1,-1],"loss_changes":[1.1249812E0,1.1743135E0,0E0,2.0308712E0,2.545692E0,2.0942073E0,0E0,0E0,0E0,1.7611133E0,0E0,0E0,0E0],"parents":[2147483647,0,0,1,1,4,4,5,5,3,3,9,9],"right_children":[2,4,-1,10,6,8,-1,-1,-1,12,-1,-1,-1],"split_conditions":[1E0,2.77208E1,4.1663665E-2,2.415E1,3E0,4.24E1,-4.989297E-2,3.8946E-2,-1.6492781E-3,1.87875E1,-5.33594E-2,-1.4233768E-2,3.0316377E-2],"split_indices":[9,6,0,6,2,6,0,0,0,6,0,0,0],"split_type":[0,0,0,0,0,0,0,0,0,0,0,0,0],"sum_hessian":[1.5267459E2,1.4863765E2,4.0369377E0,8.127544E1,6.736221E1,6.0385296E1,6.9769197E0,1.6912884E1,4.3472412E1,7.070737E1,1.056807E1,6.131772E1,9.389649E0],"tree_param":{"num_deleted":"0","num_feature":"10","num_nodes":"13","size_leaf_vector":"1"}},{"base_weights":[4.9009528E-2,6.4356074E-2,-4.1663665E-2,1.4455162E-1,-3.3102438E-2,-1.0169989E-1,4.989297E-2,-3.8946E-2,1.6492794E-3,7.9774156E-2,5.33594E-2,1.423377E-2,-3.0316383E-2],"categories":[],"categories_nodes":[],"categories_segments":[],"categories_sizes":[],"default_left":[0,0,0,0,0,0,0,0,0,0,0,0,0],"id":59,"left_children":[1,3,-1,9,5,7,-1,-1,-1,11,-1,-1,-1],"loss_changes":[1.1249809E0,1.1743138E0,0E0,2.0308712E0,2.5456915E0,2.0942068E0,0E0,0E0,0E0,1.7611133E0,0E0,0E0,0E0],"parents":[2147483647,0,0,1,1,4,4,5,5,3,3,9,9],"right_children":[2,4,-1,10,6,8,-1,-1,-1,12,-1,-1,-1],"split_conditions":[1E0,2.77208E1,-4.1663665E-2,2.415E1,3E0,4.24E1,4.989297E-2,-3.8946E-2,1.6492794E-3,1.87875E1,5.33594E-2,1.423377E-2,-3.0316383E-2],"split_indices":[9,6,0,6,2,6,0,0,0,6,0,0,0],"split_type":[0,0,0,0,0,0,0,0,0,0,0,0,0],"sum_hessian":[1.5267459E2,1.4863766E2,4.0369377E0,8.1275444E1,6.736221E1,6.0385296E1,6.976919E0,1.6912886E1,4.3472412E1,7.0707375E1,1.056807E1,6.1317722E1,9.389649E0],"tree_param":{"num_deleted":"0","num_feature":"10","num_nodes":"13","size_leaf_vector":"1"}},{"base_weights":[-4.500327E-2,1.4147118E-1,-8.030932E-2,2.0436365E-3,7.014031E-1,-4.914136E-2,-5.727616E-2,-7.417087E-2,4.511652E-1,-4.8896126E-3,-6.1708152E-2,1.5425414E-1,-2.853159E-1,4.0757377E-2,-4.753948E-2,2.549517E-2,-2.57162E-2,7.1662123E-4,6.1592788E-2,3.5369882E-1,9.379367E-2,5.7187336E-3,4.90766E-2],"categories":[],"categories_nodes":[],"categories_segments":[],"categories_sizes":[],"default_left":[0,0,0,0,0,0,0,0,0,0,0,0,0,0,0,0,0,0,0,0,0,0,0],"id":60,"left_children":[1,3,5,11,19,-1,7,9,17,-1,-1,15,13,-1,-1,-1,-1,-1,-1,21,-1,-1,-1],"loss_changes":[1.0112578E0,1.9143767E0,1.1870658E0,9.4723517E-1,7.037687E-2,0E0,1.0870965E0,1.6105947E0,2.944852E-1,0E0,0E0,6.517262E-1,1.181735E0,0E0,0E0,0E0,0E0,0E0,0E0,1.17632836E-1,0E0,0E0,0E0],"parents":[2147483647,0,0,1,1,2,2,6,6,7,7,3,3,12,12,11,11,8,8,4,4,19,19],"right_children":[2,4,6,12,20,-1,8,10,18,-1,-1,16,14,-1,-1,-1,-1,-1,-1,22,-1,-1,-1],"split_conditions":[1.43E2,1.23E2,1.78E2,8.1E1,1E0,-4.914136E-2,2.27525E2,1.5155E2,4.42E2,-4.8896126E-3,-6.1708152E-2,3.9E1,1.8E1,4.0757377E-2,-4.753948E-2,2.549517E-2,-2.57162E-2,7.1662123E-4,6.1592788E-2,2.6E1,9.379367E-2,5.7187336E-3,4.90766E-2],"split_indices":[0,0,0,0,4,0,6,6,0,0,0,3,3,0,0,0,0,0,0,3,0,0,0],"split_type":[0,0,0,0,0,0,0,0,0,0,0,0,0,0,0,0,0,0,0,0,0,0,0],"sum_hessian":[1.508751E2,2.3539665E1,1.2733544E2,1.9650246E1,3.889419E0,5.676904E0,1.2165854E2,1.1857268E2,3.085863E0,1.1433975E2,4.2329273E0,1.3148737E1,6.501509E0,1.1532743E0,5.348235E0,1.0868812E1,2.2799256E0,1.1176196E0,1.9682436E0,2.5849242E0,1.304495E0,1.2651976E0,1.3197265E0],"tree_param":{"num_deleted":"0","num_feature":"10","num_nodes":"23","size_leaf_vector":"1"}},{"base_weights":[4.5003287E-2,-1.4147115E-1,8.030933E-2,-2.0436037E-3,-7.014031E-1,4.914136E-2,5.7276174E-2,7.417089E-2,-4.5116523E-1,4.8896144E-3,6.170815E-2,-1.5425412E-1,2.8531593E-1,-4.075737E-2,4.7539484E-2,-2.549517E-2,2.5716204E-2,-7.166227E-4,-6.1592788E-2,-3.5369876E-1,-9.3793675E-2,-5.718731E-3,-4.9076594E-2],"categories":[],"categories_nodes":[],"categories_segments":[],"categories_sizes":[],"default_left":[0,0,0,0,0,0,0,0,0,0,0,0,0,0,0,0,0,0,0,0,0,0,0],"id":61,"left_children":[1,3,5,11,19,-1,7,9,17,-1,-1,15,13,-1,-1,-1,-1,-1,-1,21,-1,-1,-1],"loss_changes":[1.0112578E0,1.9143767E0,1.1870656E0,9.472352E-1,7.037735E-2,0E0,1.0870967E0,1.6105943E0,2.9448515E-1,0E0,0E0,6.517263E-1,1.181735E0,0E0,0E0,0E0,0E0,0E0,0E0,1.1763281E-1,0E0,0E0,0E0],"parents":[2147483647,0,0,1,1,2,2,6,6,7,7,3,3,12,12,11,11,8,8,4,4,19,19],"right_children":[2,4,6,12,20,-1,8,10,18,-1,-1,16,14,-1,-1,-1,-1,-1,-1,22,-1,-1,-1],"split_conditions":[1.43E2,1.23E2,1.78E2,8.1E1,1E0,4.914136E-2,2.27525E2,1.5155E2,4.42E2,4.8896144E-3,6.170815E-2,3.9E1,1.8E1,-4.075737E-2,4.7539484E-2,-2.549517E-2,2.5716204E-2,-7.166227E-4,-6.1592788E-2,2.6E1,-9.3793675E-2,-5.718731E-3,-4.9076594E-2],"split_indices":[0,0,0,0,4,0,6,6,0,0,0,3,3,0,0,0,0,0,0,3,0,0,0],"split_type":[0,0,0,0,0,0,0,0,0,0,0,0,0,0,0,0,0,0,0,0,0,0,0],"sum_hessian":[1.508751E2,2.3539665E1,1.2733544E2,1.9650248E1,3.889419E0,5.6769047E0,1.2165854E2,1.1857267E2,3.0858634E0,1.14339745E2,4.232927E0,1.3148737E1,6.5015097E0,1.1532743E0,5.348235E0,1.0868812E1,2.2799258E0,1.1176196E0,1.9682436E0,2.5849245E0,1.3044949E0,1.2651978E0,1.3197266E0],"tree_param":{"num_deleted":"0","num_feature":"10","num_nodes":"23","size_leaf_vector":"1"}},{"base_weights":[-4.040419E-2,-5.4706182E-2,4.0963545E-2,-3.6210507E-2,-4.647651E-2,-1.23964205E-1,7.3210016E-2,-6.2758075E-3,-5.2093387E-2,5.1749554E-2,2.4695669E-3],"categories":[],"categories_nodes":[],"categories_segments":[],"categories_sizes":[],"default_left":[0,0,0,0,0,0,0,0,0,0,0],"id":62,"left_children":[1,3,-1,5,-1,7,9,-1,-1,-1,-1],"loss_changes":[9.9359196E-1,1.0989928E0,0E0,1.3711969E0,0E0,1.8890536E0,1.3615867E0,0E0,0E0,0E0,0E0],"parents":[2147483647,0,0,1,1,3,3,5,5,6,6],"right_children":[2,4,-1,6,-1,8,10,-1,-1,-1,-1],"split_conditions":[1E0,3E0,4.0963545E-2,2.77208E1,-4.647651E-2,2.415E1,3E1,-6.2758075E-3,-5.2093387E-2,5.1749554E-2,2.4695669E-3],"split_indices":[9,4,0,6,0,6,6,0,0,0,0],"split_type":[0,0,0,0,0,0,0,0,0,0,0],"sum_hessian":[1.4988757E2,1.4612233E2,3.7652395E0,1.4085728E2,5.265051E0,7.8094055E1,6.276323E1,6.866512E1,9.428928E0,5.227145E0,5.7536083E1],"tree_param":{"num_deleted":"0","num_feature":"10","num_nodes":"11","size_leaf_vector":"1"}},{"base_weights":[4.040418E-2,5.4706182E-2,-4.0963557E-2,3.6210503E-2,4.647651E-2,1.2396419E-1,-7.3210016E-2,6.2758066E-3,5.2093387E-2,-5.1749546E-2,-2.4695664E-3],"categories":[],"categories_nodes":[],"categories_segments":[],"categories_sizes":[],"default_left":[0,0,0,0,0,0,0,0,0,0,0],"id":63,"left_children":[1,3,-1,5,-1,7,9,-1,-1,-1,-1],"loss_changes":[9.935928E-1,1.0989932E0,0E0,1.3711966E0,0E0,1.889054E0,1.3615867E0,0E0,0E0,0E0,0E0],"parents":[2147483647,0,0,1,1,3,3,5,5,6,6],"right_children":[2,4,-1,6,-1,8,10,-1,-1,-1,-1],"split_conditions":[1E0,3E0,-4.0963557E-2,2.77208E1,4.647651E-2,2.415E1,3E1,6.2758066E-3,5.2093387E-2,-5.1749546E-2,-2.4695664E-3],"split_indices":[9,4,0,6,0,6,6,0,0,0,0],"split_type":[0,0,0,0,0,0,0,0,0,0,0],"sum_hessian":[1.4988757E2,1.4612233E2,3.7652416E0,1.4085728E2,5.2650523E0,7.8094055E1,6.276323E1,6.866512E1,9.428928E0,5.227145E0,5.7536083E1],"tree_param":{"num_deleted":"0","num_feature":"10","num_nodes":"11","size_leaf_vector":"1"}},{"base_weights":[-3.7013274E-2,-2.0741964E-2,-4.118707E-2,1.8702562E-1,-5.890459E-2,5.2947003E-2,6.406495E-1,-7.572245E-2,4.8139807E-2,-5.2563236E-3,-5.8966745E-2,5.2569505E-2,-5.584833E-3,3.3224758E-2,8.372273E-2],"categories":[],"categories_nodes":[],"categories_segments":[],"categories_sizes":[],"default_left":[0,0,0,0,0,0,0,0,0,0,0,0,0,0,0],"id":64,"left_children":[1,3,-1,5,7,11,13,9,-1,-1,-1,-1,-1,-1,-1],"loss_changes":[9.0139693E-1,1.153036E0,0E0,1.3400218E0,1.1490474E0,9.8221695E-1,2.8811455E-2,1.3926656E0,0E0,0E0,0E0,0E0,0E0,0E0,0E0],"parents":[2147483647,0,0,1,1,3,3,4,4,7,7,5,5,6,6],"right_children":[2,4,-1,6,8,12,14,10,-1,-1,-1,-1,-1,-1,-1],"split_conditions":[3E0,1.43E2,-4.118707E-2,1.23E2,2.27525E2,1.8E1,1E0,1.5155E2,4.8139807E-2,-5.2563236E-3,-5.8966745E-2,5.2569505E-2,-5.584833E-3,3.3224758E-2,8.372273E-2],"split_indices":[4,0,0,0,6,3,4,6,0,0,0,0,0,0,0],"split_type":[0,0,0,0,0,0,0,0,0,0,0,0,0,0,0],"sum_hessian":[1.4818466E2,1.4303148E2,5.153186E0,2.1589836E1,1.21441635E2,1.7526276E1,4.063561E0,1.1860956E2,2.8320775E0,1.1455002E2,4.0595403E0,2.561937E0,1.4964339E1,2.6290789E0,1.434482E0],"tree_param":{"num_deleted":"0","num_feature":"10","num_nodes":"15","size_leaf_vector":"1"}},{"base_weights":[3.701326E-2,2.0741949E-2,4.118707E-2,-1.8702565E-1,5.8904577E-2,-5.2947037E-2,-6.4064944E-1,7.572244E-2,-4.8139807E-2,5.256322E-3,5.8966745E-2,-5.2569505E-2,5.58483E-3,-3.3224758E-2,-8.372273E-2],"categories":[],"categories_nodes":[],"categories_segments":[],"categories_sizes":[],"default_left":[0,0,0,0,0,0,0,0,0,0,0,0,0,0,0],"id":65,"left_children":[1,3,-1,5,7,11,13,9,-1,-1,-1,-1,-1,-1,-1],"loss_changes":[9.013969E-1,1.153036E0,0E0,1.3400216E0,1.1490473E0,9.82217E-1,2.8811693E-2,1.3926654E0,0E0,0E0,0E0,0E0,0E0,0E0,0E0],"parents":[2147483647,0,0,1,1,3,3,4,4,7,7,5,5,6,6],"right_children":[2,4,-1,6,8,12,14,10,-1,-1,-1,-1,-1,-1,-1],"split_conditions":[3E0,1.43E2,4.118707E-2,1.23E2,2.27525E2,1.8E1,1E0,1.5155E2,-4.8139807E-2,5.256322E-3,5.8966745E-2,-5.2569505E-2,5.58483E-3,-3.3224758E-2,-8.372273E-2],"split_indices":[4,0,0,0,6,3,4,6,0,0,0,0,0,0,0],"split_type":[0,0,0,0,0,0,0,0,0,0,0,0,0,0,0],"sum_hessian":[1.4818465E2,1.4303146E2,5.1531854E0,2.1589836E1,1.2144163E2,1.7526276E1,4.063561E0,1.1860955E2,2.8320775E0,1.1455001E2,4.0595403E0,2.561937E0,1.4964338E1,2.6290789E0,1.4344821E0],"tree_param":{"num_deleted":"0","num_feature":"10","num_nodes":"15","size_leaf_vector":"1"}},{"base_weights":[-3.291408E-2,-1.0848619E-1,4.6992984E-2,-4.440172E-2,-3.2192975E-1,-2.0094794E-1,1.1509523E-1,4.586191E-2,-8.508663E-3,-2.5579855E-2,3.2388072E-2,9.4034895E-2,-1.4505216E-1,-5.1972055E-1,2.315131E-1,5.151112E-2,-2.6163643E-2,3.8327757E-2,4.1925618E-1,-2.4966907E-3,3.320841E-2,7.473614E-2,1.5441342E-2,-3.7118483E-1,-6.891018E-2,-3.4734916E-2,2.949822E-2,-1.9061716E-2,-5.4360498E-2,-1.665994E-2,-5.9721954E-2],"categories":[],"categories_nodes":[],"categories_segments":[],"categories_sizes":[],"default_left":[0,0,0,0,0,0,0,0,0,0,0,0,0,0,0,0,0,0,0,0,0,0,0,0,0,0,0,0,0,0,0],"id":66,"left_children":[1,3,11,5,23,9,7,-1,-1,-1,-1,17,13,29,15,-1,-1,19,21,-1,-1,-1,-1,27,25,-1,-1,-1,-1,-1,-1],"loss_changes":[9.010116E-1,1.0328012E0,6.7141736E-1,1.5221059E0,1.9272125E-1,9.655099E-1,2.1276743E0,0E0,0E0,0E0,0E0,1.0544878E0,2.1970017E0,1.10851765E-1,1.2582102E0,0E0,0E0,9.6677047E-1,6.267655E-1,0E0,0E0,0E0,0E0,3.4576845E-1,5.1608324E-1,0E0,0E0,0E0,0E0,0E0,0E0],"parents":[2147483647,0,0,1,1,3,3,6,6,5,5,2,2,12,12,14,14,11,11,17,17,18,18,4,4,24,24,23,23,13,13],"right_children":[2,4,12,6,24,10,8,-1,-1,-1,-1,18,14,30,16,-1,-1,20,22,-1,-1,-1,-1,28,26,-1,-1,-1,-1,-1,-1],"split_conditions":[1E0,3.8E1,7.16E2,2.9699118E1,6.99E2,7.79583E1,3.11E2,4.586191E-2,-8.508663E-3,-2.5579855E-2,3.2388072E-2,6.33E2,7.99E2,7.41E2,3E1,5.151112E-2,-2.6163643E-2,4.05E1,6.49E2,-2.4966907E-3,3.320841E-2,7.473614E-2,1.5441342E-2,3E1,2.625E1,-3.4734916E-2,2.949822E-2,-1.9061716E-2,-5.4360498E-2,-1.665994E-2,-5.9721954E-2],"split_indices":[1,3,0,3,0,6,0,0,0,0,0,0,0,0,3,0,0,3,0,0,0,0,0,6,6,0,0,0,0,0,0],"split_type":[0,0,0,0,0,0,0,0,0,0,0,0,0,0,0,0,0,0,0,0,0,0,0,0,0,0,0,0,0,0,0],"sum_hessian":[1.4736086E2,7.555092E1,7.180994E1,5.9034405E1,1.6516514E1,2.9661633E1,2.9372774E1,1.0339157E1,1.9033617E1,2.7319082E1,2.342551E0,5.809081E1,1.37191305E1,6.6863256E0,7.0328054E0,4.4367857E0,2.5960195E0,5.054996E1,7.5408487E0,4.234174E1,8.20822E0,2.5543904E0,4.9864583E0,1.3434258E1,3.0822544E0,1.7719079E0,1.3103464E0,7.5905576E0,5.8437014E0,1.7701956E0,4.91613E0],"tree_param":{"num_deleted":"0","num_feature":"10","num_nodes":"31","size_leaf_vector":"1"}},{"base_weights":[3.2914106E-2,1.08486235E-1,-4.6992987E-2,4.4401757E-2,3.219298E-1,2.0094799E-1,-1.150952E-1,-4.586191E-2,8.508666E-3,2.5579859E-2,-3.2388072E-2,-9.40349E-2,1.4505215E-1,5.1972055E-1,-2.3151311E-1,-5.1511128E-2,2.6163647E-2,-3.832776E-2,-4.1925618E-1,2.4966905E-3,-3.320841E-2,-7.473614E-2,-1.5441343E-2,3.711849E-1,6.891018E-2,3.4734916E-2,-2.9498223E-2,1.906173E-2,5.4360498E-2,1.6659942E-2,5.9721954E-2],"categories":[],"categories_nodes":[],"categories_segments":[],"categories_sizes":[],"default_left":[0,0,0,0,0,0,0,0,0,0,0,0,0,0,0,0,0,0,0,0,0,0,0,0,0,0,0,0,0,0,0],"id":67,"left_children":[1,3,11,5,23,9,7,-1,-1,-1,-1,17,13,29,15,-1,-1,19,21,-1,-1,-1,-1,27,25,-1,-1,-1,-1,-1,-1],"loss_changes":[9.0101206E-1,1.0328015E0,6.7141736E-1,1.5221059E0,1.9272113E-1,9.655099E-1,2.1276746E0,0E0,0E0,0E0,0E0,1.0544877E0,2.1970015E0,1.10851765E-1,1.2582104E0,0E0,0E0,9.6677035E-1,6.267655E-1,0E0,0E0,0E0,0E0,3.4576833E-1,5.1608336E-1,0E0,0E0,0E0,0E0,0E0,0E0],"parents":[2147483647,0,0,1,1,3,3,6,6,5,5,2,2,12,12,14,14,11,11,17,17,18,18,4,4,24,24,23,23,13,13],"right_children":[2,4,12,6,24,10,8,-1,-1,-1,-1,18,14,30,16,-1,-1,20,22,-1,-1,-1,-1,28,26,-1,-1,-1,-1,-1,-1],"split_conditions":[1E0,3.8E1,7.16E2,2.9699118E1,6.99E2,7.79583E1,3.11E2,-4.586191E-2,8.508666E-3,2.5579859E-2,-3.2388072E-2,6.33E2,7.99E2,7.41E2,3E1,-5.1511128E-2,2.6163647E-2,4.05E1,6.49E2,2.4966905E-3,-3.320841E-2,-7.473614E-2,-1.5441343E-2,3E1,2.625E1,3.4734916E-2,-2.9498223E-2,1.906173E-2,5.4360498E-2,1.6659942E-2,5.9721954E-2],"split_indices":[1,3,0,3,0,6,0,0,0,0,0,0,0,0,3,0,0,3,0,0,0,0,0,6,6,0,0,0,0,0,0],"split_type":[0,0,0,0,0,0,0,0,0,0,0,0,0,0,0,0,0,0,0,0,0,0,0,0,0,0,0,0,0,0,0],"sum_hessian":[1.4736086E2,7.555093E1,7.180994E1,5.903441E1,1.6516516E1,2.9661634E1,2.9372772E1,1.0339157E1,1.9033615E1,2.7319084E1,2.342551E0,5.809081E1,1.37191305E1,6.6863256E0,7.0328054E0,4.4367857E0,2.5960195E0,5.0549957E1,7.5408487E0,4.234174E1,8.20822E0,2.5543904E0,4.9864583E0,1.3434261E1,3.0822544E0,1.771908E0,1.3103464E0,7.59056E0,5.8437014E0,1.7701956E0,4.91613E0],"tree_param":{"num_deleted":"0","num_feature":"10","num_nodes":"31","size_leaf_vector":"1"}},{"base_weights":[-2.9934116E-2,-4.355067E-2,4.043499E-2,-1.7412993E-1,9.417091E-3,2.0529753E-2,-3.5138112E-1,3.1357974E-1,-3.3967577E-2,-5.149145E-2,7.6590537E-4,4.5743298E-2,-3.662109E-2,-1.27476305E-2,4.4556007E-2,6.418717E-3,-4.5438714E-2],"categories":[],"categories_nodes":[],"categories_segments":[],"categories_sizes":[],"default_left":[0,0,0,0,0,0,0,0,0,0,0,0,0,0,0,0,0],"id":68,"left_children":[1,3,-1,5,7,13,15,11,9,-1,-1,-1,-1,-1,-1,-1,-1],"loss_changes":[8.882029E-1,9.951907E-1,0E0,1.4393057E0,1.3717403E0,1.3606199E0,9.614537E-1,1.4361774E0,1.8292005E0,0E0,0E0,0E0,0E0,0E0,0E0,0E0,0E0],"parents":[2147483647,0,0,1,1,3,3,4,4,8,8,7,7,5,5,6,6],"right_children":[2,4,-1,6,8,14,16,12,10,-1,-1,-1,-1,-1,-1,-1,-1],"split_conditions":[1E0,1.34167E1,4.043499E-2,7.925E0,1.575E1,7.8958E0,1.8E1,3E1,1.87875E1,-5.149145E-2,7.6590537E-4,4.5743298E-2,-3.662109E-2,-1.27476305E-2,4.4556007E-2,6.418717E-3,-4.5438714E-2],"split_indices":[9,6,0,6,6,6,3,3,6,0,0,0,0,0,0,0,0],"split_type":[0,0,0,0,0,0,0,0,0,0,0,0,0,0,0,0,0],"sum_hessian":[1.4622249E2,1.4264957E2,3.572921E0,4.0505512E1,1.0214406E2,1.9726154E1,2.0779358E1,1.1973308E1,9.017075E1,6.2770433E0,8.389371E1,1.0152082E1,1.8212252E0,1.5150466E1,4.5756893E0,4.202324E0,1.6577034E1],"tree_param":{"num_deleted":"0","num_feature":"10","num_nodes":"17","size_leaf_vector":"1"}},{"base_weights":[2.993412E-2,4.3550674E-2,-4.043499E-2,1.7412995E-1,-9.417092E-3,-2.0529808E-2,3.5138115E-1,-3.1357977E-1,3.3967577E-2,5.149145E-2,-7.65906E-4,-4.5743298E-2,3.662109E-2,1.274763E-2,-4.4556025E-2,-6.418721E-3,4.5438714E-2],"categories":[],"categories_nodes":[],"categories_segments":[],"categories_sizes":[],"default_left":[0,0,0,0,0,0,0,0,0,0,0,0,0,0,0,0,0],"id":69,"left_children":[1,3,-1,5,7,13,15,11,9,-1,-1,-1,-1,-1,-1,-1,-1],"loss_changes":[8.882028E-1,9.951909E-1,0E0,1.4393064E0,1.3717402E0,1.3606204E0,9.614537E-1,1.4361776E0,1.8292009E0,0E0,0E0,0E0,0E0,0E0,0E0,0E0,0E0],"parents":[2147483647,0,0,1,1,3,3,4,4,8,8,7,7,5,5,6,6],"right_children":[2,4,-1,6,8,14,16,12,10,-1,-1,-1,-1,-1,-1,-1,-1],"split_conditions":[1E0,1.34167E1,-4.043499E-2,7.925E0,1.575E1,7.8958E0,1.8E1,3E1,1.87875E1,5.149145E-2,-7.65906E-4,-4.5743298E-2,3.662109E-2,1.274763E-2,-4.4556025E-2,-6.418721E-3,4.5438714E-2],"split_indices":[9,6,0,6,6,6,3,3,6,0,0,0,0,0,0,0,0],"split_type":[0,0,0,0,0,0,0,0,0,0,0,0,0,0,0,0,0],"sum_hessian":[1.4622249E2,1.4264957E2,3.5729203E0,4.0505512E1,1.0214406E2,1.972615E1,2.077936E1,1.1973308E1,9.017075E1,6.277044E0,8.389371E1,1.0152082E1,1.8212252E0,1.5150463E1,4.5756884E0,4.202324E0,1.6577036E1],"tree_param":{"num_deleted":"0","num_feature":"10","num_nodes":"17","size_leaf_vector":"1"}},{"base_weights":[-2.7627097E-2,-1.2160593E-2,-3.9808612E-2,1.8273088E-1,-4.8479512E-2,2.8203455E-1,-3.0570477E-1,1.2659224E-2,7.5733654E-2,-4.7859054E-2,-2.6899857E-2,-9.934452E-3,9.7094765E-3,-2.8935345E-3,-4.0006485E-2],"categories":[],"categories_nodes":[],"categories_segments":[],"categories_sizes":[],"default_left":[0,0,0,0,0,0,0,0,0,0,0,0,0,0,0],"id":70,"left_children":[1,3,-1,5,9,7,13,-1,-1,-1,11,-1,-1,-1,-1],"loss_changes":[8.288999E-1,1.0048525E0,0E0,1.1684737E0,1.0953451E0,1.3125486E0,9.941253E-2,0E0,0E0,0E0,1.0404539E0,0E0,0E0,0E0,0E0],"parents":[2147483647,0,0,1,1,3,3,5,5,4,4,10,10,6,6],"right_children":[2,4,-1,6,10,8,14,-1,-1,-1,12,-1,-1,-1,-1],"split_conditions":[3E0,1.43E2,-3.9808612E-2,3.9E1,1.78E2,1.23E2,1E0,1.2659224E-2,7.5733654E-2,-4.7859054E-2,3.70042E1,-9.934452E-3,9.7094765E-3,-2.8935345E-3,-4.0006485E-2],"split_indices":[4,0,0,3,0,0,7,0,0,0,6,0,0,0,0],"split_type":[0,0,0,0,0,0,0,0,0,0,0,0,0,0,0],"sum_hessian":[1.44512E2,1.3971191E2,4.8000865E0,2.131294E1,1.18398964E2,1.8063112E1,3.2498283E0,1.4565851E1,3.4972618E0,4.6447673E0,1.13754196E2,7.1928375E1,4.182582E1,1.1584892E0,2.0913389E0],"tree_param":{"num_deleted":"0","num_feature":"10","num_nodes":"15","size_leaf_vector":"1"}},{"base_weights":[2.7627096E-2,1.216059E-2,3.980861E-2,-1.8273093E-1,4.8479516E-2,-2.8203458E-1,3.057047E-1,-1.2659227E-2,-7.5733654E-2,4.7859054E-2,2.689986E-2,9.934454E-3,-9.709479E-3,2.8935296E-3,4.0006485E-2],"categories":[],"categories_nodes":[],"categories_segments":[],"categories_sizes":[],"default_left":[0,0,0,0,0,0,0,0,0,0,0,0,0,0,0],"id":71,"left_children":[1,3,-1,5,9,7,13,-1,-1,-1,11,-1,-1,-1,-1],"loss_changes":[8.289E-1,1.0048529E0,0E0,1.1684737E0,1.0953453E0,1.3125489E0,9.941247E-2,0E0,0E0,0E0,1.0404543E0,0E0,0E0,0E0,0E0],"parents":[2147483647,0,0,1,1,3,3,5,5,4,4,10,10,6,6],"right_children":[2,4,-1,6,10,8,14,-1,-1,-1,12,-1,-1,-1,-1],"split_conditions":[3E0,1.43E2,3.980861E-2,3.9E1,1.78E2,1.23E2,1E0,-1.2659227E-2,-7.5733654E-2,4.7859054E-2,3.70042E1,9.934454E-3,-9.709479E-3,2.8935296E-3,4.0006485E-2],"split_indices":[4,0,0,3,0,0,7,0,0,0,6,0,0,0,0],"split_type":[0,0,0,0,0,0,0,0,0,0,0,0,0,0,0],"sum_hessian":[1.44512E2,1.397119E2,4.8000875E0,2.131294E1,1.18398964E2,1.8063112E1,3.249828E0,1.456585E1,3.4972618E0,4.6447673E0,1.13754196E2,7.1928375E1,4.182582E1,1.1584891E0,2.091339E0],"tree_param":{"num_deleted":"0","num_feature":"10","num_nodes":"15","size_leaf_vector":"1"}},{"base_weights":[-2.5476096E-2,-3.8457494E-2,3.987953E-2,-2.2980459E-2,-4.3762878E-2,-1.5280926E-1,3.2890294E-2,4.9859144E-2,2.0943733E-4,1.7189903E-2,-2.4345482E-2],"categories":[],"categories_nodes":[],"categories_segments":[],"categories_sizes":[],"default_left":[0,0,0,0,0,0,0,0,0,0,0],"id":72,"left_children":[1,3,-1,5,-1,9,7,-1,-1,-1,-1],"loss_changes":[8.123727E-1,8.6308074E-1,0E0,9.9957585E-1,0E0,1.2612468E0,1.3855324E0,0E0,0E0,0E0,0E0],"parents":[2147483647,0,0,1,1,3,3,6,6,5,5],"right_children":[2,4,-1,6,-1,10,8,-1,-1,-1,-1],"split_conditions":[1E0,3E0,3.987953E-2,1.37917E1,-4.3762878E-2,7.25E0,1.45E1,4.9859144E-2,2.0943733E-4,1.7189903E-2,-2.4345482E-2],"split_indices":[9,4,0,6,0,6,6,0,0,0,0],"split_type":[0,0,0,0,0,0,0,0,0,0,0],"sum_hessian":[1.4371475E2,1.4033043E2,3.384322E0,1.361106E2,4.2198343E0,4.042908E1,9.568151E1,4.9925866E0,9.068892E1,8.627495E0,3.1801586E1],"tree_param":{"num_deleted":"0","num_feature":"10","num_nodes":"11","size_leaf_vector":"1"}},{"base_weights":[2.5476081E-2,3.8457487E-2,-3.9879538E-2,2.2980453E-2,4.3762874E-2,1.5280925E-1,-3.2890294E-2,-4.985914E-2,-2.0943745E-4,-1.7189905E-2,2.4345482E-2],"categories":[],"categories_nodes":[],"categories_segments":[],"categories_sizes":[],"default_left":[0,0,0,0,0,0,0,0,0,0,0],"id":73,"left_children":[1,3,-1,5,-1,9,7,-1,-1,-1,-1],"loss_changes":[8.123732E-1,8.6308056E-1,0E0,9.9957556E-1,0E0,1.2612472E0,1.3855323E0,0E0,0E0,0E0,0E0],"parents":[2147483647,0,0,1,1,3,3,6,6,5,5],"right_children":[2,4,-1,6,-1,10,8,-1,-1,-1,-1],"split_conditions":[1E0,3E0,-3.9879538E-2,1.37917E1,4.3762874E-2,7.25E0,1.45E1,-4.985914E-2,-2.0943745E-4,-1.7189905E-2,2.4345482E-2],"split_indices":[9,4,0,6,0,6,6,0,0,0,0],"split_type":[0,0,0,0,0,0,0,0,0,0,0],"sum_hessian":[1.4371475E2,1.4033043E2,3.3843236E0,1.361106E2,4.219834E0,4.042908E1,9.568151E1,4.9925866E0,9.068892E1,8.627495E0,3.1801586E1],"tree_param":{"num_deleted":"0","num_feature":"10","num_nodes":"11","size_leaf_vector":"1"}},{"base_weights":[-2.3052096E-2,-3.5142347E-2,3.9088555E-2,-7.8556255E-2,9.5218025E-2,-3.2515634E-2,-5.05853E-1,-8.2725175E-3,5.429737E-2,2.03452E-1,-4.1227007E-1,-6.9981106E-3,3.0515546E-2,5.8477917E-3,-5.8902886E-2,-6.7050145E-3,-5.1209696E-2],"categories":[],"categories_nodes":[],"categories_segments":[],"categories_sizes":[],"default_left":[0,0,0,0,0,0,0,0,0,0,0,0,0,0,0,0,0],"id":74,"left_children":[1,3,-1,5,9,7,13,-1,-1,11,15,-1,-1,-1,-1,-1,-1],"loss_changes":[7.293367E-1,7.989421E-1,0E0,2.058221E0,2.0277672E0,2.8266068E0,5.127022E-1,0E0,0E0,8.5114205E-1,1.9144118E-1,0E0,0E0,0E0,0E0,0E0,0E0],"parents":[2147483647,0,0,1,1,3,3,5,5,4,4,9,9,6,6,10,10],"right_children":[2,4,-1,6,10,8,14,-1,-1,12,16,-1,-1,-1,-1,-1,-1],"split_conditions":[1E0,5.79792E1,3.9088555E-2,5E1,2E0,3.70042E1,2.6E1,-8.2725175E-3,5.429737E-2,2.71E2,1.8E1,-6.9981106E-3,3.0515546E-2,5.8477917E-3,-5.8902886E-2,-6.7050145E-3,-5.1209696E-2],"split_indices":[9,6,0,6,5,6,3,0,0,0,3,0,0,0,0,0,0],"split_type":[0,0,0,0,0,0,0,0,0,0,0,0,0,0,0,0,0],"sum_hessian":[1.4198816E2,1.388478E2,3.1403518E0,1.04457664E2,3.4390137E1,9.526869E1,9.1889715E0,8.841135E1,6.857345E0,2.8838696E1,5.5514417E0,7.903034E0,2.0935661E1,1.2185174E0,7.9704537E0,1.6201893E0,3.9312525E0],"tree_param":{"num_deleted":"0","num_feature":"10","num_nodes":"17","size_leaf_vector":"1"}},{"base_weights":[2.3052089E-2,3.5142343E-2,-3.908856E-2,7.8556255E-2,-9.521805E-2,3.2515634E-2,5.05853E-1,8.272517E-3,-5.4297365E-2,-2.0345202E-1,4.1227007E-1,6.998109E-3,-3.051555E-2,-5.8477973E-3,5.8902886E-2,6.705013E-3,5.1209696E-2],"categories":[],"categories_nodes":[],"categories_segments":[],"categories_sizes":[],"default_left":[0,0,0,0,0,0,0,0,0,0,0,0,0,0,0,0,0],"id":75,"left_children":[1,3,-1,5,9,7,13,-1,-1,11,15,-1,-1,-1,-1,-1,-1],"loss_changes":[7.2933674E-1,7.9894227E-1,0E0,2.0582209E0,2.0277672E0,2.8266065E0,5.1270247E-1,0E0,0E0,8.5114205E-1,1.9144106E-1,0E0,0E0,0E0,0E0,0E0,0E0],"parents":[2147483647,0,0,1,1,3,3,5,5,4,4,9,9,6,6,10,10],"right_children":[2,4,-1,6,10,8,14,-1,-1,12,16,-1,-1,-1,-1,-1,-1],"split_conditions":[1E0,5.79792E1,-3.908856E-2,5E1,2E0,3.70042E1,2.6E1,8.272517E-3,-5.4297365E-2,2.71E2,1.8E1,6.998109E-3,-3.051555E-2,-5.8477973E-3,5.8902886E-2,6.705013E-3,5.1209696E-2],"split_indices":[9,6,0,6,5,6,3,0,0,0,3,0,0,0,0,0,0],"split_type":[0,0,0,0,0,0,0,0,0,0,0,0,0,0,0,0,0],"sum_hessian":[1.4198814E2,1.388478E2,3.1403522E0,1.04457664E2,3.4390137E1,9.526869E1,9.1889715E0,8.841135E1,6.857345E0,2.8838694E1,5.551441E0,7.903034E0,2.093566E1,1.2185174E0,7.9704537E0,1.6201892E0,3.9312518E0],"tree_param":{"num_deleted":"0","num_feature":"10","num_nodes":"17","size_leaf_vector":"1"}},{"base_weights":[-2.116635E-2,1.383576E-1,-5.229496E-2,2.3304073E-2,5.261093E-1,-4.505594E-2,-3.2437645E-2,1.6617092E-1,-2.691361E-1,3.564697E-2,-4.542358E-2,-4.740606E-2,4.0461564E-1,-2.3058064E-3,-5.7304412E-2,2.4943057E-2,-2.0507783E-2,5.439963E-2,6.339588E-5,2.5926042E-1,7.0521E-2,6.2001514E-4,4.0193196E-2],"categories":[],"categories_nodes":[],"categories_segments":[],"categories_sizes":[],"default_left":[0,0,0,0,0,0,0,0,0,0,0,0,0,0,0,0,0,0,0,0,0,0,