{"learner":{"attributes":{},"feature_names":["PassengerId","Pclass","Age","SibSp","Parch","Fare","Sex_male","Embarked_MISSING","Embarked_Q","Embarked_S"],"feature_types":["int","int","float","int","int","float","float","float","float","float"],"gradient_booster":{"model":{"gbtree_model_param":{"num_parallel_tree":"1","num_trees":"20"},"iteration_indptr":[0,2,4,6,8,10,12,14,16,18,20],"tree_info":[0,1,0,1,0,1,0,1,0,1,0,1,0,1,0,1,0,1,0,1],"trees":[{"base_weights":[2.576E-1,-4.511628E-1,6.262136E-1,-9.1071427E-1,4.761905E-2,-3.6363637E-1,6.785714E-1,-1.2643678E-1,2.4000001E-1,-2.6000002E-1,1.6666669E-1,7.3410404E-1,2.5E-1,5.833333E-1,-7.692308E-2,-3.6842105E-1,1.6666669E-1,-3.846154E-1,8E-2,-1.5E-1,2.1818183E-1,-2.0000002E-1,1.7391305E-1,5.2E-1,-2.173913E-1,-5.294118E-1,1.5E-1,-2E-1,-2.4545455E-1,-4.1666666E-1,1.5E-1,-2.4545455E-1,-0E0,-1.4E-1,2E-1,4.7826087E-1,7.682119E-1,2.3333335E-1,4.761905E-2,-2.0000002E-1,8.8235304E-2,6.770833E-1,2.7321428E-1,2.1627907E-1,2.7272728E-1,-1.0000001E-1,4.4444445E-1,2.0769233E-1,-4.2857148E-2,-2.0769233E-1,-7.692308E-2,1.5E-1,-2.1428573E-1,-0E0,-2.7818182E-1,-1.0000001E-1,1.5E-1,1.8E-1,-1.4285715E-1,-1.8E-1,1.5E-1,1.857143E-1,-0E0],"categories":[],"categories_nodes":[],"categories_segments":[],"categories_sizes":[],"default_left":[0,0,0,0,0,0,0,0,0,0,0,0,0,0,0,0,0,0,0,0,0,0,0,0,0,0,0,0,0,0,0,0,0,0,0,0,0,0,0,0,0,0,0,0,0,0,0,0,0,0,0,0,0,0,0,0,0,0,0,0,0,0,0],"id":0,"left_children":[1,3,5,53,7,9,11,17,-1,-1,-1,35,13,19,15,25,-1,27,21,-1,-1,-1,23,61,33,31,-1,29,-1,49,-1,-1,55,-1,57,37,41,-1,39,-1,-1,43,-1,-1,45,-1,47,-1,-1,-1,51,-1,-1,-1,-1,-1,-1,-1,59,-1,-1,-1,-1],"loss_changes":[8.192615E1,2.4684084E1,1.0922989E1,8.444786E-1,6.9763546E0,5.5676765E0,4.4812164E0,2.3492131E0,0E0,0E0,0E0,1.1422348E0,2.6602564E0,2.2348485E0,2.6014392E0,1.5928792E0,0E0,1.397203E0,1.8689855E0,0E0,0E0,0E0,3.227826E0,6.438093E-1,1.2898551E0,1.2994654E0,0E0,2.483333E0,0E0,1.0705128E0,0E0,0E0,8.333334E-1,0E0,7.714286E-1,2.929607E0,1.3442688E0,0E0,2.044818E0,0E0,0E0,1.505436E0,0E0,0E0,1.2929294E0,0E0,1.4090353E0,0E0,0E0,0E0,2.7472527E0,0E0,0E0,0E0,0E0,0E0,0E0,0E0,1.3285714E0,0E0,0E0,0E0,0E0],"parents":[2147483647,0,0,1,1,2,2,4,4,5,5,6,6,12,12,14,14,7,7,13,13,18,18,22,22,15,15,17,17,27,27,25,25,24,24,11,11,35,35,38,38,36,36,41,41,44,44,46,46,29,29,50,50,3,3,32,32,34,34,58,58,23,23],"right_children":[2,4,6,54,8,10,12,18,-1,-1,-1,36,14,20,16,26,-1,28,22,-1,-1,-1,24,62,34,32,-1,30,-1,50,-1,-1,56,-1,58,38,42,-1,40,-1,-1,44,-1,-1,46,-1,48,-1,-1,-1,52,-1,-1,-1,-1,-1,-1,-1,60,-1,-1,-1,-1],"split_conditions":[1E0,3E0,7E0,3E0,2.345E1,3E0,5.25542E1,1E0,2.4000001E-1,-2.6000002E-1,1.6666669E-1,2E0,4.42E2,5.59E1,7.41E2,2E0,1.6666669E-1,1.55E1,7.7333E0,-1.5E-1,2.1818183E-1,-2.0000002E-1,1.11333E1,1E0,1.78E1,9.35E1,1.5E-1,1.35E1,-2.4545455E-1,3.72E2,1.5E-1,-2.4545455E-1,1E0,-1.4E-1,4.2E1,6.04E2,5.84E2,2.3333335E-1,6.49E2,-2.0000002E-1,8.8235304E-2,5.44E2,2.7321428E-1,2.1627907E-1,5.51E2,-1.0000001E-1,3E1,2.0769233E-1,-4.2857148E-2,-2.0769233E-1,6.85E2,1.5E-1,-2.1428573E-1,-0E0,-2.7818182E-1,-1.0000001E-1,1.5E-1,1.8E-1,3.31E2,-1.8E-1,1.5E-1,1.857143E-1,-0E0],"split_indices":[6,1,2,2,5,3,5,9,0,0,0,1,0,5,0,3,0,5,5,0,0,0,5,4,5,5,0,5,0,0,0,0,3,0,0,0,0,0,0,0,0,0,0,0,0,0,2,0,0,0,0,0,0,0,0,0,0,0,0,0,0,0,0],"split_type":[0,0,0,0,0,0,0,0,0,0,0,0,0,0,0,0,0,0,0,0,0,0,0,0,0,0,0,0,0,0,0,0,0,0,0,0,0,0,0,0,0,0,0,0,0,0,0,0,0,0,0,0,0,0,0,0,0,0,0,0,0,0,0],"sum_hessian":[3.115E2,1.065E2,2.05E2,5.5E1,5.15E1,1E1,1.95E2,4.25E1,9E0,6.5E0,3.5E0,1.72E2,2.3E1,1.1E1,1.2E1,8.5E0,3.5E0,1.85E1,2.4E1,1E0,1E1,2E0,2.2E1,1.15E1,1.05E1,7.5E0,1E0,1.4E1,4.5E0,1.1E1,3E0,4.5E0,3E0,6.5E0,4E0,2.2E1,1.5E2,1.25E1,9.5E0,2E0,7.5E0,9.5E1,5.5E1,8.5E1,1E1,2E0,8E0,5.5E0,2.5E0,5.5E0,5.5E0,3E0,2.5E0,1E0,5.4E1,2E0,1E0,1.5E0,2.5E0,1.5E0,1E0,9.5E0,2E0],"tree_param":{"num_deleted":"0","num_feature":"10","num_nodes":"63","size_leaf_vector":"1"}},{"base_weights":[-2.576E-1,4.511628E-1,-6.262136E-1,9.1071427E-1,-4.761905E-2,3.6363637E-1,-6.785714E-1,1.2643678E-1,-2.4000001E-1,2.6000002E-1,-1.6666669E-1,-7.3410404E-1,-2.5E-1,-5.833333E-1,7.692308E-2,3.6842105E-1,-1.6666669E-1,3.846154E-1,-8E-2,1.5E-1,-2.1818183E-1,2.0000002E-1,-1.7391305E-1,-5.2E-1,2.173913E-1,5.294118E-1,-1.5E-1,2E-1,2.4545455E-1,4.1666666E-1,-1.5E-1,2.4545455E-1,-0E0,1.4E-1,-2E-1,-4.7826087E-1,-7.682119E-1,-2.3333335E-1,-4.761905E-2,2.0000002E-1,-8.8235304E-2,-6.770833E-1,-2.7321428E-1,-2.1627907E-1,-2.7272728E-1,1.0000001E-1,-4.4444445E-1,-2.0769233E-1,4.2857148E-2,2.0769233E-1,7.692308E-2,-1.5E-1,2.1428573E-1,-0E0,2.7818182E-1,1.0000001E-1,-1.5E-1,-1.8E-1,1.4285715E-1,1.8E-1,-1.5E-1,-1.857143E-1,-0E0],"categories":[],"categories_nodes":[],"categories_segments":[],"categories_sizes":[],"default_left":[0,0,0,0,0,0,0,0,0,0,0,0,0,0,0,0,0,0,0,0,0,0,0,0,0,0,0,0,0,0,0,0,0,0,0,0,0,0,0,0,0,0,0,0,0,0,0,0,0,0,0,0,0,0,0,0,0,0,0,0,0,0,0],"id":1,"left_children":[1,3,5,53,7,9,11,17,-1,-1,-1,35,13,19,15,25,-1,27,21,-1,-1,-1,23,61,33,31,-1,29,-1,49,-1,-1,55,-1,57,37,41,-1,39,-1,-1,43,-1,-1,45,-1,47,-1,-1,-1,51,-1,-1,-1,-1,-1,-1,-1,59,-1,-1,-1,-1],"loss_changes":[8.192615E1,2.4684084E1,1.0922989E1,8.444786E-1,6.9763546E0,5.5676765E0,4.4812164E0,2.3492131E0,0E0,0E0,0E0,1.1422348E0,2.6602564E0,2.2348485E0,2.6014392E0,1.5928792E0,0E0,1.397203E0,1.8689855E0,0E0,0E0,0E0,3.227826E0,6.438093E-1,1.2898551E0,1.2994654E0,0E0,2.483333E0,0E0,1.0705128E0,0E0,0E0,8.333334E-1,0E0,7.714286E-1,2.929607E0,1.3442688E0,0E0,2.044818E0,0E0,0E0,1.505436E0,0E0,0E0,1.2929294E0,0E0,1.4090353E0,0E0,0E0,0E0,2.7472527E0,0E0,0E0,0E0,0E0,0E0,0E0,0E0,1.3285714E0,0E0,0E0,0E0,0E0],"parents":[2147483647,0,0,1,1,2,2,4,4,5,5,6,6,12,12,14,14,7,7,13,13,18,18,22,22,15,15,17,17,27,27,25,25,24,24,11,11,35,35,38,38,36,36,41,41,44,44,46,46,29,29,50,50,3,3,32,32,34,34,58,58,23,23],"right_children":[2,4,6,54,8,10,12,18,-1,-1,-1,36,14,20,16,26,-1,28,22,-1,-1,-1,24,62,34,32,-1,30,-1,50,-1,-1,56,-1,58,38,42,-1,40,-1,-1,44,-1,-1,46,-1,48,-1,-1,-1,52,-1,-1,-1,-1,-1,-1,-1,60,-1,-1,-1,-1],"split_conditions":[1E0,3E0,7E0,3E0,2.345E1,3E0,5.25542E1,1E0,-2.4000001E-1,2.6000002E-1,-1.6666669E-1,2E0,4.42E2,5.59E1,7.41E2,2E0,-1.6666669E-1,1.55E1,7.7333E0,1.5E-1,-2.1818183E-1,2.0000002E-1,1.11333E1,1E0,1.78E1,9.35E1,-1.5E-1,1.35E1,2.4545455E-1,3.72E2,-1.5E-1,2.4545455E-1,1E0,1.4E-1,4.2E1,6.04E2,5.84E2,-2.3333335E-1,6.49E2,2.0000002E-1,-8.8235304E-2,5.44E2,-2.7321428E-1,-2.1627907E-1,5.51E2,1.0000001E-1,3E1,-2.0769233E-1,4.2857148E-2,2.0769233E-1,6.85E2,-1.5E-1,2.1428573E-1,-0E0,2.7818182E-1,1.0000001E-1,-1.5E-1,-1.8E-1,3.31E2,1.8E-1,-1.5E-1,-1.857143E-1,-0E0],"split_indices":[6,1,2,2,5,3,5,9,0,0,0,1,0,5,0,3,0,5,5,0,0,0,5,4,5,5,0,5,0,0,0,0,3,0,0,0,0,0,0,0,0,0,0,0,0,0,2,0,0,0,0,0,0,0,0,0,0,0,0,0,0,0,0],"split_type":[0,0,0,0,0,0,0,0,0,0,0,0,0,0,0,0,0,0,0,0,0,0,0,0,0,0,0,0,0,0,0,0,0,0,0,0,0,0,0,0,0,0,0,0,0,0,0,0,0,0,0,0,0,0,0,0,0,0,0,0,0,0,0],"sum_hessian":[3.115E2,1.065E2,2.05E2,5.5E1,5.15E1,1E1,1.95E2,4.25E1,9E0,6.5E0,3.5E0,1.72E2,2.3E1,1.1E1,1.2E1,8.5E0,3.5E0,1.85E1,2.4E1,1E0,1E1,2E0,2.2E1,1.15E1,1.05E1,7.5E0,1E0,1.4E1,4.5E0,1.1E1,3E0,4.5E0,3E0,6.5E0,4E0,2.2E1,1.5E2,1.25E1,9.5E0,2E0,7.5E0,9.5E1,5.5E1,8.5E1,1E1,2E0,8E0,5.5E0,2.5E0,5.5E0,5.5E0,3E0,2.5E0,1E0,5.4E1,2E0,1E0,1.5E0,2.5E0,1.5E0,1E0,9.5E0,2E0],"tree_param":{"num_deleted":"0","num_feature":"10","num_nodes":"63","size_leaf_vector":"1"}},{"base_weights":[1.9243662E-1,-3.416016E-1,4.6875086E-1,-2.096232E-1,3.2190703E-2,-2.7899742E-1,5.083185E-1,-1.0091615E-1,1.8568408E-1,-2.053943E-1,1.3091066E-1,5.4988337E-1,1.9083165E-1,-8.618538E-2,3.6595294E-1,-3.0702554E-2,1.9576569E-1,-1.504362E-1,1.8308991E-1,1.4536235E-1,-6.3115105E-2,-5.120217E-2,-3.647469E-1,-2.7575484E-1,2.5145486E-1,1.5081511E-1,-5.2351594E-1,1.7451558E-1,-1.1166642E-1,-1.3706104E-1,-3.6208737E-3,-3.1535035E-1,1.15004376E-1,-1.029267E-1,9.3053736E-2,5.48907E-2,-1.750753E-1,-1.952374E-1,-1.2728636E-2,3.5437894E-1,5.764029E-1,1.7834377E-1,2.2645563E-2,1.8334532E-1,-1.8966405E-1,-1.2874323E-1,1.6492517E-1,5.014479E-1,2.0926833E-1,5.3439385E-1,2.0290934E-1,-8.060017E-2,3.400999E-1,1.6144285E-1,-3.372327E-2,1.0227551E-1,5.569255E-1,1.6231418E-1,-9.14562E-2,2.0406894E-1,4.5376778E-1,8.1778586E-2,1.7086409E-1],"categories":[],"categories_nodes":[],"categories_segments":[],"categories_sizes":[],"default_left":[0,0,0,0,0,0,0,0,0,0,0,0,0,0,0,0,0,0,0,0,0,0,0,0,0,0,0,0,0,0,0,0,0,0,0,0,0,0,0,0,0,0,0,0,0,0,0,0,0,0,0,0,0,0,0,0,0,0,0,0,0,0,0],"id":2,"left_children":[1,3,5,-1,7,9,11,17,-1,-1,-1,39,13,-1,15,19,-1,21,-1,-1,-1,23,25,29,27,-1,37,-1,33,-1,31,35,-1,-1,-1,-1,-1,-1,-1,41,47,-1,43,-1,45,-1,-1,49,-1,55,51,-1,53,-1,-1,57,59,-1,-1,-1,61,-1,-1],"loss_changes":[4.390054E1,1.3592711E1,5.933937E0,0E0,4.016268E0,3.3411586E0,2.353321E0,1.5753673E0,0E0,0E0,0E0,6.4699554E-1,2.038945E0,0E0,1.9917624E0,8.6390275E-1,0E0,8.359023E-1,0E0,0E0,0E0,2.0150406E0,1.9922521E0,8.319044E-1,1.5900457E0,0E0,6.521671E-1,0E0,7.796487E-1,0E0,1.0576935E0,7.550293E-1,0E0,0E0,0E0,0E0,0E0,0E0,0E0,1.7553413E0,9.4866943E-1,0E0,1.4108468E0,0E0,1.7197204E0,0E0,0E0,7.9535866E-1,0E0,7.428303E-1,7.8652793E-1,0E0,8.459667E-1,0E0,0E0,1.1109836E0,6.815529E-1,0E0,0E0,0E0,7.968645E-1,0E0,0E0],"parents":[2147483647,0,0,1,1,2,2,4,4,5,5,6,6,12,12,14,14,7,7,15,15,17,17,21,21,22,22,24,24,23,23,30,30,28,28,31,31,26,26,11,11,39,39,42,42,44,44,40,40,47,47,50,50,52,52,49,49,55,55,56,56,60,60],"right_children":[2,4,6,-1,8,10,12,18,-1,-1,-1,40,14,-1,16,20,-1,22,-1,-1,-1,24,26,30,28,-1,38,-1,34,-1,32,36,-1,-1,-1,-1,-1,-1,-1,42,48,-1,44,-1,46,-1,-1,50,-1,56,52,-1,54,-1,-1,58,60,-1,-1,-1,62,-1,-1],"split_conditions":[1E0,3E0,7E0,-2.096232E-1,2.345E1,3E0,5.25542E1,3.7E1,1.8568408E-1,-2.053943E-1,1.3091066E-1,2E0,5.79792E1,-8.618538E-2,1E0,3.77E2,1.9576569E-1,1.55E1,1.8308991E-1,1.4536235E-1,-6.3115105E-2,8.05E0,4.2E1,3.82E2,1E0,1.5081511E-1,5.61E2,1.7451558E-1,2.8E1,-1.3706104E-1,7.7417E0,6.56E2,1.15004376E-1,-1.029267E-1,9.3053736E-2,5.48907E-2,-1.750753E-1,-1.952374E-1,-1.2728636E-2,6.04E2,5.84E2,1.7834377E-1,2.59292E1,1.8334532E-1,3.675E1,-1.2874323E-1,1.6492517E-1,5.44E2,2.0926833E-1,3.8E1,5.51E2,-8.060017E-2,3E1,1.6144285E-1,-3.372327E-2,1.5E1,2.07E2,1.6231418E-1,-9.14562E-2,2.0406894E-1,2.9699118E1,8.1778586E-2,1.7086409E-1],"split_indices":[6,1,2,0,5,3,5,2,0,0,0,1,5,0,9,0,0,5,0,0,0,5,0,0,4,0,0,0,2,0,5,0,0,0,0,0,0,0,0,0,0,0,5,0,5,0,0,0,0,0,0,0,2,0,0,0,0,0,0,0,2,0,0],"split_type":[0,0,0,0,0,0,0,0,0,0,0,0,0,0,0,0,0,0,0,0,0,0,0,0,0,0,0,0,0,0,0,0,0,0,0,0,0,0,0,0,0,0,0,0,0,0,0,0,0,0,0,0,0,0,0,0,0,0,0,0,0,0,0],"sum_hessian":[2.9541986E2,1.0065179E2,1.9476808E2,5.10277E1,4.9624092E1,9.4842205E0,1.8528386E2,4.1123215E1,8.500875E0,6.07967E0,3.4045503E0,1.6318759E2,2.2096272E1,5.7519116E0,1.634436E1,7.2303615E0,9.113999E0,3.9183456E1,1.9397585E0,1.4308014E0,5.79956E0,2.7629063E1,1.1554395E1,1.5912135E1,1.1716928E1,1.4524307E0,1.0101964E1,5.8208184E0,5.8961086E0,9.146174E0,6.765961E0,3.8497794E0,2.9161818E0,3.927949E0,1.9681599E0,1.4583547E0,2.3914247E0,7.709583E0,2.3923812E0,2.1207401E1,1.4198018E2,1.1843405E1,9.3639965E0,1.9845096E0,7.379487E0,5.891105E0,1.4883822E0,9.0889725E1,5.109046E1,8.114477E1,9.744957E0,1.9801326E0,7.764825E0,5.269411E0,2.4954135E0,4.2958994E0,7.684887E1,1.9092886E0,2.3866107E0,3.245791E1,4.439096E1,1.8615564E1,2.5775396E1],"tree_param":{"num_deleted":"0","num_feature":"10","num_nodes":"63","size_leaf_vector":"1"}},{"base_weights":[-1.9243659E-1,3.4160158E-1,-4.687508E-1,2.0962319E-1,-3.219069E-2,2.7899748E-1,-5.083184E-1,1.0091616E-1,-1.8568408E-1,2.0539431E-1,-1.3091066E-1,-5.498833E-1,-1.9083165E-1,8.618539E-2,-3.6595294E-1,3.0702557E-2,-1.9576569E-1,1.5043621E-1,-1.8308991E-1,-1.4536235E-1,6.3115105E-2,5.120219E-2,3.6474687E-1,2.7575487E-1,-2.5145483E-1,-1.5081511E-1,5.2351594E-1,-1.7451558E-1,1.1166643E-1,1.3706104E-1,3.6208737E-3,3.1535035E-1,-1.15004376E-1,1.0292671E-1,-9.3053736E-2,-5.4890696E-2,1.750753E-1,1.952374E-1,1.2728636E-2,-3.5437894E-1,-5.764028E-1,-1.7834379E-1,-2.2645453E-2,-1.833453E-1,1.8966417E-1,1.2874326E-1,-1.6492516E-1,-5.0144786E-1,-2.0926832E-1,-5.343938E-1,-2.0290929E-1,8.060017E-2,-3.4009984E-1,-1.6144283E-1,3.3723276E-2,-1.02275446E-1,-5.569254E-1,-1.6231418E-1,9.145621E-2,-2.0406893E-1,-4.537677E-1,-8.177856E-2,-1.7086408E-1],"categories":[],"categories_nodes":[],"categories_segments":[],"categories_sizes":[],"default_left":[0,0,0,0,0,0,0,0,0,0,0,0,0,0,0,0,0,0,0,0,0,0,0,0,0,0,0,0,0,0,0,0,0,0,0,0,0,0,0,0,0,0,0,0,0,0,0,0,0,0,0,0,0,0,0,0,0,0,0,0,0,0,0],"id":3,"left_children":[1,3,5,-1,7,9,11,17,-1,-1,-1,39,13,-1,15,19,-1,21,-1,-1,-1,23,25,29,27,-1,37,-1,33,-1,31,35,-1,-1,-1,-1,-1,-1,-1,41,47,-1,43,-1,45,-1,-1,49,-1,55,51,-1,53,-1,-1,57,59,-1,-1,-1,61,-1,-1],"loss_changes":[4.3900536E1,1.3592705E1,5.9339333E0,0E0,4.016268E0,3.341159E0,2.353325E0,1.5753675E0,0E0,0E0,0E0,6.4699554E-1,2.038945E0,0E0,1.9917624E0,8.6390275E-1,0E0,8.359022E-1,0E0,0E0,0E0,2.0150409E0,1.9922521E0,8.3190477E-1,1.5900457E0,0E0,6.521666E-1,0E0,7.796488E-1,0E0,1.0576935E0,7.550293E-1,0E0,0E0,0E0,0E0,0E0,0E0,0E0,1.7553422E0,9.486656E-1,0E0,1.410847E0,0E0,1.7197205E0,0E0,0E0,7.9536057E-1,0E0,7.4282837E-1,7.865279E-1,0E0,8.459666E-1,0E0,0E0,1.1109836E0,6.815567E-1,0E0,0E0,0E0,7.968645E-1,0E0,0E0],"parents":[2147483647,0,0,1,1,2,2,4,4,5,5,6,6,12,12,14,14,7,7,15,15,17,17,21,21,22,22,24,24,23,23,30,30,28,28,31,31,26,26,11,11,39,39,42,42,44,44,40,40,47,47,50,50,52,52,49,49,55,55,56,56,60,60],"right_children":[2,4,6,-1,8,10,12,18,-1,-1,-1,40,14,-1,16,20,-1,22,-1,-1,-1,24,26,30,28,-1,38,-1,34,-1,32,36,-1,-1,-1,-1,-1,-1,-1,42,48,-1,44,-1,46,-1,-1,50,-1,56,52,-1,54,-1,-1,58,60,-1,-1,-1,62,-1,-1],"split_conditions":[1E0,3E0,7E0,2.0962319E-1,2.345E1,3E0,5.25542E1,3.7E1,-1.8568408E-1,2.0539431E-1,-1.3091066E-1,2E0,5.79792E1,8.618539E-2,1E0,3.77E2,-1.9576569E-1,1.55E1,-1.8308991E-1,-1.4536235E-1,6.3115105E-2,8.05E0,4.2E1,3.82E2,1E0,-1.5081511E-1,5.61E2,-1.7451558E-1,2.8E1,1.3706104E-1,7.7417E0,6.56E2,-1.15004376E-1,1.0292671E-1,-9.3053736E-2,-5.4890696E-2,1.750753E-1,1.952374E-1,1.2728636E-2,6.04E2,5.84E2,-1.7834379E-1,2.59292E1,-1.833453E-1,3.675E1,1.2874326E-1,-1.6492516E-1,5.44E2,-2.0926832E-1,3.8E1,5.51E2,8.060017E-2,3E1,-1.6144283E-1,3.3723276E-2,1.5E1,2.07E2,-1.6231418E-1,9.145621E-2,-2.0406893E-1,2.9699118E1,-8.177856E-2,-1.7086408E-1],"split_indices":[6,1,2,0,5,3,5,2,0,0,0,1,5,0,9,0,0,5,0,0,0,5,0,0,4,0,0,0,2,0,5,0,0,0,0,0,0,0,0,0,0,0,5,0,5,0,0,0,0,0,0,0,2,0,0,0,0,0,0,0,2,0,0],"split_type":[0,0,0,0,0,0,0,0,0,0,0,0,0,0,0,0,0,0,0,0,0,0,0,0,0,0,0,0,0,0,0,0,0,0,0,0,0,0,0,0,0,0,0,0,0,0,0,0,0,0,0,0,0,0,0,0,0,0,0,0,0,0,0],"sum_hessian":[2.9541986E2,1.0065179E2,1.9476808E2,5.10277E1,4.9624092E1,9.48422E0,1.8528386E2,4.1123215E1,8.500875E0,6.0796695E0,3.40455E0,1.6318759E2,2.2096272E1,5.751911E0,1.634436E1,7.2303615E0,9.113999E0,3.9183456E1,1.9397585E0,1.4308014E0,5.79956E0,2.7629063E1,1.1554395E1,1.5912135E1,1.1716928E1,1.4524307E0,1.0101964E1,5.8208184E0,5.896109E0,9.146174E0,6.765961E0,3.8497794E0,2.9161818E0,3.927949E0,1.9681599E0,1.4583547E0,2.3914247E0,7.709583E0,2.3923812E0,2.1207401E1,1.4198018E2,1.1843405E1,9.3639965E0,1.9845095E0,7.379487E0,5.8911047E0,1.4883821E0,9.0889725E1,5.109046E1,8.114477E1,9.744957E0,1.9801326E0,7.764825E0,5.269411E0,2.4954138E0,4.2958994E0,7.684887E1,1.9092886E0,2.3866107E0,3.245791E1,4.439096E1,1.8615564E1,2.5775396E1],"tree_param":{"num_deleted":"0","num_feature":"10","num_nodes":"63","size_leaf_vector":"1"}},{"base_weights":[1.5765591E-1,-2.72391E-1,3.7811607E-1,-1.7611676E-1,3.198057E-2,-1.2844568E-1,4.1840708E-1,-1.9241771E-1,1.4935574E-1,-7.220602E-2,5.129613E-1,4.7744477E-1,2.4258628E-1,1.3756922E-1,7.51227E-2,-2.640582E-1,7.616141E-2,-1.5148516E-1,1.4923817E-1,3.556854E-1,-8.9948714E-2,-1.5834072E-1,6.359515E-2,3.336031E-1,-2.5509813E-1,3.0915394E-2,4.9139938E-1,-1.2869021E-1,-1.7660798E-1,-8.347049E-2,1.0022696E-1,-1.5796073E-1,1.7962365E-1,-4.7027913E-1,1.1516326E-1,1.5807277E-1,-3.2869477E-2,-2.4806993E-1,1.2594606E-1,6.0159784E-2,-1.5459551E-1,1.481334E-1,1.9197908E-1,8.928627E-2,-1.0029363E-1,1.24710314E-1,-7.024052E-2,-2.2661608E-2,-2.20297E-1,-1.3626836E-2,1.8466486E-1,-1.2304192E-1,1.8021934E-2,-2.872359E-2,1.5376335E-1,4.2967555E-1,1.7616355E-1,5.786378E-1,1.0185336E-1,2.3549758E-1,2.0417142E-1,1.3521188E-1,-1.452515E-1],"categories":[],"categories_nodes":[],"categories_segments":[],"categories_sizes":[],"default_left":[0,0,0,0,0,0,0,0,0,0,0,0,0,0,0,0,0,0,0,0,0,0,0,0,0,0,0,0,0,0,0,0,0,0,0,0,0,0,0,0,0,0,0,0,0,0,0,0,0,0,0,0,0,0,0,0,0,0,0,0,0,0,0],"id":4,"left_children":[1,3,5,-1,9,7,11,-1,-1,15,49,25,13,-1,31,27,17,-1,19,41,21,-1,23,53,39,45,55,29,-1,-1,-1,33,35,47,-1,-1,37,51,-1,-1,-1,43,-1,-1,-1,-1,-1,-1,-1,-1,-1,-1,-1,-1,-1,57,-1,59,-1,61,-1,-1,-1],"loss_changes":[2.545823E1,8.755093E0,3.670782E0,0E0,2.4080887E0,4.7598453E0,1.5906334E0,0E0,0E0,1.1520798E0,5.176015E-1,7.452526E-1,1.5337586E0,0E0,6.5236425E-1,6.96192E-1,1.0606215E0,0E0,1.0878004E0,5.9415627E-1,7.531579E-1,0E0,8.438032E-1,4.490729E-1,6.4999104E-1,5.833462E-1,4.4714928E-1,1.0394669E0,0E0,0E0,0E0,1.6125697E0,1.3571403E0,5.508834E-1,0E0,0E0,1.2931532E0,4.6916407E-1,0E0,0E0,0E0,6.801166E-1,0E0,0E0,0E0,0E0,0E0,0E0,0E0,0E0,0E0,0E0,0E0,0E0,0E0,8.1975174E-1,0E0,7.8792E-1,0E0,1.4166281E0,0E0,0E0,0E0],"parents":[2147483647,0,0,1,1,2,2,5,5,4,4,6,6,12,12,9,9,16,16,18,18,20,20,22,22,11,11,15,15,27,27,14,14,31,31,32,32,36,36,24,24,19,19,41,41,25,25,33,33,10,10,37,37,23,23,26,26,55,55,57,57,59,59],"right_children":[2,4,6,-1,10,8,12,-1,-1,16,50,26,14,-1,32,28,18,-1,20,42,22,-1,24,54,40,46,56,30,-1,-1,-1,34,36,48,-1,-1,38,52,-1,-1,-1,44,-1,-1,-1,-1,-1,-1,-1,-1,-1,-1,-1,-1,-1,58,-1,60,-1,62,-1,-1,-1],"split_conditions":[1E0,3E0,1.3E1,-1.7611676E-1,2.345E1,3E0,2.62875E1,-1.9241771E-1,1.4935574E-1,1E0,6E0,3.8E1,4.54E2,1.3756922E-1,3.1E1,1.55E1,7.7333E0,-1.5148516E-1,1.11333E1,9.475E0,1.2525E1,-1.5834072E-1,2.9699118E1,1E0,1.39E2,1.5E1,5.84E2,1.35E1,-1.7660798E-1,-8.347049E-2,1.0022696E-1,5.2E1,5.25542E1,3E1,1.1516326E-1,1.5807277E-1,7.41E2,9.35E1,1.2594606E-1,6.0159784E-2,-1.5459551E-1,8.1125E0,1.9197908E-1,8.928627E-2,-1.0029363E-1,1.24710314E-1,-7.024052E-2,-2.2661608E-2,-2.20297E-1,-1.3626836E-2,1.8466486E-1,-1.2304192E-1,1.8021934E-2,-2.872359E-2,1.5376335E-1,2.07E2,1.7616355E-1,7.8E0,1.0185336E-1,7.775E0,2.0417142E-1,1.3521188E-1,-1.452515E-1],"split_indices":[6,1,2,0,5,3,5,0,0,9,2,0,0,0,5,5,5,0,5,5,5,0,2,3,0,0,0,5,0,0,0,2,5,2,0,0,0,5,0,0,0,5,0,0,0,0,0,0,0,0,0,0,0,0,0,0,0,5,0,5,0,0,0],"split_type":[0,0,0,0,0,0,0,0,0,0,0,0,0,0,0,0,0,0,0,0,0,0,0,0,0,0,0,0,0,0,0,0,0,0,0,0,0,0,0,0,0,0,0,0,0,0,0,0,0,0,0,0,0,0,0,0,0,0,0,0,0,0,0],"sum_hessian":[2.664371E2,9.021707E1,1.7622003E2,4.3901817E1,4.631525E1,1.2822328E1,1.633977E2,7.0358067E0,5.7865214E0,3.8767574E1,7.547675E0,1.2103923E2,4.2358475E1,1.7740396E1,2.461808E1,1.6566225E1,2.2201351E1,1.8198558E0,2.0381495E1,1.0678015E1,9.70348E0,1.886466E0,7.817014E0,4.206412E0,3.6106021E0,3.765442E0,1.1727379E2,1.2676661E1,3.8895643E0,9.882093E0,2.794567E0,7.4622912E0,1.7155788E1,4.817517E0,2.6447747E0,5.950692E0,1.1205095E1,7.9010763E0,3.3040195E0,1.3958763E0,2.214726E0,7.050775E0,3.62724E0,5.6753473E0,1.3754276E0,1.3039926E0,2.4614491E0,2.4463534E0,2.3711636E0,1.2579458E0,6.289729E0,4.9608707E0,2.9402056E0,1.374176E0,2.832236E0,7.466074E1,4.261305E1,2.6108616E1,4.8552124E1,6.737707E0,1.9370909E1,5.474387E0,1.2633201E0],"tree_param":{"num_deleted":"0","num_feature":"10","num_nodes":"63","size_leaf_vector":"1"}},{"base_weights":[-1.5765592E-1,2.72391E-1,-3.781161E-1,1.7611676E-1,-3.1980574E-2,1.2844563E-1,-4.1840708E-1,1.924177E-1,-1.4935575E-1,7.220601E-2,-5.129613E-1,-4.774448E-1,-2.425863E-1,-1.3756922E-1,-7.512273E-2,2.6405823E-1,-7.616143E-2,1.5148516E-1,-1.492382E-1,-3.5568544E-1,8.994869E-2,1.583407E-1,-6.359516E-2,-3.3360314E-1,2.5509813E-1,-3.0915413E-2,-4.913994E-1,1.2869021E-1,1.7660798E-1,8.347049E-2,-1.0022696E-1,1.5796074E-1,-1.7962371E-1,4.7027913E-1,-1.1516325E-1,-1.5807277E-1,3.286941E-2,2.4806987E-1,-1.2594607E-1,-6.0159784E-2,1.5459552E-1,-1.4813343E-1,-1.9197908E-1,-8.928628E-2,1.0029363E-1,-1.2471032E-1,7.024052E-2,2.2661602E-2,2.20297E-1,1.3626836E-2,-1.8466486E-1,1.23041905E-1,-1.8021958E-2,2.8723592E-2,-1.5376338E-1,-4.2967558E-1,-1.7616355E-1,-5.786378E-1,-1.0185338E-1,-2.3549758E-1,-2.0417142E-1,-1.3521188E-1,1.452515E-1],"categories":[],"categories_nodes":[],"categories_segments":[],"categories_sizes":[],"default_left":[0,0,0,0,0,0,0,0,0,0,0,0,0,0,0,0,0,0,0,0,0,0,0,0,0,0,0,0,0,0,0,0,0,0,0,0,0,0,0,0,0,0,0,0,0,0,0,0,0,0,0,0,0,0,0,0,0,0,0,0,0,0,0],"id":5,"left_children":[1,3,5,-1,9,7,11,-1,-1,15,49,25,13,-1,31,27,17,-1,19,41,21,-1,23,53,39,45,55,29,-1,-1,-1,33,35,47,-1,-1,37,51,-1,-1,-1,43,-1,-1,-1,-1,-1,-1,-1,-1,-1,-1,-1,-1,-1,57,-1,59,-1,61,-1,-1,-1],"loss_changes":[2.545823E1,8.755093E0,3.6707802E0,0E0,2.4080884E0,4.7598457E0,1.5906353E0,0E0,0E0,1.15208E0,5.176015E-1,7.452526E-1,1.5337584E0,0E0,6.5236455E-1,6.9619215E-1,1.0606214E0,0E0,1.0878004E0,5.9415627E-1,7.531578E-1,0E0,8.4380335E-1,4.4907302E-1,6.4999115E-1,5.8334625E-1,4.4715118E-1,1.0394669E0,0E0,0E0,0E0,1.6125695E0,1.3571398E0,5.5088377E-1,0E0,0E0,1.2931533E0,4.691642E-1,0E0,0E0,0E0,6.801167E-1,0E0,0E0,0E0,0E0,0E0,0E0,0E0,0E0,0E0,0E0,0E0,0E0,0E0,8.1974983E-1,0E0,7.8792E-1,0E0,1.4166281E0,0E0,0E0,0E0],"parents":[2147483647,0,0,1,1,2,2,5,5,4,4,6,6,12,12,9,9,16,16,18,18,20,20,22,22,11,11,15,15,27,27,14,14,31,31,32,32,36,36,24,24,19,19,41,41,25,25,33,33,10,10,37,37,23,23,26,26,55,55,57,57,59,59],"right_children":[2,4,6,-1,10,8,12,-1,-1,16,50,26,14,-1,32,28,18,-1,20,42,22,-1,24,54,40,46,56,30,-1,-1,-1,34,36,48,-1,-1,38,52,-1,-1,-1,44,-1,-1,-1,-1,-1,-1,-1,-1,-1,-1,-1,-1,-1,58,-1,60,-1,62,-1,-1,-1],"split_conditions":[1E0,3E0,1.3E1,1.7611676E-1,2.345E1,3E0,2.62875E1,1.924177E-1,-1.4935575E-1,1E0,6E0,3.8E1,4.54E2,-1.3756922E-1,3.1E1,1.55E1,7.7333E0,1.5148516E-1,1.11333E1,9.475E0,1.2525E1,1.583407E-1,2.9699118E1,1E0,1.39E2,1.5E1,5.84E2,1.35E1,1.7660798E-1,8.347049E-2,-1.0022696E-1,5.2E1,5.25542E1,3E1,-1.1516325E-1,-1.5807277E-1,7.41E2,9.35E1,-1.2594607E-1,-6.0159784E-2,1.5459552E-1,8.1125E0,-1.9197908E-1,-8.928628E-2,1.0029363E-1,-1.2471032E-1,7.024052E-2,2.2661602E-2,2.20297E-1,1.3626836E-2,-1.8466486E-1,1.23041905E-1,-1.8021958E-2,2.8723592E-2,-1.5376338E-1,2.07E2,-1.7616355E-1,7.8E0,-1.0185338E-1,7.775E0,-2.0417142E-1,-1.3521188E-1,1.452515E-1],"split_indices":[6,1,2,0,5,3,5,0,0,9,2,0,0,0,5,5,5,0,5,5,5,0,2,3,0,0,0,5,0,0,0,2,5,2,0,0,0,5,0,0,0,5,0,0,0,0,0,0,0,0,0,0,0,0,0,0,0,5,0,5,0,0,0],"split_type":[0,0,0,0,0,0,0,0,0,0,0,0,0,0,0,0,0,0,0,0,0,0,0,0,0,0,0,0,0,0,0,0,0,0,0,0,0,0,0,0,0,0,0,0,0,0,0,0,0,0,0,0,0,0,0,0,0,0,0,0,0,0,0],"sum_hessian":[2.664371E2,9.021707E1,1.7622003E2,4.3901817E1,4.631525E1,1.2822328E1,1.633977E2,7.0358067E0,5.786521E0,3.8767574E1,7.547675E0,1.2103923E2,4.2358475E1,1.7740396E1,2.4618078E1,1.6566225E1,2.2201351E1,1.8198559E0,2.0381496E1,1.0678016E1,9.70348E0,1.886466E0,7.817014E0,4.206412E0,3.6106021E0,3.765442E0,1.1727379E2,1.2676661E1,3.8895643E0,9.882093E0,2.794567E0,7.4622912E0,1.7155788E1,4.817517E0,2.6447744E0,5.950692E0,1.1205095E1,7.9010763E0,3.3040195E0,1.3958763E0,2.214726E0,7.050775E0,3.6272402E0,5.6753473E0,1.3754277E0,1.3039927E0,2.4614491E0,2.4463532E0,2.3711634E0,1.2579458E0,6.289729E0,4.9608707E0,2.9402056E0,1.374176E0,2.832236E0,7.466074E1,4.261305E1,2.6108616E1,4.8552128E1,6.737707E0,1.9370909E1,5.474387E0,1.2633201E0],"tree_param":{"num_deleted":"0","num_feature":"10","num_nodes":"63","size_leaf_vector":"1"}},{"base_weights":[1.2881903E-1,-2.262429E-1,3.089062E-1,-5.1171136E-1,2.3153743E-2,-2.0896533E-1,3.350503E-1,-6.178733E-2,1.3240947E-1,-1.5459721E-1,7.971721E-2,3.6783728E-1,1.0873894E-1,-8.126447E-2,2.6430023E-1,-4.173965E-3,1.4637005E-1,-9.886741E-2,1.390639E-1,2.1606846E-2,-1.5985379E-1,-1.9224737E-2,-2.6083648E-1,-9.8730035E-2,1.639727E-1,1.16320364E-1,-3.7372476E-1,-3.4146372E-2,-1.4799713E-1,-1.3808724E-1,1.5746054E-1,-1.1449791E-1,-2.0612562E-2,1.2993574E-1,-8.374031E-2,-1.4514989E-1,1.27971675E-2,-1.9959558E-2,1.4479858E-1,1.07663885E-1,-1.6266823E-1,-1.6570717E-1,5.8060806E-2,3.2585627E-1,4.7756866E-1,5.096901E-2,1.6265638E-1,2.0307423E-1,1.1415499E-1,1.6505094E-1,1.1404348E-1,-1.508928E-1,1.626499E-1,2.3947519E-1,-9.6456476E-2,9.9502966E-2,-2.1705122E-1,2.9469E-1,-9.7686514E-2,-5.3105384E-2,3.6273307E-1,5.4110702E-2,1.7638157E-1],"categories":[],"categories_nodes":[],"categories_segments":[],"categories_sizes":[],"default_left":[0,0,0,0,0,0,0,0,0,0,0,0,0,0,0,0,0,0,0,0,0,0,0,0,0,0,0,0,0,0,0,0,0,0,0,0,0,0,0,0,0,0,0,0,0,0,0,0,0,0,0,0,0,0,0,0,0,0,0,0,0,0,0],"id":6,"left_children":[1,3,5,19,7,9,11,17,-1,-1,-1,43,13,-1,15,-1,-1,21,-1,-1,-1,23,25,27,-1,-1,35,29,-1,31,-1,-1,33,37,-1,-1,-1,39,-1,-1,41,-1,-1,47,45,-1,-1,49,-1,-1,51,-1,53,57,55,-1,-1,59,-1,-1,61,-1,-1],"loss_changes":[1.5280452E1,5.752159E0,2.212637E0,5.0272274E-1,1.589927E0,1.3324902E0,1.0806618E0,7.751501E-1,0E0,0E0,0E0,4.5014954E-1,1.2840691E0,0E0,9.442575E-1,0E0,0E0,4.5674556E-1,0E0,0E0,0E0,1.1819999E0,1.0029985E0,5.650578E-1,0E0,0E0,5.0165164E-1,1.2750403E0,0E0,5.1414156E-1,0E0,0E0,5.5641925E-1,4.9227223E-1,0E0,0E0,0E0,4.5663145E-1,0E0,0E0,9.4514763E-1,0E0,0E0,5.821762E-1,5.8862734E-1,0E0,0E0,9.38885E-1,0E0,0E0,8.932961E-1,0E0,5.374163E-1,7.2672176E-1,2.017631E0,0E0,0E0,6.7215526E-1,0E0,0E0,5.872612E-1,0E0,0E0],"parents":[2147483647,0,0,1,1,2,2,4,4,5,5,6,6,12,12,14,14,7,7,3,3,17,17,21,21,22,22,23,23,27,27,29,29,32,32,26,26,33,33,37,37,40,40,11,11,44,44,43,43,47,47,50,50,52,52,54,54,53,53,57,57,60,60],"right_children":[2,4,6,20,8,10,12,18,-1,-1,-1,44,14,-1,16,-1,-1,22,-1,-1,-1,24,26,28,-1,-1,36,30,-1,32,-1,-1,34,38,-1,-1,-1,40,-1,-1,42,-1,-1,48,46,-1,-1,50,-1,-1,52,-1,54,58,56,-1,-1,60,-1,-1,62,-1,-1],"split_conditions":[1E0,3E0,7E0,4E0,2.345E1,3E0,5.25542E1,3.7E1,1.3240947E-1,-1.5459721E-1,7.971721E-2,6.66E2,5.79792E1,-8.126447E-2,1E0,-4.173965E-3,1.4637005E-1,1.45E1,1.390639E-1,2.1606846E-2,-1.5985379E-1,1.35E1,4.2E1,1.11333E1,1.639727E-1,1.16320364E-1,2.0575E1,9.475E0,-1.4799713E-1,2.2E2,1.5746054E-1,-1.1449791E-1,6.85E2,7.8875E0,-8.374031E-2,-1.4514989E-1,1.27971675E-2,2.77E2,1.4479858E-1,1.07663885E-1,3.82E2,-1.6570717E-1,5.8060806E-2,2.8E1,2E0,5.096901E-2,1.6265638E-1,1.17E2,1.1415499E-1,1.6505094E-1,1.33E2,-1.508928E-1,1E0,1.67E1,4.89E2,9.9502966E-2,-2.1705122E-1,7.2292E0,-9.7686514E-2,-5.3105384E-2,3.95E2,5.4110702E-2,1.7638157E-1],"split_indices":[6,1,2,2,5,3,5,2,0,0,0,0,5,0,9,0,0,5,0,0,0,5,0,5,0,0,5,5,0,0,0,0,0,5,0,0,0,0,0,0,0,0,0,2,1,0,0,0,0,0,0,0,3,5,0,0,0,5,0,0,0,0,0],"split_type":[0,0,0,0,0,0,0,0,0,0,0,0,0,0,0,0,0,0,0,0,0,0,0,0,0,0,0,0,0,0,0,0,0,0,0,0,0,0,0,0,0,0,0,0,0,0,0,0,0,0,0,0,0,0,0,0,0,0,0,0,0,0,0],"sum_hessian":[2.3688028E2,7.962817E1,1.5725212E2,3.6638557E1,4.2989613E1,7.2211075E0,1.50031E2,3.6440582E1,6.5490327E0,4.336671E0,2.8844366E0,1.3049947E2,1.9531546E1,5.4617553E0,1.406979E1,6.687129E0,7.382661E0,3.479632E1,1.6442583E0,1.1960485E0,3.544251E1,2.407632E1,1.0720001E1,2.183378E1,2.2425413E0,1.2283208E0,9.49168E0,1.9696554E1,2.1372252E0,1.7243376E1,2.4531796E0,4.8787947E0,1.236458E1,8.128434E0,4.2361455E0,7.3785114E0,2.1131692E0,6.366378E0,1.7620568E0,1.3275223E0,5.0388556E0,2.143348E0,2.8955073E0,9.725949E1,3.323997E1,6.3994474E0,2.684052E1,3.1412863E1,6.5846634E1,5.3552647E0,2.6057598E1,1.2202003E0,2.4837399E1,1.921569E1,5.6217065E0,3.6206584E0,2.001048E0,1.7941196E1,1.2744949E0,2.0598366E0,1.588136E1,9.770465E0,6.1108947E0],"tree_param":{"num_deleted":"0","num_feature":"10","num_nodes":"63","size_leaf_vector":"1"}},{"base_weights":[-1.2881906E-1,2.2624284E-1,-3.089062E-1,5.1171124E-1,-2.3153767E-2,2.0896529E-1,-3.350503E-1,6.178731E-2,-1.3240947E-1,1.5459721E-1,-7.9717234E-2,-3.6783728E-1,-1.0873896E-1,8.126445E-2,-2.6430023E-1,4.173973E-3,-1.4637007E-1,9.886739E-2,-1.390639E-1,-2.1606868E-2,1.5985374E-1,1.922473E-2,2.6083645E-1,9.873003E-2,-1.639727E-1,-1.16320364E-1,3.7372473E-1,3.414637E-2,1.4799713E-1,1.3808723E-1,-1.5746054E-1,1.1449791E-1,2.0612562E-2,-1.2993576E-1,8.3740324E-2,1.4514989E-1,-1.2797176E-2,1.9959537E-2,-1.4479858E-1,-1.0766389E-1,1.626682E-1,1.6570714E-1,-5.806081E-2,-3.2585627E-1,-4.7756863E-1,-5.0969016E-2,-1.6265637E-1,-2.0307426E-1,-1.1415499E-1,-1.6505094E-1,-1.1404353E-1,1.508928E-1,-1.6264993E-1,-2.3947522E-1,9.645643E-2,-9.950299E-2,2.1705125E-1,-2.9469004E-1,9.768649E-2,5.3105373E-2,-3.627331E-1,-5.4110724E-2,-1.7638157E-1],"categories":[],"categories_nodes":[],"categories_segments":[],"categories_sizes":[],"default_left":[0,0,0,0,0,0,0,0,0,0,0,0,0,0,0,0,0,0,0,0,0,0,0,0,0,0,0,0,0,0,0,0,0,0,0,0,0,0,0,0,0,0,0,0,0,0,0,0,0,0,0,0,0,0,0,0,0,0,0,0,0,0,0],"id":7,"left_children":[1,3,5,19,7,9,11,17,-1,-1,-1,43,13,-1,15,-1,-1,21,-1,-1,-1,23,25,27,-1,-1,35,29,-1,31,-1,-1,33,37,-1,-1,-1,39,-1,-1,41,-1,-1,47,45,-1,-1,49,-1,-1,51,-1,53,57,55,-1,-1,59,-1,-1,61,-1,-1],"loss_changes":[1.5280448E1,5.752158E0,2.212637E0,5.0272274E-1,1.5899272E0,1.3324904E0,1.0806637E0,7.7515006E-1,0E0,0E0,0E0,4.5015144E-1,1.2840688E0,0E0,9.442576E-1,0E0,0E0,4.5674545E-1,0E0,0E0,0E0,1.182E0,1.0029985E0,5.6505775E-1,0E0,0E0,5.0165164E-1,1.2750403E0,0E0,5.1414156E-1,0E0,0E0,5.564193E-1,4.9227214E-1,0E0,0E0,0E0,4.5663145E-1,0E0,0E0,9.4514763E-1,0E0,0E0,5.8217716E-1,5.886264E-1,0E0,0E0,9.3888474E-1,0E0,0E0,8.9329624E-1,0E0,5.374162E-1,7.2672176E-1,2.0176315E0,0E0,0E0,6.721554E-1,0E0,0E0,5.8726096E-1,0E0,0E0],"parents":[2147483647,0,0,1,1,2,2,4,4,5,5,6,6,12,12,14,14,7,7,3,3,17,17,21,21,22,22,23,23,27,27,29,29,32,32,26,26,33,33,37,37,40,40,11,11,44,44,43,43,47,47,50,50,52,52,54,54,53,53,57,57,60,60],"right_children":[2,4,6,20,8,10,12,18,-1,-1,-1,44,14,-1,16,-1,-1,22,-1,-1,-1,24,26,28,-1,-1,36,30,-1,32,-1,-1,34,38,-1,-1,-1,40,-1,-1,42,-1,-1,48,46,-1,-1,50,-1,-1,52,-1,54,58,56,-1,-1,60,-1,-1,62,-1,-1],"split_conditions":[1E0,3E0,7E0,4E0,2.345E1,3E0,5.25542E1,3.7E1,-1.3240947E-1,1.5459721E-1,-7.9717234E-2,6.66E2,5.79792E1,8.126445E-2,1E0,4.173973E-3,-1.4637007E-1,1.45E1,-1.390639E-1,-2.1606868E-2,1.5985374E-1,1.35E1,4.2E1,1.11333E1,-1.639727E-1,-1.16320364E-1,2.0575E1,9.475E0,1.4799713E-1,2.2E2,-1.5746054E-1,1.1449791E-1,6.85E2,7.8875E0,8.3740324E-2,1.4514989E-1,-1.2797176E-2,2.77E2,-1.4479858E-1,-1.0766389E-1,3.82E2,1.6570714E-1,-5.806081E-2,2.8E1,2E0,-5.0969016E-2,-1.6265637E-1,1.17E2,-1.1415499E-1,-1.6505094E-1,1.33E2,1.508928E-1,1E0,1.67E1,4.89E2,-9.950299E-2,2.1705125E-1,7.2292E0,9.768649E-2,5.3105373E-2,3.95E2,-5.4110724E-2,-1.7638157E-1],"split_indices":[6,1,2,2,5,3,5,2,0,0,0,0,5,0,9,0,0,5,0,0,0,5,0,5,0,0,5,5,0,0,0,0,0,5,0,0,0,0,0,0,0,0,0,2,1,0,0,0,0,0,0,0,3,5,0,0,0,5,0,0,0,0,0],"split_type":[0,0,0,0,0,0,0,0,0,0,0,0,0,0,0,0,0,0,0,0,0,0,0,0,0,0,0,0,0,0,0,0,0,0,0,0,0,0,0,0,0,0,0,0,0,0,0,0,0,0,0,0,0,0,0,0,0,0,0,0,0,0,0],"sum_hessian":[2.3688028E2,7.962817E1,1.5725212E2,3.6638554E1,4.2989613E1,7.221107E0,1.50031E2,3.6440582E1,6.549033E0,4.3366704E0,2.8844366E0,1.3049947E2,1.9531546E1,5.4617558E0,1.4069791E1,6.6871295E0,7.382661E0,3.479632E1,1.6442583E0,1.1960484E0,3.5442505E1,2.407632E1,1.0720001E1,2.183378E1,2.2425413E0,1.2283208E0,9.49168E0,1.9696554E1,2.1372252E0,1.7243376E1,2.4531796E0,4.8787947E0,1.236458E1,8.128434E0,4.236146E0,7.378511E0,2.113169E0,6.366378E0,1.7620567E0,1.3275223E0,5.0388556E0,2.143348E0,2.8955076E0,9.72595E1,3.3239964E1,6.3994474E0,2.6840517E1,3.1412865E1,6.5846634E1,5.3552647E0,2.60576E1,1.2202003E0,2.48374E1,1.9215693E1,5.621707E0,3.6206589E0,2.0010478E0,1.7941198E1,1.2744949E0,2.0598369E0,1.5881361E1,9.770467E0,6.1108947E0],"tree_param":{"num_deleted":"0","num_feature":"10","num_nodes":"63","size_leaf_vector":"1"}},{"base_weights":[1.0624502E-1,-1.843196E-1,2.4987993E-1,-4.534355E-1,2.7555896E-2,-1.8308724E-1,2.7115467E-1,-5.6316648E-2,1.5352637E-1,-1.4029069E-1,6.5970585E-2,-1.2576303E-1,6.1760508E-2,1.2585789E-1,3.1592235E-1,-1.4505169E-1,2.4761783E-1,1.4483427E-1,-4.200202E-1,-7.7784836E-1,1.1325004E-1,3.9582875E-1,7.3408205E-3,-2.8199363E-1,9.141471E-2,3.8774198E-1,2.0259258E-1,-3.507554E-1,3.1412718E-1,1.2730996E-1,7.339222E-2,-2.644378E-1,3.2985586E-1,-9.679688E-2,1.6252469E-1,-1.6842556E-1,6.3142106E-2,2.5832605E-2,-1.7216767E-1,1.4433633E-1,4.413367E-1,-3.394861E-1,1.3349332E-1,1.15804814E-1,-1.9091764E-1,-3.1438613E-1,-3.3881787E-2,-5.046896E-1,-5.6067858E-2,1.5858078E-1,-1.2683012E-1,-1.6531256E-1,1.811493E-2,-4.8528355E-2,-1.7179592E-1,1.3522714E-1,-3.0581694E-2,1.349286E-1,-4.5869023E-2,2.521202E-1,1.5167014E-1,-3.3258837E-2,1.1599595E-1],"categories":[],"categories_nodes":[],"categories_segments":[],"categories_sizes":[],"default_left":[0,0,0,0,0,0,0,0,0,0,0,0,0,0,0,0,0,0,0,0,0,0,0,0,0,0,0,0,0,0,0,0,0,0,0,0,0,0,0,0,0,0,0,0,0,0,0,0,0,0,0,0,0,0,0,0,0,0,0,0,0,0,0],"id":8,"left_children":[1,3,5,47,7,9,13,-1,11,-1,-1,-1,-1,15,25,17,21,55,19,45,-1,57,23,51,-1,39,27,37,29,-1,31,35,33,-1,-1,-1,-1,-1,-1,41,59,43,-1,-1,-1,-1,-1,53,49,-1,-1,-1,-1,-1,-1,-1,-1,-1,-1,61,-1,-1,-1],"loss_changes":[8.889777E0,4.042207E0,1.3597412E0,6.0691166E-1,1.1267054E0,9.351388E-1,8.446646E-1,0E0,8.684292E-1,0E0,0E0,0E0,0E0,1.1471584E0,7.6208115E-1,9.4375664E-1,8.3794165E-1,5.0915617E-1,1.989068E0,6.768513E-1,0E0,5.003941E-1,9.4864833E-1,5.492612E-1,0E0,7.467222E-1,2.7120042E0,7.848417E-1,9.139595E-1,0E0,1.1611322E0,9.508569E-1,1.2105125E0,0E0,0E0,0E0,0E0,0E0,0E0,1.997853E0,4.8540688E-1,1.4159762E0,0E0,0E0,0E0,0E0,0E0,5.483079E-1,1.2286186E0,0E0,0E0,0E0,0E0,0E0,0E0,0E0,0E0,0E0,0E0,7.643508E-1,0E0,0E0,0E0],"parents":[2147483647,0,0,1,1,2,2,4,4,5,5,8,8,6,6,13,13,15,15,18,18,16,16,22,22,14,14,26,26,28,28,30,30,32,32,31,31,27,27,25,25,39,39,41,41,19,19,3,3,48,48,23,23,47,47,17,17,21,21,40,40,59,59],"right_children":[2,4,6,48,8,10,14,-1,12,-1,-1,-1,-1,16,26,18,22,56,20,46,-1,58,24,52,-1,40,28,38,30,-1,32,36,34,-1,-1,-1,-1,-1,-1,42,60,44,-1,-1,-1,-1,-1,54,50,-1,-1,-1,-1,-1,-1,-1,-1,-1,-1,62,-1,-1,-1],"split_conditions":[1E0,3E0,7E0,1.5155E2,1E0,3E0,1E0,-5.6316648E-2,7.7333E0,-1.4029069E-1,6.5970585E-2,-1.2576303E-1,6.1760508E-2,2.9699118E1,3.1E1,4.24E2,5.88E2,7.7375E0,6.85E2,7.72875E1,1.1325004E-1,2E0,2E0,6.81E2,9.141471E-2,7.8E0,3.25E1,3E0,2.62875E1,1.2730996E-1,3.00708E1,5.2E1,3.9E1,-9.679688E-2,1.6252469E-1,-1.6842556E-1,6.3142106E-2,2.5832605E-2,-1.7216767E-1,2.73E2,2.1E1,2.3E1,1.3349332E-1,1.15804814E-1,-1.9091764E-1,-3.1438613E-1,-3.3881787E-2,1.8E2,1.648667E2,1.5858078E-1,-1.2683012E-1,-1.6531256E-1,1.811493E-2,-4.8528355E-2,-1.7179592E-1,1.3522714E-1,-3.0581694E-2,1.349286E-1,-4.5869023E-2,8.1125E0,1.5167014E-1,-3.3258837E-2,1.1599595E-1],"split_indices":[6,1,2,5,9,3,9,0,5,0,0,0,0,2,2,0,0,5,0,5,0,3,1,0,0,5,2,1,5,0,5,2,2,0,0,0,0,0,0,0,2,2,0,0,0,0,0,0,5,0,0,0,0,0,0,0,0,0,0,5,0,0,0],"split_type":[0,0,0,0,0,0,0,0,0,0,0,0,0,0,0,0,0,0,0,0,0,0,0,0,0,0,0,0,0,0,0,0,0,0,0,0,0,0,0,0,0,0,0,0,0,0,0,0,0,0,0,0,0,0,0,0,0,0,0,0,0,0,0],"sum_hessian":[2.1090062E2,6.967306E1,1.4122757E2,3.0188591E1,3.9484463E1,6.258266E0,1.349693E2,1.43945675E1,2.5089895E1,3.5741568E0,2.6841092E0,1.5140287E0,2.3575867E1,3.2688328E1,1.02280975E2,1.0076761E1,2.2611565E1,5.135706E0,4.9410553E0,3.4277658E0,1.5132896E0,1.3584688E1,9.026877E0,4.6015077E0,4.4253693E0,6.1123978E1,4.1156998E1,6.544327E0,3.461267E1,2.3217796E1,1.13948765E1,4.903969E0,6.490908E0,1.462989E0,5.027919E0,2.9051259E0,1.9988428E0,2.4201612E0,4.1241655E0,1.1696456E1,4.942752E1,4.4330845E0,7.263372E0,1.200205E0,3.2328794E0,2.0278919E0,1.3998742E0,2.6500385E1,3.6882062E0,1.2514156E0,2.4367907E0,2.2354078E0,2.3660998E0,4.9423804E0,2.1558004E1,1.9239702E0,3.2117357E0,1.2533177E1,1.051511E0,1.3774491E1,3.5653027E1,3.7723277E0,1.0002164E1],"tree_param":{"num_deleted":"0","num_feature":"10","num_nodes":"63","size_leaf_vector":"1"}},{"base_weights":[-1.06244974E-1,1.8431967E-1,-2.4987991E-1,4.5343557E-1,-2.7555883E-2,1.8308726E-1,-2.7115464E-1,5.631665E-2,-1.5352637E-1,1.4029069E-1,-6.597057E-2,1.2576303E-1,-6.1760504E-2,-1.2585787E-1,-3.1592235E-1,1.4505167E-1,-2.476178E-1,-1.4483427E-1,4.200202E-1,7.778483E-1,-1.1325003E-1,-3.9582872E-1,-7.3408284E-3,2.8199363E-1,-9.1414705E-2,-3.8774198E-1,-2.0259255E-1,3.5075542E-1,-3.1412715E-1,-1.2730993E-1,-7.339224E-2,2.644378E-1,-3.298559E-1,9.679687E-2,-1.6252469E-1,1.6842556E-1,-6.31421E-2,-2.5832599E-2,1.7216769E-1,-1.4433628E-1,-4.4133666E-1,3.394861E-1,-1.3349332E-1,-1.1580481E-1,1.9091764E-1,3.143861E-1,3.3881783E-2,5.046896E-1,5.6067985E-2,-1.5858075E-1,1.2683013E-1,1.6531254E-1,-1.811493E-2,4.8528392E-2,1.7179593E-1,-1.3522714E-1,3.0581692E-2,-1.3492858E-1,4.586903E-2,-2.521202E-1,-1.5167014E-1,3.325883E-2,-1.1599594E-1],"categories":[],"categories_nodes":[],"categories_segments":[],"categories_sizes":[],"default_left":[0,0,0,0,0,0,0,0,0,0,0,0,0,0,0,0,0,0,0,0,0,0,0,0,0,0,0,0,0,0,0,0,0,0,0,0,0,0,0,0,0,0,0,0,0,0,0,0,0,0,0,0,0,0,0,0,0,0,0,0,0,0,0],"id":9,"left_children":[1,3,5,47,7,9,13,-1,11,-1,-1,-1,-1,15,25,17,21,55,19,45,-1,57,23,51,-1,39,27,37,29,-1,31,35,33,-1,-1,-1,-1,-1,-1,41,59,43,-1,-1,-1,-1,-1,53,49,-1,-1,-1,-1,-1,-1,-1,-1,-1,-1,61,-1,-1,-1],"loss_changes":[8.88978E0,4.0422077E0,1.3597412E0,6.0691214E-1,1.1267054E0,9.351386E-1,8.446655E-1,0E0,8.6842906E-1,0E0,0E0,0E0,0E0,1.1471581E0,7.620802E-1,9.4375664E-1,8.379413E-1,5.091562E-1,1.9890673E0,6.768515E-1,0E0,5.0039434E-1,9.486483E-1,5.492612E-1,0E0,7.467222E-1,2.7120044E0,7.848418E-1,9.1395926E-1,0E0,1.1611326E0,9.508569E-1,1.2105124E0,0E0,0E0,0E0,0E0,0E0,0E0,1.9978529E0,4.8540592E-1,1.4159762E0,0E0,0E0,0E0,0E0,0E0,5.483074E-1,1.2286186E0,0E0,0E0,0E0,0E0,0E0,0E0,0E0,0E0,0E0,0E0,7.643505E-1,0E0,0E0,0E0],"parents":[2147483647,0,0,1,1,2,2,4,4,5,5,8,8,6,6,13,13,15,15,18,18,16,16,22,22,14,14,26,26,28,28,30,30,32,32,31,31,27,27,25,25,39,39,41,41,19,19,3,3,48,48,23,23,47,47,17,17,21,21,40,40,59,59],"right_children":[2,4,6,48,8,10,14,-1,12,-1,-1,-1,-1,16,26,18,22,56,20,46,-1,58,24,52,-1,40,28,38,30,-1,32,36,34,-1,-1,-1,-1,-1,-1,42,60,44,-1,-1,-1,-1,-1,54,50,-1,-1,-1,-1,-1,-1,-1,-1,-1,-1,62,-1,-1,-1],"split_conditions":[1E0,3E0,7E0,1.5155E2,1E0,3E0,1E0,5.631665E-2,7.7333E0,1.4029069E-1,-6.597057E-2,1.2576303E-1,-6.1760504E-2,2.9699118E1,3.1E1,4.24E2,5.88E2,7.7375E0,6.85E2,7.72875E1,-1.1325003E-1,2E0,2E0,6.81E2,-9.1414705E-2,7.8E0,3.25E1,3E0,2.62875E1,-1.2730993E-1,3.00708E1,5.2E1,3.9E1,9.679687E-2,-1.6252469E-1,1.6842556E-1,-6.31421E-2,-2.5832599E-2,1.7216769E-1,2.73E2,2.1E1,2.3E1,-1.3349332E-1,-1.1580481E-1,1.9091764E-1,3.143861E-1,3.3881783E-2,1.8E2,1.648667E2,-1.5858075E-1,1.2683013E-1,1.6531254E-1,-1.811493E-2,4.8528392E-2,1.7179593E-1,-1.3522714E-1,3.0581692E-2,-1.3492858E-1,4.586903E-2,8.1125E0,-1.5167014E-1,3.325883E-2,-1.1599594E-1],"split_indices":[6,1,2,5,9,3,9,0,5,0,0,0,0,2,2,0,0,5,0,5,0,3,1,0,0,5,2,1,5,0,5,2,2,0,0,0,0,0,0,0,2,2,0,0,0,0,0,0,5,0,0,0,0,0,0,0,0,0,0,5,0,0,0],"split_type":[0,0,0,0,0,0,0,0,0,0,0,0,0,0,0,0,0,0,0,0,0,0,0,0,0,0,0,0,0,0,0,0,0,0,0,0,0,0,0,0,0,0,0,0,0,0,0,0,0,0,0,0,0,0,0,0,0,0,0,0,0,0,0],"sum_hessian":[2.1090063E2,6.9673065E1,1.4122757E2,3.01886E1,3.9484463E1,6.2582655E0,1.349693E2,1.43945675E1,2.5089895E1,3.5741563E0,2.6841092E0,1.5140285E0,2.3575867E1,3.2688328E1,1.02280975E2,1.0076761E1,2.2611565E1,5.135706E0,4.9410553E0,3.427766E0,1.5132895E0,1.3584688E1,9.026877E0,4.6015077E0,4.4253693E0,6.1123974E1,4.1156998E1,6.544327E0,3.461267E1,2.3217796E1,1.13948765E1,4.903969E0,6.490908E0,1.4629891E0,5.0279193E0,2.9051259E0,1.9988428E0,2.4201612E0,4.124165E0,1.1696456E1,4.942752E1,4.4330845E0,7.2633715E0,1.2002051E0,3.2328796E0,2.0278919E0,1.3998742E0,2.6500393E1,3.6882074E0,1.2514158E0,2.4367914E0,2.2354078E0,2.3660998E0,4.942382E0,2.1558012E1,1.9239703E0,3.2117357E0,1.2533176E1,1.051511E0,1.3774491E1,3.5653027E1,3.772328E0,1.0002164E1],"tree_param":{"num_deleted":"0","num_feature":"10","num_nodes":"63","size_leaf_vector":"1"}},{"base_weights":[8.4071346E-2,-1.5371174E-1,2.0263205E-1,-4.057492E-1,1.6697736E-2,-1.0148109E-1,2.2634953E-1,-1.4441559E-1,9.846113E-2,-4.4867583E-2,3.5141852E-1,1.9371638E-1,4.039381E-1,2.0950475E-1,-9.805987E-2,1.7338996E-1,1.2326246E-1,-1.4802387E-1,1.1986317E-1,3.4762093E-1,1.6079666E-1,3.194301E-1,9.025885E-2,-1.8470608E-1,1.3684987E-1,2.7487548E-2,1.5312883E-1,8.713019E-2,-1.3999137E-1,-1.2643304E-1,2.163719E-1,-2.3202365E-2,3.0528623E-1,-2.5244778E-1,1.5114143E-1,-5.560966E-2,1.1841882E-1,-1.5904486E-1,1.3370155E-1,1.13357E-1,-4.1875012E-2,-8.523443E-2,6.115416E-2,2.2845998E-2,4.340437E-1,-5.8519404E-2,1.5435788E-1,-1.437536E-1,1.1306505E-1,-4.603089E-1,-4.3414656E-2,-1.19069844E-1,1.2082848E-1,-1.2960894E-1,-1.6159725E-1,-4.546095E-2,1.4517847E-1,1.4515567E-1,-1.2043423E-1,-8.866671E-2,1.3189714E-1,-2.2467684E-2,1.16297565E-1],"categories":[],"categories_nodes":[],"categories_segments":[],"categories_sizes":[],"default_left":[0,0,0,0,0,0,0,0,0,0,0,0,0,0,0,0,0,0,0,0,0,0,0,0,0,0,0,0,0,0,0,0,0,0,0,0,0,0,0,0,0,0,0,0,0,0,0,0,0,0,0,0,0,0,0,0,0,0,0,0,0,0,0],"id":10,"left_children":[1,3,5,49,9,7,11,-1,-1,61,55,13,15,19,-1,-1,17,-1,-1,43,21,25,23,-1,29,27,-1,-1,-1,41,31,33,35,-1,39,37,-1,-1,-1,-1,-1,-1,-1,-1,45,47,-1,-1,-1,53,51,-1,-1,57,-1,-1,-1,59,-1,-1,-1,-1,-1],"loss_changes":[5.4365425E0,2.7711072E0,9.489107E-1,4.9405432E-1,8.268636E-1,1.7867817E0,6.136875E-1,0E0,0E0,4.7228473E-1,4.884066E-1,9.1327715E-1,7.890613E-1,6.193166E-1,0E0,0E0,1.5621885E0,0E0,0E0,5.606694E-1,8.222655E-1,1.2694376E0,1.8617928E0,0E0,1.1059335E0,1.4556129E0,0E0,0E0,0E0,7.131527E-1,8.5774803E-1,1.8018686E0,9.643769E-1,0E0,7.46441E-1,1.8241441E0,0E0,0E0,0E0,0E0,0E0,0E0,0E0,0E0,7.8264785E-1,8.3336085E-1,0E0,0E0,0E0,5.130348E-1,8.7070316E-1,0E0,0E0,4.7845513E-1,0E0,0E0,0E0,5.883837E-1,0E0,0E0,0E0,0E0,0E0],"parents":[2147483647,0,0,1,1,2,2,5,5,4,4,6,6,11,11,12,12,16,16,13,13,20,20,22,22,21,21,25,25,24,24,30,30,31,31,32,32,35,35,34,34,29,29,19,19,44,44,45,45,3,3,50,50,49,49,10,10,53,53,57,57,9,9],"right_children":[2,4,6,50,10,8,12,-1,-1,62,56,14,16,20,-1,-1,18,-1,-1,44,22,26,24,-1,30,28,-1,-1,-1,42,32,34,36,-1,40,38,-1,-1,-1,-1,-1,-1,-1,-1,46,48,-1,-1,-1,54,52,-1,-1,58,-1,-1,-1,60,-1,-1,-1,-1,-1],"split_conditions":[1E0,3E0,1.3E1,1.5155E2,2.345E1,3E0,7.47E2,-1.4441559E-1,9.846113E-2,3.7E1,6E0,7.38E2,8.28E2,1.88E2,-9.805987E-2,1.7338996E-1,8.42E2,-1.4802387E-1,1.1986317E-1,7.8E0,7.925E0,2.9699118E1,8.0292E0,-1.8470608E-1,1E0,2.45E1,1.5312883E-1,8.713019E-2,-1.3999137E-1,9E1,2E0,2.5E2,8.1375E0,-2.5244778E-1,6.04E2,4.52E2,1.1841882E-1,-1.5904486E-1,1.3370155E-1,1.13357E-1,-4.1875012E-2,-8.523443E-2,6.115416E-2,2.2845998E-2,2.7E1,3.5E1,1.5435788E-1,-1.437536E-1,1.1306505E-1,1.8E2,2E0,-1.19069844E-1,1.2082848E-1,2.9125E1,-1.6159725E-1,-4.546095E-2,1.4517847E-1,1.61E1,-1.2043423E-1,-8.866671E-2,1.3189714E-1,-2.2467684E-2,1.16297565E-1],"split_indices":[6,1,2,5,5,3,0,0,0,2,2,0,0,0,0,0,0,0,0,5,5,2,5,0,9,2,0,0,0,5,1,0,5,0,0,0,0,0,0,0,0,0,0,0,0,2,0,0,0,0,4,0,0,5,0,0,0,5,0,0,0,0,0],"split_type":[0,0,0,0,0,0,0,0,0,0,0,0,0,0,0,0,0,0,0,0,0,0,0,0,0,0,0,0,0,0,0,0,0,0,0,0,0,0,0,0,0,0,0,0,0,0,0,0,0,0,0,0,0,0,0,0,0,0,0,0,0,0,0],"sum_hessian":[1.9073692E2,6.3362274E1,1.2737465E2,2.500241E1,3.8359863E1,8.977936E0,1.1839671E2,4.701129E0,4.276807E0,3.3131863E1,5.228E0,1.01784E2,1.6612715E1,9.93679E1,2.4161E0,9.600736E0,7.011978E0,1.9263505E0,5.0856276E0,2.4306845E1,7.506106E1,2.2017376E1,5.304368E1,2.5278008E0,5.0515877E1,9.1600895E0,1.2857286E1,6.247657E0,2.9124331E0,1.1581553E1,3.8934326E1,1.0738674E1,2.819565E1,1.2140151E0,9.524659E0,5.6751494E0,2.25205E1,2.8857527E0,2.7893965E0,5.1830606E0,4.3415985E0,7.9336586E0,3.6478949E0,6.3238387E0,1.7983006E1,2.5639856E0,1.541902E1,1.2529358E0,1.3110498E0,2.149529E1,3.5071204E0,2.0184433E0,1.4886769E0,4.62557E0,1.686972E1,1.060222E0,4.167778E0,2.5321677E0,2.0934021E0,1.0128671E0,1.5193007E0,3.1754414E1,1.3774486E0],"tree_param":{"num_deleted":"0","num_feature":"10","num_nodes":"63","size_leaf_vector":"1"}},{"base_weights":[-8.407137E-2,1.5371169E-1,-2.0263204E-1,4.0574914E-1,-1.6697759E-2,1.0148106E-1,-2.2634952E-1,1.4441559E-1,-9.8461136E-2,4.4867557E-2,-3.5141852E-1,-1.9371636E-1,-4.039381E-1,-2.0950474E-1,9.805984E-2,-1.7338996E-1,-1.232625E-1,1.4802386E-1,-1.1986317E-1,-3.476209E-1,-1.6079663E-1,-3.1943008E-1,-9.025884E-2,1.847061E-1,-1.3684987E-1,-2.7487539E-2,-1.5312883E-1,-8.713019E-2,1.3999137E-1,1.2643301E-1,-2.1637186E-1,2.3202365E-2,-3.052862E-1,2.5244772E-1,-1.5114143E-1,5.560971E-2,-1.1841882E-1,1.5904488E-1,-1.3370155E-1,-1.13357E-1,4.187502E-2,8.5234426E-2,-6.115417E-2,-2.2845993E-2,-4.340437E-1,5.8519434E-2,-1.5435788E-1,1.4375362E-1,-1.1306505E-1,4.6030885E-1,4.3414667E-2,1.19069844E-1,-1.2082847E-1,1.2960899E-1,1.6159724E-1,4.546097E-2,-1.4517847E-1,-1.4515556E-1,1.2043423E-1,8.8666715E-2,-1.318971E-1,2.2467675E-2,-1.16297565E-1],"categories":[],"categories_nodes":[],"categories_segments":[],"categories_sizes":[],"default_left":[0,0,0,0,0,0,0,0,0,0,0,0,0,0,0,0,0,0,0,0,0,0,0,0,0,0,0,0,0,0,0,0,0,0,0,0,0,0,0,0,0,0,0,0,0,0,0,0,0,0,0,0,0,0,0,0,0,0,0,0,0,0,0],"id":11,"left_children":[1,3,5,49,9,7,11,-1,-1,61,55,13,15,19,-1,-1,17,-1,-1,43,21,25,23,-1,29,27,-1,-1,-1,41,31,33,35,-1,39,37,-1,-1,-1,-1,-1,-1,-1,-1,45,47,-1,-1,-1,53,51,-1,-1,57,-1,-1,-1,59,-1,-1,-1,-1,-1],"loss_changes":[5.4365406E0,2.7711062E0,9.4891024E-1,4.9405384E-1,8.268634E-1,1.7867815E0,6.13688E-1,0E0,0E0,4.7228473E-1,4.8840666E-1,9.1327715E-1,7.890601E-1,6.193166E-1,0E0,0E0,1.5621885E0,0E0,0E0,5.606699E-1,8.222655E-1,1.2694376E0,1.8617933E0,0E0,1.1059332E0,1.4556127E0,0E0,0E0,0E0,7.1315277E-1,8.577478E-1,1.8018681E0,9.643769E-1,0E0,7.4644107E-1,1.8241442E0,0E0,0E0,0E0,0E0,0E0,0E0,0E0,0E0,7.826474E-1,8.3336085E-1,0E0,0E0,0E0,5.130348E-1,8.7070316E-1,0E0,0E0,4.7845504E-1,0E0,0E0,0E0,5.8838356E-1,0E0,0E0,0E0,0E0,0E0],"parents":[2147483647,0,0,1,1,2,2,5,5,4,4,6,6,11,11,12,12,16,16,13,13,20,20,22,22,21,21,25,25,24,24,30,30,31,31,32,32,35,35,34,34,29,29,19,19,44,44,45,45,3,3,50,50,49,49,10,10,53,53,57,57,9,9],"right_children":[2,4,6,50,10,8,12,-1,-1,62,56,14,16,20,-1,-1,18,-1,-1,44,22,26,24,-1,30,28,-1,-1,-1,42,32,34,36,-1,40,38,-1,-1,-1,-1,-1,-1,-1,-1,46,48,-1,-1,-1,54,52,-1,-1,58,-1,-1,-1,60,-1,-1,-1,-1,-1],"split_conditions":[1E0,3E0,1.3E1,1.5155E2,2.345E1,3E0,7.47E2,1.4441559E-1,-9.8461136E-2,3.7E1,6E0,7.38E2,8.28E2,1.88E2,9.805984E-2,-1.7338996E-1,8.42E2,1.4802386E-1,-1.1986317E-1,7.8E0,7.925E0,2.9699118E1,8.0292E0,1.847061E-1,1E0,2.45E1,-1.5312883E-1,-8.713019E-2,1.3999137E-1,9E1,2E0,2.5E2,8.1375E0,2.5244772E-1,6.04E2,4.52E2,-1.1841882E-1,1.5904488E-1,-1.3370155E-1,-1.13357E-1,4.187502E-2,8.5234426E-2,-6.115417E-2,-2.2845993E-2,2.7E1,3.5E1,-1.5435788E-1,1.4375362E-1,-1.1306505E-1,1.8E2,2E0,1.19069844E-1,-1.2082847E-1,2.9125E1,1.6159724E-1,4.546097E-2,-1.4517847E-1,1.61E1,1.2043423E-1,8.8666715E-2,-1.318971E-1,2.2467675E-2,-1.16297565E-1],"split_indices":[6,1,2,5,5,3,0,0,0,2,2,0,0,0,0,0,0,0,0,5,5,2,5,0,9,2,0,0,0,5,1,0,5,0,0,0,0,0,0,0,0,0,0,0,0,2,0,0,0,0,4,0,0,5,0,0,0,5,0,0,0,0,0],"split_type":[0,0,0,0,0,0,0,0,0,0,0,0,0,0,0,0,0,0,0,0,0,0,0,0,0,0,0,0,0,0,0,0,0,0,0,0,0,0,0,0,0,0,0,0,0,0,0,0,0,0,0,0,0,0,0,0,0,0,0,0,0,0,0],"sum_hessian":[1.9073692E2,6.336227E1,1.2737465E2,2.5002407E1,3.835986E1,8.977937E0,1.1839671E2,4.701129E0,4.2768073E0,3.3131863E1,5.228E0,1.01784E2,1.6612715E1,9.93679E1,2.4161E0,9.600737E0,7.011979E0,1.9263506E0,5.085628E0,2.4306843E1,7.506105E1,2.2017374E1,5.304368E1,2.5278008E0,5.0515877E1,9.16009E0,1.2857285E1,6.247657E0,2.9124334E0,1.1581553E1,3.8934322E1,1.0738674E1,2.819565E1,1.2140152E0,9.524659E0,5.675149E0,2.25205E1,2.8857527E0,2.7893963E0,5.1830606E0,4.3415985E0,7.9336586E0,3.6478949E0,6.3238387E0,1.7983004E1,2.5639853E0,1.5419019E1,1.2529358E0,1.3110497E0,2.1495287E1,3.5071204E0,2.0184433E0,1.488677E0,4.625571E0,1.6869717E1,1.0602219E0,4.167778E0,2.5321684E0,2.0934026E0,1.0128673E0,1.5193009E0,3.1754412E1,1.3774487E0],"tree_param":{"num_deleted":"0","num_feature":"10","num_nodes":"63","size_leaf_vector":"1"}},{"base_weights":[6.8085305E-2,-1.2306606E-1,1.64814E-1,-1.0959954E-1,1.8775761E-2,-2.2670726E-1,1.7863001E-1,-1.3790707E-1,7.024166E-2,3.529305E-1,1.4736436E-1,1.219265E-1,1.2458881E-1,-1.0071372E-1,1.376496E-1,1.7796132E-1,-6.751594E-2,3.0090235E-2,2.3386809E-1,1.7163731E-1,-1.7358461E-1,-2.5747772E-2,1.2591301E-1,2.5518566E-1,-8.113208E-2,-1.8342252E-1,6.760721E-2,1.3390866E-2,-1.5125896E-1,-4.1101143E-2,2.5405812E-1,-8.7700434E-2,1.5541859E-1,7.9649076E-2,-1.4699838E-1,4.1668255E-2,-9.571287E-2,-3.0942215E-2,1.1410496E-1,3.1203555E-2,-1.3245611E-1,-1.836981E-2,1.4017467E-1,1.0841618E-1,-1.303164E-1,-7.306692E-2,9.770922E-2,-2.4499458E-3,1.286127E-1,8.091389E-2,3.0766615E-1,-1.0074224E-1,1.1190644E-1,-2.3853764E-1,1.2005341E-1,3.875492E-2,-1.428586E-1,1.2871745E-1,-9.739675E-2,2.1907277E-1,1.4091764E-1,7.8244396E-2,-9.4344676E-2],"categories":[],"categories_nodes":[],"categories_segments":[],"categories_sizes":[],"default_left":[0,0,0,0,0,0,0,0,0,0,0,0,0,0,0,0,0,0,0,0,0,0,0,0,0,0,0,0,0,0,0,0,0,0,0,0,0,0,0,0,0,0,0,0,0,0,0,0,0,0,0,0,0,0,0,0,0,0,0,0,0,0,0],"id":12,"left_children":[1,3,5,-1,29,7,9,-1,-1,47,11,13,-1,-1,15,17,25,19,23,21,-1,43,-1,49,-1,27,-1,-1,-1,35,31,33,-1,-1,-1,37,-1,39,-1,41,-1,-1,-1,-1,45,-1,-1,-1,-1,51,59,53,-1,55,-1,57,-1,-1,-1,61,-1,-1,-1],"loss_changes":[3.2497365E0,2.0432093E0,6.701453E-1,0E0,5.5039674E-1,5.8094525E-1,5.6376266E-1,0E0,0E0,4.5414686E-1,6.1405396E-1,6.9728804E-1,0E0,0E0,7.413784E-1,6.0456157E-1,5.5754983E-1,1.9469718E0,6.4456177E-1,9.005063E-1,0E0,4.94862E-1,0E0,4.4958973E-1,0E0,8.59872E-1,0E0,0E0,0E0,7.359496E-1,7.5951993E-1,7.417158E-1,0E0,0E0,0E0,6.28761E-1,0E0,5.64527E-1,0E0,8.21887E-1,0E0,0E0,0E0,0E0,5.669812E-1,0E0,0E0,0E0,0E0,7.4671847E-1,4.6443534E-1,7.1855664E-1,0E0,5.263014E-1,0E0,7.749241E-1,0E0,0E0,0E0,6.9277E-1,0E0,0E0,0E0],"parents":[2147483647,0,0,1,1,2,2,5,5,6,6,10,10,11,11,14,14,15,15,17,17,19,19,18,18,16,16,25,25,4,4,30,30,31,31,29,29,35,35,37,37,39,39,21,21,44,44,9,9,23,23,49,49,51,51,53,53,55,55,50,50,59,59],"right_children":[2,4,6,-1,30,8,10,-1,-1,48,12,14,-1,-1,16,18,26,20,24,22,-1,44,-1,50,-1,28,-1,-1,-1,36,32,34,-1,-1,-1,38,-1,40,-1,42,-1,-1,-1,-1,46,-1,-1,-1,-1,52,60,54,-1,56,-1,58,-1,-1,-1,62,-1,-1,-1],"split_conditions":[1E0,3E0,4E0,-1.0959954E-1,2.0575E1,3.9E1,7.75E0,-1.3790707E-1,7.024166E-2,1.31E2,2E0,1.3E1,1.2458881E-1,-1.0071372E-1,5.25542E1,8.0292E0,3.9E1,7.925E0,6.2E1,7.8792E0,-1.7358461E-1,2.1E1,1.2591301E-1,2E0,-8.113208E-2,3E1,6.760721E-2,1.3390866E-2,-1.5125896E-1,1.55E1,3.36E2,1.83E2,1.5541859E-1,7.9649076E-2,-1.4699838E-1,1.35E1,-9.571287E-2,1.11333E1,1.1410496E-1,9.475E0,-1.3245611E-1,-1.836981E-2,1.4017467E-1,1.0841618E-1,3.25E1,-7.306692E-2,9.770922E-2,-2.4499458E-3,1.286127E-1,3.1E1,5.51E2,5.2E1,1.1190644E-1,3.1E1,1.2005341E-1,2.79E1,-1.428586E-1,1.2871745E-1,-9.739675E-2,5.21E2,1.4091764E-1,7.8244396E-2,-9.4344676E-2],"split_indices":[6,1,2,0,5,5,5,0,0,0,3,2,0,0,5,5,2,5,2,5,0,2,0,1,0,2,0,0,0,5,0,0,0,0,0,5,0,5,0,5,0,0,0,0,2,0,0,0,0,5,0,2,0,2,0,5,0,0,0,0,0,0,0],"split_type":[0,0,0,0,0,0,0,0,0,0,0,0,0,0,0,0,0,0,0,0,0,0,0,0,0,0,0,0,0,0,0,0,0,0,0,0,0,0,0,0,0,0,0,0,0,0,0,0,0,0,0,0,0,0,0,0,0,0,0,0,0,0,0],"sum_hessian":[1.7366115E2,5.8259254E1,1.15401886E2,2.0931921E1,3.732733E1,3.40828E0,1.1199361E2,2.2654693E0,1.1428108E0,1.5468935E1,9.652467E1,8.9483986E1,7.0406857E0,2.2962878E0,8.71877E1,7.298075E1,1.4206948E1,2.0444397E1,5.2536354E1,1.7169798E1,3.2745986E0,1.0060848E1,7.1089497E0,5.0879616E1,1.6567391E0,1.0446421E1,3.7605276E0,6.608713E0,3.8377078E0,3.0412884E1,6.91445E0,3.3045046E0,3.6099455E0,1.9406971E0,1.3638076E0,2.4089312E1,6.323571E0,2.0584753E1,3.5045583E0,1.8681147E1,1.9036075E0,1.612287E1,2.5582776E0,1.6172963E0,8.443552E0,7.1371217E0,1.3064301E0,2.837936E0,1.2630999E1,1.236407E1,3.8515545E1,8.027217E0,4.3368535E0,6.7062364E0,1.3209804E0,3.48129E0,3.2249463E0,1.5914402E0,1.8898499E0,2.6422756E1,1.2092789E1,2.4979683E1,1.4430723E0],"tree_param":{"num_deleted":"0","num_feature":"10","num_nodes":"63","size_leaf_vector":"1"}},{"base_weights":[-6.80853E-2,1.23066075E-1,-1.64814E-1,1.0959955E-1,-1.8775782E-2,2.2670722E-1,-1.7863001E-1,1.3790707E-1,-7.024167E-2,-3.529305E-1,-1.4736435E-1,-1.219265E-1,-1.245888E-1,1.0071374E-1,-1.376496E-1,-1.7796132E-1,6.751592E-2,-3.0090239E-2,-2.3386809E-1,-1.7163731E-1,1.735846E-1,2.5747774E-2,-1.2591301E-1,-2.5518566E-1,8.113207E-2,1.834225E-1,-6.7607224E-2,-1.3390868E-2,1.5125896E-1,4.110114E-2,-2.5405818E-1,8.770037E-2,-1.5541859E-1,-7.964909E-2,1.4699838E-1,-4.166827E-2,9.571287E-2,3.0942189E-2,-1.1410494E-1,-3.1203574E-2,1.324561E-1,1.8369805E-2,-1.4017469E-1,-1.0841619E-1,1.3031642E-1,7.306693E-2,-9.7709216E-2,2.4499516E-3,-1.286127E-1,-8.091385E-2,-3.0766615E-1,1.0074224E-1,-1.1190643E-1,2.3853764E-1,-1.2005341E-1,-3.8754936E-2,1.428586E-1,-1.2871745E-1,9.739675E-2,-2.1907276E-1,-1.4091766E-1,-7.8244396E-2,9.434468E-2],"categories":[],"categories_nodes":[],"categories_segments":[],"categories_sizes":[],"default_left":[0,0,0,0,0,0,0,0,0,0,0,0,0,0,0,0,0,0,0,0,0,0,0,0,0,0,0,0,0,0,0,0,0,0,0,0,0,0,0,0,0,0,0,0,0,0,0,0,0,0,0,0,0,0,0,0,0,0,0,0,0,0,0],"id":13,"left_children":[1,3,5,-1,29,7,9,-1,-1,47,11,13,-1,-1,15,17,25,19,23,21,-1,43,-1,49,-1,27,-1,-1,-1,35,31,33,-1,-1,-1,37,-1,39,-1,41,-1,-1,-1,-1,45,-1,-1,-1,-1,51,59,53,-1,55,-1,57,-1,-1,-1,61,-1,-1,-1],"loss_changes":[3.2497368E0,2.0432105E0,6.7014503E-1,0E0,5.5039704E-1,5.809454E-1,5.6376266E-1,0E0,0E0,4.5414686E-1,6.140542E-1,6.9728804E-1,0E0,0E0,7.4137807E-1,6.0456157E-1,5.575499E-1,1.9469718E0,6.44562E-1,9.005063E-1,0E0,4.94862E-1,0E0,4.4958973E-1,0E0,8.59872E-1,0E0,0E0,0E0,7.359497E-1,7.595198E-1,7.4171585E-1,0E0,0E0,0E0,6.287607E-1,0E0,5.645269E-1,0E0,8.218869E-1,0E0,0E0,0E0,0E0,5.6698126E-1,0E0,0E0,0E0,0E0,7.467182E-1,4.6443534E-1,7.185567E-1,0E0,5.263013E-1,0E0,7.7492404E-1,0E0,0E0,0E0,6.927699E-1,0E0,0E0,0E0],"parents":[2147483647,0,0,1,1,2,2,5,5,6,6,10,10,11,11,14,14,15,15,17,17,19,19,18,18,16,16,25,25,4,4,30,30,31,31,29,29,35,35,37,37,39,39,21,21,44,44,9,9,23,23,49,49,51,51,53,53,55,55,50,50,59,59],"right_children":[2,4,6,-1,30,8,10,-1,-1,48,12,14,-1,-1,16,18,26,20,24,22,-1,44,-1,50,-1,28,-1,-1,-1,36,32,34,-1,-1,-1,38,-1,40,-1,42,-1,-1,-1,-1,46,-1,-1,-1,-1,52,60,54,-1,56,-1,58,-1,-1,-1,62,-1,-1,-1],"split_conditions":[1E0,3E0,4E0,1.0959955E-1,2.0575E1,3.9E1,7.75E0,1.3790707E-1,-7.024167E-2,1.31E2,2E0,1.3E1,-1.245888E-1,1.0071374E-1,5.25542E1,8.0292E0,3.9E1,7.925E0,6.2E1,7.8792E0,1.735846E-1,2.1E1,-1.2591301E-1,2E0,8.113207E-2,3E1,-6.7607224E-2,-1.3390868E-2,1.5125896E-1,1.55E1,3.36E2,1.83E2,-1.5541859E-1,-7.964909E-2,1.4699838E-1,1.35E1,9.571287E-2,1.11333E1,-1.1410494E-1,9.475E0,1.324561E-1,1.8369805E-2,-1.4017469E-1,-1.0841619E-1,3.25E1,7.306693E-2,-9.7709216E-2,2.4499516E-3,-1.286127E-1,3.1E1,5.51E2,5.2E1,-1.1190643E-1,3.1E1,-1.2005341E-1,2.79E1,1.428586E-1,-1.2871745E-1,9.739675E-2,5.21E2,-1.4091766E-1,-7.8244396E-2,9.434468E-2],"split_indices":[6,1,2,0,5,5,5,0,0,0,3,2,0,0,5,5,2,5,2,5,0,2,0,1,0,2,0,0,0,5,0,0,0,0,0,5,0,5,0,5,0,0,0,0,2,0,0,0,0,5,0,2,0,2,0,5,0,0,0,0,0,0,0],"split_type":[0,0,0,0,0,0,0,0,0,0,0,0,0,0,0,0,0,0,0,0,0,0,0,0,0,0,0,0,0,0,0,0,0,0,0,0,0,0,0,0,0,0,0,0,0,0,0,0,0,0,0,0,0,0,0,0,0,0,0,0,0,0,0],"sum_hessian":[1.7366115E2,5.825926E1,1.15401886E2,2.0931925E1,3.732733E1,3.40828E0,1.1199361E2,2.265469E0,1.1428108E0,1.5468935E1,9.652467E1,8.9483986E1,7.0406857E0,2.2962875E0,8.71877E1,7.298075E1,1.4206949E1,2.0444397E1,5.2536354E1,1.7169798E1,3.2745986E0,1.0060848E1,7.10895E0,5.0879612E1,1.6567391E0,1.0446421E1,3.7605278E0,6.608713E0,3.8377078E0,3.0412884E1,6.91445E0,3.3045046E0,3.6099458E0,1.9406971E0,1.3638074E0,2.4089312E1,6.323571E0,2.0584753E1,3.5045578E0,1.8681147E1,1.9036074E0,1.612287E1,2.5582776E0,1.6172965E0,8.443551E0,7.137121E0,1.3064301E0,2.8379357E0,1.2630999E1,1.236407E1,3.8515545E1,8.027217E0,4.336853E0,6.7062364E0,1.3209805E0,3.48129E0,3.2249465E0,1.5914402E0,1.8898499E0,2.6422756E1,1.2092789E1,2.4979683E1,1.4430723E0],"tree_param":{"num_deleted":"0","num_feature":"10","num_nodes":"63","size_leaf_vector":"1"}},{"base_weights":[5.695232E-2,-9.7501524E-2,1.3432729E-1,-3.1626642E-1,1.816854E-2,-3.8701883E-1,4.5755E-2,1.4252423E-1,-1.0420463E-1,-1.1204001E-2,-1.4872481E-1,-8.27926E-2,1.4265856E-1,8.8434346E-2,-9.249805E-2,1.02647394E-1,-6.426877E-2,6.9388196E-2,-1.10548064E-1,-6.931072E-2,1.02285534E-1,2.6360604E-1,9.9132106E-2,-9.9088416E-2,1.4486614E-1,-1.3430773E-1,1.4640915E-1,2.905591E-1,-1.303377E-1,1.269244E-1,1.0482684E-1,-2.0287749E-1,1.6102143E-1,-4.4404075E-2,2.423915E-1,-3.499949E-1,5.9482224E-2,9.17979E-2,-5.087292E-1,-3.7126232E-2,1.4553519E-1,-1.4491844E-1,8.495251E-2,3.3064756E-1,2.515188E-2,-1.0629865E-1,1.1457656E-1,-1.8617986E-1,1.632757E-1,-1.6222E-1,5.4865196E-2,-6.981722E-2,1.2281072E-1,1.1106779E-1,-8.890094E-2,-1.9794723E-1,-8.107899E-3,1.6857085E-1,1.5345266E-1,3.7792407E-2,1.1291423E-1,5.5686694E-2,-1.512599E-1],"categories":[],"categories_nodes":[],"categories_segments":[],"categories_sizes":[],"default_left":[0,0,0,0,0,0,0,0,0,0,0,0,0,0,0,0,0,0,0,0,0,0,0,0,0,0,0,0,0,0,0,0,0,0,0,0,0,0,0,0,0,0,0,0,0,0,0,0,0,0,0,0,0,0,0,0,0,0,0,0,0,0,0],"id":14,"left_children":[1,3,21,5,11,9,7,-1,-1,-1,-1,15,13,-1,19,17,-1,-1,-1,-1,-1,57,23,25,29,-1,27,39,-1,-1,31,35,33,47,43,37,-1,-1,55,41,-1,-1,-1,45,-1,-1,-1,49,53,-1,51,-1,-1,-1,-1,-1,-1,59,-1,61,-1,-1,-1],"loss_changes":[1.9184594E0,1.3669198E0,4.590857E-1,4.956398E-1,4.659488E-1,5.789447E-1,8.307763E-1,0E0,0E0,0E0,0E0,5.237089E-1,6.192341E-1,0E0,5.148011E-1,6.437137E-1,0E0,0E0,0E0,0E0,0E0,4.371978E-1,7.8876233E-1,1.4869065E0,7.333683E-1,0E0,1.00533E0,5.924781E-1,0E0,0E0,1.1109874E0,6.6384596E-1,9.0151954E-1,5.004565E-1,5.08564E-1,9.6072924E-1,0E0,0E0,4.625864E-1,7.489454E-1,0E0,0E0,0E0,9.8809934E-1,0E0,0E0,0E0,8.804423E-1,7.7644616E-1,0E0,7.9199624E-1,0E0,0E0,0E0,0E0,0E0,0E0,4.6278268E-1,0E0,1.0457773E0,0E0,0E0,0E0],"parents":[2147483647,0,0,1,1,3,3,6,6,5,5,4,4,12,12,11,11,15,15,14,14,2,2,22,22,23,23,26,26,24,24,30,30,32,32,31,31,35,35,27,27,39,39,34,34,43,43,33,33,47,47,50,50,48,48,38,38,21,21,57,57,59,59],"right_children":[2,4,22,6,12,10,8,-1,-1,-1,-1,16,14,-1,20,18,-1,-1,-1,-1,-1,58,24,26,30,-1,28,40,-1,-1,32,36,34,48,44,38,-1,-1,56,42,-1,-1,-1,46,-1,-1,-1,50,54,-1,52,-1,-1,-1,-1,-1,-1,60,-1,62,-1,-1,-1],"split_conditions":[1E0,3E0,1.83E2,1.5155E2,3.98E2,1.8E2,1.648667E2,1.4252423E-1,-1.0420463E-1,-1.1204001E-2,-1.4872481E-1,1.43E2,6.85E2,8.8434346E-2,1E0,1E0,-6.426877E-2,6.9388196E-2,-1.10548064E-1,-6.931072E-2,1.02285534E-1,1.48E2,3.08E2,2.7E1,3.88E2,-1.3430773E-1,2.86E2,2E0,-1.303377E-1,1.269244E-1,4.64E2,1E0,1E0,6.85E2,2.59292E1,7.775E0,5.9482224E-2,9.17979E-2,8.1375E0,2.27E2,1.4553519E-1,-1.4491844E-1,8.495251E-2,1E1,2.515188E-2,-1.0629865E-1,1.1457656E-1,2.9699118E1,8.28E2,-1.6222E-1,3E0,-6.981722E-2,1.2281072E-1,1.1106779E-1,-8.890094E-2,-1.9794723E-1,-8.107899E-3,1.34167E1,1.5345266E-1,9.35E0,1.1291423E-1,5.5686694E-2,-1.512599E-1],"split_indices":[6,1,0,5,0,0,5,0,0,0,0,0,0,0,3,8,0,0,0,0,0,0,0,2,0,0,0,1,0,0,0,3,9,0,5,5,0,0,5,0,0,0,0,2,0,0,0,2,0,0,1,0,0,0,0,0,0,5,0,5,0,0,0],"split_type":[0,0,0,0,0,0,0,0,0,0,0,0,0,0,0,0,0,0,0,0,0,0,0,0,0,0,0,0,0,0,0,0,0,0,0,0,0,0,0,0,0,0,0,0,0,0,0,0,0,0,0,0,0,0,0,0,0,0,0,0,0,0,0],"sum_hessian":[1.5843307E2,5.279166E1,1.0564141E2,1.7659094E1,3.5132565E1,1.471432E1,2.9447732E0,1.3078623E0,1.636911E0,3.8088198E0,1.09055E1,1.9584513E1,1.5548052E1,9.286847E0,6.261205E0,8.214274E0,1.1370238E1,6.8523064E0,1.3619679E0,5.0985947E0,1.1626104E0,2.121709E1,8.4424324E1,1.5608279E1,6.881604E1,6.1093926E0,9.498886E0,8.01071E0,1.4881765E0,7.454112E0,6.136193E1,9.072643E0,5.2289288E1,1.4964489E1,3.73248E1,6.7314796E0,2.3411634E0,1.1307635E0,5.6007166E0,3.285787E0,4.7249227E0,1.1611056E0,2.1246815E0,2.3280537E1,1.4044261E1,1.2096951E0,2.207084E1,8.954848E0,6.00964E0,3.1209507E0,5.833898E0,3.4105942E0,2.4233036E0,4.277904E0,1.7317361E0,3.9819357E0,1.6187805E0,1.6551826E1,4.665264E0,1.0884118E1,5.6677074E0,9.068247E0,1.815872E0],"tree_param":{"num_deleted":"0","num_feature":"10","num_nodes":"63","size_leaf_vector":"1"}},{"base_weights":[-5.695233E-2,9.750152E-2,-1.343273E-1,3.1626642E-1,-1.8168563E-2,3.8701883E-1,-4.5754924E-2,-1.425242E-1,1.0420463E-1,1.1203975E-2,1.4872481E-1,8.2792595E-2,-1.426586E-1,-8.843435E-2,9.249801E-2,-1.02647394E-1,6.426877E-2,-6.9388196E-2,1.10548064E-1,6.93107E-2,-1.02285534E-1,-2.6360607E-1,-9.913211E-2,9.9088416E-2,-1.4486615E-1,1.343077E-1,-1.4640912E-1,-2.9055908E-1,1.3033773E-1,-1.269244E-1,-1.0482685E-1,2.0287749E-1,-1.6102143E-1,4.4404086E-2,-2.4239151E-1,3.4999493E-1,-5.9482224E-2,-9.17979E-2,5.087292E-1,3.712624E-2,-1.4553519E-1,1.4491846E-1,-8.495251E-2,-3.3064756E-1,-2.5151886E-2,1.0629864E-1,-1.1457656E-1,1.8617989E-1,-1.6327573E-1,1.6222003E-1,-5.4865163E-2,6.981723E-2,-1.2281072E-1,-1.1106779E-1,8.890092E-2,1.9794723E-1,8.107901E-3,-1.6857088E-1,-1.5345266E-1,-3.779244E-2,-1.1291423E-1,-5.5686697E-2,1.5125987E-1],"categories":[],"categories_nodes":[],"categories_segments":[],"categories_sizes":[],"default_left":[0,0,0,0,0,0,0,0,0,0,0,0,0,0,0,0,0,0,0,0,0,0,0,0,0,0,0,0,0,0,0,0,0,0,0,0,0,0,0,0,0,0,0,0,0,0,0,0,0,0,0,0,0,0,0,0,0,0,0,0,0,0,0],"id":15,"left_children":[1,3,21,5,11,9,7,-1,-1,-1,-1,15,13,-1,19,17,-1,-1,-1,-1,-1,57,23,25,29,-1,27,39,-1,-1,31,35,33,47,43,37,-1,-1,55,41,-1,-1,-1,45,-1,-1,-1,49,53,-1,51,-1,-1,-1,-1,-1,-1,59,-1,61,-1,-1,-1],"loss_changes":[1.9184597E0,1.36692E0,4.5908546E-1,4.956398E-1,4.6594897E-1,5.789447E-1,8.3077615E-1,0E0,0E0,0E0,0E0,5.237088E-1,6.192341E-1,0E0,5.148009E-1,6.437137E-1,0E0,0E0,0E0,0E0,0E0,4.371978E-1,7.887625E-1,1.4869059E0,7.333685E-1,0E0,1.0053301E0,5.9247804E-1,0E0,0E0,1.1109874E0,6.638459E-1,9.015198E-1,5.004567E-1,5.0856376E-1,9.6072924E-1,0E0,0E0,4.6258616E-1,7.4894553E-1,0E0,0E0,0E0,9.8809934E-1,0E0,0E0,0E0,8.804424E-1,7.764461E-1,0E0,7.919962E-1,0E0,0E0,0E0,0E0,0E0,0E0,4.627826E-1,0E0,1.0457773E0,0E0,0E0,0E0],"parents":[2147483647,0,0,1,1,3,3,6,6,5,5,4,4,12,12,11,11,15,15,14,14,2,2,22,22,23,23,26,26,24,24,30,30,32,32,31,31,35,35,27,27,39,39,34,34,43,43,33,33,47,47,50,50,48,48,38,38,21,21,57,57,59,59],"right_children":[2,4,22,6,12,10,8,-1,-1,-1,-1,16,14,-1,20,18,-1,-1,-1,-1,-1,58,24,26,30,-1,28,40,-1,-1,32,36,34,48,44,38,-1,-1,56,42,-1,-1,-1,46,-1,-1,-1,50,54,-1,52,-1,-1,-1,-1,-1,-1,60,-1,62,-1,-1,-1],"split_conditions":[1E0,3E0,1.83E2,1.5155E2,3.98E2,1.8E2,1.648667E2,-1.425242E-1,1.0420463E-1,1.1203975E-2,1.4872481E-1,1.43E2,6.85E2,-8.843435E-2,1E0,1E0,6.426877E-2,-6.9388196E-2,1.10548064E-1,6.93107E-2,-1.02285534E-1,1.48E2,3.08E2,2.7E1,3.88E2,1.343077E-1,2.86E2,2E0,1.3033773E-1,-1.269244E-1,4.64E2,1E0,1E0,6.85E2,2.59292E1,7.775E0,-5.9482224E-2,-9.17979E-2,8.1375E0,2.27E2,-1.4553519E-1,1.4491846E-1,-8.495251E-2,1E1,-2.5151886E-2,1.0629864E-1,-1.1457656E-1,2.9699118E1,8.28E2,1.6222003E-1,3E0,6.981723E-2,-1.2281072E-1,-1.1106779E-1,8.890092E-2,1.9794723E-1,8.107901E-3,1.34167E1,-1.5345266E-1,9.35E0,-1.1291423E-1,-5.5686697E-2,1.5125987E-1],"split_indices":[6,1,0,5,0,0,5,0,0,0,0,0,0,0,3,8,0,0,0,0,0,0,0,2,0,0,0,1,0,0,0,3,9,0,5,5,0,0,5,0,0,0,0,2,0,0,0,2,0,0,1,0,0,0,0,0,0,5,0,5,0,0,0],"split_type":[0,0,0,0,0,0,0,0,0,0,0,0,0,0,0,0,0,0,0,0,0,0,0,0,0,0,0,0,0,0,0,0,0,0,0,0,0,0,0,0,0,0,0,0,0,0,0,0,0,0,0,0,0,0,0,0,0,0,0,0,0,0,0],"sum_hessian":[1.5843307E2,5.279166E1,1.0564141E2,1.7659094E1,3.5132565E1,1.4714321E1,2.9447737E0,1.3078624E0,1.6369114E0,3.808819E0,1.0905502E1,1.9584513E1,1.5548052E1,9.286847E0,6.2612047E0,8.214274E0,1.1370238E1,6.8523064E0,1.3619679E0,5.0985947E0,1.1626104E0,2.121709E1,8.4424324E1,1.5608279E1,6.881604E1,6.109393E0,9.498886E0,8.010709E0,1.4881765E0,7.454112E0,6.136193E1,9.072643E0,5.2289288E1,1.4964489E1,3.73248E1,6.7314796E0,2.3411634E0,1.1307634E0,5.6007166E0,3.285787E0,4.724922E0,1.1611056E0,2.1246815E0,2.3280537E1,1.4044261E1,1.209695E0,2.2070843E1,8.954848E0,6.00964E0,3.1209507E0,5.833898E0,3.4105945E0,2.4233036E0,4.277904E0,1.7317361E0,3.981936E0,1.6187804E0,1.6551826E1,4.6652646E0,1.0884119E1,5.6677074E0,9.068247E0,1.8158721E0],"tree_param":{"num_deleted":"0","num_feature":"10","num_nodes":"63","size_leaf_vector":"1"}},{"base_weights":[4.5070745E-2,-7.953272E-2,1.07480615E-1,-8.361424E-2,1.3632894E-2,-6.211459E-2,1.19301826E-1,9.0671174E-2,2.9845092E-1,1.4683326E-1,4.9835324E-2,-1.106692E-1,8.836304E-2,6.3374005E-2,4.8095934E-2,1.9094807E-1,-1.2308088E-3,-1.3607222E-1,4.3935265E-2,-3.603062E-2,1.19109266E-1,5.5142365E-2,-1.0838084E-1,-2.7507332E-1,7.9544075E-2,1.172661E-1,3.625251E-2,-1.2163494E-1,7.809706E-2,1.148617E-1,1.3874818E-2,-1.5241201E-1,2.333882E-2,1.1817199E-1,-1.1392814E-1,-3.6174038E-1,4.1450486E-2,6.993364E-2,-1.8540294E-1,-1.20273076E-1,1.295586E-1,-1.177777E-1,5.7377942E-2,-1.5888648E-2,1.1143802E-1,2.074264E-2,-1.0977143E-1,-8.960278E-2,1.533929E-1,-7.139891E-2,2.5190023E-1,3.254128E-1,-4.2300932E-2,6.8024127E-3,1.4662665E-1,4.2713215E-3,-3.2108113E-1,9.304949E-2,-4.4417396E-2,6.0163837E-2,-1.9310309E-1,-8.886639E-2,1.08612195E-1],"categories":[],"categories_nodes":[],"categories_segments":[],"categories_sizes":[],"default_left":[0,0,0,0,0,0,0,0,0,0,0,0,0,0,0,0,0,0,0,0,0,0,0,0,0,0,0,0,0,0,0,0,0,0,0,0,0,0,0,0,0,0,0,0,0,0,0,0,0,0,0,0,0,0,0,0,0,0,0,0,0,0,0],"id":16,"left_children":[1,3,5,-1,43,-1,7,13,9,-1,11,-1,-1,-1,15,19,17,-1,23,21,-1,-1,-1,31,25,-1,27,-1,29,-1,33,-1,-1,41,35,37,-1,39,-1,-1,-1,-1,-1,45,-1,47,-1,55,49,-1,51,53,-1,-1,-1,57,59,-1,-1,61,-1,-1,-1],"loss_changes":[1.164463E0,9.349727E-1,3.945155E-1,0E0,3.7712362E-1,0E0,4.6787417E-1,4.2431408E-1,5.862473E-1,0E0,7.9523855E-1,0E0,0E0,0E0,4.5010334E-1,7.811184E-1,1.0097945E0,0E0,5.326434E-1,6.897329E-1,0E0,0E0,0E0,4.2912632E-1,5.414698E-1,0E0,7.2096276E-1,0E0,6.778987E-1,0E0,4.115841E-1,0E0,0E0,7.0736074E-1,9.2025983E-1,8.5093206E-1,0E0,7.897239E-1,0E0,0E0,0E0,0E0,0E0,4.3611446E-1,0E0,4.7046113E-1,0E0,3.8521504E-1,6.204511E-1,0E0,3.9538306E-1,5.0792134E-1,0E0,0E0,0E0,6.77517E-1,6.671748E-1,0E0,0E0,4.5759752E-1,0E0,0E0,0E0],"parents":[2147483647,0,0,1,1,2,2,6,6,8,8,10,10,7,7,14,14,16,16,15,15,19,19,18,18,24,24,26,26,28,28,23,23,30,30,34,34,35,35,37,37,33,33,4,4,43,43,45,45,48,48,50,50,51,51,47,47,55,55,56,56,59,59],"right_children":[2,4,6,-1,44,-1,8,14,10,-1,12,-1,-1,-1,16,20,18,-1,24,22,-1,-1,-1,32,26,-1,28,-1,30,-1,34,-1,-1,42,36,38,-1,40,-1,-1,-1,-1,-1,46,-1,48,-1,56,50,-1,52,54,-1,-1,-1,58,60,-1,-1,62,-1,-1,-1],"split_conditions":[1E0,3E0,4E0,-8.361424E-2,3.7E1,-6.211459E-2,7.47E2,2.07E2,8.28E2,1.4683326E-1,8.42E2,-1.106692E-1,8.836304E-2,6.3374005E-2,7.925E0,2.9699118E1,8.0292E0,-1.3607222E-1,2.31E2,2.45E1,1.19109266E-1,5.5142365E-2,-1.0838084E-1,2.7E1,2.84E2,1.172661E-1,3.08E2,-1.2163494E-1,4.21E2,1.148617E-1,3E1,-1.5241201E-1,2.333882E-2,4.52E2,1E0,6.04E2,4.1450486E-2,2.7E1,-1.8540294E-1,-1.20273076E-1,1.295586E-1,-1.177777E-1,5.7377942E-2,3.1E1,1.1143802E-1,3.98E2,-1.0977143E-1,2E0,1.6E1,-7.139891E-2,8.19E2,7.775E0,-4.2300932E-2,6.8024127E-3,1.4662665E-1,2.1E1,1.83E2,9.304949E-2,-4.4417396E-2,7.4E1,-1.9310309E-1,-8.886639E-2,1.08612195E-1],"split_indices":[6,1,2,0,2,0,0,0,0,0,0,0,0,0,5,2,5,0,0,2,0,0,0,2,0,0,0,0,0,0,5,0,0,0,3,0,0,2,0,0,0,0,0,2,0,0,0,4,2,0,0,5,0,0,0,2,0,0,0,0,0,0,0],"split_type":[0,0,0,0,0,0,0,0,0,0,0,0,0,0,0,0,0,0,0,0,0,0,0,0,0,0,0,0,0,0,0,0,0,0,0,0,0,0,0,0,0,0,0,0,0,0,0,0,0,0,0,0,0,0,0,0,0,0,0,0,0,0,0],"sum_hessian":[1.4764229E2,4.9179455E1,9.846284E1,1.5037902E1,3.4141552E1,2.9683492E0,9.5494484E1,8.3634575E1,1.1859911E1,6.1594076E0,5.700503E0,1.9154238E0,3.785079E0,2.0791142E1,6.2843433E1,1.5393162E1,4.745027E1,3.4868383E0,4.3963436E1,7.7178826E0,7.6752787E0,4.8646054E0,2.8532777E0,3.7393003E0,4.0224136E1,3.93016E0,3.6293976E1,2.3888063E0,3.3905167E1,5.0374756E0,2.8867693E1,1.9874399E0,1.7518605E0,1.59371195E1,1.2930573E1,6.301366E0,6.629208E0,2.6182141E0,3.6831517E0,1.0910833E0,1.5271306E0,1.4478061E0,1.4489313E1,3.242224E1,1.7193108E0,3.0202145E1,2.2200978E0,1.666437E1,1.3537776E1,2.4374146E0,1.1100361E1,9.495515E0,1.6048462E0,3.7269075E0,5.768607E0,1.2554532E1,4.1098375E0,3.8291132E0,8.725419E0,2.2565446E0,1.8532927E0,1.0434358E0,1.2131089E0],"tree_param":{"num_deleted":"0","num_feature":"10","num_nodes":"63","size_leaf_vector":"1"}},{"base_weights":[-4.507074E-2,7.953272E-2,-1.07480615E-1,8.361424E-2,-1.3632894E-2,6.2114593E-2,-1.19301826E-1,-9.0671174E-2,-2.9845092E-1,-1.4683326E-1,-4.9835328E-2,1.1066918E-1,-8.8363044E-2,-6.3374005E-2,-4.8095938E-2,-1.9094807E-1,1.2308013E-3,1.3607222E-1,-4.3935273E-2,3.6030624E-2,-1.19109266E-1,-5.5142365E-2,1.0838085E-1,2.7507332E-1,-7.954408E-2,-1.1726611E-1,-3.6252514E-2,1.2163493E-1,-7.809706E-2,-1.148617E-1,-1.3874816E-2,1.52412E-1,-2.3338811E-2,-1.18171975E-1,1.1392812E-1,3.6174035E-1,-4.1450486E-2,-6.993368E-2,1.8540294E-1,1.20273076E-1,-1.295586E-1,1.1777769E-1,-5.737794E-2,1.5888648E-2,-1.1143802E-1,-2.0742642E-2,1.0977144E-1,8.960279E-2,-1.5339291E-1,7.139891E-2,-2.5190026E-1,-3.2541284E-1,4.2300917E-2,-6.802417E-3,-1.4662665E-1,-4.2713205E-3,3.2108116E-1,-9.304949E-2,4.44174E-2,-6.0163844E-2,1.9310309E-1,8.886639E-2,-1.086122E-1],"categories":[],"categories_nodes":[],"categories_segments":[],"categories_sizes":[],"default_left":[0,0,0,0,0,0,0,0,0,0,0,0,0,0,0,0,0,0,0,0,0,0,0,0,0,0,0,0,0,0,0,0,0,0,0,0,0,0,0,0,0,0,0,0,0,0,0,0,0,0,0,0,0,0,0,0,0,0,0,0,0,0,0],"id":17,"left_children":[1,3,5,-1,43,-1,7,13,9,-1,11,-1,-1,-1,15,19,17,-1,23,21,-1,-1,-1,31,25,-1,27,-1,29,-1,33,-1,-1,41,35,37,-1,39,-1,-1,-1,-1,-1,45,-1,47,-1,55,49,-1,51,53,-1,-1,-1,57,59,-1,-1,61,-1,-1,-1],"loss_changes":[1.164463E0,9.349725E-1,3.9451563E-1,0E0,3.7712362E-1,0E0,4.6787417E-1,4.2431408E-1,5.862471E-1,0E0,7.9523855E-1,0E0,0E0,0E0,4.5010334E-1,7.811184E-1,1.0097945E0,0E0,5.3264326E-1,6.89733E-1,0E0,0E0,0E0,4.2912623E-1,5.414698E-1,0E0,7.2096264E-1,0E0,6.778988E-1,0E0,4.1158402E-1,0E0,0E0,7.073607E-1,9.202598E-1,8.5093236E-1,0E0,7.89724E-1,0E0,0E0,0E0,0E0,0E0,4.3611452E-1,0E0,4.704612E-1,0E0,3.852151E-1,6.2045103E-1,0E0,3.9538306E-1,5.0792134E-1,0E0,0E0,0E0,6.7751706E-1,6.67175E-1,0E0,0E0,4.5759758E-1,0E0,0E0,0E0],"parents":[2147483647,0,0,1,1,2,2,6,6,8,8,10,10,7,7,14,14,16,16,15,15,19,19,18,18,24,24,26,26,28,28,23,23,30,30,34,34,35,35,37,37,33,33,4,4,43,43,45,45,48,48,50,50,51,51,47,47,55,55,56,56,59,59],"right_children":[2,4,6,-1,44,-1,8,14,10,-1,12,-1,-1,-1,16,20,18,-1,24,22,-1,-1,-1,32,26,-1,28,-1,30,-1,34,-1,-1,42,36,38,-1,40,-1,-1,-1,-1,-1,46,-1,48,-1,56,50,-1,52,54,-1,-1,-1,58,60,-1,-1,62,-1,-1,-1],"split_conditions":[1E0,3E0,4E0,8.361424E-2,3.7E1,6.2114593E-2,7.47E2,2.07E2,8.28E2,-1.4683326E-1,8.42E2,1.1066918E-1,-8.8363044E-2,-6.3374005E-2,7.925E0,2.9699118E1,8.0292E0,1.3607222E-1,2.31E2,2.45E1,-1.19109266E-1,-5.5142365E-2,1.0838085E-1,2.7E1,2.84E2,-1.1726611E-1,3.08E2,1.2163493E-1,4.21E2,-1.148617E-1,3E1,1.52412E-1,-2.3338811E-2,4.52E2,1E0,6.04E2,-4.1450486E-2,2.7E1,1.8540294E-1,1.20273076E-1,-1.295586E-1,1.1777769E-1,-5.737794E-2,3.1E1,-1.1143802E-1,3.98E2,1.0977144E-1,2E0,1.6E1,7.139891E-2,8.19E2,7.775E0,4.2300917E-2,-6.802417E-3,-1.4662665E-1,2.1E1,1.83E2,-9.304949E-2,4.44174E-2,7.4E1,1.9310309E-1,8.886639E-2,-1.086122E-1],"split_indices":[6,1,2,0,2,0,0,0,0,0,0,0,0,0,5,2,5,0,0,2,0,0,0,2,0,0,0,0,0,0,5,0,0,0,3,0,0,2,0,0,0,0,0,2,0,0,0,4,2,0,0,5,0,0,0,2,0,0,0,0,0,0,0],"split_type":[0,0,0,0,0,0,0,0,0,0,0,0,0,0,0,0,0,0,0,0,0,0,0,0,0,0,0,0,0,0,0,0,0,0,0,0,0,0,0,0,0,0,0,0,0,0,0,0,0,0,0,0,0,0,0,0,0,0,0,0,0,0,0],"sum_hessian":[1.4764229E2,4.9179455E1,9.846284E1,1.5037902E1,3.4141552E1,2.9683492E0,9.5494484E1,8.3634575E1,1.1859911E1,6.159408E0,5.700503E0,1.915424E0,3.785079E0,2.0791142E1,6.2843433E1,1.5393162E1,4.745027E1,3.4868383E0,4.3963436E1,7.717883E0,7.6752787E0,4.8646054E0,2.8532774E0,3.7393005E0,4.0224133E1,3.93016E0,3.6293976E1,2.3888063E0,3.3905167E1,5.0374756E0,2.8867693E1,1.98744E0,1.7518605E0,1.5937119E1,1.2930573E1,6.301366E0,6.629208E0,2.6182141E0,3.6831517E0,1.0910833E0,1.527131E0,1.4478062E0,1.4489312E1,3.242224E1,1.7193108E0,3.0202145E1,2.2200978E0,1.666437E1,1.3537775E1,2.4374146E0,1.1100361E1,9.495514E0,1.6048462E0,3.7269073E0,5.7686067E0,1.2554532E1,4.1098375E0,3.8291135E0,8.725419E0,2.2565446E0,1.8532927E0,1.0434357E0,1.213109E0],"tree_param":{"num_deleted":"0","num_feature":"10","num_nodes":"63","size_leaf_vector":"1"}},{"base_weights":[3.382272E-2,-6.439614E-2,8.279125E-2,-2.3303516E-1,8.659966E-3,-9.7440457E-4,-3.676627E-1,-7.097264E-2,1.2004171E-1,-2.3091258E-1,5.000747E-2,-1.1105074E-1,3.9567064E-2,6.0082123E-2,-1.1263868E-1,-9.916639E-2,1.9124871E-1,1.7278115E-1,-4.1565835E-2,-9.433166E-2,9.5369466E-2,-1.317931E-1,2.1539407E-2,-1.3877183E-1,6.983973E-3,9.591876E-2,6.764956E-2,4.8527982E-2,7.683308E-2,-1.2681375E-1,6.8052664E-2,1.0260271E-1,-1.0587657E-1,-1.0234794E-1,1.826003E-2,8.4092095E-2,1.2256918E-1,-6.1159562E-2,1.01809956E-1,-9.965997E-2,1.1940574E-1,1.3523966E-1,8.836269E-2,-3.1150887E-2,1.2543015E-1,1.8349922E-1,-8.267424E-2,-6.254588E-2,2.4642165E-1,1.3859181E-1,1.0312983E-1,1.2430615E-1,-1.6113833E-1,-5.123345E-2,1.2856191E-1,-1.5059814E-1,1.8464227E-1,9.687079E-2,-4.6152182E-2,-1.1034087E-1,9.602099E-2,-9.791591E-2,1.6615432E-2],"categories":[],"categories_nodes":[],"categories_segments":[],"categories_sizes":[],"default_left":[0,0,0,0,0,0,0,0,0,0,0,0,0,0,0,0,0,0,0,0,0,0,0,0,0,0,0,0,0,0,0,0,0,0,0,0,0,0,0,0,0,0,0,0,0,0,0,0,0,0,0,0,0,0,0,0,0,0,0,0,0,0,0],"id":18,"left_children":[1,3,25,5,9,7,23,-1,-1,21,11,13,-1,15,-1,-1,17,-1,19,-1,-1,-1,-1,-1,-1,-1,27,29,-1,-1,31,35,33,-1,-1,37,-1,-1,39,-1,41,-1,43,-1,45,47,61,51,49,-1,55,53,-1,-1,-1,59,57,-1,-1,-1,-1,-1,-1],"loss_changes":[6.714646E-1,5.766366E-1,3.115155E-1,4.4120365E-1,3.434584E-1,6.7980206E-1,3.4255362E-1,0E0,0E0,3.5388753E-1,4.0233365E-1,4.9546835E-1,0E0,4.324823E-1,0E0,0E0,5.6387424E-1,0E0,5.598354E-1,0E0,0E0,0E0,0E0,0E0,0E0,0E0,3.0667496E-1,7.7979887E-1,0E0,0E0,4.8704055E-1,3.429265E-1,5.552694E-1,0E0,0E0,3.4766597E-1,0E0,0E0,5.0572246E-1,0E0,5.7109547E-1,0E0,4.0873227E-1,0E0,5.833317E-1,5.893127E-1,3.8639045E-1,8.069428E-1,8.7038815E-1,0E0,4.2368564E-1,6.8374234E-1,0E0,0E0,0E0,6.4982635E-1,7.4867797E-1,0E0,0E0,0E0,0E0,0E0,0E0],"parents":[2147483647,0,0,1,1,3,3,5,5,4,4,10,10,11,11,13,13,16,16,18,18,9,9,6,6,2,2,26,26,27,27,30,30,32,32,31,31,35,35,38,38,40,40,42,42,44,44,45,45,48,48,47,47,51,51,50,50,56,56,55,55,46,46],"right_children":[2,4,26,6,10,8,24,-1,-1,22,12,14,-1,16,-1,-1,18,-1,20,-1,-1,-1,-1,-1,-1,-1,28,30,-1,-1,32,36,34,-1,-1,38,-1,-1,40,-1,42,-1,44,-1,46,48,62,52,50,-1,56,54,-1,-1,-1,60,58,-1,-1,-1,-1,-1,-1],"split_conditions":[1E0,3E0,7.1417E0,2.8E1,7.7417E0,2.4E1,5E1,-7.097264E-2,1.2004171E-1,1E0,1E0,1.45E1,3.9567064E-2,5.1E1,-1.1263868E-1,-9.916639E-2,2.69E2,1.7278115E-1,5.77E2,-9.433166E-2,9.5369466E-2,-1.317931E-1,2.1539407E-2,-1.3877183E-1,6.983973E-3,9.591876E-2,2E0,1E1,7.683308E-2,-1.2681375E-1,5.25542E1,3.675E1,5.79792E1,-1.0234794E-1,1.826003E-2,3.8E1,1.2256918E-1,-6.1159562E-2,7.2292E0,-9.965997E-2,7.75E0,1.3523966E-1,7.8792E0,-3.1150887E-2,4.1E1,2.1E1,4.55E1,1E0,3.88E2,1.3859181E-1,4.61E2,2.86E2,-1.6113833E-1,-5.123345E-2,1.2856191E-1,8.1375E0,2.54667E1,9.687079E-2,-4.6152182E-2,-1.1034087E-1,9.602099E-2,-9.791591E-2,1.6615432E-2],"split_indices":[6,1,5,2,5,2,2,0,0,8,9,5,0,0,0,0,0,0,0,0,0,0,0,0,0,0,3,2,0,0,5,5,5,0,0,0,0,0,5,0,5,0,5,0,2,2,2,3,0,0,0,0,0,0,0,5,5,0,0,0,0,0,0],"split_type":[0,0,0,0,0,0,0,0,0,0,0,0,0,0,0,0,0,0,0,0,0,0,0,0,0,0,0,0,0,0,0,0,0,0,0,0,0,0,0,0,0,0,0,0,0,0,0,0,0,0,0,0,0,0,0,0,0,0,0,0,0,0,0],"sum_hessian":[1.374998E2,4.5640694E1,9.18591E1,1.3133705E1,3.250699E1,5.191767E0,7.941938E0,3.5290947E0,1.6626728E0,4.109773E0,2.8397215E1,9.4511595E0,1.8946054E1,6.2067723E0,3.2443871E0,1.1780936E0,5.028679E0,1.3402803E0,3.6883986E0,2.167945E0,1.5204537E0,2.1668053E0,1.9429677E0,6.243069E0,1.6988688E0,4.3094087E0,8.75497E1,8.062666E1,6.923034E0,2.386115E0,7.824055E1,6.5616325E1,1.2624218E1,4.8021398E0,7.822078E0,6.3075134E1,2.5411923E0,3.0470543E0,6.002808E1,1.6422231E0,5.8385857E1,3.8426614E0,5.4543198E1,8.527239E0,4.6015957E1,3.6069443E1,9.946515E0,7.346899E0,2.8722544E1,1.0581302E1,1.8141241E1,5.8010044E0,1.5458949E0,3.1674604E0,2.633544E0,4.204897E0,1.3936345E1,9.927344E0,4.009E0,3.0266871E0,1.1782095E0,3.1036363E0,6.8428793E0],"tree_param":{"num_deleted":"0","num_feature":"10","num_nodes":"63","size_leaf_vector":"1"}},{"base_weights":[-3.382277E-2,6.4396024E-2,-8.279125E-2,2.3303491E-1,-8.659972E-3,9.740611E-4,3.6766255E-1,7.097259E-2,-1.2004187E-1,2.3091258E-1,-5.0007474E-2,1.1105075E-1,-3.956707E-2,-6.00821E-2,1.12638675E-1,9.916639E-2,-1.9124869E-1,-1.7278114E-1,4.156586E-2,9.433167E-2,-9.536948E-2,1.317931E-1,-2.1539398E-2,1.3877182E-1,-6.984058E-3,-9.591876E-2,-6.764956E-2,-4.8527982E-2,-7.6833084E-2,1.2681375E-1,-6.8052664E-2,-1.02602705E-1,1.05876565E-1,1.0234795E-1,-1.8260038E-2,-8.409209E-2,-1.2256918E-1,6.115957E-2,-1.0180995E-1,9.965997E-2,-1.1940573E-1,-1.3523966E-1,-8.836268E-2,3.1150883E-2,-1.2543015E-1,-1.834992E-1,8.267422E-2,6.254589E-2,-2.4642164E-1,-1.3859181E-1,-1.0312981E-1,-1.24306135E-1,1.6113833E-1,5.123346E-2,-1.2856191E-1,1.5059823E-1,-1.8464229E-1,-9.687079E-2,4.61522E-2,1.1034091E-1,-9.6020974E-2,9.791591E-2,-1.661544E-2],"categories":[],"categories_nodes":[],"categories_segments":[],"categories_sizes":[],"default_left":[0,0,0,0,0,0,0,0,0,0,0,0,0,0,0,0,0,0,0,0,0,0,0,0,0,0,0,0,0,0,0,0,0,0,0,0,0,0,0,0,0,0,0,0,0,0,0,0,0,0,0,0,0,0,0,0,0,0,0,0,0,0,0],"id":19,"left_children":[1,3,25,5,9,7,23,-1,-1,21,11,13,-1,15,-1,-1,17,-1,19,-1,-1,-1,-1,-1,-1,-1,27,29,-1,-1,31,35,33,-1,-1,37,-1,-1,39,-1,41,-1,43,-1,45,47,61,51,49,-1,55,53,-1,-1,-1,59,57,-1,-1,-1,-1,-1,-1],"loss_changes":[6.714633E-1,5.7663506E-1,3.115155E-1,4.412039E-1,3.434584E-1,6.7980236E-1,3.4255397E-1,0E0,0E0,3.5388747E-1,4.0233374E-1,4.954682E-1,0E0,4.324822E-1,0E0,0E0,5.6387424E-1,0E0,5.5983543E-1,0E0,0E0,0E0,0E0,0E0,0E0,0E0,3.0667502E-1,7.79799E-1,0E0,0E0,4.8704052E-1,3.4292644E-1,5.5526954E-1,0E0,0E0,3.4766594E-1,0E0,0E0,5.0572246E-1,0E0,5.710956E-1,0E0,4.0873224E-1,0E0,5.833314E-1,5.8931255E-1,3.863905E-1,8.0694276E-1,8.7038803E-1,0E0,4.2368597E-1,6.837424E-1,0E0,0E0,0E0,6.4982635E-1,7.486781E-1,0E0,0E0,0E0,0E0,0E0,0E0],"parents":[2147483647,0,0,1,1,3,3,5,5,4,4,10,10,11,11,13,13,16,16,18,18,9,9,6,6,2,2,26,26,27,27,30,30,32,32,31,31,35,35,38,38,40,40,42,42,44,44,45,45,48,48,47,47,51,51,50,50,56,56,55,55,46,46],"right_children":[2,4,26,6,10,8,24,-1,-1,22,12,14,-1,16,-1,-1,18,-1,20,-1,-1,-1,-1,-1,-1,-1,28,30,-1,-1,32,36,34,-1,-1,38,-1,-1,40,-1,42,-1,44,-1,46,48,62,52,50,-1,56,54,-1,-1,-1,60,58,-1,-1,-1,-1,-1,-1],"split_conditions":[1E0,3E0,7.1417E0,2.8E1,7.7417E0,2.4E1,5E1,7.097259E-2,-1.2004187E-1,1E0,1E0,1.45E1,-3.956707E-2,5.1E1,1.12638675E-1,9.916639E-2,2.69E2,-1.7278114E-1,5.77E2,9.433167E-2,-9.536948E-2,1.317931E-1,-2.1539398E-2,1.3877182E-1,-6.984058E-3,-9.591876E-2,2E0,1E1,-7.6833084E-2,1.2681375E-1,5.25542E1,3.675E1,5.79792E1,1.0234795E-1,-1.8260038E-2,3.8E1,-1.2256918E-1,6.115957E-2,7.2292E0,9.965997E-2,7.75E0,-1.3523966E-1,7.8792E0,3.1150883E-2,4.1E1,2.1E1,4.55E1,1E0,3.88E2,-1.3859181E-1,4.61E2,2.86E2,1.6113833E-1,5.123346E-2,-1.2856191E-1,8.1375E0,2.54667E1,-9.687079E-2,4.61522E-2,1.1034091E-1,-9.6020974E-2,9.791591E-2,-1.661544E-2],"split_indices":[6,1,5,2,5,2,2,0,0,8,9,5,0,0,0,0,0,0,0,0,0,0,0,0,0,0,3,2,0,0,5,5,5,0,0,0,0,0,5,0,5,0,5,0,2,2,2,3,0,0,0,0,0,0,0,5,5,0,0,0,0,0,0],"split_type":[0,0,0,0,0,0,0,0,0,0,0,0,0,0,0,0,0,0,0,0,0,0,0,0,0,0,0,0,0,0,0,0,0,0,0,0,0,0,0,0,0,0,0,0,0,0,0,0,0,0,0,0,0,0,0,0,0,0,0,0,0,0,0],"sum_hessian":[1.3749979E2,4.5640682E1,9.185911E1,1.3133693E1,3.250699E1,5.1917634E0,7.94193E0,3.5290918E0,1.6626713E0,4.109773E0,2.8397215E1,9.4511595E0,1.8946054E1,6.2067723E0,3.2443871E0,1.1780934E0,5.028679E0,1.3402803E0,3.6883988E0,2.1679451E0,1.5204536E0,2.1668053E0,1.9429678E0,6.2430625E0,1.6988673E0,4.309409E0,8.75497E1,8.062666E1,6.923035E0,2.3861148E0,7.824055E1,6.5616325E1,1.2624218E1,4.8021398E0,7.822078E0,6.3075138E1,2.5411923E0,3.0470543E0,6.0028084E1,1.642223E0,5.838586E1,3.8426614E0,5.4543198E1,8.527239E0,4.6015957E1,3.6069443E1,9.946516E0,7.3468995E0,2.8722544E1,1.0581302E1,1.8141241E1,5.8010044E0,1.545895E0,3.1674602E0,2.633544E0,4.2048965E0,1.3936345E1,9.927345E0,4.009E0,3.026687E0,1.1782094E0,3.1036363E0,6.84288E0],"tree_param":{"num_deleted":"0","num_feature":"10","num_nodes":"63","size_leaf_vector":"1"}}]},"name":"gbtree"},"learner_model_param":{"base_score":"5E-1","boost_from_average":"1","num_class":"2","num_feature":"10","num_target":"1"},"objective":{"name":"multi:softmax","softmax_multiclass_param":{"num_class":"2"}}},"version":[3,0,0]}