{"learner":{"attributes":{},"feature_names":["PassengerId","Pclass","Age","SibSp","Parch","Fare","Sex_male","Embarked_MISSING","Embarked_Q","Embarked_S"],"feature_types":["int","int","float","int","int","float","float","float","float","float"],"gradient_booster":{"model":{"gbtree_model_param":{"num_parallel_tree":"1","num_trees":"20"},"iteration_indptr":[0,2,4,6,8,10,12,14,16,18,20],"tree_info":[0,1,0,1,0,1,0,1,0,1,0,1,0,1,0,1,0,1,0,1],"trees":[{"base_weights":[2.576E-1,-4.511628E-1,6.262136E-1,-2.7321428E-1,4.761905E-2,-3.6363637E-1,6.785714E-1,-1.2643678E-1,2.4000001E-1,-2.6000002E-1,1.6666669E-1,2.2023122E-1,2.5E-1,5.833333E-1,-7.692308E-2,-3.6842105E-1,1.6666669E-1,-3.846154E-1,8E-2,-1.5E-1,2.1818183E-1,-2.0000002E-1,1.7391305E-1,1.56E-1,-6.521739E-2,-1.5882355E-1,1.5E-1,-2E-1,-2.4545455E-1,-1.25E-1,1.5E-1],"categories":[],"categories_nodes":[],"categories_segments":[],"categories_sizes":[],"default_left":[0,0,0,0,0,0,0,0,0,0,0,0,0,0,0,0,0,0,0,0,0,0,0,0,0,0,0,0,0,0,0],"id":0,"left_children":[1,3,5,-1,7,9,11,17,-1,-1,-1,-1,13,19,15,25,-1,27,21,-1,-1,-1,23,-1,-1,-1,-1,29,-1,-1,-1],"loss_changes":[8.192615E1,2.4684084E1,1.0922989E1,0E0,6.9763546E0,5.5676765E0,4.4812164E0,2.3492131E0,0E0,0E0,0E0,0E0,2.6602564E0,2.2348485E0,2.6014392E0,1.5928792E0,0E0,1.397203E0,1.8689855E0,0E0,0E0,0E0,3.227826E0,0E0,0E0,0E0,0E0,2.483333E0,0E0,0E0,0E0],"parents":[2147483647,0,0,1,1,2,2,4,4,5,5,6,6,12,12,14,14,7,7,13,13,18,18,22,22,15,15,17,17,27,27],"right_children":[2,4,6,-1,8,10,12,18,-1,-1,-1,-1,14,20,16,26,-1,28,22,-1,-1,-1,24,-1,-1,-1,-1,30,-1,-1,-1],"split_conditions":[1E0,3E0,7E0,-2.7321428E-1,2.345E1,3E0,5.25542E1,1E0,2.4000001E-1,-2.6000002E-1,1.6666669E-1,2.2023122E-1,4.42E2,5.59E1,7.41E2,2E0,1.6666669E-1,1.55E1,7.7333E0,-1.5E-1,2.1818183E-1,-2.0000002E-1,1.11333E1,1.56E-1,-6.521739E-2,-1.5882355E-1,1.5E-1,1.35E1,-2.4545455E-1,-1.25E-1,1.5E-1],"split_indices":[6,1,2,0,5,3,5,9,0,0,0,0,0,5,0,3,0,5,5,0,0,0,5,0,0,0,0,5,0,0,0],"split_type":[0,0,0,0,0,0,0,0,0,0,0,0,0,0,0,0,0,0,0,0,0,0,0,0,0,0,0,0,0,0,0],"sum_hessian":[3.115E2,1.065E2,2.05E2,5.5E1,5.15E1,1E1,1.95E2,4.25E1,9E0,6.5E0,3.5E0,1.72E2,2.3E1,1.1E1,1.2E1,8.5E0,3.5E0,1.85E1,2.4E1,1E0,1E1,2E0,2.2E1,1.15E1,1.05E1,7.5E0,1E0,1.4E1,4.5E0,1.1E1,3E0],"tree_param":{"num_deleted":"0","num_feature":"10","num_nodes":"31","size_leaf_vector":"1"}},{"base_weights":[-2.576E-1,4.511628E-1,-6.262136E-1,2.7321428E-1,-4.761905E-2,3.6363637E-1,-6.785714E-1,1.2643678E-1,-2.4000001E-1,2.6000002E-1,-1.6666669E-1,-2.2023122E-1,-2.5E-1,-5.833333E-1,7.692308E-2,3.6842105E-1,-1.6666669E-1,3.846154E-1,-8E-2,1.5E-1,-2.1818183E-1,2.0000002E-1,-1.7391305E-1,-1.56E-1,6.521739E-2,1.5882355E-1,-1.5E-1,2E-1,2.4545455E-1,1.25E-1,-1.5E-1],"categories":[],"categories_nodes":[],"categories_segments":[],"categories_sizes":[],"default_left":[0,0,0,0,0,0,0,0,0,0,0,0,0,0,0,0,0,0,0,0,0,0,0,0,0,0,0,0,0,0,0],"id":1,"left_children":[1,3,5,-1,7,9,11,17,-1,-1,-1,-1,13,19,15,25,-1,27,21,-1,-1,-1,23,-1,-1,-1,-1,29,-1,-1,-1],"loss_changes":[8.192615E1,2.4684084E1,1.0922989E1,0E0,6.9763546E0,5.5676765E0,4.4812164E0,2.3492131E0,0E0,0E0,0E0,0E0,2.6602564E0,2.2348485E0,2.6014392E0,1.5928792E0,0E0,1.397203E0,1.8689855E0,0E0,0E0,0E0,3.227826E0,0E0,0E0,0E0,0E0,2.483333E0,0E0,0E0,0E0],"parents":[2147483647,0,0,1,1,2,2,4,4,5,5,6,6,12,12,14,14,7,7,13,13,18,18,22,22,15,15,17,17,27,27],"right_children":[2,4,6,-1,8,10,12,18,-1,-1,-1,-1,14,20,16,26,-1,28,22,-1,-1,-1,24,-1,-1,-1,-1,30,-1,-1,-1],"split_conditions":[1E0,3E0,7E0,2.7321428E-1,2.345E1,3E0,5.25542E1,1E0,-2.4000001E-1,2.6000002E-1,-1.6666669E-1,-2.2023122E-1,4.42E2,5.59E1,7.41E2,2E0,-1.6666669E-1,1.55E1,7.7333E0,1.5E-1,-2.1818183E-1,2.0000002E-1,1.11333E1,-1.56E-1,6.521739E-2,1.5882355E-1,-1.5E-1,1.35E1,2.4545455E-1,1.25E-1,-1.5E-1],"split_indices":[6,1,2,0,5,3,5,9,0,0,0,0,0,5,0,3,0,5,5,0,0,0,5,0,0,0,0,5,0,0,0],"split_type":[0,0,0,0,0,0,0,0,0,0,0,0,0,0,0,0,0,0,0,0,0,0,0,0,0,0,0,0,0,0,0],"sum_hessian":[3.115E2,1.065E2,2.05E2,5.5E1,5.15E1,1E1,1.95E2,4.25E1,9E0,6.5E0,3.5E0,1.72E2,2.3E1,1.1E1,1.2E1,8.5E0,3.5E0,1.85E1,2.4E1,1E0,1E1,2E0,2.2E1,1.15E1,1.05E1,7.5E0,1E0,1.4E1,4.5E0,1.1E1,3E0],"tree_param":{"num_deleted":"0","num_feature":"10","num_nodes":"31","size_leaf_vector":"1"}},{"base_weights":[1.9004738E-1,-3.3907923E-1,4.6410644E-1,-2.0926832E-1,3.29439E-2,-2.7899742E-1,5.032591E-1,-9.850754E-2,1.8568408E-1,-2.053943E-1,1.3091066E-1,2.3929478E-1,5.665131E-1,1.456549E-1,-1.1404528E-1,-1.1489112E-1,3.8036406E-1,-1.4756173E-1,1.8235655E-1,4.7787866E-1,2.1171953E-1,1.5644413E-1,7.906895E-2,-1.4798206E-1,2.6275983E-1,1.5899387E-1,-9.240154E-2,1.9372652E-1,-4.4749103E-2,-9.615937E-3,-9.609826E-2],"categories":[],"categories_nodes":[],"categories_segments":[],"categories_sizes":[],"default_left":[0,0,0,0,0,0,0,0,0,0,0,0,0,0,0,0,0,0,0,0,0,0,0,0,0,0,0,0,0,0,0],"id":2,"left_children":[1,3,5,-1,7,9,11,17,-1,-1,-1,13,19,-1,15,-1,27,29,-1,21,-1,-1,23,-1,25,-1,-1,-1,-1,-1,-1],"loss_changes":[4.3343895E1,1.365224E1,5.8608894E0,0E0,3.997703E0,3.3411586E0,2.9889565E0,1.5659605E0,0E0,0E0,0E0,3.3531609E0,1.5164871E0,0E0,2.3230696E0,0E0,9.7762555E-1,8.008019E-1,0E0,1.6087303E0,0E0,0E0,1.2367003E0,0E0,1.4785957E0,0E0,0E0,0E0,0E0,0E0,0E0],"parents":[2147483647,0,0,1,1,2,2,4,4,5,5,6,6,11,11,14,14,7,7,12,12,19,19,22,22,24,24,16,16,17,17],"right_children":[2,4,6,-1,8,10,12,18,-1,-1,-1,14,20,-1,16,-1,28,30,-1,22,-1,-1,24,-1,26,-1,-1,-1,-1,-1,-1],"split_conditions":[1E0,3E0,7E0,-2.0926832E-1,2.345E1,3E0,2E0,3.7E1,1.8568408E-1,-2.053943E-1,1.3091066E-1,5.88E2,5.84E2,1.456549E-1,7.45E2,-1.1489112E-1,8.17E2,2.9699118E1,1.8235655E-1,5.44E2,2.1171953E-1,1.5644413E-1,5.51E2,-1.4798206E-1,3E1,1.5899387E-1,-9.240154E-2,1.9372652E-1,-4.4749103E-2,-9.615937E-3,-9.609826E-2],"split_indices":[6,1,2,0,5,3,1,2,0,0,0,0,0,0,0,0,0,2,0,0,0,0,0,0,2,0,0,0,0,0,0],"split_type":[0,0,0,0,0,0,0,0,0,0,0,0,0,0,0,0,0,0,0,0,0,0,0,0,0,0,0,0,0,0,0],"sum_hessian":[2.9681357E2,1.0119631E2,1.9561726E2,5.109046E1,5.0105854E1,9.4842205E0,1.8613304E2,4.1604977E1,8.500875E0,6.07967E0,3.4045503E0,3.690566E1,1.4922739E2,2.1529182E1,1.5376474E1,1.0105284E1,5.2711906E0,3.964302E1,1.9619595E0,9.388652E1,5.5340866E1,8.435628E1,9.530245E0,1.9060489E0,7.6241956E0,5.2416344E0,2.3825612E0,3.3651419E0,1.9060489E0,2.4468967E1,1.5174052E1],"tree_param":{"num_deleted":"0","num_feature":"10","num_nodes":"31","size_leaf_vector":"1"}},{"base_weights":[-1.9004737E-1,3.3907923E-1,-4.6410644E-1,2.0926833E-1,-3.2943938E-2,2.7899748E-1,-5.032591E-1,9.850749E-2,-1.8568408E-1,2.0539431E-1,-1.3091066E-1,-2.3929478E-1,-5.665131E-1,-1.456549E-1,1.14045285E-1,1.14891134E-1,-3.8036406E-1,1.4756167E-1,-1.8235657E-1,-4.7787866E-1,-2.1171953E-1,-1.5644413E-1,-7.906895E-2,1.4798206E-1,-2.6275983E-1,-1.5899387E-1,9.240154E-2,-1.9372652E-1,4.4749103E-2,9.615925E-3,9.6098244E-2],"categories":[],"categories_nodes":[],"categories_segments":[],"categories_sizes":[],"default_left":[0,0,0,0,0,0,0,0,0,0,0,0,0,0,0,0,0,0,0,0,0,0,0,0,0,0,0,0,0,0,0],"id":3,"left_children":[1,3,5,-1,7,9,11,17,-1,-1,-1,13,19,-1,15,-1,27,29,-1,21,-1,-1,23,-1,25,-1,-1,-1,-1,-1,-1],"loss_changes":[4.3343895E1,1.3652245E1,5.8608894E0,0E0,3.9977024E0,3.341159E0,2.9889565E0,1.5659605E0,0E0,0E0,0E0,3.3531609E0,1.5164871E0,0E0,2.3230696E0,0E0,9.7762555E-1,8.008018E-1,0E0,1.6087303E0,0E0,0E0,1.2367003E0,0E0,1.4785957E0,0E0,0E0,0E0,0E0,0E0,0E0],"parents":[2147483647,0,0,1,1,2,2,4,4,5,5,6,6,11,11,14,14,7,7,12,12,19,19,22,22,24,24,16,16,17,17],"right_children":[2,4,6,-1,8,10,12,18,-1,-1,-1,14,20,-1,16,-1,28,30,-1,22,-1,-1,24,-1,26,-1,-1,-1,-1,-1,-1],"split_conditions":[1E0,3E0,7E0,2.0926833E-1,2.345E1,3E0,2E0,3.7E1,-1.8568408E-1,2.0539431E-1,-1.3091066E-1,5.88E2,5.84E2,-1.456549E-1,7.45E2,1.14891134E-1,8.17E2,2.9699118E1,-1.8235657E-1,5.44E2,-2.1171953E-1,-1.5644413E-1,5.51E2,1.4798206E-1,3E1,-1.5899387E-1,9.240154E-2,-1.9372652E-1,4.4749103E-2,9.615925E-3,9.6098244E-2],"split_indices":[6,1,2,0,5,3,1,2,0,0,0,0,0,0,0,0,0,2,0,0,0,0,0,0,2,0,0,0,0,0,0],"split_type":[0,0,0,0,0,0,0,0,0,0,0,0,0,0,0,0,0,0,0,0,0,0,0,0,0,0,0,0,0,0,0],"sum_hessian":[2.9681357E2,1.0119632E2,1.9561726E2,5.109046E1,5.0105854E1,9.48422E0,1.8613304E2,4.160498E1,8.500875E0,6.0796695E0,3.40455E0,3.690566E1,1.4922739E2,2.1529182E1,1.5376474E1,1.0105284E1,5.2711906E0,3.964302E1,1.9619596E0,9.388652E1,5.5340866E1,8.435628E1,9.530245E0,1.9060489E0,7.6241956E0,5.2416344E0,2.3825612E0,3.3651419E0,1.9060489E0,2.4468967E1,1.5174053E1],"tree_param":{"num_deleted":"0","num_feature":"10","num_nodes":"31","size_leaf_vector":"1"}},{"base_weights":[1.4959732E-1,-2.6528922E-1,3.6489156E-1,-1.7584468E-1,3.0566527E-2,-1.3638204E-1,4.043515E-1,-1.9639587E-1,1.4932281E-1,4.7690088E-1,1.913461E-1,-6.810642E-2,1.538884E-1,1.358031E-1,-8.044794E-3,-2.9401217E-2,1.4830787E-1,-1.7350979E-1,2.6930323E-1,-1.0615742E-1,1.538479E-1,7.197942E-2,-3.94719E-1,-2.1023302E-1,-1.6725624E-2,-1.2753493E-1,4.6596435E-4,4.951621E-2,-2.9050818E-1,2.0002879E-1,-1.3927831E-1],"categories":[],"categories_nodes":[],"categories_segments":[],"categories_sizes":[],"default_left":[0,0,0,0,0,0,0,0,0,0,0,0,0,0,0,0,0,0,0,0,0,0,0,0,0,0,0,0,0,0,0],"id":4,"left_children":[1,3,5,-1,11,7,9,-1,-1,15,13,25,-1,-1,17,-1,-1,21,19,-1,-1,-1,23,-1,-1,-1,27,-1,29,-1,-1],"loss_changes":[2.4416286E1,8.902765E0,3.6090603E0,0E0,2.3980298E0,4.8806415E0,2.4865417E0,0E0,0E0,1.290638E0,2.2989976E0,1.030797E0,0E0,0E0,1.2384835E0,0E0,0E0,1.6378987E0,1.7135239E0,0E0,0E0,0E0,1.1405138E0,0E0,0E0,0E0,1.7870446E0,0E0,2.551981E0,0E0,0E0],"parents":[2147483647,0,0,1,1,2,2,5,5,6,6,4,4,10,10,9,9,14,14,18,18,17,17,22,22,11,11,26,26,28,28],"right_children":[2,4,6,-1,12,8,10,-1,-1,16,14,26,-1,-1,18,-1,-1,22,20,-1,-1,-1,24,-1,-1,-1,28,-1,30,-1,-1],"split_conditions":[1E0,3E0,1.3E1,-1.7584468E-1,2.345E1,3E0,2.62875E1,-1.9639587E-1,1.4932281E-1,3.8E1,4.54E2,7.7417E0,1.538884E-1,1.358031E-1,1E0,-2.9401217E-2,1.4830787E-1,6.04E2,6.47E2,-1.0615742E-1,1.538479E-1,7.197942E-2,7.11E2,-2.1023302E-1,-1.6725624E-2,-1.2753493E-1,1.5E1,4.951621E-2,4.2E1,2.0002879E-1,-1.3927831E-1],"split_indices":[6,1,2,0,5,3,5,0,0,0,0,5,0,0,3,0,0,0,0,0,0,0,0,0,0,0,5,0,0,0,0],"split_type":[0,0,0,0,0,0,0,0,0,0,0,0,0,0,0,0,0,0,0,0,0,0,0,0,0,0,0,0,0,0,0],"sum_hessian":[2.712655E2,9.25955E1,1.7867E2,4.394996E1,4.8645542E1,1.2859169E1,1.6581082E2,7.0581565E0,5.801012E0,1.2276E2,4.3050823E1,4.1097866E1,7.547675E0,1.8081749E1,2.4969072E1,3.482128E0,1.1927788E2,1.5873429E1,9.095644E0,2.4284093E0,6.6672344E0,5.5032287E0,1.03702E1,4.8887205E0,5.4814796E0,5.784156E0,3.5313713E1,2.2831783E1,1.2481929E1,1.4816319E0,1.1000297E1],"tree_param":{"num_deleted":"0","num_feature":"10","num_nodes":"31","size_leaf_vector":"1"}},{"base_weights":[-1.4959732E-1,2.6528922E-1,-3.6489156E-1,1.7584468E-1,-3.0566502E-2,1.3638201E-1,-4.0435147E-1,1.9639586E-1,-1.4932282E-1,-4.7690085E-1,-1.9134611E-1,6.810645E-2,-1.538884E-1,-1.358031E-1,8.04476E-3,2.9401239E-2,-1.4830787E-1,1.7350976E-1,-2.6930323E-1,1.0615742E-1,-1.538479E-1,-7.1979426E-2,3.9471895E-1,2.10233E-1,1.6725611E-2,1.2753496E-1,-4.6594054E-4,-4.95162E-2,2.9050818E-1,-2.0002879E-1,1.3927831E-1],"categories":[],"categories_nodes":[],"categories_segments":[],"categories_sizes":[],"default_left":[0,0,0,0,0,0,0,0,0,0,0,0,0,0,0,0,0,0,0,0,0,0,0,0,0,0,0,0,0,0,0],"id":5,"left_children":[1,3,5,-1,11,7,9,-1,-1,15,13,25,-1,-1,17,-1,-1,21,19,-1,-1,-1,23,-1,-1,-1,27,-1,29,-1,-1],"loss_changes":[2.4416286E1,8.902765E0,3.6090603E0,0E0,2.3980303E0,4.8806415E0,2.4865417E0,0E0,0E0,1.2906418E0,2.2989974E0,1.0307972E0,0E0,0E0,1.2384837E0,0E0,0E0,1.6378984E0,1.7135236E0,0E0,0E0,0E0,1.140514E0,0E0,0E0,0E0,1.7870445E0,0E0,2.551981E0,0E0,0E0],"parents":[2147483647,0,0,1,1,2,2,5,5,6,6,4,4,10,10,9,9,14,14,18,18,17,17,22,22,11,11,26,26,28,28],"right_children":[2,4,6,-1,12,8,10,-1,-1,16,14,26,-1,-1,18,-1,-1,22,20,-1,-1,-1,24,-1,-1,-1,28,-1,30,-1,-1],"split_conditions":[1E0,3E0,1.3E1,1.7584468E-1,2.345E1,3E0,2.62875E1,1.9639586E-1,-1.4932282E-1,3.8E1,4.54E2,7.7417E0,-1.538884E-1,-1.358031E-1,1E0,2.9401239E-2,-1.4830787E-1,6.04E2,6.47E2,1.0615742E-1,-1.538479E-1,-7.1979426E-2,7.11E2,2.10233E-1,1.6725611E-2,1.2753496E-1,1.5E1,-4.95162E-2,4.2E1,-2.0002879E-1,1.3927831E-1],"split_indices":[6,1,2,0,5,3,5,0,0,0,0,5,0,0,3,0,0,0,0,0,0,0,0,0,0,0,5,0,0,0,0],"split_type":[0,0,0,0,0,0,0,0,0,0,0,0,0,0,0,0,0,0,0,0,0,0,0,0,0,0,0,0,0,0,0],"sum_hessian":[2.712655E2,9.25955E1,1.7867E2,4.394996E1,4.8645542E1,1.2859168E1,1.6581082E2,7.058157E0,5.8010116E0,1.2276001E2,4.3050823E1,4.1097866E1,7.547675E0,1.8081749E1,2.4969072E1,3.482128E0,1.1927788E2,1.5873429E1,9.095644E0,2.4284093E0,6.667235E0,5.5032287E0,1.03702E1,4.8887205E0,5.4814796E0,5.784156E0,3.5313713E1,2.2831783E1,1.2481929E1,1.4816319E0,1.1000297E1],"tree_param":{"num_deleted":"0","num_feature":"10","num_nodes":"31","size_leaf_vector":"1"}},{"base_weights":[1.18988074E-1,-2.1429056E-1,2.9211092E-1,-1.5330279E-1,2.5479471E-2,-1.1278956E-1,3.2368684E-1,-1.6406178E-1,1.24785185E-1,1.1008278E-1,3.470832E-2,-1.5260682E-1,2.604877E-1,-7.292911E-2,3.8945955E-1,2.2548843E-2,-3.817167E-1,-1.9527145E-1,2.8440827E-1,1.9233714E-1,-1.7870991E-1,-1.2736365E-1,4.5140684E-2,-1.3345301E-1,9.678164E-2,-8.774644E-3,1.4777642E-1,6.912985E-2,-1.5839499E-1,9.134654E-3,1.9335328E-1],"categories":[],"categories_nodes":[],"categories_segments":[],"categories_sizes":[],"default_left":[0,0,0,0,0,0,0,0,0,0,0,0,0,0,0,0,0,0,0,0,0,0,0,0,0,0,0,0,0,0,0],"id":6,"left_children":[1,3,5,-1,13,7,9,-1,-1,-1,11,-1,25,15,29,17,27,21,19,-1,23,-1,-1,-1,-1,-1,-1,-1,-1,-1,-1],"loss_changes":[1.4173851E1,6.0024986E0,2.0998E0,0E0,1.7303205E0,3.0772605E0,1.8618364E0,0E0,0E0,0E0,2.6635041E0,0E0,1.0389582E0,1.1361499E0,9.207698E-1,1.7756032E0,9.353987E-1,1.4158508E0,2.4440708E0,0E0,1.066411E0,0E0,0E0,0E0,0E0,0E0,0E0,0E0,0E0,0E0,0E0],"parents":[2147483647,0,0,1,1,2,2,5,5,6,6,10,10,4,4,13,13,15,15,18,18,17,17,20,20,12,12,16,16,14,14],"right_children":[2,4,6,-1,14,8,10,-1,-1,-1,12,-1,26,16,30,18,28,22,20,-1,24,-1,-1,-1,-1,-1,-1,-1,-1,-1,-1],"split_conditions":[1E0,3E0,1.3E1,-1.5330279E-1,2.0575E1,3E0,5.25542E1,-1.6406178E-1,1.24785185E-1,1.1008278E-1,5.79792E1,-1.5260682E-1,1E0,1.55E1,3.36E2,8.05E0,9E1,3.82E2,1E0,1.9233714E-1,1.35E1,-1.2736365E-1,4.5140684E-2,-1.3345301E-1,9.678164E-2,-8.774644E-3,1.4777642E-1,6.912985E-2,-1.5839499E-1,9.134654E-3,1.9335328E-1],"split_indices":[6,1,2,0,5,3,5,0,0,0,5,0,9,5,0,5,0,0,4,0,5,0,0,0,0,0,0,0,0,0,0],"split_type":[0,0,0,0,0,0,0,0,0,0,0,0,0,0,0,0,0,0,0,0,0,0,0,0,0,0,0,0,0,0,0],"sum_hessian":[2.4357031E2,8.318779E1,1.6038252E2,3.6673088E1,4.6514698E1,1.14164505E1,1.4896608E2,6.25058E0,5.1658707E0,1.2933653E2,1.962954E1,5.394122E0,1.4235416E1,3.7244587E1,9.27011E0,2.9156343E1,8.088243E0,1.6055405E1,1.3100941E1,7.183503E0,5.917437E0,9.516624E0,6.5387793E0,3.938991E0,1.9784459E0,6.720293E0,7.515123E0,1.4489057E0,6.639337E0,4.3152876E0,4.954823E0],"tree_param":{"num_deleted":"0","num_feature":"10","num_nodes":"31","size_leaf_vector":"1"}},{"base_weights":[-1.1898812E-1,2.1429048E-1,-2.9211092E-1,1.5330276E-1,-2.5479484E-2,1.12789564E-1,-3.2368684E-1,1.6406178E-1,-1.24785185E-1,-1.1008279E-1,-3.4708325E-2,1.5260682E-1,-2.604877E-1,7.292909E-2,-3.8945958E-1,-2.2548849E-2,3.8171667E-1,1.9527143E-1,-2.8440827E-1,-1.9233714E-1,1.7870991E-1,1.2736365E-1,-4.514069E-2,1.3345301E-1,-9.6781634E-2,8.774643E-3,-1.4777642E-1,-6.912987E-2,1.5839499E-1,-9.134658E-3,-1.9335328E-1],"categories":[],"categories_nodes":[],"categories_segments":[],"categories_sizes":[],"default_left":[0,0,0,0,0,0,0,0,0,0,0,0,0,0,0,0,0,0,0,0,0,0,0,0,0,0,0,0,0,0,0],"id":7,"left_children":[1,3,5,-1,13,7,9,-1,-1,-1,11,-1,25,15,29,17,27,21,19,-1,23,-1,-1,-1,-1,-1,-1,-1,-1,-1,-1],"loss_changes":[1.4173844E1,6.002494E0,2.099802E0,0E0,1.7303206E0,3.0772605E0,1.8618364E0,0E0,0E0,0E0,2.663504E0,0E0,1.0389581E0,1.1361495E0,9.207697E-1,1.7756032E0,9.353988E-1,1.4158508E0,2.4440708E0,0E0,1.066411E0,0E0,0E0,0E0,0E0,0E0,0E0,0E0,0E0,0E0,0E0],"parents":[2147483647,0,0,1,1,2,2,5,5,6,6,10,10,4,4,13,13,15,15,18,18,17,17,20,20,12,12,16,16,14,14],"right_children":[2,4,6,-1,14,8,10,-1,-1,-1,12,-1,26,16,30,18,28,22,20,-1,24,-1,-1,-1,-1,-1,-1,-1,-1,-1,-1],"split_conditions":[1E0,3E0,1.3E1,1.5330276E-1,2.0575E1,3E0,5.25542E1,1.6406178E-1,-1.24785185E-1,-1.1008279E-1,5.79792E1,1.5260682E-1,1E0,1.55E1,3.36E2,8.05E0,9E1,3.82E2,1E0,-1.9233714E-1,1.35E1,1.2736365E-1,-4.514069E-2,1.3345301E-1,-9.6781634E-2,8.774643E-3,-1.4777642E-1,-6.912987E-2,1.5839499E-1,-9.134658E-3,-1.9335328E-1],"split_indices":[6,1,2,0,5,3,5,0,0,0,5,0,9,5,0,5,0,0,4,0,5,0,0,0,0,0,0,0,0,0,0],"split_type":[0,0,0,0,0,0,0,0,0,0,0,0,0,0,0,0,0,0,0,0,0,0,0,0,0,0,0,0,0,0,0],"sum_hessian":[2.435703E2,8.3187775E1,1.6038252E2,3.667308E1,4.6514694E1,1.1416451E1,1.4896608E2,6.2505803E0,5.1658707E0,1.2933653E2,1.962954E1,5.3941226E0,1.4235416E1,3.7244587E1,9.27011E0,2.9156343E1,8.088243E0,1.6055403E1,1.310094E1,7.183503E0,5.9174366E0,9.516624E0,6.5387793E0,3.938991E0,1.9784459E0,6.720293E0,7.5151234E0,1.4489057E0,6.6393366E0,4.3152876E0,4.954823E0],"tree_param":{"num_deleted":"0","num_feature":"10","num_nodes":"31","size_leaf_vector":"1"}},{"base_weights":[9.4559476E-2,-1.7294633E-1,2.3213108E-1,-1.3547592E-1,2.4211269E-2,-1.9778632E-1,2.522368E-1,-5.6563236E-2,1.5200017E-1,-1.408453E-1,6.278117E-2,8.4892094E-2,2.998335E-1,1.9910836E-1,1.4232479E-1,3.637686E-1,2.3402512E-2,1.5667425E-1,1.2088123E-3,-2.0592692E-1,6.807972E-2,1.3211375E-1,-1.7443936E-2,-1.05785705E-1,4.3317795E-1,1.2614226E-1,-1.5480459E-1,-1.3912171E-1,5.8210112E-2,2.3516342E-2,1.5724581E-1],"categories":[],"categories_nodes":[],"categories_segments":[],"categories_sizes":[],"default_left":[0,0,0,0,0,0,0,0,0,0,0,0,0,0,0,0,0,0,0,0,0,0,0,0,0,0,0,0,0,0,0],"id":8,"left_children":[1,3,5,-1,7,27,11,-1,9,-1,-1,17,13,15,-1,23,-1,-1,19,-1,21,-1,-1,25,29,-1,-1,-1,-1,-1,-1],"loss_changes":[8.143176E0,4.150442E0,1.3104367E0,0E0,1.2542017E0,8.273258E-1,1.0877132E0,0E0,1.120312E0,0E0,0E0,1.183089E0,1.8119802E0,1.3768666E0,0E0,1.0102675E0,0E0,0E0,1.3411628E0,0E0,1.2740142E0,0E0,0E0,1.2132174E0,7.973795E-1,0E0,0E0,0E0,0E0,0E0,0E0],"parents":[2147483647,0,0,1,1,2,2,4,4,8,8,6,6,12,12,13,13,11,11,18,18,20,20,15,15,23,23,5,5,24,24],"right_children":[2,4,6,-1,8,28,12,-1,10,-1,-1,18,14,16,-1,24,-1,-1,20,-1,22,-1,-1,26,30,-1,-1,-1,-1,-1,-1],"split_conditions":[1E0,3E0,7E0,-1.3547592E-1,1E0,3E0,2E0,-5.6563236E-2,7.7333E0,-1.408453E-1,6.278117E-2,1.88E2,5.84E2,2.07E2,1.4232479E-1,3.8E1,2.3402512E-2,1.5667425E-1,2.5E2,-2.0592692E-1,4.54E2,1.3211375E-1,-1.7443936E-2,1.5E1,7.8E0,1.2614226E-1,-1.5480459E-1,-1.3912171E-1,5.8210112E-2,2.3516342E-2,1.5724581E-1],"split_indices":[6,1,2,0,9,3,1,0,5,0,0,0,0,0,0,0,0,0,0,0,0,0,0,0,5,0,0,0,0,0,0],"split_type":[0,0,0,0,0,0,0,0,0,0,0,0,0,0,0,0,0,0,0,0,0,0,0,0,0,0,0,0,0,0,0],"sum_hessian":[2.1918384E2,7.435146E1,1.4483238E2,3.0274483E1,4.4076984E1,6.075867E0,1.387565E2,1.6361439E1,2.7715546E1,1.7312084E0,2.5984337E1,3.1342672E1,1.0741383E2,6.9472336E1,3.7941498E1,2.8591911E1,4.088043E1,4.1921906E0,2.7150482E1,1.585183E0,2.55653E1,5.842943E0,1.9722357E1,3.6146579E0,2.4977253E1,1.5724629E0,2.0421948E0,3.5099168E0,2.5659506E0,5.477466E0,1.9499786E1],"tree_param":{"num_deleted":"0","num_feature":"10","num_nodes":"31","size_leaf_vector":"1"}},{"base_weights":[-9.455951E-2,1.729463E-1,-2.3213111E-1,1.3547592E-1,-2.4211252E-2,1.9778644E-1,-2.5223684E-1,5.6563236E-2,-1.5200014E-1,1.408453E-1,-6.278116E-2,-8.489211E-2,-2.9983354E-1,-1.9910838E-1,-1.4232482E-1,-3.637686E-1,-2.3402514E-2,-1.5667425E-1,-1.2088271E-3,2.0592691E-1,-6.8079725E-2,-1.3211375E-1,1.7443929E-2,1.0578564E-1,-4.3317795E-1,-1.2614226E-1,1.5480456E-1,1.3912171E-1,-5.8210086E-2,-2.3516342E-2,-1.5724581E-1],"categories":[],"categories_nodes":[],"categories_segments":[],"categories_sizes":[],"default_left":[0,0,0,0,0,0,0,0,0,0,0,0,0,0,0,0,0,0,0,0,0,0,0,0,0,0,0,0,0,0,0],"id":9,"left_children":[1,3,5,-1,7,27,11,-1,9,-1,-1,17,13,15,-1,23,-1,-1,19,-1,21,-1,-1,25,29,-1,-1,-1,-1,-1,-1],"loss_changes":[8.143178E0,4.1504407E0,1.3104353E0,0E0,1.2542017E0,8.273258E-1,1.0877151E0,0E0,1.120312E0,0E0,0E0,1.183089E0,1.8119822E0,1.3768663E0,0E0,1.0102673E0,0E0,0E0,1.3411627E0,0E0,1.274014E0,0E0,0E0,1.2132174E0,7.973795E-1,0E0,0E0,0E0,0E0,0E0,0E0],"parents":[2147483647,0,0,1,1,2,2,4,4,8,8,6,6,12,12,13,13,11,11,18,18,20,20,15,15,23,23,5,5,24,24],"right_children":[2,4,6,-1,8,28,12,-1,10,-1,-1,18,14,16,-1,24,-1,-1,20,-1,22,-1,-1,26,30,-1,-1,-1,-1,-1,-1],"split_conditions":[1E0,3E0,7E0,1.3547592E-1,1E0,3E0,2E0,5.6563236E-2,7.7333E0,1.408453E-1,-6.278116E-2,1.88E2,5.84E2,2.07E2,-1.4232482E-1,3.8E1,-2.3402514E-2,-1.5667425E-1,2.5E2,2.0592691E-1,4.54E2,-1.3211375E-1,1.7443929E-2,1.5E1,7.8E0,-1.2614226E-1,1.5480456E-1,1.3912171E-1,-5.8210086E-2,-2.3516342E-2,-1.5724581E-1],"split_indices":[6,1,2,0,9,3,1,0,5,0,0,0,0,0,0,0,0,0,0,0,0,0,0,0,5,0,0,0,0,0,0],"split_type":[0,0,0,0,0,0,0,0,0,0,0,0,0,0,0,0,0,0,0,0,0,0,0,0,0,0,0,0,0,0,0],"sum_hessian":[2.1918384E2,7.435146E1,1.4483238E2,3.0274477E1,4.4076984E1,6.075868E0,1.3875652E2,1.6361439E1,2.7715546E1,1.7312084E0,2.5984337E1,3.1342674E1,1.0741384E2,6.9472336E1,3.79415E1,2.8591911E1,4.088043E1,4.1921906E0,2.7150482E1,1.5851831E0,2.55653E1,5.842943E0,1.9722357E1,3.6146579E0,2.4977253E1,1.5724629E0,2.0421948E0,3.5099177E0,2.5659504E0,5.477466E0,1.9499786E1],"tree_param":{"num_deleted":"0","num_feature":"10","num_nodes":"31","size_leaf_vector":"1"}},{"base_weights":[7.4839845E-2,-1.4173217E-1,1.860842E-1,-1.1978756E-1,1.4192794E-2,-1.1220886E-1,2.0846973E-1,-1.4101355E-1,9.3757205E-2,2.683633E-1,5.9103727E-2,1.7544146E-1,1.3363834E-1,8.0671124E-2,-7.005329E-2,3.3865884E-1,2.2031143E-2,-3.582443E-2,4.2474657E-1,-3.4457347E-1,7.153584E-2,-2.0424236E-1,8.849884E-2,1.2945178E-1,-1.2767011E-1,1.8032447E-2,1.6783337E-1,-1.6979644E-2,8.8215545E-2,-8.8481456E-2,8.2709014E-2],"categories":[],"categories_nodes":[],"categories_segments":[],"categories_sizes":[],"default_left":[0,0,0,0,0,0,0,0,0,0,0,0,0,0,0,0,0,0,0,0,0,0,0,0,0,0,0,0,0,0,0],"id":10,"left_children":[1,3,5,-1,27,7,9,-1,-1,11,13,15,-1,-1,19,17,-1,-1,25,21,23,-1,-1,-1,29,-1,-1,-1,-1,-1,-1],"loss_changes":[4.875787E0,2.771615E0,9.142356E-1,0E0,8.8571805E-1,1.6611338E0,1.0974536E0,0E0,0E0,1.3789868E0,1.01876E0,9.69476E-1,0E0,0E0,9.4327027E-1,9.4561505E-1,0E0,0E0,9.154179E-1,1.9671619E0,1.2325375E0,0E0,0E0,0E0,8.465667E-1,0E0,0E0,0E0,0E0,0E0,0E0],"parents":[2147483647,0,0,1,1,2,2,5,5,6,6,9,9,10,10,11,11,15,15,14,14,19,19,20,20,18,18,4,4,24,24],"right_children":[2,4,6,-1,28,8,10,-1,-1,12,14,16,-1,-1,20,18,-1,-1,26,22,24,-1,-1,-1,30,-1,-1,-1,-1,-1,-1],"split_conditions":[1E0,3E0,1.3E1,-1.1978756E-1,2.0575E1,3E0,2.62875E1,-1.4101355E-1,9.3757205E-2,5.84E2,4.54E2,2.07E2,1.3363834E-1,8.0671124E-2,3.1E1,3.8E1,2.2031143E-2,-3.582443E-2,7.8E0,5.2E1,5.25542E1,-2.0424236E-1,8.849884E-2,1.2945178E-1,7.41E2,1.8032447E-2,1.6783337E-1,-1.6979644E-2,8.8215545E-2,-8.8481456E-2,8.2709014E-2],"split_indices":[6,1,2,0,5,3,5,0,0,0,0,0,0,0,5,0,0,0,5,2,5,0,0,0,0,0,0,0,0,0,0],"split_type":[0,0,0,0,0,0,0,0,0,0,0,0,0,0,0,0,0,0,0,0,0,0,0,0,0,0,0,0,0,0,0],"sum_hessian":[2.0028384E2,6.787324E1,1.3241061E2,2.5006407E1,4.286683E1,8.963057E0,1.2344755E2,4.8067226E0,4.1563344E0,8.754616E1,3.5901394E1,5.872451E1,2.8821644E1,1.3267671E1,2.2633724E1,2.1693169E1,3.703134E1,3.3706703E0,1.8322498E1,7.2137413E0,1.5419983E1,4.68583E0,2.5279114E0,5.0779223E0,1.0342061E1,5.332697E0,1.2989801E1,3.48493E1,8.0175295E0,7.5005455E0,2.8415155E0],"tree_param":{"num_deleted":"0","num_feature":"10","num_nodes":"31","size_leaf_vector":"1"}},{"base_weights":[-7.483977E-2,1.4173225E-1,-1.8608415E-1,1.1978758E-1,-1.4192781E-2,1.1220884E-1,-2.0846969E-1,1.4101353E-1,-9.375719E-2,-2.6836324E-1,-5.910372E-2,-1.7544137E-1,-1.3363834E-1,-8.067112E-2,7.005327E-2,-3.3865875E-1,-2.2031117E-2,3.5824426E-2,-4.2474648E-1,3.4457347E-1,-7.153586E-2,2.0424236E-1,-8.849884E-2,-1.2945178E-1,1.2767011E-1,-1.8032439E-2,-1.6783333E-1,1.6979644E-2,-8.821552E-2,8.8481456E-2,-8.2709014E-2],"categories":[],"categories_nodes":[],"categories_segments":[],"categories_sizes":[],"default_left":[0,0,0,0,0,0,0,0,0,0,0,0,0,0,0,0,0,0,0,0,0,0,0,0,0,0,0,0,0,0,0],"id":11,"left_children":[1,3,5,-1,27,7,9,-1,-1,11,13,15,-1,-1,19,17,-1,-1,25,21,23,-1,-1,-1,29,-1,-1,-1,-1,-1,-1],"loss_changes":[4.875789E0,2.771617E0,9.1423416E-1,0E0,8.857177E-1,1.6611334E0,1.0974531E0,0E0,0E0,1.3789873E0,1.0187597E0,9.694761E-1,0E0,0E0,9.4327044E-1,9.456148E-1,0E0,0E0,9.154172E-1,1.9671621E0,1.2325376E0,0E0,0E0,0E0,8.465667E-1,0E0,0E0,0E0,0E0,0E0,0E0],"parents":[2147483647,0,0,1,1,2,2,5,5,6,6,9,9,10,10,11,11,15,15,14,14,19,19,20,20,18,18,4,4,24,24],"right_children":[2,4,6,-1,28,8,10,-1,-1,12,14,16,-1,-1,20,18,-1,-1,26,22,24,-1,-1,-1,30,-1,-1,-1,-1,-1,-1],"split_conditions":[1E0,3E0,1.3E1,1.1978758E-1,2.0575E1,3E0,2.62875E1,1.4101353E-1,-9.375719E-2,5.84E2,4.54E2,2.07E2,-1.3363834E-1,-8.067112E-2,3.1E1,3.8E1,-2.2031117E-2,3.5824426E-2,7.8E0,5.2E1,5.25542E1,2.0424236E-1,-8.849884E-2,-1.2945178E-1,7.41E2,-1.8032439E-2,-1.6783333E-1,1.6979644E-2,-8.821552E-2,8.8481456E-2,-8.2709014E-2],"split_indices":[6,1,2,0,5,3,5,0,0,0,0,0,0,0,5,0,0,0,5,2,5,0,0,0,0,0,0,0,0,0,0],"split_type":[0,0,0,0,0,0,0,0,0,0,0,0,0,0,0,0,0,0,0,0,0,0,0,0,0,0,0,0,0,0,0],"sum_hessian":[2.0028384E2,6.7873245E1,1.324106E2,2.5006416E1,4.286683E1,8.963057E0,1.2344754E2,4.806722E0,4.1563344E0,8.754615E1,3.5901394E1,5.8724506E1,2.882164E1,1.3267671E1,2.2633724E1,2.1693165E1,3.703134E1,3.3706703E0,1.8322495E1,7.2137413E0,1.5419983E1,4.6858296E0,2.5279117E0,5.077923E0,1.034206E1,5.3326964E0,1.2989799E1,3.48493E1,8.017529E0,7.500545E0,2.8415155E0],"tree_param":{"num_deleted":"0","num_feature":"10","num_nodes":"31","size_leaf_vector":"1"}},{"base_weights":[6.110359E-2,-1.1106939E-1,1.5130082E-1,-3.502782E-1,1.2263767E-2,-4.270193E-1,1.8026225E-1,1.917118E-1,-9.560747E-2,1.08032525E-1,1.1482481E-1,6.4385976E-3,-1.5724361E-1,-1.03138305E-1,6.577232E-2,-7.294865E-2,2.3524159E-1,1.5507035E-1,-4.4539504E-2,8.3979234E-2,-1.5915428E-1,6.857545E-2,-1.0533611E-1,2.9246882E-1,6.926319E-2,-1.10946424E-1,1.1007331E-1,-1.3246296E-1,3.860786E-2,-1.6113648E-1,1.6836056E-2],"categories":[],"categories_nodes":[],"categories_segments":[],"categories_sizes":[],"default_left":[0,0,0,0,0,0,0,0,0,0,0,0,0,0,0,0,0,0,0,0,0,0,0,0,0,0,0,0,0,0,0],"id":12,"left_children":[1,3,9,5,13,11,7,-1,-1,-1,23,-1,-1,-1,15,19,17,-1,-1,21,-1,-1,-1,25,27,-1,-1,29,-1,-1,-1],"loss_changes":[2.8841047E0,1.8939328E0,8.846991E-1,9.6548724E-1,8.4618384E-1,8.54651E-1,9.958891E-1,0E0,0E0,0E0,8.2936215E-1,0E0,0E0,0E0,9.203538E-1,1.6163177E0,1.9712595E0,0E0,0E0,1.1600999E0,0E0,0E0,0E0,1.1768119E0,1.034336E0,0E0,0E0,1.5413297E0,0E0,0E0,0E0],"parents":[2147483647,0,0,1,1,3,3,6,6,2,2,5,5,4,4,14,14,16,16,15,15,19,19,10,10,23,23,24,24,27,27],"right_children":[2,4,10,6,14,12,8,-1,-1,-1,24,-1,-1,-1,16,20,18,-1,-1,22,-1,-1,-1,26,28,-1,-1,30,-1,-1,-1],"split_conditions":[1E0,3E0,7.75E0,1.5155E2,6E0,1.8E2,2.6E1,1.917118E-1,-9.560747E-2,1.08032525E-1,1.88E2,6.4385976E-3,-1.5724361E-1,-1.03138305E-1,3.98E2,2.79E2,6.85E2,1.5507035E-1,-4.4539504E-2,1E0,-1.5915428E-1,6.857545E-2,-1.0533611E-1,7.8E0,1E0,-1.10946424E-1,1.1007331E-1,2.9699118E1,3.860786E-2,-1.6113648E-1,1.6836056E-2],"split_indices":[6,1,5,5,2,0,2,0,0,0,0,0,0,0,0,0,0,0,0,8,0,0,0,5,9,0,0,2,0,0,0],"split_type":[0,0,0,0,0,0,0,0,0,0,0,0,0,0,0,0,0,0,0,0,0,0,0,0,0,0,0,0,0,0,0],"sum_hessian":[1.8363536E2,6.3050335E1,1.2058503E2,2.0823112E1,4.2227226E1,1.8362198E1,2.4609132E0,1.1358061E0,1.3251071E0,1.6612726E1,1.03972305E2,3.4074183E0,1.4954781E1,4.808086E0,3.741914E1,2.088942E1,1.652972E1,9.332258E0,7.197462E0,1.6162687E1,4.726732E0,1.2487198E1,3.6754892E0,2.0117054E1,8.385525E1,1.6317719E0,1.8485283E1,1.8802788E1,6.505246E1,5.389624E0,1.3413163E1],"tree_param":{"num_deleted":"0","num_feature":"10","num_nodes":"31","size_leaf_vector":"1"}},{"base_weights":[-6.1103597E-2,1.1106938E-1,-1.5130083E-1,3.502782E-1,-1.2263766E-2,4.270193E-1,-1.8026225E-1,-1.917118E-1,9.560747E-2,-1.08032525E-1,-1.1482482E-1,-6.4385976E-3,1.5724361E-1,1.031383E-1,-6.577231E-2,7.294865E-2,-2.3524158E-1,-1.5507035E-1,4.453951E-2,-8.397924E-2,1.5915428E-1,-6.857546E-2,1.0533613E-1,-2.9246888E-1,-6.9263175E-2,1.1094643E-1,-1.10073335E-1,1.3246296E-1,-3.860786E-2,1.6113648E-1,-1.6836055E-2],"categories":[],"categories_nodes":[],"categories_segments":[],"categories_sizes":[],"default_left":[0,0,0,0,0,0,0,0,0,0,0,0,0,0,0,0,0,0,0,0,0,0,0,0,0,0,0,0,0,0,0],"id":13,"left_children":[1,3,9,5,13,11,7,-1,-1,-1,23,-1,-1,-1,15,19,17,-1,-1,21,-1,-1,-1,25,27,-1,-1,29,-1,-1,-1],"loss_changes":[2.8841047E0,1.8939328E0,8.846991E-1,9.6548724E-1,8.461838E-1,8.54651E-1,9.958891E-1,0E0,0E0,0E0,8.2936263E-1,0E0,0E0,0E0,9.203538E-1,1.6163177E0,1.9712597E0,0E0,0E0,1.1601002E0,0E0,0E0,0E0,1.1768126E0,1.034336E0,0E0,0E0,1.5413296E0,0E0,0E0,0E0],"parents":[2147483647,0,0,1,1,3,3,6,6,2,2,5,5,4,4,14,14,16,16,15,15,19,19,10,10,23,23,24,24,27,27],"right_children":[2,4,10,6,14,12,8,-1,-1,-1,24,-1,-1,-1,16,20,18,-1,-1,22,-1,-1,-1,26,28,-1,-1,30,-1,-1,-1],"split_conditions":[1E0,3E0,7.75E0,1.5155E2,6E0,1.8E2,2.6E1,-1.917118E-1,9.560747E-2,-1.08032525E-1,1.88E2,-6.4385976E-3,1.5724361E-1,1.031383E-1,3.98E2,2.79E2,6.85E2,-1.5507035E-1,4.453951E-2,1E0,1.5915428E-1,-6.857546E-2,1.0533613E-1,7.8E0,1E0,1.1094643E-1,-1.10073335E-1,2.9699118E1,-3.860786E-2,1.6113648E-1,-1.6836055E-2],"split_indices":[6,1,5,5,2,0,2,0,0,0,0,0,0,0,0,0,0,0,0,8,0,0,0,5,9,0,0,2,0,0,0],"split_type":[0,0,0,0,0,0,0,0,0,0,0,0,0,0,0,0,0,0,0,0,0,0,0,0,0,0,0,0,0,0,0],"sum_hessian":[1.8363536E2,6.305034E1,1.2058503E2,2.0823112E1,4.2227226E1,1.8362198E1,2.4609132E0,1.1358061E0,1.3251071E0,1.6612726E1,1.03972305E2,3.4074183E0,1.4954781E1,4.8080864E0,3.741914E1,2.088942E1,1.652972E1,9.332258E0,7.1974626E0,1.6162687E1,4.726732E0,1.2487198E1,3.6754892E0,2.0117058E1,8.385525E1,1.6317718E0,1.8485285E1,1.8802788E1,6.505246E1,5.3896246E0,1.3413163E1],"tree_param":{"num_deleted":"0","num_feature":"10","num_nodes":"31","size_leaf_vector":"1"}},{"base_weights":[4.4155873E-2,-9.350979E-2,1.1518286E-1,-3.067476E-1,3.7876435E-3,-3.8799882E-1,1.3386226E-1,1.8774591E-1,-1.03288375E-1,4.8990864E-3,-1.5000275E-1,-3.2619275E-2,1.3266796E-1,-8.194335E-2,1.2885427E-1,2.8268296E-2,3.18302E-1,1.55118E-1,3.8776346E-2,-1.9724083E-1,9.9311575E-2,7.131574E-3,-1.2860307E-1,-1.1476249E-1,1.5220161E-1,-1.027963E-1,2.8247234E-1,1.144245E-1,-5.1049016E-2,-9.638033E-2,1.1994873E-2],"categories":[],"categories_nodes":[],"categories_segments":[],"categories_sizes":[],"default_left":[0,0,0,0,0,0,0,0,0,0,0,0,0,0,0,0,0,0,0,0,0,0,0,0,0,0,0,0,0,0,0],"id":14,"left_children":[1,3,13,5,11,9,7,-1,-1,-1,-1,21,-1,-1,15,-1,17,-1,19,-1,-1,23,-1,29,25,-1,27,-1,-1,-1,-1],"loss_changes":[1.705018E0,1.2361288E0,6.443918E-1,7.20049E-1,6.8262565E-1,7.333851E-1,1.0738574E0,0E0,0E0,0E0,0E0,6.262396E-1,0E0,0E0,7.0160484E-1,0E0,9.1408324E-1,0E0,1.859426E0,0E0,0E0,6.709727E-1,0E0,6.7280936E-1,1.212291E0,0E0,7.0291245E-1,0E0,0E0,0E0,0E0],"parents":[2147483647,0,0,1,1,3,3,6,6,5,5,4,4,2,2,14,14,16,16,18,18,11,11,21,21,24,24,26,26,23,23],"right_children":[2,4,14,6,12,10,8,-1,-1,-1,-1,22,-1,-1,16,-1,18,-1,20,-1,-1,24,-1,30,26,-1,28,-1,-1,-1,-1],"split_conditions":[1E0,3E0,4E0,1.5155E2,3.7E1,1.8E2,2.113375E2,1.8774591E-1,-1.03288375E-1,4.8990864E-3,-1.5000275E-1,3.1E1,1.3266796E-1,-8.194335E-2,7.47E2,2.8268296E-2,8.28E2,1.55118E-1,8.42E2,-1.9724083E-1,9.9311575E-2,3.98E2,-1.2860307E-1,8.05E0,1.6E1,-1.027963E-1,8.19E2,1.144245E-1,-5.1049016E-2,-9.638033E-2,1.1994873E-2],"split_indices":[6,1,2,5,2,0,5,0,0,0,0,2,0,0,0,0,0,0,0,0,0,0,0,5,2,0,0,0,0,0,0],"split_type":[0,0,0,0,0,0,0,0,0,0,0,0,0,0,0,0,0,0,0,0,0,0,0,0,0,0,0,0,0,0,0],"sum_hessian":[1.7227174E2,5.8523674E1,1.1374807E2,1.7662258E1,4.0861416E1,1.50131445E1,2.6491134E0,1.1535021E0,1.4956113E0,3.4421287E0,1.1571015E1,3.858316E1,2.2782526E0,3.2229562E0,1.10525116E2,9.471145E1,1.5813669E1,8.745421E0,7.0682483E0,1.720345E0,5.3479033E0,3.595635E1,2.6268132E0,1.9652441E1,1.6303907E1,3.057842E0,1.3246065E1,1.0999096E1,2.2469697E0,7.9573627E0,1.1695079E1],"tree_param":{"num_deleted":"0","num_feature":"10","num_nodes":"31","size_leaf_vector":"1"}},{"base_weights":[-4.4155873E-2,9.350974E-2,-1.1518283E-1,3.067475E-1,-3.7876612E-3,3.8799873E-1,-1.3386215E-1,-1.8774588E-1,1.0328839E-1,-4.8991437E-3,1.5000272E-1,3.2619257E-2,-1.3266796E-1,8.194336E-2,-1.2885424E-1,-2.8268287E-2,-3.1830198E-1,-1.55118E-1,-3.8776286E-2,1.9724084E-1,-9.931157E-2,-7.1315905E-3,1.2860307E-1,1.1476247E-1,-1.5220162E-1,1.02796294E-1,-2.8247234E-1,-1.144245E-1,5.1049005E-2,9.638032E-2,-1.1994877E-2],"categories":[],"categories_nodes":[],"categories_segments":[],"categories_sizes":[],"default_left":[0,0,0,0,0,0,0,0,0,0,0,0,0,0,0,0,0,0,0,0,0,0,0,0,0,0,0,0,0,0,0],"id":15,"left_children":[1,3,13,5,11,9,7,-1,-1,-1,-1,21,-1,-1,15,-1,17,-1,19,-1,-1,23,-1,29,25,-1,27,-1,-1,-1,-1],"loss_changes":[1.7050165E0,1.2361282E0,6.443919E-1,7.2004807E-1,6.826257E-1,7.3338556E-1,1.0738573E0,0E0,0E0,0E0,0E0,6.262396E-1,0E0,0E0,7.0160484E-1,0E0,9.140836E-1,0E0,1.8594258E0,0E0,0E0,6.709727E-1,0E0,6.728092E-1,1.212291E0,0E0,7.0291245E-1,0E0,0E0,0E0,0E0],"parents":[2147483647,0,0,1,1,3,3,6,6,5,5,4,4,2,2,14,14,16,16,18,18,11,11,21,21,24,24,26,26,23,23],"right_children":[2,4,14,6,12,10,8,-1,-1,-1,-1,22,-1,-1,16,-1,18,-1,20,-1,-1,24,-1,30,26,-1,28,-1,-1,-1,-1],"split_conditions":[1E0,3E0,4E0,1.5155E2,3.7E1,1.8E2,2.113375E2,-1.8774588E-1,1.0328839E-1,-4.8991437E-3,1.5000272E-1,3.1E1,-1.3266796E-1,8.194336E-2,7.47E2,-2.8268287E-2,8.28E2,-1.55118E-1,8.42E2,1.9724084E-1,-9.931157E-2,3.98E2,1.2860307E-1,8.05E0,1.6E1,1.02796294E-1,8.19E2,-1.144245E-1,5.1049005E-2,9.638032E-2,-1.1994877E-2],"split_indices":[6,1,2,5,2,0,5,0,0,0,0,2,0,0,0,0,0,0,0,0,0,0,0,5,2,0,0,0,0,0,0],"split_type":[0,0,0,0,0,0,0,0,0,0,0,0,0,0,0,0,0,0,0,0,0,0,0,0,0,0,0,0,0,0,0],"sum_hessian":[1.7227174E2,5.852367E1,1.1374807E2,1.7662252E1,4.0861416E1,1.501314E1,2.6491137E0,1.1535022E0,1.4956114E0,3.4421277E0,1.1571012E1,3.8583164E1,2.2782526E0,3.2229562E0,1.1052511E2,9.471144E1,1.5813667E1,8.74542E0,7.0682473E0,1.7203449E0,5.3479023E0,3.595635E1,2.6268132E0,1.9652441E1,1.6303907E1,3.057842E0,1.3246066E1,1.0999096E1,2.24697E0,7.9573627E0,1.1695079E1],"tree_param":{"num_deleted":"0","num_feature":"10","num_nodes":"31","size_leaf_vector":"1"}},{"base_weights":[3.13449E-2,1.1903184E-1,1.4371387E-2,-8.727043E-2,2.0467909E-2,-2.6649946E-1,-1.2771636E-2,-1.2560241E-1,4.939469E-2,-4.680641E-4,-1.19434685E-1,-2.4090226E-1,1.0056695E-1,3.462134E-1,-6.609642E-3,-8.421365E-3,1.7086953E-1,1.02230586E-1,-1.0522294E-1,2.7791332E-2,-2.0034309E-1,-1.1738284E-1,9.9994555E-2,-6.913969E-2,1.1895461E-1,8.046527E-2,-3.2305557E-1,-1.8606907E-2,1.5665571E-1,-1.4045209E-1,4.031489E-2],"categories":[],"categories_nodes":[],"categories_segments":[],"categories_sizes":[],"default_left":[0,0,0,0,0,0,0,0,0,0,0,0,0,0,0,0,0,0,0,0,0,0,0,0,0,0,0,0,0,0,0],"id":16,"left_children":[1,-1,3,5,-1,9,7,-1,11,-1,-1,19,13,15,23,17,-1,-1,-1,21,-1,-1,-1,25,-1,27,29,-1,-1,-1,-1],"loss_changes":[1.0165375E0,0E0,8.737379E-1,7.3557526E-1,0E0,5.642686E-1,1.0336728E0,0E0,5.5466604E-1,0E0,0E0,6.6615105E-1,8.2007015E-1,7.536588E-1,5.972914E-1,6.7403215E-1,0E0,0E0,0E0,6.969593E-1,0E0,0E0,0E0,8.0181164E-1,0E0,8.916378E-1,5.787922E-1,0E0,0E0,0E0,0E0],"parents":[2147483647,0,0,2,2,3,3,6,6,5,5,8,8,12,12,13,13,15,15,11,11,19,19,14,14,23,23,25,25,26,26],"right_children":[2,-1,4,6,-1,10,8,-1,12,-1,-1,20,14,16,24,18,-1,-1,-1,22,-1,-1,-1,26,-1,28,30,-1,-1,-1,-1],"split_conditions":[7.1417E0,1.1903184E-1,1E0,3E0,2.0467909E-2,3.02E2,7.7417E0,-1.2560241E-1,6E0,-4.680641E-4,-1.19434685E-1,4E0,2.4E1,9.475E0,2.345E1,7.8792E0,1.7086953E-1,1.02230586E-1,-1.0522294E-1,2E0,-2.0034309E-1,-1.1738284E-1,9.9994555E-2,1.55E1,1.1895461E-1,1E0,5.61E2,-1.8606907E-2,1.5665571E-1,-1.4045209E-1,4.031489E-2],"split_indices":[5,0,6,1,0,0,5,0,2,0,0,2,2,5,5,5,0,0,0,2,0,0,0,5,0,3,0,0,0,0,0],"split_type":[0,0,0,0,0,0,0,0,0,0,0,0,0,0,0,0,0,0,0,0,0,0,0,0,0,0,0,0,0,0,0],"sum_hessian":[1.6380838E2,6.277709E0,1.5753067E2,5.4344498E1,1.0318618E2,1.5199747E1,3.914475E1,4.4373274E0,3.4707424E1,5.3806057E0,9.81914E0,4.6455946E0,3.0061829E1,8.454345E0,2.1607483E1,3.6388783E0,4.8154664E0,1.8036143E0,1.835264E0,3.424889E0,1.2207055E0,1.3257582E0,2.0991306E0,1.942318E1,2.1843033E0,1.2651897E1,6.7712827E0,1.0216039E1,2.4358587E0,5.12269E0,1.6485926E0],"tree_param":{"num_deleted":"0","num_feature":"10","num_nodes":"31","size_leaf_vector":"1"}},{"base_weights":[-3.1344905E-2,-1.19031854E-1,-1.4371387E-2,8.727042E-2,-2.0467907E-2,2.6649946E-1,1.2771615E-2,1.2560241E-1,-4.939471E-2,4.6805292E-4,1.19434685E-1,2.4090222E-1,-1.00566976E-1,-3.4621343E-1,6.6096275E-3,8.4213335E-3,-1.7086953E-1,-1.02230586E-1,1.0522293E-1,-2.7791359E-2,2.0034309E-1,1.1738284E-1,-9.9994555E-2,6.913968E-2,-1.1895461E-1,-8.046528E-2,3.2305554E-1,1.8606907E-2,-1.5665571E-1,1.4045207E-1,-4.0314894E-2],"categories":[],"categories_nodes":[],"categories_segments":[],"categories_sizes":[],"default_left":[0,0,0,0,0,0,0,0,0,0,0,0,0,0,0,0,0,0,0,0,0,0,0,0,0,0,0,0,0,0,0],"id":17,"left_children":[1,-1,3,5,-1,9,7,-1,11,-1,-1,19,13,15,23,17,-1,-1,-1,21,-1,-1,-1,25,-1,27,29,-1,-1,-1,-1],"loss_changes":[1.0165379E0,0E0,8.737377E-1,7.355755E-1,0E0,5.642687E-1,1.033673E0,0E0,5.5466604E-1,0E0,0E0,6.6615117E-1,8.2007027E-1,7.5365865E-1,5.9729147E-1,6.7403203E-1,0E0,0E0,0E0,6.969594E-1,0E0,0E0,0E0,8.0181164E-1,0E0,8.916378E-1,5.787923E-1,0E0,0E0,0E0,0E0],"parents":[2147483647,0,0,2,2,3,3,6,6,5,5,8,8,12,12,13,13,15,15,11,11,19,19,14,14,23,23,25,25,26,26],"right_children":[2,-1,4,6,-1,10,8,-1,12,-1,-1,20,14,16,24,18,-1,-1,-1,22,-1,-1,-1,26,-1,28,30,-1,-1,-1,-1],"split_conditions":[7.1417E0,-1.19031854E-1,1E0,3E0,-2.0467907E-2,3.02E2,7.7417E0,1.2560241E-1,6E0,4.6805292E-4,1.19434685E-1,4E0,2.4E1,9.475E0,2.345E1,7.8792E0,-1.7086953E-1,-1.02230586E-1,1.0522293E-1,2E0,2.0034309E-1,1.1738284E-1,-9.9994555E-2,1.55E1,-1.1895461E-1,1E0,5.61E2,1.8606907E-2,-1.5665571E-1,1.4045207E-1,-4.0314894E-2],"split_indices":[5,0,6,1,0,0,5,0,2,0,0,2,2,5,5,5,0,0,0,2,0,0,0,5,0,3,0,0,0,0,0],"split_type":[0,0,0,0,0,0,0,0,0,0,0,0,0,0,0,0,0,0,0,0,0,0,0,0,0,0,0,0,0,0,0],"sum_hessian":[1.6380838E2,6.27771E0,1.5753067E2,5.4344498E1,1.0318618E2,1.5199747E1,3.9144753E1,4.437327E0,3.4707424E1,5.380605E0,9.819141E0,4.6455946E0,3.0061829E1,8.454345E0,2.1607483E1,3.6388783E0,4.815467E0,1.8036143E0,1.8352641E0,3.424889E0,1.2207056E0,1.3257583E0,2.0991309E0,1.942318E1,2.1843035E0,1.2651897E1,6.7712827E0,1.0216039E1,2.4358587E0,5.12269E0,1.6485926E0],"tree_param":{"num_deleted":"0","num_feature":"10","num_nodes":"31","size_leaf_vector":"1"}},{"base_weights":[2.3050852E-2,1.0396762E-1,9.383251E-3,-9.163958E-2,5.1054176E-2,1.3476306E-1,-1.01143844E-1,-6.0487956E-1,2.8625963E-2,-2.78067E-1,-4.7608027E-3,-3.176181E-1,1.1554413E-2,3.724259E-2,3.088073E-1,-1.9407945E-2,-1.8287402E-1,-2.0523894E-1,4.995015E-2,-1.2951912E-1,6.327698E-2,1.4968613E-1,-1.0212204E-2,-2.8433785E-1,1.3793959E-1,-4.4321112E-2,-3.108431E-1,5.6064755E-2,-1.1259305E-1,-4.380851E-2,1.09970845E-1],"categories":[],"categories_nodes":[],"categories_segments":[],"categories_sizes":[],"default_left":[0,0,0,0,0,0,0,0,0,0,0,0,0,0,0,0,0,0,0,0,0,0,0,0,0,0,0,0,0,0,0],"id":18,"left_children":[1,-1,3,11,5,13,7,9,17,-1,-1,15,-1,21,29,-1,-1,19,-1,-1,-1,-1,23,25,27,-1,-1,-1,-1,-1,-1],"loss_changes":[6.9129336E-1,0E0,6.434665E-1,1.3260965E0,1.3904835E0,1.1791742E0,2.561427E0,1.5059452E0,1.0628002E0,0E0,0E0,1.1741109E0,0E0,1.0150976E0,7.117746E-1,0E0,0E0,1.2485211E0,0E0,0E0,0E0,0E0,1.776635E0,1.421867E0,7.8467035E-1,0E0,0E0,0E0,0E0,0E0,0E0],"parents":[2147483647,0,0,2,2,4,4,6,6,7,7,3,3,5,5,11,11,8,8,17,17,13,13,22,22,23,23,24,24,14,14],"right_children":[2,-1,4,12,6,14,8,10,18,-1,-1,16,-1,22,30,-1,-1,20,-1,-1,-1,-1,24,26,28,-1,-1,-1,-1,-1,-1],"split_conditions":[7.1417E0,1.0396762E-1,1E0,2.9699118E1,3.1E1,2.8E1,3.3E1,1E0,2E0,-2.78067E-1,-4.7608027E-3,2.2E1,1.1554413E-2,5.3E1,1.12E2,-1.9407945E-2,-1.8287402E-1,5.2E1,4.995015E-2,-1.2951912E-1,6.327698E-2,1.4968613E-1,2.86E2,2.5E2,2.7E1,-4.4321112E-2,-3.108431E-1,5.6064755E-2,-1.1259305E-1,-4.380851E-2,1.09970845E-1],"split_indices":[5,0,9,2,2,2,2,3,1,0,0,2,0,0,0,0,0,2,0,0,0,0,0,0,2,0,0,0,0,0,0],"split_type":[0,0,0,0,0,0,0,0,0,0,0,0,0,0,0,0,0,0,0,0,0,0,0,0,0,0,0,0,0,0,0],"sum_hessian":[1.5608089E2,5.3395348E0,1.5074136E2,4.367089E1,1.07070465E2,6.9151634E1,3.7918835E1,7.017476E0,3.0901358E1,4.1661906E0,2.8512857E0,1.543382E1,2.823707E1,4.5096912E1,2.405472E1,8.924315E0,6.509504E0,1.12797985E1,1.962156E1,7.280216E0,3.9995825E0,3.316337E0,4.1780575E1,1.4335791E1,2.7444784E1,1.3144064E1,1.1917266E0,2.5636044E1,1.8087407E0,2.5384161E0,2.1516304E1],"tree_param":{"num_deleted":"0","num_feature":"10","num_nodes":"31","size_leaf_vector":"1"}},{"base_weights":[-2.3050876E-2,-1.0396763E-1,-9.383274E-3,9.1639556E-2,-5.10542E-2,-1.3476308E-1,1.01143815E-1,6.048795E-1,-2.8625993E-2,2.78067E-1,4.760801E-3,3.176181E-1,-1.155442E-2,-3.7242606E-2,-3.088073E-1,1.9407935E-2,1.8287402E-1,2.0523891E-1,-4.995016E-2,1.2951912E-1,-6.327698E-2,-1.4968613E-1,1.0212189E-2,2.8433788E-1,-1.3793962E-1,4.432112E-2,3.108431E-1,-5.6064766E-2,1.1259304E-1,4.3808516E-2,-1.0997085E-1],"categories":[],"categories_nodes":[],"categories_segments":[],"categories_sizes":[],"default_left":[0,0,0,0,0,0,0,0,0,0,0,0,0,0,0,0,0,0,0,0,0,0,0,0,0,0,0,0,0,0,0],"id":19,"left_children":[1,-1,3,11,5,13,7,9,17,-1,-1,15,-1,21,29,-1,-1,19,-1,-1,-1,-1,23,25,27,-1,-1,-1,-1,-1,-1],"loss_changes":[6.912935E-1,0E0,6.4346635E-1,1.3260965E0,1.3904833E0,1.1791742E0,2.561427E0,1.5059445E0,1.0628003E0,0E0,0E0,1.1741108E0,0E0,1.0150976E0,7.117748E-1,0E0,0E0,1.2485211E0,0E0,0E0,0E0,0E0,1.7766354E0,1.4218671E0,7.8467035E-1,0E0,0E0,0E0,0E0,0E0,0E0],"parents":[2147483647,0,0,2,2,4,4,6,6,7,7,3,3,5,5,11,11,8,8,17,17,13,13,22,22,23,23,24,24,14,14],"right_children":[2,-1,4,12,6,14,8,10,18,-1,-1,16,-1,22,30,-1,-1,20,-1,-1,-1,-1,24,26,28,-1,-1,-1,-1,-1,-1],"split_conditions":[7.1417E0,-1.0396763E-1,1E0,2.9699118E1,3.1E1,2.8E1,3.3E1,1E0,2E0,2.78067E-1,4.760801E-3,2.2E1,-1.155442E-2,5.3E1,1.12E2,1.9407935E-2,1.8287402E-1,5.2E1,-4.995016E-2,1.2951912E-1,-6.327698E-2,-1.4968613E-1,2.86E2,2.5E2,2.7E1,4.432112E-2,3.108431E-1,-5.6064766E-2,1.1259304E-1,4.3808516E-2,-1.0997085E-1],"split_indices":[5,0,9,2,2,2,2,3,1,0,0,2,0,0,0,0,0,2,0,0,0,0,0,0,2,0,0,0,0,0,0],"split_type":[0,0,0,0,0,0,0,0,0,0,0,0,0,0,0,0,0,0,0,0,0,0,0,0,0,0,0,0,0,0,0],"sum_hessian":[1.5608089E2,5.339535E0,1.5074135E2,4.367089E1,1.07070465E2,6.9151634E1,3.7918835E1,7.017476E0,3.0901358E1,4.1661906E0,2.851286E0,1.5433819E1,2.823707E1,4.5096912E1,2.405472E1,8.924315E0,6.509504E0,1.1279798E1,1.962156E1,7.2802157E0,3.9995823E0,3.3163369E0,4.1780575E1,1.433579E1,2.7444784E1,1.3144063E1,1.1917266E0,2.5636044E1,1.8087409E0,2.538416E0,2.1516304E1],"tree_param":{"num_deleted":"0","num_feature":"10","num_nodes":"31","size_leaf_vector":"1"}}]},"name":"gbtree"},"learner_model_param":{"base_score":"5E-1","boost_from_average":"1","num_class":"2","num_feature":"10","num_target":"1"},"objective":{"name":"multi:softmax","softmax_multiclass_param":{"num_class":"2"}}},"version":[3,0,0]}