{"learner":{"attributes":{},"feature_names":["PassengerId","Pclass","Age","SibSp","Parch","Fare","Sex_male","Embarked_MISSING","Embarked_Q","Embarked_S"],"feature_types":["int","int","float","int","int","float","float","float","float","float"],"gradient_booster":{"model":{"gbtree_model_param":{"num_parallel_tree":"1","num_trees":"20"},"iteration_indptr":[0,2,4,6,8,10,12,14,16,18,20],"tree_info":[0,1,0,1,0,1,0,1,0,1,0,1,0,1,0,1,0,1,0,1],"trees":[{"base_weights":[2.576E-1,-4.511628E-1,6.262136E-1,-2.7321428E-1,4.761905E-2,-3.6363637E-1,6.785714E-1,-3.7931036E-2,2.4000001E-1,-2.6000002E-1,1.6666669E-1,2.2023122E-1,2.5E-1,1.75E-1,-2.3076925E-2],"categories":[],"categories_nodes":[],"categories_segments":[],"categories_sizes":[],"default_left":[0,0,0,0,0,0,0,0,0,0,0,0,0,0,0],"id":0,"left_children":[1,3,5,-1,7,9,11,-1,-1,-1,-1,-1,13,-1,-1],"loss_changes":[8.192615E1,2.4684084E1,1.0922989E1,0E0,6.9763546E0,5.5676765E0,4.4812164E0,0E0,0E0,0E0,0E0,0E0,2.6602564E0,0E0,0E0],"parents":[2147483647,0,0,1,1,2,2,4,4,5,5,6,6,12,12],"right_children":[2,4,6,-1,8,10,12,-1,-1,-1,-1,-1,14,-1,-1],"split_conditions":[1E0,3E0,7E0,-2.7321428E-1,2.345E1,3E0,5.25542E1,-3.7931036E-2,2.4000001E-1,-2.6000002E-1,1.6666669E-1,2.2023122E-1,4.42E2,1.75E-1,-2.3076925E-2],"split_indices":[6,1,2,0,5,3,5,0,0,0,0,0,0,0,0],"split_type":[0,0,0,0,0,0,0,0,0,0,0,0,0,0,0],"sum_hessian":[3.115E2,1.065E2,2.05E2,5.5E1,5.15E1,1E1,1.95E2,4.25E1,9E0,6.5E0,3.5E0,1.72E2,2.3E1,1.1E1,1.2E1],"tree_param":{"num_deleted":"0","num_feature":"10","num_nodes":"15","size_leaf_vector":"1"}},{"base_weights":[-2.576E-1,4.511628E-1,-6.262136E-1,2.7321428E-1,-4.761905E-2,3.6363637E-1,-6.785714E-1,3.7931036E-2,-2.4000001E-1,2.6000002E-1,-1.6666669E-1,-2.2023122E-1,-2.5E-1,-1.75E-1,2.3076925E-2],"categories":[],"categories_nodes":[],"categories_segments":[],"categories_sizes":[],"default_left":[0,0,0,0,0,0,0,0,0,0,0,0,0,0,0],"id":1,"left_children":[1,3,5,-1,7,9,11,-1,-1,-1,-1,-1,13,-1,-1],"loss_changes":[8.192615E1,2.4684084E1,1.0922989E1,0E0,6.9763546E0,5.5676765E0,4.4812164E0,0E0,0E0,0E0,0E0,0E0,2.6602564E0,0E0,0E0],"parents":[2147483647,0,0,1,1,2,2,4,4,5,5,6,6,12,12],"right_children":[2,4,6,-1,8,10,12,-1,-1,-1,-1,-1,14,-1,-1],"split_conditions":[1E0,3E0,7E0,2.7321428E-1,2.345E1,3E0,5.25542E1,3.7931036E-2,-2.4000001E-1,2.6000002E-1,-1.6666669E-1,-2.2023122E-1,4.42E2,-1.75E-1,2.3076925E-2],"split_indices":[6,1,2,0,5,3,5,0,0,0,0,0,0,0,0],"split_type":[0,0,0,0,0,0,0,0,0,0,0,0,0,0,0],"sum_hessian":[3.115E2,1.065E2,2.05E2,5.5E1,5.15E1,1E1,1.95E2,4.25E1,9E0,6.5E0,3.5E0,1.72E2,2.3E1,1.1E1,1.2E1],"tree_param":{"num_deleted":"0","num_feature":"10","num_nodes":"15","size_leaf_vector":"1"}},{"base_weights":[1.899803E-1,-3.333433E-1,4.6261817E-1,-2.0926832E-1,3.834887E-2,-2.7899742E-1,5.016015E-1,-1.0473687E-1,7.8799486E-2,2.2348404E-1,1.706889E-1,-2.053943E-1,1.3091066E-1,1.3973556E-1,-3.682958E-2],"categories":[],"categories_nodes":[],"categories_segments":[],"categories_sizes":[],"default_left":[0,0,0,0,0,0,0,0,0,0,0,0,0,0,0],"id":2,"left_children":[1,3,5,-1,7,11,9,-1,-1,13,-1,-1,-1,-1,-1],"loss_changes":[4.282889E1,1.3974661E1,5.837303E0,0E0,4.6061087E0,3.3411586E0,3.3871193E0,0E0,0E0,3.2638726E0,0E0,0E0,0E0,0E0,0E0],"parents":[2147483647,0,0,1,1,2,2,4,4,6,6,5,5,9,9],"right_children":[2,4,6,-1,8,12,10,-1,-1,14,-1,-1,-1,-1,-1],"split_conditions":[1E0,3E0,7E0,-2.0926832E-1,1E0,3E0,2E0,-1.0473687E-1,7.8799486E-2,5.88E2,1.706889E-1,-2.053943E-1,1.3091066E-1,1.3973556E-1,-3.682958E-2],"split_indices":[6,1,2,0,9,3,1,0,0,0,0,0,0,0,0],"split_type":[0,0,0,0,0,0,0,0,0,0,0,0,0,0,0],"sum_hessian":[2.9809818E2,1.0203025E2,1.9606792E2,5.109046E1,5.093979E1,9.4842205E0,1.8658371E2,1.847341E1,3.246638E1,3.722193E1,1.4936177E2,6.07967E0,3.4045503E0,2.169488E1,1.552705E1],"tree_param":{"num_deleted":"0","num_feature":"10","num_nodes":"15","size_leaf_vector":"1"}},{"base_weights":[-1.8998028E-1,3.3334333E-1,-4.6261817E-1,2.0926833E-1,-3.83489E-2,2.7899748E-1,-5.016015E-1,1.0473687E-1,-7.879949E-2,-2.2348404E-1,-1.706889E-1,2.0539431E-1,-1.3091066E-1,-1.3973556E-1,3.682958E-2],"categories":[],"categories_nodes":[],"categories_segments":[],"categories_sizes":[],"default_left":[0,0,0,0,0,0,0,0,0,0,0,0,0,0,0],"id":3,"left_children":[1,3,5,-1,7,11,9,-1,-1,13,-1,-1,-1,-1,-1],"loss_changes":[4.2828888E1,1.3974668E1,5.837307E0,0E0,4.6061087E0,3.341159E0,3.3871193E0,0E0,0E0,3.2638726E0,0E0,0E0,0E0,0E0,0E0],"parents":[2147483647,0,0,1,1,2,2,4,4,6,6,5,5,9,9],"right_children":[2,4,6,-1,8,12,10,-1,-1,14,-1,-1,-1,-1,-1],"split_conditions":[1E0,3E0,7E0,2.0926833E-1,1E0,3E0,2E0,1.0473687E-1,-7.879949E-2,5.88E2,-1.706889E-1,2.0539431E-1,-1.3091066E-1,-1.3973556E-1,3.682958E-2],"split_indices":[6,1,2,0,9,3,1,0,0,0,0,0,0,0,0],"split_type":[0,0,0,0,0,0,0,0,0,0,0,0,0,0,0],"sum_hessian":[2.9809818E2,1.0203025E2,1.9606792E2,5.109046E1,5.093979E1,9.48422E0,1.8658371E2,1.847341E1,3.2466377E1,3.722193E1,1.4936177E2,6.0796695E0,3.40455E0,2.169488E1,1.552705E1],"tree_param":{"num_deleted":"0","num_feature":"10","num_nodes":"15","size_leaf_vector":"1"}},{"base_weights":[1.4611891E-1,-2.624633E-1,3.6047798E-1,-1.7584468E-1,2.6653185E-2,-1.4857367E-1,4.0012184E-1,-2.0336014E-1,1.4892733E-1,-2.6865935E-2,1.714001E-1,1.4244984E-1,1.8517496E-1,1.3589667E-1,-4.406872E-3],"categories":[],"categories_nodes":[],"categories_segments":[],"categories_sizes":[],"default_left":[0,0,0,0,0,0,0,0,0,0,0,0,0,0,0],"id":4,"left_children":[1,3,5,-1,9,7,11,-1,-1,-1,-1,-1,13,-1,-1],"loss_changes":[2.4173388E1,8.923052E0,3.7069588E0,0E0,3.2939312E0,5.043649E0,2.6092262E0,0E0,0E0,0E0,0E0,0E0,2.4131713E0,0E0,0E0],"parents":[2147483647,0,0,1,1,2,2,5,5,4,4,6,6,12,12],"right_children":[2,4,6,-1,10,8,12,-1,-1,-1,-1,-1,14,-1,-1],"split_conditions":[1E0,3E0,1.3E1,-1.7584468E-1,2.345E1,3E0,2.62875E1,-2.0336014E-1,1.4892733E-1,-2.6865935E-2,1.714001E-1,1.4244984E-1,4.54E2,1.3589667E-1,-4.406872E-3],"split_indices":[6,1,2,0,5,3,5,0,0,0,0,0,0,0,0],"split_type":[0,0,0,0,0,0,0,0,0,0,0,0,0,0,0],"sum_hessian":[2.7392426E2,9.4182304E1,1.7974196E2,4.394996E1,5.0232346E1,1.2788026E1,1.6695393E2,6.9960337E0,5.791992E0,4.208846E1,8.143888E0,1.22994576E2,4.395936E1,1.8244997E1,2.5714361E1],"tree_param":{"num_deleted":"0","num_feature":"10","num_nodes":"15","size_leaf_vector":"1"}},{"base_weights":[-1.4611895E-1,2.6246327E-1,-3.60478E-1,1.7584468E-1,-2.6653267E-2,1.485736E-1,-4.0012184E-1,2.0336013E-1,-1.4892736E-1,2.6865913E-2,-1.7140011E-1,-1.4244984E-1,-1.8517496E-1,-1.3589667E-1,4.4068745E-3],"categories":[],"categories_nodes":[],"categories_segments":[],"categories_sizes":[],"default_left":[0,0,0,0,0,0,0,0,0,0,0,0,0,0,0],"id":5,"left_children":[1,3,5,-1,9,7,11,-1,-1,-1,-1,-1,13,-1,-1],"loss_changes":[2.4173386E1,8.923054E0,3.7069588E0,0E0,3.293931E0,5.0436497E0,2.6092262E0,0E0,0E0,0E0,0E0,0E0,2.4131713E0,0E0,0E0],"parents":[2147483647,0,0,1,1,2,2,5,5,4,4,6,6,12,12],"right_children":[2,4,6,-1,10,8,12,-1,-1,-1,-1,-1,14,-1,-1],"split_conditions":[1E0,3E0,1.3E1,1.7584468E-1,2.345E1,3E0,2.62875E1,2.0336013E-1,-1.4892736E-1,2.6865913E-2,-1.7140011E-1,-1.4244984E-1,4.54E2,-1.3589667E-1,4.4068745E-3],"split_indices":[6,1,2,0,5,3,5,0,0,0,0,0,0,0,0],"split_type":[0,0,0,0,0,0,0,0,0,0,0,0,0,0,0],"sum_hessian":[2.739243E2,9.4182304E1,1.7974197E2,4.394996E1,5.0232346E1,1.2788026E1,1.6695395E2,6.9960337E0,5.791992E0,4.2088455E1,8.143888E0,1.2299458E2,4.395936E1,1.8244997E1,2.5714361E1],"tree_param":{"num_deleted":"0","num_feature":"10","num_nodes":"15","size_leaf_vector":"1"}},{"base_weights":[1.1568374E-1,-2.0820759E-1,2.8700197E-1,-1.5330279E-1,2.357067E-2,-1.2279304E-1,3.1845582E-1,-1.6942911E-1,1.2448905E-1,-1.2134367E-2,2.003565E-1,1.08690076E-1,4.056725E-2,-1.5122847E-1,7.620279E-2],"categories":[],"categories_nodes":[],"categories_segments":[],"categories_sizes":[],"default_left":[0,0,0,0,0,0,0,0,0,0,0,0,0,0,0],"id":6,"left_children":[1,3,5,-1,9,7,11,-1,-1,-1,-1,-1,13,-1,-1],"loss_changes":[1.3887175E1,6.103115E0,2.1453438E0,0E0,2.0940843E0,3.1743386E0,1.8376884E0,0E0,0E0,0E0,0E0,0E0,2.6675978E0,0E0,0E0],"parents":[2147483647,0,0,1,1,2,2,5,5,4,4,6,6,12,12],"right_children":[2,4,6,-1,10,8,12,-1,-1,-1,-1,-1,14,-1,-1],"split_conditions":[1E0,3E0,1.3E1,-1.5330279E-1,3.7E1,3E0,5.25542E1,-1.6942911E-1,1.2448905E-1,-1.2134367E-2,2.003565E-1,1.08690076E-1,5.79792E1,-1.5122847E-1,7.620279E-2],"split_indices":[6,1,2,0,2,3,5,0,0,0,0,0,5,0,0],"split_type":[0,0,0,0,0,0,0,0,0,0,0,0,0,0,0],"sum_hessian":[2.4819435E2,8.578858E1,1.6240578E2,3.6673088E1,4.911549E1,1.13698845E1,1.5103589E2,6.2131815E0,5.1567035E0,4.5528793E1,3.5866947E0,1.3019098E2,2.0844904E1,5.4854283E0,1.5359476E1],"tree_param":{"num_deleted":"0","num_feature":"10","num_nodes":"15","size_leaf_vector":"1"}},{"base_weights":[-1.1568371E-1,2.0820753E-1,-2.8700188E-1,1.5330276E-1,-2.357066E-2,1.22793056E-1,-3.1845573E-1,1.694291E-1,-1.2448904E-1,1.213437E-2,-2.003565E-1,-1.0869005E-1,-4.0567193E-2,1.5122849E-1,-7.620278E-2],"categories":[],"categories_nodes":[],"categories_segments":[],"categories_sizes":[],"default_left":[0,0,0,0,0,0,0,0,0,0,0,0,0,0,0],"id":7,"left_children":[1,3,5,-1,9,7,11,-1,-1,-1,-1,-1,13,-1,-1],"loss_changes":[1.3887163E1,6.10311E0,2.1453438E0,0E0,2.0940845E0,3.174338E0,1.8376865E0,0E0,0E0,0E0,0E0,0E0,2.6675978E0,0E0,0E0],"parents":[2147483647,0,0,1,1,2,2,5,5,4,4,6,6,12,12],"right_children":[2,4,6,-1,10,8,12,-1,-1,-1,-1,-1,14,-1,-1],"split_conditions":[1E0,3E0,1.3E1,1.5330276E-1,3.7E1,3E0,5.25542E1,1.694291E-1,-1.2448904E-1,1.213437E-2,-2.003565E-1,-1.0869005E-1,5.79792E1,1.5122849E-1,-7.620278E-2],"split_indices":[6,1,2,0,2,3,5,0,0,0,0,0,5,0,0],"split_type":[0,0,0,0,0,0,0,0,0,0,0,0,0,0,0],"sum_hessian":[2.4819432E2,8.578857E1,1.6240575E2,3.667308E1,4.911549E1,1.13698845E1,1.5103587E2,6.213182E0,5.1567025E0,4.5528793E1,3.586695E0,1.3019096E2,2.0844904E1,5.485428E0,1.5359475E1],"tree_param":{"num_deleted":"0","num_feature":"10","num_nodes":"15","size_leaf_vector":"1"}},{"base_weights":[9.010228E-2,-1.6342105E-1,6.786744E-2,-1.3547592E-1,2.1150839E-2,-1.4343041E-1,9.890971E-2,2.0521283E-1,-3.2221305E-1,-1.0449137E-1,3.2094678E-1,2.0028402E-1,4.244075E-2,-1.7286268E-1,8.32843E-2],"categories":[],"categories_nodes":[],"categories_segments":[],"categories_sizes":[],"default_left":[0,0,0,0,0,0,0,0,0,0,0,0,0,0,0],"id":8,"left_children":[1,3,-1,-1,5,-1,7,9,13,-1,11,-1,-1,-1,-1],"loss_changes":[7.8811364E0,4.2638693E0,0E0,0E0,1.9772158E0,0E0,2.0287948E0,2.393423E0,1.5655072E0,0E0,1.7707486E0,0E0,0E0,0E0,0E0],"parents":[2147483647,0,0,1,1,4,4,6,6,7,7,10,10,8,8],"right_children":[2,4,-1,-1,6,-1,8,10,14,-1,12,-1,-1,-1,-1],"split_conditions":[1E0,3E0,6.786744E-2,-1.3547592E-1,7.7417E0,-1.4343041E-1,1E0,6E0,3.72E2,-1.0449137E-1,2.4E1,2.0028402E-1,4.244075E-2,-1.7286268E-1,8.32843E-2],"split_indices":[6,1,0,0,5,0,8,2,0,0,2,0,0,0,0],"split_type":[0,0,0,0,0,0,0,0,0,0,0,0,0,0,0],"sum_hessian":[2.2629968E2,7.8987595E1,1.4731209E2,3.0274483E1,4.8713108E1,5.8708305E0,4.2842278E1,3.461675E1,8.22553E0,5.6387825E0,2.8977966E1,8.957166E0,2.0020802E1,5.8062563E0,2.4192736E0],"tree_param":{"num_deleted":"0","num_feature":"10","num_nodes":"15","size_leaf_vector":"1"}},{"base_weights":[-9.0102315E-2,1.6342103E-1,-6.786746E-2,1.3547592E-1,-2.1150813E-2,1.4343043E-1,-9.890969E-2,-2.0521283E-1,3.2221314E-1,1.0449137E-1,-3.2094678E-1,-2.00284E-1,-4.244075E-2,1.7286271E-1,-8.3284274E-2],"categories":[],"categories_nodes":[],"categories_segments":[],"categories_sizes":[],"default_left":[0,0,0,0,0,0,0,0,0,0,0,0,0,0,0],"id":9,"left_children":[1,3,-1,-1,5,-1,7,9,13,-1,11,-1,-1,-1,-1],"loss_changes":[7.881138E0,4.263868E0,0E0,0E0,1.977216E0,0E0,2.0287957E0,2.3934233E0,1.565507E0,0E0,1.7707493E0,0E0,0E0,0E0,0E0],"parents":[2147483647,0,0,1,1,4,4,6,6,7,7,10,10,8,8],"right_children":[2,4,-1,-1,6,-1,8,10,14,-1,12,-1,-1,-1,-1],"split_conditions":[1E0,3E0,-6.786746E-2,1.3547592E-1,7.7417E0,1.4343043E-1,1E0,6E0,3.72E2,1.0449137E-1,2.4E1,-2.00284E-1,-4.244075E-2,1.7286271E-1,-8.3284274E-2],"split_indices":[6,1,0,0,5,0,8,2,0,0,2,0,0,0,0],"split_type":[0,0,0,0,0,0,0,0,0,0,0,0,0,0,0],"sum_hessian":[2.262997E2,7.898759E1,1.473121E2,3.0274477E1,4.871311E1,5.870831E0,4.284228E1,3.461675E1,8.225531E0,5.6387825E0,2.8977966E1,8.957166E0,2.0020802E1,5.806257E0,2.4192736E0],"tree_param":{"num_deleted":"0","num_feature":"10","num_nodes":"15","size_leaf_vector":"1"}},{"base_weights":[6.6792704E-2,-1.332185E-1,5.148995E-2,-1.1978756E-1,1.3049139E-2,-6.4073205E-2,1.3268913E-1,8.464952E-2,-4.138574E-1,1.5595257E-1,-1.7473239E-1,-4.290014E-2,3.4967086E-1,2.0711961E-1,-3.3317123E-2],"categories":[],"categories_nodes":[],"categories_segments":[],"categories_sizes":[],"default_left":[0,0,0,0,0,0,0,0,0,0,0,0,0,0,0],"id":10,"left_children":[1,3,-1,-1,5,7,-1,11,9,-1,-1,-1,13,-1,-1],"loss_changes":[4.453343E0,2.8549776E0,0E0,0E0,1.6245991E0,2.2068112E0,0E0,1.8674115E0,2.2900074E0,0E0,0E0,0E0,2.3073149E0,0E0,0E0],"parents":[2147483647,0,0,1,1,4,4,5,5,8,8,7,7,12,12],"right_children":[2,4,-1,-1,6,8,-1,12,10,-1,-1,-1,14,-1,-1],"split_conditions":[1E0,3E0,5.148995E-2,-1.1978756E-1,2.345E1,1.55E1,1.3268913E-1,8.05E0,4.2E1,1.5595257E-1,-1.7473239E-1,-4.290014E-2,1E0,2.0711961E-1,-3.3317123E-2],"split_indices":[6,1,0,0,5,5,0,5,0,0,0,0,4,0,0],"split_type":[0,0,0,0,0,0,0,0,0,0,0,0,0,0,0],"sum_hessian":[2.1028438E2,7.222507E1,1.3805931E2,2.5006407E1,4.721866E1,4.074822E1,6.470441E0,2.9123404E1,1.1624816E1,1.4592422E0,1.0165574E1,1.5913944E1,1.3209458E1,7.307073E0,5.902385E0],"tree_param":{"num_deleted":"0","num_feature":"10","num_nodes":"15","size_leaf_vector":"1"}},{"base_weights":[-6.67927E-2,1.3321856E-1,-5.1489957E-2,1.1978758E-1,-1.3049169E-2,6.4073175E-2,-1.3268913E-1,-8.464953E-2,4.1385737E-1,-1.559526E-1,1.7473237E-1,4.2900138E-2,-3.496709E-1,-2.0711961E-1,3.3317115E-2],"categories":[],"categories_nodes":[],"categories_segments":[],"categories_sizes":[],"default_left":[0,0,0,0,0,0,0,0,0,0,0,0,0,0,0],"id":11,"left_children":[1,3,-1,-1,5,7,-1,11,9,-1,-1,-1,13,-1,-1],"loss_changes":[4.4533463E0,2.8549802E0,0E0,0E0,1.6245993E0,2.206811E0,0E0,1.8674116E0,2.2900069E0,0E0,0E0,0E0,2.3073149E0,0E0,0E0],"parents":[2147483647,0,0,1,1,4,4,5,5,8,8,7,7,12,12],"right_children":[2,4,-1,-1,6,8,-1,12,10,-1,-1,-1,14,-1,-1],"split_conditions":[1E0,3E0,-5.1489957E-2,1.1978758E-1,2.345E1,1.55E1,-1.3268913E-1,8.05E0,4.2E1,-1.559526E-1,1.7473237E-1,4.2900138E-2,1E0,-2.0711961E-1,3.3317115E-2],"split_indices":[6,1,0,0,5,5,0,5,0,0,0,0,4,0,0],"split_type":[0,0,0,0,0,0,0,0,0,0,0,0,0,0,0],"sum_hessian":[2.102844E2,7.2225075E1,1.3805931E2,2.5006416E1,4.721866E1,4.074822E1,6.470441E0,2.9123404E1,1.1624816E1,1.4592422E0,1.0165574E1,1.5913945E1,1.3209458E1,7.307073E0,5.902385E0],"tree_param":{"num_deleted":"0","num_feature":"10","num_nodes":"15","size_leaf_vector":"1"}},{"base_weights":[5.0847E-2,-1.03372306E-1,1.2836795E-1,-1.05083466E-1,4.92482E-3,-2.233358E-2,1.894927E-1,5.763772E-2,1.1869473E-1,7.158462E-2,-1.3275799E-1,-2.5312635E-1,-1.2101355E-2,1.2927374E-1,-5.082696E-2],"categories":[],"categories_nodes":[],"categories_segments":[],"categories_sizes":[],"default_left":[0,0,0,0,0,0,0,0,0,0,0,0,0,0,0],"id":12,"left_children":[1,3,5,-1,-1,-1,7,9,-1,-1,11,-1,13,-1,-1],"loss_changes":[2.3760915E0,1.9775388E0,1.6501486E0,0E0,0E0,0E0,2.7414303E0,2.2091324E0,0E0,0E0,2.6867077E0,0E0,2.0169015E0,0E0,0E0],"parents":[2147483647,0,0,1,1,2,2,6,6,7,7,10,10,12,12],"right_children":[2,4,6,-1,-1,-1,8,10,-1,-1,12,-1,14,-1,-1],"split_conditions":[1E0,3E0,2E0,-1.05083466E-1,4.92482E-3,-2.233358E-2,5.84E2,2.57E2,1.1869473E-1,7.158462E-2,3.08E2,-2.5312635E-1,3.88E2,1.2927374E-1,-5.082696E-2],"split_indices":[6,1,1,0,0,0,0,0,0,0,0,0,0,0,0],"split_type":[0,0,0,0,0,0,0,0,0,0,0,0,0,0,0],"sum_hessian":[1.9663925E2,6.566752E1,1.3097173E2,2.0823112E1,4.484441E1,3.0280964E1,1.00690765E2,6.219269E1,3.849807E1,3.175511E1,3.0437584E1,3.5464292E0,2.6891155E1,6.591271E0,2.0299883E1],"tree_param":{"num_deleted":"0","num_feature":"10","num_nodes":"15","size_leaf_vector":"1"}},{"base_weights":[-5.0846964E-2,1.03372306E-1,-1.283679E-1,1.05083466E-1,-4.9248175E-3,2.2333585E-2,-1.8949267E-1,-5.7637665E-2,-1.1869473E-1,-7.158461E-2,1.3275808E-1,2.5312638E-1,1.2101428E-2,-1.2927374E-1,5.0826985E-2],"categories":[],"categories_nodes":[],"categories_segments":[],"categories_sizes":[],"default_left":[0,0,0,0,0,0,0,0,0,0,0,0,0,0,0],"id":13,"left_children":[1,3,5,-1,-1,-1,7,9,-1,-1,11,-1,13,-1,-1],"loss_changes":[2.3760905E0,1.9775387E0,1.6501482E0,0E0,0E0,0E0,2.74143E0,2.2091327E0,0E0,0E0,2.686708E0,0E0,2.0169015E0,0E0,0E0],"parents":[2147483647,0,0,1,1,2,2,6,6,7,7,10,10,12,12],"right_children":[2,4,6,-1,-1,-1,8,10,-1,-1,12,-1,14,-1,-1],"split_conditions":[1E0,3E0,2E0,1.05083466E-1,-4.9248175E-3,2.2333585E-2,5.84E2,2.57E2,-1.1869473E-1,-7.158461E-2,3.08E2,2.5312638E-1,3.88E2,-1.2927374E-1,5.0826985E-2],"split_indices":[6,1,1,0,0,0,0,0,0,0,0,0,0,0,0],"split_type":[0,0,0,0,0,0,0,0,0,0,0,0,0,0,0],"sum_hessian":[1.9663924E2,6.566752E1,1.3097171E2,2.0823112E1,4.484441E1,3.0280964E1,1.0069075E2,6.2192684E1,3.8498066E1,3.1755106E1,3.0437578E1,3.5464287E0,2.689115E1,6.5912704E0,2.029988E1],"tree_param":{"num_deleted":"0","num_feature":"10","num_nodes":"15","size_leaf_vector":"1"}},{"base_weights":[3.900357E-2,-1.2929706E-1,1.04787156E-1,-2.2623038E-2,-4.0148094E-1,-3.8300797E-2,1.748785E-1,-1.6889319E-1,3.6799874E-2,-5.70599E-2,1.3223375E-1,6.756765E-2,-1.6636778E-2,-1.7140368E-1,3.0504603E-2],"categories":[],"categories_nodes":[],"categories_segments":[],"categories_sizes":[],"default_left":[0,0,0,0,0,0,0,0,0,0,0,0,0,0,0],"id":14,"left_children":[1,3,9,5,7,-1,-1,-1,-1,-1,11,-1,13,-1,-1],"loss_changes":[2.1061568E0,1.5461519E0,1.1298677E0,2.5897248E0,1.340657E0,0E0,0E0,0E0,0E0,0E0,1.7400396E0,0E0,3.2841485E0,0E0,0E0],"parents":[2147483647,0,0,1,1,3,3,4,4,2,2,10,10,12,12],"right_children":[2,4,10,6,8,-1,-1,-1,-1,-1,12,-1,14,-1,-1],"split_conditions":[1E0,3.05E1,9E0,3E1,6.85E2,-3.8300797E-2,1.748785E-1,-1.6889319E-1,3.6799874E-2,-5.70599E-2,3.1E1,6.756765E-2,3.3E1,-1.7140368E-1,3.0504603E-2],"split_indices":[9,5,2,2,0,0,0,0,0,0,2,0,2,0,0],"split_type":[0,0,0,0,0,0,0,0,0,0,0,0,0,0,0],"sum_hessian":[1.8800993E2,5.256422E1,1.3544572E2,3.8541996E1,1.4022223E1,3.3516914E1,5.0250826E0,1.0662799E1,3.3594246E0,1.102482E1,1.244209E2,7.6267586E1,4.8153313E1,7.792273E0,4.036104E1],"tree_param":{"num_deleted":"0","num_feature":"10","num_nodes":"15","size_leaf_vector":"1"}},{"base_weights":[-3.9003547E-2,1.2929706E-1,-1.04787126E-1,2.262304E-2,4.0148094E-1,3.8300797E-2,-1.748785E-1,1.6889319E-1,-3.679987E-2,5.70599E-2,-1.3223372E-1,-6.756764E-2,1.6636807E-2,1.7140368E-1,-3.0504594E-2],"categories":[],"categories_nodes":[],"categories_segments":[],"categories_sizes":[],"default_left":[0,0,0,0,0,0,0,0,0,0,0,0,0,0,0],"id":15,"left_children":[1,3,9,5,7,-1,-1,-1,-1,-1,11,-1,13,-1,-1],"loss_changes":[2.1061566E0,1.5461519E0,1.1298673E0,2.5897243E0,1.340657E0,0E0,0E0,0E0,0E0,0E0,1.7400396E0,0E0,3.2841485E0,0E0,0E0],"parents":[2147483647,0,0,1,1,3,3,4,4,2,2,10,10,12,12],"right_children":[2,4,10,6,8,-1,-1,-1,-1,-1,12,-1,14,-1,-1],"split_conditions":[1E0,3.05E1,9E0,3E1,6.85E2,3.8300797E-2,-1.748785E-1,1.6889319E-1,-3.679987E-2,5.70599E-2,3.1E1,-6.756764E-2,3.3E1,1.7140368E-1,-3.0504594E-2],"split_indices":[9,5,2,2,0,0,0,0,0,0,2,0,2,0,0],"split_type":[0,0,0,0,0,0,0,0,0,0,0,0,0,0,0],"sum_hessian":[1.8800993E2,5.2564217E1,1.3544571E2,3.8541996E1,1.4022223E1,3.3516914E1,5.025082E0,1.0662799E1,3.3594244E0,1.102482E1,1.2442089E2,7.6267586E1,4.8153313E1,7.7922735E0,4.036104E1],"tree_param":{"num_deleted":"0","num_feature":"10","num_nodes":"15","size_leaf_vector":"1"}},{"base_weights":[2.8849429E-2,1.4051658E-1,7.7834614E-3,-1.20628685E-1,1.7929593E-2,-3.2110098E-1,4.4276146E-3,9.031301E-2,-4.4813228E-1,-2.7890435E-1,-3.218186E-1,-1.2908195E-1,7.3914334E-2,-1.6587296E-1,1.741237E-2],"categories":[],"categories_nodes":[],"categories_segments":[],"categories_sizes":[],"default_left":[0,0,0,0,0,0,0,0,0,0,0,0,0,0,0],"id":16,"left_children":[1,-1,3,5,-1,7,13,-1,9,11,-1,-1,-1,-1,-1],"loss_changes":[1.6974629E0,0E0,1.18425E0,1.283592E0,0E0,1.6887412E0,1.0026845E0,0E0,1.4690509E0,1.2600479E0,0E0,0E0,0E0,0E0,0E0],"parents":[2147483647,0,0,2,2,3,3,5,5,8,8,9,9,6,6],"right_children":[2,-1,4,6,-1,8,14,-1,10,12,-1,-1,-1,-1,-1],"split_conditions":[7.1417E0,1.4051658E-1,1E0,2.9699118E1,1.7929593E-2,1.17E2,3.8E1,9.031301E-2,2.6E1,1E0,-3.218186E-1,-1.2908195E-1,7.3914334E-2,-1.6587296E-1,1.741237E-2],"split_indices":[5,0,9,2,0,0,0,0,2,8,0,0,0,0,0],"split_type":[0,0,0,0,0,0,0,0,0,0,0,0,0,0,0],"sum_hessian":[1.8271858E2,7.3855476E0,1.7533302E2,5.0142952E1,1.2519008E2,1.8660872E1,3.1482082E1,2.9318924E0,1.5728979E1,1.3514028E1,2.2149508E0,1.063133E1,2.8826983E0,1.9454455E0,2.9536636E1],"tree_param":{"num_deleted":"0","num_feature":"10","num_nodes":"15","size_leaf_vector":"1"}},{"base_weights":[-2.8849425E-2,-1.4051656E-1,-7.7834586E-3,1.2062869E-1,-1.7929593E-2,3.21101E-1,-4.427606E-3,-9.031302E-2,4.481323E-1,2.7890435E-1,3.2181865E-1,1.2908196E-1,-7.391432E-2,1.6587295E-1,-1.7412366E-2],"categories":[],"categories_nodes":[],"categories_segments":[],"categories_sizes":[],"default_left":[0,0,0,0,0,0,0,0,0,0,0,0,0,0,0],"id":17,"left_children":[1,-1,3,5,-1,7,13,-1,9,11,-1,-1,-1,-1,-1],"loss_changes":[1.6974627E0,0E0,1.18425E0,1.283592E0,0E0,1.6887419E0,1.0026845E0,0E0,1.4690502E0,1.260048E0,0E0,0E0,0E0,0E0,0E0],"parents":[2147483647,0,0,2,2,3,3,5,5,8,8,9,9,6,6],"right_children":[2,-1,4,6,-1,8,14,-1,10,12,-1,-1,-1,-1,-1],"split_conditions":[7.1417E0,-1.4051656E-1,1E0,2.9699118E1,-1.7929593E-2,1.17E2,3.8E1,-9.031302E-2,2.6E1,1E0,3.2181865E-1,1.2908196E-1,-7.391432E-2,1.6587295E-1,-1.7412366E-2],"split_indices":[5,0,9,2,0,0,0,0,2,8,0,0,0,0,0],"split_type":[0,0,0,0,0,0,0,0,0,0,0,0,0,0,0],"sum_hessian":[1.8271857E2,7.3855476E0,1.7533302E2,5.0142952E1,1.2519007E2,1.8660872E1,3.1482082E1,2.9318926E0,1.5728978E1,1.3514028E1,2.2149506E0,1.063133E1,2.8826983E0,1.9454458E0,2.9536636E1],"tree_param":{"num_deleted":"0","num_feature":"10","num_nodes":"15","size_leaf_vector":"1"}},{"base_weights":[1.954957E-2,1.237474E-1,3.171814E-3,-9.991496E-2,5.8687832E-2,-2.636063E-1,8.797806E-2,-1.8208471E-1,7.912668E-2,1.2485423E-2,1.0505218E-1,-9.1001466E-2,-1.2208152E-2,-1.4646591E-1,1.7884377E-2],"categories":[],"categories_nodes":[],"categories_segments":[],"categories_sizes":[],"default_left":[0,0,0,0,0,0,0,0,0,0,0,0,0,0,0],"id":18,"left_children":[1,-1,3,11,5,7,9,-1,-1,-1,-1,-1,13,-1,-1],"loss_changes":[1.1594253E0,0E0,1.0025475E0,1.0905193E0,1.0977094E0,1.9223871E0,1.2628648E0,0E0,0E0,0E0,0E0,0E0,1.5298188E0,0E0,0E0],"parents":[2147483647,0,0,2,2,4,4,5,5,6,6,3,3,12,12],"right_children":[2,-1,4,12,6,8,10,-1,-1,-1,-1,-1,14,-1,-1],"split_conditions":[7.1417E0,1.237474E-1,1E0,3E0,1E1,3E0,7.47E2,-1.8208471E-1,7.912668E-2,1.2485423E-2,1.0505218E-1,-9.1001466E-2,7.7417E0,-1.4646591E-1,1.7884377E-2],"split_indices":[5,0,6,1,2,3,0,0,0,0,0,0,5,0,0],"split_type":[0,0,0,0,0,0,0,0,0,0,0,0,0,0,0],"sum_hessian":[1.7936406E2,6.2090054E0,1.7315506E2,6.0329838E1,1.1282522E2,8.732925E0,1.0409229E2,5.197888E0,3.5350378E0,8.943723E1,1.4655057E1,1.7434496E1,4.289534E1,4.8636317E0,3.8031708E1],"tree_param":{"num_deleted":"0","num_feature":"10","num_nodes":"15","size_leaf_vector":"1"}},{"base_weights":[-1.9549584E-2,-1.2374741E-1,-3.17183E-3,9.9914946E-2,-5.868785E-2,2.6360628E-1,-8.797808E-2,1.8208471E-1,-7.9126686E-2,-1.2485428E-2,-1.0505218E-1,9.100147E-2,1.2208127E-2,1.4646591E-1,-1.7884387E-2],"categories":[],"categories_nodes":[],"categories_segments":[],"categories_sizes":[],"default_left":[0,0,0,0,0,0,0,0,0,0,0,0,0,0,0],"id":19,"left_children":[1,-1,3,11,5,7,9,-1,-1,-1,-1,-1,13,-1,-1],"loss_changes":[1.1594253E0,0E0,1.0025475E0,1.0905198E0,1.0977095E0,1.9223872E0,1.2628648E0,0E0,0E0,0E0,0E0,0E0,1.529819E0,0E0,0E0],"parents":[2147483647,0,0,2,2,4,4,5,5,6,6,3,3,12,12],"right_children":[2,-1,4,12,6,8,10,-1,-1,-1,-1,-1,14,-1,-1],"split_conditions":[7.1417E0,-1.2374741E-1,1E0,3E0,1E1,3E0,7.47E2,1.8208471E-1,-7.9126686E-2,-1.2485428E-2,-1.0505218E-1,9.100147E-2,7.7417E0,1.4646591E-1,-1.7884387E-2],"split_indices":[5,0,6,1,2,3,0,0,0,0,0,0,5,0,0],"split_type":[0,0,0,0,0,0,0,0,0,0,0,0,0,0,0],"sum_hessian":[1.7936406E2,6.2090054E0,1.7315506E2,6.0329838E1,1.1282522E2,8.732926E0,1.0409229E2,5.197888E0,3.535038E0,8.943724E1,1.4655057E1,1.7434496E1,4.289534E1,4.863632E0,3.8031708E1],"tree_param":{"num_deleted":"0","num_feature":"10","num_nodes":"15","size_leaf_vector":"1"}}]},"name":"gbtree"},"learner_model_param":{"base_score":"5E-1","boost_from_average":"1","num_class":"2","num_feature":"10","num_target":"1"},"objective":{"name":"multi:softmax","softmax_multiclass_param":{"num_class":"2"}}},"version":[3,0,0]}